2.079989637746153600e-02 -7.801794051792668161e-02 1.259709700273011768e-01 2.117743789363357373e-02 8.024830857631387593e-02 7.800474510508884074e-02 1.112914596521131089e-01 -3.253679707962155859e-02 -5.953308138285823281e-02 3.224205058787771305e-02 1.050019632450357454e-01 6.539824254070103482e-02 6.767813346521345599e-03 1.176008174801519146e-01 1.047559639587251033e-02 -1.181686522752233015e-02 -1.692324408905768879e-02 1.226571084457053623e-01 1.096567989076548955e-01 8.256927950056369703e-02 6.428448620062032770e-02 3.714362912897506419e-02 5.962780014819789309e-02 1.178924398953631880e-01 5.885712210113248823e-04 -4.924592714747204336e-02 6.008213620616136008e-02 1.084252169061662996e-01 1.293233391510160424e-01 -5.943161565963938492e-02 9.308812093842723165e-03 -8.972845178170317515e-02 1.025178159820687301e-01 4.544192630170967862e-02 2.771152539161601119e-02 -2.632939350030118544e-02 5.448724997218942767e-02 -7.582637129066219228e-02 -5.225041778468367953e-02 3.728120936109573930e-02 1.379489788140078263e-02 7.453622064366867417e-02 -2.545143435019079498e-02 1.227784538519016005e-01 1.229624049889954662e-01 -1.130942788860109065e-02 -3.064732160583319431e-02 -2.037566278636171457e-02 -4.865686614651548031e-02 -2.032781123612550922e-02 -2.610272592709445005e-02 3.533258356621725438e-02 8.798000784646610450e-02 5.061885532987440289e-02 -8.051835101508117432e-02 4.404963720280881401e-02 -5.751036296251464675e-02 6.693817615341728089e-02 -1.770890707918830465e-01 -4.339911937042192219e-02 -3.645277042445577154e-02 4.069547043027437611e-02 1.145863727232149382e-01 -3.125526640453175908e-02 4.155741745388644853e-02 -2.410728264064204013e-02 -5.824775619766688062e-02 -5.467963603584836962e-02 1.063564463981128347e-02 5.126094405427333162e-02 5.627884528740113856e-02 -4.074336228940636517e-02 -6.397318408967588022e-02 5.020448552234225287e-02 1.818689531550641766e-02 -8.865357020865864690e-02 -3.956349516148152667e-02 1.918692298144502803e-02 -8.128997946488539239e-02 -8.818540940642097259e-02 7.866212848984470429e-02 -4.604723035329412462e-02 2.061101951923739392e-02 -4.116221350433656168e-02 1.795904267967643117e-02 -1.320241715209243827e-01 -1.043702113956099936e-01 -1.207531372959979275e-02 -9.216792719643070175e-02 5.257679506171657885e-02 -1.764604639313440554e-02 -7.537311269329229069e-02 -1.470974172312630853e-03 -1.603084631664792800e-02 -1.194363935275736671e-01 -1.858069936223856120e-02 -3.433204606727693897e-02 8.016046476051828795e-02 2.640147430454952912e-02 1.508246308912412348e-01 4.438342532025142673e-02 8.151059614812994347e-02 6.857623851924418701e-02 -2.478135981719839162e-02 1.086667974173952805e-01 -2.460354725246519450e-02 -1.168125187808476684e-01 -2.032597359067172052e-02 7.528996727435645353e-02 -1.308263627813754104e-01 1.469876692888254788e-01 1.308252333844694137e-01 -6.691743829167311197e-02 -1.018201938120934236e-01 -1.030534736688761277e-01 5.603720346237475725e-02 -6.216404415423153890e-02 -7.473337103125109182e-02 -4.311723890691625261e-02 4.827419131055436796e-02 5.258714019222771735e-02 -2.776944271192122865e-02 4.666936023879647566e-02 -1.001398257867822626e-02 -8.028837503282362786e-02 -1.478569683190619245e-02 7.521388571059731132e-02 -4.515056339033764882e-02 -1.025990869553041196e-01 -1.091547542168495172e-01 -1.264840388254994397e-01 -8.292017554185036887e-02 1.078178657342173177e-02 -1.315213794969017636e-01 -1.237380894939356379e-01 -2.964728090102929786e-02 -8.317821669631451920e-02 -4.264249302607883707e-02 -5.851456974962203350e-02 -1.398666595243173438e-01 5.996892228180503853e-02 -1.100187912317800165e-01 -1.515044660260389357e-02 8.067356978954736205e-03 3.264696919183383839e-02 3.550526947736485500e-02 -5.347489194591762557e-02 2.428599829958012768e-02 -1.067969199805134800e-01 7.613322788675029595e-02 -4.334376146271337604e-02 9.750720937020318502e-02 5.503112373169726131e-03 -1.389833282141494930e-02 1.205931950694171841e-02 4.796263575804712159e-02 -1.745038996086755237e-02 -4.757315054709303735e-03 2.001210395633637798e-02 -8.646538977450919650e-02 -8.539156161791468247e-02 -5.800862037672168542e-02 -1.014523568434304163e-01 -3.344011593989752729e-02 1.085028031453307423e-01 -1.063933625135608796e-01 -6.821025746711001370e-02 6.283617976591029941e-02 3.166333231235799600e-02 -8.999815861356080804e-02 6.439699644962659786e-02 -3.297405848952560115e-02 -1.145882345874926211e-01 -5.825768934918191394e-02 9.535115129108094265e-03 -9.537506286253852328e-02 4.938556626010592171e-02 -2.132744660447152482e-02 6.231479428337909077e-02 1.059460272940170728e-01 1.195552123792424509e-01 1.058660110540570742e-01 -3.629932421818056476e-02 2.289018376732404603e-02 6.143751008704020217e-02 1.052844021802531484e-02 -6.945805262358810406e-02 -6.966994665427858613e-02 -3.915852762095454326e-02 -7.473070787297983464e-02 -1.253888132699275959e-01 7.629901997666217739e-02
-1.060924463588578670e-01 -1.050654638379186490e-02 2.213693888215181177e-02 -2.160527244199716285e-02 9.268925282363878193e-02 -1.175703245895753923e-01 -3.510792193392059390e-02 -4.000927828573820622e-02 -2.916460366596802453e-02 -5.774709542708455351e-02 -1.525744048281777116e-03 1.003529147507860840e-02 -1.699831285519266821e-02 5.492064960770429161e-02 -8.798753425702036945e-02 -8.064194869511227826e-02 9.233016666583145071e-02 -2.536149818035119893e-02 1.444008330682086672e-01 -8.948306715015844071e-02 -9.058256839285713791e-02 -3.642802451888087906e-02 1.740206254809596037e-02 1.093602498064398174e-02 -7.065038439873876086e-02 -7.138538521158417638e-02 -1.767698795814171345e-02 -1.026099308243495489e-01 -5.694188202635642321e-02 -2.591060778662481606e-02 -9.415569093261037803e-02 9.153435950136090682e-02 -3.425528531703490864e-02 4.854749545950848288e-02 -3.763746875235169514e-02 1.828962803189022185e-02 1.431125318768940169e-01 7.817954286150784193e-02 7.265535035340878189e-02 1.196191310256818942e-02 -2.028909674254878587e-02 4.822712617463986023e-02 8.868006926252343380e-02 -2.582840534246488851e-02 6.733352777461509842e-02 -5.603524345963378089e-03 7.816255918573654024e-04 4.842338920661341112e-02 -1.492634920354347638e-01 -1.209156599630090423e-01 -4.500094244087975148e-02 -4.388818859525260574e-02 7.235527374546948422e-03 -5.204519392373735398e-02 -6.275290432425435078e-03 -9.153687952606479050e-02 -2.995576136883669471e-02 -6.450538469157408861e-02 1.001888268000109827e-01 -4.847953288189969789e-02 6.760681418314908042e-02 1.510900341008706849e-01 8.171470299085753508e-02 8.883964988736044177e-02 -4.913504117545748617e-02 -8.283292154538916818e-02 4.902105769104041222e-02 7.417236254972039977e-02 2.488547680856773026e-02 -1.597302034010816482e-02 -1.115336317546670036e-01 -1.188950221445592009e-01 -7.728989409754898066e-02 -5.818929451085366744e-02 -1.051004221980954105e-02 -6.211484354738354419e-02 9.117372239410841128e-02 5.818172408024594074e-03 -8.145891648151112885e-02 -9.373569003961142176e-02 -7.897847584370332880e-03 1.623348918335017904e-02 -2.167437667306975138e-02 2.089689576732340487e-02 7.700814835652398244e-03 -4.964442036298519212e-03 3.643825875419508947e-02 6.499720271327334709e-02 2.085756773864556879e-02 8.851195170315860616e-02 2.628191352010786005e-02 -9.277945305622727762e-03 -2.953359409388515294e-02 9.540627309648146842e-03 -9.796773878770123622e-02 5.946889694221843548e-03 -8.824894925300397208e-02 6.181826122274222679e-02 3.733134612689764653e-02 -1.184960313183637398e-01 -1.012662652251954537e-01 8.204962248644830092e-02 -5.318595020991165323e-02 6.296446374995001705e-02 3.152077903907568677e-03 1.422744378621501604e-02 -2.232148671708366824e-02 1.109538069864262483e-01 1.102571489603158122e-01 -3.580142533024843754e-02 8.651163224142663366e-02 1.348670675704492505e-01 -2.771408664215747452e-03 8.073037577509666052e-02 1.587789284623314021e-02 2.356258476304767813e-02 -1.614497898142325596e-02 6.008153535716954929e-02 -6.076443758228567554e-02 9.326521815638895430e-02 -4.536901014868983256e-02 -1.296996438438134669e-02 -1.998188266257393958e-02 -1.128990392148744443e-01 4.458846297869008268e-02 -2.946851109950029881e-03 1.016626587841207990e-01 -8.812648595524450248e-03 -5.930636427908281706e-04 -8.185827146797582457e-03 1.313942475531101606e-01 -3.229279957484564728e-02 1.013225671316530657e-01 5.911907200587713379e-02 5.518997496876473091e-02 1.131134637939737869e-01 3.514445238184772669e-02 -4.301415475314094780e-03 1.001394227114993096e-01 8.299761433191317483e-02 1.191479008374763393e-01 9.846642500538051179e-02 6.854880718292777342e-02 1.275833399582793626e-01 -4.882492821831110191e-02 6.509310641872338710e-02 1.224190563487461553e-02 -6.326672150491624569e-03 -1.337651228034180684e-01 1.591212676489349165e-01 -7.586979160523539545e-02 -1.081033394217576216e-01 1.727836636503311818e-02 -2.875641317047938905e-02 9.054338712771027586e-02 1.088399974271017090e-01 7.464210628099782197e-02 6.324706622315688642e-02 -6.253068896209250382e-02 3.395016749955357543e-02 6.820038666936685187e-03 -1.101320731838402595e-01 1.253593515128072766e-01 7.833138545966983335e-02 6.972227503503243551e-02 1.076310416262036933e-02 1.046724616930232582e-01 6.990566179322836582e-02 -3.660795668215607174e-02 -7.595597494631596558e-02 1.173113808802873637e-01 6.628880766556365101e-02 -1.415484109340409968e-01 -2.557686613284612664e-02 5.829393604223888359e-02 -5.220031678644330986e-02 1.864574529850994769e-02 -1.208823452261168635e-01 -1.004406561591394131e-01 -9.026519913117223015e-02 1.829474657585482625e-02 -1.061641748256233891e-01 9.152109253032884861e-02 9.676128358328323076e-02 1.365541777773477683e-01 -3.691376528714069433e-02 -6.716131625197824251e-02 3.768464838502166153e-02 2.492460639291141367e-02 1.010156876744655596e-01 -4.091826370483814430e-03 -2.228179711756230613e-02
9.198222004526804274e-02 8.150626783681846899e-02 6.095394600706906252e-02 2.146331729153157231e-02 -5.238668632267712982e-02 6.699348184708343867e-02 5.364862794334823021e-02 9.672741668643619617e-02 -1.185390392325076786e-01 -9.603157216822659492e-02 1.346008852900665020e-01 -4.107256511641759616e-02 -5.617773307441487063e-02 7.536806811585856913e-02 -7.967460724664297833e-02 5.317644204360680305e-02 2.761349271585899698e-02 -8.890879294416158263e-02 3.904271291084182582e-02 -6.882937656447535302e-02 -8.481154435247897916e-02 1.252707375936931711e-01 1.187478166332937499e-02 1.129384979787574350e-01 5.239772706777003422e-03 2.427776285822374591e-05 8.820957910465564156e-02 -9.755760522300260806e-03 5.084335840920814475e-02 6.221855505530629604e-02 1.044568544961554796e-01 9.779306979115154341e-02 1.084394604342277801e-01 -6.083466601310585919e-02 1.233788575365755008e-01 5.721497430933420586e-02 1.026873028784310582e-01 -4.727218480498559389e-02 1.172502388601460166e-01 -9.842873404778733348e-03 -4.738842159435281698e-02 4.314223507000228275e-02 2.412458053810927899e-02 6.710995588741550111e-02 2.142189163256808665e-02 5.021705305486341307e-04 -8.523807416107431756e-02 -9.546578991100963807e-02 -7.285439734517949739e-02 -8.794178733433734296e-02 3.071302903975868179e-02 9.134541541155424826e-02 3.721945286903081268e-02 3.883690126044104379e-02 -9.761663349343489837e-02 -1.158614864099423436e-02 3.208421828404384168e-02 7.491175188824850811e-03 -1.042896759991241845e-01 -8.958223844726618049e-03 2.609283708961120454e-02 4.088790008780936874e-02 -7.299245976060157737e-02 1.203405354092480228e-01 -6.513420103792066929e-02 1.074081773281672925e-01 5.822037590867467326e-03 5.210024449513631778e-02 -9.381323725118942414e-02 -3.509777233304157279e-02 -8.470966803050437866e-02 3.589982580365098236e-02 -2.951407487081075462e-02 3.508616391245932692e-02 1.863494454308698214e-02 1.080445582008642408e-01 1.005329486683514961e-01 -7.312661273650770954e-02 7.906246726119192658e-02 -9.973628209171152281e-02 -8.207278499615213926e-03 4.500504273612880406e-03 6.090114286673877116e-03 -6.710131372561765895e-02 1.054008951124295740e-01 1.290399403661812994e-01 7.259542143638335332e-02 6.685862257907686235e-02 -4.470086576936653511e-02 4.501509984514124457e-02 -4.953388829779938746e-02 3.100543681261674206e-02 4.463275416062672390e-02 1.002635516128107529e-01 1.185833492613078688e-01 1.154194562524550882e-01 4.198175810709513928e-02 -6.099478920943242344e-02 1.045353186434966053e-01 -4.478502980270072931e-02 -5.742865448607420431e-02 1.089374172540525793e-01 -7.615852943513465312e-02 4.966269452856660743e-02 -1.199565073944620364e-01 1.278596437888612769e-01 2.319399240029106427e-02 -5.017906241239264431e-02 -3.651976577281234454e-02 -2.337796094415153791e-02 -7.584967665415914828e-02 -4.388077962561779538e-02 -8.186642984718045524e-02 -8.832960037471618286e-02 1.310546642942091444e-01 6.370520738761009660e-02 6.577537873268575475e-02 1.210791715044001599e-01 -8.799482557236695812e-02 8.239955057596505539e-02 8.027755035391574701e-02 -1.087840688516529125e-01 -3.396489725490799139e-02 -5.141838695300136874e-02 3.777898353582317265e-02 -9.672956086173173373e-02 -1.006344359736459776e-01 -6.977666475202844165e-02 -1.174379067333971433e-01 8.663706505689182380e-02 4.573944986147630148e-02 -9.532084004571549085e-02 -3.019531261428787250e-02 -2.457524868943012503e-02 -9.219019070762904389e-02 7.494463030280128224e-02 2.007538705395237738e-02 -1.476434095771506361e-01 -4.201683410089442766e-02 -9.387872990744784707e-02 -6.052094261559366750e-02 4.641771162535898027e-02 -1.956849060543542143e-02 2.407590272903657822e-03 -5.314446034376409111e-02 2.932243415496967737e-03 3.445505561541976208e-02 9.252238249439090345e-02 -4.684847942718622926e-02 8.161346790354584435e-02 6.979589786103791715e-02 4.075625383506061017e-02 1.366584299379256136e-02 1.190120419489716780e-01 -9.078864720256750453e-02 -9.543302705472425651e-02 1.640871811890410453e-02 -3.370304701063014940e-02 1.044409336111147557e-01 9.310196331076006637e-03 6.798844267038954559e-02 9.957600474605179941e-02 4.268167945096255217e-02 -3.989761633612937120e-02 -3.409718643516390646e-02 3.380657915398677799e-02 1.093561961911360958e-01 2.458598929682390480e-02 7.102829300893830078e-02 -4.065678556155574025e-02 -3.625627101782103595e-02 3.546816231474890502e-02 -5.511178880462720003e-02 1.099765548105160751e-01 5.769441983472269053e-02 6.039386490671761788e-03 -4.597590684695519042e-02 4.664257476328508012e-02 6.345845969425546740e-02 2.403643333329650786e-02 6.553558484840596443e-02 -4.037358888000007473e-02 -8.378410539690445136e-02 1.243067235775268398e-01 1.021291940755126269e-02 -1.018609793326975682e-01 1.470706168935840066e-02 -6.218999112907553500e-02 -4.658244482195317976e-02 7.828577146486734306e-02 6.242503811427117799e-02 3.172003809092069360e-02
1.194748071145099594e-01 -7.534316513981460794e-02 1.906712738306308094e-02 4.159433101861978455e-02 -7.230769080484751588e-02 -7.860508494473512908e-03 -1.855550918877459099e-02 -9.105608109458519783e-02 -1.119702978421557721e-01 1.054915223103963968e-02 -9.492056554745045838e-02 -2.642678207682475078e-02 -1.805203238256825960e-03 4.861321553748754361e-03 4.048283815743800723e-02 -5.989403329927396082e-03 -8.932938133803333680e-02 -8.406325282005973343e-02 3.580696169819534008e-02 -3.092813234763301319e-02 -8.002729796317190059e-02 -8.639639679942079376e-02 -9.329131883989764951e-02 -5.193629785166160862e-02 -9.481307965048686379e-03 1.306509704926094584e-01 1.231101379513769162e-01 1.345518239341270961e-01 -2.966924686531041341e-02 -8.983901389695332640e-02 9.876729090538942379e-02 9.276306015226615242e-02 2.640368962117941448e-02 6.334001629480695561e-02 7.853457107574129958e-02 -3.664999050089349369e-02 -7.008353061029362618e-02 1.173113840483547832e-01 1.244021424961931771e-01 8.458116278894592388e-02 3.731320736040439484e-02 -7.559068579931177423e-02 -9.256879684388744436e-03 1.408067196659239517e-01 9.042134972259498887e-03 1.285479742682001743e-04 1.016213385086378873e-01 -4.918782608873171341e-02 -1.527179636614962518e-02 -4.763558375899740183e-02 -5.681599012496325179e-02 4.206405983293058648e-02 3.508367974109255494e-02 9.649106077369133672e-02 1.116851585027156119e-01 6.491794234652790985e-02 4.495295399217309751e-02 -8.825177814328717674e-02 1.325146478486386170e-01 2.212079042347923907e-02 -1.867190418386737230e-02 1.021445060083215305e-02 1.072293022854090699e-01 1.064711323038080998e-01 8.831447475420182991e-02 5.644728510621548068e-02 1.122402879858155483e-01 -1.024492823274419928e-01 4.816378889288028264e-02 -9.583967437338735199e-03 8.001135257292921188e-02 3.649801762892013884e-02 5.145478171502358700e-02 5.649050353289529480e-02 -1.119418374607466654e-01 4.128607773094555844e-02 2.271580566439320575e-02 8.890179487046772494e-03 -6.459543041541739028e-02 9.816050924765111485e-02 -1.090418744729720613e-01 -4.575104671124460148e-02 -6.733346863043317143e-02 -1.073162822750168693e-01 -1.224422554053181678e-01 -5.282339406253429986e-02 -7.047856903473084800e-02 -7.232712352025925939e-02 -3.130914053591058593e-02 1.158296444488498139e-01 8.820789183547085577e-02 5.069014336859185843e-02 1.128617568286130191e-01 1.234686549328132266e-01 5.350501074127980705e-02 7.577403538353329193e-02 -1.010927905108892910e-01 2.901494414409471617e-02 1.635044662896249085e-02 8.768325089585764232e-02 -5.038934808862759879e-02 -9.051902801902364515e-02 -1.639110175474198586e-02 -6.885488112172612196e-02 8.955537281031374086e-02 1.130166760609966903e-01 -5.034264009581358723e-02 -8.678053459621498655e-02 -1.080262002993999937e-01 -3.123547421707943261e-03 -8.760002847264687642e-02 4.697084927181356673e-02 -4.793960077800749238e-03 -5.607051236814439288e-02 9.737145387445906089e-03 1.839052538059313124e-02 -4.650970388896866897e-03 1.111457209466747559e-01 9.737095769877299190e-02 3.251698657781107449e-02 -1.096458373551424115e-01 -1.167306544469415702e-01 4.936520509219893826e-02 -7.342135392457371790e-02 -1.458363565102650632e-02 -3.434136153439423800e-02 1.093460774604437802e-01 4.939915617498485956e-02 9.983309775045152989e-02 6.835051073919813647e-02 2.971010090262340628e-02 -8.593643062350764250e-02 -2.380479547111447047e-02 4.037425892186768256e-02 -9.310308873421033193e-02 4.459683750640158761e-02 -1.378793324790106578e-01 9.139835020303989366e-02 1.227234391861022622e-01 -7.744242044738602893e-02 3.601919109148540160e-02 -1.280124661894996166e-03 7.312193227890093072e-02 5.828377369665411339e-02 5.555067632170138797e-02 4.609172025975381837e-02 8.562317454002698128e-03 -7.715137636394840681e-02 8.338715570766752627e-02 -9.009558921603391668e-02 9.422886863929716417e-02 9.943081333852273399e-03 -8.515870874495715115e-02 2.834933287713336733e-02 -1.009684948013686301e-01 9.463027974800444775e-02 1.005726141736191792e-01 -1.145553161124681779e-01 -8.692140764288430743e-02 9.799743295486376682e-02 -1.160168491622749765e-01 6.244629990124431901e-02 -3.886156883217047053e-02 3.634202464489830892e-02 6.705377202488578547e-02 -1.263770096577327903e-02 -7.933707004621980141e-02 2.064094496039719714e-02 -1.341524887192247981e-02 5.404190966151297543e-02 4.758255161771516445e-02 3.931054283716022002e-02 -5.407006135510913220e-02 -3.582410112495192089e-02 6.777507887198901126e-02 -7.863066952206888838e-02 4.351096045285378355e-02 1.692697470952478703e-02 -3.887429494912957029e-02 1.002277518933435141e-01 -2.245463142705846418e-02 -2.311011729049174124e-02 -2.286465294153287517e-02 2.129877952103444161e-02 8.348252324352652826e-03 2.682525436833637159e-02 1.163051897074817874e-03 -2.754801133478904443e-02 -7.347955959865166975e-02 -2.725127578233381420e-02 -7.361921231300715129e-02 -4.232100913633899254e-04
-5.770125216681359914e-02 5.768934735641327236e-03 7.155074303174221821e-03 6.491381795806515365e-02 -1.296993074957503711e-01 6.175433860126614688e-02 -7.523953411636002953e-02 7.675308172348040137e-02 -1.633127351442578354e-02 8.436842400409927389e-02 -6.761360773777166933e-02 -4.074522894872886075e-02 -3.131470309676580993e-02 -2.747002122454794346e-02 8.227187727074966594e-02 -7.166759562421348706e-02 5.368505038582577216e-02 -4.268091750442489646e-02 8.086413277181654646e-02 -6.003284650056588817e-02 -1.398651260436982458e-02 1.586626641327769718e-02 -4.634923411732426446e-02 -8.086892520054900224e-03 1.013128639422690019e-01 -4.018037208296571655e-02 4.895101061489934291e-02 -7.837331229910515784e-02 -1.294934973701400427e-01 3.721574223310061824e-02 -8.716152881964096821e-02 -6.462848786628902498e-02 -3.296075987956650910e-02 -1.370077639618007444e-02 -6.078829977430262599e-03 -6.709812284342152322e-02 -2.806039313294886664e-02 -3.934529958797085974e-02 -1.173936799889038485e-01 1.595896797271497162e-03 -7.221244694302569878e-02 -3.644636075744582537e-02 4.283928764190400584e-02 -1.281282162111481437e-01 2.793126686962934743e-02 -1.077562112836728397e-01 -7.601305706455031841e-02 9.252666807015276496e-02 -4.216079258787087253e-02 7.188376079486950669e-03 -3.724290238025117217e-02 1.865277235353033150e-02 -6.952362139059868607e-02 -7.300325658905926218e-02 -1.157816508134469971e-02 -6.646499597693251993e-02 5.651320371600228494e-03 -3.573805845572024242e-02 8.160813365836526445e-02 -2.241106934284572277e-02 -6.642223294360302677e-02 4.782848143135576269e-02 -7.114958001507305785e-02 -3.012376607668674350e-02 1.144170337191638270e-01 7.337564486986354606e-02 8.961568281679296866e-02 4.974246250708754674e-02 7.944639452743852692e-02 2.484949049336803578e-02 1.231759037008419919e-02 1.101005834936488181e-01 2.055953606745153026e-02 4.733595239658424519e-02 4.375156345642714634e-02 -4.839638307066193579e-02 8.628490414781640749e-02 6.457298954278928305e-02 8.678386399253167072e-02 8.074257609433610483e-02 -6.681045334464900259e-03 9.761289850566674808e-02 -5.657392084089270246e-02 -5.621103842811076695e-03 6.508933036062752864e-02 -5.264061261065521719e-02 -1.745025547359336029e-02 -5.573849502844142184e-02 8.178331411615669122e-02 -1.555474552902376233e-02 -1.210278231773146036e-02 2.250676367854663896e-03 -4.808648531078969779e-02 1.554336296500725412e-01 7.815308550502200746e-02 9.188158177217586875e-02 1.247171301167285529e-01 -6.812741716080858434e-02 5.597777624671070040e-02 3.686335352393669412e-02 -5.411821205423626713e-02 3.249234085185939008e-02 7.140526772450343784e-02 -6.891993046573757775e-02 9.548341639604375486e-02 -5.513573441657634161e-02 -1.499577450456110808e-02 7.251785378872468990e-02 1.448396802478176260e-01 -6.456113985368937269e-02 9.343759615149506426e-02 1.113340241877055214e-01 1.634327985458902677e-02 -2.724782458569555491e-02 1.527619919156951445e-01 9.106714191787308732e-02 -8.161098088450306764e-02 6.430941921643223980e-02 2.076438514624726409e-02 -9.563073746984078471e-02 8.540085899192451091e-02 -9.829060096744698938e-02 5.948999724608575179e-02 3.194937808286266862e-02 1.062038139158928522e-02 -3.625480585112641346e-02 9.943628755865679958e-02 3.872521155105866641e-02 -7.246850806993465621e-02 -1.495940576984402734e-02 -6.707703401231807083e-02 -7.013740882655492177e-03 3.139549031973754012e-02 7.164973130652417532e-02 -3.098281747192780169e-02 1.161099114702469209e-01 8.958426971218655388e-02 -1.924500845161939561e-02 1.143187685599127285e-01 1.036087202242555877e-01 -6.066620145140941278e-02 1.119401288585593762e-01 5.631003967232033752e-02 -1.076586551337772452e-01 1.347694208669003024e-01 -4.882859800098281883e-02 1.219669803985904202e-02 -7.307648764853461043e-02 6.638705292472697750e-02 -4.095966838939785193e-02 3.153379881717786187e-02 7.268501088321770165e-02 3.616822726238425045e-02 -7.128076959855719763e-02 -9.387225129129640050e-03 -1.057757904639947261e-01 1.261102806840045006e-02 -1.203668937365206387e-02 -5.687938557301378678e-02 8.296163690642453792e-02 1.422021562778401638e-01 -1.417039704234974440e-01 1.057873157342892195e-01 -2.098206365633177584e-02 9.733816228729574860e-02 1.293187193696231363e-01 -2.199829203320425794e-02 9.658794901794687249e-02 1.365077348626598519e-01 -8.587974380968736721e-02 2.212198342084292432e-02 9.000326574932697443e-02 -2.479483813238639311e-02 5.013949165674000397e-02 -2.503123596226883990e-02 2.896088524577502404e-02 -7.923501743339506076e-02 8.876445283757428140e-02 2.731337436045485831e-02 -4.057207074276139580e-02 1.470582896218064484e-01 5.923278137881371475e-02 -7.889914694751336277e-02 1.432266466561347151e-01 -6.027437567044121453e-02 6.385907257008506532e-02 1.196039103998575437e-01 1.666913848667372910e-02 -8.351244495848567095e-02 6.411128224994289138e-02 1.439900926857080043e-01 2.029270506260474199e-02
3.543180348984477368e-02 1.010944467954280196e-01 -6.951832124960007075e-02 -7.066784902555764414e-02 -4.504066476930753717e-03 1.186454569241336826e-01 -4.136365816346255359e-02 8.487301170900769798e-02 -8.173866165897004932e-02 -2.824211570172679292e-02 -3.867492548451603729e-02 -1.010779735584970834e-01 -1.066568033419465766e-01 -1.256701693384019436e-01 -5.488899563495650002e-02 -1.350445232118617778e-01 7.879781834946587848e-02 -5.381240771909199389e-02 9.783845975729000416e-03 1.120195539121993517e-01 1.191505031109151569e-01 2.599836343532879387e-02 7.624493847661310830e-02 -8.264515257092307221e-02 1.003304907646336563e-02 -1.181031821144793020e-01 3.498955441765450817e-03 -9.829175487488353569e-02 -3.854132337599912306e-02 -1.547169038158507925e-02 6.023719211868718698e-02 2.290530152676533565e-02 -1.030505644405073917e-01 8.275195891841741203e-02 -1.338574344119813631e-01 -1.394590818335010411e-02 1.085556332779997329e-02 3.335519201754534851e-03 -5.920010329830491941e-02 -8.331827516243572873e-02 4.600601672334994618e-02 2.147605926805633975e-02 -7.959078829918235509e-02 -1.004599919221543236e-01 2.989831031844477835e-02 -9.538064068405460727e-02 7.398385540326406218e-02 5.487328483758735498e-02 1.684840893915491924e-02 -3.255776100519400945e-02 -5.110879774757351446e-02 1.436300263083767348e-01 1.009798777458697800e-03 -2.270307052185411081e-02 7.459758770391550220e-02 7.175699379689934321e-02 1.427302045346122983e-01 -4.394545784443941450e-02 5.382860133262510477e-02 9.492305211171928048e-02 -2.589270098986217600e-02 1.219444834896644785e-02 9.970826161548616839e-02 -2.284607241735752900e-02 -9.467703070692225220e-02 3.730953726827451744e-02 -5.704930018166149558e-02 9.076448491013505704e-02 5.861318319337799343e-02 8.922754081283737482e-02 -8.829367976805532758e-02 3.640804339527844297e-02 -2.481896677205223251e-02 -7.813922343928796088e-03 -3.671567212357818022e-02 4.010417457685389736e-02 8.587809822208139487e-02 -4.521254034825718943e-02 3.432047508193714763e-02 5.460633637657692080e-02 2.753734967567357528e-02 1.657748515059337749e-02 4.638042103142793471e-02 -1.085755983577825351e-01 -6.399524784891422180e-02 1.195539107667950296e-01 5.333387963800306081e-02 -4.680845113556122289e-02 7.652684886485744062e-03 8.255753839900697999e-02 6.820199778412407154e-02 2.971184355761229828e-02 2.264773829186928628e-02 3.506460113828499450e-03 -2.195916636347329184e-02 9.479790120960511490e-02 -7.897419380821334156e-02 1.261739052193030508e-01 -1.778289831539044130e-02 6.394595539642891624e-02 1.212001725898907700e-01 -3.830974631208795833e-02 2.579157329590950343e-02 -2.233579221293222755e-02 -4.225709897267313636e-02 -9.577120482883837160e-02 -6.241583533829071079e-02 2.926900873211297008e-02 -2.713446904567924298e-02 -8.264627503308519252e-02 -6.565725023657816017e-02 -2.254517620668522807e-02 1.089277604796088095e-01 -4.229920468550047580e-02 -6.350125993359038989e-02 1.221011634571103760e-01 8.840883562868433188e-02 -3.437941450989938363e-02 -3.660990409482104552e-02 -5.297767785807778324e-02 8.754199996817178808e-02 4.640963964120074087e-02 -7.540048517939608452e-02 3.751418302831616841e-02 7.081472372561627149e-02 -8.372015397425061622e-02 2.372676349117783939e-02 2.817250942126239138e-02 9.375599816502969489e-03 -2.578926339797416728e-02 1.345235445326577739e-01 5.547987173397024054e-03 6.523702169523253221e-03 8.202868946635100134e-02 2.330583968328414982e-02 1.445386519931522173e-01 9.925942687649139118e-02 -1.795099643374548776e-02 -7.498516769331427245e-02 -9.328478202192205804e-02 7.034069796104484851e-03 1.260768340037715929e-01 -1.029854951677715291e-01 5.327113728447120666e-02 8.315017599427158845e-02 1.348309289147798518e-01 1.268708179631556077e-01 -4.100303350408426861e-02 -5.499125163729353533e-02 8.694165303934429934e-02 7.722929527224452195e-02 -9.250729381991287803e-02 -7.996595216780453402e-03 -2.215398862924187681e-02 -1.180055797256222699e-01 4.714721106164657116e-02 4.339755525974500761e-02 -1.171181944072150205e-01 7.835653153975559448e-02 -8.027104964488862571e-02 1.026567609791742136e-01 -2.570573424941135707e-02 -8.139422149901900244e-03 -7.973376358552548837e-02 8.770946143953715912e-02 -3.025904279309045777e-03 -6.553710321998796468e-03 1.036804597195429001e-01 -2.179642544586293459e-03 1.122613587605681695e-01 4.139800623054410572e-02 1.340980525170147597e-01 1.017457526542477064e-01 8.249622879230236738e-02 6.621608258975153483e-02 -6.113501755550630745e-02 -3.501766291744606852e-02 9.990071352617281575e-02 -8.774131971615199699e-02 6.315035126090144668e-02 -3.614197957221875618e-02 5.565854717657883755e-02 -1.131822575956470261e-01 -1.213270795796863276e-02 -5.102356582088005826e-02 -1.074992695226004852e-01 1.062106430587619540e-02 7.537719640713400060e-02 1.269245723301280944e-02 4.199472675864213134e-02 -5.567364620743435466e-02 -5.573177018618171580e-02
-6.809250066113982369e-02 9.604341085336116912e-02 3.302582630237512612e-02 3.577064017667355711e-02 9.299616434131269260e-02 3.723273017017702385e-02 2.770802688519094850e-02 9.709968298010733523e-02 -4.082197394183596090e-02 -7.453016680777657665e-02 8.898053732227989565e-02 3.443954010216474654e-02 -8.150155241934146921e-02 6.736770532169466044e-03 -7.179965960379861012e-02 -3.936852250895898041e-03 -6.609033399229714834e-02 8.551812810117563612e-02 4.460991267810313077e-02 4.469318214137597139e-02 9.008790025788426803e-02 6.743476377248435599e-03 -2.965580197831150719e-02 3.693178482876924296e-02 -6.070455821859243456e-02 1.076875775116599085e-02 1.303667313187213961e-01 3.820877730264946731e-02 -9.037668319475115897e-02 2.660015961443504620e-03 1.046923387591363885e-01 1.022428012682796566e-01 -7.071268620874632260e-02 -6.492823417179019452e-02 2.684053741526377934e-02 6.067799735345694861e-02 4.030861608808784108e-02 -2.265655821723205551e-02 6.837797798051517550e-02 -8.809188846456737776e-02 8.853319759215057694e-04 -1.649488533885515654e-02 -1.336995387170551441e-01 4.776442612774407098e-02 8.791100063207372972e-02 -8.262728754708853485e-02 1.169612353771902202e-01 3.452605868753697016e-02 -9.877995488324341211e-02 -9.115840911021007298e-02 5.120384782393118395e-02 1.038436631718864106e-01 3.140260846592576871e-02 4.567956138951780043e-02 7.203982139928577499e-02 7.819886230520728398e-02 1.214079192017592790e-01 -6.338017562565567524e-03 5.837218027836931639e-02 -8.124795057826750266e-02 -8.077544410400772090e-02 9.067268629764514698e-03 5.571416321233636781e-02 1.292530371701459957e-02 2.051426460764845666e-02 9.826730936782195058e-02 1.399810461606379730e-01 -2.164325846875827727e-02 1.410463195415330995e-01 1.053958696760045333e-01 -3.747010562415520329e-02 5.007933874154359838e-02 4.338534613313942134e-02 -1.495989224088536788e-02 1.023230605217815281e-01 6.611943110645563358e-03 7.486567941159924522e-02 4.115238060193860542e-02 5.716001218937555306e-02 9.172072492717278647e-02 8.065302766754588182e-02 -8.104502877391815685e-02 7.913256408264086883e-02 -9.210170767628746147e-02 -7.444382818290268267e-02 -6.067537239863817627e-02 9.897522366061854704e-02 4.626584510348067530e-02 7.825737262779343395e-02 -1.343845385492421253e-02 -7.005943943983089506e-02 -8.978086613964805784e-02 8.947387892049943336e-02 -1.295708378467836097e-01 -1.004945923982236873e-02 1.040595734547299506e-01 -1.377225956598019697e-02 -5.599421889949456055e-02 6.815372546052957115e-02 -1.113540360843688071e-01 9.112050694421901242e-02 8.121693880282204736e-02 4.104519811117813416e-02 7.781148520959904613e-02 -8.455705928890898393e-02 -2.837718714457480862e-02 3.179017241756823542e-02 1.020257593179320355e-01 -1.359512737289982898e-01 -4.237065817573527904e-02 1.230884035749371941e-01 -6.422199733822649137e-02 -1.131850569955512448e-01 7.299811468727028518e-02 6.059237849136060727e-02 -1.172254696267687052e-01 9.864300292385393132e-02 -1.166098237064950860e-01 -7.841172106104882245e-03 -1.032967327379525901e-01 -1.231318818093544640e-02 -2.520549564552783048e-02 4.527566568451808771e-02 -7.283217748797260471e-02 2.889647127874659868e-02 1.017672968334607519e-01 -4.021290592536188452e-02 -9.512831021475626203e-02 -5.009021807783344687e-02 2.772401112861501773e-02 -1.043943036393900209e-01 -8.109409934322399371e-02 -7.245724816969045801e-02 2.384918144184820527e-03 2.839043344537834149e-02 9.402081349310063840e-02 8.637187114677843947e-02 -5.040058538709215469e-02 -1.696978209836534982e-02 4.891084734704843895e-02 9.085386529357451779e-02 -8.735354808732195830e-02 4.870917421453444668e-02 4.385825603508495402e-02 -6.847956986291943438e-02 3.016080143731597954e-02 -5.762002145076897813e-02 -4.799318104699995535e-02 -1.719583811191148504e-02 -1.406712973884903517e-02 4.449889261966338133e-02 6.711158784275365885e-02 7.484649022544356822e-02 -1.256406140432166085e-01 -4.739156956743396931e-02 4.005451753584535202e-02 2.205830303050538427e-02 2.985654489625446523e-02 5.263907918606725023e-02 1.255365744541251348e-02 6.615605451631594025e-02 1.623381294037826508e-02 -9.232143866003930666e-02 7.296698602178891546e-02 8.121178654066057989e-02 9.065882297350325719e-03 1.237950292099800065e-01 -6.687340663997966284e-02 -1.420608232847622998e-01 -4.162695119590391346e-02 -1.301064534146935125e-01 -4.288000022866948757e-02 -6.622928029861255284e-02 -1.195127517731383107e-02 -9.824935778790767904e-03 -1.001795350396835899e-01 -9.057151215093776908e-02 -8.234121495415249251e-03 -7.815457999892978791e-02 7.593297245438347665e-02 -1.258282125189526535e-01 -1.223121098217554714e-01 -5.870937618096566668e-02 3.457016375262661478e-02 -1.330285371923845862e-02 -9.250695138750495219e-03 7.654529073572625963e-02 -7.786585488940701849e-02 -2.390620803258756630e-02 5.846562805326375317e-02 4.806389360126033655e-02 7.786932945431064568e-02
-3.100265064396321921e-02 -5.202162530878814972e-02 -2.104050157193300061e-02 -8.953241381508185437e-02 -1.532786052537092603e-01 1.364284175693505352e-01 4.085381090051924680e-02 -5.543765098776653501e-03 7.964086118242140466e-02 1.181197294262087590e-02 2.434560802271425878e-02 1.395709502773239130e-01 -9.416383044858434026e-02 1.381124598831487589e-02 5.211029462179105759e-02 -1.796488442640977942e-02 -1.934094452543492007e-02 4.496651616777599253e-02 -9.728726793741404588e-02 -1.300719844973221295e-01 -4.305262902930469260e-02 -2.419775908059190739e-02 -8.886088140887998810e-02 8.564802776174562648e-02 -2.547044686599248334e-02 -1.126912387451010494e-01 2.291159459254727207e-02 -6.641747015217071282e-02 5.799863104778781725e-02 1.304552349942856571e-01 -6.257782620738686075e-02 3.731944033796627536e-02 5.784399668996017402e-02 -1.010005211025551547e-01 5.116332732334691498e-03 8.091691105549075891e-02 -2.575132669586115489e-02 -7.351547629401972541e-04 5.132960395441769214e-02 -5.675950028004263237e-02 2.408368722191648117e-02 6.760854706508448442e-02 -9.119955732580357910e-02 7.830224698439534892e-02 1.074892895475880739e-01 9.311982024679071879e-02 -1.099894102331718249e-01 4.479929242178698479e-02 8.176963953216676018e-02 -1.109558802760203661e-01 -7.382075716324611181e-02 6.983446310815626112e-02 5.004700206142703549e-03 -1.268701555778813626e-02 -5.845245903491632505e-02 -7.610991939846897814e-02 -7.904483723841460030e-02 1.574624737575574737e-02 8.974852192098761727e-02 1.217887451534390569e-01 2.738744757775536318e-02 -6.331488278793423463e-02 1.026732081115168810e-01 -5.260360132528386218e-02 7.475171367798931488e-02 6.085262645626539346e-02 3.291229933460482204e-02 -1.128801084967280127e-01 1.805558514940247203e-02 8.572894723096528835e-02 3.739980256561832583e-02 -3.073990740068474961e-02 9.656799351980654977e-02 1.108629671229547364e-01 -5.284626894142901987e-02 3.527771304711945638e-02 5.460144016506892489e-02 9.795176673856045846e-02 -2.773795223174552529e-02 -9.340249435831345093e-02 1.245851985154446256e-01 -8.125524916883151982e-02 -6.777274100421219749e-02 3.272506720233912814e-02 1.032053156055859761e-01 -4.197067999233052710e-02 3.343182124310037362e-02 -2.205053369549225470e-02 -1.228348279925273318e-01 5.255563921871795469e-02 -2.812521902927090853e-02 3.664103372404919901e-02 -1.390098601114139742e-01 -6.923391678261583970e-02 -6.814762642424716799e-02 -1.165549141196657312e-01 1.475059538208088605e-01 8.951921039373463007e-02 -6.512070712920413340e-02 8.383912483200507693e-02 -1.466246841307786500e-02 6.706765030054459738e-03 4.816606715057469151e-02 -8.534229794448153911e-03 2.736816792243172008e-02 1.252601908957776296e-02 1.026549517873261985e-01 7.148554561387008600e-03 -5.767140255946307664e-02 5.332731894180762350e-02 6.780383565669090284e-02 1.140425389465338050e-02 1.015038142079203592e-01 -6.631299489539253800e-02 -7.209980718614331097e-02 1.015998049926538221e-01 3.866166728903815131e-02 5.241791883882455927e-02 3.314273442266120473e-02 -3.108061768762988147e-02 -9.559634623196741621e-02 -4.863891437324528721e-02 8.065137389241259017e-03 -3.666281133839883327e-02 -5.099896012525251265e-02 -2.006345921407662325e-02 -4.364728729157558128e-03 4.490123276924289086e-02 1.148573827137642014e-02 1.297511976812669963e-02 8.455624688849286419e-02 -3.614719000940559007e-02 -2.716173867929768185e-02 1.402698723676463755e-01 -1.885496534022677168e-04 3.873865017447706421e-02 6.923829979865190991e-03 -1.119972324360364313e-01 5.847049668012989365e-02 -1.146851895844686227e-02 -1.067938884423296209e-01 6.130591695429123134e-02 1.034889717979842194e-02 -1.136550788777472565e-01 -6.235410343971249658e-02 -2.383211681970075560e-02 -9.782719702946952867e-02 3.209766514917500313e-02 -8.957394905217842818e-02 -1.077617700086790642e-01 5.363329106771677623e-02 3.793498305421260514e-02 -9.301387609142847124e-02 5.564800760171638438e-02 3.673374726430555983e-03 -3.817992566487213996e-02 -8.818368938775947297e-02 1.112187619718587317e-01 -1.082389461111148143e-01 -5.095742020724866161e-04 -7.100155099737918973e-02 -5.946490774409383256e-02 4.596952331960549309e-02 5.950385332064331984e-02 1.084015761781510906e-01 -6.991799138555569726e-02 4.414240416199512185e-02 -1.104130856197545613e-01 -3.627406027638894331e-03 5.602014010335868571e-02 -5.042815228094511132e-02 1.376572535648472491e-02 9.821095254111207595e-02 -8.469159200434314694e-02 2.254633258764620479e-02 -5.173039245974368761e-02 -1.021860048502397506e-01 -5.429546144211529896e-02 8.308817673709872897e-02 -2.979959971256777515e-02 -5.140140310034117116e-02 -5.243488235499275257e-02 -1.068258360352992292e-01 1.291482755454715914e-01 1.260614447015443729e-01 1.600468902028678170e-02 1.272692939126230001e-02 -2.235773624588311987e-03 6.084517899485817477e-02 9.255641107185741401e-02 1.599217739518704606e-01 -6.229968113204484292e-02
-1.228084698148125264e-01 -6.650408649081616941e-02 -1.144267668934829257e-01 -1.258548315524382066e-01 -8.272516902802642957e-02 3.368153661919016939e-02 -4.490590638174716404e-02 -6.062670539308515766e-02 -8.025828540570777159e-02 -1.148241471480845183e-01 -6.409768149426463280e-02 -7.899315020085009853e-02 3.143286465778479932e-03 -8.464590108559870429e-02 -1.258771459357095057e-01 3.604333750782606066e-02 -1.316698716852577611e-01 1.599247528237353637e-03 6.176107453274506248e-02 1.029725319500535974e-01 -8.753911531470282004e-02 -3.074114602060579182e-02 7.470150492193711189e-02 3.877914047294816341e-02 -4.131450750887733642e-02 -8.563870141960620852e-02 -1.104275677326401056e-01 5.939276720187446068e-02 6.266957807641887479e-02 -4.791717033781853902e-02 -1.728466527440592274e-02 6.877184020307416067e-03 -3.967351528210989742e-03 -2.394996612264572305e-02 -1.363672823964939551e-01 -3.693542742710684799e-03 -2.016398203317240623e-02 5.913696771362890459e-02 1.187858510924266232e-02 -1.833126967748467326e-02 1.155370426061219924e-01 1.165104976272259181e-02 7.740140487425060944e-02 -8.200534311756033090e-02 -1.021693186881201566e-02 -6.245315064647306846e-02 -1.123449912745008994e-01 -1.029704146176322888e-01 -6.195169081413436779e-02 -3.777944946997512793e-02 8.887549160148526528e-02 1.957763717251810587e-02 8.748454783389408851e-02 2.854832611362896275e-02 7.057771451339810154e-02 4.940093812397616628e-03 1.070489630048690466e-02 -1.012865786926833850e-01 -2.629644815759720963e-02 -7.523499070401569455e-02 -4.987666361296547168e-02 -9.669264994990360573e-02 -1.200950221189021850e-03 -3.500037916764017765e-02 8.593434941464667132e-02 8.539080672666775340e-02 9.200403297605265485e-02 2.056699150031901339e-03 8.596826400849937044e-02 -8.407734460055595049e-02 -9.945108384105191823e-02 8.262303861172433372e-02 -2.091210256448747598e-02 1.502467456097936194e-02 9.633535571685629406e-02 -8.538886878475061837e-02 -3.287186042242231515e-02 -9.956578017790466972e-02 1.350957469704720249e-01 9.386737130586914057e-02 1.158530039584444553e-02 6.715943730140759571e-02 8.246226064516663790e-02 5.087134847084574807e-02 5.750053371146664205e-02 8.953256195115296898e-03 -9.593492835400237173e-02 -1.254838018738405753e-02 4.165933681004694439e-02 -1.206817428273533610e-02 -1.197143056102535066e-04 -3.674775519893497960e-02 7.970230836125963281e-02 -1.858544740012862614e-02 -1.324911921087110478e-01 -1.210187548702014171e-01 -1.563196712774290176e-01 -9.152732045500704128e-03 -1.349568733675792220e-01 -4.432681870396706914e-02 -2.276935412663325109e-02 3.115863309185911215e-02 1.102670662875611246e-01 -2.899962089738595747e-02 -4.002900020496839156e-02 7.317271163760166730e-02 -2.996197312177486735e-02 6.930132195606740486e-02 3.866078006492670860e-02 1.111072618423466912e-01 -8.839198133700380822e-02 9.487991401142894382e-03 -2.015962383708692907e-02 9.916819910151361550e-02 -1.625616708821030904e-02 3.802139314659553487e-02 5.735835597725235518e-02 -1.380496113500158384e-02 -1.457827038256998831e-01 -1.131814387304574260e-01 -1.415713650572534565e-01 -6.048822009323081422e-02 4.266823750122893111e-02 2.533872018021660066e-02 -1.205435414985621401e-02 7.133232476300090108e-02 -1.534444225352016820e-02 6.269380687420159082e-02 3.849588104748956352e-02 7.241470047222821338e-02 7.136142316560564747e-02 -4.777905247977682485e-03 -7.755482759856968666e-02 -3.691565742410549827e-02 2.535782246935392933e-02 6.733990675233260392e-02 -4.202594692472923221e-02 -1.133655236061443944e-01 3.814942685953412460e-02 -3.673982730089986326e-02 3.294693798826427156e-02 6.311805074166876306e-02 8.394432800906312386e-02 -1.182859814596971260e-01 1.283974485766571812e-02 -9.347532005688838352e-02 5.916090137215051364e-02 -6.965338472300280914e-02 -3.172436875920465332e-02 -1.239589939056646301e-01 -1.292271415946942281e-01 -1.001703343466545243e-01 -3.670244063575148208e-02 2.638651064733569390e-02 6.002386159125523007e-02 -1.855822858895001329e-02 -1.052291131369015829e-02 -5.074524157943306746e-02 -9.080963536319044960e-02 7.320937196187364548e-02 -1.494638394976297198e-02 1.075283626560283867e-01 -5.826022077418702150e-02 -9.640006934218321721e-02 7.938204750459523784e-02 6.186452335977521422e-02 -4.911851138240513198e-02 -1.131799522978322037e-01 2.191133242627606517e-02 -9.182178876351462793e-02 -2.108985990596953797e-02 -8.754995383026087374e-02 2.944748004840937183e-02 -1.293652970950243397e-01 -1.343921031544460243e-01 -1.193889339636398650e-01 -6.748483035473513969e-02 -9.553801263074396255e-02 9.413878280749853056e-02 -7.377170492290748005e-02 2.475641580086258842e-02 2.795628179961879428e-02 -3.224925450837633906e-02 -4.765843493635247424e-02 -5.324417879991432540e-02 1.317372522681315057e-02 -3.380876000142763599e-02 5.910660816008284080e-02 3.762717796305901224e-02 3.912785803081801628e-02 -3.983556457145970980e-02 4.036160412094160627e-02
9.482730042617998345e-02 2.244702921108244695e-02 -1.158665092495703014e-01 -1.010762808565580373e-01 -7.284905146082490401e-02 5.232078380240202942e-02 1.322465528176447747e-01 1.171857756010925705e-01 -6.970401446390932232e-02 1.336563745698167160e-01 3.060332809025408454e-02 3.269619070454241050e-02 -8.811783781609021371e-02 -2.619789416684702166e-02 -7.045516182718089722e-03 6.250233453817251317e-02 8.923012041323759302e-02 1.022847745308308326e-01 7.190224385478737046e-02 -7.286854850360879876e-02 6.873326212260946755e-02 6.091784460012188845e-02 2.006977208308624236e-02 6.039579732326733064e-02 4.391343023785115179e-02 3.950415572937837627e-02 -1.200602101957341100e-01 3.126785743962403469e-02 5.846592941510276448e-02 -9.467808300611652017e-02 -2.684416998468081017e-02 3.325470099610648711e-02 -7.651024207034388958e-02 -5.423059714414871918e-03 8.614390362544251112e-02 -1.121776996332118775e-01 -8.538548304164859937e-02 1.206993130033874456e-01 6.567305985065695351e-02 9.628551557871083133e-02 3.562072376340368746e-02 -7.720172989413234821e-02 -1.038257713459709609e-02 9.874126013052528239e-02 -2.343339964949910093e-02 9.729321453196629332e-02 -2.650330762844676710e-02 -1.576827751649925724e-02 5.965553017326030022e-02 -9.625761010381868321e-02 6.355904617336985418e-02 5.645243676207194194e-02 -7.339304524750170367e-02 -9.405486490181690085e-02 -9.765702090847611094e-02 -1.346217754064331839e-03 2.589562691160388064e-02 -8.386261827658884893e-02 1.251013030311111107e-01 -8.665944362724446737e-02 6.794748847183880447e-02 -4.302374598992853016e-02 -6.421457717653064612e-02 1.823506606717425343e-02 1.137284328948238721e-01 -8.521353027996642071e-02 3.113079433843412430e-02 -2.764991117735481410e-02 -6.055003131451578563e-02 5.236806974187977609e-02 -1.092622376264819686e-02 -2.682086911139380803e-02 1.304565878892862962e-01 3.416619733896200661e-02 -7.124232997588518176e-03 -9.319633350892243817e-02 -1.230700464932221183e-01 -1.232041776540922784e-01 -5.558617186126497273e-02 8.133848135972260307e-02 4.743948311504853771e-02 -9.254075258314771457e-02 -3.321714126996432731e-02 -7.775273921854296277e-02 1.042294660111524746e-01 1.079587888782559124e-01 -2.172751199040391309e-02 4.923438395239079085e-02 -6.802912684269536714e-02 3.127232117325569587e-03 -1.118941567535574749e-01 -7.595692765282778536e-02 -6.258786623390796833e-02 -2.064452752676942948e-02 -1.156399975888560729e-02 6.302156073427984950e-02 2.307542004823958520e-02 -8.915346240068149075e-02 -3.117717698549237262e-02 5.544612919289388514e-02 -1.190797681439009909e-01 1.946141894708436695e-02 1.060382069442141438e-02 -1.625888582477886396e-02 1.750930486171482434e-02 -1.293042048908728536e-01 4.813173466364120689e-02 6.731862188763072796e-02 -8.267244575336843426e-02 9.676678911768971103e-02 9.429705041159415491e-02 -4.561440466083048484e-02 5.361097830902296357e-02 -4.226109100082733471e-04 -3.635455073630627920e-02 -2.111266509810166836e-02 2.685828719844517783e-04 9.654100123560840907e-02 7.844884683115865842e-02 -4.938523621951831227e-02 -1.041193964299277352e-01 1.014855666826564445e-01 3.129638231592596354e-02 4.362348109380122241e-02 -1.230335249964292499e-01 -2.801942811463716682e-02 -1.124332552569863586e-01 3.144733503134355956e-02 -2.939200964845145592e-02 6.089632952360790608e-02 -6.195574129019159465e-02 8.189130560432021644e-02 4.634222803077395897e-02 -6.497977266659962781e-02 1.616605597869707339e-02 -2.341915765653466638e-02 -6.163312418782046498e-02 9.216374105469676836e-02 -9.537683948109784704e-02 4.227216174633265794e-02 -2.957145636950461731e-02 4.733249833516812305e-02 -6.279183749743909304e-02 -5.156715348761319040e-02 7.909295798690434143e-02 -5.449340389009616620e-02 9.499913620468403153e-02 -8.972640634068962395e-02 -3.892208596026166655e-03 3.530864686492429100e-02 1.499072448257667044e-03 -7.777381388357791636e-02 1.037369732967994146e-01 -3.038877290830219180e-02 9.189194290502580853e-02 7.820638302002150266e-03 1.199814756387211911e-01 7.942946770701456161e-02 -4.485784344699792620e-02 5.831106517336841211e-02 1.052101850020882995e-01 8.588353360004274961e-02 1.146513772953193233e-01 -1.662603360051559051e-02 1.036816743395417850e-01 -1.238224352696882039e-02 3.428505670786443499e-02 -8.066229374969313692e-02 -1.317118899986554070e-01 7.347234815835194943e-02 -1.198982459777539755e-01 4.802899088577165798e-02 -9.321638063102372085e-02 8.195085336210029825e-03 3.363859546279132640e-02 -8.240493300812143374e-02 -9.142872376712168903e-02 -1.010136544586064944e-01 -6.778096529345541306e-03 5.954299313109312486e-02 1.145232103911311555e-01 2.673242020626840146e-02 4.456651808534883852e-02 -6.291648747113018358e-02 6.296443142263179193e-02 -1.184196213749907911e-01 2.344860036139316539e-02 -7.846393577200655445e-02 -3.954437380297116250e-02 -6.835200365063824612e-02 -2.032103838844327715e-02 2.285898445191041767e-02
5.469893262501121511e-02 8.780587593210993635e-02 -1.151893473904291032e-01 -1.123099700270161205e-01 -5.584870239388281532e-02 2.946348128632775547e-03 4.599125297710518478e-02 4.144945620712710277e-02 -9.755687435667258212e-03 4.078754092309076068e-02 1.295972558588166512e-01 -1.187910675073603622e-02 -8.013958306329975467e-02 -1.013763724210358166e-02 3.318227275327430281e-02 7.040059665526376964e-02 7.628345572350805903e-02 -1.607077184727585470e-02 4.483078622449571810e-02 -2.761415692360988730e-02 7.379466412252914942e-02 -1.107814061467959077e-01 7.227377874733327545e-02 6.736049124251605735e-02 -5.357122455655798782e-02 1.009828946955051293e-01 -1.424520156799178039e-01 -6.771966904476763027e-02 -7.588685289695812353e-02 -6.651900069843759422e-02 6.118535803824396574e-02 3.842050476640026385e-02 9.321860145852942092e-03 5.407713171309272947e-03 -7.035270719705206954e-02 7.140180309380059209e-02 1.185943126536310871e-01 -7.709503042388364535e-02 8.484257655799137821e-02 1.118810832542178196e-01 9.348602392273341888e-02 1.391294690691086688e-01 9.775463908244576283e-02 1.022338847928693124e-02 7.425031062960479877e-02 2.028029861904745088e-02 8.113148221216191780e-02 3.385843354877626082e-02 1.671698768791091694e-01 1.055820197428646856e-01 6.748125600470263052e-02 1.040712228597497624e-01 -7.076672690063724735e-02 -4.053555977906927316e-02 -6.206384108359770668e-02 3.044925278278822964e-02 -8.653236935178558464e-02 8.844971414326438519e-02 -5.074652548485848041e-02 -2.098783751614899037e-02 2.454639533030923346e-02 1.084400356771891422e-01 1.150331406055224992e-01 7.051727170487430418e-02 1.205498942697508756e-02 5.862867448022883454e-02 8.506032843587860159e-02 -7.138354877798966380e-02 3.490659164018785482e-02 4.891542501695829437e-03 1.322372986736982114e-01 6.155294637161227989e-02 9.415651987867532102e-02 1.195636684241561942e-01 7.521239088487673141e-02 1.787466958554490698e-02 -7.648534049504995824e-02 1.046982655213213320e-01 6.543006667125321474e-02 2.395480698136760733e-02 -5.568934374473925170e-02 6.080644311672974561e-02 8.443322881856049622e-02 1.139680617417320185e-01 7.981952810560663525e-02 1.085578998613479923e-01 2.784811625799317111e-02 4.100884848814000117e-02 3.343727875639503772e-02 -5.736207964236342965e-02 7.570851429482911010e-02 5.660223678094684213e-02 6.032460517679542195e-02 -1.283003889355815302e-02 2.168342855899889343e-02 5.301320063297827734e-02 -7.135097717501282313e-03 -5.018545950314708126e-02 8.919055368354225632e-02 1.554480478660500917e-02 -7.361763804014363755e-02 -3.378606368979332475e-02 -3.900238273949563350e-02 -5.760645642301118891e-02 1.810843684168928977e-02 3.173534696799332200e-02 1.042605037715097077e-01 1.710377658090842315e-02 -8.003700318553838566e-02 -1.311737097611079088e-02 -2.487974652223388580e-02 1.529176818036002278e-02 5.006863756553922573e-02 8.971843933106872504e-02 -4.563783996810553446e-03 -5.175880645484525616e-02 1.055552956952998320e-02 -4.031036415498524123e-02 -4.564074526422910727e-02 -3.458994955319184134e-02 7.979116447953341074e-02 -7.857987575596403484e-02 -2.538597910908482747e-02 -1.744513115703154663e-02 1.084368021441579344e-01 9.441051845747786692e-03 -7.256512916579209438e-02 8.850026982623046545e-02 -6.853442523748619515e-04 -3.141402464498049135e-02 -8.714468197059194177e-02 -9.892583426204312746e-02 4.010455600146008853e-02 6.996365365361174871e-02 -8.930241996741274113e-02 1.183756691207403858e-02 -2.711079073000227657e-02 4.435632192481319541e-02 -8.260971823604214281e-02 -9.692206255713786689e-02 1.210749778408769795e-01 -9.563154696901565721e-02 -4.667455415418765401e-03 9.411048692518994563e-02 8.329416528400204744e-02 1.019767241984891326e-01 -6.130668768509170419e-02 -2.178532318477942754e-03 1.466056495083035809e-02 5.670797782027974659e-02 -1.398367749844305896e-01 7.486206274789160287e-02 5.518991607069393540e-02 9.931156291679023307e-02 -1.047064960057101507e-02 -1.138723853690632309e-01 -6.027662372051331707e-02 7.523218120132064805e-03 -8.992703550118402722e-02 5.565891694122460792e-03 9.110712849846928918e-02 -8.818124691793971515e-02 1.356070489001834078e-01 -4.990562977235718511e-02 1.067761845059296832e-01 -7.385217581284994615e-02 -9.689340153583801338e-03 9.919934432823183587e-03 8.425176205515914896e-02 -5.847906198938049999e-02 3.820290560248557066e-02 -7.410793260481678135e-02 7.925135378071865300e-02 2.257596544494232423e-03 7.339479080493625796e-02 -7.927120512078618397e-02 6.973510762234338967e-02 -3.566387278664902988e-02 2.996342243418413306e-02 -4.286326098163981829e-02 1.010569921584747177e-01 -9.882541600470012844e-02 -1.514503371521044028e-01 -8.361846273643497307e-02 8.183938853541683489e-02 -1.170676872143666669e-01 3.372473345503406578e-02 -1.131347943258047412e-01 1.655827248861965750e-02 -9.117411556669334505e-02 -1.378719376856127332e-02 -2.236551235512624844e-03
-8.753134142765421968e-03 3.606927823957203211e-02 1.023412570355739133e-02 -2.987413186220744254e-02 3.234313050804234202e-02 1.355558988274955246e-01 -3.320487066633433237e-02 2.522511765743306461e-02 -6.450396462299014255e-02 -3.556199210420082218e-02 8.194010036746497694e-02 9.167619288326642191e-02 -6.203192070897890764e-02 -4.053422788000276417e-02 -5.896321232627103892e-02 -1.063899066083865419e-01 -1.721917107307021841e-02 7.273967836019655520e-02 -9.526112826363869468e-02 -7.518443254567441780e-02 8.746251058850429416e-02 -6.508199371083402129e-02 -1.061210684876476434e-01 1.315505297514490135e-01 1.001799752017840522e-01 4.735140519386811520e-02 5.541674418084335287e-03 1.068340140821047585e-01 1.221385780628467393e-01 -5.088071660701828924e-02 3.252945400625045086e-02 -4.775643055477164778e-02 9.799622441930276595e-02 -1.091379995713823853e-01 -2.158358848219904189e-02 1.221260118962164826e-01 -1.076001376687446554e-02 3.334717835135724701e-02 -9.193772497122919274e-02 1.082134923071329663e-01 6.623678938304246311e-02 3.640319468601888042e-02 -1.370920926213261282e-01 -9.374501172815567773e-02 4.604513848436374984e-02 7.822993843129208424e-02 -2.795940219551878644e-02 -2.455377229503019967e-02 3.896018921168808991e-02 -1.121381115735098771e-01 -9.105552704592173932e-03 -7.624363388413062104e-02 -7.049883804751340410e-02 -8.698352215062597759e-02 -5.474522038657116119e-02 7.882459809301370357e-02 -3.676523363233004382e-02 -3.420431546062455835e-02 -1.402493294770349452e-01 5.924051155957280046e-02 8.444983203009945316e-02 7.188696298282722108e-02 -2.164573560578434905e-02 1.089854925257652957e-01 -1.332364556315393869e-02 -2.427294928658813716e-02 -3.262758626582163562e-02 -9.037738519265609005e-02 -6.455038014627180465e-02 -5.196488802645603949e-02 -4.574278299178610729e-02 2.047742325949524975e-02 -9.677297642449725346e-02 -6.488849773804587773e-02 -8.457040846525400168e-02 -7.576841896620424566e-02 7.623598646942097989e-02 6.479469390054157230e-02 -6.415712004646052791e-02 4.382471281308857741e-02 -5.826458601473651772e-02 -7.656122717915456177e-02 6.978289773101782612e-02 6.931173469342309656e-02 4.333476273580284116e-02 4.355612150809561912e-03 -1.071355444805515839e-01 -1.016654551894285025e-01 4.929247792521773003e-02 -4.115683636633239717e-02 -6.065180726849504766e-02 3.390115507688497981e-02 8.669421581269080856e-02 -1.111989624069409516e-01 1.193849139475085773e-02 9.771333437436313663e-02 -6.418024497167817977e-02 3.947269854828214936e-02 7.128043035783264425e-02 5.291158867586565756e-02 6.719337695678406774e-02 5.952297861902763887e-02 -1.590291367801015265e-02 -1.301857961022560572e-01 6.090017861114006142e-02 4.817647872631542622e-02 -5.399380363373361413e-02 -1.473343657878963160e-02 3.062966558018995200e-02 2.961518228856241733e-02 1.048721322379151388e-01 7.081706195706755080e-02 -1.297161266561421833e-01 -7.572319953467068765e-02 -7.770193427290114641e-02 -6.936786379024136029e-02 -7.342752824191972616e-02 6.076051431542787290e-02 -3.892290903262196622e-02 4.805945732114531854e-02 -3.086952914320371597e-02 -1.010088368097908779e-01 6.910925682421160954e-02 3.362367036570600154e-02 2.366599835808809449e-02 -7.340850576223779955e-02 -4.652958831366474368e-02 6.803604699560181213e-02 1.193875826380166871e-01 -6.866869270138338532e-02 4.034203213601714536e-03 8.641233751033555732e-02 2.075016514922661467e-02 1.179882202559222153e-02 -2.158263245849655065e-02 6.706665154444672872e-02 -4.489241342854042444e-02 9.509940996297817917e-02 -9.235090213176795626e-02 2.183131133234882809e-02 7.909463805779365364e-02 4.055650962536716531e-02 -8.117812961652541570e-02 -8.122377389920021340e-02 -3.255295385121058371e-02 1.421528151424708217e-02 3.266521530113494082e-02 -6.766429380371638547e-02 -2.421484023461651855e-02 8.892861156492529173e-02 1.002950687595349916e-01 8.328543206696077672e-02 -5.529457351231852405e-03 -7.677497320174066220e-02 -2.457942670117468920e-02 -9.540125283602689243e-02 1.580708299744348205e-02 7.567732303388233217e-02 -6.011219982598713790e-02 1.006452987904679353e-01 1.042554640826793139e-01 1.089485086610107040e-01 8.299258575265215654e-02 1.334557326222169105e-01 1.027599945291515354e-01 -6.862519801065587732e-02 -6.560245165632413999e-02 -3.580618356765170179e-02 -7.314129372418047559e-02 -4.493949057494134314e-02 -1.658573886573755027e-02 -1.079496793197093490e-01 1.586798657599734069e-02 -1.075399734377033845e-01 -3.974733507235630320e-02 6.371755497837031101e-02 -1.116389316940544496e-01 -1.394393305391458671e-01 -1.184369550326419551e-01 -6.003577741034518689e-02 -6.355063850003120178e-03 -6.061445897730104171e-02 -1.505498058156935944e-02 -5.900151019647612710e-02 7.818668782451416999e-02 4.680688624913863921e-02 -1.150499958173104541e-02 -1.126090220020986438e-01 8.669458387957962309e-02 -1.202586134421108482e-01 4.632965607162334298e-02 6.236238140008217717e-02
-1.247273678814107278e-01 -2.532111907637828868e-02 -1.116306618808649287e-01 -6.919552407162495034e-02 -6.316409564809927213e-02 1.100564859558011976e-01 -1.159487813764705361e-01 -3.346155624011856039e-02 -2.188131490066623497e-02 -1.141542023541556178e-01 1.858715126628486189e-02 -5.101825383101113442e-02 3.234848033412216807e-03 -1.144644522271666964e-01 3.143205159738056420e-02 -1.858192801370042420e-04 -1.161562890438195550e-01 1.380576815175439120e-01 7.040154888592907445e-02 9.474955489369614459e-02 7.073403181655128769e-02 -2.638996644759880952e-02 -1.135765537662916658e-01 -1.034952834609241951e-01 -8.197629352515674317e-02 -1.405614151377642673e-01 7.374995747342033559e-02 7.049295978185410837e-03 -4.063069011368957567e-02 -1.222483091147347073e-01 -1.472780445063297770e-03 -5.405262277681164608e-03 -4.586843412602140124e-02 8.142619597298657308e-02 -1.087000061002756784e-01 -1.788030107022040016e-02 -1.754771588123403558e-02 -7.063619261362427681e-02 -2.763642396013705690e-02 9.377555760275773852e-03 8.897213650848546929e-02 -8.437488382357027916e-02 -6.927031591780526132e-02 4.776789682480549193e-02 4.060864012669078427e-02 -2.525768771734949666e-03 1.131750637197384557e-01 7.989690559806791881e-02 -2.037443611331917967e-02 -8.815031972851782027e-02 -1.036579607278897558e-01 1.143835758440635425e-01 -1.000246051882153209e-01 -4.655942612555954464e-03 -8.156300485409657963e-02 5.353663317621211448e-02 -5.992108754108814786e-03 -2.050852740372818492e-02 -9.552608030015466434e-02 -5.942842525207370219e-02 8.255872960445383851e-03 -8.427002045593452728e-02 8.876106965012149630e-02 1.162707828882750122e-01 8.271733875522113699e-02 5.592479726240846133e-02 4.193438690333175373e-02 -2.850940203239346257e-02 5.316838655028351124e-02 3.730395684776447590e-02 7.811601587934310920e-02 -7.289007258720651972e-02 -4.876981302025309994e-02 2.712675700182803559e-02 -6.155048751079042479e-03 -5.175299704328028584e-03 -7.403472589021685424e-02 2.829565406099289471e-02 1.099700123063184626e-01 3.647794074300619166e-02 -2.083363925492359714e-02 -1.118440708944010015e-01 -8.064643921270585325e-02 1.911113041864754419e-02 -1.036425249013052802e-01 -6.594419935247017306e-02 -2.150120042578538421e-02 1.161497809100633105e-01 3.207109921360894352e-03 -7.333185700968160303e-02 9.672295318755516624e-02 1.077522528228890865e-02 6.677188905880755698e-02 -5.672570357931077181e-03 1.190606643509400375e-01 -9.385723708340039384e-02 5.149061633185487985e-02 -1.081674137064979613e-01 -1.122212425059267576e-01 8.952561338399395163e-02 -4.155581132535358761e-03 3.283706016912973230e-02 -7.092485654965630104e-02 3.504017626764217852e-02 9.806100647319571095e-03 3.845174120487430958e-02 1.443682235190998399e-02 -1.051146682992949305e-01 1.077336951287111433e-01 6.635443048768134566e-02 -4.531922101552998683e-02 -3.469291543868861100e-02 -9.078969059468569580e-02 -2.044827131686390020e-02 -2.397218357644240877e-02 -4.554226092400254222e-02 2.180564367779460819e-02 -1.015886594227539963e-01 3.622992590069535473e-02 -1.073473672959920494e-01 1.132452762187139278e-01 3.277593503191669061e-02 3.989661820730346781e-02 -3.856810564534247227e-02 -1.056977896211129392e-01 -1.048812511721761431e-01 -1.067704459633596198e-01 -4.612726860669989770e-02 8.776179464090574922e-02 -5.495598494195128719e-02 6.302540139897185034e-02 5.535268700867802816e-02 6.142876330402399256e-03 -1.441774507557428905e-02 -9.051640243563092991e-02 -9.174636035220380681e-02 -2.430453869053038687e-02 9.832837689035944795e-02 5.580050948628272056e-02 -2.655231620938571652e-02 -7.816945787023720340e-04 -3.893598890524149932e-03 -1.366617406073594998e-01 -1.194385830605540350e-01 8.095974138257452934e-02 -6.270259561937170656e-02 1.062976008224438412e-01 -8.940149611442786692e-03 -3.694001746971433547e-02 5.264836865117202697e-02 9.625841977224014467e-02 7.996907415783535700e-02 -4.221556820145577066e-02 4.737061282291459008e-02 6.725441557879752175e-02 -3.417242061721057628e-02 4.296560495410312042e-02 -5.333111107827385317e-02 -5.239122179082521258e-02 -6.723366570178410107e-02 -1.576895816481031472e-03 6.815077890147383521e-02 -2.360098173826866153e-02 7.285157599351890605e-03 1.084892502960662780e-01 1.165209264611401924e-01 4.135456516965746281e-03 9.159825771083612844e-02 -2.592991141965152180e-02 -9.590865007465818395e-03 -5.280693701712572269e-02 -4.617253227716036634e-02 2.327242622931995769e-02 -5.719486737056757308e-02 -7.804872718387149966e-02 -1.846876061665606028e-02 9.533183461483832333e-02 -1.060374141063856988e-02 1.018616972450508973e-01 1.589472528554708095e-02 1.191631486866082529e-01 -1.010691389362142062e-01 -7.538288224787325666e-03 7.772356519169293376e-02 -1.718116189980768010e-02 -8.868338269217966585e-02 1.525582967061599182e-01 5.885059266172542464e-02 -9.447683866370087946e-02 1.216107604560812405e-01 6.605458825599923312e-02 1.379654476915276665e-02
-1.542713599996122257e-03 4.541719651634096300e-02 -2.132390643544904152e-02 1.389700260346599103e-01 -7.223597044775427467e-02 6.943250449545897152e-02 -3.107561236992332013e-02 1.307096516948657028e-01 3.102100424418778937e-02 -2.021526860974969756e-03 1.439698855670719924e-01 1.251720276352435712e-01 4.048375370397432754e-02 8.146407057140249430e-02 -1.147543724003782795e-02 3.055036154185564526e-02 2.231874158594380694e-02 1.046247536233536196e-01 -2.248033875141590421e-02 4.718578725621876135e-02 9.165993777488130878e-02 1.172584380869557269e-01 3.062988236999764427e-02 -4.935086093260317858e-02 5.248521003629735143e-02 6.504646382586459774e-02 -1.756851332631953824e-02 -1.210629331675519421e-01 2.851334172674313203e-02 1.699506379585102173e-02 -6.072770329017453811e-02 9.974906905337325991e-02 7.441443918929716017e-02 -8.359197959916504772e-02 -5.992809067476301960e-02 4.319016533782616546e-02 -1.256923477757958263e-01 3.602986361459104697e-02 3.191639253449462393e-02 1.855436720028789954e-02 1.051560637725903052e-01 8.954763591264115752e-02 -1.839819839149594346e-04 1.209023300364795855e-01 8.822573354407997615e-02 9.947550029735359456e-02 -4.395586559663355875e-02 -4.242881749699063676e-02 -9.406232667301846206e-02 -5.556076597464442574e-02 7.993676156008405753e-02 -7.664490996594162942e-02 -1.028047825333354010e-01 3.283921792398852152e-02 5.866520337290776627e-02 1.597693277811852372e-02 8.172918627657965035e-03 -1.193640179851848809e-01 3.047421810318377312e-03 7.103838227598288646e-02 -9.792298299002630269e-02 -7.681463114234104994e-02 -6.867249938944190724e-02 -1.360488778043275060e-01 6.678642821631280979e-02 2.347828316786222322e-02 -3.174003270153840511e-02 1.771216991212047273e-02 -8.194194262771520298e-02 -3.380249085386727997e-02 2.040882888532762410e-02 -7.559554638716037278e-02 -6.158744882822646954e-02 -5.968016896589103948e-02 -1.131655573113499735e-01 -8.140680404688559191e-02 1.418024697879529707e-02 3.861898531010975189e-02 -1.951918877072809227e-02 1.247270862745251119e-01 1.245537825087497837e-02 -1.327160982293948133e-01 6.377549818476151156e-02 7.901075927684936273e-02 -4.822356972081336818e-02 1.057907493355575712e-01 -3.127955585517747106e-02 8.248447675917887356e-02 -7.708828112580796976e-02 -1.203235170738736204e-01 2.868901600069005686e-02 -8.769042756499470515e-02 6.047044351534361373e-02 -8.554751040045383004e-02 -2.124842674192607694e-02 4.197921182658791855e-02 3.172889047593678569e-02 -2.887902880201479935e-02 1.808785818452115016e-02 -6.501997968077379009e-02 3.842487463984928936e-02 7.478633297493810991e-03 2.632744009746273289e-02 5.821042949989384263e-02 8.788357558315309029e-03 -7.988862784720274224e-02 6.034089963737505891e-02 1.347413651418098435e-01 -3.199955398370127324e-02 9.356519787336435579e-02 -3.489600898851054345e-02 -8.758909840407383407e-02 -1.905775796214601372e-02 -8.839470316434051844e-02 9.330310180267341325e-02 -5.921557936638586345e-02 7.443216225136437166e-03 1.197386084902491987e-01 3.534001179957478762e-03 -4.135502812964915453e-02 1.165777958611765308e-01 1.121283569761688387e-01 5.093177344769432568e-02 -1.083662584110330757e-01 1.372981720470627387e-01 -7.850607581323069961e-02 -3.484446820234394365e-02 -4.780256905618120861e-02 5.792584160241198710e-02 1.048027745410040484e-01 1.383545845817566733e-01 1.161494179719017583e-01 -3.564718113354416879e-02 6.910286181317848442e-02 2.922285980785116477e-02 -5.780685968431861776e-02 -3.094621051514884029e-03 -4.296501970481055033e-02 -5.199698892711712012e-02 -2.699125473616306899e-03 -5.905528375968566168e-02 6.353152962656463676e-02 -8.929930822057566969e-03 -5.542849024706913985e-02 8.284446513924210997e-02 1.033820009122146250e-01 3.213475418933492422e-02 3.372235696933884030e-02 9.273837209503299484e-02 1.218135120788024252e-02 2.843348731445198129e-03 7.505230299916712533e-02 1.281464091878393996e-01 9.609234396639229625e-02 6.525574757340674159e-02 6.821033693574234114e-02 4.770859616991150048e-02 2.233899539491438282e-02 6.466112275637053534e-03 -3.975897283394094761e-02 3.276320018197468459e-02 4.624071544239461221e-03 -8.182459742678202530e-02 1.151171384024936434e-01 4.088985553708716914e-02 -5.689421300703719625e-02 -3.817703541626963487e-02 -6.189650069246167147e-02 8.958534179575776413e-02 1.176337030231598274e-01 1.004784303735583167e-01 7.771876615677814071e-02 9.206564737902547813e-02 1.108108365060819361e-01 1.946651055389377397e-02 1.207884777224622619e-01 -5.733499039866082198e-02 1.350615154031926113e-01 9.974453764169928516e-02 7.820137988241339377e-02 2.091792385269044402e-02 1.081818388858977326e-01 9.682492917109885439e-03 2.207044832362245468e-02 7.417845298119996045e-02 -1.621894053214182480e-02 -7.531300602603104022e-02 -2.396677272722175234e-02 -7.954363303454656687e-04 4.793936399655027158e-02 2.676607073232298295e-02 -3.582643927046050975e-02
1.200694873605305940e-01 -1.101541844009100157e-01 -9.434148826269819765e-03 7.530811048911430217e-02 4.519951383185555338e-02 -1.014374059089986346e-01 -2.056145469107129031e-02 -6.993460868817492904e-02 -1.258019462231290027e-02 -1.036209571653222139e-01 -1.578366321738223707e-02 -4.695444725181355250e-02 -9.026687957879508950e-02 -8.514443177935497598e-02 5.046088174207559451e-02 1.709088428775038665e-02 -3.897023502965949598e-02 -7.555050553097653054e-02 2.838313926282506547e-02 9.365132909474534195e-02 3.888378420374748873e-02 1.236454503358037083e-01 -7.113968898990447043e-02 7.004125158479089508e-02 7.819039918873893491e-02 -1.195772991001769481e-01 3.289036199354503781e-02 -3.650681898163936345e-02 1.353141243326522539e-02 -2.023255668588924694e-02 -1.713495680007649791e-02 -8.781881518524821406e-02 8.088384609109934564e-02 -2.435650163782420233e-02 -2.828469345271313398e-02 -8.179872741906062117e-02 9.883088622361227427e-02 8.445287028345094260e-02 -4.462518848187134457e-02 -3.470630682807262363e-02 4.850610234034291937e-03 4.894489185088661543e-02 1.895437075765946111e-02 -7.688123840415694854e-02 -2.681694901722555743e-02 1.653043421674551487e-03 7.383182955591784113e-02 5.097633857964355836e-02 -5.954495989716235282e-02 -5.368069784968788200e-02 6.008220693013988783e-02 -7.705633155395774647e-02 -9.073308755951878246e-02 -5.936233187234305625e-02 -9.692002784741884924e-02 2.049940202360128749e-02 8.885128995371063820e-02 -4.398053158664264051e-02 9.786944335358367664e-02 -4.492911514432762488e-02 -2.843242278583179780e-02 1.488509462327980773e-02 5.553047263963949848e-02 -9.426063694253891678e-02 5.346047205493949239e-02 -1.294010827320374486e-02 -7.452975728583363657e-02 3.245039961439601106e-02 -7.932448016365416243e-02 3.891183331229066539e-02 -3.638225786442687154e-02 1.103234207133650391e-01 -8.533699246122908311e-02 8.864032212970125030e-03 8.425922703841341732e-02 1.310383555605062478e-01 9.555603636431002357e-02 1.818660044308905918e-02 6.399773558635174497e-02 -1.943246677860557825e-02 -2.498911625934526967e-02 8.434888736570665679e-02 3.383993852948802977e-02 -9.608088512926486746e-02 -4.926154153440426980e-02 9.419787143273379570e-02 7.749409076177210531e-02 -7.435805784177886013e-02 -8.487325136489395905e-02 4.790761967184602871e-02 -1.075032499818191212e-01 -9.883811192553110248e-02 1.112912606713109265e-01 1.334895316309886969e-02 6.782975100175250849e-02 -1.221292930889413264e-01 -5.010649098438877541e-02 -1.208140474830880252e-02 -4.352857627813812129e-03 -4.156715510556129728e-02 -2.489025583179992063e-02 5.065368414461428326e-02 6.768463009212279113e-02 7.799293135236133601e-02 -9.420211569466074852e-02 -1.823831531755670029e-03 8.859641557482852980e-02 1.015978471835479388e-02 -1.447795751152987018e-02 1.013409586933037704e-01 -1.863486614807516317e-02 1.351425362143733946e-02 2.151669433381789634e-02 -6.326437773834564515e-02 -1.090631322216431276e-01 -4.999209409641728469e-02 -3.639681959705441672e-02 -2.464624363080034769e-02 -1.097017997964422897e-01 -6.946571948824679932e-02 9.508307103082046241e-02 3.793002178014544257e-02 4.550548935469354156e-02 -6.760861992614251859e-02 6.727327869464141269e-03 5.091397192643162123e-02 8.862278120464599229e-02 -5.189070032617849881e-03 -6.120947120580397943e-02 -8.132443093955286917e-02 -1.210483205736649220e-01 -1.109764179069085421e-01 6.218113536121251672e-02 -3.091763959616849675e-02 -2.914797263177330410e-03 -4.974777601365925478e-02 9.762626658352975551e-02 -9.312750587943609271e-02 -4.721169286534723092e-02 -6.125498783646191742e-02 8.171444375769024160e-02 6.315309298608107191e-02 1.181316978566259307e-01 4.001103966270874029e-02 -5.827389840699465778e-02 1.137316783218998706e-01 1.002510968137630687e-01 -7.140616886016273868e-02 9.245917599925690400e-02 1.043217227286381416e-01 1.181442886311688256e-01 7.538744063196313461e-02 1.462617804766482010e-01 -1.625653193899755100e-02 -4.630160674680759703e-02 -9.411960873682576056e-02 5.758466576960674654e-02 -1.092932852088030066e-01 -5.834948616878326416e-02 4.332280533110382387e-02 5.439241031500845897e-02 1.028888602204620639e-01 3.098894404849478201e-02 9.681245760707955783e-02 -3.216838257053000749e-02 3.957096841510965995e-02 -7.268175853319740198e-02 -1.074845313225482879e-01 -3.535225938750816144e-02 -8.072676807940661059e-02 -9.710684761042641389e-02 3.162453419293039664e-02 1.306356333174877316e-01 7.703490140849285697e-03 3.416561719042457337e-03 1.421704122337727472e-01 6.697310035065598410e-02 -5.180575886091803861e-02 7.574571383690618942e-02 1.175854309162993189e-01 1.010160337610162551e-01 2.189764468037509737e-02 5.662374236593623045e-02 -3.976337326609594158e-02 -9.847979403858045724e-03 4.074816826494653821e-02 1.159488680103457348e-01 1.513811543860289488e-01 7.891648332212237993e-02 3.813948779403582290e-02 1.103206735366510649e-01 -9.869574373060373274e-02
-1.468521396980820570e-01 -4.094091152510561521e-02 -2.628168952342775297e-02 -1.332385505105183887e-01 7.036775465025577048e-02 -5.801206059054910685e-02 2.528820277106429149e-02 -3.985613473956192698e-02 -1.349425275389597167e-02 -7.698105531567783766e-02 1.220904559586318133e-01 9.189422432867208612e-02 6.955595506455232446e-02 4.221771851021106220e-02 6.377025625363484662e-02 5.215648942898948315e-02 -6.241203525084097065e-02 -5.709728759126038444e-02 2.982905731011189013e-02 2.428668589608230441e-02 -8.433143118714185593e-02 4.742284878045079088e-02 -1.186620910705872695e-01 7.275259830645745829e-02 -4.304917319119340446e-02 -7.791749923059582139e-02 -6.171221371602773030e-03 -8.339690776283958940e-02 -7.461738369672385462e-02 -3.350973786286250145e-02 1.663662558834324299e-03 9.916499464301015143e-02 6.489158797793097289e-02 -1.229772273276408812e-01 3.788961859122514514e-02 -7.056055879602832204e-02 -7.371052157917711012e-02 2.626451581639850305e-02 5.230644854802461892e-03 -4.920672682981708235e-02 4.998229127136540051e-02 -1.328418128369898699e-01 -1.422304961189843966e-02 1.490340758334482429e-02 3.416954351165151643e-02 -5.693939091790171892e-04 -4.027501993599182095e-02 -1.057826842897552772e-01 9.962616209296433489e-02 -6.929047498027161855e-02 -1.325302467124435737e-02 3.987605285426443213e-02 -7.588698531444995621e-02 9.882444111266971976e-03 -6.549716025096824490e-02 -1.134644998185827675e-01 -1.056971897983566555e-01 -1.437405375151646070e-01 2.192228519902129566e-02 1.386078691845431428e-02 8.757436053813984211e-02 7.457439427883247318e-02 -1.275923525974512751e-01 -3.353669044046192482e-02 -8.330308229234822948e-02 -5.550868615090148728e-02 -3.364985743143594082e-02 -1.258844530771599524e-01 5.244968116641274269e-02 3.742782593272197394e-02 1.054759759245058222e-02 -5.050108380315861123e-02 1.185149192219260052e-02 1.279687084824844730e-02 -8.584197337117932536e-02 -4.800254146887491385e-02 2.686681094029106168e-02 -8.546514155764334264e-02 -1.198830650820163629e-01 7.258445892261443377e-02 -5.671886313069528229e-02 -1.509277967586163463e-02 7.291181727583044558e-02 1.000447140225160791e-01 -3.133897046622284577e-02 -8.455177409825220813e-02 -5.532258431081886951e-04 -3.809012433832149186e-02 4.666751887900294493e-02 2.092776403461297716e-02 -9.680983214620832167e-02 5.349573634666722477e-02 -5.560159972308460763e-02 7.367317049418943553e-02 -5.151306705144976378e-02 -1.046368964634962484e-01 9.663309915048934329e-02 -9.025010915198196371e-02 7.183022457749536904e-02 -6.272342254529390815e-02 9.071619177290712877e-02 8.559345280166276437e-02 3.214869662823146429e-02 1.085294549301232536e-01 -1.016218577115831495e-01 1.321970407513649859e-01 -7.317569431006505989e-03 9.710845027594598722e-02 4.422846968343792373e-02 1.126694488758466922e-01 1.188535484621010274e-01 1.174506453130139301e-02 1.915732932582831990e-03 8.982995878399038792e-02 -1.376380927872503275e-02 5.551812470596576184e-03 9.756141822322766943e-02 9.834454403045143900e-02 9.460508904604662817e-02 -9.506335266671828155e-02 9.338950670081759553e-02 -1.704217206509957977e-02 6.128135631547503015e-02 -7.762772557491841134e-03 1.190001884214860611e-01 -6.466763526718069055e-04 5.343006869175593448e-02 2.079044145447964120e-02 -1.395379412500250341e-02 -8.330541978499689248e-02 4.205620319570767610e-03 -5.272532926647357371e-02 -2.753108875800489713e-02 -8.481711361257386617e-02 -2.125730449240140207e-02 6.275129875783509725e-02 -5.614066834595905775e-02 1.047533334490029873e-03 -1.151517900356210100e-01 3.053469487573027760e-02 -7.151017436031884000e-02 -3.927678306409903425e-02 9.365263846034174722e-02 -9.856903693247643511e-03 -2.987585799124775621e-02 8.352990635153313692e-02 8.605881313540247879e-02 5.401989578458653296e-02 4.216170213835296332e-02 8.426545338852231559e-02 1.029965342926262156e-01 2.375001114177410430e-02 -8.620358775942908724e-02 -1.963938797126947577e-02 -9.498751138679729922e-02 -2.401689583310151130e-02 4.842515463521328278e-02 -7.503482710579226223e-02 7.849088026521514744e-03 9.344890429013991140e-02 -1.200218087270909784e-01 4.071047096279395427e-02 -9.579092692723537028e-02 -1.252316941705545472e-01 5.840722538059374414e-02 -1.127535696256049547e-01 -1.131246129240104370e-01 -6.386589698132999482e-02 1.014062068428077529e-01 -7.303204464778161910e-03 -4.048307209671875989e-02 1.179933957670305789e-01 1.176897844070601620e-02 -6.488092130182089579e-02 -7.822375972923890919e-02 5.703102419353228703e-02 -7.863524805950254659e-03 -6.254043553682434031e-02 -4.438865430260759831e-02 9.949451433425161861e-02 9.619909874185740561e-02 -1.266582454037261940e-01 -5.656852946505113583e-02 2.030533048587711623e-02 -4.883444658284893242e-02 -1.127926754132089898e-01 -4.991618652038595783e-02 -1.045214403056358154e-01 5.294454167396513838e-02 -5.376445709696550668e-02 1.039027228296379307e-01 -3.865549316408548475e-03
-4.235703678363458846e-02 9.858196530851297268e-02 3.700837988459447503e-02 -9.047189775847735982e-02 1.217099734854043824e-01 1.225022597376080290e-02 -1.365566581555584247e-02 7.378363959532958927e-02 5.524891029521001445e-02 3.548499128325666857e-02 8.705820587977537717e-02 1.462811127605810092e-03 3.400148484754505346e-02 -8.290718797559495316e-04 -3.946643516321191036e-02 6.114190989716224156e-02 -7.780828949660911764e-02 1.258722743470296890e-01 2.019510671567580073e-02 6.227867488024936560e-02 9.340115260116865770e-02 -1.198938878088462723e-01 1.321039311462046395e-01 5.586546196298279587e-02 -2.816180488038093344e-02 6.217929672312566547e-02 2.210322061483460665e-02 3.655450837932541774e-02 -9.482997373684842746e-02 -6.002238382036059750e-02 4.203345267013497422e-02 4.889622164885031735e-02 8.972558465591471896e-03 -5.056959695073914157e-02 -5.676658947422481144e-02 1.063956898532385786e-01 4.308178073129950020e-02 1.403837245997175409e-01 1.337740887639574661e-01 5.782169454991394758e-02 1.417480138568671770e-02 1.114573330468095549e-02 -5.550600331142985233e-02 5.467793909979475758e-02 1.129854588059714532e-01 7.362873239588056673e-02 -9.436184151260061659e-02 4.769684056767971997e-02 4.397618105478518641e-02 -9.322971418150487535e-03 -9.755562990245436605e-02 6.927694527877620301e-02 3.151379910781779148e-03 9.533366565300005480e-02 -5.743550927991640520e-02 9.587869729049859624e-02 -3.784861983054457757e-02 -8.821474755266384138e-02 -1.101458965635160325e-01 -1.581541014345288695e-02 6.857565967170421717e-02 -1.029174058878801062e-01 1.093319482319411590e-01 -3.624097051760111210e-02 6.982863543812097007e-02 -5.028822598837030811e-03 -5.617813155974580447e-02 1.205865742696822923e-01 4.280975318385849687e-02 2.397436164890954027e-02 -5.265075383936976966e-02 -4.430928349188242160e-02 -2.705039095420080225e-02 -3.943709806145145186e-02 7.858188458797256415e-02 5.438423339016965757e-02 2.341106738548187280e-02 -9.167220938929669660e-02 -8.357375338448891355e-02 -1.790012258034725731e-02 -4.662318961797284195e-02 7.314096384120079286e-02 2.773266634850709081e-02 4.843817789337298563e-02 -3.714588136331886670e-02 -7.851760613913405518e-02 -1.173688747019023121e-01 -3.836050963450197970e-02 -1.122666918936535280e-01 1.851674983818144340e-02 5.007508431640921021e-02 2.885560486607835831e-02 9.071964228061524249e-02 1.365422816210397905e-01 1.777883074067148142e-02 -9.605112016949844678e-02 1.084396866954242915e-02 9.125353466902029476e-02 -1.245940294081332583e-01 -9.503392243716700383e-02 1.295701888542287114e-02 1.222700811128292070e-01 1.183508329826403610e-01 -5.443711008445147048e-02 -8.874056054450647768e-02 9.619188720575994056e-02 -1.106825216651241700e-01 -6.407677657010167616e-02 -3.851387885562999186e-02 -2.071674808208030794e-02 -1.416714283070232352e-02 -5.559175399831870618e-02 -1.483569435321500408e-02 -1.053845855184354363e-01 7.744558264794250413e-02 -8.670676556216223851e-02 1.562073013478098259e-02 1.076561153452799680e-01 1.043666124800982364e-01 -8.170019898746928855e-02 7.171042891690578014e-02 3.082326242225454788e-02 7.588945209824807248e-02 3.318873934004208659e-02 7.537078066092084416e-02 8.073008570874971868e-02 1.138076159800653908e-01 8.824495173301329098e-02 2.025539318496178895e-02 6.774597719295982409e-03 3.805198513400344894e-03 4.482045313539053527e-02 -1.128255251512605417e-01 7.475467949950841129e-02 7.799493233367486844e-02 3.189481499022465277e-02 5.708464386278818553e-02 1.567205766234638920e-02 -3.429293532057725580e-02 6.012562586096200506e-02 -1.123699821420603810e-02 -6.308733521357465235e-02 4.277357335379344122e-02 4.912004261610291439e-02 1.997951380037234215e-02 -6.554401831782283305e-02 -3.892345108275895721e-02 1.525430258110215820e-01 9.626837893833770088e-02 -1.199981436323144246e-02 6.624807660719740643e-02 1.305897785875497763e-01 8.519608409302983909e-02 9.922237152257276649e-03 6.145386453462108045e-02 -3.270643586706809599e-03 -6.222572192098258653e-02 -3.403748605980158604e-02 6.229030292815882636e-02 4.849224011867132866e-02 -5.331543324621025592e-02 2.626322468113513955e-02 7.694834622270442515e-02 -9.066995955072396085e-02 3.776781442207818862e-02 1.230973656853316806e-01 -5.489591833365980306e-02 -6.159325918992111792e-02 -6.586133078407592489e-02 8.580842836096914950e-02 -1.949748189811252239e-02 -2.072771219086908673e-02 -1.106730435860268369e-01 -1.106391429173792657e-01 -3.998918445810176192e-02 -9.264304085755140084e-03 6.590168010042990465e-02 -1.167840943975981122e-01 8.746571746685498361e-02 -1.142270448465261025e-02 3.172314581130515534e-03 -9.169162117671782186e-02 2.506747082545424110e-02 -1.056241277308847398e-01 3.185546208708156524e-02 -1.304088241901910916e-01 1.043605216003196806e-01 2.740069744765842932e-02 5.748621687835841348e-02 1.257092298481873038e-01 1.158519875315615344e-01 -2.062739943391546371e-02
-3.972215020401193009e-02 1.117504785083374974e-01 -8.141717564447771213e-03 8.155437909344535885e-02 8.579687409467688652e-02 4.158300058617038497e-02 1.765572260539726226e-02 9.667317136596216554e-02 -3.520482930270953104e-02 6.063575635039989559e-02 1.054460509532304524e-01 -4.134955891447456705e-02 -7.694226076512468426e-02 1.137829798440073148e-01 8.230002794574539648e-02 -7.090434538418972921e-02 -1.343822416843566125e-01 -8.033370175107207301e-02 -6.750210470792085415e-02 -1.337072316631782443e-01 -1.246430287082550548e-01 2.809481623376555715e-02 -8.514947800889421936e-02 8.947187753097794738e-02 6.265635750406642335e-02 -6.745172996611216443e-02 1.000147095457836893e-01 -4.804121492162452545e-02 -3.339048178500433200e-02 -1.050115359552484390e-02 -3.578987126338373931e-02 2.257068962233016104e-02 2.363341949990914806e-02 -3.234001221830759554e-02 1.424001142539687258e-02 1.198069139971968435e-02 -5.828740847766910455e-02 -2.958800760235586261e-02 1.491622852606659319e-02 -3.923495778165540793e-02 6.753439534804253630e-02 4.674803034446812361e-02 -9.912829975624216916e-02 2.092569361936214706e-02 -5.829961846101813089e-02 5.624417735589178763e-02 9.358284887206655411e-02 9.913668613401864504e-02 4.634955691259297350e-02 1.058011445046349031e-01 3.626330546353147971e-02 -9.134618653719131509e-02 -6.193967803445215442e-02 -5.788361535563468774e-02 -6.499331786298935369e-03 1.075388731295906465e-03 3.814686006455668410e-02 -4.833548761843492469e-02 -1.760405832156700795e-02 -5.722522338354262862e-03 -1.062864754134952572e-01 1.162373254616982932e-01 1.051472686739905876e-01 1.197351252226973445e-01 1.418236087004776103e-01 2.169031742086038536e-02 1.169353875927079192e-02 -1.154198687153092789e-01 1.299310467304387040e-01 -6.122246003205670389e-02 7.973438448224950958e-02 5.455216579738173671e-02 -9.593656628633046024e-02 -2.574954891330970275e-02 -8.447565527529649065e-02 -5.858069835007486542e-02 -9.520183908325408062e-02 -6.550040095772166268e-03 -6.786645354391025731e-02 -4.138598903582733218e-02 -1.045966267739727867e-01 6.453285039055071948e-02 1.570000391101848691e-02 7.078202264381161513e-02 9.697637579608429925e-02 4.290448181843186520e-02 7.359280629533763995e-02 3.111939670722440460e-02 -3.451926815965548206e-02 7.743417428476032094e-02 -7.718116884510944908e-02 -4.209246528315020025e-02 3.002430808363854356e-02 7.695942149931274401e-02 -1.249345403369333946e-01 -4.808890074940420228e-02 -1.197287755043667801e-01 2.727420944785545476e-02 6.176872351573270414e-02 6.983921088213407638e-04 -2.863095016369184703e-02 2.633705207768920198e-02 -4.879485068143377124e-02 -4.994715348437776814e-02 -1.040413160931334263e-01 6.723241591699318928e-06 7.471044981594284623e-03 -9.441820737659849250e-02 8.736751878706910945e-02 -6.165605370628977205e-02 6.086856804836338064e-02 -5.536015710764742581e-02 2.453194854767240529e-02 -1.030985160013323659e-01 -8.689546055408338410e-02 2.643411283716936080e-02 -4.689835884952187756e-02 -4.242385475686674678e-02 5.026904552182780844e-02 9.538175092712852798e-02 -5.457192168555076439e-02 -8.361390505027188613e-02 1.295672582117200766e-01 1.866510512849027525e-02 -9.067437666774644245e-02 8.614895579673002846e-02 -2.550073672681939588e-02 1.017055194923068562e-01 -1.377087444214883938e-01 4.209728209808743377e-02 1.381020424573896170e-03 -7.659462682359735597e-02 -1.241012244991195612e-01 1.376343758737553769e-01 5.132332107364799556e-02 2.969010720635077878e-03 1.071979663775236707e-01 -2.140288021199906326e-02 -7.063520422456985581e-02 4.966267273065376464e-02 -9.824857510340445892e-04 9.855716752564001870e-02 3.397064321956119737e-02 1.285936569210426317e-01 -9.257848882442031024e-02 9.496179609097896027e-04 1.615561874729631864e-02 -9.943997047833201541e-02 -6.440098283753510622e-02 2.727212263347210744e-02 2.590773086355722260e-02 2.173044181206439454e-02 2.284781238258554170e-02 -5.245610899123540061e-02 -1.192008896420203162e-01 -2.831119015043803006e-02 -8.452701058013427360e-02 -6.297712051017501089e-02 -1.684490126084220787e-02 -3.516455945059634297e-02 8.652082914051800744e-02 -2.717068290569895836e-02 -1.261246508825201451e-01 -3.543060865254760161e-02 -4.259308551083085259e-02 9.037785373036402725e-02 7.429613305229768039e-02 1.501351388682614640e-02 -7.190018213410794001e-02 -3.824541297604753393e-02 7.626591217287476132e-02 -8.442258368824562265e-02 9.648609890927538346e-02 9.391456551642594908e-02 -6.374021640225381591e-02 1.078408310316213981e-01 1.066723947850680698e-01 -1.325709263433141327e-01 8.086889519322509878e-02 2.192962622776411380e-02 3.127681773405543986e-02 7.940239395392766075e-02 -2.305186699670666930e-02 -1.108468216583545496e-01 -8.394858823388330615e-02 -4.084056767464177423e-02 -3.185651806402359232e-02 1.589362529203245528e-02 -1.943892223305334829e-02 1.120506827543081563e-01 -5.907579695866024133e-02 4.795629553265981504e-02
-2.311733900001300412e-02 7.839307589867181014e-02 9.494906347113329925e-02 -2.259275312401676228e-02 -2.250974262934595654e-02 6.489692726806096934e-02 -5.005129986136134385e-02 1.382442280113718724e-01 -1.233462386649554626e-01 7.337226493825585102e-03 -1.053882949122134927e-01 1.161493270246540151e-02 -3.928978803485910776e-02 -1.142330341238721458e-01 -3.839552305067241850e-02 -3.001338752341104962e-02 8.355276495213200547e-04 -1.356688651133303447e-01 6.835178628358598574e-02 -1.286265565509004116e-01 1.754360730308441793e-02 1.571624581079966720e-01 -2.997688986904425631e-02 -7.317090966558170706e-02 1.093287530616163100e-01 -6.733969083799855315e-02 6.528401175330732220e-02 1.140126639313249202e-01 9.077224549179976898e-02 -8.714096385387889304e-03 7.864586752140656500e-02 7.710198389846019407e-02 -4.914819435166431494e-02 8.609171389875883151e-02 -5.737086920990902561e-02 -1.518181306193475306e-02 4.518167394630456107e-02 -1.277756550028644536e-02 2.303857088428534327e-03 9.939565784863164943e-02 1.580482311135093451e-02 3.168506450754583759e-02 -4.153935766827967363e-02 3.789269158606829030e-02 -3.855924275852874727e-02 6.182369471888637946e-02 -1.099313803613202571e-02 -4.699897827405279810e-02 1.312555196708696248e-01 6.783425575125277829e-02 -7.083902364806600287e-03 6.898300700934355267e-02 1.258075454740513743e-01 -5.788917955291021655e-02 6.678670355617223608e-02 -5.857482509621864120e-02 -6.626574363257506373e-02 3.071367800606834148e-02 -3.098184643162187404e-02 -4.390592685906848786e-02 -1.224568420192188867e-02 9.279993416337635470e-02 1.075178871254560131e-01 1.358648695201483680e-01 4.316145454784550001e-02 -8.618485905536696356e-02 -6.314464363889245313e-02 -8.887069671647705726e-02 1.302300675513539396e-01 5.464758472183403604e-02 -3.857553727899309254e-02 -6.124810599234491171e-02 3.749598119691073539e-02 -1.144030023543977370e-01 -2.230935806517220579e-02 2.522741668674069113e-02 -6.321983550902857130e-02 6.597811405443695411e-03 -8.793057118051224308e-02 3.546424219412049050e-02 -8.233841915039763482e-02 -3.333923077966200604e-02 7.413397621624727429e-02 -3.989199948281427210e-02 -9.922710742111494342e-02 -1.053425219400852264e-01 7.574271083773786994e-02 8.404393647063039541e-02 2.550085578648169163e-02 -3.074852630904931911e-02 4.988553590995453008e-02 6.481237910389455598e-03 2.252417452375291701e-02 -4.949146798253185181e-02 -1.119168901389900328e-01 -5.390280883341975332e-02 -1.951068331757895707e-02 -3.119925891925496783e-02 -1.651381160593443781e-02 3.171510128380858329e-02 1.115923506552182753e-01 8.494949878308506730e-02 -7.222295381943624748e-02 -4.540533024922618205e-02 -1.222213287676672117e-01 4.291940081326797718e-02 -9.415573396291471164e-02 5.705847307552115721e-03 -9.215768728409697019e-02 1.147114945104640571e-01 7.447058263647171605e-02 9.148758493834627248e-02 6.797284630516017834e-02 -7.462557126670257834e-02 1.060982433565736682e-01 3.101964606713257869e-02 9.106933324828680662e-03 -3.086894625681353005e-02 1.094758996008017016e-01 9.511602717356947012e-02 -6.798239502867704787e-02 -8.187784402017056484e-02 -5.017055082482430733e-02 1.739390682503359417e-02 5.946196765909452647e-02 -6.828606624962145488e-03 -7.514344413091048058e-02 4.256888863564203818e-02 -1.068771486824652006e-01 7.097137223837282627e-02 -3.647512767132530392e-02 -6.233643811439387554e-03 9.011716470546435320e-02 -7.569907361708125282e-02 4.887575765083221335e-02 -4.119189047850696506e-02 1.015869744052317752e-01 1.337494994073833675e-02 1.027586658358944048e-02 2.311663770703700771e-02 1.078260622036385404e-02 -1.032299953974259027e-02 2.645816406988041325e-02 6.874334202391574333e-02 -6.075575036305266158e-02 1.542310246059856900e-02 4.256170246134801521e-02 7.443515836029890309e-02 4.680869283475199566e-02 7.262977461631734029e-03 -7.706893726479446816e-02 1.073622802454413383e-01 -9.416933570546645593e-02 1.133632315409311836e-01 -5.316939907717816577e-02 2.046198524109779301e-02 9.212868903715697145e-05 1.641222181636531297e-04 -1.262339738037278614e-01 1.511291174005596760e-02 -6.003201858445617435e-04 4.063128016609977855e-02 -3.294008442764369618e-03 -7.859424919658139497e-02 1.079736923923087788e-01 1.478872754754195495e-01 -2.747169966893807380e-02 -1.035508723097124939e-01 4.563204694798568550e-02 1.347260009793077862e-01 -9.065565659314551994e-02 8.560353701719462804e-02 8.243419259441855940e-02 -1.681498385057225708e-02 1.893342148777286266e-02 1.313777536258024514e-01 -1.289808968734762647e-02 1.599372682782994604e-01 1.275261696759389385e-01 -6.566601268449939743e-02 6.765304917627772141e-02 -4.199739155211820035e-02 3.123979541395279294e-02 -2.234885156463390851e-02 1.067511145718838539e-01 5.863488432616639767e-02 1.321309018761566423e-01 -9.686880843251360895e-02 -7.568362632614562824e-02 -2.564705903060893535e-02 -1.361598887390331677e-02 5.981220871744181988e-02
-7.329880142468130078e-02 -3.825916119546063539e-03 6.953225757445416488e-02 -1.167830705469057595e-01 -2.925765587383829386e-02 -1.500548017825562019e-02 -7.708325391943202966e-03 -5.606583148595694482e-02 -4.009687971197217760e-02 -1.322335043574391078e-01 6.087071332902650733e-02 6.879063441635610565e-02 3.308329325214156430e-02 -1.052634815794980909e-02 7.329127482659653081e-03 -7.263651371424299785e-02 5.811114314930852093e-02 1.432387585558942897e-02 -1.980478094549965873e-02 5.257338348899703168e-02 1.547838685295726269e-01 -1.150268624687278696e-01 -1.114111653077907854e-01 2.016302151654751629e-02 6.258491498503469808e-02 1.002578935668514137e-01 -3.864931870581248680e-02 -5.791908462412345693e-02 3.070187113452711725e-02 7.554164340724618676e-02 -1.029414785161774232e-01 2.131642978313719530e-02 7.293192489339941909e-02 -3.295175147336167759e-02 -3.822392208521984379e-03 1.014555093467196453e-02 4.876929084709453327e-02 -7.136383248051328398e-02 -9.327707207070016701e-03 -9.830252572252087817e-02 -1.020138143714514195e-01 7.627093451275736291e-02 9.671431215194313535e-02 -6.944727470320859186e-02 -3.494391167699143624e-02 -7.362236305711573892e-02 -3.308574389387167886e-02 2.643501401866798356e-02 -1.107056500340417721e-01 -4.422898441567892081e-02 8.209117272757066042e-02 5.035297323463618774e-02 1.286555828758924047e-01 8.916621814510354571e-02 -2.818044325013037074e-02 8.444256256915620706e-02 1.103703164965179340e-01 4.702020289092360625e-03 -3.820804800613772367e-02 -9.806209714785919448e-03 -4.477956064409170656e-02 1.192497999578230744e-01 1.171638749154951947e-01 -5.183695654924690838e-02 2.129216970139244380e-02 2.235862189972790889e-02 -6.594685954740217744e-03 7.494700237152143729e-02 -3.011243886189969576e-02 -1.082956329141723240e-01 -7.432485032686220877e-03 1.504818848416290475e-02 -8.444784136799523416e-03 -1.085124003448235813e-01 9.774577534737757811e-02 -5.217095773401775327e-02 -1.722169973380467331e-02 -2.826000162009498218e-02 -5.360762453304784153e-02 7.656607246641466968e-02 2.328560016094762680e-02 -1.077701042840406437e-01 3.613605439732550662e-02 3.384130780380627257e-02 -1.788200752580262204e-02 1.112636515880084387e-01 2.442731096266178084e-02 -2.636368659217168745e-02 3.028411316081889085e-02 6.652825422685476262e-03 -7.718141649821640138e-02 5.857248653752202688e-02 -4.553063304676230327e-02 6.027956795274291152e-02 -4.645854854428699277e-02 -6.102608174629281339e-03 -4.864133709443686608e-03 -4.558726230658176337e-02 1.189798832767957754e-01 -5.866720363770049204e-04 -7.730442385665083072e-02 -9.475512959604094620e-02 -6.291959434326518941e-02 -3.871589608383826930e-02 9.266166242095665029e-02 2.114445494341295542e-02 -1.045329913415697920e-01 9.094047993215700898e-02 -6.794470862448608039e-02 1.191581059453176820e-02 -7.786747566899561695e-04 -2.064146634292220520e-02 -7.407958917878680605e-02 -1.150473253759493469e-01 3.385754391334560437e-02 -1.145811647717539898e-02 -5.961873941649835362e-02 -3.583426905131344153e-02 1.324219755854813829e-01 -1.401109906700482299e-01 -2.141449864511611040e-02 -2.576159180315181624e-02 -1.021019488653803903e-01 -1.098660256096501142e-01 -2.047837505191994756e-02 -4.019711041021076930e-02 -4.784652012354385225e-02 -9.795349703399795771e-02 -1.024897491077728789e-01 6.224561071477860419e-02 -7.007332692871390267e-02 -3.277335069417391250e-02 -7.947070312744974885e-02 9.130743465854786189e-02 -1.792256627682242351e-02 9.833222365818831967e-02 -7.253007422463203513e-02 -6.654025156168973110e-02 9.166473720801590619e-02 1.123747179265457558e-01 -8.231577682696133991e-02 3.217409965485078238e-03 2.592082146637836315e-02 -1.403143821635289279e-01 -5.938552549487333826e-02 -4.467547526296235250e-02 -1.358512919182802425e-01 -5.656376465815677462e-02 -1.131871994613757454e-01 -2.256155746884982299e-02 3.406008374000485395e-02 6.797598196812919269e-02 -5.994463867647389921e-02 1.048089507247754876e-02 1.047621617116668499e-02 -1.061284570960255025e-01 6.608991940417632827e-02 3.075144344842629593e-02 7.988759539519972586e-02 -1.309675178321675904e-02 8.898474231913076904e-02 -8.365806170020506638e-02 -1.266361876541142462e-01 -7.740639836340532098e-02 -1.659311195036854841e-02 -1.194846348161151123e-01 -3.764902937184105153e-02 2.575040891343874372e-02 -2.665514859823774757e-02 -1.060425478464010335e-01 2.603131938423000266e-02 9.723144303238086261e-02 7.974232029879705849e-03 6.597825492882739007e-02 -1.850077629722516465e-02 1.349776296505029727e-01 -9.576777994940154082e-02 8.858673661849469916e-02 5.214700320074389800e-02 8.954895501571639299e-03 9.402387414885626793e-02 -9.048522350302377198e-03 -2.465748534133112985e-02 1.446156113023159551e-01 5.631330564687446472e-02 -1.003505016923190579e-01 1.201847310851430345e-01 9.998990148242145604e-02 -1.376489955747538241e-01 -1.497500074251385260e-01 2.815159598654340747e-02 6.943629385879332427e-02
