-1.433842672438564725e-01 -6.234139862806543225e-02 1.486597118238937865e-01 1.758990213242808132e-01 -7.602991314976093040e-02 -3.224161394501113415e-02 6.253502487228258799e-02 -9.659580034644224544e-02 8.443290139661202565e-02 2.580586256165141520e-02 1.106497083722380176e-01 5.763033924439261296e-02 -1.089161701791625282e-02 -1.127622540997648554e-01 -2.419733281264043389e-04 1.050988373328029385e-01 -9.871090254531894592e-02 -1.716520081380750740e-01 1.101367746391393038e-01 1.070198355252130057e-01 1.246855327455159007e-01 -8.822698743630673357e-02 -8.418476490041343352e-02 8.661940232423328764e-03 1.239434341091155967e-01 -1.142027914145749695e-01 -3.698521217962855417e-03 1.795594828376541607e-01 -2.484871690389620774e-02 -7.790325283224855402e-02 -4.107780643364810497e-02 -1.534905600237692902e-01 1.718132511877772106e-02 -4.160789930188368846e-02 -3.652579476840503436e-02 -1.422010404587767396e-01 2.356215253188441439e-02 -1.090581009528255874e-01 -1.233894251071692427e-01 -2.849744403230412794e-04 1.020686182324204994e-01 1.073641013381604684e-02 3.405480608051483782e-02 1.293148913823734814e-01 -3.003722192703227670e-02 5.495237566748949198e-02 4.922089116669896292e-02 -8.277644051315995177e-02 -5.052318997344494578e-02 -1.421076915146204656e-01 -1.057826593015613048e-01 -6.827560994380897641e-02 1.005711459977678274e-01 -6.050132276967292583e-02 -4.651562446035438503e-02 -4.960061138047270474e-02 1.444176590554352713e-01 -1.018790315660326740e-01 -3.192508444396207484e-02 -3.107548350214348748e-02 4.356820154965736214e-02 1.589655548150468445e-01 7.634607382057423397e-02 1.254842423063371182e-01 6.550690510903850461e-02 -3.949930424387118263e-03 -7.044664713703546743e-02 8.901016020530506945e-02 -1.138456357718988995e-02 1.088532246170157147e-01 -9.464292731638636325e-02 -8.649631804928534229e-02 1.183106937408465731e-01 1.284147698765183976e-01 1.358215260115909206e-01 1.599718812486687902e-01 1.590513069644191868e-01 1.417362788929845963e-01 -3.656203998417079104e-02 -2.353462083943636679e-02 1.779537015743444528e-02 -9.288847487048311480e-02 1.608162700889726182e-01 8.659416244736020674e-02 1.569959634078612887e-01 -1.768631574816998953e-01 -1.586144763921541745e-01 -1.238694352875222976e-01 -4.152944200434106198e-02 1.246780659031051092e-01 -8.107180620491849510e-02 -1.263726641061227174e-01 1.392770099546958018e-01 3.618601899201184108e-02 -1.521445922009553031e-01 6.427533570208845970e-02 9.594029285017263708e-02 1.728426957864140912e-01 1.148365285556979080e-02 6.594512646021406799e-02
-1.377269529752987998e-01 1.407464399113266332e-02 -1.117305621259337411e-01 6.571512619999862748e-02 -3.579707891182457719e-02 1.260599786287317503e-01 -9.796299267091251872e-02 5.131570311628171760e-02 -6.251587274237749292e-02 1.006330990765339078e-01 -9.942452384330523196e-02 4.080904797208216648e-04 8.492123341942153791e-02 8.293090701501273920e-02 -2.925972180052706026e-02 8.939192357874226058e-02 6.929928120244703560e-02 -1.812440511072143101e-01 1.813413312626061535e-01 6.272733659968279807e-02 1.428555012995528228e-01 -4.702527597791308217e-02 -1.228220090924796032e-01 1.389265314184086053e-01 5.590279399593250237e-02 -1.135447761194979949e-01 -1.588160551324091230e-01 1.257105335580851468e-01 1.068457765149232880e-01 5.981428401315360549e-02 -7.161345273527991440e-02 9.667744261536942441e-02 -1.001466656800399091e-01 1.552782235556631474e-01 -9.295966188504827324e-03 -1.520752286884719806e-01 5.930650427961384197e-02 -1.211054514453017983e-01 -9.618511158643783254e-02 8.414570852599430328e-02 -3.403816045403382229e-02 1.538048556235114758e-02 1.981205888908013080e-01 -1.203766094397475117e-01 1.356017624081110040e-01 -1.144879087682168090e-01 -1.720442427637731281e-02 -7.885627169052128460e-02 9.352360780552862463e-03 -1.105171479620808694e-01 -1.719701581976187596e-02 -1.624354813500038242e-02 1.476621294406288143e-01 1.527814799136427981e-01 -4.303283769115144597e-02 4.334252982770320228e-02 -8.161069662091179067e-02 8.905295599150377106e-02 -5.912964933339696916e-02 6.597305933701119729e-02 -8.910481718281398900e-02 -8.859033578757717631e-02 1.092932683642674485e-01 1.083015965997563557e-01 -5.243793870284915032e-02 8.443182073135285792e-02 -1.574610164503311982e-01 7.417745752869488174e-02 -3.008737407853954993e-02 -1.662445059371034373e-01 2.796208357581237910e-02 1.947380937463218456e-02 -2.129735280189251623e-02 4.399663413552391822e-02 -4.296307816585046013e-02 -7.346512236061450429e-02 1.454735486717556037e-01 -9.574268992256408650e-02 -1.049487757083934214e-01 -4.901972725506835438e-02 -1.788308401208079865e-02 7.769481433354802347e-02 -4.237512050867600633e-02 -1.084632272405562231e-01 -3.606295589659404277e-02 8.276880015774537580e-02 -5.779964286845461208e-02 -6.615804362881375078e-02 1.177038950561941910e-01 1.429175794676088851e-01 1.267374324729908476e-03 1.275520971865798381e-01 1.140619740789869940e-01 -1.551749865303030385e-01 4.303085152963907062e-02 1.948573076932179626e-01 -1.578305855309176386e-01 -1.063383708010301743e-01 1.911374172832588647e-01 -4.326602474186871244e-02
-1.005139676435224394e-01 7.584620147254334845e-03 8.198076925221894906e-02 3.394096709063647993e-02 -5.675519377908603419e-02 4.400830872305697833e-02 -1.626211868574802821e-01 1.106890600937733837e-01 -1.099641457380772097e-01 -4.435751281533717449e-02 -2.544287905717701470e-02 9.748477911413682556e-03 -1.723272613407843823e-01 4.508001247352044077e-02 -1.126493064199104305e-02 -1.235309078745939482e-01 -4.009215112069990788e-02 -1.883558239001568158e-01 -3.005533392610114721e-02 -1.648040543948779690e-01 2.079577411306800239e-02 1.014522702750797617e-01 1.292560449527459243e-01 -2.413648126272550931e-02 -1.687955305491134830e-02 1.249112328414238304e-01 -3.615972327960566973e-02 6.794492116394655612e-02 9.157644279463286741e-02 -2.498838331857368075e-02 5.265276949862983781e-04 9.459255868156059288e-02 -6.934453222279737816e-02 1.048772281553568692e-01 -1.494946528804328434e-01 9.778213684305521458e-02 -1.590649412524133832e-01 2.127455840744514881e-01 1.143210503166404018e-01 -1.103934368849832093e-01 -1.239623364284971746e-02 -7.337473936360416893e-02 6.524012931777953272e-02 -1.244222901733832154e-01 -4.704034767245483806e-02 6.453783149920151729e-02 5.147102386626561943e-02 -9.700410067430233207e-02 1.212904437445079808e-01 -1.436115162540925749e-01 8.232836576437171927e-02 9.543054059089517427e-02 -1.237827131824423693e-01 -1.275888646137945948e-01 1.361574074762068043e-01 -7.772230550742276201e-02 1.692174317362762082e-01 3.663673718609632840e-02 1.526878895622703070e-01 4.994782069352073084e-02 9.404251752148244659e-02 1.206819454429468030e-01 -1.319764418126648520e-01 -1.622562250274771703e-02 1.265258207896235720e-01 9.758738834324195976e-02 -9.335649069541955558e-02 -1.653147238812052722e-01 -1.045683247636893937e-01 -8.123541354760047128e-02 1.350704196462524098e-01 7.948368214581620628e-02 -3.028135034327528174e-02 -9.080429677311066539e-02 -9.077466702225621409e-02 1.426355968072085534e-01 1.014500849083396494e-01 1.241751396867776976e-02 1.768232339431743960e-01 -7.113726430285909064e-02 -1.182730866762165406e-01 -8.890856054464991998e-02 -8.283487893143669234e-02 -5.369133415239996099e-02 -2.579681336645051060e-02 1.432273153260503473e-01 -1.023475497932347100e-01 1.122812636812655779e-01 -1.138674700148638169e-01 4.656448252246539465e-02 1.233062484033569384e-01 -4.140730743842728490e-02 -4.173738240789852394e-02 -4.628875979624916086e-03 7.696775393970670121e-02 -1.213385331667264228e-01 -1.213797114781585557e-01 -1.113757121386191595e-01 7.171060285672455070e-02 -3.000304542147138112e-02
2.033490031558661190e-02 1.134036301045325823e-01 8.700163046655408350e-02 2.780348977730701804e-02 1.268201817785873653e-01 -8.002722717078834813e-02 -1.710446633529890403e-01 -2.836051068855347315e-02 1.393824232747103709e-01 -1.122411810635563639e-01 -3.210905776174834830e-02 -1.554524212996669097e-01 -8.783712591713638274e-02 -1.341350319383913248e-01 3.940973823884665050e-02 -1.709671153703312407e-01 -3.412708485819578030e-02 1.783156256058857081e-02 -2.098985843852109456e-02 1.277663819098933395e-01 -7.529485409644878779e-02 -2.539494515494016350e-02 5.653572472390522990e-02 1.406674473710207152e-01 -1.128870464839081683e-01 1.205415368774305912e-01 1.159706225266634028e-01 4.362861097472105210e-02 3.862727963313082602e-02 1.075893311895543270e-01 1.903913931521462877e-01 -3.910702209812075975e-02 -1.295621173958990541e-02 -1.447542496968474424e-01 5.133475688703725837e-02 -5.800477423914410235e-02 1.378104471139748877e-01 1.111579896302599957e-01 1.706293052318025028e-01 -5.293793366166506253e-02 9.014389005099035512e-02 9.613943458549650822e-02 1.472584921850987327e-01 -2.004254747459401909e-01 5.500606369108502341e-02 1.732690730499243659e-01 1.051727964724895326e-01 -7.663388556647361682e-02 -1.456228567959626796e-01 -8.846673436244686939e-02 4.441648457511951364e-03 2.696923008901991325e-02 -2.946580165660060181e-03 -7.642432131251460092e-02 4.418827309522860985e-02 1.794080781883529152e-01 6.167420626308802584e-02 -1.560951151386356928e-01 8.443765201069279580e-02 -1.296664030016451696e-01 -8.420448382426418132e-02 9.300555669420175822e-03 5.760300427482353824e-02 -4.443974742719029869e-02 8.171166983652158877e-02 2.764640204916388525e-02 -4.947654879617712637e-02 7.880208395453223991e-02 1.871669571067410831e-02 -8.807546157022412558e-02 1.042290776116318457e-01 1.988755038180564302e-02 8.603297067699714959e-03 -2.701912594553325386e-02 -1.199391566009436888e-01 1.098486704438986356e-01 -1.509230228861925260e-01 1.806987817273391639e-01 6.997321832160029176e-02 -1.079655854756195327e-01 3.049495812742625961e-02 1.606019859821301576e-01 -1.356050573126535985e-01 1.768398734768588179e-02 -1.153668748051951964e-01 5.905988134991044941e-02 7.136398117963280163e-02 -9.789118572520549497e-03 2.419405827573272230e-02 6.810603936522377500e-02 2.442592410670006015e-02 6.017576989789968217e-02 -9.345923390860978730e-02 -1.857009742209844438e-01 -1.730578419922676192e-01 -3.419461331287109579e-02 8.294444151707797142e-02 -1.345968495989237901e-01 -7.529566632780923530e-02 -2.454637770426555676e-02
-6.075309199401316557e-02 1.212224394109071568e-01 5.237167682307317801e-02 -7.123808609822876795e-03 -5.796616169761429488e-02 1.604951098438232582e-01 -2.016187837203216662e-02 6.497962630304249254e-02 9.724026205113251234e-03 7.680377358556575440e-02 -1.100902139516922451e-01 6.963812988492147638e-02 6.248831483032252047e-03 1.137854858324496565e-01 1.228580660905341237e-01 1.056947618922574050e-01 1.475044821041494869e-01 -1.128852507743808020e-01 1.852674025778409395e-01 9.730367994718688851e-02 -1.099508858051117810e-01 -4.990261101147962924e-02 -1.398200946367707531e-01 -1.498567779083345153e-01 6.654795922524954499e-02 -1.025635175071943489e-01 9.461530926647587769e-02 7.890668048137174095e-02 9.088419900747849930e-03 -1.133463085001695098e-01 -6.924898711025924414e-02 -9.255364514158569145e-02 -1.683331214369003515e-01 -1.584670628435356776e-01 5.534674165826929115e-02 -1.221312062543180449e-01 1.699077459359628894e-01 6.203466879947527879e-02 1.832710201497404490e-01 1.101897357012883022e-01 1.152156669940878897e-01 4.368717880050879132e-02 -1.122554880195130583e-02 1.895964376957817808e-03 -6.656228339223907442e-02 1.989544013665233146e-01 8.914036848754740283e-02 2.293533319372833071e-02 -6.046284148788527366e-03 1.942783094922238829e-02 4.055610753150741543e-02 9.216200625263579194e-02 7.888503065315030649e-02 -1.266942564751984135e-01 1.007982041138223150e-01 -8.967874128841740733e-02 9.591280632590740152e-02 -6.962126352146245922e-02 -1.422626298142269929e-01 9.704100639742983814e-02 -6.754678142047318423e-02 -1.397275991352910640e-01 -4.288556199575517536e-02 4.927722007151567885e-02 -1.727776729392530020e-01 5.869067686661648409e-02 -1.388069300737317276e-02 8.273542055683995311e-02 4.813399206476130787e-02 3.450489412868026906e-02 -9.742796133663460256e-02 -1.127111607603552192e-03 -1.499454674144592471e-02 -1.096352922319883405e-01 1.493332263384606617e-01 -1.348752763877947292e-01 -1.288857912785837945e-01 -1.040774210299260788e-01 -8.435482975816915863e-02 -2.356795111675397819e-02 5.275311329316027809e-02 -1.488300643912401078e-01 1.942755096992398707e-03 -1.508525418724152578e-01 1.414171646409395078e-01 1.127016171966753882e-01 1.291506020354918627e-01 6.772547402339143541e-02 1.357044917875592505e-01 1.320258373064959467e-01 1.147986330801770566e-01 4.195181009816367768e-02 -5.001447776588087250e-03 5.764303910709577677e-02 6.111452071498322744e-03 1.179709531121711785e-01 6.945704969720620237e-02 -1.405517116791616117e-01 1.234739798303051278e-01 6.676985241018237351e-03
-1.151183158281739310e-01 -5.366912949657511728e-02 1.453234224065116376e-01 2.077076883673516228e-01 7.390327582110703397e-02 1.212014188326362638e-02 1.068365068791277128e-01 -5.533277808840984108e-02 8.530712629647047018e-02 -9.905634723702619326e-02 1.998507308475093100e-02 7.223322564050481398e-02 -1.222354020409464476e-01 -7.111720188351529359e-02 -9.275805513852185269e-02 -6.353080609073058493e-02 1.228977009514010260e-01 1.400135741421234259e-01 -9.254327563918432475e-02 -1.559585306948369290e-02 -1.610539499067566854e-02 -1.451752238669010986e-01 -1.170874570930866693e-01 -1.535379495686274021e-01 5.087649190294680351e-02 6.427565776931735975e-02 7.091780707384832960e-02 -1.195432279179859392e-01 5.511357292266148150e-02 -1.354859169678143127e-01 -4.818193210109551067e-02 1.130165939865815095e-01 2.945359483972152456e-02 4.822160516674894870e-02 -9.335718064492393858e-03 8.302567787678695466e-02 1.210060017595917248e-01 6.485613742951600730e-03 -6.397729198324558775e-02 -1.394064415256858758e-01 -9.785729723043214145e-02 9.731916053788160215e-02 -2.505828184566731565e-02 -8.689973102951870088e-02 8.563779189412792925e-02 -1.188168031708110584e-01 1.943944238194396101e-01 -1.017025754088017736e-01 4.336564064237739824e-02 -1.772180782658286657e-01 -2.609104057346966002e-02 -6.149578829655297230e-02 -5.905549739048303326e-02 -7.619148459779069571e-02 1.573947200622445863e-01 7.768428431007348700e-02 1.097818956234692389e-01 -2.724053295209382178e-02 -2.491616877737012903e-02 1.924562824863170624e-02 6.743666641854423327e-02 -3.713197160705260236e-02 -5.264324175443973325e-02 -1.970526914050873407e-02 -1.593564850784314479e-01 9.800552515285293476e-02 1.609788627801630456e-01 1.602042563864682356e-01 -1.301833489315031012e-01 -1.423999289529545020e-01 -8.557799709843148805e-02 1.357100296085645974e-01 1.369368812122190027e-01 -1.574108913651789121e-01 -1.624767870488859900e-01 9.548793904751103068e-02 -4.206725802871483927e-02 4.121005811082566889e-02 -5.028239989587283097e-03 -9.228327208668653248e-02 1.545643045144603003e-02 -2.667897929150677208e-02 -4.299848096142105947e-02 -3.797873288795011737e-02 -1.077590350114742412e-01 1.804908924033378839e-02 1.706666426056591829e-02 5.113862118853048505e-02 9.744114019532221227e-02 1.531394623889381912e-01 -1.921981323462985392e-01 1.398171202468885266e-01 9.467146600996668993e-02 1.585720297217764752e-01 4.996199317019709568e-02 4.529009238067677190e-03 1.034208371715812508e-01 1.004449974869747464e-01 6.505614385328491178e-02 1.511045370869326665e-01
-4.494851085039352351e-02 7.077338092283366744e-02 -1.265822846377354094e-01 -1.157190648943750982e-01 -8.430104105269171921e-02 -9.342604933414353635e-03 1.494582788371881243e-01 -1.297429707557543055e-01 1.491798776222003353e-01 -7.299439412057935617e-02 1.259374532391806245e-01 1.089246165265706119e-02 5.234788913660601284e-02 -4.930239478421038352e-02 -1.451050742001378513e-01 1.275114366129242449e-01 -4.107183675508151166e-02 4.931939161470863357e-03 8.799773304027251608e-02 6.366247982729253407e-02 1.202789608927677389e-01 -1.390775381256940668e-01 1.347226839220924954e-01 -3.557765839756062837e-02 1.728566297428892340e-01 1.077856554349060358e-01 1.132095573453950205e-01 -3.528066269154147422e-02 -1.525119836147771982e-02 1.417016416710366600e-01 9.023066564627724162e-02 7.076389557720727530e-02 -1.452877219750319249e-01 -1.605146180894387042e-01 -1.347409949019867104e-01 -2.238863507228859573e-02 -8.298278846719973900e-02 1.581662902464358450e-02 2.491533988711705158e-02 1.432189951549873164e-01 1.267510930890692333e-01 1.806904655961840550e-02 1.186983387605768520e-01 -1.393888085903518537e-01 -7.879830087411866801e-02 1.131788917897313673e-01 1.223080607376666878e-01 -1.897082850007234672e-02 1.433654926343090885e-01 6.021295047569851996e-03 2.959896874148394892e-04 -9.911062422855797249e-02 8.405477074562604095e-03 -1.474748063670424866e-02 5.383324732206794250e-02 -1.721453506423436530e-01 -5.250412061563532184e-02 7.050767311715109772e-03 -1.541193676495559994e-01 1.768152026819686251e-01 -7.452260772417752810e-02 1.161077227589929067e-01 1.505911985371140571e-01 -5.695394890836009971e-02 1.661364968296151212e-01 7.318429412662626199e-02 3.775361156197289819e-02 1.628531925800598759e-02 -3.179964004185913129e-02 -1.184837489559679019e-01 1.428495270130769323e-01 1.165423488194821527e-01 -4.805102431959320380e-02 1.941054325319480078e-02 -9.458788655630959163e-02 7.455668093187570872e-03 -5.001666083049873673e-02 9.585876161388872871e-03 -4.384086673616058305e-02 -1.144373421596731888e-01 1.095347077725521145e-02 1.000360612558670731e-01 -8.395509089080374632e-02 6.181496821612558062e-02 -1.748650225241797640e-01 -3.728048019718138012e-02 1.435121594490031821e-02 -1.244127915790148031e-01 2.045687954987123747e-01 -9.717891702749020810e-02 4.019477466596328707e-02 1.320915173324141156e-01 3.895788524124420282e-02 2.056951293647730702e-02 1.305013036371846791e-01 1.012890589563876786e-01 8.967624982045317716e-02 1.991924740994616486e-02 -1.658826377532707508e-01 -1.189793244329694077e-01
1.002506976252013765e-01 -1.016285740357649459e-01 -7.660479477877979448e-02 2.115677231577156592e-01 -8.822080318504366483e-03 -2.179214045785572360e-02 1.825662087522463561e-01 2.791439699992968870e-02 1.013629018457393033e-01 2.666050965064503328e-02 -6.018768573307554937e-02 8.929826318867198354e-02 1.150280829434971314e-01 1.609384826257277343e-02 -5.214149607506724654e-02 -1.284285815048490931e-01 1.394736515890278028e-01 -7.506711399851540879e-03 4.402855632457996354e-02 -1.330889992374684888e-02 -1.164727621490901366e-01 2.692818683617309583e-02 1.162460994545138904e-01 -1.619477149025554952e-01 -1.220106237603127558e-01 -7.929586757236160854e-02 -2.843752639149101438e-02 -1.296828679338637158e-01 -5.503985824413431399e-02 1.250052342128365745e-01 1.400049115157444013e-01 -9.579253366257173274e-02 8.707053310947243663e-02 8.275461665561070768e-02 4.047648340654090571e-02 -4.909575645951524958e-02 -1.085048783547633844e-01 1.521842244307141656e-01 -6.093377940219954492e-02 1.012546948032288230e-01 -1.807026775154794984e-01 4.928436335320678097e-02 -5.126008410836588314e-02 2.404787882278610830e-02 7.226280579556237926e-02 4.028939440034917663e-02 1.581410693015009583e-01 -1.607480884341536964e-01 -1.004041015145606675e-01 -4.460287724660851744e-02 1.127507332701158105e-01 4.327640763256607394e-06 -7.425131369500441274e-03 1.518146373046183051e-01 -1.011770164953871010e-01 -6.830928438088050558e-02 5.685921728959298510e-02 -4.209332554976086965e-02 -7.010657090957908566e-02 1.674454021163268927e-02 1.082738229334306995e-01 -1.144806472264256053e-01 -1.558501929010330245e-01 5.894507983556174224e-02 1.594143526324611967e-02 1.564450128729268641e-01 -1.481473910085328027e-01 -6.452937276847592329e-02 1.108769516303901304e-01 -8.521170343175205053e-02 1.084134987737239986e-01 -1.214056154239673280e-01 1.252140651178955122e-01 -1.589676834716666487e-01 -1.073150794953724868e-01 8.060820004047104803e-02 1.218129302394709533e-02 8.656105246987556845e-02 1.361026948379340934e-02 -4.877357481791443766e-02 9.531708354545670447e-02 1.362917237900279632e-01 1.143227866772606460e-01 8.630521480242440979e-02 4.080294450964071229e-02 1.075782082104589366e-01 -1.008707163445412003e-01 1.590329719761396643e-01 -1.042057846649766667e-01 -1.914175082316326229e-02 8.705304545198599975e-02 1.566914421160280346e-01 6.142982821594480253e-02 9.159507708405818793e-02 -9.952488421572686095e-02 -1.016642291577585233e-01 -1.383918229109784570e-01 -8.538990426492423791e-02 9.664617439832472179e-02 -1.171708762309286861e-01
-1.383837817717062380e-01 2.125890915468130540e-02 1.375149783995220365e-01 -4.722348757307601869e-02 -7.442032720670843648e-02 7.841240200978133457e-02 6.509827557776153018e-02 1.760630202884154102e-02 -1.834955482417016948e-01 1.078900110875866646e-02 1.444096659079658063e-01 4.360501258680985620e-02 -4.789547221874539129e-02 -1.482401660227850859e-01 -4.117567050302993470e-02 9.336496775302944792e-03 9.673809592481869349e-03 -8.761626065901348404e-02 3.718709870891845348e-02 -1.429177325545557264e-01 -1.695515658048766250e-01 -1.592529739222697527e-01 8.398047702307244455e-02 -9.281279815894105667e-02 1.162419737701730071e-01 -6.110582013875575508e-02 -9.678732303619934363e-02 -1.801987647464108055e-01 1.297961413211643766e-01 -3.627364123797410106e-02 7.991836653538006430e-02 7.809035004708840544e-02 -1.272870254661209455e-01 -1.662237901323249667e-01 1.028151688542798953e-01 -1.348646160826230955e-01 2.324379085114017945e-02 -9.038195794157115326e-02 3.209554644469961304e-02 -1.585730221767421011e-01 -1.439740438000730594e-02 -4.650617675616928320e-02 1.012745940432286003e-02 8.086716505449025039e-02 1.712929673613797308e-03 1.320132485627227396e-02 -4.571025024260383374e-02 4.769164123869346766e-02 -3.553740291656713648e-03 7.781917862222333115e-02 1.207571306228006347e-01 1.025952171792987588e-01 2.005203810707170964e-01 9.309810098892137842e-02 -1.337258255200928225e-01 3.441153591388641103e-02 -1.252476070113202888e-01 -1.721034598387082351e-02 1.256486232873181008e-01 -1.302062448605451894e-01 -4.843679769158584628e-04 1.005499764016517111e-01 1.091026982992089611e-01 -7.797648815679728007e-02 -2.077701904515641407e-02 3.143827292380516752e-02 4.881726578171656505e-02 -8.235926123768230744e-02 7.449378280556442911e-02 9.463933900165992508e-02 8.203861892767480568e-02 7.016606042961855139e-02 1.451979104739743731e-01 1.150140212471896933e-01 -7.798228214537034075e-02 -1.347544502674604405e-01 1.182212250338831871e-01 5.742333324821739804e-02 -1.626024008836883805e-01 -9.325758844762820077e-02 1.253335994189236913e-01 1.406584095556623892e-01 8.110454062554083021e-02 -2.237717530586981474e-02 2.085275600385606137e-02 -5.420461688494222774e-02 -1.019681239742856182e-01 -1.012667592579143822e-01 8.712609088519789047e-02 1.693045066285011058e-01 -7.534452618792499001e-02 -9.901176487257794256e-02 1.426832980794699168e-01 8.852324032232021522e-02 -1.600502335625405281e-01 -1.406913326962050403e-01 1.416739615818521925e-01 1.162175439476181849e-01 -3.210358228239350298e-02 1.096848443770042508e-02
5.240248836344464471e-03 -1.438976934863633594e-01 -1.189482569973534243e-01 1.772555803314146416e-01 -1.376003533913031374e-01 1.719265563873147509e-02 1.718817122343262171e-01 -1.539332878117520287e-01 -4.970754348337291101e-02 -2.029890346031297532e-01 1.246059759402491363e-01 1.588601971743273389e-01 -7.496206498266655416e-02 -3.127516785177710673e-02 9.012069801094671484e-02 -9.292038956087454726e-02 3.368615468599929497e-02 -1.262966048084087842e-02 1.639044350556923269e-01 -8.332977527026676212e-02 3.600221277726785296e-02 -5.931547258766468010e-04 -8.731910458299947317e-03 9.500075059168983094e-02 -1.044259974804390978e-01 -9.067715963867040152e-02 -1.160023369591503886e-02 1.161328911327265262e-01 -3.203938212617499226e-02 -2.364613113387060810e-03 -7.455663280412014315e-02 1.463963246241042036e-02 1.805040497158807988e-01 4.615879441605722638e-02 4.476123402899113632e-03 -1.366072384095062264e-01 1.405509976532358929e-01 1.275671022057060788e-01 -6.697435967793698153e-02 1.073617931222732857e-01 3.288840891554259144e-03 -1.614728168991658164e-01 -1.824385094799527707e-01 -1.221784340523864171e-01 9.523256189076277634e-02 -7.285924700644048901e-02 6.125064223364585364e-02 -6.334360761817858787e-02 1.030866266954934829e-01 1.130563151298023400e-01 1.197039371673118274e-01 1.050057895151317033e-01 -7.692934722713909781e-03 -4.449215558750493210e-02 -1.207767360557315262e-01 2.342656996400293082e-02 1.132603719040632673e-01 2.506957733677871170e-02 -7.774778563820480826e-02 1.022135856351624912e-02 -3.363378474708830779e-02 -7.507355680738081460e-02 -8.889132978468329560e-02 5.034603382622807044e-02 -1.747533006938348926e-02 -1.482143613246495739e-01 7.321892192082601544e-03 5.514604290236573697e-02 -1.473329442013720514e-01 4.340753980590150024e-02 -1.694529440598847581e-01 -6.177490871957361934e-02 -6.773552795624195044e-02 -1.621048285457101640e-02 -1.954771671200165040e-01 -7.197399896251098494e-02 -3.404599814190695239e-02 8.431127692949706709e-02 8.381264193418916375e-02 -2.874696481210646873e-02 2.265178599011611477e-02 1.071315249921490076e-01 9.894819428129035532e-02 -1.023208011240160364e-01 4.734623969603181382e-02 -7.145658782722523472e-02 1.363429676974654836e-01 1.455581480369578552e-02 -1.309455950827148329e-01 1.745638818083193045e-01 6.409882053399611201e-02 -1.742483199869191562e-02 -1.183855099451235487e-01 -8.131537080315968946e-02 1.915397042791988913e-01 1.050774652551395294e-01 7.132857286037790068e-02 3.538787956032855148e-03 -1.656040916684227426e-01 -8.125146108895568708e-02
1.957302342698264558e-02 8.590088395840286828e-02 1.938314799238737840e-01 -9.579812812170930558e-02 -4.611552525096948877e-04 -2.063005832579802024e-02 1.425759034593458985e-01 -6.401386016977719806e-02 6.992444328690362865e-02 8.874841354699784801e-02 1.217461730754827026e-01 -1.698846020613728747e-01 7.265694155988711156e-03 -8.911187504685376404e-02 7.781985951643932697e-02 -1.535983154620912394e-01 1.113305567875687435e-01 -9.510144463876070431e-02 1.553878169817443367e-01 1.495219208626174801e-01 1.501365153203850500e-01 -1.356874882138484895e-01 1.794422318691030471e-01 6.417224667356992429e-02 -9.469184049417550542e-02 1.693859899494555288e-01 1.384488657665456923e-01 1.568066859051312767e-01 -1.602325432258317394e-03 3.586099079321688338e-02 -1.057641031924679148e-01 8.004194853680168809e-02 1.487703781670594305e-01 -9.439540883665051285e-02 1.439750585163679653e-01 -8.116929836440746338e-02 6.110133763773616111e-02 5.534767697593981350e-02 -1.280277343840668658e-01 1.194152086554023384e-01 1.467575122196744242e-01 -1.249188621525522541e-01 -3.383583428352843897e-02 -4.284137995972226581e-02 1.123665906782652345e-02 5.503569671865089774e-02 -5.266525362207045979e-02 8.203198547586465494e-02 -8.144031702068162126e-02 -6.016849971224195320e-02 1.884509402773099085e-01 7.227210163080532990e-02 -8.352640234521833962e-02 1.527144299629149826e-01 -1.872727964120824151e-01 -1.055628731862596620e-01 -2.670785109313190617e-02 -7.785631254711254667e-02 -7.558494240827819122e-02 2.954855270814413584e-02 1.241264349894680846e-01 7.872901635648173191e-02 -1.361613784163465991e-02 -7.300934828451048630e-02 6.103237254488073915e-02 3.335568325872227333e-03 8.969407258553956444e-03 7.017982294233950438e-03 -4.413483508759431795e-02 1.570229775097548852e-01 9.278705950492689702e-02 -3.587263710037132819e-02 -6.284294187183361857e-02 -4.754536901257157278e-02 -2.160296430011739502e-02 4.476323297308466842e-02 8.965675580873563866e-02 -9.276641377569579128e-02 -8.121809014906790358e-02 3.276060762439923779e-02 2.098085527480113566e-01 -1.303147680793018300e-02 5.841861231933193760e-02 4.506472265626023516e-02 -1.269067177849328709e-01 -4.145209071175253585e-02 -1.027267646492020653e-01 -3.335771596586741342e-04 1.114822671526350950e-01 -4.990933908242649319e-02 3.962098852923674058e-02 -7.154552882040129957e-02 -3.300739606958097427e-02 1.360384712414915154e-01 -1.797024568639483955e-01 -3.728653737708404609e-02 -2.425419340010022146e-03 1.127392760757727624e-01 1.384118494608706229e-01 7.960286620935048962e-02
8.070097056297792504e-02 8.414897810532162570e-02 7.846759130752620215e-02 4.948875725248939178e-02 1.539626893396334739e-01 -1.052698256660925813e-01 1.417512754350142845e-01 -2.007057350269693050e-02 6.777225352192975394e-02 -1.484968691596398882e-01 -1.775968302862827308e-01 -9.013098061192313659e-02 1.549398541029045062e-01 1.043971057572786187e-01 1.357200585773685464e-01 -8.334726981565721005e-02 -5.367965374936869982e-02 1.426224089549802676e-01 1.421884596392767597e-01 1.233885319075974235e-01 -4.171228604050161715e-02 3.658078019654310148e-02 -1.097995667662265452e-02 1.078898075890407787e-01 9.012675396845527820e-02 8.301423267727521538e-02 5.254693224183967087e-02 1.429927575646498250e-01 -7.807888856327116489e-02 9.082202617447646120e-02 5.726232591577640196e-02 -1.049677843608556732e-01 -1.043625020679407878e-01 1.210069168915533372e-01 7.116480357179118255e-02 8.900582225437765616e-02 7.403642456926634585e-02 -2.710740833355072474e-02 5.277210447588948777e-02 -1.088571330643097607e-01 -4.452364204860893328e-03 -1.789880790965394097e-01 -3.655581015138906903e-02 1.002871078951107220e-01 2.961241042922688194e-02 1.351015245157696776e-01 -1.335901029120447892e-01 -1.769566909071103311e-01 4.227921602051833844e-02 -1.970407557511034413e-01 -1.114171902904736167e-01 1.042431100058584803e-01 1.466795626595288338e-01 -1.039882725083270641e-02 8.426519491119240091e-02 -6.300259686647739776e-02 -1.913311709755518841e-01 -1.100331250010937179e-01 -1.416410287522151638e-02 8.978674201326987403e-02 -1.545934760546679998e-01 8.677235858849835504e-02 -8.961320551168718007e-02 1.165226501561082706e-01 -7.450060273134392896e-02 9.852349299815743588e-02 1.702600597445942943e-01 -1.009698056290195406e-01 1.678657088137624348e-02 -8.163955729745615841e-02 6.560793010748733334e-02 1.297680225369358953e-01 2.874752372688013299e-02 4.177050721787546606e-02 1.429784487196409867e-02 5.219097005135798703e-03 8.477001323048595494e-02 -5.659393028615915949e-02 -1.441725911927336512e-01 -2.337673509019222353e-03 -9.491649423102148375e-02 -1.682298691356292342e-01 -5.211064165315053287e-02 5.045532797870425079e-02 -2.624977204638902564e-02 -1.820530994927012022e-02 2.376265786490865811e-02 -9.694187221326301673e-02 -8.631793578358250632e-03 7.769400984911159491e-02 6.179095244942434118e-02 1.232312962327097028e-01 -4.973304678382539645e-02 -5.160719574333624132e-02 7.579985146485218594e-02 1.379752182811318784e-01 -1.524468080879714804e-01 1.080935077930379185e-01 -7.836512427815997550e-02 -1.081153460926930765e-01
8.567457095868252770e-02 1.858345826774277648e-02 -1.164155225162124274e-01 -1.408343822239223053e-01 9.024925720355060632e-02 -1.010569100735692061e-01 -1.153323458282313752e-01 -5.177221160320538001e-02 -1.596317387111752598e-02 -1.547202506794396193e-01 -1.401342127082363664e-01 -6.546686115890983093e-02 -5.458020904419633168e-02 2.756514436672269017e-02 -9.568430440131940606e-02 1.315252832848572417e-01 1.579065883440279247e-02 6.538274430521721914e-02 8.346371975181109473e-03 -5.832951817823339713e-02 -1.413350939661212891e-01 -1.580029695492144726e-01 -8.317560224723387352e-02 1.466344737550405730e-01 -1.524220218369372881e-01 3.336936764260679117e-02 5.004790307276468786e-02 -1.392898175675573447e-01 1.933148405936891412e-01 -2.286254394357242758e-03 1.422041019750652502e-01 -6.222721241268204528e-02 1.096615602575873177e-01 -9.301315249720530642e-02 -2.102502124554697302e-02 3.599647049879328708e-02 4.421631783074450595e-02 -1.041956052951427403e-01 -4.081485235323218524e-02 -1.134717504436634355e-01 1.227053481464428220e-01 4.391830718486403051e-02 4.779356625762946204e-02 9.243499043637773416e-02 -3.983172205566306440e-02 1.327581159239380471e-01 1.254237292569672368e-01 -1.161523821695391173e-01 1.886210193481852870e-01 1.062270355053168691e-01 1.200111905633644838e-01 7.615787969399992474e-02 1.134063319560473376e-01 3.740541940766192730e-02 1.165149032354795833e-01 4.015618406785472633e-02 -1.337467903889917042e-01 -2.225261141271310528e-01 1.639063896624315952e-01 -1.076233198020423443e-01 1.186376354165016994e-01 -8.808844379153833726e-02 -1.061343818405656725e-01 -1.555081372871199574e-01 8.817498799556508504e-02 -9.515715870741309201e-02 -1.386828321671220443e-01 6.235086892329851083e-02 2.868205878642058476e-02 4.834884298400395075e-02 -2.486542912190788102e-02 4.280971429639615286e-03 -8.725209626774813737e-03 6.836727396290362413e-02 2.110969582873136949e-02 -1.544191329435801174e-02 -1.021475161347711602e-01 -4.748031543593969617e-02 9.576593001446687126e-02 -1.187740404949684248e-01 -3.829368823891185492e-02 -4.938026025421662912e-02 -1.354840752808932902e-01 -7.650067539748749146e-02 -1.636442428548127159e-01 9.799064547216988774e-02 6.133105146413862785e-02 9.833531012734886279e-02 1.113675657665727792e-01 6.590906613241512280e-02 9.596592601832938663e-02 -9.608852366850534343e-02 -9.300575083396900311e-02 1.374958575532990446e-01 -1.706560973641175691e-02 -5.250592488939724578e-02 -7.482079193478118062e-03 8.312377001974037560e-02 1.312294821319199591e-03 1.889443280452871854e-01
1.361010538335978015e-01 5.141523958836808489e-02 4.908077383813348044e-02 7.872578588321271775e-02 1.208608956503285925e-01 -1.226624188681341848e-01 -1.498172861128349853e-01 1.035580191862905952e-01 -1.487850912580847007e-01 9.864740396862288485e-02 1.039584935891672141e-02 7.869541950117471540e-02 8.450283722298451705e-02 -8.362182715955648882e-02 -1.831331249781776582e-01 -1.609213922111380202e-01 -6.511563603490524987e-02 2.159393649915752542e-02 4.741274454483544037e-02 -1.004352122795197227e-01 2.089755343676220900e-02 1.490422018838623019e-01 6.744370118177027591e-03 5.650218471176773199e-02 -6.025907729946521768e-02 9.377424665927400205e-02 1.006218111650246938e-01 1.212821502815980279e-01 -2.509611056666073009e-02 8.923066651542341243e-03 1.665682998897655420e-01 -1.372016726045693080e-01 -5.243222862119582828e-02 -3.292611843984371428e-02 1.913160698244025237e-01 -8.927908072503813741e-02 -6.486755964437856958e-02 5.418232131590970668e-02 3.572623766212561919e-02 9.667760412416392946e-02 -9.651438533820518029e-02 1.437116223334093390e-01 6.570676480620317450e-02 2.607917166235217826e-02 1.250648044128394865e-01 7.314911397950761562e-02 8.665888855004519331e-02 -1.256454377943420075e-01 1.943710377970080949e-01 -7.815010359797185113e-02 1.009986179675366295e-02 -8.567230275758409494e-03 6.287539321910290933e-03 4.398498281320351727e-02 -1.935493652776341944e-02 -1.741879632969771663e-01 1.300654069495368603e-01 2.622441547924683064e-02 -9.972748593101629644e-02 1.406013746356605532e-01 1.419349795409420578e-01 -5.892304232843063871e-02 -7.751112469675178196e-02 1.194478432741042512e-01 7.432648989372164783e-02 2.254466573475319077e-02 1.459908994992977493e-01 5.323440636529246789e-02 3.052712395132807510e-02 9.646383668259164712e-02 9.906628612697378211e-02 1.248550112062489920e-01 5.079924438142028285e-03 -7.595377444921795097e-04 -1.535179150069707413e-02 5.337967524197795993e-02 9.618513501903068474e-02 -1.361848242674220111e-01 -1.042774927831052745e-01 -1.298461169583409458e-01 1.132472813832105657e-01 1.213966089772907236e-01 1.087236666683833453e-01 -1.549295623971914393e-01 -1.561114550806758650e-01 1.461690844620550656e-01 9.609631864824248748e-02 -1.445056612859960399e-01 -2.544277058534576488e-02 3.292079668232272133e-02 -1.249904917857447284e-01 7.363783831959279380e-02 -3.807325651586632165e-02 -1.558631890097192663e-01 5.912025569500068550e-02 2.447776416668902538e-03 1.512720200837189624e-02 8.101654215341466680e-02 7.057162804199218487e-02 1.652661144879728483e-01
1.370531354581127903e-01 -9.424173330380179736e-02 -3.583449366791058299e-02 2.254085120707810183e-02 1.385849589026119377e-01 -7.678310230073456810e-02 8.579314757478133380e-02 -1.229432537153488936e-01 1.205403920832010534e-01 -8.148844530932349006e-02 1.705922104702979614e-01 6.180574426838334606e-02 2.552317324880717941e-02 9.465035226192192175e-02 6.016485185038882022e-03 -2.132824774370291592e-03 8.753711867226553200e-02 -4.814241059134854311e-02 1.094227816622631994e-01 -1.113359558555574585e-01 -9.346961928844430001e-02 -4.475882204678395537e-02 1.007959336577212844e-01 -1.504234770617154243e-02 8.178351991879351246e-02 6.728762589581854803e-02 -1.818115690337984147e-01 1.033217329100798720e-01 -6.437602025224950508e-02 -1.493893049018025221e-01 -1.173110689091497183e-01 1.244469953234847992e-01 3.538950183903327024e-02 -1.036408177845851153e-01 -5.917452208453839735e-02 -1.659282443547332453e-01 5.847252587757649500e-02 8.792802056135373689e-02 -1.603560958055147145e-01 5.371142071162095244e-02 -7.382778689631074032e-02 -7.449328067373821305e-02 7.627812619202874178e-02 3.974794191727551440e-02 -3.403089016838047043e-02 1.474990868768624452e-01 6.858366464792652051e-02 9.519864614221532073e-02 2.020350697558343789e-01 -1.737574530168574938e-01 5.328316427323532938e-03 -1.290771063052512380e-01 2.818889364375799095e-02 7.408797976878144301e-03 -1.479510502353689316e-03 1.480142130694989400e-01 -1.048765169700453387e-01 8.802767547598915054e-02 -6.199881261192294324e-02 1.404396144021071158e-01 -1.136241590733418905e-01 4.067050113699537811e-02 1.397948400646391587e-01 -1.549451480298974851e-02 1.336547008573475970e-01 6.352006798511786179e-02 -1.055872047242947809e-01 -5.874650462804904827e-02 -4.712304758054074172e-02 1.476762471326300841e-01 -1.471147995293398680e-01 -1.564431360544741301e-01 -8.427328912245296566e-02 1.301693537693275893e-01 6.399974298389356740e-03 6.625780123288035894e-02 -8.567326631114549618e-02 -1.351341136344399729e-01 -5.808302502966950637e-02 -1.116947918700438025e-01 1.512749906023919955e-01 -6.082412899982875265e-02 1.181098535200543337e-01 -1.558843948452447448e-01 -3.144740233173567295e-02 1.131167137794176630e-01 1.172009059802186885e-02 -1.023229084081416496e-01 -1.276257670920274701e-01 -9.934126313695684773e-02 1.182163599958313133e-01 3.031546021254707263e-02 6.820125272755231394e-02 -2.936073073543190096e-02 1.393053154084478162e-01 -1.219955610482839764e-01 -7.914247363400425672e-02 -1.099541268597365173e-01 -5.545322625198449706e-02 5.827929794666126227e-03
-1.474508454957432768e-01 8.343011962693634015e-03 5.507058439112017673e-02 6.710007465780573610e-02 -1.362036219937658443e-01 -1.036407385458453650e-01 4.844759235672393971e-02 1.135303925225359528e-01 9.243887798798333666e-02 1.170467860307493613e-01 -7.791769439621547277e-02 -1.486297279596048848e-01 1.556405203258941772e-01 -1.765025710897519251e-01 -5.717889463678993422e-02 8.879043598781864721e-02 -3.537102462409104364e-02 8.205150733346051883e-02 1.433042521022540256e-04 9.948605614675101738e-02 6.600018337878366115e-02 -1.137357198498023109e-01 1.028507069263665807e-01 1.041268410741570671e-01 9.731628267731368132e-02 -9.187682722723697348e-02 2.469178926503837884e-02 -1.230982604806061670e-01 -2.156313836761053482e-02 -6.594627167873368112e-02 9.842407515653285588e-02 1.206292874775186097e-01 -5.815071834758864938e-02 -1.945497030589429105e-02 6.843635476136687712e-02 -1.391908812192393374e-01 -1.382647663939336191e-01 3.066330780176886386e-02 -4.662083358780249459e-02 -1.039595344565436702e-01 6.384991916318875915e-02 1.421160121474726035e-01 9.634104377958213616e-02 2.399789740932968887e-02 -2.072561687849984458e-02 6.637704442309172448e-02 1.372182968728819230e-01 -1.002780679451634183e-01 -1.412466966195277951e-01 7.556069290295679142e-02 -8.085848098812291329e-02 3.354214123589507879e-02 -1.804689353744762803e-01 1.525561758287573011e-01 -7.203669361316124287e-02 -1.138667443964478249e-01 -8.913727182744538013e-02 -5.941443578294857558e-03 2.789420727732662073e-02 8.501939773995748073e-02 -1.406274209229869121e-01 5.988146705275854131e-02 -1.218969402188955914e-01 1.184857620940069634e-01 -3.713512562274921824e-02 1.962957021808449387e-02 1.506441242842650741e-01 1.159541974835585632e-01 -1.462645105849074978e-01 -1.437075671190009285e-01 -1.823777835710675421e-01 1.383101967035699209e-01 1.279477487960451083e-02 -4.807651063594381435e-02 7.782453918256040937e-02 -4.065232781079667485e-02 -9.745396329354093223e-02 -9.694742108115673995e-02 -1.992621596570629330e-02 1.191195375746061796e-01 6.979355383814175341e-03 1.337049134645949267e-01 5.315048737514301708e-02 1.500008766574884300e-01 -3.803663301201843077e-03 -1.021438675322248191e-01 -1.656645290013377680e-01 1.186402522713302793e-01 1.251182362604394693e-01 -8.027472071169471091e-02 2.899541430563444544e-02 -1.496228032424691545e-01 1.132851307736869456e-01 1.708030716185232334e-01 -2.067467306581120129e-02 4.154490977955417434e-03 -1.756766919125878762e-02 -6.282712233506096422e-02 -5.855205136765195134e-02 -1.374892895905522883e-01
-9.435420595907173524e-02 9.179881104507840728e-02 -1.422182887083054403e-01 -1.000759563226016335e-01 3.633386541772015005e-02 -2.518983837828663030e-03 -1.075448814432924394e-01 -1.324683055066072646e-01 1.008190273950973076e-01 6.200545153517717650e-02 -9.249456788941465279e-02 5.786836067904389813e-02 -1.612740761761584929e-01 1.433629105803750359e-01 -1.675266595892356547e-01 -1.648369646202718919e-01 -7.336942921954132946e-02 -1.169570706306321817e-01 1.572686717393750322e-01 -1.688616284903064479e-01 7.483087021646604893e-03 -6.230197395950956563e-02 6.670451939705140942e-03 4.436142748997660978e-02 -1.144425586353444296e-01 -5.445829317422997556e-02 -6.916603970108578525e-02 9.044520150409743331e-02 -3.615933630899863943e-02 1.159174162004634745e-01 1.197059487805183092e-01 -6.174014276946808433e-02 6.459970751411027445e-02 5.759266209988715690e-02 2.973174164266431663e-02 7.778728693766880087e-02 6.352806895051278657e-02 -1.505108202109480264e-01 7.125087519038597605e-02 5.401272191243654264e-02 5.076012645385030719e-02 -3.818559028489257323e-02 -1.477545393177833455e-01 8.130348970485713755e-02 -1.497991985804195403e-01 8.562486827388600397e-02 1.303245740481960568e-01 -3.722817022996537800e-02 1.265083043030718890e-01 6.207366485400606093e-02 2.017520313133518983e-01 4.255954252225997020e-02 1.603782611400776104e-01 1.649222214323508781e-02 7.206360165988635359e-03 2.308774715943579664e-02 1.463726355817508706e-01 -2.989106294005123080e-02 3.328570149384670745e-02 1.788101871674545665e-02 -1.371577315698909449e-01 1.953786448516333374e-01 -1.045370020367755587e-01 -1.811654965892764077e-02 2.250922888362746552e-02 -1.281749315132486577e-01 1.082413183901557857e-01 1.354694593933389590e-01 -3.812011905942163867e-03 -5.397597754880453097e-02 1.425136905368889484e-01 5.472141434324303416e-02 -1.109173024402645286e-01 -1.199828355006838099e-01 -1.444847524165936703e-01 8.058590872537539640e-03 -1.648052395548350695e-03 -1.411372959778266489e-01 -6.031519876035070643e-02 -9.727467618828212689e-03 -1.889713170923284224e-01 -3.371390219950767819e-02 -1.008869974571220685e-02 -1.344936942355853537e-01 1.639915626600997878e-01 -1.108165346811871427e-01 1.035237467429199754e-01 6.318309947385880934e-03 -1.220042518538399234e-01 2.031927713694129528e-02 -3.337533206185973322e-02 -7.872082364214732023e-03 9.230139961297785522e-02 1.294292043815980509e-01 3.530937188948885669e-02 1.671496006093288467e-01 -1.027962655106713363e-01 -3.660491033954622192e-02 -6.369656720809889483e-02 -8.394259153998175071e-02
9.998714728402471885e-02 1.307758100601205120e-01 -1.091435376451330846e-02 -4.621346047522283118e-02 1.921066160546392454e-01 -1.494211198480379366e-01 -5.220939920998513006e-02 -2.088185931329741493e-02 8.835572331703904492e-02 -1.004802854396163042e-01 1.606961192912636505e-01 1.297516757141792265e-01 -3.702556620372826623e-02 9.096325681968504828e-02 -2.035500234524846297e-01 1.872561289191126133e-01 -7.582493723146015163e-02 -5.249162365793597074e-02 -4.851772267122882176e-02 -2.041371384868802263e-02 -1.452391027856211325e-01 -1.487566275589104203e-01 9.729717248634234261e-02 1.407489230422084847e-01 -1.119312561675794016e-01 4.349422410109878706e-02 1.550154543979419264e-01 1.394608819808544342e-01 -1.530693457199927277e-01 -2.778805199667003494e-03 1.307518470002875244e-01 5.666327697705658695e-02 -1.040839962908859662e-01 -2.612774597848276439e-02 -1.628853555036856859e-01 -3.069879048453683437e-02 -1.742088658358483672e-02 -1.771601259905175238e-02 -5.091577425896789966e-02 -1.041837782759147124e-01 -3.499796994372266282e-03 9.733470686973290376e-02 -1.311576623467575753e-01 -1.576247656075396020e-01 -2.456136354421193518e-02 -8.492061938209914673e-02 -1.262431678069902419e-01 2.129325491590838143e-02 -4.920266373911333369e-02 -1.488755384477776778e-01 -1.455334988323256085e-01 1.938752989257910148e-02 7.034923777896177899e-02 -1.019260014507495371e-01 -7.077696176049531884e-02 -4.434721038386594399e-02 9.993935108104767817e-02 -5.257577017801992603e-02 1.073322648082726954e-01 1.043300280560918586e-01 -2.618060167456131085e-02 8.587320465369223388e-02 -1.326244753631615203e-01 1.563858505210560801e-01 -1.512665281860766930e-01 1.465033914951668903e-01 -2.951774047312300669e-02 -1.022995835367813550e-01 -3.822679555666375073e-02 1.521241954831742925e-02 -7.182531987412681118e-02 1.540274975587144907e-02 8.762384037635062572e-02 -3.898522578920526199e-02 1.329677190152535327e-01 -5.573355388483546696e-02 -4.681197134258130443e-02 -9.073110150839708288e-02 1.399900961160822389e-02 1.464471044305040541e-02 -1.450284729163456576e-01 1.178011309134335133e-01 3.400532045528521785e-02 -1.658917799025335649e-01 -5.182070060428877606e-02 2.615194047181435000e-02 -9.587448126850176000e-02 6.224685133576259022e-02 5.461130365027821315e-02 -1.197455902940735423e-01 -9.726550786844447710e-03 -1.211911852686310548e-01 6.388209928652607839e-02 1.376605946421200488e-01 9.802442926526759581e-03 -1.132955355280989007e-01 -7.570633143380033070e-02 1.447898640520680624e-01 1.174884861643257922e-01 3.794594759359262715e-02
-9.562099613171819168e-02 7.441984109377988710e-02 1.092807976498511163e-01 -5.893537875905359436e-02 -1.552657803225105937e-01 1.194253021650526631e-01 3.048394996700883736e-02 -1.732120098826190821e-02 -1.373020572350163448e-01 1.067076154288867512e-01 -1.739461752504599737e-02 -5.190146896257225723e-02 9.313967995474418948e-02 1.352838795211309120e-01 -2.077623608420025095e-02 -1.705189455385409669e-01 -7.960103147702966842e-02 1.015455112822656880e-01 1.442267589353335155e-01 -1.740454345546349757e-01 -8.370437268703823097e-02 -3.669214143442294657e-02 1.191183343612841998e-02 6.891606805806327340e-02 1.156483888313237784e-01 8.522221896943260599e-02 1.258238284476799196e-01 -1.692655792275788162e-01 -2.506685155349617968e-03 1.472006355091345919e-01 -9.090314907501963193e-02 -7.045125015143618996e-02 5.973532446528771744e-02 -1.020425202134023490e-01 -6.695476510372344592e-02 -1.354458522069910530e-03 1.033108036603502533e-01 -1.807962169238827577e-02 1.540336843810104772e-01 1.447967633577030289e-01 8.148371301581044945e-02 -3.224056783407255183e-02 -5.113148453185210190e-02 9.600804340699491124e-02 -9.524859783606971775e-02 5.380884324057266105e-02 -1.671586528507943703e-01 1.687819838439123463e-02 7.915473685733098730e-02 -6.063482240794582784e-02 -1.180873033259179500e-01 1.322501321410519126e-01 -8.608266729781621773e-02 -2.343473101672001110e-02 -2.143730434594930123e-02 6.720469517139451843e-02 6.983139831558468624e-02 9.924058717080262715e-02 4.217003503979244172e-03 1.437767195490041727e-01 -9.795431390744266387e-02 1.966496379916760628e-01 -1.338817569050857192e-01 1.197505666609124941e-01 -1.095873081885474359e-01 -1.607991033346663906e-02 -5.233407471404564332e-02 -1.082744434269107409e-01 -2.312655456838729438e-03 1.181942849055374473e-01 -9.194898246454027979e-02 9.275348218898674113e-02 -3.686217297585558939e-02 7.622057207763641151e-02 -7.601416361158663815e-02 1.657683050829940885e-01 -5.316584826347666576e-02 9.184759551322760340e-02 -1.622232291833940188e-02 -1.200307640572608747e-01 6.822365657483608729e-03 8.848901870569780836e-02 -8.993437174024637715e-02 -4.561978266722456488e-02 -1.766203427087226774e-01 -5.224058869101690789e-02 -3.561364347006224645e-02 1.667256964959119153e-02 -1.185311735352688467e-01 8.859208162748822158e-04 1.513836169961657874e-01 -8.232372848576746671e-02 -1.590814536289557601e-01 1.642650997199874563e-01 1.929626402197915647e-01 5.434725660895607657e-02 4.752171334674856057e-02 -1.550025991074220899e-01 -1.411369030870867833e-02 1.229306884759455570e-01
5.160081271459451141e-02 -5.916903292922143232e-02 6.061336541864635608e-02 1.691527233180363521e-01 1.334623260481923035e-01 -1.886484248245504092e-01 2.757459719744213746e-03 -1.462064727011698484e-01 -2.110272768092795737e-01 9.229509944284465528e-02 1.287708151402139622e-01 -1.781439938785135124e-01 -1.669574291292541882e-02 -3.301451316464199676e-02 -1.407500093374587646e-01 7.714595218945781430e-02 -3.908391805862719321e-04 -1.743829169686787195e-01 -1.243933587135436503e-01 -4.998436181526808020e-02 -4.528131826834146806e-02 -3.236623359181742959e-02 -9.010911042831075413e-02 9.519776654269594685e-02 -1.236605921195497726e-01 -1.775547351508693916e-01 5.277398905281222713e-02 -1.412135549495828479e-01 -6.953801868667269792e-02 -1.333899300651232855e-01 -5.569022617521454666e-02 -1.628973856046318780e-01 -5.666704321730697824e-02 -1.208910083898009358e-01 -5.854693447369524462e-02 -1.029972586327253942e-01 2.927942336001035373e-02 9.102112382354927977e-02 -4.410369458271351517e-02 4.325299061145343460e-02 -1.064669917480934036e-01 4.761571303295643320e-02 4.147717804511023149e-02 1.223607632444424775e-01 5.377009524358817433e-02 -3.432980840334194650e-02 7.718375515825026678e-02 -1.441552650832812199e-01 3.431795724663999625e-02 6.481531137318576052e-02 -6.764288742337357108e-02 -7.881511223723645931e-02 1.169453998662694366e-01 4.587230610331382435e-02 -5.122954274140747305e-02 7.451651005604249811e-02 1.325363237130199878e-01 -6.167572326714160919e-02 -1.219791199690277439e-01 -4.648454818054089527e-02 -1.695106182993267596e-01 -8.772017451811410516e-02 5.287060272326638694e-02 2.783970371375379255e-02 -1.338905606901322765e-01 -5.483182930216351503e-02 1.472601485813412325e-01 1.249777724453517563e-01 4.283291669310449606e-02 9.673374855146901763e-02 8.945449031965198305e-02 -7.229914740806052398e-02 -2.678117318979884864e-03 2.088482276061684462e-02 -1.222658753912252566e-01 7.836641287455382854e-02 -9.162038960318672626e-03 -1.191762696067645427e-01 1.127370265468162353e-01 -5.275322653570342635e-02 1.451464741002065906e-01 4.140127579319521911e-02 1.274071919250596707e-01 5.165578865605111036e-02 -1.583805972787066529e-01 2.913427600362042749e-02 -1.050919317104213463e-01 -4.196262297739292157e-02 -1.656176193517915340e-01 -1.663454542912835565e-01 -2.018037637912922788e-02 -4.185032967212341803e-02 1.283684760655016133e-01 1.293201824496620356e-01 -1.534049602875989793e-01 5.990224644515026314e-02 6.072372702867082778e-02 -6.791566992103598155e-02 -2.807450459041694810e-02 4.770986967902277748e-02
-1.029131855279666746e-01 -3.393221499396039537e-02 -6.911606164597557111e-02 -1.293862743801866000e-01 -9.028332790776281980e-02 -7.301056700689373402e-02 4.939238502510274152e-03 4.349155286103014578e-02 -2.775818167692098090e-02 8.843397145774272231e-03 -4.882473629317046065e-02 2.466833459484342114e-02 4.170211531017609108e-02 -1.519159001729049885e-01 -1.385343503368803575e-01 2.391251151879130593e-02 1.996152416321521697e-02 -1.088483427288838429e-01 -1.069173947092317140e-01 1.091864661226466665e-01 8.995348665436518620e-02 1.002587665384679916e-02 2.798626769681920867e-02 -8.649811098836075740e-02 -1.224070386829112511e-01 7.996548247317000757e-02 -1.839113640838315467e-01 -8.823375300864704299e-03 -3.168412666840546288e-02 -8.234592550933622634e-02 -4.521442758504640863e-02 -3.745002547987694164e-02 -1.758580469927701478e-02 1.192168812448662213e-01 -1.252195820978706242e-01 1.455807540797658672e-01 6.979752229662528062e-02 -1.264810619098630518e-01 5.163062929752913754e-02 -1.325567754342262261e-01 2.924780241410746690e-02 3.293316462204873979e-02 1.634176137995432543e-01 1.078160767770152684e-01 -3.538636812819962590e-02 5.785618169357432256e-02 -1.762846558037163558e-01 6.783361015084192480e-02 1.053964282673568696e-02 -1.790355371605020784e-01 7.191093281480115396e-02 -6.432762827866170263e-02 1.375636626904429005e-01 6.677105409571933159e-02 -5.202570731011245397e-02 -7.293869558654358931e-02 1.410106995424530718e-01 -2.043109009006535692e-01 1.602778447930379158e-01 -1.796961177179940417e-01 -3.461191594307772706e-02 -1.093513538602327168e-01 1.373115714839123203e-01 -8.983681364279139103e-02 2.760360601493328306e-02 7.710505408709519837e-02 -7.313697704641861086e-02 -1.206832222600803944e-01 7.346256876493371946e-02 -7.594623653489022963e-02 -8.274241780253001333e-02 1.158415184515629720e-01 1.692880868897735785e-02 -1.248073252046029147e-01 -8.015730936296280862e-02 -9.709910865861762219e-02 8.995974525685056233e-02 4.884589084241851287e-02 7.605910265482694610e-02 -4.343030201243208016e-02 1.455351361108450925e-01 1.068655200094082575e-01 4.212292267626446124e-02 1.544290689308098000e-02 -6.090977277405920653e-02 -1.164056462614523890e-01 -9.310083853869216552e-02 1.919011352653460512e-01 -1.242505838134028290e-01 1.851616661599413405e-01 4.977442402652980380e-02 8.392895503552200154e-02 -1.469530105072640591e-01 1.289961053541526514e-01 1.246883578606512027e-01 -9.144889647424825352e-02 -7.782141110579622600e-02 7.252269941145292331e-03 1.153230579952557594e-01 -1.806936582579363182e-01
2.578950447344134991e-02 -1.420633312169564122e-01 -1.384720737880842101e-01 3.254968951599606503e-02 1.181813193205434598e-01 -4.544231122987877486e-02 -1.162775575706823106e-01 -8.814373291436899960e-02 -4.326079262775572171e-02 1.100006957307460842e-01 -1.586130969231093202e-01 1.256448737284325823e-01 8.565155503280888483e-02 -1.392626808074064471e-01 1.124407972326711552e-01 -2.665322472880155696e-02 6.947506029898491142e-02 -1.301089940673645640e-01 -2.842707664312248833e-02 1.465132948113341826e-01 -1.004090369384231900e-02 -5.483095661354507599e-02 2.309998486513841973e-02 4.158945904412574002e-02 -9.683233785924511006e-02 -1.082547526185749648e-01 -1.168808216081719115e-01 1.479340901513337136e-01 5.088657199353247007e-02 5.797057357997066618e-02 -7.319973304767908584e-02 9.130515656046604700e-02 -1.028492431653121736e-01 -1.086733710768756495e-01 -1.935702451115529354e-01 -1.016945567447893606e-01 5.062030601971939658e-02 1.458909318061523408e-01 -1.094448878248342333e-01 1.334014573312537200e-01 -1.407993752938368169e-02 -6.157912471474337457e-02 -6.967831849891398255e-02 -1.482290315505326583e-01 6.277742434756937440e-02 -8.040003648482416110e-02 -8.626362219624690575e-02 -7.577230456657828295e-02 6.521117817728834531e-02 7.067923718828184043e-02 -2.109317402851953321e-02 -9.181973691348348232e-02 -8.477829846317909424e-02 1.370040476094965820e-01 9.340547279859622021e-02 -1.531961860745585935e-01 1.556204160171063833e-01 -1.529248205223906476e-01 1.637337972585642676e-01 3.844200113594324359e-03 -7.863091142045453008e-02 -2.371726126530862566e-02 -1.444612802504995352e-01 7.500658912878620244e-02 -8.432257496805613262e-02 6.850019512648068687e-02 1.196742866233192204e-01 3.714180084115359382e-02 1.854665373083070612e-01 -1.098129636948690507e-01 5.942683785644463368e-02 -3.209222802268585362e-02 -6.545904258950471788e-02 1.367079355841120947e-01 -6.759809856193100229e-03 6.922313649249264844e-02 -1.548324886280901154e-02 -1.482251376537207788e-01 9.621450500112170567e-02 -4.181254710021606313e-02 -1.502716720861558830e-01 -1.301369669739037838e-01 1.505763288188429437e-02 -1.110361147406488530e-01 -6.430443653520025171e-02 -8.869670445103754186e-02 1.110794832811726335e-01 -1.105049739831533012e-01 -2.443532669574847646e-02 7.652707067549588404e-02 -1.416157681986476014e-01 -7.259183392404962298e-02 5.961780471299914230e-02 -8.899051658256722230e-02 -1.049498839052375732e-01 -1.691023687454720204e-01 -8.555427025820266929e-02 -1.021556936545282152e-01 4.181350136724613226e-02 9.057327861044479900e-02
2.945727423887949462e-02 2.145086886699879361e-02 1.116788212338443304e-01 3.121682034486891397e-02 2.454858667967741576e-02 3.129578127496598916e-02 -6.225740392450040961e-02 2.106988268377549267e-02 6.661108052714929950e-02 1.330500638181507100e-01 -1.766984644897724166e-01 -1.407019952495620341e-01 -2.564715570601741948e-02 -9.907547080119961935e-02 5.693960132514773453e-02 1.037971626590858676e-01 -4.928294980852155477e-02 1.159454194701233926e-01 -9.243471163088419484e-02 -3.232855686200491584e-03 1.064676498431450236e-01 -1.981330556588003014e-03 1.369457186225717660e-01 1.935607370113778258e-01 1.693658920700015225e-01 -3.694747396732717126e-02 2.093675234459882115e-02 -1.014163844540511422e-01 -1.593878406164864758e-01 1.221183957155203351e-02 -7.168504534038860898e-02 1.699440673278620195e-01 8.534402233954846428e-02 4.038446255056024614e-02 3.629813525831484394e-02 1.340200984703538703e-03 2.625137036365950832e-02 5.133150202185864097e-02 -5.904938215961064857e-02 8.427871420633313571e-02 6.661195148923274023e-02 1.534690251816645534e-01 1.986270985242494236e-01 1.535364896222742581e-01 7.061721002673829184e-02 1.135867102322315331e-01 1.318587399673277483e-01 8.650785106746521069e-02 -1.143152002921466320e-01 3.600724509644154248e-02 -1.049320841067403892e-01 -1.015314370350508949e-01 2.036342747085558846e-01 -1.631839281956031784e-01 -1.130092905448114304e-01 1.252829663639153275e-02 -4.640387415110312601e-03 2.788253940884992399e-02 7.652274498780156642e-02 1.180034628048827298e-02 -6.973072753170994620e-03 1.498583146157828339e-01 -8.425753999295848562e-02 -2.051873269082846452e-01 1.068228213403002724e-01 -1.217622529653563518e-02 -1.355072917251339271e-01 -8.592276127557163870e-03 1.076535372103748361e-01 1.104721315902525321e-02 -5.375057933131907606e-02 -1.796708727799814845e-02 3.950957257839766285e-02 1.024468473069532204e-01 -9.748172541295452298e-02 -1.432057074833819055e-01 -5.472325152850027880e-02 -1.202460704526190083e-01 7.972867162614633366e-03 1.100429873855331558e-01 8.560061229507286151e-02 -1.826524883888084039e-01 8.738633297363586350e-02 8.597049552237995274e-02 -1.062644060656184608e-01 1.281340848527090237e-01 -2.506830574176936721e-02 1.804099688009424551e-01 -1.588355790056174555e-01 1.181828998236757328e-01 -5.231435317367373258e-03 -2.517362721001203951e-02 4.773155532574509946e-02 1.472813668371322493e-01 -1.389476059882321646e-01 1.042556380350666279e-01 2.622393450203444262e-02 6.163923555778828139e-02 -4.860625510261160076e-02 4.628321426322608290e-02
1.164672620268831643e-01 4.644391494553683913e-02 1.160672483065386951e-01 -8.019130584025044306e-02 -1.187191987088190154e-01 -8.005038026527391826e-02 6.428065531852736325e-02 -1.089905935857635733e-01 -6.677969961506351193e-02 1.013830418321273880e-01 1.827190527256055408e-01 -2.668094729776887553e-02 1.784037895941001928e-01 1.520469038580638532e-01 -1.491032418825659345e-01 -5.798589939118223985e-02 1.214808342250167233e-01 -4.593937411441938873e-02 1.279795738590878418e-01 -3.067831448156931040e-02 1.270993006523036539e-01 -1.572412418346363361e-01 3.772740559472388677e-02 1.052640669282238484e-01 1.447956125476478895e-01 -1.140347024307940688e-01 -7.214099435933155058e-02 -1.208491972058463870e-01 6.191260278400709943e-02 -7.320520595130854125e-02 -2.166818208728929496e-02 3.204882079335575479e-02 7.257425615639177818e-02 -1.006541532664571165e-01 2.030764337579940570e-02 -2.059934251469693403e-02 8.320362820101548373e-02 1.219170012904591260e-01 1.166403146802562213e-01 1.624711856556169606e-02 9.113037810050667042e-02 -1.682584766635863982e-01 8.959221852945359332e-02 4.284610405897144869e-02 5.945456203703259473e-02 -1.538651773665613565e-01 -4.375549436131077191e-02 1.439415041770635562e-01 -9.967534452960945257e-02 -6.655993801575725566e-02 -3.886624367600738372e-02 -4.331977044044239139e-02 -3.248974018409854503e-02 8.318215851606004796e-02 -4.898157012705022656e-02 1.324229993266916594e-01 1.283355658284723588e-01 -1.591731026694389456e-02 -6.667243052598977038e-02 -8.159742825630782181e-02 9.089594612847672062e-02 -1.691622001037956791e-01 -7.129473576245008715e-02 1.521428698694979320e-01 -1.552328642583256646e-01 4.224994904382192717e-02 -6.092144476018758470e-02 -1.179722290237138899e-01 1.205557708761052921e-01 4.226177426413175314e-02 1.991888982221191873e-01 -3.572924360493255624e-02 -6.902802728657490838e-02 7.003845499379940387e-02 -5.967463751182417592e-02 -2.188100142406316367e-02 -2.658857517656595254e-02 1.261330608356225347e-01 7.194823691559364132e-02 -8.687674563742464606e-02 6.196705417746101868e-03 -3.393569925329073533e-02 -8.395530907823006705e-02 -1.767391068073326243e-01 -1.039127293142588226e-01 -8.111433242792433218e-02 -9.844155109402496009e-03 -3.567637800795856601e-02 1.390127333386153574e-01 -1.270739092179582197e-01 1.644016526689938973e-01 -1.179949111340995310e-01 4.048426421174767392e-02 -5.271769464960943813e-02 -8.126540576225012302e-02 -1.327728660583202269e-01 8.474906417959096605e-02 -3.959388567227171973e-02 -1.854407465205316630e-01 -9.679782210108325846e-02
-2.079268215912412898e-01 -8.156668304570084682e-02 1.637840412475816687e-01 -1.226951759327026825e-01 -5.250270474578853930e-02 1.009458879892433797e-01 1.391936549717199059e-02 7.980862288304908791e-02 -3.271778883913210867e-02 -7.222350472878742711e-02 1.087346420602298552e-01 -2.722177278561255589e-02 -3.449196836881136125e-02 1.723700085453530248e-02 -1.539895333728002746e-01 4.723290774741657760e-02 1.345420609193691830e-01 -1.225335052232155025e-01 -7.457129310321412852e-02 3.864765447626906502e-03 1.415336302366490828e-01 1.022059289629341505e-01 -5.362246181279092111e-02 -1.628133030039351503e-01 6.199466983850642279e-03 -1.016573694596090011e-01 -1.514534808227010511e-02 1.211159040564218081e-01 -6.073725609057638829e-03 7.200628850141192749e-02 -3.653198632622548653e-02 -1.911572703692164810e-01 1.171869588828260977e-01 -9.340801092783854176e-02 2.031618703503490150e-02 6.738028661997308433e-02 -1.325595372604007893e-01 -7.206422217815713904e-02 1.309271712057430148e-01 8.097820677219808375e-03 5.253154463363596954e-02 2.741353617383591665e-02 7.073457465204290029e-03 -2.577217378165541986e-02 8.823300217841146230e-04 1.254713458701464390e-01 9.573446359217148427e-02 -4.742616836803147801e-02 -1.467482490399461548e-01 -1.285093902147386724e-01 1.008121351381358749e-01 -2.122684648116057032e-02 -1.934451668214368925e-01 -7.937789338145817553e-02 7.359053061530924922e-02 -1.472360302093378148e-01 -6.728418105131347970e-02 3.646524114808901568e-02 1.622456223684070331e-01 1.042210594839894922e-01 7.464087230861925215e-02 6.136877812399988558e-02 8.784303985550295790e-02 -1.464737619050930639e-01 1.701058046217575337e-01 -4.492270821611087095e-02 -8.090115914927124841e-02 1.400712294081195297e-01 6.362719687311148287e-02 1.625013314783023688e-01 -6.469994395995783132e-02 -4.350232965321337159e-02 -1.173378729911021962e-01 -1.558633935795735725e-01 9.341714392518032928e-02 -3.810318034091820377e-02 1.243746928036984778e-01 -1.216269560300767966e-01 1.043915294948465494e-01 -1.021545916472745702e-01 -1.354450798531856015e-01 -4.297459249026411993e-02 -1.249598677381353468e-02 -8.122246530735527381e-02 -4.560905810090491036e-02 1.582493138572869662e-01 1.351776731174444447e-02 4.568145057655834118e-02 -1.096522928229204524e-01 9.825117366224901672e-02 1.167692746692757522e-01 8.105538323639639720e-02 -7.939260084514211668e-02 -9.481921241156754387e-02 1.093005603648414953e-01 -6.614058440579891063e-02 -1.176254289421190535e-01 -1.157532416963742428e-01 -4.303013889023133559e-02 1.526911104553344001e-01
-9.475845623212098001e-02 6.436417616329358042e-03 1.553404773421858398e-01 1.715971510550035606e-01 -2.861946236487235631e-02 -1.248812968483418995e-01 6.553787879548579609e-02 -4.976206228671210124e-02 -6.717647633493813164e-02 -4.024660611529843474e-02 -9.757706478258298954e-03 3.379493998583436160e-02 -1.298967108312297503e-01 2.126820350836791662e-03 -1.421941020190589378e-01 -1.748923801401389838e-02 2.647502763768835865e-02 4.596567807075539747e-02 -8.237342197952973732e-02 -1.640343933748446004e-01 -1.214414007348937619e-01 8.288665021262589527e-02 1.435761025019239301e-01 1.642819936122031643e-01 1.061852410443932526e-01 1.585843860487530232e-01 -2.233470708286117851e-02 6.644622914172759395e-03 -9.020470693905180415e-02 1.667456214769240663e-01 7.965296102066288242e-02 -6.078704790039730216e-02 -2.706449298462217101e-02 1.275272083199248119e-01 -1.420693466680627293e-01 2.273679090650628735e-03 1.336142882345470184e-01 3.425959599038819886e-02 -1.300748103930787214e-01 -1.251564593521772850e-01 6.129365328429624976e-03 7.063530267102520466e-02 -9.336621720036331062e-02 -2.028383422499104582e-01 7.568280158957341359e-03 -8.356367202420503237e-02 1.108993749902941750e-01 -1.100324448465001270e-01 2.129748745845149241e-02 -3.082630563821285585e-02 6.985317994453740797e-02 1.105164776836260188e-01 -1.765107923749862362e-01 -1.039965110236166224e-01 7.102051381079343972e-02 1.606454858313982603e-01 1.717539860256789008e-01 5.864335700833343129e-02 -1.059876776659092329e-01 1.345604750711318076e-01 5.044348514229617109e-02 -1.093253730314903971e-01 1.527190425333307677e-01 2.067384305733108510e-02 -8.922297483749484781e-02 -6.546719043744114730e-02 9.132952548264439141e-02 -6.222479962125063158e-03 1.427620701275207626e-01 1.316116988611338301e-01 -4.636359187219030870e-02 -7.532025996256050404e-02 -4.200810674282600549e-02 4.905205338217790562e-02 4.992804136574770235e-02 1.290876565461730185e-01 1.025769444247405099e-01 1.876843882527111651e-01 1.241722276293142219e-01 -9.996715087294485991e-02 -6.932171658230516786e-02 -1.117180042607281709e-01 6.278823493144783385e-02 1.332923261974215401e-01 1.733736286061013376e-01 -4.372124749173345731e-02 6.891132482348860666e-02 -9.533159542920095764e-02 -3.321610905961362020e-02 -7.636923944932992592e-02 9.955865579408348931e-02 -1.900556416363101062e-02 -5.315098935973942146e-02 6.269647402201684872e-02 -1.082029891887276579e-01 1.104557625323542985e-01 5.233668302639846170e-02 -1.149036793296493858e-01 -6.183392754794519997e-02 2.677477058136105634e-02
1.122222768164526790e-01 -1.436096472933808821e-01 1.017371433810674297e-01 -9.941519459702533035e-02 1.425179251035213757e-01 -4.865625324932613960e-03 -2.539024557892179471e-03 4.045850838960508150e-02 -8.832176339561514933e-02 1.749969081215322353e-01 -8.345109499857318591e-02 -7.160097505783953598e-02 -1.597261430981688005e-02 2.763833687059394448e-03 -1.201264182359338684e-01 5.178924909480991934e-03 -1.396675493008110169e-01 6.237496376292448602e-02 2.506455930100213725e-01 2.125565861340691365e-01 1.415737672006764092e-01 -3.666167956843872922e-02 -1.914257963275871680e-02 -1.034441821228830466e-01 8.751358423767009731e-02 -5.789248794403469012e-02 1.037815521220662209e-02 -1.768926099740334434e-01 8.186564834500708460e-03 1.220813072561597185e-01 -1.462521619133745066e-01 1.091351421957775236e-01 -6.623737605319693356e-02 -7.494376476183260694e-02 5.080114907987742789e-02 8.146079375444277570e-02 9.435604243816611211e-03 -9.757508076452205137e-02 6.230400903796175921e-02 -1.709436858567257023e-01 -4.336347438939850557e-02 -7.979896913183184837e-02 1.342851130066919363e-01 -1.751663837585339389e-01 -1.025575238324269445e-01 8.134382725338369646e-02 4.625644139470472954e-02 1.266747769385644443e-02 4.037184112646662743e-02 7.326873165510353059e-02 -1.731809905108213504e-02 3.676512768148289950e-02 -2.096822970039033049e-02 2.569294121137703432e-02 1.253508915084537712e-01 3.733661944367912267e-02 -5.028465543958570566e-02 7.508496923229432407e-02 -4.198783883187729576e-02 1.333522164515895947e-01 2.277346755022779251e-02 8.553661993528025032e-02 1.278658687762087298e-01 -1.414379219084520023e-01 6.933479193109491623e-02 4.098672664224872753e-02 1.439758529811943633e-01 9.011854073784535471e-03 1.231473899923983956e-01 1.779320298640587605e-01 6.437309576893621155e-02 -1.178615367481032766e-01 -1.706617680251965863e-01 1.852641567491526003e-02 6.791583978826257369e-03 1.572708501852397578e-01 -1.091003407559499178e-01 -1.872694787076712719e-01 8.892883122691716546e-02 -1.416286898171469077e-01 8.565047022881625005e-02 -8.747887073809964414e-03 5.370178804223148250e-02 3.875045697149861329e-02 2.967403094091588048e-02 -7.943693633610934834e-02 1.284799433037986729e-02 5.094652853525666325e-02 -6.421743192478510109e-02 -1.424108434940233037e-01 1.276517264556583098e-01 6.500387341671938490e-02 -6.561103420634972760e-02 8.320131525357649105e-02 -1.513329104873457065e-01 1.095128311599492393e-01 1.390340829436885750e-01 9.037825846607880353e-02 4.200624071046987068e-02 -6.558993626040188207e-02
1.215052652843027353e-01 -1.686705089147841063e-01 1.360847952535324812e-01 1.487168694929098638e-02 -7.740934807492411140e-02 -5.526296207561446315e-03 -1.037624261349549409e-01 1.109376810287104193e-01 2.742744221276782052e-02 9.185404315644538076e-02 8.751355444652932081e-02 -1.079559680142535838e-01 2.799915529985886470e-02 7.830059312434158730e-03 1.215555131468796651e-01 -1.295673628836225555e-01 8.342433461613528445e-02 9.910016979123212333e-02 1.605167555037043114e-01 -1.251712077388436595e-01 -1.155326966862509214e-01 6.807754588646490468e-02 -1.195496174692925878e-01 4.590441867189066355e-02 -1.079390904220779018e-01 -2.084654349141251001e-02 -5.991700385989290334e-02 -9.306497132467651812e-02 -5.913996289806969231e-02 -5.252205822202766182e-03 1.009977932646618642e-01 1.234193089024377410e-01 1.386278140293398520e-01 -1.250161851699429783e-01 -3.285729255331622939e-02 -1.170675297627423728e-01 -1.364268288016899922e-01 9.630219597288687539e-02 -4.210841208769247612e-02 -1.668547983873077956e-01 -7.353640491782103585e-03 -1.063380560693047289e-01 1.896436442610806641e-02 -1.339485736142735361e-01 -6.215162398096630431e-02 -4.024815227947627083e-02 3.960478383746268705e-02 2.238430797283274057e-02 -8.628617990789790027e-02 1.077231118885836891e-01 -1.262693455340833104e-01 -1.027337094561413117e-01 4.968994954019330390e-02 -1.743403790852870727e-01 -4.335081426119553188e-02 -1.606281432105875762e-01 1.887682245463039865e-01 -1.617718175404016245e-01 3.476201255259758760e-02 -1.535412408360905256e-01 -1.087692473158299311e-01 5.537226777670440497e-02 -9.766742537140417346e-03 1.163735719656358442e-01 -9.690045606811403811e-02 6.708818988447705356e-02 -1.113927092228172988e-01 -1.243427138004691151e-01 -1.295964340065906828e-01 -1.415253643888715607e-01 -9.405491450098292516e-02 -4.780104031453515090e-02 -1.617469999577939022e-01 -2.474518509372075105e-03 -1.690575272248509286e-01 7.095379587584899062e-02 -1.490042815313790195e-02 1.463085138369068713e-02 3.814597299276844926e-03 1.215513197142101820e-01 2.994064127902919259e-02 -9.972208868767738765e-02 6.978059795103268292e-02 -1.169766788728231338e-01 -6.777096698797528684e-02 8.926684430063039355e-02 -9.742645334556576664e-02 1.024536809414469951e-01 -3.187956306442297355e-02 7.052320700275330201e-02 -3.010117003837927199e-02 4.905619282937762060e-02 -1.282819286786927027e-01 -1.572848194894407303e-01 2.400293644275984517e-02 8.652254297167544239e-02 -3.997088626090012503e-02 -4.330039062273181340e-03 -1.589543386487345666e-01 1.564499805769916929e-01
3.295493652978088994e-02 2.724865420983773115e-02 -4.230971800138751127e-02 1.540064136354568798e-02 -3.200001632041835076e-02 1.248761845643516222e-01 -1.142267699748477222e-01 9.540767764386538785e-02 1.505809126885986338e-01 1.649766972459309200e-01 -1.480124279623563355e-01 1.763338206207995251e-01 -2.029371519166163831e-02 -6.332876074062997185e-02 1.019033215174149493e-01 1.453132324366971651e-01 2.060867322819095321e-03 1.151821846610479212e-02 1.811272074736113014e-01 -7.292439949031541413e-02 -2.099331027508907072e-02 1.072328078760858561e-01 1.533905584403149891e-01 1.285026621596066787e-01 1.132497331481186614e-01 1.023798140536229112e-01 -1.385984652091844793e-01 -1.408466206525532671e-01 -7.778937974487223905e-02 3.137775610332223242e-02 -1.060007851719493854e-01 1.017479701502860684e-01 3.108053678695003527e-02 1.490607386071310103e-01 -1.299944077917291885e-01 1.160613216068318299e-01 1.207908579646135711e-01 -2.562498876026535546e-02 -9.548315662158878003e-02 7.000819365268935723e-02 1.197117782268193875e-01 -2.288350632140922353e-02 9.499561689071923942e-02 2.358390621123472586e-02 -8.432962558241129114e-02 -2.223513458723495179e-02 -1.718898768940729446e-02 4.375221462741588074e-02 5.889242022176847946e-02 -2.638298086432800879e-02 1.842617858436285984e-03 9.920458062985641756e-02 5.014399822608351515e-02 9.020680788764888491e-02 3.063608504314453349e-02 1.311630854146258185e-01 -2.772322858110924659e-02 -4.909074051132238103e-02 5.776686899653476343e-02 1.567183742586015505e-01 -1.338684201190184497e-01 3.646188806128131121e-02 9.745705173406978006e-02 1.447064864140124030e-01 3.935339080021124647e-02 -7.523577998261994637e-02 3.139931950627886798e-02 -1.008866667969216813e-01 -8.914001754217781848e-02 1.609967076341057013e-01 7.150180089165728003e-02 -1.225238100509680322e-01 -2.613097372312508590e-02 -7.894081964311001898e-02 -2.113556386146461102e-02 -7.200662105232122356e-02 -1.393420265094879595e-01 -9.571320433474375666e-02 -1.839765546551161979e-01 -4.582397142013041463e-02 1.473440709118150616e-01 1.011242859917885900e-01 -1.037144606551612669e-02 1.742595849533995767e-01 -7.180439105378458309e-02 7.563646344618301168e-03 3.980057560553468959e-02 1.811056793704245993e-01 -1.148979316622427693e-01 1.303466881424783508e-02 1.855897769623308657e-01 1.202453260230601506e-01 -1.453893428020784917e-01 1.192249674326683051e-01 1.416412299451507151e-01 -3.305531164585686493e-02 -1.063613260854317927e-01 6.402357559756620409e-02 -1.187209694521344783e-02 1.045246935579795672e-01
1.911808453378641571e-03 -7.089873823579007084e-02 1.811611740687178451e-01 -1.878827370207363304e-02 7.253380262307591864e-02 -3.429109044461431562e-03 -8.210986338017181932e-03 5.324832909984256873e-02 1.161551955850374795e-01 5.365499803231270348e-02 -1.297534280106797389e-01 2.548413756264202544e-03 -2.764516265727430186e-02 3.570552052503335461e-02 1.377879653024390305e-01 7.019190244632542153e-02 8.856986407696337826e-02 -1.293956672672907926e-01 -9.516609179062165969e-02 1.492629155461291379e-01 9.860306910292049309e-02 3.444711921976441413e-03 -8.744544412413877976e-02 -1.302427684268469832e-01 -6.711201662412050184e-02 2.788137394854199591e-02 1.351196153746237194e-01 3.481291585085060508e-02 1.409042534903931776e-01 -1.180074426599566489e-01 5.316537021041525812e-02 1.542670656662585571e-01 -8.551062094248665368e-02 5.472941238148294057e-02 1.547197750712422104e-01 -4.900076302075886264e-02 1.710332114095946543e-01 -1.176595419803475040e-01 3.932218355337036009e-02 -3.292031062346948561e-02 -4.875240696872099738e-02 -1.056445963385731768e-01 -1.411832621870635907e-01 1.600636411943626436e-01 9.003538842021890920e-02 -8.016494096759889387e-02 -9.342281456023419917e-02 -1.296307127616382233e-02 6.328264372301523055e-02 9.277237530632381768e-02 -1.510399612552491833e-01 -1.130730390555446663e-01 -1.312311621841308895e-01 -4.266370597094101130e-02 4.717870108008625357e-02 -1.056317353838953921e-01 -1.441335004414397436e-01 -1.207650655911806856e-02 5.154629782137619409e-03 1.641613222750470114e-01 -1.008813693987775095e-01 3.674990321120832210e-02 -5.710216818692721852e-02 -1.418144972369328183e-01 -9.035158876305968145e-02 1.124559404334894985e-01 1.540285266282102328e-01 1.365895168803150095e-01 4.767450065308971585e-02 2.102683995273940676e-02 -6.694677359498569374e-03 -1.820813682299911862e-01 3.057211514623473306e-02 1.815305214232609127e-02 -1.180826958331189086e-01 1.474058185844001334e-01 4.104852919199566963e-02 5.899615689172640898e-02 7.293981439300656344e-02 4.924414835503668209e-02 9.101215559001014921e-02 -1.564094542010981415e-01 -1.555688448614984086e-02 1.188076642055265753e-01 8.793762920643306835e-02 1.725708622683106708e-01 -1.181518355667101061e-01 1.251582323097502614e-01 1.779167428984404498e-01 3.825830491920178406e-02 1.080306845943403427e-01 -1.156592495863364295e-01 9.709693291440389673e-02 -2.955197413136350856e-02 -1.207944200500375986e-01 -8.664143958364787720e-03 -6.527147850536205165e-02 1.237759959608626809e-01 -9.414551005787920313e-02 -1.262474105347001496e-01
8.965407494098483199e-02 -2.913857541352934608e-02 7.558702593277658033e-02 -1.405976682350052465e-01 7.795056591997558126e-02 -1.053598255534618916e-01 8.729200510384367909e-03 1.798583729477321730e-02 -6.527410567917030226e-02 -4.354141000226839989e-03 -1.699325086370403332e-02 -1.508189433553773773e-01 -1.552293028308643630e-01 5.007117131602203952e-02 -1.319195350359307350e-01 9.465013163768616622e-02 -6.235824841315353723e-02 -1.636923028479942699e-01 1.598185021657401450e-01 -9.158650875887174025e-02 5.655095187152435476e-02 9.499077980542740274e-02 -1.523027339489330667e-01 7.301550341452384130e-02 5.593683968815069824e-02 -1.252798258696953548e-01 -1.233277103362863392e-01 -5.734534923831276221e-02 -1.567923241263080025e-01 1.537786585983717466e-02 1.313624128118454776e-02 -1.743198644813901133e-01 -5.895367105202280189e-02 9.742109564428771962e-02 -1.325122357005077134e-01 -7.101605326037051941e-03 9.217942822544958337e-02 -3.375853558859299997e-02 -4.771564927580854154e-02 1.433055654043392246e-01 -9.592347125083845738e-02 -4.557934804518810196e-02 -1.679616467090362109e-01 8.810235819611010599e-03 -7.965836489868320658e-02 -1.512675693403444654e-01 1.389401655448187223e-01 -3.847616155422720757e-02 1.061889293826160374e-01 5.342257984025155365e-02 1.101306392938630058e-01 1.007162941660204036e-01 2.437547107774783173e-02 1.106638631346350266e-01 -1.153488261955639416e-01 1.505946897504120696e-01 -1.057360851569244253e-01 -1.669097286094607946e-01 8.096700578117611846e-02 1.466376444922284361e-01 -1.082305420798280876e-01 7.247451110938604724e-02 -1.250330869426308777e-01 -4.032650157185872775e-02 -4.729774793090157914e-02 -5.770481200160217788e-02 -1.111852942117245308e-01 7.165092956702862059e-02 1.260954614765265880e-01 -4.634110202521533189e-02 -5.281391207577233737e-02 2.545545832715063322e-02 -2.196260677958513513e-02 4.889391843892398198e-02 1.232599012135047190e-01 6.334485893450174376e-02 -1.707032345782797944e-01 5.367848604543671437e-02 9.416274144378224131e-02 1.136352755188952540e-01 -8.358671803637469921e-02 -2.290420228151785267e-03 -8.179641530020829998e-02 -2.718709542112373798e-02 -4.053614806329356585e-02 1.415087732156222466e-01 -5.830555866954374722e-02 6.082508386871675332e-02 1.476323946623879502e-01 1.810707057174941181e-01 -6.340775093161168940e-02 1.333280205016360576e-01 -6.205939231598615879e-02 1.382362440993134545e-01 -1.506546839080246669e-01 -1.330661561954089023e-01 -6.899952791666946750e-02 7.823881405231289388e-02 2.517021628733695504e-02 -1.252199866482135993e-01
-9.021258235939426384e-02 -9.732923811296277650e-02 2.203133213789159120e-02 7.677099550006528939e-02 1.640319706564484850e-02 -1.378796487795456438e-01 1.573272561207114673e-01 2.166693820866728154e-02 8.302930932754545856e-02 -3.739074357079137656e-02 1.472356825484103793e-01 1.274398205815032228e-02 -1.378061977903401736e-01 -5.590355621441885775e-02 -1.068647993218277831e-01 -1.401252260210918976e-01 9.903068189637093122e-02 4.003238188594840374e-02 -1.435384830356848385e-01 5.636603982481796886e-03 8.687185699062163757e-02 1.414559095254030174e-01 -1.183016846871078470e-01 -8.140491414996844921e-02 7.205021485929963276e-02 -1.291517871823419650e-01 1.333395448688191598e-01 -3.649308339673695833e-02 1.027987180301567771e-01 -5.020706443868233615e-02 -1.310028304403842714e-01 1.129919492842583195e-01 1.590390074620073868e-01 -1.547984011555858241e-01 1.093361187605356444e-01 1.183585435129939079e-01 4.254984839824298842e-02 3.384850157752355287e-02 -2.987789168720098379e-02 2.382613812573699738e-02 -4.526978683524286728e-02 -1.524090144591284113e-01 -1.620940761329603755e-02 5.287893009883036337e-03 2.587715748481831876e-02 8.395040380763284238e-02 -1.490207164076992608e-01 -1.315124241780253611e-01 6.181035790952409820e-02 1.371258035708842193e-01 -1.295359443486239770e-01 -4.390629259226795644e-02 1.373811349644125657e-01 -5.516093717247434747e-03 -7.512723524272767184e-02 1.368362618115767648e-01 -9.706642261800906002e-02 8.061526439205819738e-02 -7.274487511198281242e-02 -6.870996382181418505e-02 1.664095355968331080e-01 1.475216879134653714e-01 1.029248362936009686e-01 2.727013349191287003e-02 -4.234196430480809126e-02 -1.510751831177465157e-02 7.000721304850697491e-02 1.661976716559455947e-01 5.439769774992792711e-02 -9.841625369383574795e-02 -5.304250384510544175e-02 3.617647595336726668e-02 -9.008984504919363701e-02 -7.574521102310864673e-02 2.013211557951279356e-03 7.390552038933442813e-02 -9.490365313429612037e-02 1.344522746023722182e-01 -5.877057496169253020e-02 6.985393742538581474e-02 -5.499287329191512169e-02 -4.453680832391858574e-04 -8.649502354125193637e-02 6.388218676632229087e-02 -1.347643881647584696e-01 1.077678630540472443e-01 -1.416371951873707791e-01 1.639534612488186549e-01 8.958346630481403561e-02 1.221667964172963999e-01 -9.815702046974025818e-02 8.084517337365296208e-02 1.178394690700860503e-01 -5.793047719965344067e-02 1.868856969909107602e-01 1.314598375023848520e-01 -1.009967956014436313e-01 -1.672895521249886941e-01 -6.478155370023963577e-02 -1.091911275874110632e-01
1.339394461583474916e-01 -1.581504764542233932e-02 9.576821267072245514e-03 -7.072965499684199901e-03 -1.379121878222107078e-01 -1.142607512802252395e-01 -1.769995478526948871e-03 3.647011485059974134e-02 -6.650391540294653923e-03 -6.030142804705762583e-02 -1.484646368222872215e-01 1.507597632733004567e-01 -4.415196209858610749e-02 -6.076042248618262337e-02 1.528655665523825750e-02 -1.321832179763119675e-01 8.774037768211041810e-02 1.512706902289170929e-01 -9.545819721471207608e-02 3.018896627095849633e-02 1.181729463216289605e-01 1.130660966201367246e-01 -5.584397641682689248e-03 2.332001718959146597e-02 4.853342715250907879e-02 7.112680003836364950e-02 -1.909221562511576320e-01 8.105143958475324872e-02 -1.513824843005350806e-01 -6.899409854280140475e-02 -1.911186497509373972e-01 -8.617652599015984682e-02 -1.039075230623124624e-01 2.861550394128747898e-02 -5.174880278463201561e-02 4.079343819686667705e-02 1.268764477354358822e-01 -2.153175186047676798e-02 1.500648954411631375e-01 -8.479484891344327147e-02 3.363378810267561906e-04 -2.016141836006044713e-02 1.531914883289169915e-01 -8.279376855448340733e-02 5.827781538451096838e-02 -1.258812147537312007e-02 1.621327685859982326e-01 -1.096600811275221798e-01 -1.660225091511207396e-01 -1.250957267504891890e-01 -1.520798183902525302e-01 1.048073784076810760e-01 1.084755658937706785e-01 6.439732143464729774e-02 -8.241516591050176976e-02 -7.658191372891431925e-02 -9.353116943063330413e-02 -1.244862921729266991e-01 1.292032698512367295e-01 -1.514965119683689410e-01 -2.702866589374322559e-02 -1.131587160878497478e-01 -7.497946944672367366e-03 2.612767749263053205e-02 9.738851782256484346e-02 -6.608161967535015890e-02 -1.241141212298297603e-01 1.375129403492368618e-01 -9.892495633873081562e-02 -4.099127917814922306e-02 4.799130603167187092e-02 6.298092207674828302e-02 -9.850272920356165085e-02 8.716727940652198303e-02 -5.244074606874033623e-02 1.172712153442066613e-01 6.850220522200700657e-02 -7.724238908697371279e-03 -2.003089190389449326e-01 -9.794989987416093113e-02 -1.877785988277760887e-01 1.572193444754491909e-01 -1.173995903929895140e-01 -5.354798168689121896e-02 7.407998456047332203e-02 -1.642021862809229030e-02 4.148623388136640083e-02 5.371747456553487010e-02 5.508525127240252589e-02 -1.355997459553898166e-01 1.578438098996530481e-02 -4.878360534899351536e-02 -9.853762459864418011e-02 1.143963568991886448e-01 1.231360029708324366e-01 -1.338798162631997524e-01 1.532795584971007874e-01 2.099252138938284204e-02 1.024196082101235250e-01 -1.098055781657151231e-01
1.075536959793530895e-01 -8.792133472438988517e-02 -7.310153447526691883e-02 7.239944197652353752e-02 -1.585274465228246610e-01 -2.015134319036368180e-02 1.021105042742646157e-01 -1.289227821545106956e-01 -1.644820304209884121e-01 2.551123917037280073e-02 -1.275832491174118954e-01 7.541605932466113882e-02 -7.347780556848351741e-02 4.935270004953159345e-02 -1.229758043161997307e-02 2.083680793741967130e-01 1.578385561688601391e-01 2.809908355635620109e-02 -1.543623639705284101e-01 -9.455568298608003908e-02 2.726294397834985728e-02 -1.993709271002733555e-02 -1.345275162622440179e-01 4.272446005209896286e-02 1.107134682514180624e-01 4.982967766536068599e-03 -6.039245846408228258e-02 -7.895622034626469110e-02 -1.262501145588181273e-01 1.259597947952106334e-01 8.659194597261037074e-02 6.965695760489091018e-03 -1.149655239569130072e-01 1.638700229902229910e-01 1.759316700272777478e-01 2.325284040174398562e-02 -7.152771079253091545e-03 -1.160996943946401572e-01 -1.254585810270873458e-01 -5.634797015974900986e-02 1.495984147707168366e-01 -9.960158878941768879e-02 -1.292064492589959368e-01 8.419319416578234516e-02 1.170468642030034340e-01 1.326844829794713576e-01 1.535610221960968802e-01 -6.650627628355670895e-02 2.241952697270605324e-02 -8.306085903500627643e-02 -1.030617276464331072e-01 -4.996041643573823771e-02 -1.234529302385579674e-01 -2.255676238736998435e-02 5.011328173342601694e-02 9.885655362050080330e-02 -3.106443828508244354e-02 7.254437945671848853e-03 -6.031718114809605374e-02 1.206499915393092898e-01 1.667805009287658125e-01 -6.587274897431071030e-02 -1.454821042367460404e-01 2.439549973778031705e-02 1.068940285453640893e-01 1.744896446088133046e-01 8.066501262584051257e-02 -6.921732008124954760e-02 7.530004806023025965e-03 5.978562408167177600e-02 3.911565469921804428e-02 1.513338238733757390e-01 5.525007577981709550e-02 -9.107751017406569283e-02 1.073454113953442313e-01 1.247909741442905646e-01 9.997250785445142840e-02 -1.032116108934375970e-01 -4.817282273454332603e-02 -8.398961756046899318e-02 6.431333897009328116e-02 -1.248865020755623445e-01 1.274479548892832881e-01 5.196601715032372198e-02 9.943996993095348402e-02 -1.107257204388857469e-01 -9.541306850147670410e-03 5.312139147389130858e-03 1.103899906291108957e-01 8.234256464581790613e-02 1.265475977821466369e-01 9.934952302330653240e-02 -3.179145050699378611e-02 -1.239503197606359047e-01 7.378114411263129307e-03 1.444866585736115094e-01 -9.366646836805500587e-02 3.649920202280988041e-03 -1.063903026982321864e-01 1.463640540450184546e-01
-8.549587306665881736e-02 -1.000974920147075682e-02 6.736808508545184815e-02 1.277845864133963227e-01 -3.659237721016464495e-02 8.093766937181669230e-02 1.385150199186607478e-01 -7.266085565833063642e-02 -1.065173686207651453e-02 3.302104592260792643e-02 -8.928762243543141019e-02 -1.354983760522792402e-01 8.571385431313104097e-02 1.318208395426936907e-01 -1.864194558501574284e-01 4.843163015200839527e-02 1.803635797703328492e-01 -2.612387122180862345e-02 -1.221617660360668350e-01 -8.946519482100989337e-03 -8.772489622114125474e-03 1.268093965000222922e-01 7.911241488481791928e-02 1.547731395018138445e-01 -2.380805814374513732e-02 1.407805336910535610e-01 -4.313121376795260586e-02 -1.391554804617109731e-01 -1.078936403770619223e-01 5.301845944220581752e-02 4.695229046164015041e-02 1.268306723852805594e-02 -1.660050523559850055e-01 -7.003858330015634570e-02 8.877743338106555693e-02 1.052857365118755606e-01 -1.891955838299932691e-01 -1.190121498280736628e-01 8.628030164076647135e-02 7.433207628806751122e-02 -6.866522234221592025e-02 -1.345587002326659731e-01 -1.316769584146922079e-01 -7.719176719999670810e-02 -1.856056885180395744e-01 8.303370298351527012e-02 -1.458486628839431309e-01 -2.782971291220093235e-02 9.792375597820002220e-02 5.631151004169884962e-03 -7.023752751752532220e-02 -1.969855799677274963e-02 9.483510319813621969e-02 8.782094173014282079e-02 -1.705554216184770600e-01 -1.333664506082435364e-02 1.704932623295989103e-02 9.650635948464855729e-02 1.502740135335210725e-01 8.125058285543861059e-02 1.174159678078576519e-01 1.448872169092038920e-01 2.212415210785020209e-02 -1.546516197579963225e-01 -1.852149192384790477e-01 -3.872264219121054202e-02 1.202411829851980363e-01 -7.387382068188662332e-02 6.927542687625470527e-03 4.951599714773445397e-03 2.336424612506961089e-03 1.186560310436078486e-01 -1.118189887112440092e-02 1.080692760849931294e-01 9.390160217119887520e-02 4.467817559431431357e-02 -1.251392038813118335e-01 -1.024891014385886229e-01 -8.647785874722975497e-02 -7.437001816458421732e-02 -1.120404100743146447e-01 -5.565969437413140902e-02 5.544668789249358049e-02 -6.510484819794178091e-02 -3.722670716796518120e-02 -9.528213900578089146e-02 1.856920346352629314e-01 3.127084945680091987e-02 -5.010890516824249852e-02 3.499453370649247691e-02 -1.605881373498496412e-01 -8.272173053315995395e-02 -5.208001925281707800e-02 -1.671124677439951578e-01 -7.978492669302780782e-02 8.028294746085999634e-02 1.600108243343914506e-03 -8.106133211704580344e-02 1.502436335017789393e-01 6.869674900535421846e-02
7.084698169887378161e-02 4.732814427092672804e-02 9.251383613095789937e-02 -1.468685309108166137e-01 1.066164629999086406e-02 -4.108704274901183590e-02 1.007088942848723689e-01 -1.173598371858696442e-02 9.209679883020167879e-02 -8.711798791323450974e-02 1.243567746359918319e-01 1.611563829113361324e-01 -1.178496472797869177e-01 -1.214905329199574974e-01 -1.423832878376938560e-01 2.302869668503337158e-02 1.536249170655732375e-02 -7.084831096582638876e-02 -6.900488207903979210e-02 1.561352413100051094e-02 -8.048319436099074520e-02 1.098630856755838103e-01 4.064331388725379857e-02 9.202599937993322099e-02 2.080953799724626421e-02 -4.467773653099848391e-02 -5.651879720157115122e-02 -1.539894690852365022e-01 7.566680047672445786e-02 -3.336512320274512451e-03 -2.034538653654230089e-01 -1.590956307477244258e-01 -5.665325531049285324e-02 -1.905558146248396145e-01 7.296723975740690427e-02 1.324326674402450943e-01 3.605464409135274162e-02 1.312302163384409213e-02 -7.335616183170395876e-02 -1.045312252953506382e-01 1.070869371591471331e-01 4.434796237205901326e-02 -1.517503693912164164e-01 1.626659038080509045e-01 -1.491360627579704778e-01 9.037379500638659247e-02 -7.099215937681914446e-02 -1.099725936489560074e-01 -1.825096105434542426e-01 -3.819031102578079873e-02 -3.246705276363203579e-02 1.240287527716242011e-01 -1.279842699818056762e-01 6.501440459076870959e-02 1.894290497058515321e-01 -5.963968462123978020e-02 1.531059229420985435e-01 -1.068491984297447323e-01 -1.450694273125182343e-01 1.173454755383653986e-01 4.631713045384174693e-02 3.570650528438950450e-03 -9.755809793131611785e-02 1.269791597964606278e-01 -6.518180034482055907e-02 1.024696947850431694e-01 3.128225405211293875e-03 -8.392080620772780775e-02 3.338561732138534827e-02 -1.269672171369404419e-02 8.920636878128997138e-02 1.116870879539198606e-02 1.283694787150147822e-02 -4.730704478928085543e-02 -1.223415458026388264e-01 6.985936199809614222e-02 1.618034991366815722e-01 1.337799522243938444e-01 -1.683275431288155655e-01 5.287825143706981201e-02 1.758890713922990900e-01 -3.939032539172492020e-02 -4.531767629221356702e-02 3.318125775411760042e-02 -1.317945301808446656e-01 1.011143719267225405e-01 9.256083675287035684e-02 -1.605649652880065670e-01 1.481358142976868172e-02 -2.242008274973678744e-02 -1.490431297202736427e-01 -1.309321806099014440e-01 -8.625592166888201850e-02 -4.830986421733615005e-02 -2.855062991587533835e-02 7.715300718305830030e-02 -1.000975488402929409e-01 9.058288800348546221e-02 4.210130760604991612e-02 2.622077124335091963e-02
3.475920340960506755e-02 -1.276880029954991502e-01 -1.435025990864080003e-01 5.663263656764161436e-02 -1.725667600326853124e-01 -1.532146872580607555e-01 1.071709757119180401e-01 9.746066383730518645e-02 1.807467725284919724e-01 -3.896837842186298001e-02 -1.089145999375796259e-01 -6.352788818775349788e-02 2.824858328083406159e-02 1.027744640811417559e-01 -1.840708173786282098e-01 1.471850086061651103e-02 -5.544125806889384916e-02 -7.246487614354803208e-02 -3.096265791131590922e-02 4.500734911095531643e-02 -1.304914841012378146e-01 1.104010573080868723e-01 5.609813362136936016e-02 1.999437245900873364e-02 -1.731479948152049309e-01 8.350150110605446263e-02 6.765165560855751492e-02 -9.758111366052520108e-02 6.980351293680268909e-02 -1.295664529182413705e-01 -1.000114012811381542e-01 7.125689297339342365e-02 -1.078120628815285725e-01 -9.809394769318119378e-02 -2.822273247185660972e-02 -7.549919063193247237e-02 7.708913064562830653e-02 -7.740246917044095454e-02 -1.645421048001363407e-01 -1.132925610868315280e-01 -1.504715412884812809e-01 -1.110938420691308520e-01 4.494934323173992163e-02 1.482570248435172988e-01 -1.900200034594049237e-01 1.471698414819545830e-01 -1.637221115957345208e-01 -6.071287389811833718e-02 -3.278850693697597796e-02 3.192019472737935015e-02 -1.744465094955961193e-01 -1.184032043087129837e-01 -7.517941212843579080e-02 -7.167736495992349521e-02 4.917869137552664631e-03 -7.667367553633878952e-02 1.152478605079768487e-01 -2.387391720761065841e-03 -9.737647619366460562e-04 -3.474704214732474757e-03 -6.674992061222360940e-02 7.367605747345926104e-02 4.126824870642298998e-02 7.750633819802678348e-02 1.181867244350418150e-01 -2.030910962286664248e-02 8.669317012553921786e-02 -1.371374207482747021e-01 -5.064602191359023065e-02 -1.047417461479727141e-01 1.320995128799497820e-01 -1.439272704346668090e-02 1.043689772122685794e-01 1.063981737475528516e-01 -5.153080548864187593e-02 1.188035605892618501e-01 -1.041806011929608811e-01 -1.535742600357111950e-02 1.182837436896020805e-01 8.907780677178210593e-02 6.672049935378454588e-02 1.160470106514877864e-01 -1.808030572096021651e-02 -5.863414047696844517e-02 -5.639839211417212866e-02 -7.018441603311204036e-02 1.003422077059666490e-01 -7.927401386502874736e-02 6.585610602202362183e-03 -1.248686754779228525e-01 1.070291587260765141e-02 1.471203241978693288e-01 -1.430586377775741325e-01 1.142113120434494339e-01 -1.929151288814998644e-01 -8.706830115573442608e-02 -7.414747211081523792e-02 -5.313620750686016275e-02 -1.367029432039062187e-01 -5.772261865867034381e-02
1.658537798562293164e-01 6.933805968624595813e-03 4.397389172313773825e-02 2.827698173161115325e-02 -5.623119812691569630e-02 1.059073348853959151e-01 2.162441692955066781e-03 2.613791181875337738e-02 -1.072920105370267149e-02 1.599453188418734906e-01 1.329520761394735184e-01 -1.407266555748904469e-01 3.207346680639130976e-02 -8.316307903678883673e-03 -1.042962445665206600e-01 9.808991230968995556e-02 1.210345380043121102e-02 1.404249064201578412e-01 -4.966214245880067046e-02 -1.622072372541328578e-01 1.651435628424094970e-01 5.083452511237409634e-03 5.492457683112872413e-02 -1.210043562288673352e-01 1.870773780717382637e-02 4.212215716892914880e-02 -6.535910621796578446e-02 1.157097406541674200e-01 1.006579065975439502e-01 -6.891596165185703837e-02 -4.692722896318574088e-02 9.853927815755615660e-02 -1.479153167896551657e-01 -3.836974214241951203e-02 -1.127270459154861293e-01 -1.229197840041668655e-01 -1.257524742120745553e-02 -4.893890508062169464e-02 1.500956208352569217e-02 1.088625799848977893e-01 -7.353885449796696006e-02 -1.238938009279811348e-01 4.221147703003523544e-02 -8.344342441764208973e-02 -6.284022208276336674e-02 4.064380079065881002e-02 -5.805204027288681651e-02 -1.166611099612914482e-01 7.792956993412217259e-02 -4.595470157733883183e-03 -1.013178983690905949e-01 6.458666274479470115e-02 1.786140132950864989e-01 6.457460500055668684e-02 1.354735631037603805e-01 -9.360024168191351246e-02 1.538846437056245742e-01 -1.351442785518237703e-02 -1.509393880417986000e-01 -1.463521179551931506e-01 1.966029592930402248e-01 -9.178637284190907519e-02 1.288245611366422849e-01 1.576632945471857505e-01 -5.219225205168136900e-02 1.555873439922231816e-01 8.216171669876752570e-03 1.037034960490160890e-01 1.123429861839422561e-01 -3.854737542724726712e-02 6.115513180635705898e-02 -8.969556096771508225e-02 3.718923807583387597e-03 1.341385676745270317e-01 5.113191805689928926e-02 1.040942178019590297e-01 -7.765194704186217933e-02 -1.097671727678723730e-01 5.227832664983615707e-02 1.364801448792446192e-01 -1.543467997435498673e-01 -8.050829003059623012e-02 -6.080593947804102672e-02 -9.196210727755105285e-02 1.324732100656405565e-01 -1.088583338989358301e-01 1.228822606392869776e-01 2.688275900752924025e-02 -9.603888537509971957e-02 1.693749503001160395e-01 -1.493045153060296726e-01 -1.369855851592896405e-02 -1.820279195192931465e-01 1.349553009981570850e-01 1.205835509222566437e-01 9.313359173803133217e-02 4.657642561604765502e-02 -1.675753933434329795e-02 -9.079086592452419169e-02 6.025147772609498742e-02
-3.741966647650562389e-02 -6.757317760826092590e-02 -2.974426784324749311e-03 5.231803540306876471e-02 -4.142261429814208390e-02 1.239603333492730330e-01 -9.537133849844670053e-02 1.116522923377287341e-01 -9.506150704828111864e-02 9.445643696796156286e-02 5.544939902200148041e-02 -4.249703292761404516e-02 -1.330470279529267774e-01 2.457127160021531538e-03 -1.269966338616449614e-02 -5.026633867938735956e-02 1.634551971139096838e-01 9.444810127630397234e-02 -1.727511004347634729e-02 7.578344173503406833e-03 -5.844831353371313098e-02 -1.110093800285735788e-01 -1.060267806162323162e-01 9.069948755638847226e-02 5.193255613105199342e-02 -1.395591213129907804e-01 1.425979945298862066e-02 9.363619346898033324e-02 7.739782220364334331e-02 1.098639370946711408e-01 1.144278045342826955e-01 -9.096958694815261703e-02 4.042644875253456616e-02 1.307315187225158160e-01 -7.421993889617867213e-02 6.629494494117034453e-02 1.248499543152085528e-01 8.757192886859850589e-02 -1.968420807284518848e-01 6.738225885310070162e-02 -3.030143366760128243e-02 7.308680672372938614e-02 2.406330555937612539e-02 -4.769181496432488288e-02 1.263665653304806014e-01 1.070436387444413662e-01 -1.253811406026938691e-01 -3.193275779848810114e-02 3.130086370893483960e-02 -9.619996107360893889e-02 1.041895196178687227e-01 4.105774432483151604e-02 -8.648604393117565250e-03 -7.577738021280208680e-02 -1.619095585279555494e-01 8.643663604679699408e-02 -8.283110220872604013e-02 4.160254316259568569e-02 1.497054861008542403e-01 7.617477429167572589e-02 -3.656750463349351526e-02 -1.082803185748125313e-01 1.414753708069758642e-01 -5.484416707409209973e-02 1.633232978038779704e-01 2.579981438011064512e-02 -8.685367743539385010e-02 8.306818478534265526e-02 9.303026620445142836e-02 -1.614728941460470413e-01 -1.054648064434792615e-01 -1.359306940175692702e-01 1.297816605086892783e-01 -1.491185603211689636e-01 -1.681747543174399451e-01 -1.449908399860820318e-01 1.398356995239335709e-01 1.117283185842587040e-01 2.139924419685738932e-02 3.977081813795437654e-02 -9.836172196605358353e-02 7.941941628980692114e-02 -8.143906003694957596e-02 4.255275067060073496e-02 1.684053768464353062e-01 -9.515959912050077005e-03 1.974164344578690777e-01 1.194852391611826575e-01 -5.396998660156886174e-02 -2.796335034459895494e-02 -8.675128293086921405e-02 -1.478653559745542190e-01 -6.266935082932310712e-03 7.167967114366138870e-02 1.098443109696556341e-01 -7.953135394791602253e-02 -1.339010770832901043e-01 1.835967129756617411e-01 -1.543099846995044100e-01 -1.311835900984699155e-01
