-1.575209735412189949e-01 -8.609788477863787592e-02 -1.135870329136030726e-01 2.119164026862510250e-03 -5.899995704587333856e-02 -6.298435735643395650e-02 -5.232764547749917117e-02 4.029300022070576859e-02 -5.858099760140528245e-02 1.442688537460316660e-02 3.481142400163080020e-02 8.034600479190001643e-02 1.115529857992287877e-01 1.746683783840963233e-01 8.120724790307333463e-02 -1.036876337905331680e-01 -3.687770177160452217e-02 3.487121036736396621e-03 -1.086794045839838130e-01 -3.765142952986404862e-02 -6.735362659241557470e-02 5.795027574650511715e-02 1.382409572859043430e-02 1.136805775929437407e-01 -1.302237385976206252e-01 9.988990315314980398e-03 6.966705737256145836e-02 2.691836276805979408e-02 5.376575869064342816e-02 2.467610032746102300e-02 8.520579791112688206e-02 -8.642339204687207732e-02 8.858047173520837425e-02 9.953313804647381802e-02 -3.850851714967905987e-02 4.052926714594054514e-02 1.723525871685158140e-02 6.444481242682223443e-02 3.676703034851545870e-02 5.709499724987635721e-02 8.638983612768452724e-02 -5.329065222814784175e-02 8.037852334013979860e-02 1.158003377466102768e-01 1.325706494272007319e-01 -7.877212275947662046e-03 -2.697948846969968478e-02 8.295849658742136812e-02 -1.101726111387427431e-01 6.551568628003712202e-02 1.506123304187911675e-03 -9.306189030661769779e-02 2.686872811324494958e-02 -5.494377461248631245e-02 4.240110149415221574e-02 -9.817632578181214459e-03 1.868332667880291675e-02 7.280086287114992394e-02 -2.453935696526402671e-02 1.441984730044140392e-02 -1.808735651496767155e-02 1.641188925478308594e-02 -6.040148888585970127e-02 -8.144464124164293994e-02 -7.248390847203219078e-02 -5.503629386716176602e-02 -9.698217705748561623e-02 -7.847610006032869345e-02 -2.859021238820786889e-02 -7.440598255026623087e-02 -4.374003148535680202e-02 -7.115155272170065048e-02 -5.406972353530430098e-02 -7.365052823552749317e-02 -1.781730360414223446e-01 -3.602394769006376368e-02 -7.092459407199036558e-02 -5.313678388029754313e-02 7.497607583620194416e-02 -2.525251819750542331e-02 4.756814770475839560e-02 4.095367101516000224e-02 -5.494134738109604510e-02 5.788616991515078969e-02 5.159676541235674874e-02 -4.850697288294628789e-02 4.069865492831898496e-02 -1.137888863016938562e-01 -6.317494748497261454e-03 -1.297251706364887236e-01 -5.584435582454026076e-02 -1.562024200267836394e-01 -8.227384698126236073e-02 -4.229183956800185856e-02 6.106438179495717045e-02 1.188341566700042845e-02 5.716775324002024150e-02 -3.532981986937729774e-02 -1.192348997048351261e-01 1.274979118898728336e-01 1.266744791860009989e-01 1.053217526073881027e-01 8.690951372601530070e-03 6.190256056244881205e-02 1.593153434731750528e-02 -3.515002937528158983e-02 -6.541249913135752624e-03 1.477851083317461775e-02 1.033003599647628057e-01 4.253803081488747445e-02 -2.006685479052765578e-02 -5.538226275040173535e-02 -7.595993467663790175e-03 9.124410512149865038e-02 2.987252243187212344e-02 4.971107264526104796e-02 -1.637906698119689225e-02 6.994290550722568472e-03 2.060017218401282227e-03 7.227005967262417618e-02 2.434254984564019481e-02 -2.309540359727674935e-02 1.028254964977417529e-01 2.003977840944511646e-01 2.677445329761868678e-02 1.658810835616643664e-01 -2.022485172483740393e-02 3.448874713659077790e-03 1.263456694585200421e-02 -8.715064687324114434e-02 -1.097240910233761441e-01 -4.078582461428165509e-03 -1.586947129915976251e-02 -4.928438652636859402e-02 1.066007013575929613e-01 -5.137544640865508716e-02 -8.375666547393446904e-03 5.063312371999128397e-02 3.722275654651138743e-02 9.011355363398096396e-02 -4.658900153731081878e-02 1.145392740238370261e-01 -9.763940705816553239e-03 7.356838672584319061e-02 -9.473039505830256959e-03 -1.081020933870100731e-01 -6.840711736709780000e-02 -6.631474987086780071e-02 3.805149501848163057e-02 -2.668398900037334542e-02 1.044526806249073542e-02 -5.733808308772107148e-02 2.979963146099489507e-02 4.211050157801919658e-02 -3.132486343584052479e-02 -4.419988973385973602e-02 -6.199176696795591357e-02 -1.440486253670295036e-01 -6.766709664846887184e-02 -8.880491112510148499e-02 -1.390510679391828708e-01 -7.176124870125695498e-02 -2.079088245564510509e-02 9.206540696330615947e-02 7.843210423754168326e-02 6.646903809321864920e-02 5.033988068264463184e-02 1.031378973889278267e-01 3.446533559444976691e-02 1.283556778178727986e-03 -4.124472605453918805e-02 -9.951431708036209689e-02 -3.883039919724314004e-02 -1.125758355554165868e-01 -8.163013073466544867e-02 -2.932329488612259519e-02 -5.626451664606810926e-02 2.232067345029332961e-02 -9.926111023452294235e-02 5.619649803536189842e-02 -5.866284332463218842e-02 -4.860020844359895509e-02 -3.999381130847812910e-02 1.040849592917303668e-01 7.197680226501501632e-02 5.154077377216673833e-02 3.773212196536270620e-04 2.980395571595167298e-02 3.393443654476580723e-02 -8.149767141936459236e-02 -1.175917359402311874e-01 7.211360275208307524e-02
-6.479875423405020637e-03 4.956347453537018194e-02 -7.601951485933491903e-02 1.563268998163669377e-02 1.226393409866362028e-01 2.971607403405937368e-03 3.717631918935235258e-02 -3.018444893828023043e-02 -3.621987216506661333e-02 -1.277901121791551742e-01 4.137420982828880073e-02 1.256192895200156368e-01 -5.399997966693046055e-03 5.674429018985582135e-02 1.730983737035832193e-02 7.388895065403720819e-02 -2.970701546917179151e-03 9.661354943329897305e-02 1.689325709185892158e-02 -3.972874921889462535e-02 -1.276636261342895505e-02 -1.396709670920229240e-01 -3.288326121355972242e-02 3.120462340147918054e-02 -6.597929544355043974e-02 -2.096209806957709254e-02 -8.570814861859372968e-02 -5.177709727641244264e-02 9.374103520291758411e-04 -7.063470452020814694e-02 -8.153076757919494599e-02 -6.017593247779284837e-02 -2.540389983926014464e-02 -3.081566320266563436e-02 -1.270724212201850695e-02 -6.411534225420587561e-03 -9.418473642526933864e-02 3.147504954142107958e-02 -1.690377715228618682e-01 2.063061487485400719e-02 -8.315879054123863356e-02 -1.070771202550987664e-02 6.958616716769155941e-02 5.655219049850740420e-02 1.099469480441354619e-01 5.607632869386589697e-02 -5.091871119485981423e-02 4.239754425641843738e-02 9.663008701615596885e-02 -1.627382345535427488e-02 -7.293124250806136410e-02 9.326683948023027637e-02 6.238664892675468976e-02 -1.206404061355796122e-02 2.661037318699023199e-02 4.094406537626196080e-02 1.161181307968044002e-01 -9.887067730194626369e-03 7.468182282858545906e-02 -1.190731313862770507e-01 -7.452681763561888606e-02 9.940310113358313826e-02 -1.500839085616061455e-02 -2.767282525589753392e-02 -6.577633086666698214e-02 5.607912050292552381e-02 -7.416108624754878809e-02 7.521456312492426355e-02 -5.077328043135960825e-03 2.917475776947685631e-02 1.203255116113504958e-03 8.551259340093417260e-02 5.630790844936518769e-02 1.329196180028162089e-01 -3.514460621659790812e-02 1.112141059438031127e-01 2.779618664582188606e-02 2.768440233216289820e-02 -1.916435057094869818e-02 7.490671019379184503e-02 6.459151751778859085e-02 -7.531235332830793494e-02 9.267553125326777330e-02 -2.749800090376407560e-02 6.691268014011449161e-02 2.145618318590615525e-02 6.659321782921148736e-02 4.798629643246651866e-02 -3.240946979092161617e-02 -1.149622032666920979e-01 -1.218387060108779563e-01 -1.710824307121005389e-03 1.569824269576756276e-02 -9.513855002230936497e-02 1.917311511917936528e-02 -4.371014144419029142e-03 8.043312086415004003e-02 -7.213986651061460309e-02 -1.145169244848801421e-01 3.019647570246878840e-02 2.712214194510191925e-02 -5.803771271960350003e-02 4.707299375106643868e-02 3.101459496687834078e-02 8.133114463516817258e-03 3.891643722855200882e-02 5.474766516462168005e-03 -3.427862385935050854e-02 1.613762115373034434e-01 1.128637834952730401e-01 -3.538137943837288413e-02 6.926328502212848737e-02 -7.122768655739096511e-02 -1.587383195404269420e-01 -9.064302366788838661e-03 -6.837549703093205589e-02 -1.100670861813175666e-01 -3.073516757638885405e-02 6.354290205411657066e-02 3.135586771702405379e-02 -8.895352419937334332e-02 -1.158153843665950672e-01 -1.388412175471621657e-01 -8.236445905460432204e-02 -6.099871629829024811e-02 2.816979745888217174e-02 -7.713455291502990807e-02 5.289520747537622414e-02 -1.258317835152851227e-01 6.931963711014949014e-02 -8.805579056408878447e-02 -1.257535630154323347e-01 -3.760215341708096626e-02 7.044294075897918062e-02 1.130881735437938157e-01 -5.388672800501383142e-02 -3.000209102133106695e-02 -1.509668075696701112e-02 -1.181712182817447887e-01 2.557796526462161393e-02 -5.839310778074924962e-02 -2.687296589053998069e-02 -9.814580656651863966e-02 4.173232524588438991e-02 -4.048266301385890914e-02 -9.358539396302284485e-02 -7.241891511547146609e-02 -1.060591541408450467e-01 -1.165866273394245284e-01 -1.293184877576335733e-02 -2.158395679341794209e-03 -6.346199201308808102e-02 -2.481345872783762702e-02 -9.534841369136988834e-03 -2.363616797062650064e-03 7.731995084285295250e-02 1.603346093886485468e-01 -5.118025111210387085e-02 -1.117377298000811203e-01 5.911939135138957052e-02 3.266217685459723435e-02 -1.218461633948810102e-01 -1.006722075749163781e-01 1.755859008746686253e-02 -5.463965784396272035e-02 -4.291385991353183216e-02 2.673395821370503148e-02 8.581397928341697942e-03 1.410541815625056816e-01 -1.442933593959360924e-02 3.188222263292647685e-02 8.059223000885591681e-02 -2.638982655310976103e-02 1.141049176740212973e-01 3.660918715195798229e-02 -4.447229239811999191e-02 1.015122094071271852e-01 1.049602823316126698e-01 7.385751635808474047e-02 1.076464458356630599e-01 -6.515693100961017503e-02 2.173196987563186244e-02 -2.837952921071789161e-02 1.131394804720415800e-02 -5.221399548585116401e-02 9.783982041544653230e-02 1.550733467715119940e-01 2.449584699191275153e-02 2.156521938201269584e-02 1.216925387938191522e-01 -6.470629371152668285e-02 9.368296167790896023e-02
1.207784306901644733e-01 -5.746998303638723576e-02 7.467626710610486551e-02 8.175042922923451971e-02 3.277811996444559423e-02 1.496144961587432265e-01 -8.938623385414987133e-02 -2.181090684978924041e-02 1.359243026835870172e-01 -8.890977042127094776e-02 1.110633370845997142e-01 9.048728865109294250e-02 -1.069015982522946578e-01 4.093087642064474618e-02 -9.423901681469552816e-03 -1.357244499971396560e-02 -5.058834976518555848e-02 7.553989972001936073e-03 6.542974294284850667e-02 9.904956809145662455e-02 -6.476708027064666251e-02 -7.660862377536398204e-02 6.343130693222923111e-02 8.302431305980921550e-02 1.585950194526414558e-01 9.824654990570494406e-02 1.266321761648704913e-01 8.224441072422118693e-02 -2.651690835093121340e-02 1.694262145105011885e-01 -4.213965604242010665e-02 2.245638460259017852e-02 -3.395503066352313203e-03 -9.790795244377770157e-02 4.704780650375675610e-02 6.647325715769110410e-02 -1.009066952550782686e-01 -3.006101150333672853e-02 -7.285505513705077887e-03 7.929710466080489711e-03 -8.056187899084103418e-03 1.216711172166670824e-01 3.173046316947001309e-03 -1.276225777513207982e-01 -5.291354473760678800e-02 -8.668522298957230532e-02 2.379868718313940187e-02 -8.131608122856447129e-02 1.290657340978243195e-01 1.652476519737004421e-02 -1.068339452998158913e-03 -1.076496656691216733e-02 4.766816765997368421e-02 5.155296336204770458e-02 -5.852979997234129123e-02 1.130019728335832085e-01 -1.610146967483359198e-02 -5.016640381797863452e-03 -5.122273418572365240e-03 6.615251351613990471e-02 -5.235767526895105523e-02 -9.718567892523291563e-02 3.218076961988376727e-02 -2.946311341355774965e-02 -7.528588470174271685e-02 1.204226027521637793e-01 -6.957552625426274666e-03 7.144896947661795450e-02 1.245921780690224454e-02 -3.170719697384398461e-02 -4.886178727792547111e-02 -6.657209538774870941e-03 9.629989870101929306e-02 1.570533648177743768e-02 -2.298132435291612430e-02 1.343508155604347110e-01 -2.891893298705645269e-03 4.028167384457757155e-02 3.209118836627555815e-02 8.854933370923913361e-02 1.008347081250969557e-01 1.703251410495422100e-02 8.460056589158862494e-02 2.147177687833260601e-02 5.117930694462920205e-02 -5.095958824213464577e-02 7.684188957998067115e-02 8.949976270499737652e-02 3.032123565990654454e-02 4.972845341251984352e-02 7.644216950601218953e-03 -7.153225491996585694e-02 2.639762700164613798e-02 -6.536603072083747856e-02 8.404331935996631198e-02 -3.862176712723412036e-02 -2.277297797127990353e-02 -1.372331623490334607e-01 -7.447071170164920595e-02 9.522075186847205053e-02 3.080520226263805394e-02 6.371868268411587377e-02 4.456359671628180863e-02 1.225167354076393544e-01 1.302217859310422256e-02 -1.972117677526506047e-03 -5.813207010457847185e-02 4.657103528889694477e-02 -5.128356220324601505e-02 -5.077195851499326923e-02 1.181708656259622126e-01 8.052070554839899086e-02 -1.527839065450989700e-03 1.699887775015868352e-01 1.026335021823192167e-01 3.620164935459906086e-02 1.180805199320653642e-01 -7.515237642023821218e-02 -1.255606884375449206e-01 -9.428664990832529014e-02 1.916280494146559849e-02 -9.964181184035199312e-02 1.284703929289349351e-02 4.455246019563360860e-02 -5.080890320439896551e-02 1.800620451591133583e-02 2.223670859542968906e-02 -1.396893805847955472e-02 4.377150386663303250e-02 -9.133842499146296867e-02 -9.799709414139357033e-02 -5.773511087413737281e-02 -7.139826310089102124e-02 7.681303479004429439e-03 3.113536640012766823e-02 -8.004903366005156062e-02 -1.046989577948584105e-01 -2.428130842194769351e-02 -8.608620799118619354e-03 -7.902644893903391921e-02 -1.023834143336575242e-01 5.092209864073458936e-02 -4.563619771422675053e-02 -1.237264136259764724e-01 -6.602744396251784831e-02 1.122405779524684663e-02 -6.754521347161210332e-02 -3.648373367248581439e-02 -8.572570391854546223e-02 7.673777411899523893e-02 -5.164927206889068090e-02 -1.820119280434929696e-02 4.260450186662023686e-02 2.410695831626373867e-02 2.448047321703418489e-02 -5.327363886319479852e-02 9.471874587019044056e-02 6.706999781367814495e-02 -2.384254018325486155e-02 3.015736680471748851e-02 8.852136215207480341e-02 1.198462389202744303e-02 3.563836453039871677e-02 -4.334386928258029958e-02 8.500544735469033053e-02 -8.078242202689374374e-02 -8.295973957597933823e-02 -5.225141291465505017e-02 5.011519317569820137e-03 -6.209162529871431468e-02 5.422212396970703396e-02 6.948155475091066791e-02 -1.365827336705658368e-01 -3.115846726674167608e-02 6.816686183295980750e-02 -2.966200089241259608e-02 -1.180607062189070466e-01 -1.076807196427454101e-02 -3.100403324098595457e-04 -6.170611460055277359e-02 1.017008925111624086e-02 -3.281529726568788163e-02 -7.312838494539287970e-02 -1.190285899162164124e-02 -1.321313171932853303e-01 -6.798105637105443522e-02 -1.065692793626757257e-01 -9.203087632282483388e-02 -3.961974608483870980e-03 -5.923373888555070327e-02 -1.268718380783546706e-01 -1.166855441283617123e-01
9.333314598358959102e-02 8.745431613386303593e-02 9.162082108711365469e-02 1.682441136389560554e-02 2.251474126072288209e-02 1.770574843233391760e-01 -9.597783852695675189e-02 1.128774730427026390e-01 -1.707707186054497478e-02 6.214482547987938699e-02 7.548872262138344759e-03 1.470037165178749924e-02 -4.970580959157680501e-02 6.776849568292293846e-02 -1.470007026032904215e-02 4.249364645453758416e-03 -7.867375118308604642e-02 -5.195916291139254101e-02 -6.004163805917051705e-02 4.828917780265738063e-02 -1.318367469296106986e-01 2.907949030768448503e-03 4.154276626049739629e-02 -3.699067479776502881e-02 -7.400652934833558405e-02 1.127293813878583600e-01 -7.607066560107877962e-02 4.504679317654448900e-03 3.685976464258538393e-02 -4.025955550033653851e-02 -5.473121385633220731e-02 2.068096216816885796e-02 -8.293687397165401152e-04 1.624779891467400400e-02 4.943544864875996231e-02 -6.440013828892411640e-02 7.060667407557479069e-02 6.661580646136437689e-02 4.443810789804933381e-02 -1.803442593612932616e-03 -5.562537948811266397e-02 -8.521153708525663895e-02 -1.279179583272860576e-01 -4.413418966047515796e-02 -7.713145969769651111e-02 7.421048993269761807e-02 5.641278047992225042e-02 3.587451021130822620e-02 -8.349479253283231817e-02 3.027317948670105001e-03 -6.182586430955747808e-02 -1.500459761041412488e-01 -3.221920704182796441e-02 7.914168902817196594e-02 5.394510671170163474e-02 -3.952470832736485612e-02 7.075728969227310095e-02 -1.658147377737178088e-02 -9.654481951905265202e-02 -1.223051569483577378e-01 -9.347315460487851113e-03 -4.918423503868112924e-03 -2.370492807968543891e-02 1.143609409090936280e-01 1.055298047073666978e-01 8.197460255317473923e-03 -7.335043738257699189e-03 3.511972960274175465e-02 3.592079372020862832e-02 -5.259142359568260566e-02 -2.002182031207665885e-02 -7.415722144659146232e-03 -1.320123938146849918e-02 3.138084058910484836e-02 -8.632500296388614935e-02 6.577878994621666475e-02 4.597960864590527191e-02 -8.960950404960757454e-02 5.854590305258865895e-02 6.401180168200453803e-03 5.862018210405299176e-03 4.651752128507076478e-02 8.866091084662175437e-02 -5.450279308244371929e-02 4.763900575402709586e-02 5.319902904125670823e-02 -4.415038238095521372e-02 2.619026508777303700e-03 1.055336186981564034e-01 -9.430459949613403947e-03 1.569040683549708104e-01 1.113018715026213301e-01 7.633947991577225145e-02 -2.065554076313746990e-02 1.433392505269799611e-01 5.225853161969742922e-02 -2.665728391034176761e-02 -2.829073462560257116e-02 -4.984076968900619936e-02 1.233711853814974981e-02 9.452374533090653064e-02 -4.331958663372779267e-02 -7.672850015414093769e-03 4.151645334018935068e-02 1.007446529973287930e-01 3.168230919053097866e-02 6.575260690042432354e-02 6.936668701356475675e-02 7.737538026609022679e-02 -5.594353652214036771e-02 1.087776729649047314e-01 -2.574180524592240005e-02 1.002617197365025664e-01 7.984109682167847555e-02 4.688755131172234192e-02 4.906415158807454768e-02 -7.501222645594778082e-02 9.896394191627992665e-02 4.383351428963537522e-02 -3.061581571615544853e-02 -9.302435858289280490e-02 -6.459018327144468163e-02 5.890141326483001871e-02 -2.195650951934847994e-02 1.171870361200090249e-01 2.359190059202722831e-02 4.088547349237820622e-02 2.476107707104533567e-02 1.047924826053045905e-01 3.586696198753633325e-02 2.481505974792277969e-02 -4.753838833200622199e-02 4.196261221672689667e-02 1.464420556104806606e-02 5.808449884975661059e-02 -1.146386238943600255e-02 1.124186871549842232e-01 1.465891009008253587e-01 3.131545326844132476e-02 -7.096935611185810344e-02 -8.497409064077500462e-02 4.280731395403302580e-02 2.871578926268244722e-02 -2.517891784697874613e-02 -3.486560134900971997e-02 1.937606118653663612e-01 1.063416053571698550e-01 1.827686934419305576e-01 1.158217928817988768e-01 1.275855865410458201e-01 1.193433640452016692e-01 2.172095946132119107e-02 4.135439464632897910e-02 -3.519044753337271375e-02 -1.008575589270298001e-01 1.201031169243935437e-01 1.531505664638995162e-03 8.068788270581035357e-03 7.786203244882464181e-02 -3.034961247685688535e-02 3.711002771975405873e-02 -7.594795475246773897e-02 7.772968630904282528e-02 3.203288183520998193e-03 6.513560049186330192e-02 -6.197421638888190448e-02 8.993995948157712528e-02 -2.358476637955205131e-03 1.235922877143458276e-02 1.380249454663852737e-01 -1.003587983287171637e-01 4.257786433604410226e-02 9.403579402552846023e-02 6.465688175931084969e-02 2.787357207355269095e-02 8.089782609046328177e-02 7.478902550309267372e-02 -1.030668754214546651e-01 9.110515797743105534e-03 1.433347761622468311e-02 -1.778575415281532374e-02 1.173718661930162055e-02 -1.087180521911161740e-01 3.784664754464546477e-02 -5.967633793064655578e-02 1.495480827213854225e-01 8.606043723584705374e-02 1.199975265347840991e-01 6.677217806336147032e-02 -8.290112199964687345e-02 9.333351238339039624e-03 1.258610575699967149e-01
-9.691482504422255229e-02 -9.590517763162460102e-03 -6.718603006193874481e-03 4.753268860133560286e-02 -4.999829380278316554e-02 6.167461770967642282e-02 -6.355888860565250820e-02 -1.757773475362194027e-02 -6.158357335634596919e-02 -9.148863209097342353e-02 2.605611804241534171e-02 1.418224198292834803e-01 2.524697889334569234e-02 1.158875079801605923e-01 1.199603565748609407e-01 -7.327279135449368819e-02 1.495388098894830653e-01 1.346159238742027642e-01 -1.473543313897106577e-01 4.425261861535213087e-02 -2.929148757742724984e-02 4.172861669930441608e-02 6.302539118091597670e-02 -7.158147189577263036e-02 -3.499392700018446462e-02 -1.153918031313974982e-02 1.020250033852839050e-01 -9.920097748062264159e-03 -3.206704478795141880e-03 3.718696352391801657e-02 2.657064307924468169e-02 -2.593555551892721620e-02 -1.231667508872916032e-02 -1.044007399520400781e-01 -3.280839213349292377e-02 -2.361173798990434669e-02 -1.261952286286691927e-01 -1.912812830416115925e-02 -6.945586356776964343e-02 3.103980522438021770e-03 5.395869630965328262e-02 -1.255249057676336988e-01 2.034102980943663236e-02 -9.179789607925726083e-03 -1.480833060637262114e-03 -9.388784958761738075e-02 -2.631897167542857074e-02 -7.544597900175284422e-02 -7.502526430211031716e-02 -9.237984861684196691e-02 1.999983852414049385e-02 -3.863759106723942214e-03 1.602675406003991471e-02 -1.517610943705242077e-01 5.147108072135662266e-02 -3.077633872189897493e-02 4.620490947488355843e-02 -1.126487281106411213e-02 -7.788665418542950469e-02 -1.152626257160650897e-01 -3.115243458054139936e-02 -9.253186015664432995e-02 -1.178276622813684005e-01 1.250188246485204047e-01 5.615963829351660469e-02 -2.081824829433284989e-03 7.509709506781005184e-02 5.046998161939909855e-02 -4.758394718938474544e-02 -1.952817822133030498e-02 6.749377995181128631e-02 6.467735412400747730e-02 -3.803150032373926737e-02 2.756213648771171573e-02 4.381573440646702872e-02 9.535386632246561911e-02 2.472687043421682718e-02 -9.731046853338134886e-04 1.010222133158746732e-01 -4.866520282439974060e-02 5.982516765059364694e-02 -5.153877175168444791e-02 -6.958193919754596113e-02 -8.838318239036616064e-02 -5.693119308721678734e-02 -7.380139653907273611e-02 -1.495879790182406410e-01 1.023221764583427326e-02 5.466012239837232667e-02 -8.981096324168550554e-03 -7.473602361051646936e-02 5.833637949215999402e-02 -3.896938194637754316e-02 5.046396140087892196e-02 3.403082121544439426e-02 -7.161729831516364803e-03 9.806078673653764732e-02 -2.391390411279585917e-02 -5.227578998477980937e-02 1.031517137030165676e-01 -1.723753465702967903e-03 1.406879576051453806e-01 -4.683581538090866164e-02 1.296909792664247517e-02 -6.789124079212606466e-02 5.907041543028976847e-03 7.120341208760015000e-03 -4.956345962943582706e-02 4.005348827895563457e-02 -7.031685159133573004e-02 -8.353000224623866043e-02 -2.098579839985117296e-02 3.096111300525367094e-02 -3.117646412563358782e-02 9.555770271293999307e-02 3.220256710258687788e-02 -7.018989047230160538e-02 -6.338900750143984519e-02 1.123567583227274153e-01 -4.926640024080383012e-02 2.627339578044592030e-03 6.965693135863378072e-02 7.742267211217040979e-03 -9.317704125397521797e-03 -1.155738743506538047e-01 -1.815827098489344177e-02 -6.438909158372357888e-02 9.964732148518205823e-02 7.789407876323681257e-02 1.149142544016616696e-01 4.621191653779420372e-02 1.506770892228353753e-01 2.194068535474519993e-02 1.218264234572921795e-01 3.555243767482629130e-02 -1.443003815434099578e-03 9.882597518730298902e-02 5.660859353431873901e-03 -1.077514372995692638e-01 -5.229587012779982058e-02 -1.285371211144070713e-01 3.970825341510920287e-02 1.105561901600312924e-01 -4.234131191778808811e-02 -5.254653761506804938e-02 5.426655469144439636e-02 -6.451013214812784113e-02 -1.109048731845117264e-01 -2.803563212945321681e-02 4.492832045029727939e-02 -1.056102188806965492e-01 1.996075185999239814e-03 1.219290485850688111e-02 1.747824239759823706e-02 5.759165275992240984e-02 1.601338548903245840e-02 9.113236976166947875e-03 3.151135341870774098e-02 2.988107580589761253e-02 1.313977919148318907e-01 1.271653787064413177e-01 3.828310382095687081e-02 -5.984081248980903378e-02 9.107995547219849275e-02 -4.128064888579093678e-02 7.858793632360633330e-02 8.756368633380155753e-02 -3.194296294934788338e-02 1.331610010262321633e-02 1.263724455385163981e-01 7.941600885064430126e-02 -3.949781695532414427e-02 1.037517882426977761e-01 1.440689943712938903e-01 5.332695110207616440e-02 9.865152938862277454e-02 -3.578393916489987225e-02 -8.529873450635869214e-02 -2.350246432147879219e-02 -1.765905999819284561e-02 -1.444025342881603557e-01 -8.257411498713032594e-02 -5.531973399628408589e-02 -1.524958013140163549e-01 -6.171354905380979639e-02 -8.917784332230076216e-02 -1.055766012412478749e-01 -9.055404307472403325e-02 -5.979943913498331383e-03 -5.391118599889276053e-02 7.637056473726439032e-02 6.274599994662141689e-02
-4.405432101151634736e-03 7.617713519083083029e-02 3.155801166019287646e-02 -2.386378365268030516e-02 1.007556272498305594e-01 6.092917327094508201e-02 -3.273615934060160500e-03 -2.065641883583820351e-02 1.947302142527570709e-02 -4.814390360888010784e-02 6.511964498735945198e-03 -9.421309493054828843e-02 -6.490549485060315149e-02 -1.255349012592381908e-01 -4.318079252597211565e-02 -4.425675081445584053e-02 -6.912172806228349120e-02 -1.073313012255010662e-01 5.225419764084391488e-02 -7.153478092927063881e-02 -1.247895802752573835e-01 -1.136139102476715467e-03 6.452501544100697206e-02 -8.497326311003061683e-02 3.240589186436819424e-02 -2.820708263839296140e-02 1.049619128427266290e-02 -3.598787020718084012e-02 8.067975960432759164e-02 -3.418610036213665104e-02 -7.212916540314125158e-02 -4.560136438412430021e-02 -5.456959335103668540e-02 -4.066271913786517755e-02 7.629615615656717975e-02 2.083815833099401677e-03 -2.698052560467980449e-02 9.221640246291969156e-02 1.204209136903342664e-01 1.166669726397601692e-01 -6.774120896908884630e-03 1.560868122342521647e-01 2.169980598713668399e-02 8.332702345425883894e-02 -9.624844115716922610e-02 4.376415973059884224e-02 -5.449117297175080227e-02 -2.027791366337753851e-02 -7.150918682181418851e-02 1.210200938771567591e-01 7.489110027768439148e-02 6.490445131414455775e-03 -3.122098883846188833e-02 -1.450596855122462114e-01 -2.001077436151608643e-02 4.535857941986662367e-02 8.758604082882218145e-02 -4.278816785076122731e-02 1.063507868749893337e-01 7.652813934876583069e-02 3.796673785466358336e-02 7.972337778949395437e-02 5.074946508417992053e-02 -3.318544199067978429e-02 -6.374411623606902888e-02 -7.063592592090972566e-02 -1.007655358381015498e-01 -6.058317059346786382e-02 3.872507084665258864e-02 -4.181332157359392981e-02 5.722166392859655282e-02 -8.270128231248072281e-02 8.458357765550211793e-02 1.564184323134867882e-01 1.743451316336309606e-02 4.187497971715405803e-02 1.170291471473328127e-01 -3.264174518297263683e-02 8.038176683925675470e-02 7.273312663651924914e-02 -1.706152485327380383e-02 -1.057058648523352268e-01 1.732377885121822239e-02 -2.480903072085991271e-02 6.321117389128229347e-02 -9.231374689708500558e-02 -4.635976332234970770e-02 -4.793775642775860435e-03 -4.237410643861323073e-02 -4.507666381390491861e-02 -1.416230420886277486e-01 -5.971299976843535973e-02 -1.189161695080308001e-01 1.186079032249817006e-01 1.388267114520340684e-01 1.441937427842576169e-01 -9.180491296929065015e-02 1.227133269469046495e-01 -2.120010639578754144e-02 -1.588960135263953535e-02 8.357517792582742910e-02 -4.073930853153332615e-02 -2.846612885062714537e-02 7.764266806133998666e-02 -7.989997905836564163e-02 -1.902917752470873747e-01 -3.182004524727218009e-02 3.790542679394739295e-02 -8.927364190639523744e-02 -3.962722200447447302e-02 -1.316135402414200795e-02 -4.109694498397270523e-02 7.236967679829391098e-03 5.622530126418536639e-02 -8.559370667369664912e-03 1.447940276035937848e-02 -5.559445662260731336e-02 -7.993173153766754135e-02 -3.389100523350042915e-03 1.799926237210694169e-01 2.982218445010579450e-02 3.626890403837856186e-02 -5.513366321840281435e-03 6.150573098371470843e-02 1.800529543643556926e-02 2.762326968924969182e-03 9.793622175432645238e-02 -4.734167707056170793e-02 1.013432704076701468e-01 -6.774036469533160909e-02 -8.742540295558066943e-02 -4.063672902381396113e-02 -4.928763933028994931e-02 1.410415653304150987e-02 5.273836868542261525e-02 -3.824444836176345286e-02 9.646134071537550148e-02 6.697124873755516683e-02 1.975950716210716791e-03 -1.048352208816209427e-02 -4.435295757743165646e-03 -4.008750203985526200e-02 -1.709331083073986624e-02 -9.006537938243099756e-03 -1.249425264228104238e-01 -9.511906218953895473e-03 -6.717282524536039023e-02 8.462118552428158150e-03 -4.580576307751924731e-02 -3.311089547004871653e-02 -9.533502114319261644e-03 -2.740479671396732833e-02 1.494800713419422167e-01 -3.244765634030638557e-02 -8.924721853210412781e-02 6.755609616891571079e-02 -8.385685774942608361e-02 -1.000618645222150910e-01 1.129313564386041392e-02 2.777602497860760453e-02 4.002123045056139167e-02 8.023142686204590146e-02 -5.372472164199262878e-02 5.678774232203478815e-03 -8.263241670171986297e-02 3.909868018336786627e-02 -1.004117032633427276e-01 -5.064393297215623313e-02 -8.237204666133605968e-02 1.032394578521422801e-01 -1.099565693073651651e-01 -1.038167923303865564e-02 4.286348889669106682e-02 -6.903884531778295419e-02 1.136072317164912165e-01 7.192900044633360190e-02 1.144961902861201843e-02 1.469084349880337426e-01 -4.597880372628034701e-02 8.038803170250827246e-02 9.787374878469683182e-02 -4.020176635453786423e-02 -5.167803503185565417e-02 -1.244690339155928895e-02 -7.190029683329711430e-02 1.665770801313519456e-02 7.032687874570348052e-02 1.343237468628712128e-02 -8.688870980210207373e-02 1.751612397103643193e-01 6.087992798629396352e-02 6.507472304703938726e-02
-4.170625040555580448e-02 -6.383653658713861478e-02 -8.505082883833608998e-02 -1.086244034172336587e-01 2.069204138772486046e-02 3.401026317436348090e-02 1.274205901795170681e-01 1.948711214482684306e-01 1.674837042112199137e-01 9.490446140860306357e-02 1.466071779612006520e-01 1.459056926470100879e-01 -8.251683875998316875e-02 -1.390771426826023505e-01 -2.107235087601229059e-02 -9.765028107230112192e-03 -9.783393158222090935e-02 -1.356253871359520621e-02 8.922376550197095441e-03 2.042656325762018041e-02 7.045995738556753984e-02 -1.200817691310138713e-01 -1.372341033203087514e-02 1.900518497308243196e-02 2.703314415226612186e-02 6.740047642403776407e-02 -4.644939816774897035e-02 -5.371726038237659151e-02 -4.049705237036965028e-02 -5.428177781920393713e-02 8.140296608100847098e-02 1.189290922215507501e-01 3.677615542239551227e-02 1.006236030568170015e-01 8.983220208371053839e-02 7.649552383586349924e-02 2.323110162729640632e-02 -2.038621202940894134e-03 -3.472586262875495405e-02 1.259968366050046307e-01 1.240287503246201815e-02 8.625632062034406522e-03 1.154796283305661031e-01 2.983266862695234042e-02 3.594372816544301463e-02 -1.002607537265032961e-01 5.868879692595138642e-02 -8.369310658432670136e-02 -5.313930576236046421e-02 7.391628015932694140e-02 -5.904388047301075554e-02 -3.048344957374414174e-02 1.187845329082216732e-02 -2.472619404089023559e-02 7.270921741330930999e-02 7.766395675494934536e-02 1.327009234192097487e-01 8.040832347763054999e-02 6.680806513566832361e-02 6.551155351040368127e-03 -7.734247864805952888e-02 -7.792936789758984906e-02 -1.557491858328237519e-03 1.213006837234591878e-01 5.620773586693339485e-02 1.360182862959170326e-02 1.922254222121466960e-01 8.742246572390109660e-02 -1.332036808030098891e-02 2.654889482449571819e-02 8.658238564483541899e-03 -1.208639760024378118e-01 -8.666848672443260015e-02 -1.321420680129916335e-02 1.525908555042286563e-02 3.647274647197630559e-02 -2.592238352995939951e-03 5.435526767073731169e-02 -1.609330251543392848e-02 4.963260615684202126e-02 1.098519166323536356e-01 8.975228948159873210e-02 3.202460286442661980e-02 9.688328298633935853e-02 -1.452594054990301786e-03 -1.277316677505983822e-01 -1.202408409799211007e-02 5.175293134295538139e-02 1.819386986829335138e-03 -3.879798999281127564e-02 4.780238354253043415e-02 -4.109382299380433257e-02 1.004568650777053068e-01 -6.773333762393700386e-02 4.645350732728242144e-02 -3.712731796838535797e-02 -5.270981808139577757e-02 2.303848808001678853e-03 1.592704520160179160e-02 2.422286299689063380e-02 -3.867943135208352923e-02 9.294188159441306440e-02 -2.118360575282706923e-02 -6.086387983319675038e-02 1.255454693386407611e-02 -4.765109403689612132e-03 -7.133171973983898351e-02 -2.333484263902369828e-03 -1.259249697609389762e-01 -1.420286152980680394e-01 -9.357232256899683520e-02 9.418227119275417170e-03 1.367802489559754794e-02 -9.932231072706541875e-02 7.153344676257149259e-02 6.418831956746719886e-03 7.839779954565619102e-02 9.916508441928399697e-02 1.105792059371132896e-02 1.063380842583772634e-01 5.927287953632213308e-02 2.916711442792062348e-02 -3.493074098738774280e-02 6.225962270332079801e-02 9.533024391523613195e-02 5.397689955151452335e-02 3.128239416965442055e-02 -1.565655811017941865e-02 6.954453069677216104e-02 7.840803141078171723e-02 8.661761494268466199e-02 5.195500923585372188e-02 5.637459886536254350e-02 9.818549899183316720e-02 -9.929750231251867343e-02 2.915479228335067161e-02 1.958586283201689190e-02 -5.706214058855549331e-02 3.615088245017231833e-02 5.023213919283728984e-02 -8.949749967177975107e-02 7.407129537766632410e-02 6.748862227146097681e-02 6.064013133190989530e-03 -4.676804227416232751e-02 9.312167914772495614e-02 6.600553699862084234e-02 3.193411358146556328e-02 2.096643077499416724e-02 -3.632460289272198758e-03 -9.021415135833707466e-02 -5.882555286125310326e-03 -7.314852363805331159e-02 -7.138281676636155926e-02 8.033381528097897906e-02 -7.963002211553049658e-03 -3.041942474683544118e-02 -4.984733301763322189e-02 -1.416882519751200276e-01 -5.268383126250220962e-03 -2.711081994851700233e-02 -1.033846756096215569e-01 -7.776491519659499418e-02 -4.528698032508041670e-03 -9.094779272268053993e-02 -3.573479055115053732e-02 1.041753420123753618e-02 -5.688492756491193153e-02 -5.907194460382408224e-02 2.249726831107664443e-02 -1.134103551238347003e-02 -7.492738867864114083e-02 -5.231692848159683051e-02 7.418189127315376330e-02 -4.903702277984289815e-02 -5.978423031013659072e-02 -1.075920224317847562e-01 -1.452789071756665877e-02 -3.931421606066189123e-02 6.678417106627722137e-03 -4.621012495731643965e-02 -9.437837281552877156e-02 -8.235768690453804455e-03 -4.331671821771391345e-02 -2.254817148804965851e-03 1.009166057220660523e-01 2.441852725744219493e-02 1.384801588829424335e-01 1.273555225367123574e-02 9.714611611226160737e-02 1.902025468769263095e-01 1.016907613610948946e-01
-6.498517067451939355e-02 4.004733765416583491e-02 6.488634928247763445e-02 -2.951699643414675694e-02 -7.622118064589712694e-03 -3.277594924000403094e-03 -1.221725217480547770e-01 -2.072283857493760137e-02 -3.419409818036355658e-03 -1.691255626168628456e-01 -6.469074243875806707e-02 -6.652546275515169860e-02 -4.664440437946720808e-02 3.274914109251435279e-02 -2.934785926503435255e-02 6.278433119332566328e-03 -4.132263016435981651e-02 -2.114937021099626974e-02 -2.844328570888321819e-02 -8.625397908858621621e-02 1.720194221198870221e-02 -1.260213547658919908e-01 -1.812792709689161133e-02 -9.408995824006111119e-02 -2.169960321881684792e-02 -3.832842285131749654e-02 4.565122229016532751e-02 9.481158955720866977e-02 9.766693332884436585e-02 4.491262860559718656e-02 2.742275866576639534e-02 4.481946429299916990e-02 1.024272737880782130e-01 -9.693557179179648764e-02 -5.651529992673168246e-02 1.062443940846002910e-02 5.175660718568246554e-02 -4.600839753797502513e-02 9.101124939230469113e-02 1.874924778057595609e-01 2.472441216950157714e-02 1.097652539505040124e-02 4.003702882256684331e-02 6.114123216860188614e-02 4.441829630568311371e-02 1.034269532665118840e-01 -9.071999887974259436e-02 -3.923311455905294926e-02 -7.298208005439238422e-02 1.160645283384538901e-01 1.291172802828298612e-02 -4.373351104984450621e-02 -1.003975136054194028e-01 5.486313499755392925e-02 7.541610741253591821e-02 9.184701708591819225e-02 5.150412573597601407e-02 -2.000574272268824949e-02 5.678636472553177245e-02 5.608999421587756301e-02 9.835936272815794246e-02 6.543492202234942046e-02 7.575293154946502461e-02 6.468698511960611908e-02 5.383549110928913944e-02 5.070704204346698080e-02 3.358275437845154726e-02 1.065728713452997051e-01 9.014996419808811445e-02 -3.755166830537684519e-02 5.694264052241868740e-02 -7.060667402537186554e-02 9.594356093245315353e-02 8.949035886485076641e-02 9.800269874387132485e-02 -9.068176771976609041e-02 -2.752845178635270409e-02 -9.950317094159373543e-02 -1.053557027452646164e-02 7.658797217974978866e-02 2.277273848715840113e-02 -1.291066781904745553e-01 -1.113848555799217266e-01 1.120197764228472465e-03 4.900560987206075553e-03 -4.324238896045902447e-02 -3.317782520433443239e-02 4.556074521836585983e-02 1.270416097346019069e-01 1.915216152751823483e-02 6.604621129209997665e-02 3.260072727560180822e-02 1.038530729276946341e-01 -5.117868057690341810e-02 5.804806602076715769e-03 -1.465955989404130744e-01 -1.137413213745569612e-01 -7.204359593795096883e-02 -1.043861371795866688e-01 -9.845081407037632737e-02 -6.565714761042647230e-02 -1.612748912224902867e-02 7.861053458393847670e-02 6.656014088161084363e-02 -5.459867766619035806e-03 -8.690151013899365118e-02 -6.823649916238461177e-02 -6.491903639877183441e-02 1.845273368850195578e-02 -1.257033981764407726e-01 -7.608100819775541479e-02 3.124514108844912361e-02 4.351365364097511089e-03 6.191457924161017368e-02 -4.156995884248165796e-02 1.885187991736130692e-02 -1.046838532242988229e-01 6.257996491877132819e-03 -8.038815698244337893e-02 -1.029182546258810699e-01 -1.158970683828335901e-01 -1.138082080338195523e-01 -9.799296332406703947e-02 -2.217775273467836178e-02 9.391205456311896294e-02 8.761037637230070785e-02 -5.296294193088837282e-02 1.984234937803858526e-03 3.496741166481757285e-02 1.888864423910674439e-02 9.348192382877848483e-02 7.138440728188324980e-02 7.400533952573855323e-02 -1.777306539013441891e-02 9.276894520086605145e-02 -7.507021968910941589e-02 -2.392882884901945811e-02 -6.327157061804213056e-02 -2.952007422313454241e-02 2.562135158772856428e-02 7.756692458641939458e-02 7.192000454329337822e-02 5.264798645412933908e-02 1.671410242818663627e-01 -2.498104485995637780e-02 -8.277722619869141985e-02 -3.499706220261877138e-02 1.278372871111568831e-02 -6.073219311625661226e-02 -5.482682921445971441e-02 -3.532153795652222955e-02 -6.988277686716987125e-02 1.369627764794105647e-02 -7.071969479828682514e-02 2.264248297736949286e-02 -9.912753452012269817e-02 5.435063296755622206e-03 -4.793673715831196086e-02 1.059253433538802219e-01 -1.678625993150418827e-01 -1.601910909323036869e-01 -8.794502447618393615e-02 -4.613684593775998349e-02 5.382236831102121810e-02 1.022544577355344458e-01 1.113426900556173209e-02 -6.336922766219318069e-03 1.195908432022814438e-01 -1.014058865236921580e-03 -6.389655579831918231e-02 -6.882450724219878191e-02 -1.253323986511871088e-02 2.626338000298609685e-02 -3.178138077206047601e-02 -1.428125701131964242e-01 1.037040849781372676e-01 3.640525849667260866e-02 -9.662460186240726112e-02 -3.173515560658607404e-02 2.220263591491188071e-02 -4.842785088486713241e-02 -4.226333439809829007e-02 -3.692566055733000063e-02 -3.958301605541816870e-02 -7.132806910875472139e-02 -6.488946909315748690e-02 -2.230488708832373268e-02 -7.556106185299700517e-02 -2.892341028643099707e-02 -5.716447348393467742e-02 -1.040416322506864250e-01 9.326459059000793972e-02
1.167276116502946257e-02 -8.433823494576199453e-02 -1.089607351068572622e-01 1.446160810559071752e-01 8.525812166700821870e-02 6.970305112087836485e-02 8.942110440787111314e-02 9.477599425932142774e-02 -8.241901218685036834e-02 -4.882825725016477075e-02 -1.167795908905856425e-02 2.275928242597882734e-03 1.104251854777475901e-02 -5.723192241837963407e-02 1.016623132496411591e-01 1.419340922631749831e-02 5.502982279522044412e-02 6.047400720553831183e-02 -1.055679197534149238e-01 -1.292111155654723786e-01 -1.484908053077347093e-02 -6.156142180634227579e-02 -4.635604193373097509e-02 -2.277733718253179343e-02 2.027407387183433052e-02 -6.284386076911373416e-03 -1.062953852245087094e-01 2.703174395590918211e-02 1.314981283613553265e-01 6.883175004156372179e-02 1.609108895504634748e-02 9.085232604304208093e-02 2.420064127687029595e-02 -7.355224230878759650e-02 1.518905990116320610e-02 4.576986992796695103e-02 1.101268377554533023e-01 -5.150461602805574829e-03 -4.822011187155746809e-02 9.070334274343094805e-02 -1.906970401132789114e-03 9.514252235149503467e-02 -7.432093526409089788e-03 -5.955216903797692918e-02 8.581866094050979998e-02 -8.620959032343252296e-03 -7.467829706887414709e-02 4.553906131297798948e-02 -1.234608333913911477e-01 2.757420348791107811e-02 -1.277311856436472715e-01 -2.192810942196219554e-02 7.513815036205673259e-02 -7.714067546203262626e-02 -8.535839540512621393e-02 1.043434082424160407e-02 -2.227808381984292332e-02 -4.063373606686480205e-02 2.599457745966029035e-02 -9.080083486305504104e-02 4.297583567230649389e-03 8.413679872363671874e-02 1.040133807679082256e-01 4.424947766117770520e-02 8.298942854858491758e-02 -2.597912163816332165e-02 4.720056347463384011e-02 -3.254130441570833587e-02 -3.482566506569039627e-02 -1.692845264810929340e-01 -1.804149600452577273e-02 1.649597559199583729e-02 -1.428873875507732649e-01 -6.557980513157167513e-02 -2.206146489764112401e-02 -5.741098533443612234e-03 2.121191153484448116e-02 1.148563745645696382e-01 4.018421929633220896e-02 8.790998573427176443e-02 -5.675040232097321863e-02 -9.842178765521690520e-02 -7.518524852029462302e-02 -1.102862222517170115e-01 -1.637234121176994739e-02 1.184661534985468473e-01 -2.665595073628474268e-02 1.178855290667791267e-01 1.146281056938212306e-01 -8.125080215933659644e-03 -8.681959460200523032e-03 -9.925135244100561673e-04 1.408203204923493337e-02 -9.221425255672902055e-02 -1.324633033040868157e-01 -2.795501138238094124e-02 -3.654177116945117598e-02 -9.250516468049448104e-02 1.041297515774159826e-01 5.169784575159866447e-02 2.966449797359611840e-02 4.341383636343826291e-02 -1.213040836667632072e-01 -1.163488543672166892e-01 -8.909341306043039310e-02 -3.428866569536376252e-02 -1.042043127017772304e-02 -6.197513680677084469e-02 3.244678318686770174e-02 2.405742773389870498e-02 4.561615561476110858e-02 4.072020014533853094e-02 1.193316192186935076e-01 1.101176218935456946e-01 3.555969464527073548e-02 6.078949361827747783e-02 1.812961515996424078e-01 -6.517581511916174797e-02 -8.389552476777025619e-03 -3.810827837192962142e-02 -3.028734875322533840e-02 -2.119635630013804242e-02 -1.030300051660738569e-01 2.585690785564786695e-02 -1.983430116965307494e-02 -1.897890254288253382e-03 -4.266422053200046027e-02 -8.644959564877144342e-02 7.714216161832129770e-02 2.035514410953931028e-02 -1.983520181802032184e-02 3.303853358833155202e-02 -1.129825247838398689e-01 7.845601504495381892e-03 -1.242854691102438514e-01 -1.079724649257179274e-03 -1.080319450664606606e-01 6.152578944834952851e-02 3.368446008331480584e-02 7.390151578589435229e-03 6.811116197631252034e-02 2.726314426620284059e-02 9.742968579119014316e-02 -1.014695148350370016e-02 8.355826729116029583e-02 1.440335399980828893e-02 2.330767209528848000e-02 3.670735913031042408e-02 4.151215204841562749e-03 1.320055792756950896e-01 -1.967147511366078641e-02 -7.571118358884390553e-02 5.677667198711096319e-02 8.985866573074494448e-03 -5.453699625271771906e-02 -8.914172028501161915e-02 -7.752013477107831674e-02 -9.261322731557670995e-02 -4.465187129383636766e-02 5.929709213525524020e-02 -7.049300899938699960e-02 -2.086449116722187760e-02 4.297930223422086887e-02 -1.006619720897516113e-01 -7.463361279912235705e-03 1.204203121065940477e-02 -4.062004178786367964e-02 -1.629043643987912182e-01 -2.706127349307176511e-03 -5.982968863831988546e-03 -9.450298548563945689e-02 9.356832195410094699e-02 -6.119065101684804595e-03 5.149036535854314978e-03 7.752559699077353483e-02 -1.144724952453781697e-01 -1.084541751431042367e-01 5.375174624316700345e-02 -9.857715224428785505e-02 7.501536928503776958e-03 6.642460839578910592e-02 1.269144124336386674e-02 1.441704711328171684e-01 1.023322202205637493e-01 1.281660127937437610e-01 1.574076307593750834e-01 3.468328467376528834e-02 -4.986337309390348471e-02 -2.308429663677188937e-02 -5.792577013798894808e-02 1.791400055814765593e-02 -2.178893157833680649e-02
1.447315432419674737e-03 8.919879998554437403e-03 -2.249852211582236555e-02 -9.186219053971857174e-02 3.303735176050201505e-02 -3.997566684593546922e-03 -1.055294522163613274e-01 -1.801495316911345262e-02 -4.767766336126998822e-02 -1.684496715898184116e-01 9.807386953927335616e-02 -1.367919030828351756e-01 -1.192868892190982327e-01 4.915327138984534883e-02 -1.060513936194208418e-01 5.997781148066903822e-02 4.210842013617589058e-02 -4.986508877842083659e-02 1.157223333321803355e-01 1.561022004555262521e-01 3.659746715051781507e-02 9.770767103987089419e-02 1.793410541417269910e-01 3.865077478355552487e-02 -5.610139522419024111e-02 8.456457946959829164e-02 5.843398936478495093e-02 -2.086911984575048895e-02 1.328776212132128653e-01 7.953817205015484282e-02 -2.697735396417389603e-02 5.806033910122419817e-02 -5.954887464211788134e-02 -5.912637057682649556e-03 2.438274516091393576e-02 -2.705885534114774865e-02 -3.868164681739360428e-02 5.903198722789088776e-02 1.023330585473467523e-02 8.631584738336595120e-02 4.279570502252788566e-02 -4.994045215286509881e-02 1.239778880660336313e-01 3.984908746830519849e-02 1.241642794448161446e-01 8.136468266156136886e-02 1.308337034793821858e-02 -8.255677094529706439e-02 3.616134005413568220e-02 2.733689820286585095e-02 -4.374671411113606467e-02 -7.044939052430496118e-02 -1.621579916689137868e-02 -2.584165800400586768e-03 -5.233533163076296672e-03 6.377197838807693864e-02 -5.520136048091418834e-02 -2.607454128441494615e-02 4.894033060218958009e-02 3.834391251025658087e-02 7.385588070870242883e-02 -4.659782703956425604e-02 7.689725527981219888e-02 3.733780854313013126e-02 1.288389064010296015e-01 5.619389447208707894e-02 8.707510740069592317e-03 6.815533247098272407e-02 -8.365973256267464353e-02 -1.171036262721288218e-01 -3.260991161135100985e-02 -6.041451060130539896e-02 -2.664319471530546615e-02 1.037549907653568526e-01 2.060412224934650427e-02 9.224448346476353533e-02 8.368930809816951810e-02 3.831905916080035474e-02 -7.350680558404933118e-02 -3.495619410382162784e-02 7.177312283830054873e-02 4.235616671334475197e-02 -3.408850338371405969e-02 5.340103540501683205e-02 9.072119842098740061e-02 -2.300918170657070827e-03 9.360677682196386074e-02 1.368696290700293500e-02 4.672807420371995896e-02 1.745802085990846853e-02 -1.051761594989893654e-02 -1.560196524198848578e-01 -9.340263827153826026e-02 3.179837075670056967e-02 -6.109307911977256145e-02 -8.089706240340938104e-02 5.691240687190285419e-02 1.918984058916859206e-02 9.589742362085978966e-02 -2.930750711894596072e-02 8.705556427558557020e-02 5.604667247531929658e-02 -7.048336233831611897e-02 -7.928499412580183869e-02 -7.395425096046920332e-02 5.621319393692796040e-02 -1.160595444669798026e-01 -2.064065369697870318e-03 -4.423068843605870021e-02 -4.381910410011792545e-02 6.152686784730282410e-02 4.866667549582164368e-03 -1.724240276883588427e-02 -5.200796733759302515e-02 -7.801826826616053978e-02 1.637763315134120948e-02 -5.233439517613799885e-02 1.765765858989512896e-02 4.442359920705939158e-02 7.423058074691601949e-02 1.217812438978177619e-01 5.577235654654661562e-02 4.301572714486753130e-02 -9.534636988379679989e-02 2.822966457098984028e-02 -1.046593833215538625e-03 -1.325257055740673151e-01 -7.109065571777388459e-02 2.546450416755705395e-02 -1.477699928352273484e-01 -9.399245961593732934e-02 -9.328580381342720107e-02 -2.917538379074492011e-02 -6.641006337081910293e-02 5.475363865438694078e-02 -1.696627501736676716e-02 -2.546468911479701780e-02 -1.221289254028749688e-01 6.794321525588542521e-02 3.475484388354635468e-02 7.614147048136414575e-02 5.881798761498194250e-02 3.139538492994711771e-02 3.376450804720813187e-02 -2.750794566885697914e-02 2.664609067291994621e-02 1.181468367194885710e-01 -8.149385650885658527e-02 7.916561367423854273e-03 -4.767142051091768223e-02 -1.310609034471605094e-01 -2.190841978757387606e-02 -4.988052598629981460e-02 -1.821990486869449755e-01 -5.897815493614315396e-02 -1.375252769088508298e-01 -7.715493084084174003e-02 3.937480915974344436e-02 3.275379331560545476e-02 1.332716677557473084e-01 9.387837194399689666e-02 4.047581951846457304e-02 3.114091399611901290e-02 5.807840495612259096e-02 6.140227470468487964e-02 2.323803901095843408e-02 1.039639071918544849e-01 -8.502040863931711878e-02 7.990774654543049416e-02 1.007049737880091195e-01 -6.086128983071645987e-02 5.147114145619881981e-02 8.296513064318929154e-02 7.631987868746781256e-02 -8.615584128986530921e-02 8.627075001020997891e-02 7.733704302875415992e-02 -3.641444143456611798e-02 4.150348208587938820e-02 3.480309999107598223e-02 8.788254918135653126e-02 6.797873842583299075e-02 6.341853584032453202e-03 3.344061394890619765e-02 6.320034255771971032e-02 1.046509046454694170e-01 -2.625720549238350424e-02 -5.792211700639269406e-02 8.517301371864276216e-02 -3.167270311104478098e-02 -9.125083145994267175e-02 5.219034989592734319e-02
6.256481043246065951e-03 -5.945935317572387940e-02 1.509420017966958856e-02 -8.421521503193713648e-03 -7.378169234212167416e-02 -1.104682438337390576e-02 8.687520088278638530e-02 1.498809426197360642e-02 1.193972876786134202e-01 7.674997135349125033e-02 5.489111715435209676e-02 -8.007944596446291141e-03 -1.312628809923080397e-01 -1.734015526266817486e-02 9.974104127440862333e-02 -6.539386175379155453e-02 -9.223002030930156636e-02 1.082021726085476143e-01 -5.442851468210977567e-02 1.729749870207917400e-02 2.087872940540860811e-02 -8.989831923233039535e-02 -1.065015635877818861e-01 1.249795962087491691e-01 5.363235676782172195e-02 2.194573193300661945e-02 -6.644792509059552210e-02 4.528338274794940083e-02 -1.025470950256196639e-01 -1.057040009957411764e-01 5.802513516385523346e-02 1.655497764106475186e-02 -1.130500601004101185e-01 -6.535882383438997023e-02 2.824176362665151152e-02 5.864645500328753008e-02 -9.319864143955233771e-02 7.408991825420332966e-02 6.405265912699005526e-02 -5.751370111297182848e-03 5.047852300946724380e-03 1.025867187226857102e-01 -1.303038732375086661e-01 6.388583559575110316e-02 5.192368030101356113e-02 -9.504782830090457990e-02 2.651822007785407248e-02 -2.991294619042064815e-03 -6.806881624820176890e-02 7.994716974865977155e-02 3.662018859474702737e-02 1.275536562842472244e-01 2.300023554546012927e-02 -5.140439479362630959e-02 -1.747723444260254264e-02 6.254600368087818822e-03 -5.726884294352111576e-02 1.022830169908700154e-01 2.602701989301255472e-02 1.116322491128779043e-01 -1.989471718204401107e-02 4.773003318072942258e-02 6.465194063259548096e-02 4.711955229033748006e-03 -7.831550696412808987e-02 9.559223092441339331e-02 -8.579345845214991773e-02 3.637876399855537179e-02 4.457867701981870628e-02 5.181426539333962300e-03 5.245516434121631072e-02 1.180345001119968013e-01 -3.433558781670598831e-02 1.424895853419916834e-02 -8.791437733155575696e-02 7.335597147147625285e-02 7.850806570980069232e-02 -9.483632658495066980e-02 -2.742904150646489209e-02 -5.539367850443644228e-03 -2.169407251039720888e-02 5.532981712598139534e-02 4.374723809141813080e-02 5.722145198792475546e-02 5.862716118429962125e-02 -3.729187032276344571e-02 1.582685464018241117e-01 -9.634539892851988474e-02 2.627398841916173469e-02 1.425322928080594576e-01 -8.709216196829873413e-02 -1.507224123907198779e-04 -6.787513138280921662e-03 -7.022532163140680905e-02 5.306022589879674789e-02 1.761269844903368964e-01 -7.098355595839951626e-02 -1.367298824199125185e-01 5.012019743233729271e-03 -8.606453591587025220e-02 -3.381819253397122180e-03 1.272089939313453440e-02 -1.019507785598601224e-01 8.455401970794965139e-02 -3.083225092599326325e-02 -7.195200326712242189e-02 -1.568758938266228420e-01 -2.942619172265053748e-02 1.578877622856145191e-02 1.743827712000158361e-02 6.896036015716218437e-02 -5.747363267555410937e-02 1.688538914956754953e-03 1.086741489497211888e-01 -7.748253743724865805e-02 6.911842102476671579e-02 -7.595192308008236193e-02 -2.260149786930221519e-02 6.933220904994688571e-02 1.101166793888892076e-01 1.190246991064485005e-02 6.111929415327234383e-02 1.684970043248177063e-01 1.887864617157860789e-02 -1.441631842189967094e-01 -6.467411727867658500e-02 -6.796845345136883626e-03 -7.474503575215581119e-02 2.417305646610687711e-02 6.860921634527969437e-02 3.377110149787469068e-02 4.836055471046260545e-02 -8.871721287575753956e-02 3.653653416800792947e-02 3.384966482286571460e-03 -7.027615188462442430e-02 -8.668100956656366041e-02 -3.909201603786317814e-02 -8.926783387792509850e-02 1.970309235246189145e-02 5.115674603194335368e-02 -9.629476117721841311e-02 8.140050165068582477e-02 1.031098521090109965e-01 -3.323256182618117369e-03 7.241182446068968048e-02 1.466509658258535465e-01 -6.196843925327863434e-03 -1.023575764487651280e-01 1.819167254123583641e-02 5.824508088148507706e-02 -5.811086903585305219e-02 5.774823739577338716e-03 6.422660510985757354e-02 8.883661563345159745e-03 2.631947267058376561e-02 -1.287682555049769195e-01 1.042715872031143853e-01 -5.353474595693430427e-02 -4.099483580451362269e-02 -2.395292407169220469e-02 2.723838983569646516e-02 -1.025176291698171455e-01 4.395493148218885399e-02 1.245578602600615481e-01 -5.076481828474204566e-02 1.292586080177214602e-01 9.764953262836156833e-02 5.359940609407726902e-02 3.038334369480970992e-02 -7.206546482952896904e-02 2.069745045600587807e-02 2.466838556975851568e-02 -1.488633458222611734e-02 -6.073589540872419840e-02 -3.038412946249404237e-02 -6.819773946293990197e-02 3.215954527294508092e-02 5.318181441674364740e-02 -6.990825328919166026e-02 -4.084024382606782355e-02 1.122302778957644798e-01 -8.965520573124298453e-02 -3.072056859630182060e-02 1.118444373194934088e-01 5.265989250433852215e-02 -9.872722273720938024e-02 3.113322485760119593e-02 -5.631136136971739287e-02 -4.956651782592613742e-02 -5.565418798102463732e-02 5.039245816825704827e-02
-2.089214750735427645e-03 3.467644870662951045e-02 8.422354377139502912e-02 -6.567454847079001734e-02 3.516496659490832288e-02 7.902698451050119144e-02 2.906473368033855864e-02 8.752583092130183928e-02 1.037227600424042544e-02 4.877451795096335307e-02 -5.700620390023256739e-02 -3.203263984898277461e-02 -6.121713550264084452e-02 3.012814645397865129e-02 7.127234715884622762e-02 -7.188325267983992906e-02 3.862405546536750583e-02 6.346048572088069939e-02 -6.272639533581980675e-02 -1.202481698078231714e-01 3.378834016512674565e-02 8.366962821862725108e-02 -1.254213193968615747e-01 -7.151746329276360836e-02 -6.789104409224909487e-02 5.519763475499488148e-02 -6.649156394690199090e-02 -2.698385037123351982e-02 1.545308292994137522e-01 -2.790004297959636573e-02 -1.152918118262883929e-01 4.874737143926720882e-03 7.360931582660357186e-02 5.135112498847396387e-03 -4.609172107928948686e-02 1.233908701990714119e-01 -1.700935281758448464e-02 -7.197477782127240098e-02 -9.941091962661900705e-03 -1.285396396596794333e-01 1.940299358223166945e-02 -9.520370760627032414e-02 8.127311483713509088e-02 -4.875765109061145491e-02 -3.072415633362098747e-02 -8.435603881177337893e-02 -7.766980290048274005e-02 -4.538461542251267470e-04 -5.916918499051215807e-02 9.083714519496050022e-02 -1.008224191860702390e-01 5.086085924160174687e-02 8.421162909401329333e-02 -4.286614993435460680e-02 -2.557526858270885509e-02 5.704668909736004823e-03 3.057098587441542739e-02 -1.755929771246743376e-02 1.749338703701380435e-02 1.169234522941952348e-01 -1.151594753804113108e-01 -8.336876522667259481e-02 -6.778858130755537059e-02 -4.729163338200843142e-02 -7.923705647067273705e-02 -1.140353915639915131e-02 3.058515186019271012e-02 1.082091907032266542e-01 9.959569848276399184e-02 6.380649950430884731e-02 4.669402866527429252e-02 4.611728203581946794e-02 3.240463247126678520e-02 -8.340922618747471928e-02 -2.346186357086225624e-02 -3.618392420663186365e-02 4.032087215947972869e-02 1.250276084933545917e-01 5.560582212861386875e-02 1.105750183885650245e-01 -1.704799684239081264e-02 3.846814574790156233e-02 -7.009755614986125372e-02 5.969433408857552359e-02 -4.220491264728433445e-02 1.212424922354807255e-01 7.894728137869036488e-02 -1.021933978579771529e-01 3.472493604312715948e-02 4.102698312401256708e-02 1.318133712148613357e-01 1.233199485435738235e-02 1.201561015644705549e-01 2.812222171362288234e-02 -8.504405988465175981e-02 1.268618080547525007e-01 4.037639935674828401e-02 1.081942890221155584e-01 1.312783171460707166e-01 1.111542361454122795e-02 9.369209942036679784e-02 1.139290274213970028e-02 -3.994583931706006952e-02 1.114465361064327338e-03 1.192063003534489379e-01 -3.797949622186855972e-02 2.222710349378536829e-02 6.729857113790607692e-02 -1.051313822897793071e-01 1.207061233196856098e-01 1.081496932371948244e-01 -9.648350150086162924e-02 -5.944319051689261890e-02 -2.910291545431452007e-02 -1.270921032729482036e-01 -3.790933797517859194e-02 3.666486160910269188e-02 -5.352955113801106946e-02 -5.332655036724376352e-02 5.064272366538934839e-02 -6.717351236989134444e-02 4.578661084348354532e-02 -8.891230671485161885e-02 -4.162452135846539392e-02 6.963327635903876489e-02 -1.620121676527774487e-02 -1.142564449489180678e-01 -9.107953269936208684e-02 9.631680509147284852e-02 -5.986887274646983392e-02 -2.802274380471382262e-02 -9.874025563674380945e-02 -5.865953179132230022e-03 -3.211025244720833866e-02 6.723066303460278892e-02 -8.739804468596545917e-02 -8.142443948779252982e-02 3.884781955456434455e-02 3.537225272862896258e-02 -1.190696620049031679e-01 -8.049925913156330548e-02 -2.921446718153116948e-02 3.810408068435460621e-02 -6.213862474510353784e-02 -1.128690343176586425e-01 2.980577686575405089e-02 3.302875275974095914e-02 -1.121093458004128046e-01 1.078851492151256530e-01 -3.425597064680047793e-02 -1.331561146398090034e-01 3.987937797817744240e-02 6.829445426760144544e-02 -5.310491232728478499e-03 1.219324555402992970e-02 3.415702744410074182e-02 2.830923812599668923e-02 -7.123384883212857677e-02 8.758856105066570308e-02 -5.656198700131822438e-02 -1.410676100141409085e-03 -1.458186364164904165e-03 9.753259968881787534e-02 3.014883721493967755e-03 5.530817293430836945e-02 7.388727456745251831e-02 9.354046098581204893e-02 -6.793209007937217603e-02 -1.238627858361980721e-01 -4.350142125036614987e-02 4.956103426174827270e-02 -1.301986839653839489e-01 5.577793362092102469e-02 -1.174155807639341992e-01 -9.852718203043833722e-02 -3.302326081475674691e-02 -6.268193524339550626e-02 -1.290230825360109412e-01 7.329828722507673866e-02 -3.499100553801194613e-02 -1.056880673640964302e-01 -9.402323624699579149e-03 -5.392381794707252346e-02 4.212450285110775489e-02 4.869158289866676315e-02 -4.059153734498851390e-02 4.477256282320191821e-02 1.005044341569216321e-01 4.737750851733376484e-02 3.178723752592121227e-02 1.083138735615079007e-01 -4.816362012027702172e-02
-1.794623254927364686e-02 1.370703286026870790e-02 -1.540599437010263806e-01 -3.269217222172076526e-02 -3.304304969352371557e-02 -9.881317546756110404e-02 5.716850725676693445e-02 3.143074954863472187e-02 -2.298506134070772353e-02 3.562962324891267348e-03 1.340365370098195452e-02 1.080572257030906619e-01 -4.025463465987277889e-02 7.109394183110253305e-03 -1.056273220558542284e-03 7.317965913150020763e-02 -9.730464985940716349e-02 -3.756197713291231643e-02 1.097676647951644630e-01 -6.083711255196434624e-03 2.809603113166161611e-02 1.182127627179094531e-01 -6.277138797188873756e-03 1.093920370309655193e-01 -3.139796283462904011e-03 -3.066747981440482926e-02 -5.284853836121629345e-02 -1.311924998913031534e-02 -8.383637300729407382e-02 -3.065629243949641314e-02 -9.769459618643956678e-02 -3.276653468775522771e-02 -9.289623588235626506e-02 -5.273816182592066387e-02 1.059256073948286643e-02 -3.218137439835207225e-02 1.543826110670988572e-02 9.720270278745949538e-03 -4.427268685095560319e-02 -1.426551841235710882e-01 -2.074901426862715142e-02 3.476074811880810328e-02 5.789536347074644707e-02 -7.595005556565335991e-02 4.374698355602801847e-02 1.013276959392238746e-01 -6.705107136717004812e-02 -3.890327712286146405e-02 1.364967636527796846e-01 1.146575829490684428e-01 7.528065040634319971e-02 -2.332397967402377245e-02 7.060333728143990129e-02 5.813509903323840072e-02 -8.673138942760687253e-02 -1.530409443111684364e-01 -1.493665307340649381e-02 5.553219067461871022e-02 7.102460253134576518e-02 -3.775904042304516206e-02 8.781196776188535114e-02 1.916277916386107880e-02 4.737878328362017666e-02 6.615746680289670556e-02 -3.064129340187951231e-02 5.046515490529686343e-02 7.419891623882536591e-02 4.700544474671617540e-02 1.337313580643992826e-02 1.223255357742218941e-01 7.223453285221928533e-02 9.966360683578595614e-02 6.597369672855830924e-02 -3.779174909554788853e-02 -2.539151559890044998e-02 -3.610314457053046683e-02 8.082021525605700973e-02 -7.079345893298209791e-02 4.262221580158235407e-02 7.656649160216374983e-02 -1.105438428854683616e-02 6.379374058365765154e-02 1.767408151881983205e-02 -6.300335873662710195e-02 -7.436458633343125124e-02 -4.996077511527824248e-03 -1.145842150103250912e-01 7.152251034085338466e-02 1.202205249927019576e-01 5.474908478753390956e-02 -1.282854899525647518e-01 2.380061520025350541e-02 3.048334500784070575e-02 -2.937764064435326866e-02 3.223528362704847217e-02 -1.049157623245024207e-01 2.297998237991707646e-02 -1.234039052807106573e-01 -1.271785302585098365e-01 -3.904880044757403496e-02 1.069939384267134946e-01 -3.717016555560693353e-02 -4.316723391508142660e-02 -5.931283935523772033e-02 9.048277614422464699e-02 -2.838844696144559449e-02 9.446733411652774581e-02 -1.166652810636663318e-01 -8.410443685279116177e-02 3.285560374989622556e-02 -9.516979711056003377e-02 -1.113340497829673620e-01 -7.781635556383423302e-02 -3.522453039467194486e-02 -3.659170944963142241e-02 -5.520253746645092940e-02 -1.995858388714766632e-02 7.219256574002667903e-02 -6.979684015300585687e-02 -1.295145476453654354e-01 -1.520855344313387647e-02 7.093275631903792067e-02 5.815013578679759793e-02 9.691485465647277364e-02 -9.022102367115977101e-03 8.997037659832764211e-02 6.923144918249919677e-02 -5.110465775528509613e-02 -6.774254550257492735e-02 -7.677296608538453082e-02 -1.120011344925663510e-01 -1.478145975828054903e-01 -9.086670659202353978e-03 5.164840555094744878e-02 4.571523604564025484e-02 -3.793862117723149213e-02 7.215446717880717731e-02 1.050291541398328948e-01 -8.947722766222376833e-02 4.025300588964327020e-02 -4.266675861342802273e-02 1.726293811171274867e-02 -3.711563853376825123e-02 5.869845675488743336e-02 1.014012639872167304e-01 6.029533434050955015e-02 -7.789072570529598227e-02 -7.397462232407933658e-03 -2.433376806735042166e-03 1.232627064766798758e-01 -2.655126719026487930e-03 -2.327800534101361757e-02 2.640837596301998103e-02 -1.185906497545038962e-01 -9.241793139506923604e-02 -1.988926139798059822e-02 -1.743667848011013280e-02 -1.081955395600739996e-03 -6.815596939078125138e-02 2.310890598462793724e-02 -8.439663653709088623e-03 4.378851967906521175e-02 2.360520015093472979e-02 5.281323581541803175e-02 -2.510437976120816206e-02 3.950817236141738326e-02 4.493002520115536857e-03 -1.364269957416215373e-01 -8.109250007664511872e-02 3.756545481272449433e-03 -1.977956319288176890e-01 -4.504857877934705102e-02 -6.013645532430616711e-03 -9.960492872194591507e-02 -2.830377025723741086e-02 -7.613631842418541740e-02 -6.288683610920511868e-02 -1.285707368992315136e-01 -1.021643834751632535e-01 -8.968890071400992259e-02 -1.670403024487375487e-01 -1.240639757484379574e-01 -7.813338413645337655e-02 -8.603689088438010169e-02 7.400475009562210507e-03 6.856324408300567413e-04 4.338266100074688464e-02 1.860554073811524281e-02 -7.515564835231244856e-02 -2.639585026428058201e-02 -3.052965800569711410e-02 -1.512734993787060722e-01
-6.043587191144898785e-02 -2.263537726168437722e-02 -2.069122917910218328e-04 -1.131910366737840373e-01 9.176837439215339287e-02 -4.434172890271263767e-02 -1.353000815853127037e-01 -6.048391932141982535e-02 -1.134742331318086550e-01 1.828984493837572736e-02 -3.290198676587829940e-02 2.797504897360535842e-02 4.875083288314321223e-02 -3.375509029181901488e-02 8.878019187628292952e-02 -1.157047833207626442e-01 6.136425349383022726e-02 7.038386128595679192e-02 4.277989747225174194e-02 -3.177889033660497714e-02 -9.453944708551807741e-02 -1.432932972501852198e-01 -1.317257034902985791e-01 1.066335583577765062e-01 -3.592534352336777814e-02 1.466691796515299379e-02 -1.370229364083978829e-02 -1.358997159766920509e-02 -4.083911984173063670e-02 -3.367199038152857149e-02 4.143921333049190719e-02 -1.027824799489738834e-03 -4.942941473880568815e-02 6.260892643945798267e-03 4.655960413045070329e-02 -7.275021888148672233e-02 2.559473453302885809e-02 1.021824917488464539e-02 -1.585720312190635681e-02 4.906928311734345960e-02 -1.195525202258565095e-01 -1.103189654209651149e-01 -1.380261276911439947e-02 4.558288289115829117e-02 -7.468948997095814502e-02 4.167536284336687685e-02 -7.970954857496588553e-02 9.978802236728087638e-02 -4.171076273950785618e-02 -5.479154383598646566e-02 2.502345732545780202e-02 -5.152513433140050447e-02 2.955786163923151619e-02 -2.759564255793786267e-02 2.910446194898838254e-02 -7.077080325201297317e-02 -4.409688613642572669e-02 -3.038529719209487681e-02 -5.015703935004651309e-02 -3.075437663223292220e-02 -3.915907678177196066e-02 2.325569050775577740e-02 -3.084048376381789969e-02 4.875341255041053257e-02 -5.176217870784381725e-02 4.419774709648666838e-02 5.968084824141296763e-02 6.947240475802551884e-02 4.732070029546794898e-02 7.776177973765168762e-03 2.572657298791559966e-02 3.044502666586236528e-02 -5.501195614539967915e-02 -6.299480415329274108e-03 5.011627188736018923e-02 1.338707283768675871e-01 -1.272098514809869296e-01 -1.286014371848341609e-01 -3.504032373972097714e-02 -1.231656928861900617e-03 -5.912636717224904054e-02 -4.271364802863761995e-02 7.310261942846951744e-03 -8.542304737205376475e-02 8.053092590273323859e-02 -4.165626945517204166e-02 6.430520848454443494e-02 6.129176617950470030e-02 9.151524673611249536e-03 1.244134647299321300e-02 -1.405881778321741160e-01 -2.406442074489925642e-02 -7.667107974577568041e-02 -1.355620224383871364e-01 -8.171472711642800701e-02 8.866761448096907583e-03 -3.101214740672080319e-02 -1.227287165816194105e-02 -9.059982092386144326e-02 -3.139280312444747700e-02 -8.530137403235986404e-03 -2.337191776708649055e-02 -4.542279695410379042e-02 9.262621010402505295e-02 -7.687090393485097872e-02 -1.570584688333269419e-01 -5.833875288224119049e-02 -1.276116785277833232e-01 -2.453862443226054180e-02 -2.332397007368991471e-02 -1.829231006086532232e-02 1.595117848076685052e-01 -2.381543576835255457e-02 5.361502198315153123e-02 5.342968820756684167e-02 -1.134213474965657248e-01 -1.199440747214743433e-02 5.959934514041893144e-02 7.403311879199496459e-02 2.977193640594070698e-02 6.972729127405194460e-02 1.479682943531802214e-02 -5.886231349243158280e-03 -1.256211142755656596e-01 6.198982586917498039e-02 2.736976320545594227e-02 -9.446970591031250697e-02 -3.796622566457854946e-03 9.796830161056521713e-03 -1.246870532395154690e-01 -8.217979388177919231e-02 -1.086928484849852272e-01 -8.330457435818890144e-02 -5.215018008191959348e-02 -1.580772069417538395e-01 -1.410078137785415568e-02 -8.432966631323713866e-03 3.268459380772730655e-02 8.338545762020381502e-02 -4.201563557486422129e-02 1.472507775533837479e-02 1.074409717606882031e-01 -5.136989651882689634e-02 -2.416309668774619529e-02 -6.626695065797232054e-02 2.557274949366563147e-02 3.211316297149739707e-02 6.674162384281308313e-02 1.084002500355613491e-01 3.741876971686364933e-02 -7.684011588422753371e-03 1.794966030475100144e-02 8.770300550800397277e-02 -6.340603457483055989e-03 -3.569404188693252322e-02 5.850705385512019324e-02 -1.169716498614314648e-01 -1.153162895509954600e-01 -7.686805539432529921e-02 -6.979516002362502747e-02 4.057364622355479761e-02 -7.840705493806514326e-02 -7.943515704615594988e-03 -9.791062247590859302e-02 -8.723243510474947005e-02 1.278594384396499473e-01 2.136174597757515767e-02 -1.166606823717970254e-01 -1.582554967383821010e-01 -1.002939556627803347e-01 1.562988991678818662e-01 -1.063141767994299908e-01 -1.125278608900801558e-01 9.243583403088885542e-02 9.079997089800741217e-02 1.180655202852074342e-01 7.438769949688388283e-02 -5.153081934143378950e-02 7.096937234244725390e-02 6.566275243183229693e-02 -3.040221207065941025e-02 6.248373884984100707e-02 -2.751890631134923035e-02 -7.324950361539719901e-02 -7.135877907473972548e-02 3.737407603125223604e-02 -1.166273901398114377e-01 -5.567350065184911712e-02 -1.473914065355245995e-01 -7.358815710322191839e-02 7.538580413964206250e-02 -4.694447505653227826e-02
5.446735196692791686e-03 -3.224805733028974358e-02 -2.270123425334224024e-02 7.066955372787973866e-02 6.137595954660456099e-02 -4.302754990489435216e-02 -1.001810299448043645e-01 -3.338272281960390220e-02 -2.440919733173045961e-02 -1.563551319590916408e-02 5.093170549926140378e-02 7.471372387326014053e-02 -3.464981896674056844e-02 -1.599175751748025676e-01 -7.786706994948762450e-02 -1.235506912164174159e-01 -1.550122072831548459e-01 -1.688202866176590489e-01 -8.825386075531748559e-03 -1.046836117142284639e-01 -1.692735038027170236e-01 8.735285602041162334e-02 2.205767900187297070e-02 -1.307460089068620546e-01 -8.976069694506232099e-02 -4.103309826945850114e-02 -1.142814503282281735e-01 7.239887530294772389e-02 1.627617486904142652e-01 5.650679054797277251e-02 2.052259954610920895e-02 -1.127797832956939361e-01 -5.309910211725021867e-02 -6.808428520116301119e-02 -1.414337639161372395e-01 -6.636822498994769670e-02 -1.095145212799138318e-01 -8.523956801211667045e-02 -4.511641363558456519e-02 4.522425980067705520e-02 -5.832374397759943624e-02 -8.600623474936744395e-02 -4.903627643249788143e-02 -4.746131800467546374e-02 -4.266374920069247734e-02 4.589923304854258423e-02 2.100399930714405214e-02 -5.764333449810267462e-02 6.712868548638478705e-02 -6.220673609677065258e-02 -2.224240175768312303e-02 9.331144174187351592e-02 6.195946420597795573e-02 4.428949486196218782e-02 -7.420463411080797933e-02 -4.190495309248427891e-02 -1.030732703166168523e-01 -5.085866757347980854e-02 -4.365456479338889612e-02 -8.343883006165438154e-02 6.882304994946887577e-02 4.471611298759076841e-02 6.290632713070169746e-03 1.049723796431474149e-01 8.597772571614555048e-02 1.529955153309644766e-01 1.082421836471660070e-01 -4.825434054939849865e-02 2.001728123332239401e-02 7.638053669208152985e-02 1.008670938553806601e-01 -7.395230774201248802e-02 -5.507154905270436607e-02 6.913370675501473439e-02 -2.299653596977381184e-02 4.590095307178931189e-02 -6.429393039648284569e-02 4.914829615938905855e-02 -5.307921188333680068e-02 2.647534807288398281e-02 7.968985125786967605e-02 -4.029957366866659951e-02 -5.343909549254646958e-03 3.441593122237835561e-02 3.254960839925903626e-02 -5.577804491069404333e-03 1.236628780054509907e-01 -7.235380244834245522e-02 -8.968550008674561203e-02 -5.955741417495956369e-02 8.386729053246355647e-02 -5.405797382676558877e-02 -7.130408084863300300e-02 5.305160097931107405e-02 8.111959910709361232e-02 -4.050177452781154180e-02 -1.061802428832231554e-01 -5.285342690256395609e-02 1.003098488787703899e-03 -1.780520114699619960e-02 -1.358945117457734941e-01 5.012813115523745422e-02 4.336960690376185507e-02 6.689826844534779715e-02 -4.688382944959647997e-02 5.292550034212545329e-02 -1.631779016775611324e-02 -5.813955219522459229e-03 2.991710681674993391e-02 -1.095217837242892511e-01 9.331422972281802619e-02 3.227866686077815461e-02 -5.716159192058816590e-02 -5.550889085603959855e-02 7.503471005803916127e-02 -1.755063071229034238e-02 1.181107167436611614e-02 2.292687255065607027e-02 5.412303667177199157e-02 2.287567301585562499e-02 7.097393601853824174e-02 -4.965823231422902134e-02 -1.006705048848856050e-03 -1.608770751946537515e-05 -6.214798478965326278e-02 -1.043310341616011938e-01 -1.150790178529664115e-01 5.135796946317820744e-02 4.873866614429144678e-02 6.608922468553604657e-02 -4.281020148916701157e-02 8.725665447793204410e-02 -1.152353114613095669e-01 -1.090202711732294379e-03 6.769604031622647455e-02 -9.865640766489022773e-02 -5.890872215755843522e-02 -6.857633257705668395e-02 1.060056190724143893e-01 6.651012439215410466e-02 1.581823104383673351e-01 -1.379883472576813770e-02 -1.883825377764816039e-02 -7.885970575707709762e-03 6.113462456733657208e-02 6.565128762641317395e-02 -2.210769846953174536e-02 5.536200524295508546e-02 8.146238142029989249e-02 -3.895124296900289579e-02 -8.165046935784913557e-03 -9.532872617975036988e-02 6.722952681344292192e-02 -4.416267496664406933e-02 -5.785865378401552905e-02 1.214439665204606646e-02 -1.063897542733253238e-01 -4.989602724866519512e-02 -3.578167954616347929e-02 6.887277419712309334e-02 1.107662656722020224e-02 -1.236627450482245469e-02 3.875680745934709237e-02 -7.330039659712835054e-02 6.737491414994642436e-02 6.922666485309125761e-02 3.055879076791752011e-02 5.202014393325764263e-02 1.138970338550348571e-01 -3.666741002704425323e-02 9.080910553389646978e-02 5.645690043471717628e-03 2.221831376120863427e-02 -6.905778289818341464e-02 -1.380128651296572695e-01 -1.400244944648788847e-01 -5.848882783107577782e-02 5.172042927384097426e-03 -9.715320267143431887e-02 1.480559929301602552e-02 -1.344410815994180955e-02 -1.779475728280194291e-02 -5.242962606693373634e-02 -5.643722432302295672e-02 -5.187487164440124365e-02 7.035977758220227085e-02 3.828254369150999731e-02 3.120881954689208593e-02 1.009487752328513677e-01 1.013267925611688047e-01 -4.408639373755204871e-02 -1.088765308152112032e-01
8.199581422510232587e-02 6.647758106602928707e-02 -6.711244296574345181e-02 -3.205318947471635926e-02 8.952659138773901015e-02 -6.023804148475270237e-02 7.776059601442138203e-02 -9.579898435363691511e-02 -2.098480592159069832e-02 -7.123095862073031137e-02 -1.291062374302774096e-01 -1.556333955769988175e-01 1.071641435929450437e-01 -1.060035643679576867e-01 4.034455997252659604e-02 8.566571019172228296e-02 -4.443035972100976838e-02 1.546209286512022496e-01 -7.935923796302349342e-02 5.545854470286683963e-02 2.262830432022845673e-02 -2.555821450560286437e-02 4.794917704133086489e-02 5.330736160304648530e-02 4.308972688121270184e-02 2.042576057963042813e-02 -2.021101105501575679e-02 -8.134064311721964091e-02 6.676214982664799291e-02 4.367355083374076241e-02 8.912583036456393770e-02 -1.028566851078116934e-01 -1.004560712105756898e-01 1.689910170637395348e-01 3.057947503386425955e-03 4.921490577282592455e-02 6.165186238073133707e-02 3.262879363250738990e-02 3.412446388847773654e-02 8.774509330012275621e-02 -5.533455395994778259e-02 8.821381368614081286e-02 -5.411039141808485914e-02 -7.167662731695755018e-02 7.083125809161536224e-02 -2.008961647617728968e-02 -1.147201005388204798e-01 1.178647229397016688e-02 1.061917724076895733e-02 -1.282688487589995763e-01 1.612325734937627986e-02 -5.176311623754158847e-02 -6.148588518040903200e-02 6.396623284021220324e-03 -1.025815276921129837e-02 8.865435401643431690e-02 4.370548309391496244e-02 1.393784254953277929e-02 2.092321178216806007e-02 9.979590220082176777e-02 1.108799875278928537e-01 8.227027171083356460e-02 5.282237204207511361e-02 5.379788856558023746e-02 -5.716741834777788051e-02 -3.966052483117211286e-02 -2.536055348470856244e-02 7.608497000358660500e-02 3.158282012821686524e-02 -6.002831508022048873e-02 -3.898960236775794730e-02 6.527682153711440727e-02 9.056744547811848220e-03 5.789688204875766131e-02 -1.363939583853981778e-02 -2.146971309258319596e-02 -9.565684507683601401e-02 5.085005170372118577e-02 -8.881663846809770280e-02 7.939513630167078714e-03 2.959773860822802888e-02 -4.153022457676927570e-02 -5.690357469923729150e-02 -8.164521656061388133e-02 -6.150110875593461923e-02 -9.402835869672862557e-02 5.042753076057459455e-02 5.480121220053442432e-02 -1.331281160411482978e-01 -5.667908883306882473e-02 8.711908353605959943e-02 1.854006007780547791e-02 -4.352218019269026017e-02 4.384760984364829278e-02 7.710970046631256732e-04 1.219351647618682893e-01 5.877248850720476897e-02 2.898812231274483682e-03 -5.355648108817896713e-02 -4.311595943933070607e-02 8.207459528786729963e-02 -4.652310443464823669e-02 5.432543477620516842e-02 1.266904072058938346e-01 1.150441326644173175e-03 -2.534124867611738802e-02 6.766648653852926120e-04 -1.662185228298653991e-02 -1.425416626868831332e-02 4.751647690360910614e-02 -8.830694800653850207e-02 7.461457813850978782e-02 -1.420831025748506846e-03 -1.474802060980054397e-01 2.286464735088095113e-02 -3.022109858257457024e-02 2.736198225515697278e-03 2.896071584291721665e-02 6.256630439399661625e-02 -1.782829543368275732e-02 -6.840647493494552561e-03 1.566345575908512922e-01 -6.189147957947263579e-02 1.255771290231866288e-01 1.498462868286233596e-01 1.607873426895903846e-01 -6.865269671128934603e-02 1.394736059065033451e-01 9.314040195498467234e-02 9.077908791695905866e-02 -5.031508805260417883e-02 -4.209836082657561485e-02 -8.752678759508721040e-02 -6.652988717728143542e-02 5.381860753421866678e-02 -3.754524709089296364e-02 -9.539625982106461621e-02 -5.066801534942925317e-02 -3.239702110657832063e-02 7.539017017342017346e-02 2.285570163441467961e-02 -6.035070301002844195e-02 7.563814403509316886e-02 -1.122229540700042938e-01 7.534225357100184095e-02 5.193587661967016128e-02 -1.488592367200570034e-03 -1.025341938374600553e-01 5.009974425509115814e-02 1.464618402675974818e-01 -6.898018017668577917e-02 1.044599605382952184e-01 5.777296771411491449e-02 -3.585584569964787860e-02 -3.471981657679803351e-02 1.253433334964554058e-01 -4.747328063572519956e-03 -5.934426975085009548e-02 -6.780996633768344994e-02 8.581903937979387664e-02 1.140247040312655641e-01 -1.743392844193694668e-02 6.012718480020413231e-02 4.641227625624025355e-02 7.758899671494548511e-02 -4.416021451140541426e-02 6.896967125566506873e-02 4.794482142829708388e-02 4.568458491943037936e-02 3.487641000823431259e-03 -8.710033075584028284e-02 -3.297794437544741830e-02 1.199893203877152453e-02 -1.504711511126440547e-02 -9.140764452258594297e-03 -9.197197648834734562e-02 -7.477818180568120143e-02 -5.141196738635150226e-02 -9.480307916314481553e-02 -1.346262152392594946e-01 -1.461861654773108088e-01 -4.169092459878512985e-02 -2.837492843834051731e-03 -6.972632069467442351e-02 -1.176743147938896783e-02 -3.289837882887168552e-02 4.251740671319045872e-02 -1.106054612446672608e-01 -2.222163844761559579e-02 -6.938694246104214203e-02 -6.944401057816071421e-02 -6.050315980746984873e-02
-2.087948273950964578e-02 6.646624097403552867e-02 -9.253317535700532337e-02 -1.246412776096334461e-02 1.214269492765277791e-01 6.637489130886564670e-02 5.913886540749978141e-04 1.119921071087584680e-01 1.137993538026161461e-02 6.159682632643833505e-02 1.021098406237217898e-01 -3.304768735971738008e-02 1.733566683852068302e-02 -6.362392244085957049e-02 2.004110546931715461e-02 -8.122046278695911614e-02 -9.841155852381347491e-02 -1.695295999176608601e-02 -7.722369525972938575e-02 -1.358681639270072766e-02 4.642898692222015289e-02 5.751198523681132907e-02 3.620661422129984458e-02 8.382317757978934025e-02 9.532391644896395788e-02 3.279336794026075502e-02 -5.101990854191888747e-02 9.219044279366189754e-02 7.926934495234221056e-02 8.309277658237210207e-02 -7.467738123781114505e-03 7.704780075871618672e-02 6.840755600590071872e-02 1.062469648130009436e-01 1.154955960091108985e-01 2.338595069720469932e-02 -3.825681558960706413e-02 -1.283429153128337608e-02 9.968555185433995713e-02 -5.350439386300953615e-02 8.571759316552260421e-02 9.359889004429855497e-02 1.027937181593238380e-01 6.015819658316979429e-02 1.069999304574347915e-01 1.444158697263612789e-01 3.133982346280804465e-02 5.896090775175926585e-02 6.676763658405382440e-02 3.304906103437659642e-02 5.910689029801249189e-02 3.067672997384923717e-02 2.627591326043008518e-02 7.721292686078415346e-02 5.225559607469944939e-02 -6.743029615082744843e-02 8.358718577262043425e-02 -1.008198147859667715e-01 -6.682413355459734805e-02 8.040638258675633990e-03 7.392097685770163129e-02 -3.760145933967375814e-02 -1.047024121277853465e-01 4.024157060356990667e-03 -2.856151827127160342e-02 -3.478232598379984303e-02 -3.914207343827694197e-02 -1.572205284955513829e-02 2.068612355318890251e-03 7.113899723557079446e-02 4.335606235187290658e-02 5.682110878088444950e-02 -1.868663285101349048e-02 -7.392571417346510687e-02 -6.469800747435081045e-02 -6.340600534864278270e-02 -2.775974785322832608e-02 -5.642909653582288410e-02 7.255053301497040030e-02 1.213000158501302689e-01 6.444704733542290509e-02 1.287604386306026305e-01 -5.041955912507255222e-02 8.857074802096605651e-03 -1.350794763987508019e-03 -2.584228674372038292e-02 -5.622136906390651223e-02 7.424519923758617079e-02 5.425982083398692146e-02 6.478185542855953438e-02 1.945229895845695250e-02 2.176647316941618740e-02 -5.050278222903328840e-02 -2.969315116997862936e-02 -3.824733806867335051e-02 -1.515074155223202768e-01 -1.287566051725042016e-01 9.237580135817324845e-02 -4.667345787889297382e-02 -1.263399354466235580e-01 -1.095601668163143638e-01 -1.352220940639162726e-02 3.740252848544476511e-02 3.499353046715190235e-02 3.774955103742432677e-02 -5.722610064063148039e-02 7.729421546309110137e-03 2.062738651763012729e-02 4.854032615200980921e-02 7.256006501660501595e-02 -7.788287316981054587e-02 -5.751497512815337970e-02 1.020345206113244946e-01 -8.275886044969077426e-02 7.232957189742049431e-02 6.882892984407582015e-02 7.916352779696862740e-02 5.658391548934826182e-02 6.688665078225715377e-02 -8.142547604208233425e-02 7.454785273220992936e-02 1.144289491219335347e-01 3.257841010232245815e-02 -8.988814674069602051e-02 -7.243992712656788235e-02 -1.535196465981397348e-02 -7.701343329958433570e-02 -1.211030587952469650e-01 9.473841026901358431e-02 3.276922588317601054e-02 2.212320477600536114e-02 -7.171481768253175348e-02 -3.330973271121526191e-02 -6.751242609839193387e-02 -3.564844549042953115e-02 -1.061629878997574911e-01 2.857844997373714530e-02 7.137806996512341406e-02 -8.650830356699374876e-03 4.202209774781971718e-02 2.780317119541593843e-02 -1.690692330973579405e-01 -3.727221799668978958e-02 -1.163381683400141753e-01 6.865114116012285828e-02 9.714788453976452853e-02 -4.162577281849681038e-02 -5.765765223841323034e-02 -7.294022283893716874e-02 -4.674605406387237483e-02 1.291252589109942728e-01 -6.572347974285515371e-02 -1.982096550261847751e-02 4.493490843808141399e-02 7.864830438195965362e-03 9.761184364923132517e-02 7.132057743465780586e-02 -9.336118890781237856e-02 5.586002993041292927e-03 1.653057020971762658e-02 2.387401511872927484e-02 1.217273237717269793e-02 -1.210876244661580545e-02 1.044611793406138023e-01 1.584031379510648097e-01 -1.292285846978036626e-02 8.187833373117966995e-02 1.283990177179072933e-01 7.877592569333227712e-02 4.649805382795393904e-02 1.333260621487319941e-01 -4.519904334298995713e-02 7.261739704982644872e-02 1.209608737624207342e-01 1.018578226488390526e-01 -3.799979216208168586e-02 1.695584857638680054e-01 1.010694642344983907e-01 7.683850915564297869e-03 6.058966473481074838e-02 -6.275758448724781668e-02 -7.968215530227308607e-02 1.393131217811290935e-02 -1.622615617564439061e-01 6.923505506885223315e-02 5.941639235196340824e-02 -2.838574476934950866e-02 3.486959050068510948e-03 3.971398587714399658e-02 -9.392671804601429586e-02 6.552790715201020112e-03 -3.791700137041995045e-02
-1.944457550546062619e-01 -1.550204036076508751e-01 -8.319534316818294473e-02 -1.949368050636284596e-03 -1.165691486713683889e-01 9.738403036106918487e-02 9.345479317298645977e-03 -6.334611606685849883e-02 -1.392896500874139451e-02 -7.488217223157933242e-03 -2.772724358320106247e-02 9.940484951449606033e-02 3.820951002445582834e-02 2.847494557924824810e-02 -4.467750598124198974e-02 5.427540239038340653e-02 -7.215497148223407042e-02 -2.344628465811911255e-02 -7.043490640429687921e-03 -1.658861865172484018e-01 -1.211936408927482417e-01 -5.334178192669736251e-02 5.061885467935143407e-02 -5.080981373306165533e-02 -5.826158530998327978e-02 3.689090742962758407e-02 1.006852033670635298e-02 7.792065148403573560e-02 -3.046645142554249910e-02 -7.480484471200152252e-02 -9.412538958816038526e-02 6.434755460196869836e-02 6.489769978322956767e-02 2.183892639545804981e-02 1.953573336723945369e-02 -2.693111508678310700e-02 -6.530688493829618635e-02 8.948459796094333785e-02 3.238488678385192943e-02 8.498890031544077683e-02 7.135642986505701113e-02 -1.761266622891034112e-02 -2.666431619544750581e-02 -7.126120913714245608e-02 -1.168126747836459034e-01 -1.068723912124126402e-01 -6.060886453319797029e-02 5.093733362077777771e-02 6.006519333639716990e-02 1.018915469696026338e-01 5.904969299887430356e-02 1.330729870635334877e-01 -4.216922088003242225e-02 -6.013196716774625583e-02 -1.722818170605185020e-03 -1.075454095573765215e-02 2.299288064931147985e-02 5.111889344783084738e-02 4.788274080611596567e-02 -1.125169346188159142e-01 -3.159576911004442334e-03 -4.137195123156157950e-02 -3.360612290948886832e-02 -3.710366712959126123e-02 -7.794665799402687723e-02 1.177363803592226810e-02 -3.028933407191536364e-02 -4.926443180359715845e-02 2.199064381030775561e-02 4.346217565104074088e-02 -5.953521914206041932e-02 2.829744629447349460e-02 -1.649172808730717255e-02 4.113401443152594344e-02 -3.433842389719202193e-02 -6.945304543423896915e-02 1.280368862343949331e-02 9.843713580345902006e-04 1.458320805969226357e-02 -1.377812887801250219e-01 -1.068394385349873826e-01 -6.556808862942853366e-02 1.225999158573321673e-01 9.673330074776308185e-02 1.469704185252330986e-01 1.377097160365603652e-02 1.695183372897104968e-01 3.388297869164191845e-02 -3.771432548429767828e-02 -2.218616672105163876e-02 6.901429870294148103e-03 -6.983186471076689716e-02 5.998829199117564070e-02 4.493964869791645250e-02 7.538651319322323130e-02 -1.586901241565293096e-03 -5.397779024380508495e-02 1.311615193141538460e-01 -6.964471421112324034e-02 9.411684550239489411e-02 -7.033927842742304648e-02 -9.855573557765673343e-03 -2.778793336741583811e-02 6.065122798065521181e-02 1.932098977870204404e-02 1.404245078788181333e-02 1.411215461890139196e-02 1.028961776338802314e-01 3.512053815806999435e-02 3.866227138771530236e-02 1.368786164293593066e-01 9.559569154164815341e-02 8.330501207178224454e-02 -5.865622763322736466e-02 9.086434971210553824e-02 6.084460159421507808e-02 -1.203261414142821686e-02 3.061315614069018420e-02 -2.871993720841891848e-02 -1.012109033146691428e-01 3.601901443674102726e-02 8.452312134895051399e-02 -5.383211873361454930e-02 -1.136806862105993882e-01 5.125758627687217184e-02 -8.115985161635556888e-02 -6.658581410840119785e-02 7.288127655610876499e-02 -1.030199412363310280e-01 -4.002882077624252827e-02 -9.081896960764843096e-02 -2.997332408608032947e-02 -6.353122631074531457e-02 -5.784966672807346187e-03 -2.290720234140566566e-02 5.950816617820346710e-02 9.993406627142800702e-02 -4.506660751030355794e-02 1.007617665587895450e-02 -5.334422257968345765e-02 4.458039402678192625e-02 1.881045758366380397e-02 2.086732344163995043e-02 9.993557237071409860e-02 -6.160361327927008079e-02 1.600192338398098157e-01 -6.772358545876505653e-02 1.212400489519566277e-01 1.116613805264171089e-01 7.506369092983992963e-02 -4.216309582211041906e-02 -5.132359560031711510e-02 -1.064320784716048379e-01 -1.378636973647486830e-01 4.137320304155107931e-02 5.760903403064867884e-04 3.920000858634853369e-02 9.842790937321170552e-02 7.031063264186705741e-02 -3.431844447616502758e-02 7.085577591395365860e-02 8.105428250162009796e-02 -8.329299109811652557e-02 1.062815348165860874e-01 6.968876620248730565e-03 -3.807530142104079834e-02 1.152609234921885863e-02 1.411896592976812081e-01 -7.936337789599725787e-03 2.766840245917489075e-02 2.152520406826854277e-02 -5.588603603741515435e-02 1.137987967635983866e-01 -1.982196088246603038e-03 -1.252181168237798958e-01 -2.233171814771731101e-02 -4.172409043208297197e-02 -1.153365181870209255e-01 -8.041444692832980029e-04 9.336081488449593513e-02 1.014178118348503382e-01 -1.103970416511474047e-02 9.004184252444477621e-02 -7.269485041343294596e-02 -3.459273321409288976e-02 1.006425957244939801e-01 3.526617415582091603e-02 4.581456859525827319e-02 -4.917416317651153446e-02 -1.053378375877540296e-01 -5.291397350025649204e-02 -9.896972613747373471e-02
8.804210236143980572e-02 9.906066556723988614e-02 -2.871746164119485384e-02 2.840569484904996445e-02 1.098129341821037497e-01 -4.919230156078847199e-02 7.234210669656390702e-02 5.774360747684548906e-02 9.243664708596265045e-02 1.217911980405945449e-01 1.168821365233331938e-01 1.357373731960166141e-01 7.459780111351954623e-02 3.239286626646651485e-02 -3.566587583046731957e-02 2.797237048394943942e-02 6.292242466781032550e-02 3.167606439636596466e-02 7.090409111275249032e-02 -5.522172058034093695e-02 -2.032903036227816720e-02 2.766485588131271586e-02 -2.586738590609568775e-02 5.963157121062284682e-02 -2.514334017364656948e-02 1.761580335511536699e-02 1.283065435700770640e-01 4.842446453843149423e-02 9.740171885520165773e-02 2.154411877092694133e-02 4.227486266325392039e-02 -5.190482896723872669e-02 -5.089153168506884567e-02 -1.355024267737683641e-01 -1.458091639696634974e-02 -7.536962876417090118e-02 -1.879587390602487432e-02 -4.699628318961016071e-02 -5.785474280255573781e-02 4.272513905242525389e-02 7.354640228073936435e-03 -5.017888364417040503e-02 1.351164655446253533e-02 3.740577884565015471e-02 -4.498168552274603091e-03 1.912712431899308424e-02 4.881075268911764381e-02 1.295221047228740929e-02 -4.686265434970673244e-02 7.536282563685532676e-02 1.726909257978737067e-02 -2.741765342786122578e-03 5.532099805696966827e-02 5.687468067986648640e-02 -7.581514979471934423e-02 7.310899035890924824e-02 -1.279012221918225146e-02 -5.327114398209068132e-03 -5.947332905139294384e-02 1.193007868891531320e-01 -1.740640966552499391e-01 -8.696475500683943649e-02 -1.820051704217531124e-02 5.114911924904579771e-02 -3.946882505575263073e-02 -2.319869328338634851e-02 5.488397978550455664e-02 -8.324587557194801368e-02 -1.816285161075477106e-01 7.270754744674297332e-02 8.348684938113099668e-03 -7.986703363521105437e-02 -2.424284599384578590e-02 -5.128184256959076454e-02 -3.419451956289907418e-02 2.807417712939537513e-02 1.505398580734985774e-02 9.220305754961230504e-02 -1.207139064497040198e-01 9.613995059929039688e-02 -3.043145186643176747e-03 2.244254192875145756e-02 3.455217501775571104e-02 3.521919485031605596e-02 -6.293838664165789243e-02 8.832360173948845816e-02 -1.910189784255682819e-03 -2.519454173354016002e-02 4.750550592309591563e-02 -2.796803948660489536e-02 3.026648698123900194e-02 1.018719086573222216e-01 7.936277493641945291e-03 5.518675504761751116e-02 3.094262121807979035e-02 3.124075219981187548e-02 7.588839067489401569e-02 8.821462864205464882e-02 4.613377271611734942e-02 -6.442543701513601950e-02 2.007229665980461361e-02 2.127277319865011895e-02 -1.828793084555664639e-01 7.437895259262689018e-02 6.391846205551041105e-02 -6.399129948311453597e-02 -2.159980134186394174e-02 3.864728955427493284e-02 4.253508814192248633e-02 -7.200458501371019560e-02 -1.192793830428149210e-01 6.914252826104468064e-02 -7.266326727560093457e-02 7.982684484139124237e-02 -2.928656121788558025e-02 8.091914952165502051e-02 -3.728343631724335278e-02 1.880560403964483540e-01 4.847085425374747514e-02 5.457193086460730008e-02 6.626767097577990207e-02 2.962795692357077931e-02 5.583665614072908651e-02 1.619080872585886705e-02 7.170430040915218295e-02 8.624606245862952159e-02 -7.005017818961294107e-02 -5.667656405889251459e-02 -1.011605658958049936e-01 -4.389701801945421894e-02 1.100897176193038661e-03 8.078807713542392188e-02 6.393453232787759668e-04 4.873062583485700955e-02 7.125531903791126886e-02 5.362815895731482679e-02 1.649430734604333953e-02 1.725185269612041494e-01 -1.121115924536171954e-01 1.270626492082577996e-01 5.602255227144372490e-02 6.627643111151694522e-02 1.454659431877072806e-02 2.739132303927565779e-02 4.221927891196583515e-02 2.412765614872599759e-02 -1.027108865270127125e-01 8.414399208919495776e-02 8.351927630016395265e-02 -6.497656166114330889e-02 -2.937477564217853832e-02 6.417178329101813627e-02 1.924471428927000335e-02 -6.359526139900943675e-02 -5.925128247713136453e-02 -4.698575475201838270e-02 7.093331629911997505e-02 -8.193448870170262979e-03 -4.248160227911060988e-02 7.186458373286516710e-02 5.548680002072477885e-03 -3.966856866569588858e-02 -5.521844975703994740e-02 -1.053046688940398497e-02 9.374428916021614044e-02 -1.043540130048288411e-01 -1.291496968612829421e-01 1.856742369313792509e-02 1.026522678345163919e-01 1.083925802332999511e-01 -8.600948299619917692e-02 3.113288055304403237e-02 2.031710000236249675e-02 -4.112736955739619560e-02 9.129416711099100357e-02 1.819741095146930679e-02 -4.030342202223844567e-02 1.136929192258205740e-01 4.782070811490859302e-02 7.401160654946289941e-02 4.806887335434037456e-02 1.620317732866250193e-01 9.075974814351005227e-02 1.886877757882933146e-02 -1.118581994673705600e-03 -8.075085276281761260e-02 -1.648572023026889377e-01 -1.064620421214514667e-01 -1.590074480854438144e-01 -6.188088323367429283e-02 -9.329101543931346552e-02 -1.402138995802105770e-01
1.010392630272186759e-01 4.164895068341167850e-02 -1.059248620521966444e-01 6.433594490026547930e-02 8.421975905257027273e-02 -5.278258545309446118e-03 6.823462615897536720e-02 -3.457386135706359137e-02 -7.919840289625657004e-02 -1.323247188308743390e-02 6.914670751106304081e-02 7.270514163769520311e-02 -5.641745273364447144e-02 -6.104606643932566912e-02 -1.079209279747598144e-01 4.488697016731899719e-02 -1.239291047405046836e-01 -1.706049754623550213e-02 -6.129556100370837229e-02 -6.596742644274598832e-02 6.220941756092210340e-02 1.068282249983879273e-01 -3.112786708099077315e-02 5.380277958691251534e-03 2.181182828761658865e-02 -1.479624485380208465e-01 1.300202705043979057e-01 -1.036621271869764792e-02 -6.014713674245150687e-02 7.578590718097566459e-02 -7.082160459805839775e-03 -2.087225347723592125e-02 1.178629287413544141e-02 -4.455102511275596533e-02 -5.405422874753855467e-02 -2.992748925473146665e-02 -5.705322993833394571e-03 -8.995829928848471380e-02 -1.672069343195684010e-02 4.530666965594559031e-02 -9.184883398465669771e-03 -1.302147248643698296e-01 1.272502099405919684e-01 -7.582270313024572217e-02 6.134665069852297120e-02 -1.554266289995005421e-02 -1.158410638089192868e-01 -4.458044459916950947e-02 -3.855866642979730724e-02 -2.236223493864983661e-02 5.707555918100074011e-02 -4.807764420566553593e-02 -4.463090386460284026e-02 -9.695005809241964700e-02 7.069987732571175743e-02 -9.600105227693819798e-03 -9.365239418813893491e-02 7.874063105454448541e-02 -7.158095984723280084e-03 1.085582282651360517e-02 1.079987678351926605e-01 6.086692672383246100e-02 -4.427572051619441118e-02 8.370942097049471897e-02 6.994505364082841126e-02 5.245689947233223016e-02 -1.092209962607488052e-02 2.694602301145057263e-02 -4.022450629214426726e-02 1.300311436271560719e-03 4.988991326629393236e-02 1.028240657131378327e-01 -4.884924087974792939e-03 -6.345261800083987214e-02 -3.773175097314027809e-02 -9.645292199334656869e-02 -1.033511608902881046e-01 -1.060339756034999470e-01 -1.933369048017555616e-02 -5.917402030025250420e-02 -1.045579288393170547e-01 1.149235560953569268e-01 7.099706394707161472e-02 -2.654959945197530105e-02 1.215592582970102947e-01 9.330811018289865422e-02 -6.685202799893436021e-02 2.928471345908376447e-02 8.361321446921550493e-02 4.005065332238025994e-02 -6.513422201640212128e-02 -2.946134123946859973e-02 -3.509525446352210892e-02 -1.846819205314567322e-02 -3.015489036748356111e-02 7.335863033125812616e-02 -1.891673800418432541e-02 1.790793314133564806e-03 -1.171870903408790549e-01 2.386689744343326036e-02 -1.943595053729666334e-03 -1.704060698749391631e-02 3.239221281624959231e-02 9.688184539660586736e-02 -1.050460860665555773e-01 4.821327733196172083e-02 6.325336828439495629e-02 -9.778162781303636336e-03 -1.881196126234047777e-02 -2.220464376057222980e-02 -5.817832260930237004e-02 8.279307397869918594e-02 3.960283765588010901e-02 -7.054739461442263715e-02 -8.093570950971502864e-02 8.874169484856354873e-02 -9.424372866398553206e-02 6.798394703095263225e-02 5.261156479356479112e-04 6.982662778410617110e-02 6.860397641822153780e-02 -2.541211546853896705e-02 -8.839995225578886747e-04 -2.979062348052162121e-02 -7.499729913197943597e-03 -6.340874421833826366e-03 -8.475222235564436324e-02 -4.319258270584797749e-02 3.276465197293817674e-03 4.954602168524333689e-02 1.084766530450246430e-01 4.226673381742903496e-02 8.647491120046404967e-02 4.488238454918582268e-03 1.107131262394146914e-01 5.956664115716036982e-03 7.253798868895260099e-02 -3.184361959313421891e-02 2.466750481630305275e-02 1.681544848997675382e-02 1.804238383609000360e-03 -1.096425421042774850e-01 -5.568557274916338673e-02 1.086578639751988457e-01 2.039209867646562743e-02 5.844240787894004752e-02 1.087304513645040438e-01 5.571261899899448977e-02 -5.719548402060953968e-02 9.930108324973964395e-02 3.359893969480037823e-02 -2.334629416400120158e-02 9.157678706073489605e-02 -1.621256887322202953e-02 1.008461360041474908e-01 -5.859669894162604364e-02 1.484819909113971048e-01 -5.519659216313749575e-03 3.464101017625673823e-02 1.332793334812765462e-01 1.036163023049544024e-01 3.591221484283071280e-02 9.450077522188221613e-02 7.048438786447898396e-02 5.233912423434116529e-02 2.275121523778144902e-02 -1.245841990160583695e-01 -4.073083575123460226e-02 -5.064096582834707455e-02 -2.066663781113814158e-01 9.502553273997470240e-02 9.690888301242740754e-03 -1.297354032395270085e-01 1.032195372701688318e-01 -2.616609932603379280e-03 -1.289330780863344461e-01 -6.893993563241215816e-02 -8.788292797086429131e-02 -9.648990373283712618e-02 -4.828566539251214623e-02 1.388240854739741237e-01 -3.722013024944575282e-02 2.778948778568400557e-02 1.602467797089342783e-01 2.752715989874609040e-02 1.264538814061601235e-01 -3.930750523805026653e-02 -4.839105930118562521e-02 2.343988797047073802e-02 1.098761426368719402e-01 5.637266933295511512e-02 1.519125282455523474e-01
