4.441731491164466195e-02 7.228437496279288554e-02 -2.999062536376201349e-01 4.017983676670732196e-01 -1.499554789462295146e-01 -5.109245340956820591e-01 3.527471909081219548e-01 1.853657399763848912e-01 3.105240034148366024e-01 -2.824621791783836489e-02 1.298139740037533019e-01 -3.957883378706053557e-01 1.954345935723853997e-02 -1.342003343986527264e-01 9.990025156691595409e-02
2.731189220408345442e-01 -2.203285163916587630e-01 -2.552322866878329877e-01 1.727320497535170529e-01 -1.247803352295691198e-01 -1.926355300259091630e-01 3.440576654210076857e-01 -1.410974732633075712e-01 4.745918140247106232e-01 2.675002602423131592e-01 -4.047122679621180108e-01 1.846984457659921197e-01 6.446873511156878123e-02 -1.575724397035249691e-01 2.592955034048007312e-01
1.941500091846741494e-02 -3.982099799115181027e-02 -3.338904044164742735e-01 1.108660214057318183e-01 -3.973569218223572674e-01 -5.339462615857040184e-01 3.545865343583543550e-01 2.037116533674639685e-01 3.411618989251185008e-01 4.231203971473242176e-02 1.760678669312036870e-01 -2.520126927662324490e-01 1.557373967818382055e-01 -8.730643944623442398e-02 1.395474656092378918e-01
4.051663844998439762e-02 1.239756021508462841e-01 -3.581959957638937708e-01 4.051685203934738411e-01 -1.776249513243394751e-01 -4.546381985005067405e-01 3.740743487122748512e-01 2.138337878040107720e-01 2.313850052526815193e-01 -6.232217237102699592e-02 1.404185415087455535e-01 -4.231883490310060503e-01 2.451584350761348494e-02 -8.557242624112763874e-02 4.966933304865486093e-02
3.306103203189065254e-01 -1.758199009293744119e-01 -4.506542470460291328e-01 3.136716406488043174e-01 -1.329391352153751760e-01 1.365253411886715659e-02 4.037002233810994545e-01 3.725099443935903781e-02 4.291977042362948858e-01 9.708162851400038706e-02 -3.949079599406388752e-01 8.379129986504876837e-02 -3.109346653407775440e-02 -1.129084549179251440e-01 7.589732654239082776e-02
2.017718262801289700e-02 -2.882800092955794397e-02 -3.427035362131793939e-01 1.179689537149215817e-01 -3.979775328548316726e-01 -5.289410943391843478e-01 3.596682044027980085e-01 2.064290182572518506e-01 3.291886528001299328e-01 3.798186974564338181e-02 1.761753470274707301e-01 -2.608270341930267189e-01 1.556437704542126266e-01 -8.138152539758199133e-02 1.324245556152318370e-01
7.341398384760004087e-03 1.597594454931639263e-01 -4.030517227930622837e-01 3.670335138578437184e-01 -2.168675958710117868e-01 -3.949597636455130512e-01 3.969822999288353804e-01 2.422374308267571108e-01 1.610296758887043711e-01 -8.392119205741316312e-02 1.610667927287315615e-01 -4.412850617256939278e-01 5.085729967151420700e-02 -3.914233927663791218e-02 1.389659838954385510e-02
3.394550991500138726e-01 9.839759092286806674e-03 -5.988496470183610754e-01 3.945416577064925212e-01 -6.294578457127363025e-02 1.371021817857602243e-01 4.337069165420918693e-01 1.161490882136637787e-01 2.235937533002097244e-01 -4.397120992639299772e-03 -2.538371117420701872e-01 -1.474063492941259101e-01 -7.179729243773434744e-02 2.733384994552205335e-02 -6.293260168881475991e-02
1.465527240529486061e-02 -2.056689913744036771e-02 -3.498533449750538260e-01 1.190192867706976049e-01 -4.007988146682013308e-01 -5.209981301043458135e-01 3.650416416294152699e-01 2.110790853281491464e-01 3.185426831265840697e-01 3.300045375396051806e-02 1.786574525764259291e-01 -2.672245948942416627e-01 1.579690601426728402e-01 -7.620753656913341334e-02 1.275264570494910599e-01
2.935415272749027429e-02 1.522961017441152032e-01 -4.122327261470459803e-01 3.335194959475690224e-01 -2.555285048526297897e-01 -4.198203171553291368e-01 3.998873956858884915e-01 2.263534424309536219e-01 1.619483727991873900e-01 -5.066907287859950121e-02 1.491974227689627785e-01 -4.276144576997411573e-01 8.006171087656201169e-02 -3.189104904329668339e-02 2.734754941588868685e-02
3.203527387098344392e-01 1.196268707423941147e-01 -5.744459739165146406e-01 4.033624065089707611e-01 -6.989704273457027217e-02 6.267940641627957332e-02 4.294302368960277172e-01 9.405198056066597923e-02 1.880688029965410790e-01 8.156384114178900913e-02 -1.783889326818025312e-01 -3.351965394767702500e-01 9.599195149953066494e-05 4.568712866835493436e-02 3.811760861989625920e-03
2.947130449647247449e-02 -1.546591035261059982e-02 -3.542820979528141789e-01 1.233864933368321731e-01 -4.032661305326400991e-01 -5.255197862332146030e-01 3.640084363639032872e-01 2.043938211150838069e-01 3.118892562428052240e-01 3.836981820636248958e-02 1.708979746869598304e-01 -2.669897423310373941e-01 1.583085789832235080e-01 -7.239208849789059708e-02 1.246579741580579326e-01
5.013524023960278658e-02 1.396072146811755954e-01 -4.112345669463894904e-01 3.436713850301415518e-01 -2.504407961382344450e-01 -4.246222909750944075e-01 3.923034722410794206e-01 2.290682621889162107e-01 1.800928476307477322e-01 -4.953248454115640603e-02 1.460298288960298341e-01 -4.220029817861714050e-01 6.868352059352142436e-02 -3.720853244059584702e-02 3.119933770314321092e-02
4.074579959975580534e-01 1.246476602689250597e-02 -5.881882557545126122e-01 3.259257455001255965e-01 -1.506809048968495435e-01 9.989127913550660542e-02 3.719566669562379690e-01 1.239959265048257292e-01 2.713610354756920695e-01 1.270683255002332257e-01 -1.400042283972227353e-01 -2.792948200069112485e-01 -1.489143513704275362e-02 8.674873811427198655e-02 -9.098951083944322935e-03
3.291701450739149132e-02 -1.589651817016074151e-02 -3.537482082908421366e-01 1.249197166404947962e-01 -4.024517115806644507e-01 -5.278481431875592378e-01 3.628104893914437801e-01 2.028251436408974595e-01 3.127982815483444923e-01 3.954317923012739405e-02 1.694566112577393924e-01 -2.661815199567278967e-01 1.572905945632342151e-01 -7.279283011408946291e-02 1.246868396526473882e-01
6.317510755165121894e-02 1.481618399953193999e-01 -4.033931580833005071e-01 3.749995008838750699e-01 -2.256926874670356631e-01 -4.029537461200426440e-01 3.834260482638763845e-01 2.320006655452440392e-01 1.890690202213277660e-01 -6.326363417328964567e-02 1.493702103889251731e-01 -4.361967436262595421e-01 4.484628347935411957e-02 -3.900161919496648172e-02 2.639695351206325369e-02
4.306050912034609102e-01 -2.444742337448180605e-02 -5.494193154232317466e-01 2.211696124533735763e-01 -2.439170240294835923e-01 1.674371431030778901e-01 3.598699720694417681e-01 1.047712769310499697e-01 3.337541087969594367e-01 1.800792825458975566e-01 -1.420784007476138255e-01 -2.365103616780615814e-01 1.557941169065939040e-02 1.146847541457135106e-01 4.302070820989675748e-02
2.827468884373631614e-02 -1.664492479586847720e-02 -3.522488699212054097e-01 1.260706913582269328e-01 -3.997455069861921007e-01 -5.267080252350133662e-01 3.631233138348152201e-01 2.054651918367059460e-01 3.152749556929282937e-01 3.673151611347742068e-02 1.725799776470254843e-01 -2.679519327667774231e-01 1.557415463781056664e-01 -7.417524212888564061e-02 1.247842851690084548e-01
8.072078739463627028e-02 1.402945719572520344e-01 -4.057452693587633163e-01 3.800056318736054206e-01 -2.165311298386205785e-01 -4.109866246327744665e-01 3.779308349729511018e-01 2.247710027105859210e-01 1.984587704981538026e-01 -5.559854801966262333e-02 1.423615671398400229e-01 -4.360944412554688121e-01 3.256481300809285079e-02 -3.610731540142162604e-02 1.822534790419451725e-02
4.519956722417554085e-01 -4.189327090722604757e-02 -5.250451968212401788e-01 2.230565567032261054e-01 -2.007085632244669515e-01 1.362460125226455931e-01 3.374237678117882333e-01 5.999751205201542259e-02 3.766906152680138953e-01 2.008540439416504064e-01 -1.359775684685354535e-01 -2.694616130200249149e-01 -4.999719914151751904e-02 1.268977423992473652e-01 1.662505797514265971e-02
2.954608972917184204e-02 -1.732270107720430136e-02 -3.519705245201245059e-01 1.267159938936829044e-01 -3.988511868664285642e-01 -5.278792749024731057e-01 3.626494383037205949e-01 2.049882230525453264e-01 3.159219338505444563e-01 3.731933827462132619e-02 1.718389024022453637e-01 -2.677507801708951529e-01 1.551969338849447655e-01 -7.452619039467237028e-02 1.247174536342877671e-01
6.279872335807662465e-02 1.286596668915531427e-01 -4.140200993225837678e-01 3.404604369679451459e-01 -2.457664500319183265e-01 -4.331619953555251312e-01 3.931080597232130547e-01 2.178634391931695280e-01 1.932198087149344101e-01 -3.341872436984896777e-02 1.383810230501470728e-01 -4.229933598024875896e-01 6.214694014944668887e-02 -3.410955023363832633e-02 2.447595872568188169e-02
3.975270565763301955e-01 4.580970520656094114e-02 -5.494255105327299216e-01 3.525532359474718991e-01 -7.900286078151125269e-02 2.170548064792834561e-02 3.667159753055304616e-01 2.941881097263472980e-02 2.900844041073368795e-01 1.785482596545303891e-01 -1.522772938901486017e-01 -3.233956472428837214e-01 -8.829719134017342819e-02 1.256071477340621467e-01 -6.540466749201907792e-02
3.361642199987302515e-02 -1.871240860868654543e-02 -3.521779094968731094e-01 1.236892340585263317e-01 -4.018919897359425342e-01 -5.295873004964753994e-01 3.617414608071883864e-01 2.020794544154769778e-01 3.153688679893988933e-01 4.099326946489088852e-02 1.687008590593789825e-01 -2.643446624499793951e-01 1.571484620607146165e-01 -7.409733114064513682e-02 1.259225940404040123e-01
9.659351274102260035e-03 1.525567451992764223e-01 -4.180704866802002484e-01 3.229730304166298360e-01 -2.530245650860514228e-01 -3.976375285002955451e-01 4.087945103759149101e-01 2.337388418635770460e-01 1.665407372491546079e-01 -5.249394211400121996e-02 1.616124156689820734e-01 -4.352104958863858286e-01 8.060967379891684215e-02 -2.382796211864374875e-02 2.389398796211530604e-02
2.822340275157279033e-01 1.242912257458039793e-01 -5.796787689923101894e-01 3.227776485027236686e-01 -2.971700262440285512e-02 1.040327012861801542e-01 4.424057178729113859e-01 4.199830972584844835e-02 2.369931165373364290e-01 1.704655363087850817e-01 -1.124438986824173453e-01 -3.467737620490863870e-01 -2.153356370797616590e-02 1.733326685254256427e-01 -8.283937359315615701e-02
2.249049799551918263e-02 -1.686717964872149964e-02 -3.531847252640969437e-01 1.198053142914080466e-01 -4.041380297218834516e-01 -5.224716586698883170e-01 3.649415956936768457e-01 2.073455200958651823e-01 3.132582284613802392e-01 3.617571337947638604e-02 1.744220183196420748e-01 -2.666822962673722208e-01 1.595403335855122839e-01 -7.306672921209106386e-02 1.259541408351003144e-01
-6.089649887310503995e-02 1.904417736868902478e-01 -4.114730580891033940e-01 3.231882709292445144e-01 -2.353903179519269417e-01 -3.298857531238058582e-01 4.270507244407265035e-01 2.462705983618655448e-01 1.314842272779934151e-01 -7.869638702365795713e-02 1.795994576777270313e-01 -4.625199183809644565e-01 9.072751262004587203e-02 -1.969003486409109591e-02 2.696345727497782493e-02
7.884256224704709604e-02 1.813214328636217898e-01 -5.404610949955214183e-01 2.265285484661890836e-01 1.183050667741404084e-02 2.474668686619675984e-01 5.547807975035161654e-01 -5.537007542020879608e-03 1.777832282528386265e-01 2.184846477235423412e-01 -1.578167558674712367e-01 -3.184725583575176988e-01 1.303319876549348666e-01 1.596780604103364976e-01 -1.199915843697102816e-02
3.154816798392400760e-03 -1.523020319484003418e-02 -3.527811077713218224e-01 1.155842632447119239e-01 -4.040950747945927235e-01 -5.118870220208402433e-01 3.695423775240704867e-01 2.162438626443946854e-01 3.123322359253643543e-01 2.781031177199858040e-02 1.840173486510454925e-01 -2.713091539083705706e-01 1.616288749346175557e-01 -7.332871241758363856e-02 1.265023814472518160e-01
2.622571869164837255e-02 7.269618904664287840e-02 -3.414442698552365707e-01 3.758891449871520907e-01 -1.909975780172831761e-01 -4.851069416058938488e-01 3.754609444061476342e-01 2.199063371398867206e-01 2.792216562543444747e-01 -4.760016467827796194e-02 1.433570863337951806e-01 -3.927465422086731106e-01 3.384643817340741989e-02 -1.126978047387040965e-01 7.832058070501884961e-02
3.631662541635463093e-01 -2.739505283159429649e-01 -4.457812402723121403e-01 2.111020187828019645e-01 -1.687776095597745551e-01 -8.436279448934858038e-02 3.577010307966105862e-01 1.952351620239984459e-02 3.670129348852800288e-01 1.289051747551782923e-01 -4.200343850519906996e-01 2.243137181005447622e-01 -5.744535153139516959e-02 -5.687821299594928576e-02 3.530692462774460277e-02
1.984852577993995518e-02 -3.851306417982289232e-02 -3.361543078636513582e-01 1.095821191681218554e-01 -3.999768609513150719e-01 -5.324473973194422394e-01 3.554355196005674067e-01 2.042804036228049458e-01 3.382325168899975587e-01 4.196630003060836112e-02 1.759345180585595025e-01 -2.517318793699081514e-01 1.569219361301882887e-01 -8.550373955607591669e-02 1.383781962446195279e-01
1.015585131217792113e-02 1.270251453601200231e-01 -3.822484932299515248e-01 3.711294157687010098e-01 -2.159079230585226605e-01 -4.281082027231437048e-01 3.964146581402251401e-01 2.309498442335861101e-01 2.091027540922024142e-01 -6.528310334084677646e-02 1.491696118261562065e-01 -4.230876534992065729e-01 5.001208307668064679e-02 -7.334429694460770088e-02 4.913314311329055467e-02
2.661794245890383159e-01 -1.495467880008243267e-01 -5.312005127262556803e-01 3.399697449196074639e-01 -1.462714351254441325e-01 9.356380097237268489e-02 4.456523542783719094e-01 1.123801886656157489e-01 3.188509542796690854e-01 5.050065311242139116e-02 -3.852110801745330382e-01 -2.129235960108216003e-02 -5.531552038417452549e-02 -1.069266923026350874e-01 9.782764420755441989e-03
1.969349133119036033e-02 -2.720505505857791911e-02 -3.445732797090312327e-01 1.161947989000799153e-01 -4.007946484850685165e-01 -5.270309317531208793e-01 3.607440080290258422e-01 2.066781062849714912e-01 3.262045498421074496e-01 3.794141812866450719e-02 1.760597305728027195e-01 -2.606998323150130359e-01 1.574615107929651647e-01 -7.977275608203203416e-02 1.319917873675600650e-01
-1.396032478324577865e-02 1.777462181816741038e-01 -4.087261002276721955e-01 3.557804281165393157e-01 -2.235545986397824980e-01 -3.726376592703986579e-01 4.068305518662418407e-01 2.434714719592191157e-01 1.344334714978573653e-01 -8.668279101453688074e-02 1.632655898307776299e-01 -4.512322831352552077e-01 6.458485790126336501e-02 -2.879309794802718467e-02 9.847685200150663523e-03
2.309123229611403927e-01 1.381764554565552972e-01 -5.799959721747462993e-01 4.088855366755193566e-01 -4.739110519341233757e-02 1.430008194356914841e-01 5.036385149287121443e-01 7.994509359313488328e-02 1.034005050712841906e-01 1.134992022590897154e-02 -2.619480636957409736e-01 -2.408983616597234201e-01 -1.475849690505061818e-04 3.194752475323562463e-02 -5.268750818980066919e-02
1.078130468787817826e-02 -1.768481666596042820e-02 -3.520199979971656568e-01 1.189887143854151952e-01 -4.014577168650592665e-01 -5.173809660358938967e-01 3.673242706429001858e-01 2.133336090723346457e-01 3.148920047294055946e-01 3.072783415256892872e-02 1.802061286054761069e-01 -2.699309712920199833e-01 1.590413369976865221e-01 -7.465811532983616938e-02 1.260903368039748285e-01
1.918583194550473048e-02 1.610352871354831239e-01 -4.069824751695167442e-01 3.284173647852492994e-01 -2.565769834117144765e-01 -4.190137095541143220e-01 4.052441042541890526e-01 2.170472676373216836e-01 1.566707024788479563e-01 -4.150634222332766354e-02 1.455713569849807487e-01 -4.348750250213200830e-01 9.204962766534553753e-02 -3.328022880475291906e-02 3.624640016955799071e-02
2.103167615193583806e-01 2.345348404379183627e-01 -4.940291369430686585e-01 3.975357120849424275e-01 -4.632930364780506183e-02 8.460422902452507249e-03 4.777552512583412847e-01 6.903935738292643533e-04 1.203404921046275639e-01 1.426770053573373220e-01 -2.075627035107336926e-01 -4.156213150933787959e-01 1.012265194373377364e-01 1.863766719726243221e-02 8.328392288117884845e-02
2.897299830492646236e-02 -1.514705965399110697e-02 -3.541982181612449154e-01 1.231431020512926272e-01 -4.033198669729742281e-01 -5.253646674264428329e-01 3.643344536143386936e-01 2.040751589686129741e-01 3.115355547346827514e-01 3.878930486040112896e-02 1.705958106907451977e-01 -2.672939399377664560e-01 1.588874881226742530e-01 -7.247462023442859114e-02 1.250740568614584491e-01
4.559468086407204857e-02 1.456223319334327138e-01 -4.007514271048594479e-01 3.353718170630886064e-01 -2.569141908037041455e-01 -4.345315989336570595e-01 3.958671346097584753e-01 2.123406594005670667e-01 1.827977200785041445e-01 -3.095641414870266284e-02 1.388968962133309004e-01 -4.258323564872403266e-01 8.670109103801118544e-02 -4.364097186628098507e-02 5.095959615999098163e-02
3.228641171632990470e-01 1.115380032102477881e-01 -5.121166972254395100e-01 3.187688095002323974e-01 -1.498370611351039494e-01 7.700964259576588422e-02 4.301108907671932213e-01 3.894465089089766546e-02 2.539738136247735589e-01 2.091992018954169086e-01 -1.866485010810048917e-01 -3.641045304145610895e-01 1.120931853357188673e-01 3.896351498277624698e-02 1.216037099168690294e-01
3.714371533931475067e-02 -1.560717950862194198e-02 -3.535174468579332929e-01 1.256277537366357611e-01 -4.026842078958136617e-01 -5.300826209166576986e-01 3.618739082429010545e-01 2.000205504534725010e-01 3.126180244622772109e-01 4.206335326764042842e-02 1.669050182880602029e-01 -2.653311151795234579e-01 1.574767509944213495e-01 -7.273546508661825338e-02 1.251803680908924743e-01
5.595439574973727626e-02 1.508815986591062197e-01 -3.999417529181885644e-01 3.602580755834735027e-01 -2.408876959797844330e-01 -4.100301668105328923e-01 3.877200187301966805e-01 2.255823463361866510e-01 1.891493714695997030e-01 -5.333955121286801382e-02 1.477095943951731438e-01 -4.348204415362383335e-01 6.343994400129875089e-02 -4.140438534353240579e-02 4.183600882628662337e-02
3.940493988099777467e-01 4.263139256943947880e-02 -5.213340399350953058e-01 2.040178976332242267e-01 -2.623504495571693518e-01 1.524658677428095688e-01 3.917408831307179762e-01 7.898780274171220139e-02 3.058190733806017136e-01 2.065085016684681529e-01 -1.469457147027013466e-01 -2.863808529980103046e-01 1.088857840582746900e-01 1.156287312918103521e-01 1.127711833746618819e-01
3.232252210662912850e-02 -1.621068826183351755e-02 -3.524803702399254557e-01 1.262773995798834592e-01 -4.006993063134870470e-01 -5.284924532424248866e-01 3.622845538904400087e-01 2.031029745840458312e-01 3.145931977791174838e-01 3.883467009903342204e-02 1.703673002486331411e-01 -2.668628171341627109e-01 1.561238726109971664e-01 -7.368644205330170116e-02 1.249672133797973539e-01
7.947284200181416181e-02 1.270208731703841576e-01 -4.083833622393954199e-01 3.696826374068157284e-01 -2.282673393885234492e-01 -4.181482525216350110e-01 3.810857922130358455e-01 2.280755545461819744e-01 2.066731772968171121e-01 -5.416569894337544544e-02 1.446700669636621917e-01 -4.245668787992006865e-01 3.450615262573827197e-02 -3.919626265467179155e-02 1.864279225065104337e-02
4.656441451865592773e-01 -7.859476952644672831e-02 -5.492521983454896617e-01 2.185953117761403053e-01 -2.028673051302175290e-01 1.069963453704356332e-01 3.409118138412676746e-01 9.048771565454669097e-02 3.671092320943233345e-01 1.726874237775485321e-01 -1.277736210984594944e-01 -2.122532390808990754e-01 -6.824903775395779748e-02 1.384889225744856123e-01 -2.682290859349132153e-02
3.124203483082519522e-02 -1.955267322270943728e-02 -3.507826300385806784e-01 1.250384160375486164e-01 -3.997013020741008726e-01 -5.294460723216781739e-01 3.614005230750164666e-01 2.037590709392105570e-01 3.178238470870597410e-01 3.890103549913676712e-02 1.709378339247672740e-01 -2.652263789933988480e-01 1.553906904881494910e-01 -7.527089532052891330e-02 1.259133029839198947e-01
6.850673535511811463e-02 1.253634948050764697e-01 -4.170299898345412593e-01 3.399401312793967067e-01 -2.462608882838831781e-01 -4.340363759317615311e-01 3.912466543945424258e-01 2.205777349934677778e-01 1.937424112328851311e-01 -3.544918847613241081e-02 1.390050989697138861e-01 -4.200098180624997624e-01 5.907378267840864700e-02 -3.133419036502940042e-02 1.902783900720162943e-02
4.273532139787061257e-01 4.260573463490614082e-02 -5.576979438958716839e-01 3.396964526175474397e-01 -7.609303771379420656e-02 -2.331140661213006865e-03 3.443092639580130343e-01 4.214005280276435922e-02 2.852149079510001295e-01 1.589881325570691173e-01 -1.319654284094473884e-01 -3.068980630413207233e-01 -1.000454007161691306e-01 1.565302824707877349e-01 -1.013715467412295568e-01
3.394553152374747002e-02 -1.893444237061791754e-02 -3.521895710200028673e-01 1.237748491916651067e-01 -4.017283766821331814e-01 -5.298358402406055934e-01 3.616552970259021005e-01 2.020106812187375533e-01 3.154451959707668673e-01 4.114566824641620324e-02 1.684630269577011841e-01 -2.642607439094503130e-01 1.570496765647138304e-01 -7.415695517096791700e-02 1.258605590183501377e-01
1.029916867542330847e-02 1.568166020376497716e-01 -4.196894578447518676e-01 3.248161479797506135e-01 -2.472101424409268444e-01 -3.887694321018093091e-01 4.082242602261992315e-01 2.349241488301561376e-01 1.655473002383425762e-01 -5.405533164619095304e-02 1.632260812590337618e-01 -4.422979461527926648e-01 7.868497350807861224e-02 -1.902340801918729965e-02 2.038263608891882628e-02
2.963197510486306196e-01 1.582765108435575940e-01 -5.620101016819568640e-01 2.916508522791936842e-01 -2.453756523730974207e-02 1.128341697579744313e-01 4.149388644903939105e-01 1.995561116094404092e-02 2.432110794030521994e-01 1.851884170744678149e-01 -9.123478294718345705e-02 -3.806433894109510496e-01 -3.911847631243169261e-03 2.147030533859051182e-01 -8.688607139265794310e-02
2.006469281923602133e-02 -1.687756548116148975e-02 -3.530368256846094233e-01 1.194072114465365708e-01 -4.037670165289837243e-01 -5.213627196670771458e-01 3.654812974192558350e-01 2.085257115469166533e-01 3.133589726951981347e-01 3.519105576778405048e-02 1.755525608285374017e-01 -2.673964168311003253e-01 1.597162970947741401e-01 -7.324414215691719965e-02 1.260445626579656531e-01
-7.409875031596770134e-02 2.067052926223982290e-01 -4.083046965009964890e-01 3.360901423877536986e-01 -2.060735698316123743e-01 -3.025017812607713186e-01 4.275476952195277347e-01 2.493822592097557078e-01 1.164129268597773048e-01 -8.737650567964762305e-02 1.786316896751342365e-01 -4.816223384756900261e-01 8.634521962650702764e-02 -1.449474908213027775e-02 2.071777015508462910e-02
1.341682799720637365e-01 2.258215977502342209e-01 -5.068351535153343690e-01 1.754085508742587729e-01 4.822103527961801167e-02 2.699976235204804564e-01 5.044372640398010477e-01 -5.299036857601851364e-02 1.529694787136385292e-01 2.577619959562083563e-01 -1.681960150264653897e-01 -3.414333344387738278e-01 1.543552429530412051e-01 2.261655657673375119e-01 -3.435978952578727652e-02
-6.095655511696564631e-03 -1.526847609340114750e-02 -3.520421821869058610e-01 1.143635255535072198e-01 -4.023169986993787584e-01 -5.077420239311133399e-01 3.716412119784674450e-01 2.203575510416820593e-01 3.124198815146337349e-01 2.432201379170181171e-02 1.877625854740565814e-01 -2.737602435138547508e-01 1.622772143601019235e-01 -7.430311184502591537e-02 1.270015065744224403e-01
2.008887334450007184e-03 9.330992836015651604e-02 -3.711411292174122689e-01 3.451502668833001941e-01 -2.322021699482369472e-01 -4.519735714615433220e-01 3.954228994948937870e-01 2.360840036187316360e-01 2.414526923400890923e-01 -5.885961042887244421e-02 1.562023520188061121e-01 -4.033452473164298446e-01 5.635932728947869175e-02 -8.810188817026205765e-02 6.582672495253330536e-02
2.636379523749245446e-01 -1.723107367006967983e-01 -4.943643416455559825e-01 2.752731059037533679e-01 -2.015747136231758330e-01 5.953492379453745320e-02 5.142174694455741157e-01 3.542828490302730310e-02 2.484164281799521035e-01 6.920346812609415310e-02 -4.266029464799317439e-01 7.441577028612349903e-03 -6.156678845347143478e-03 -1.292551206957022747e-01 7.410148215891584900e-02
2.168490785165143320e-02 -3.144207356306367301e-02 -3.423398883140480464e-01 1.128317892633192432e-01 -4.019406309791226373e-01 -5.293628882824170656e-01 3.585047225830267914e-01 2.053290496153714895e-01 3.297190635099130351e-01 4.010211743520135375e-02 1.752538599057399671e-01 -2.564633988103982576e-01 1.577256017524020226e-01 -8.098261149973817741e-02 1.337937820305667436e-01
2.221696909722863447e-02 1.107641338945224846e-01 -3.864004807857741031e-01 3.392533173405719582e-01 -2.467973206161732103e-01 -4.401938060217725490e-01 3.971942738467071354e-01 2.236015664460419827e-01 2.310653769820922021e-01 -4.314677683167073702e-02 1.506822115801708384e-01 -4.113747950735988090e-01 6.612791375579292474e-02 -6.979891627480350191e-02 6.298506681325356793e-02
2.607623099864948557e-01 -7.515340108723428392e-02 -4.756657385389595483e-01 3.247268453662099374e-01 -2.127002746462560434e-01 1.566050938425996852e-01 4.696804541901321572e-01 9.089766263703719096e-02 3.754273921600121411e-01 1.143235324115712825e-01 -2.846868749070667892e-01 -1.802799686753069064e-01 -6.626067460546502218e-03 -7.230301691292546906e-02 1.522700790677715688e-01
3.048293724831759033e-02 -2.496005407647814908e-02 -3.472085133258615008e-01 1.190762064164112150e-01 -4.020233511518452318e-01 -5.307676360261510684e-01 3.594323856351444579e-01 2.022435504784527438e-01 3.228766281297403840e-01 4.166197305537616691e-02 1.708266574360149115e-01 -2.599869179253032070e-01 1.570201685744753994e-01 -7.746009674954147661e-02 1.298782445104754990e-01
7.033862427696429588e-03 1.578351243053069397e-01 -3.978848428285944316e-01 3.424801067343822281e-01 -2.434771737133199498e-01 -4.071715602019249092e-01 4.086792584572083720e-01 2.219469465482722115e-01 1.751067749625568049e-01 -5.379040093701777103e-02 1.526467640420225425e-01 -4.364140829978311875e-01 8.140824413838791684e-02 -4.569687863515724952e-02 4.533262080040263708e-02
1.833437550286104167e-01 1.131564318753998238e-01 -5.060724564572307571e-01 2.704271388372265217e-01 -1.772266278820884000e-01 1.420593171639481789e-01 5.528599815144535912e-01 1.756343889309497364e-02 1.715605158308048106e-01 1.948431515311073170e-01 -2.739858515803710315e-01 -1.910159866200195622e-01 2.391498502010960536e-01 3.086239899271114515e-02 1.723090340617620675e-01
2.667888231441847835e-02 -1.608118382072419583e-02 -3.529438472708525953e-01 1.246168267450561834e-01 -4.007674508809770941e-01 -5.253696576828015274e-01 3.643625237979614684e-01 2.053332071320903007e-01 3.137155148839083640e-01 3.740229637304635923e-02 1.719776659530412033e-01 -2.684541863552035723e-01 1.574062575300448352e-01 -7.386215623498819383e-02 1.252543272211744663e-01
1.625110712772650026e-02 1.775674034615401520e-01 -4.092799796163575921e-01 3.298586025010002976e-01 -2.621855759782649731e-01 -3.929745105441056485e-01 4.058698613258727717e-01 2.224415589480433775e-01 1.477902528140427885e-01 -5.655531733513766840e-02 1.619109823025811634e-01 -4.405236821591093643e-01 8.957608911051463674e-02 -2.151753269130753099e-02 2.654170841596010730e-02
1.430556520313704949e-01 2.711105911167396298e-01 -5.124339737440013476e-01 2.497460009204031939e-01 -2.090494904453812641e-01 1.014018643295058753e-01 5.043488398772161263e-01 2.819302527680220272e-02 9.601788157236315624e-02 1.282064646882658809e-01 -9.606278693031089499e-02 -3.701121639883665493e-01 2.707555547437252019e-01 7.394373724464163578e-02 1.458842282151143477e-01
3.011709692543487402e-02 -9.133582700918119884e-03 -3.581135521260175869e-01 1.292796115872067164e-01 -4.011785341960891205e-01 -5.232988380942323881e-01 3.664991534165648601e-01 2.052611319154295233e-01 3.060105789253790287e-01 3.613580970618002208e-02 1.705670021733546315e-01 -2.731205619079474789e-01 1.572069499693748706e-01 -6.985858843153927578e-02 1.207513550632557803e-01
3.230877771412930116e-02 1.658799243252332689e-01 -4.158097362970015753e-01 3.278147378372967546e-01 -2.652264372123104286e-01 -3.932881519048494479e-01 4.032664171166168710e-01 2.265513663063174477e-01 1.611025435466556521e-01 -5.239702909055911351e-02 1.641902016368125827e-01 -4.344766211388162436e-01 8.314246349017127835e-02 -1.773374907621566576e-02 2.132618942486001409e-02
2.936042648048755033e-01 1.811411367342209700e-01 -5.605595083542728174e-01 1.850042961722694612e-01 -2.207436028268328909e-01 1.338332252878112749e-01 4.298053503021513899e-01 4.364075085467882670e-02 2.297081864490184699e-01 1.799882352542062636e-01 -4.441201277518021240e-02 -3.396898744611565046e-01 2.126048803172115864e-01 1.774800415932099307e-01 -5.603022273326542860e-03
3.037094698338079976e-02 -1.328069369832889784e-02 -3.554718348912441206e-01 1.253488678549539159e-01 -4.028585470364732801e-01 -5.250370951418922294e-01 3.645159742448837448e-01 2.044249064374975833e-01 3.101086939820487109e-01 3.769388636825177913e-02 1.708842868743217780e-01 -2.687709544990131150e-01 1.577837961952149592e-01 -7.136501915097269444e-02 1.232561466940430561e-01
3.015032038188589225e-02 1.364678514700576328e-01 -4.061230758576440114e-01 3.363732358746031048e-01 -2.562683413466611548e-01 -4.104816736927718868e-01 4.007628946780136259e-01 2.321358591897010326e-01 1.919291334907934077e-01 -4.839302025086898718e-02 1.552902322218364384e-01 -4.258119437190534540e-01 7.392735864540930790e-02 -4.350263277300178005e-02 4.184109593753446849e-02
3.558367858269388395e-01 4.394456534395341923e-03 -5.213703981128533504e-01 3.077602064783336311e-01 -1.888359456715164586e-01 1.841648857907394188e-01 4.223671008628162582e-01 1.323008877429745767e-01 3.091408900898640066e-01 1.435086587682241899e-01 -1.419637785405935548e-01 -3.100079723191875303e-01 4.648879614762309320e-02 5.656164000651902474e-02 5.968510606424461129e-02
2.878465414638840120e-02 -1.968612429215655171e-02 -3.508588191749800189e-01 1.207930902701613157e-01 -4.030367256747408589e-01 -5.276643655374907427e-01 3.622475153311652818e-01 2.034718119777699230e-01 3.166522186970506803e-01 3.994538868659168462e-02 1.709760942708014875e-01 -2.636833758196204802e-01 1.583840880858281008e-01 -7.488654819256601591e-02 1.275898482424735469e-01
7.181285085824318237e-02 9.089885306393476194e-02 -3.811698116657420976e-01 3.783886732329094782e-01 -2.107205800361537373e-01 -4.502200399902967498e-01 3.805735119201397731e-01 2.207779069695702534e-01 2.493805244673605315e-01 -3.979656702157079173e-02 1.252620221740366468e-01 -4.080774741395556404e-01 3.549661040621619745e-02 -8.185264324921986967e-02 5.898723403841289736e-02
4.514853546788965000e-01 -2.207254718743454636e-01 -4.827459086817019740e-01 2.224449512364331250e-01 -2.130016631864553311e-01 9.983288060397975394e-02 3.813655716734927204e-01 9.379282259109769648e-02 3.731181377248306008e-01 1.859254410589081807e-01 -2.525241658494302155e-01 -1.128014294716691845e-01 -4.408251318703118593e-02 7.903309205278910912e-03 5.530827309906881373e-02
2.953210589897027963e-02 -2.784153181110429059e-02 -3.436520789201072956e-01 1.196868868944716280e-01 -3.989564478457806596e-01 -5.336449687768014538e-01 3.581370455366083005e-01 2.012453786717242621e-01 3.270370869929827284e-01 4.286168878677773519e-02 1.702644279179182929e-01 -2.587881273713631414e-01 1.562273924079646270e-01 -8.062485438349667466e-02 1.325403319219979892e-01
5.451602057643678556e-02 1.093947878822108116e-01 -4.070283975634665929e-01 3.578103041467755596e-01 -2.237363592252198385e-01 -4.328844331681412916e-01 3.954176649583661107e-01 2.263095964353154799e-01 2.178899304881001531e-01 -4.805075863096919947e-02 1.324092744761705687e-01 -4.163459337492186885e-01 4.438904402182045073e-02 -5.262726701244854755e-02 3.068115703842452455e-02
3.988442373867415736e-01 -1.242362091133093482e-01 -5.913109954782331812e-01 2.222124532765419047e-01 -1.412628950322487864e-01 6.299053737946797016e-02 3.988082445406855303e-01 2.375696392348351782e-02 3.228226157307477195e-01 1.693156988306509791e-01 -2.758468031468095938e-01 -1.144918306133300145e-01 -7.098043892022271040e-02 1.127762300255263778e-01 -5.556403849465289813e-02
2.615515114859386786e-02 -2.541028710302946012e-02 -3.461757920558115043e-01 1.192125383344265488e-01 -4.001366660808841624e-01 -5.300610519988148139e-01 3.603215425712168463e-01 2.037262625917002912e-01 3.236634863511568816e-01 4.054236913561450745e-02 1.719838237098836042e-01 -2.611685277228611435e-01 1.571853468199129467e-01 -7.879345246015852233e-02 1.307900209833706140e-01
3.335496895263034833e-02 1.467138534452580578e-01 -4.093748586011949908e-01 3.471667204530975992e-01 -2.248587443859642321e-01 -4.081328029152503922e-01 3.992979259509657486e-01 2.235688736933584553e-01 1.898839687364502204e-01 -4.586897491295846563e-02 1.515964516904238224e-01 -4.425997783205168346e-01 6.297115041970201277e-02 -3.142429607508643447e-02 2.656097450753247546e-02
3.485047393962053541e-01 8.187840784381164583e-02 -5.402253047618585935e-01 2.921685932785203499e-01 -1.793854787219382237e-03 1.133296338956230609e-01 3.984194914002920918e-01 -1.681719642838241588e-02 3.153877365334545324e-01 2.197377394062718925e-01 -1.499260402964395500e-01 -3.481871894188791616e-01 -2.852328164063581278e-02 1.703649470079290906e-01 -3.824585484249654055e-02
2.353814830958751714e-02 -2.056755006185423396e-02 -3.495200533603404769e-01 1.211406062312055387e-01 -4.004291963255241504e-01 -5.262071044480365334e-01 3.629597396796130360e-01 2.059716018241084523e-01 3.187520392686775117e-01 3.774065666019801868e-02 1.736218122875051728e-01 -2.655868682961046168e-01 1.576406351293965225e-01 -7.626105510647135377e-02 1.280922693428097336e-01
1.011739670122723325e-02 1.682799243951484669e-01 -4.065440951441289252e-01 3.320817628165427249e-01 -2.364884333381522263e-01 -3.910113482982618405e-01 4.082581873124641603e-01 2.208922984680313228e-01 1.709921564704318109e-01 -4.130275745390787207e-02 1.618220621616699439e-01 -4.531964636680965719e-01 8.625191058924708276e-02 -2.446912309197104771e-02 3.438776396235496829e-02
2.573574678358666046e-01 2.109957277606179238e-01 -4.716302203001710436e-01 2.627839922392667393e-01 2.809787537923018330e-02 1.030239430465172551e-01 4.439038481726565455e-01 -3.832093731220479610e-02 2.464674102387124921e-01 2.710009774407219907e-01 -8.899042944047443060e-02 -4.512414732805926088e-01 1.068738772762130862e-01 1.744313108257569689e-01 1.614668923148776872e-02
2.203161627718425858e-02 -1.732857611099107228e-02 -3.516211047004692558e-01 1.214114981473228827e-01 -4.015995535540857753e-01 -5.237195248883118603e-01 3.646740296333161324e-01 2.068037747389497305e-01 3.150597038171507047e-01 3.665402343447232703e-02 1.741808491914858814e-01 -2.677622646054594324e-01 1.588287890828124216e-01 -7.449849536211691770e-02 1.268800254332299871e-01
1.150866181094519543e-03 9.063452263230714623e-02 -3.713583166332341534e-01 3.340850257811283086e-01 -2.445043988993970685e-01 -4.583781213332984716e-01 4.029871799997293835e-01 2.271366646415504398e-01 2.378079225061278668e-01 -4.400997249039034082e-02 1.432652244574927347e-01 -3.986849991663161119e-01 7.302341457887973064e-02 -9.324413546883038306e-02 7.994118777641030793e-02
1.902952917807554101e-01 -1.644404422086247763e-01 -4.754988676039819673e-01 2.333598662468846507e-01 -2.339452961058964831e-01 1.818232583530597288e-02 5.772565673912735118e-01 1.080833771777553465e-02 1.481226727014825495e-01 1.234970392949647916e-01 -4.282861319206516804e-01 -6.489599494877445855e-03 1.040941312489670340e-01 -1.462261989722078437e-01 1.220959430738568080e-01
2.534287416371938662e-02 -3.037705507540078287e-02 -3.434502793484375260e-01 1.128391755914869704e-01 -4.034646989124829886e-01 -5.303823715684159446e-01 3.582402944439160297e-01 2.034253343117897739e-01 3.278381145322668555e-01 4.190028897133503405e-02 1.730930697279001729e-01 -2.557288115650171445e-01 1.585355374964755593e-01 -7.992374656948658673e-02 1.335057281765100190e-01
4.463077813580568556e-03 1.171080444703171686e-01 -3.789642450647299765e-01 3.379410375747852191e-01 -2.438287163302764460e-01 -4.409790308953251414e-01 4.083120917149121176e-01 2.140667126996782521e-01 2.207894240699891097e-01 -3.222860763587385297e-02 1.339231201924768744e-01 -4.163570823952933986e-01 8.439369875041717595e-02 -8.202388740505364706e-02 8.404750448962523823e-02
1.716406868799522645e-01 -2.974498802482784116e-02 -4.303571109156339447e-01 2.758990958365126200e-01 -2.265643952567852892e-01 1.099686027254438009e-01 5.340648746373489741e-01 6.962425915949172796e-03 2.397213602758247464e-01 2.049207547103034932e-01 -3.709698241987768874e-01 -1.883079776126383165e-01 1.405927166322546162e-01 -1.102039436363625169e-01 2.349048732381121829e-01
2.903421538587554890e-02 -2.432844536394069765e-02 -3.476580172341852126e-01 1.182484544301395102e-01 -4.027083317826338771e-01 -5.298639981636610319e-01 3.602723541757538728e-01 2.024636813734665974e-01 3.216019726324249040e-01 4.172680989116211298e-02 1.707150601652507593e-01 -2.602875199935747452e-01 1.581728762190538484e-01 -7.725041458879351730e-02 1.301933678920333126e-01
1.133205037561564772e-02 1.522666738577131695e-01 -3.948148369946410940e-01 3.267074870064236025e-01 -2.605488238833196801e-01 -4.220207611816164106e-01 4.101370276594997755e-01 2.123602189077557767e-01 1.804493753667781308e-01 -3.753714553555462935e-02 1.456984888898197605e-01 -4.291598956107187668e-01 9.715002200429455337e-02 -4.911895674370517217e-02 5.954302515494155207e-02
1.142239301683812269e-01 1.470198212465325671e-01 -4.517574077778430119e-01 2.371588960742445074e-01 -2.229552400733618434e-01 5.442942954146683804e-02 5.590539548539196213e-01 -2.913246581917822500e-02 1.262291379125458635e-01 2.413146061451591495e-01 -2.546418784908767718e-01 -2.574610526429363944e-01 2.968665689516032380e-01 6.336270942191453079e-03 2.132656071481356663e-01
3.520424956213755174e-02 -1.187462171283724076e-02 -3.558505356768982275e-01 1.293465923909490056e-01 -4.006002955280957289e-01 -5.278363304149490398e-01 3.641429643631762803e-01 2.017093127755198168e-01 3.091442578749301617e-01 3.976860255512110892e-02 1.674856495573142090e-01 -2.700366934123180629e-01 1.567331242277180681e-01 -7.158177432113627114e-02 1.227549610423210175e-01
2.535756102998113978e-02 1.739682679864018033e-01 -4.055810555020091246e-01 3.254351071079485958e-01 -2.685129528461862591e-01 -4.034561154558043983e-01 4.056809366272157713e-01 2.123786556253957347e-01 1.571175901432406430e-01 -4.306934687130661854e-02 1.551466968795143786e-01 -4.385441933915031898e-01 9.612934149599484945e-02 -2.488682960765136246e-02 3.657400979306502098e-02
1.055647668665970901e-01 2.727051901593612881e-01 -4.600010317650619629e-01 1.772987343064019172e-01 -2.700142092754224676e-01 4.971027498208880485e-02 4.902254133830792338e-01 -2.154283919627261040e-02 1.205214607393549076e-01 2.020355567748620129e-01 -7.140171126283514913e-02 -3.910304562046512666e-01 3.223634826847610046e-01 8.014306869277894319e-02 1.777650054684594416e-01
3.565963050957966091e-02 -9.729133033716218237e-03 -3.578052850236194682e-01 1.304156521907697819e-01 -4.009623793045564155e-01 -5.265480752520683705e-01 3.650036870862679028e-01 2.023643283901607470e-01 3.064843700670197291e-01 3.883634559016022753e-02 1.675966251486419867e-01 -2.716527039651344122e-01 1.566883562941101815e-01 -7.000981503447253895e-02 1.209164416788901936e-01
6.437563275957290665e-02 1.812670322418338253e-01 -4.226704688506410235e-01 3.547629658882125447e-01 -2.478649460157826279e-01 -3.877615806716153135e-01 3.979426997945862965e-01 2.128534890776392907e-01 1.400959469649457612e-01 -4.683534439420813933e-02 1.421175291743028979e-01 -4.426020944370273047e-01 7.046735799105088849e-02 -1.019138526280847015e-02 6.777600544494481564e-03
3.377319821657729371e-01 1.363706361451695326e-01 -5.658706469815247830e-01 2.134363565003168095e-01 -2.277780857480161680e-01 1.156736934204590228e-01 4.143719869997562477e-01 3.706680624424146808e-02 2.313080514325298598e-01 1.929702517774125048e-01 -8.751566540953112372e-02 -3.378979826690386434e-01 1.640971194212500761e-01 1.540355168080036197e-01 -2.088742060040304962e-03
3.736638716153409950e-02 -9.619470122745832569e-04 -3.635788214009360586e-01 1.390566040171670181e-01 -3.979717412566814438e-01 -5.238453845306939582e-01 3.682517621078642001e-01 2.035868136034202081e-01 2.975832801469699973e-01 3.561906366729591933e-02 1.665497533340992153e-01 -2.793869725189311870e-01 1.548280210839101112e-01 -6.635170355613191628e-02 1.150190976688818395e-01
5.531718450773326357e-02 1.448769014366848851e-01 -4.166574453859124283e-01 3.634299351055061411e-01 -2.369112704669017466e-01 -4.001592360945239180e-01 3.972087478413747208e-01 2.304265303109471474e-01 1.747772905705434476e-01 -5.309529626951207254e-02 1.403525208073035657e-01 -4.302010761343969536e-01 5.605992167670906939e-02 -3.662883173544688453e-02 2.275993280083842690e-02
4.244369454734459035e-01 -3.626160232952815865e-02 -5.562601813291149222e-01 2.949320255383537925e-01 -1.917422082240561043e-01 1.494547701889406000e-01 3.816011185114392967e-01 1.472614107554424956e-01 2.863919316024324813e-01 1.257706041274044007e-01 -1.496096623919490332e-01 -2.571780362397369513e-01 1.154455972716445650e-02 9.370843669666391318e-02 -2.107658125378408104e-02
2.983701483042874511e-02 -1.428295665484806409e-02 -3.545255382406985456e-01 1.272029331866914859e-01 -4.001796366453361786e-01 -5.265494925131931625e-01 3.645886183254155588e-01 2.042725233813708630e-01 3.112781142633679332e-01 3.804354964768883601e-02 1.699217629467861812e-01 -2.692077687853133283e-01 1.569068015845517805e-01 -7.304229274633207425e-02 1.238710896332429062e-01
7.050572928712521559e-02 8.619147016324665844e-02 -4.015271375610215965e-01 3.809016255587681643e-01 -2.121918566855779675e-01 -4.417784416981099249e-01 3.867104503702847307e-01 2.405505123363559095e-01 2.254918157352988339e-01 -6.008052571772153072e-02 1.221895111327419847e-01 -3.960543267404518786e-01 2.771599416162362495e-02 -7.381930158052704694e-02 3.498263198730813817e-02
4.888052206621037454e-01 -2.373423954629111932e-01 -5.513430069131405320e-01 2.371812008471472499e-01 -1.931786532956651647e-01 2.111486764127688820e-02 3.416169667218642569e-01 1.681378429219254622e-01 2.714672961416449426e-01 8.517688511260336492e-02 -2.331117334003182662e-01 -1.663651411188890941e-02 -9.265999131510511966e-02 7.435151418498342490e-02 -1.099373650221247972e-01
2.656025771682606063e-02 -2.558423384404363843e-02 -3.453239324348129080e-01 1.205445158190165955e-01 -3.988655553235159745e-01 -5.313707293639543527e-01 3.600409288551858489e-01 2.030048071503302853e-01 3.243437985607442453e-01 4.099171506032189827e-02 1.712381251524681403e-01 -2.610869999468972691e-01 1.566997660066058451e-01 -7.980796286381534876e-02 1.314501070314496312e-01
3.390660324520532176e-02 9.140554559896832409e-02 -4.102257359475526832e-01 3.480024345168006294e-01 -2.302020895084310737e-01 -4.364763735158718183e-01 4.005802555764190198e-01 2.465898594562447033e-01 2.178671412495615523e-01 -6.496790308511331269e-02 1.386251336832571290e-01 -3.986871884075941508e-01 4.516046488463997671e-02 -6.038633495684186947e-02 2.806233126734403172e-02
3.973027686522700996e-01 -1.886905809589660143e-01 -6.319554770956475886e-01 2.066941577002756325e-01 -1.398951879346023996e-01 -1.517136512594384132e-02 3.756592863221647760e-01 1.097620622351961894e-01 2.242711163218532866e-01 6.016452000376153880e-02 -2.898236391089805131e-01 1.964827453607880317e-02 -8.485302968064978302e-02 1.282792626218716703e-01 -1.718459361166380650e-01
2.137523558595400691e-02 -2.915775358836547940e-02 -3.437801117757422475e-01 1.145886450502612147e-01 -4.013439406571571721e-01 -5.289650342940340755e-01 3.598537153106928232e-01 2.052857269275651098e-01 3.269831865782290570e-01 3.999001041172484117e-02 1.742023587905908166e-01 -2.583276356476769675e-01 1.582613717072187121e-01 -8.046562382161613625e-02 1.331972101606353487e-01
9.518326041446204672e-03 1.230883618978377420e-01 -4.112475477315297168e-01 3.256439479655485192e-01 -2.468589283704912540e-01 -4.077761503879225313e-01 4.072855810418469780e-01 2.418415530228774923e-01 2.011390763982913443e-01 -5.793852601567366783e-02 1.611135680717266927e-01 -4.249581720312723965e-01 6.893353319397342582e-02 -4.194861197685820220e-02 3.358840497519026413e-02
3.280507825606444605e-01 -5.201077782747094485e-04 -6.235445363438744115e-01 2.571871285255526995e-01 -7.681995939505364968e-02 1.317849434529786146e-01 4.436348710529688377e-01 4.683755324383961222e-02 2.427688891558901219e-01 1.322391308970548573e-01 -2.012131076360491322e-01 -2.497635920868863380e-01 -4.228109752358307633e-02 1.571690933431767745e-01 -9.681358358260354346e-02
2.048982722808882773e-02 -2.623356778253842225e-02 -3.457950235847058185e-01 1.149367713566728788e-01 -4.024185593945829864e-01 -5.266353534232598443e-01 3.612715735670474770e-01 2.060249379786316393e-01 3.239803360375477226e-01 3.901509295394149646e-02 1.748853578059217651e-01 -2.605526460896636642e-01 1.590841065746457228e-01 -7.867829730763087337e-02 1.319179934286316969e-01
-8.502038511825640854e-03 1.450018203774753045e-01 -4.068466701949757791e-01 3.138387194936199109e-01 -2.520750350652246619e-01 -3.899831169991888058e-01 4.143583204123780228e-01 2.344642745141580220e-01 1.894404324343045842e-01 -4.583857440392811317e-02 1.702080601580852337e-01 -4.408334624051833961e-01 9.017583841586924998e-02 -3.476718178180005642e-02 4.420460987292582078e-02
2.473048345327381048e-01 1.416691748140652685e-01 -5.282681415395036328e-01 2.615471332525649562e-01 -3.783835909638580321e-03 1.529175091986861024e-01 4.717471279950737340e-01 -2.527251188089663092e-03 2.450778494404575458e-01 2.383168412179915707e-01 -1.221167834860721196e-01 -4.044737992395991966e-01 7.297060878663631789e-02 1.569563191143065195e-01 -4.072052397310583355e-03
1.901006087795233113e-02 -2.309054754848858387e-02 -3.478981439476425130e-01 1.150838475610111294e-01 -4.037213287363646819e-01 -5.240898126291412273e-01 3.628765211643362187e-01 2.070110228479071224e-01 3.205077962504146449e-01 3.776946270132697236e-02 1.757353167259151638e-01 -2.626532800537658696e-01 1.601597467130791708e-01 -7.681879188413931470e-02 1.306153107600903640e-01
-2.467235329808292136e-03 7.925796224469847107e-02 -3.755924061516271451e-01 3.121013050440654135e-01 -2.632340901314452197e-01 -4.620979948077325039e-01 4.119075698958395981e-01 2.282264734955829211e-01 2.365820978684041453e-01 -3.458835490895730003e-02 1.345040422517573830e-01 -3.861826378136133386e-01 9.249093929315009566e-02 -9.613358819162427793e-02 9.198502356086245280e-02
2.028580990101687964e-01 -1.181192310286414832e-01 -5.044864883625265195e-01 1.413142020643097518e-01 -2.603821816641691544e-01 -2.965030173842004083e-02 5.918980047060852234e-01 -8.395448230910132828e-03 6.373070435644589971e-02 1.626395595994939436e-01 -4.044532580716160841e-01 8.847483857897251239e-03 2.111423799430243442e-01 -6.395479685658767011e-02 9.210374707645502257e-02
2.834549229870380813e-02 -3.115092672699944568e-02 -3.430274652939735436e-01 1.115162858381615885e-01 -4.050353852084548900e-01 -5.319293747084105073e-01 3.571260093470968178e-01 2.014507606790898186e-01 3.280831359680880244e-01 4.395172555143419396e-02 1.714376581669810884e-01 -2.534386606237278849e-01 1.592829014680804678e-01 -7.984484955998487343e-02 1.343872913439347616e-01
-2.240833527485102273e-03 1.121270138872400707e-01 -3.789993214066361138e-01 3.299074933888833105e-01 -2.488701371288370157e-01 -4.486644265486095517e-01 4.168486104188955377e-01 2.123995850065251156e-01 2.097194142291977370e-01 -2.501245494439599190e-02 1.154591813466574052e-01 -4.085831729517709898e-01 1.008347131483089826e-01 -9.095089396242851676e-02 9.752958118105345409e-02
1.699962130072402433e-01 3.602392485129967716e-03 -4.480565956454540255e-01 2.321042811938117123e-01 -2.406959648732931167e-01 1.884902192224693213e-02 5.648204641714102969e-01 -2.655267707852226530e-02 9.416865554853877385e-02 2.307203669043258187e-01 -4.057196058396350113e-01 -1.506192732636415788e-01 2.278611550415501064e-01 -6.952956520348671510e-02 1.797078509510866007e-01
3.028886446055729584e-02 -2.373542980788811291e-02 -3.480028760398042875e-01 1.182222439561234906e-01 -4.033370896116098003e-01 -5.304363878608895355e-01 3.602620615353183675e-01 2.015181520646751878e-01 3.205472026000225072e-01 4.261108943366467144e-02 1.695866630912907513e-01 -2.598770048258713938e-01 1.588002338824903159e-01 -7.696380040368544506e-02 1.303532758321663543e-01
3.155279789283142039e-02 1.341472645130895314e-01 -3.962980980590853908e-01 3.093835358859807205e-01 -2.808708608839983190e-01 -4.443040177287468917e-01 4.078457448076099334e-01 2.055570955223932350e-01 1.918814731396619455e-01 -2.029998162481919805e-02 1.333450112202471949e-01 -4.108850169802629737e-01 1.082715304771822429e-01 -5.289340474105799772e-02 7.066676067247654180e-02
1.576290902803786087e-01 1.368253422149358078e-01 -4.659187050955908571e-01 1.965356199444963370e-01 -2.806766886440398290e-01 -2.529138830445262429e-02 5.446832540667656541e-01 -3.712836104334248793e-02 1.142902539443510640e-01 2.644626958866085342e-01 -2.353426139280746787e-01 -2.594821108614070448e-01 3.042710891838392717e-01 4.289629325317893122e-02 1.520102183976490273e-01
4.547503013084412682e-02 -1.208570852292360429e-02 -3.560073457241983985e-01 1.303327067863771227e-01 -4.020003014372326988e-01 -5.327165305471590617e-01 3.614830320843684941e-01 1.964732994276485734e-01 3.086934520995672226e-01 4.442601473543599661e-02 1.623887506849168438e-01 -2.667800556991752337e-01 1.565036973274945842e-01 -7.085133511118697769e-02 1.227798309292865708e-01
3.397426403233274467e-02 1.658173214637774506e-01 -4.042460623222620675e-01 3.223613393582411280e-01 -2.723095760243960384e-01 -4.143225969914208218e-01 4.071537217119619578e-01 2.046733529078056391e-01 1.651499444315474296e-01 -2.957059417958933512e-02 1.429169119691120760e-01 -4.339666118675751805e-01 1.021020768089871827e-01 -3.117348112678888436e-02 4.732643088869534220e-02
1.207812008660320707e-01 2.382308226903492865e-01 -4.630857190784056221e-01 1.688690917567438610e-01 -2.846598842277630603e-01 1.067811689074503814e-02 4.792436988166801082e-01 -5.640286380032533825e-02 1.230751894709185001e-01 2.447816023082723669e-01 -1.267774115401147927e-01 -3.842571063695499611e-01 3.125739692215344090e-01 6.259097417883686953e-02 1.768616924477455776e-01
4.003854119779507587e-02 -9.890282185971552634e-03 -3.576205720599136550e-01 1.311085618318656998e-01 -4.011832045776571598e-01 -5.289716694732288227e-01 3.638680101475135764e-01 1.998868031585991911e-01 3.065069107745288512e-01 4.108456238074299771e-02 1.651567683790152175e-01 -2.703379299156112858e-01 1.565792526754896941e-01 -7.000674458224086238e-02 1.212094327944308048e-01
7.801862239056267523e-02 1.818367492862122681e-01 -4.230949715112592435e-01 3.679544440476862910e-01 -2.384126016883704458e-01 -3.872484498226800853e-01 3.963654232833321855e-01 2.065971518129534334e-01 1.376920404047941859e-01 -4.163602866700085586e-02 1.279561006561920067e-01 -4.452424690363466220e-01 6.567694350966156447e-02 -1.344164238170103554e-02 7.641037210846093018e-03
3.663003092921074400e-01 9.960378945495394765e-02 -5.582577189119531935e-01 2.209869542916447493e-01 -2.305028649491394355e-01 1.043078519366821832e-01 4.050128552642210944e-01 2.965337600889096994e-02 2.264165104759705838e-01 2.086372017605702400e-01 -1.278494469118189036e-01 -3.439310223028613223e-01 1.445493989180513250e-01 1.252443462974196509e-01 2.193620577615256612e-02
3.906139396139222952e-02 1.107778924812316589e-03 -3.647201658166319138e-01 1.420686847269223563e-01 -3.964957955721151173e-01 -5.241761964935823803e-01 3.687488387558878755e-01 2.030304783417947734e-01 2.956095903471745445e-01 3.559497172748091187e-02 1.652759043650377235e-01 -2.812854125808733619e-01 1.540733165504258595e-01 -6.582140975371625347e-02 1.137598480622594860e-01
6.818873578691667103e-02 1.422826279978409714e-01 -4.230169383876968836e-01 3.797769694055090350e-01 -2.213082696389849779e-01 -3.952709510570652229e-01 3.980268323964448740e-01 2.312832506359008833e-01 1.682507404116629079e-01 -5.533576459784830121e-02 1.281910476049964998e-01 -4.283646736579047598e-01 4.468951475145852698e-02 -3.667593473239448565e-02 1.250693414209771460e-02
4.627826122017653643e-01 -7.524587132449823967e-02 -5.951981017367077298e-01 2.602885625261967539e-01 -1.680783673735923300e-01 9.661427658605885316e-02 3.671075614175777213e-01 1.393721720677331966e-01 2.377505296277185876e-01 1.260965578269116760e-01 -1.706227679412344045e-01 -1.931826092228926817e-01 -1.966720884712384442e-03 1.259388260153359862e-01 -1.079834015672139352e-01
2.879937102186709563e-02 -1.239696204228650685e-02 -3.555991791786806133e-01 1.296727512927123294e-01 -3.986087056243814986e-01 -5.257107774334515149e-01 3.657331776973034021e-01 2.051566907842680698e-01 3.095718992860747587e-01 3.677478371374256344e-02 1.700779096837170545e-01 -2.715954700377458120e-01 1.562671511210250719e-01 -7.274497035419426327e-02 1.226840359038012807e-01
6.903895455736953901e-02 7.845554825911538188e-02 -4.205746254027963316e-01 3.671423154192980931e-01 -2.191413179542291700e-01 -4.308298524133504226e-01 3.889051520660550265e-01 2.676421327221290003e-01 2.105557449769437095e-01 -7.992538079315369970e-02 1.338525087976783767e-01 -3.847047991811123890e-01 2.893381740195415455e-02 -5.709374701019385989e-02 1.233370669311829870e-02
5.306504693046077969e-01 -1.732681336615938539e-01 -5.790381476400732197e-01 2.126853756052947408e-01 -1.646204485343886748e-01 -4.676839195909024416e-02 2.822027944798091159e-01 1.825083372035838647e-01 1.780666265627627032e-01 3.778315265767229897e-02 -1.645026435727669489e-01 -1.739620341098812098e-02 -7.802516062037387345e-02 1.905995641789129114e-01 -2.504355119217613890e-01
2.249515951434302372e-02 -2.515058618315382452e-02 -3.461294336184985720e-01 1.189142887631078754e-01 -3.998881726256631741e-01 -5.287424122008457239e-01 3.613117549797235650e-01 2.053795964951623254e-01 3.231177958277957618e-01 3.901288139860810411e-02 1.732491121883210639e-01 -2.616046035183833274e-01 1.576512337953704102e-01 -7.926912742275515900e-02 1.311195122161855076e-01
2.395222047159775713e-02 8.069876337727671656e-02 -4.171580185437976374e-01 3.271477972168495008e-01 -2.479614727195494361e-01 -4.392385867251514808e-01 3.995953763302761974e-01 2.715917549324161628e-01 2.059217287231845384e-01 -8.415836899882558897e-02 1.539081396483927833e-01 -3.801515026707789624e-01 5.564790795697300424e-02 -5.394539641071306735e-02 1.781762025660554166e-02
4.395164414855299295e-01 -1.586667150408571092e-01 -6.316134207496786335e-01 1.787166773242840345e-01 -1.585291785481648119e-01 -1.233196814670679958e-01 3.031025503239458962e-01 2.011865061433411594e-01 6.811037358854427071e-02 -6.021111770113217465e-02 -2.088527034282608719e-01 4.380730423445811789e-02 -4.316706249597056233e-02 1.902595651544100319e-01 -2.936384952381196345e-01
1.926441804503019675e-02 -3.047601474575502983e-02 -3.434444992276722841e-01 1.115474111775906635e-01 -4.031995811819024111e-01 -5.277155274757222569e-01 3.598313602762663321e-01 2.063120308626797683e-01 3.274261228861533590e-01 3.953318354428508180e-02 1.754025833114843946e-01 -2.566481050502590344e-01 1.593703130863734496e-01 -8.044534556388446833e-02 1.339063056299590049e-01
-1.725213258689260731e-02 1.037176819199233380e-01 -4.113255258652627755e-01 2.964074387148052936e-01 -2.723924006081054894e-01 -4.029892049908875840e-01 4.139569720313469037e-01 2.611378804080792260e-01 2.083336682363235715e-01 -7.049726924353255653e-02 1.735038904264194215e-01 -4.076475667457533647e-01 8.278425986267386183e-02 -4.854355990395298887e-02 4.341693277216389368e-02
2.757398954181274897e-01 -4.034047844064548444e-02 -6.772206573209877956e-01 1.580950121970265965e-01 -1.862351561860421112e-01 1.258839937076721704e-01 4.811719569037666289e-01 9.872376041759491072e-02 1.159551749350868632e-01 4.981860478539002629e-02 -2.442665553111730004e-01 -1.793255155530700251e-01 3.285283746375556452e-02 1.522227077087968394e-01 -1.221180159376147184e-01
1.705971871201544116e-02 -3.115358867927936828e-02 -3.426264124679808676e-01 1.084555675639620603e-01 -4.050800173855466091e-01 -5.260909335813093168e-01 3.597202426783706053e-01 2.067017606857033951e-01 3.283656348999590135e-01 3.945986980945068862e-02 1.769156126713652410e-01 -2.557405518375423514e-01 1.606321943341086633e-01 -8.033470315667486095e-02 1.351199013888630396e-01
-1.757109363760914200e-02 1.216696109689374555e-01 -4.054885911943025278e-01 2.878176781281956975e-01 -2.743145340709224889e-01 -3.922652381686008716e-01 4.168560983603862291e-01 2.437388515051761573e-01 2.107118311016564494e-01 -4.442068191126159055e-02 1.787797643128284653e-01 -4.267762623725999127e-01 9.971836907240076708e-02 -4.129106914838467923e-02 5.663985637207914065e-02
2.326479125548475690e-01 1.181109924345765533e-01 -5.655544291651255495e-01 1.968609130683564024e-01 -8.986739155620226960e-02 1.650373639417463123e-01 4.942438359204811560e-01 3.127247966758897862e-03 2.133177158953719343e-01 2.207003872267965239e-01 -1.242940697063740774e-01 -3.770959215261787123e-01 1.073966875076203531e-01 1.737904747500030600e-01 -1.085568911823480212e-02
1.902952900471239009e-02 -2.837475732601160011e-02 -3.445634881732074217e-01 1.096690297385669310e-01 -4.059257520110560735e-01 -5.256329003708699599e-01 3.604325660685225308e-01 2.059958835314016634e-01 3.253872823447832574e-01 3.980136387406248838e-02 1.760136883507775196e-01 -2.572167176316938475e-01 1.611522172439899536e-01 -7.864129431396627012e-02 1.338397370213675053e-01
2.303934298468834820e-03 6.535235832256282296e-02 -3.921329553507393872e-01 3.063300261981795614e-01 -2.694806272481841680e-01 -4.629099994726002532e-01 4.185363543336762526e-01 2.431248518840644635e-01 2.266450197371766007e-01 -4.716940234101322377e-02 1.232241321540822471e-01 -3.676113942561299308e-01 9.009927612673848674e-02 -9.276697001711052548e-02 7.931418690071455335e-02
2.447666344019948093e-01 -1.042394595132154489e-01 -5.907807756300973434e-01 9.148142300312579744e-02 -2.495457330764248860e-01 -1.034713743510781714e-01 5.405392364202616928e-01 3.262274084892462928e-02 2.880426404259624554e-02 1.058139117265096824e-01 -3.869267863622937176e-01 9.512199143616460739e-02 1.763279318965706721e-01 4.384060076817661994e-02 -4.249715254129751013e-02
2.797574601377263853e-02 -3.112583380602843702e-02 -3.433399930810278611e-01 1.112966820563569964e-01 -4.053229015893797804e-01 -5.317070634743708002e-01 3.572842696240564608e-01 2.018816116905847446e-01 3.276369576881885126e-01 4.355794141127234537e-02 1.715830915060580497e-01 -2.532325327441491969e-01 1.593997614462493440e-01 -7.969162527565865073e-02 1.341721473932374897e-01
-2.046533143933075647e-03 9.408521777690154186e-02 -3.873135720680015992e-01 3.172725906678248720e-01 -2.609622684190733843e-01 -4.531681546692129525e-01 4.239155015462019449e-01 2.218878738267801298e-01 2.085440018644726945e-01 -2.870639454313473823e-02 1.015879912212753894e-01 -3.901473208326567410e-01 1.072150099131351231e-01 -9.664416972633962932e-02 1.019017028620898963e-01
1.885433144277108009e-01 2.566754480820863937e-02 -5.342605214276731074e-01 1.725346007837190165e-01 -2.523177121148831858e-01 -4.794666258818116450e-02 5.493341836435113867e-01 -2.342255902877234119e-02 3.559843312755312655e-02 2.020328554208420113e-01 -4.172073589793966475e-01 -9.610138787669236793e-02 2.168495641020665998e-01 -1.549528029403178173e-02 8.754720556202721937e-02
3.138036406981817295e-02 -2.528176085597937106e-02 -3.471186176928658385e-01 1.166482537722462742e-01 -4.043087355366218327e-01 -5.314984014171780791e-01 3.592854286821685617e-01 2.006804531453972307e-01 3.216964096642010440e-01 4.368934604789170839e-02 1.690154776656333790e-01 -2.577053481046963634e-01 1.592012308549755895e-01 -7.741303798025225835e-02 1.313383422585766014e-01
4.986888186513320498e-02 1.145959079851437412e-01 -3.940259805366702617e-01 2.985793974924368932e-01 -2.911506299828324762e-01 -4.591105310436522369e-01 4.037731780399366199e-01 2.006179557620519915e-01 2.118068002611378231e-01 -6.376529593031198505e-03 1.210061897467356595e-01 -3.970358727953323674e-01 1.134067456811996971e-01 -6.084813079707360184e-02 8.600512786553107802e-02
2.162321561040960183e-01 1.251481309980552181e-01 -4.787039939474168060e-01 1.673765524797357629e-01 -2.956109317758564559e-01 -5.863743130797090947e-02 5.102895644760069294e-01 -4.569677654904984870e-02 1.706623518142613705e-01 2.664850319744851426e-01 -2.250395055354064699e-01 -2.842894635849390617e-01 2.789651647464574946e-01 6.688489511154423195e-02 1.149044316414015859e-01
5.274390470027613687e-02 -1.432023629974976328e-02 -3.544908514609452777e-01 1.299424443810424934e-01 -4.027293302740951320e-01 -5.372267874540244126e-01 3.585995073041317038e-01 1.923112742165035971e-01 3.107058480148796598e-01 4.845022042114099925e-02 1.587480098496499847e-01 -2.628560233916651945e-01 1.561919243802913637e-01 -7.149601704498359522e-02 1.240809254817407947e-01
5.070701058968977992e-02 1.466547093237072774e-01 -4.020060149521805792e-01 3.154482662620933797e-01 -2.792983968941084583e-01 -4.259590982847707985e-01 4.031692085333413722e-01 2.003726665450514532e-01 1.909377928572405514e-01 -1.494881922553386276e-02 1.350162838077949845e-01 -4.258812832786356140e-01 1.041495049906257797e-01 -3.939739454727780171e-02 6.306457066460130489e-02
2.051105104773202625e-01 1.869188198154268232e-01 -4.677198027413598247e-01 1.619682760695408397e-01 -2.882119921074449143e-01 2.179978744504582414e-02 4.369362129788649796e-01 -5.810901316025568475e-02 2.143084265040235969e-01 2.696125694067699197e-01 -1.137277077192951208e-01 -4.129561175049969446e-01 2.550055564607697223e-01 8.159788334474360472e-02 1.624572807798320973e-01
4.584503581965602287e-02 -1.228672115970773707e-02 -3.560006642535973875e-01 1.304195409261239558e-01 -4.018310256495017940e-01 -5.329668359080778073e-01 3.613466732649762148e-01 1.964188564293039285e-01 3.088032595103689104e-01 4.457747957433003116e-02 1.622249309552291630e-01 -2.667169695962141041e-01 1.563780715849589775e-01 -7.086567899309806351e-02 1.226801213773743987e-01
4.546635623446682734e-02 1.532778151983393289e-01 -4.085108002683771056e-01 3.457760254038848569e-01 -2.483166975872118654e-01 -3.989303186320352634e-01 4.036540545892340903e-01 2.154770072479523513e-01 1.814782988901720018e-01 -3.587595595273349730e-02 1.407427647810877147e-01 -4.409431014809798710e-01 7.920256002398931572e-02 -3.659887016145484812e-02 4.182996173194532957e-02
3.219818988118191005e-01 8.875692915132471494e-02 -5.237155812315114067e-01 1.901157823652489531e-01 -2.104324403652133024e-01 1.433394249477767668e-01 4.167668804087595880e-01 -1.152948071417961989e-02 2.575821948232690506e-01 2.390256954030401115e-01 -1.542535978216913739e-01 -3.779564499780954101e-01 1.730659983391171775e-01 9.229750257430024973e-02 1.038002406842912229e-01
3.304091523106120892e-02 -1.199130245542220398e-02 -3.557539226169180724e-01 1.294352230452127106e-01 -3.999143179212745758e-01 -5.271997807361997745e-01 3.646628233405041497e-01 2.028521359827693549e-01 3.092031746757316624e-01 3.883191932822783327e-02 1.683116363096679724e-01 -2.705690697837973557e-01 1.566736736496304461e-01 -7.195739931388393795e-02 1.227830807472774510e-01
4.501926653629046565e-02 1.235812891497777705e-01 -4.160660099517135002e-01 3.618136564671669553e-01 -2.224774275762435860e-01 -3.971463002925306740e-01 4.045477916126938855e-01 2.397370092158528088e-01 1.964575023329377945e-01 -5.148121690731068123e-02 1.427899190762948189e-01 -4.277680102860494937e-01 5.354114337136353652e-02 -4.547579149424591655e-02 2.778031478007888730e-02
4.793557291407669063e-01 -8.339861520547041385e-02 -5.958733005576034580e-01 2.066141932985196272e-01 -1.196355801684543807e-01 1.300750749815589857e-01 3.602635393812392284e-01 9.489794059469724985e-02 2.458171023992591075e-01 1.748267116853519376e-01 -1.470854228099425509e-01 -2.065635106836523072e-01 2.328824502586049339e-02 1.589069756535556044e-01 -1.199746008705599581e-01
2.249375623137547450e-02 -2.053802551315890221e-02 -3.498843425860680423e-01 1.210851296705224150e-01 -4.005194536281800888e-01 -5.260552366664732471e-01 3.636483053504516172e-01 2.062420062063438919e-01 3.177774015000778274e-01 3.769605248246005874e-02 1.731204477829263733e-01 -2.653087658092434520e-01 1.581040052826481190e-01 -7.656429930665854811e-02 1.282337335098760189e-01
6.058462981304474360e-02 8.925792844675475846e-02 -4.298908154579633711e-01 3.408988050344334275e-01 -2.337020936714802599e-01 -4.171854129691707214e-01 3.948302771249555532e-01 2.755359644602450309e-01 1.990418527845153607e-01 -7.890192144122200324e-02 1.541576217983445241e-01 -3.919257415453295534e-01 4.913179817812502598e-02 -3.511608603238792342e-02 3.529705746640890776e-03
5.443799954476000735e-01 -6.617697590546461894e-02 -5.983787095272331547e-01 1.712496271966190697e-01 -1.395381892992265116e-01 -6.814074676841283540e-02 2.616260977635405660e-01 1.589443730073453742e-01 9.767641951314019744e-02 4.548764157376626593e-02 -8.679133075394879215e-02 -9.226025579130378573e-02 -1.130838530033314270e-02 2.744087876836723838e-01 -3.016278443837515644e-01
2.058672552456396188e-02 -2.427296912200156004e-02 -3.471945218753020868e-01 1.171495630657737180e-01 -4.016690833119355153e-01 -5.267172328075876431e-01 3.621430945748594921e-01 2.065849818024591555e-01 3.214383675991533407e-01 3.807378891965187279e-02 1.744164119357857479e-01 -2.617495938136135680e-01 1.588714177130254035e-01 -7.812384656386038573e-02 1.306722890517117985e-01
2.466685195473354228e-02 9.622673574262741170e-02 -4.196171887379757104e-01 3.120431429894669484e-01 -2.620563383746494779e-01 -4.336847937823676280e-01 4.005509349917518169e-01 2.722717287130743125e-01 1.895121988876352637e-01 -8.158379832981318969e-02 1.650737299031521388e-01 -3.850169654607639158e-01 7.452864356862645701e-02 -3.905259196367504015e-02 1.468569464268196581e-02
4.825003366953919959e-01 -3.571697223197600746e-02 -6.213506063592246775e-01 1.169093158525556925e-01 -1.665143996332833498e-01 -1.543133933497586596e-01 2.833716871488636824e-01 1.901332114288593056e-01 -2.069183515721914612e-02 -4.126192915888190343e-02 -1.199336448147802214e-01 -5.255994107962922574e-02 6.265347014895220057e-02 2.764606372295291825e-01 -3.139271768183330424e-01
2.118240227584670260e-02 -2.775573330393214799e-02 -3.456030532682411449e-01 1.126302870996263167e-01 -4.043264301374465131e-01 -5.270910929435053127e-01 3.605182639121932153e-01 2.060064413834676589e-01 3.242338096783822232e-01 3.941043935832456990e-02 1.747579830207691975e-01 -2.578802613803640176e-01 1.597998885192029872e-01 -7.857126033305862622e-02 1.323032236914762905e-01
-5.495187144969096091e-03 1.182181515374471359e-01 -4.165675039117050504e-01 2.947280082503562215e-01 -2.792123355363740900e-01 -3.990181883245191852e-01 4.146696033089292688e-01 2.559657781949215560e-01 1.894728849443802488e-01 -6.640221166670881581e-02 1.689031855499771584e-01 -4.130560764546885033e-01 9.267714052880422770e-02 -3.787765235100234995e-02 3.847310496201578750e-02
2.837750901174099227e-01 6.247527403781343719e-02 -6.615012976256261501e-01 1.128491702846623340e-01 -2.233486140020110311e-01 7.331912772225215869e-02 4.754228474502165680e-01 6.208174527935909209e-02 1.681843139484061334e-02 7.238619220337970395e-02 -2.120527381235526032e-01 -2.500655314870880996e-01 1.319917629799789993e-01 1.939174942856119743e-01 -1.098213877292631979e-01
2.032585185789065330e-02 -2.700959274761632889e-02 -3.457281074496236783e-01 1.118650667911292723e-01 -4.051410041916169158e-01 -5.259070208531623214e-01 3.608209436666339198e-01 2.060939298343544834e-01 3.239196183198819745e-01 3.926454480519240425e-02 1.754029895589839794e-01 -2.584673537106162433e-01 1.604052945692348298e-01 -7.809919621901070808e-02 1.325337193560003068e-01
-1.399425269203212994e-02 1.234264515553033376e-01 -4.074162601367737890e-01 2.809986311361856171e-01 -2.780430081228120187e-01 -3.829376571776516580e-01 4.168744033789607006e-01 2.444861992357049707e-01 2.128313252388218391e-01 -4.082369643014197025e-02 1.828123549217880728e-01 -4.315206712356384200e-01 1.048362657054381086e-01 -3.515064994376732033e-02 5.739768250083655821e-02
2.373188917378191432e-01 1.697683709591335799e-01 -5.599175141571018921e-01 1.417128486386421138e-01 -1.083137021513134041e-01 1.389262994781129690e-01 4.577391926250623522e-01 -2.840007468896537518e-02 1.859848203624415164e-01 2.417574728879560431e-01 -6.454319496696836467e-02 -4.076135554037679798e-01 1.488619637197110546e-01 2.323569710619155237e-01 -2.007167999589943089e-02
1.867654611828233058e-02 -2.817331717786971182e-02 -3.447286296922519311e-01 1.093406723677160935e-01 -4.062504847598609747e-01 -5.252752267976382727e-01 3.605272563296362809e-01 2.062752970035141020e-01 3.250627244471424038e-01 3.957542430389360960e-02 1.762935275476339159e-01 -2.572496191350353012e-01 1.614016131797560982e-01 -7.840780648321572788e-02 1.337695436446242336e-01
-1.944108414495734904e-02 6.821974285671199290e-02 -3.964395443886263859e-01 2.840864404731031634e-01 -2.851298111923729062e-01 -4.602848639727165625e-01 4.252715982450339105e-01 2.463874715779024449e-01 2.196158304885307555e-01 -5.206568002506368337e-02 1.300821051131559603e-01 -3.621216093946464931e-01 1.013867030383670403e-01 -8.499360097134106562e-02 7.665684183901251558e-02
1.203132806559864959e-01 -5.078877595315201693e-02 -6.085315787180777258e-01 7.165273311411476942e-02 -2.442007219012633235e-01 -1.549692729491013998e-01 5.604911469293568649e-01 2.495018859652115353e-02 1.268134179445057092e-03 6.634992682968882116e-02 -3.874828811353450697e-01 9.723053123969332967e-02 1.968285310098093766e-01 5.796447702075977620e-02 -5.455346821242137295e-02
2.631287992808674023e-02 -3.228702963087611011e-02 -3.426927488202212158e-01 1.087482436852515999e-01 -4.067258324540575787e-01 -5.309325462132465923e-01 3.570683511389752818e-01 2.024104069440143261e-01 3.284300867968282245e-01 4.338180551871178431e-02 1.725831964819196096e-01 -2.518346439498703737e-01 1.602429603846538542e-01 -7.979924118377272613e-02 1.349738938446605752e-01
2.773355779771662089e-03 9.204828285501230611e-02 -3.899014164499680635e-01 3.002392736322829214e-01 -2.725366260679235042e-01 -4.509047186660375406e-01 4.228254771557691805e-01 2.199533735397065093e-01 2.206482631100968039e-01 -2.273370057717302023e-02 1.112406405743460031e-01 -3.906668208854183755e-01 1.125525813427373234e-01 -8.653318949229997503e-02 1.012271650831635117e-01
1.672596558558976376e-01 7.304981449778602531e-02 -5.626515708583895714e-01 9.937906473291489851e-02 -2.385755839065426265e-01 -5.756561057610608961e-02 5.347709399132626329e-01 -7.406439255814688261e-02 8.933717196752552492e-02 2.404179903724253387e-01 -3.661446436441395114e-01 -1.250164857517403194e-01 2.561089885519275411e-01 4.929513297980107206e-02 7.101095639876170429e-02
3.302742119589717473e-02 -2.688503095277931798e-02 -3.461248988040212526e-01 1.152007165759897367e-01 -4.051151925217463257e-01 -5.327151341854768907e-01 3.580444126557190687e-01 1.996571172194585297e-01 3.232172183802599075e-01 4.488838446051170161e-02 1.685299189790394891e-01 -2.556738784781972806e-01 1.593315945360881947e-01 -7.773747151841275960e-02 1.321543039630342087e-01
5.458234150229011178e-02 1.022057344229646558e-01 -3.878889966079860918e-01 2.844188894643506216e-01 -2.972435095320024590e-01 -4.672402746256397177e-01 3.999328169593948656e-01 1.950776477254559660e-01 2.333868949615215682e-01 5.996096211091834355e-03 1.227105697378826354e-01 -3.914806268215519358e-01 1.184716503232060708e-01 -6.407976760977604491e-02 9.793846537706873967e-02
2.148497066133975564e-01 1.431928586907819101e-01 -4.664082739645594167e-01 1.294997539266143083e-01 -2.692109707390153983e-01 -8.785298533643602636e-02 4.875163823613674063e-01 -8.411284411653238702e-02 2.309919946880831521e-01 2.897334721867235174e-01 -1.874803484618319527e-01 -3.135367617417023633e-01 2.836105545133622563e-01 8.924789066014450489e-02 1.221947459047731804e-01
5.521791745848097371e-02 -1.792680154212291863e-02 -3.519392577061931093e-01 1.273000291884526514e-01 -4.036202643844175042e-01 -5.399233451806797479e-01 3.562762090143183902e-01 1.902007435690910853e-01 3.143261776484156944e-01 5.103221062476012704e-02 1.576080819888225348e-01 -2.588948740492853506e-01 1.564466837894007145e-01 -7.291170024784920933e-02 1.263475353139955071e-01
5.455900179476527029e-02 1.342289953924843127e-01 -3.919640162914211912e-01 3.115274075647601615e-01 -2.772607505838797781e-01 -4.425095373352606054e-01 3.966436211145653590e-01 1.958541993217007837e-01 2.121793539618190005e-01 -7.068156529930022525e-03 1.335296312428982390e-01 -4.214343642864719630e-01 1.055827776466738838e-01 -4.864542607092495891e-02 7.698252437363196921e-02
2.163880942985812461e-01 1.892404523559675367e-01 -4.320073004929635418e-01 1.615392690470900949e-01 -2.665597699834300616e-01 9.114579249729433299e-05 4.061706882822241349e-01 -8.000082957722152999e-02 2.655487248073417628e-01 2.708498503868482232e-01 -1.187476351498198412e-01 -4.396403662190897510e-01 2.541024554284331827e-01 7.318024500429154422e-02 2.025494887740192096e-01
4.716640568205846679e-02 -1.643167536625819367e-02 -3.530075922568594038e-01 1.277920369015488888e-01 -4.021203169512037601e-01 -5.356556064381604587e-01 3.591810055044480920e-01 1.947532734144905575e-01 3.131672069245473033e-01 4.688227195471306868e-02 1.614680077840800199e-01 -2.629484993082301658e-01 1.565111390967774130e-01 -7.286552609470560438e-02 1.253078441345511218e-01
-1.051137338704433502e-02 9.606721272361666564e-02 -3.773220255367961684e-01 2.846695884800288789e-01 -2.758854692053260838e-01 -4.260107780262095134e-01 4.046336940333302712e-01 2.335319496763697267e-01 2.559877732884119350e-01 -2.990715538016317648e-02 1.759497091651300860e-01 -4.123293326750487320e-01 1.050622201557422919e-01 -6.790067576346292544e-02 9.133353436598957986e-02
2.544460822554594492e-01 7.724461265068215121e-02 -4.579414139167737874e-01 1.004674097815077549e-01 -1.945529005189695071e-01 1.816785672074291147e-01 4.130133743660410750e-01 -5.090728913179375786e-02 3.178765486812775154e-01 2.759739665324965618e-01 -1.249950358792313171e-01 -4.005804691568626286e-01 2.644433682357718585e-01 8.779107885012021883e-02 1.858055958764543159e-01
2.449582349959914321e-02 -3.239871367630022675e-02 -3.415223158842601303e-01 1.090760271736038178e-01 -4.052758267430042749e-01 -5.308487687788986387e-01 3.573759355705852236e-01 2.021820720004469940e-01 3.295780027767677423e-01 4.379709119213016227e-02 1.728129859185885964e-01 -2.529032743547957041e-01 1.604193225131232137e-01 -8.083187608560751802e-02 1.361570960062323254e-01
1.305311557774398168e-02 9.793984889719624387e-02 -3.963500348425785247e-01 3.152526775951687843e-01 -2.432974797759064611e-01 -4.179425390061962675e-01 4.084179900671938701e-01 2.398432684909279078e-01 2.417791583260478494e-01 -3.439827936240490852e-02 1.670061245791394089e-01 -4.175902024451445538e-01 8.182476248087337811e-02 -5.709182362217404827e-02 6.076454365217857229e-02
4.437179861663691494e-01 -3.430842401621909954e-02 -5.760321630633810086e-01 9.144835772059313472e-02 -6.659617811813348109e-02 1.223682762667521046e-01 3.776163621121936820e-01 7.770164024388112817e-04 2.763001951369093434e-01 2.843388877130620940e-01 -1.041702118790612669e-01 -2.340973591895638140e-01 1.521237215335173310e-01 2.159517314010457323e-01 -8.448357618833521321e-02
2.025890744863139206e-02 -3.137483248221074189e-02 -3.422451038790018107e-01 1.101053828806755341e-01 -4.038795590890024712e-01 -5.289073413105925825e-01 3.590852354928874002e-01 2.045489566448839003e-01 3.284700957680094513e-01 4.154428766836148340e-02 1.744137166498001545e-01 -2.551156030037556866e-01 1.602526908156736152e-01 -8.097923294148763607e-02 1.354434418746560398e-01
4.507214727513362412e-02 1.022820023192881345e-01 -4.247128303591135579e-01 3.225266879051198465e-01 -2.482917037864237619e-01 -4.239000016345068622e-01 4.042092189835232441e-01 2.541661643226100775e-01 1.999633768237226161e-01 -5.492149178396624198e-02 1.587537715517831627e-01 -3.993831467188512230e-01 6.877179398617515316e-02 -3.299283023865781650e-02 1.573088730837005067e-02
5.089292232962463469e-01 -4.335784294412956680e-02 -6.300152405093536467e-01 1.467678975807242270e-01 -8.955620880747927615e-02 -9.370737326723627136e-02 2.957534448327061583e-01 1.429148196096104717e-01 1.098190352377923368e-01 8.898936834273601937e-02 -5.361151883188756267e-02 -1.084879937675488210e-01 7.131247639482173224e-03 2.775589542948075916e-01 -2.902447178451690313e-01
2.464005332964001871e-02 -2.353371820786087296e-02 -3.479305085198042269e-01 1.171071529939461953e-01 -4.031384133164612193e-01 -5.278994328815691528e-01 3.615316441651875712e-01 2.044114155581761849e-01 3.203656016365981629e-01 4.001044204623219191e-02 1.724856021069058332e-01 -2.608717736959701439e-01 1.593112402525190541e-01 -7.714097831374812364e-02 1.304248386258358705e-01
4.135160648013771340e-02 1.214043325157621867e-01 -4.255601496405293505e-01 3.224370797953044487e-01 -2.638556054943277385e-01 -4.280642635543814856e-01 4.018937539871473841e-01 2.497947341588973302e-01 1.686365948814393390e-01 -6.424504263156724515e-02 1.532593461742819130e-01 -3.987530635838370530e-01 7.591088086282780922e-02 -2.850090056267918712e-02 8.729581830481477137e-03
4.633832223621921487e-01 -6.096942557132659611e-03 -6.403932384152885016e-01 1.676142078366028298e-01 -1.513653923621276209e-01 -1.843944828258280710e-01 3.056588212607930233e-01 2.040129666470466008e-01 -1.822929931327556263e-02 -3.273908277203556316e-02 -1.089278083576000339e-01 -8.770869799518019039e-02 3.412121624461699615e-02 2.348245178343092432e-01 -2.789450332338385685e-01
2.844419920351469455e-02 -1.978646122884032341e-02 -3.513947405536360646e-01 1.202216875153187675e-01 -4.035749467216226960e-01 -5.272070453269837031e-01 3.624635346169175487e-01 2.040939987609445283e-01 3.159994976642996889e-01 3.954907862549501135e-02 1.711271696996874425e-01 -2.633903241075882251e-01 1.587035084876214364e-01 -7.454765868127410933e-02 1.272430151978886925e-01
1.437634510674328653e-02 1.322128792427407218e-01 -4.231207391709634336e-01 3.072654036087583695e-01 -2.748261077187471035e-01 -3.989279835581873157e-01 4.138461322271350107e-01 2.433372792830371667e-01 1.732166772373490704e-01 -5.641260668616709245e-02 1.593796721273773864e-01 -4.192489723162251547e-01 8.868346292357050242e-02 -2.864751707495919592e-02 2.592087810663583694e-02
3.142896297653918758e-01 8.050302525302276135e-02 -6.638078425363697077e-01 1.637011176634623755e-01 -1.850530641522886710e-01 3.128321271046986124e-02 4.575767034578023251e-01 6.283264475195871057e-02 2.884827025694178260e-02 9.038872958602645058e-02 -1.727516085949474256e-01 -2.669804610648762178e-01 9.326681269367566307e-02 1.997132462896585303e-01 -1.415860797443463104e-01
2.491326170046059482e-02 -2.133090947918235905e-02 -3.498996349639709735e-01 1.176369819396176353e-01 -4.041382915121809472e-01 -5.258758445427671457e-01 3.624575450902837725e-01 2.051060847961293510e-01 3.180267429769055854e-01 3.904480799737418406e-02 1.729587236965366148e-01 -2.627727983114981347e-01 1.594681816204674418e-01 -7.540716355023473205e-02 1.288132597676074631e-01
-3.464198180625093805e-03 1.358738348482404490e-01 -4.122672413393839719e-01 2.899356428757966508e-01 -2.700575751639588407e-01 -3.840498791754879404e-01 4.171254924670537712e-01 2.368688289474471798e-01 1.977988802544531355e-01 -3.555640871420677473e-02 1.772887710786396898e-01 -4.380092373913316850e-01 1.027073438520455101e-01 -2.632042175991603297e-02 4.538506525510151157e-02
2.395991588630490554e-01 2.241463849060079672e-01 -5.646138019096110794e-01 1.763310907810910488e-01 -5.397261312521543092e-02 7.267687182310318683e-02 4.215431697242773001e-01 -5.030226412670563835e-02 1.655048447955267954e-01 2.575591765589607673e-01 -3.548815068778813503e-02 -4.143057795822004397e-01 1.293595499806639293e-01 2.608764676674321659e-01 -5.116262767861376459e-02
2.000682533591616186e-02 -2.457485974791122699e-02 -3.473667509717498492e-01 1.127652649697850479e-01 -4.053734676114659208e-01 -5.246028791411891934e-01 3.620106888295389069e-01 2.064009508598392828e-01 3.212887587602247241e-01 3.887407303288342025e-02 1.753794362926906769e-01 -2.604432177707524665e-01 1.609841893331222795e-01 -7.682753870126207696e-02 1.314631576511347544e-01
-2.673172301365988116e-02 6.951705154522602736e-02 -3.881618482346275711e-01 2.736463668484528378e-01 -2.923551829561714110e-01 -4.649944180780924974e-01 4.227263411493769607e-01 2.369361185190152486e-01 2.293004530699616350e-01 -4.244232172860944868e-02 1.363052107491175835e-01 -3.645917791475342118e-01 1.075492868561440107e-01 -8.636276648192105221e-02 8.637993702577201338e-02
3.054572174920387739e-02 -4.010562933665139107e-02 -5.844949979143669871e-01 1.020903933368015604e-01 -2.555176880131098116e-01 -1.499965978851096338e-01 5.872782351098968512e-01 -1.211562683672856751e-02 3.278200084943044129e-02 8.287930675948293469e-02 -3.931091819425999168e-01 5.946121098410021150e-02 2.154596172525016506e-01 9.369379183460290958e-03 6.791813223274073552e-03
2.795149708435093472e-02 -3.356739531896538176e-02 -3.417468578257070733e-01 1.075362315892174903e-01 -4.074370128143905978e-01 -5.320859038123496587e-01 3.560080360256722698e-01 2.011215338291814370e-01 3.297067541865779106e-01 4.477401221315700092e-02 1.718389352232725653e-01 -2.500988769442420989e-01 1.604686577946344284e-01 -8.014800387102294366e-02 1.358743898615164536e-01
6.404960086562154487e-03 8.113461413489608809e-02 -3.875686616964189035e-01 2.837188991541585992e-01 -2.849433722215229947e-01 -4.506679262148357568e-01 4.173610167334146359e-01 2.170322429067114423e-01 2.462267080212020842e-01 -1.478122835409813665e-02 1.304142399082204307e-01 -3.886226422102782019e-01 1.092887001478885373e-01 -8.019623211813028951e-02 9.912511123594051898e-02
1.393455556063170619e-01 2.928256831448277156e-02 -5.641393988804513926e-01 8.096035267518122969e-02 -2.466461629599444316e-01 -1.145650947688723990e-02 5.360627985465419298e-01 -9.724827322674411967e-02 2.004788256966246462e-01 2.527102630039765319e-01 -3.164274296738405212e-01 -1.551971835342470518e-01 2.423051840345660235e-01 4.921344906666546420e-02 8.792547367823289051e-02
3.445444002312469944e-02 -3.027267229367233692e-02 -3.439238153459518443e-01 1.124081819389028958e-01 -4.061024724293157417e-01 -5.343584705965294113e-01 3.560706030779010600e-01 1.983964560170682345e-01 3.266327458706252962e-01 4.661149470136186773e-02 1.682554072011569757e-01 -2.522482774611821132e-01 1.594359276688468996e-01 -7.883041566413090395e-02 1.339288553108083091e-01
5.605734185525911711e-02 9.743767375501351247e-02 -3.787774679730124272e-01 2.814879586694241098e-01 -2.907916262998394563e-01 -4.698173867997980646e-01 3.953279166601185723e-01 1.887771707438403723e-01 2.555093508266950142e-01 1.413735435931140136e-02 1.313650340291198648e-01 -3.949492545713068625e-01 1.171469146106274006e-01 -6.519927700426034201e-02 1.036608892606195459e-01
2.073296430039336946e-01 1.455438543708825472e-01 -4.351104414946254106e-01 8.437985800417140136e-02 -2.477484166759993667e-01 -8.383531714763420295e-02 4.358238144154266691e-01 -1.309339268932400990e-01 3.202326976385599377e-01 3.228869079897580541e-01 -1.470582843766055081e-01 -3.220942940853379066e-01 3.121565866573575709e-01 1.036526700983792099e-01 1.534118645216097920e-01
5.333370318715430214e-02 -2.175398755338429219e-02 -3.490149077357475038e-01 1.246244907293756893e-01 -4.033788617540679522e-01 -5.408163567104801173e-01 3.549613181749068924e-01 1.903519248675636377e-01 3.187908503665466964e-01 5.159564773411311894e-02 1.587460625606476605e-01 -2.564684441730207820e-01 1.564238278253739234e-01 -7.495392378385344612e-02 1.286809354254115911e-01
4.437878407264159164e-02 1.192818325512032818e-01 -3.751468562464261303e-01 3.018308651728416891e-01 -2.738305263713431970e-01 -4.579655167745234623e-01 3.906850341464785381e-01 1.958558756592322370e-01 2.411127337592609832e-01 -4.071537696801446476e-03 1.451022912843900614e-01 -4.164907842213468880e-01 1.082510254907792235e-01 -5.929183865195231801e-02 9.138084390804789015e-02
1.944741005851130800e-01 2.064225526428177249e-01 -3.665671042784902633e-01 1.114842206830421872e-01 -2.499870925775108388e-01 -2.694722239076598191e-02 3.730031134774650647e-01 -1.285325143922201596e-01 3.147794486850507001e-01 2.934728468076224228e-01 -1.073166494387989556e-01 -4.327392206321388768e-01 3.186865744233548514e-01 9.191857953512044821e-02 2.447347216118829771e-01
4.348846546601467522e-02 -2.406574266499555970e-02 -3.474669506193317492e-01 1.214005563922190556e-01 -4.027602549123659448e-01 -5.372819608218273313e-01 3.566041188180613108e-01 1.948945155947754415e-01 3.213465484221443846e-01 4.828368813549212268e-02 1.634369753694648875e-01 -2.573005190016174892e-01 1.571984879810573443e-01 -7.662238657389078278e-02 1.301062755626536394e-01
-3.627644812098951982e-02 6.517320111447577613e-02 -3.604156582551941157e-01 2.432222176040427231e-01 -2.936909338134938707e-01 -4.426623679284779067e-01 3.999171846365846550e-01 2.424321756061779409e-01 2.873084948277736528e-01 -2.894024103719622376e-02 1.956610561021258909e-01 -3.879099559208297743e-01 1.203424577162146014e-01 -7.736220973621568686e-02 1.089046291116112092e-01
2.047709577828399075e-01 1.139734592861229440e-01 -4.220584899592463302e-01 1.755701081153411168e-04 -1.935944329083091886e-01 1.420456933817057510e-01 4.032382779372994941e-01 -9.598597393245625331e-02 3.104172400433949930e-01 2.916188607849933834e-01 -8.382915921909397938e-02 -3.828217796422984098e-01 3.853147856090566314e-01 1.547830718556375829e-01 1.734063351810918585e-01
2.094050450688740225e-02 -4.182208617633971504e-02 -3.349197875204942831e-01 9.941280777900718402e-02 -4.077627319135192496e-01 -5.321249144216442239e-01 3.536666365390767619e-01 2.017257091783715428e-01 3.385496580425341184e-01 4.606966738134755240e-02 1.747096422616413181e-01 -2.443566038317094569e-01 1.620478957840918444e-01 -8.462588724535506646e-02 1.420019748333097021e-01
-1.420388903299836872e-02 9.325520798313498283e-02 -3.892082533563218649e-01 2.728946860407822639e-01 -2.694837636157492722e-01 -4.260229199652735832e-01 4.141916467858527962e-01 2.382200909166836411e-01 2.473563179865978512e-01 -2.613963923402333120e-02 1.823079418373623473e-01 -4.089803955271191782e-01 1.102714081549344693e-01 -5.363152451807653986e-02 7.294436338975890388e-02
3.311206098726845459e-01 1.020630125638573443e-01 -5.438924590012217397e-01 3.392717707532431903e-02 -4.066628948295553103e-02 4.773314369301357579e-02 4.068999441015269669e-01 -8.547716973922828143e-02 2.193601525250852280e-01 3.387330260930231374e-01 -5.084371998927689901e-02 -2.805817696576063391e-01 2.880216080886691121e-01 2.730432930310128792e-01 -6.698411986390034878e-02
1.960197701696658745e-02 -3.549648831027742840e-02 -3.396138037453996783e-01 1.043878429549892073e-01 -4.066327205676437684e-01 -5.293695894455496820e-01 3.572530466499335700e-01 2.037300214606804771e-01 3.319315154620080532e-01 4.331885730962808934e-02 1.749040801011513546e-01 -2.504193147528943619e-01 1.618775284840387185e-01 -8.203524461182479244e-02 1.382496702815203260e-01
3.475478898222117419e-02 1.065293880309226282e-01 -4.165896775134646512e-01 3.107744852155633342e-01 -2.648589940326283032e-01 -4.379925790614325187e-01 4.094766673169782378e-01 2.305444321284309261e-01 2.042832211206209170e-01 -3.237192909607336522e-02 1.503768956908229093e-01 -3.992501573997011000e-01 8.237538035397691527e-02 -4.185421576444057351e-02 3.428174338704459423e-02
4.106400981838008724e-01 -5.327535363175806699e-02 -6.676592740490776556e-01 2.512840819799470604e-01 -3.189457672028623431e-02 -1.227972112620427242e-01 3.782517307806858575e-01 1.127002031600373849e-01 1.574867985350861255e-01 1.204066800848947461e-01 -1.177909276441987674e-01 -9.054042015876892502e-02 -2.033987988867978075e-02 1.815684635281211157e-01 -2.302146288323389522e-01
3.132299430958506575e-02 -2.304060124713170829e-02 -3.485046046694805777e-01 1.179373651812772178e-01 -4.042656226900087080e-01 -5.305268374035343459e-01 3.602688068667546650e-01 2.008129806846401244e-01 3.196182611045422228e-01 4.319293716816636347e-02 1.690564416349456534e-01 -2.595025606376160643e-01 1.592918814524225402e-01 -7.635593080529301524e-02 1.302581286472714317e-01
5.144187080378265914e-02 1.275420853085980355e-01 -4.261414084671895641e-01 3.213855906317007460e-01 -2.730077479200477275e-01 -4.322336227308850587e-01 4.027596849999480200e-01 2.300713666858976991e-01 1.696010420847747779e-01 -4.469265119329009911e-02 1.435855482079476109e-01 -4.014378649567421076e-01 7.834897009893704301e-02 -2.828297052168672263e-02 1.498721770751626665e-02
4.080746011344787427e-01 -1.197298903141806418e-02 -6.597418002610500043e-01 2.945504011906089903e-01 -1.240681884839300447e-01 -1.460272745637237468e-01 3.506363288374023668e-01 2.056671762180454777e-01 8.447434326912288405e-02 -1.089760326636063370e-02 -1.200154025992567208e-01 -1.351649360655041154e-01 -5.539827973839275832e-02 1.472203969633851250e-01 -2.113767699977864567e-01
3.652532703052563390e-02 -1.577411272581769400e-02 -3.543745704835072341e-01 1.246502469163437710e-01 -4.036464263261689278e-01 -5.291640042091726448e-01 3.623498013143391372e-01 2.007644730882608974e-01 3.117422638295851423e-01 4.165230255695484551e-02 1.670843548349108254e-01 -2.650092544832094443e-01 1.578881078541425065e-01 -7.221318262049121472e-02 1.246622889395685579e-01
3.280538711099244970e-02 1.357172853342836494e-01 -4.255125060805635129e-01 3.124171897097988704e-01 -2.742962046513932606e-01 -4.117167542828450433e-01 4.099504116374845797e-01 2.309033714202164689e-01 1.689741656990197405e-01 -4.355288726227385387e-02 1.515862629613657919e-01 -4.169398622242423413e-01 8.632508186777231030e-02 -2.443567140208057972e-02 1.997355535363685639e-02
3.372939265052835034e-01 9.211719125041599454e-02 -6.543310602404733833e-01 2.831294061520220895e-01 -1.210093330525618405e-01 -1.847699501044101217e-02 4.202834636980461447e-01 9.079958269548303595e-02 8.855181981957715998e-02 8.817384807331940522e-02 -1.249684562188575071e-01 -2.781697046579820753e-01 1.116603091430334871e-02 1.834561611386495428e-01 -1.648515267337956058e-01
3.121355434602552173e-02 -1.752360416708154470e-02 -3.528577293241619284e-01 1.220268405369831222e-01 -4.036738447651335715e-01 -5.273322226546089952e-01 3.628275329226748891e-01 2.027873999725982590e-01 3.138383115230192200e-01 4.038993802728716581e-02 1.696262660507242281e-01 -2.648465361390497375e-01 1.586658687658317746e-01 -7.335323691952186365e-02 1.261862518054368831e-01
-2.609254470075429624e-03 1.315634158847965585e-01 -4.140763024953300064e-01 2.928908927046497968e-01 -2.661659412359881349e-01 -3.918622807772615957e-01 4.172193186934824438e-01 2.370265822145057877e-01 1.980250053875072802e-01 -3.510494818121100841e-02 1.774801253605499396e-01 -4.326963626480664904e-01 9.713906969342293862e-02 -2.660558660857633220e-02 3.834880369557344681e-02
2.607169879870762652e-01 2.057687248587233564e-01 -5.910147017404490111e-01 2.279720490326480054e-01 2.347973170691950925e-02 2.598301098302102652e-02 3.966314269020482230e-01 -3.365039883470438004e-02 1.864257198919979652e-01 2.551104665484109635e-01 -1.008590660561183711e-02 -3.657505007288776033e-01 6.369430823996241608e-02 2.715554226857982423e-01 -1.312655036751637638e-01
2.011925429422601122e-02 -2.473723214417173147e-02 -3.474000066207619808e-01 1.128569771498360574e-01 -4.052292970885017498e-01 -5.247995818336156360e-01 3.620431867263774195e-01 2.063175522871889545e-01 3.213052520443419047e-01 3.900893151898070232e-02 1.751808627458686374e-01 -2.603426190681667474e-01 1.608945391119430690e-01 -7.690652060006261670e-02 1.313970927402744182e-01
-1.703217344716506307e-02 5.157080243765801986e-02 -3.886195348549429385e-01 2.686604982962347288e-01 -3.005725114495370609e-01 -4.740883403311338951e-01 4.152365924151765753e-01 2.388102529166351295e-01 2.445971687935078187e-01 -3.998738251863667020e-02 1.366717880013819664e-01 -3.505046317298280978e-01 1.000696384803050343e-01 -9.156480372649297705e-02 8.907250677489553237e-02
4.412776647419357906e-02 -1.329181211437663046e-01 -6.043497349756596915e-01 1.972098419782101208e-01 -2.826917209708360579e-01 -1.330835055781255938e-01 5.556705150835752338e-01 5.323017418676738444e-02 9.826206320400851513e-02 1.840733289739374112e-02 -3.665426059691584970e-01 6.787007881719261948e-02 1.244483132014963661e-01 -5.062936218459746646e-02 4.623903874341235218e-03
3.193801208161409222e-02 -3.477089398294604811e-02 -3.411703829704373914e-01 1.070993652322930062e-01 -4.081970674523880405e-01 -5.342437642165570599e-01 3.545105552058535059e-01 1.989464162947859605e-01 3.306565762500695560e-01 4.688344334361331522e-02 1.699502030711340372e-01 -2.478619765121004015e-01 1.603069341671681525e-01 -8.029848613081531916e-02 1.364117614360495223e-01
1.957308999541675434e-02 5.664751945089821494e-02 -3.888236292970284613e-01 2.803458412784947673e-01 -2.855954287034971339e-01 -4.529575145734713870e-01 4.079363329724312037e-01 2.254502537005220186e-01 2.762397628526288562e-01 -1.657740985946920195e-02 1.433556155606544036e-01 -3.767587029661794706e-01 9.260229442875848871e-02 -8.038456508564804925e-02 9.239689712950248379e-02
2.247117722787448091e-01 -9.825794134650082945e-02 -5.872331933741173904e-01 9.778197695958160129e-02 -2.498849831779749175e-01 5.914915021917731969e-02 4.931132381285429078e-01 -5.616863173991785974e-02 3.414809396886458459e-01 2.216539142803885809e-01 -2.448524949387973493e-01 -1.242617017777614408e-01 1.574242722320398913e-01 8.102142826068352288e-02 2.662465636285952716e-02
3.423533667641449896e-02 -3.403631545447662748e-02 -3.414664396458287898e-01 1.098143593346650876e-01 -4.063289965623672617e-01 -5.355956379066444395e-01 3.543780827989180260e-01 1.980581321434765341e-01 3.304726838964121005e-01 4.751255135226978982e-02 1.686764478506818377e-01 -2.491273846972859030e-01 1.592353851118425145e-01 -8.040986058669771785e-02 1.357448680776801586e-01
6.104932990361042894e-02 7.606714691271310169e-02 -3.733057882636165448e-01 2.795395209423705007e-01 -2.801519444603699505e-01 -4.778559733030728895e-01 3.902049825612765033e-01 1.912007612073681195e-01 2.860881912282661199e-01 1.731412893464262179e-02 1.398004873822858984e-01 -3.859391441044061621e-01 1.070458240904194058e-01 -6.938087918506928575e-02 1.021085900094142046e-01
2.622460890769338082e-01 8.198461723641579935e-02 -4.569215578083032914e-01 2.860121333796095122e-02 -2.297208645179699693e-01 -7.730009988941223542e-02 3.667353723768946860e-01 -1.555726012455649343e-01 4.049434524357826137e-01 3.499062451709173960e-01 -1.396186632452654508e-01 -2.390273227994021976e-01 3.085936096734852030e-01 1.629557382041183500e-01 1.124274097421416596e-01
4.916945061979728637e-02 -2.760348392349975047e-02 -3.448936119707240455e-01 1.202036867411236526e-01 -4.031499713821677378e-01 -5.414591638519293815e-01 3.534124296697939704e-01 1.914027592009246714e-01 3.250798172594623892e-01 5.177625584050860735e-02 1.609061944543224432e-01 -2.527916046407385209e-01 1.565560116231835830e-01 -7.801210272201490603e-02 1.320183915284799114e-01
3.904211089511070570e-02 1.029957755691275623e-01 -3.680182125097902213e-01 2.966725725995548180e-01 -2.684037673706658467e-01 -4.678871220473402315e-01 3.864405192435984016e-01 2.044631540254150115e-01 2.614377788133449565e-01 -1.001218911764852580e-02 1.572198390723505423e-01 -4.076579916940936132e-01 1.041645918584765823e-01 -6.339047252109880626e-02 8.996376949064149864e-02
2.301628383921580645e-01 1.974237890829871056e-01 -3.427570383103594742e-01 5.547337228612404109e-02 -2.440059900666794734e-01 -3.804521618403067240e-02 3.168677970734084526e-01 -1.660157740608829702e-01 3.681813762242500676e-01 3.007136365076434892e-01 -9.533446978052943777e-02 -3.739405337943662588e-01 3.855956772095126550e-01 1.872188652796392683e-01 1.997375841927499229e-01
3.835911821592501852e-02 -3.003053059604793990e-02 -3.433573169585821816e-01 1.162250903839616573e-01 -4.029562348620343015e-01 -5.372347363103623374e-01 3.552090241710782470e-01 1.964444426231692631e-01 3.275429456102547654e-01 4.808528106361460719e-02 1.661276835176239142e-01 -2.535053236659748910e-01 1.576398261212020591e-01 -7.957353987582799215e-02 1.335038301903239966e-01
-2.892176141985727464e-02 7.022765950064915885e-02 -3.646641686892623802e-01 2.452044402504189868e-01 -2.914200743339047106e-01 -4.506324318471597312e-01 3.991282005543266842e-01 2.429071440200421261e-01 2.766759174294795010e-01 -3.196933645161348370e-02 1.968115368154950140e-01 -3.872872982264997654e-01 1.208402252939856092e-01 -6.890382287481869317e-02 9.579172018700096713e-02
2.243300685184431431e-01 1.597597842219952158e-01 -4.009478292828339563e-01 -2.360978087053592148e-02 -1.860172596215440011e-01 4.967813623416952179e-02 3.571584843826278721e-01 -1.354623952632708073e-01 2.526063452751182159e-01 3.020269740221361299e-01 -2.995401646556332398e-02 -3.569105979168228360e-01 4.640136691133665003e-01 2.774110405214900155e-01 6.538669058351687102e-02
2.177320918731744798e-02 -4.054355705438966034e-02 -3.360451224150668992e-01 1.009141352635621325e-01 -4.073563731667384502e-01 -5.320629081471244248e-01 3.541671922736300271e-01 2.018782937287738888e-01 3.371970600896797565e-01 4.570346001326305169e-02 1.743948709377853012e-01 -2.455747269374392028e-01 1.616825470912302554e-01 -8.396625939995565335e-02 1.408900349177000244e-01
-4.042069600339199924e-03 9.969742610501829139e-02 -3.937763160932096773e-01 2.605839104223663383e-01 -2.833562276451749296e-01 -4.368165387784420095e-01 4.125523675702479354e-01 2.330668822432943599e-01 2.334285964211738895e-01 -2.239825035945104681e-02 1.819500203677611727e-01 -4.034336517723615123e-01 1.212897215877560275e-01 -4.174836174375666509e-02 6.443617555893281501e-02
2.823610305575315338e-01 2.018854693270231704e-01 -4.929402898444247283e-01 3.820225622868658050e-02 -6.781170599947716759e-02 -8.344361274964008646e-02 3.875404694357752478e-01 -1.042334233001812188e-01 1.429461361751266646e-01 3.152292432130348598e-01 2.464869528409388555e-02 -3.128751827078450898e-01 3.503298206069607734e-01 3.269641671819052409e-01 -1.204716415443196770e-01
2.466660891198680511e-02 -3.320713119379981731e-02 -3.417074483452853806e-01 1.064776049752914761e-01 -4.073685351250146969e-01 -5.305224015117182557e-01 3.571586120089824123e-01 2.019764596332298268e-01 3.292036730827981872e-01 4.450576594116888857e-02 1.726552629399080441e-01 -2.510515364686608519e-01 1.616674063319760990e-01 -8.032128504631148858e-02 1.365543242595562146e-01
3.806836550326513774e-02 1.048301552771515877e-01 -4.133714852981608123e-01 2.968656854158903680e-01 -2.819586650432361896e-01 -4.475314745042865416e-01 4.079781129491247271e-01 2.214461130869364025e-01 2.081496140137669426e-01 -2.182209808492798636e-02 1.494731964039499594e-01 -3.935461197533707267e-01 9.293630762936838652e-02 -4.232537753420453908e-02 4.283388251592439022e-02
3.501108152812363317e-01 -1.144765436478079219e-02 -6.550464754825765512e-01 3.087946511985413256e-01 -4.128208818747596681e-02 -1.458221574408260501e-01 4.275468804827968761e-01 8.317527844010301485e-02 1.754442111820197769e-01 1.412654924686764513e-01 -1.098943818031520997e-01 -1.279647094030036680e-01 5.551913276218730514e-03 1.452034281336179178e-01 -1.996631171116247383e-01
3.759003684807945417e-02 -2.263841021175152027e-02 -3.490900545213821426e-01 1.186454690071463980e-01 -4.054021595248310517e-01 -5.328402017712057237e-01 3.589134306435189936e-01 1.977999588311611379e-01 3.189225128838653056e-01 4.578053928479165063e-02 1.661881182793387146e-01 -2.580808507241910132e-01 1.591329545558577974e-01 -7.547251040968011582e-02 1.298829158433124353e-01
5.397719700770484824e-02 1.163801946051342823e-01 -4.205884140491155665e-01 3.080812398492601689e-01 -2.869919460422386548e-01 -4.439737848452869340e-01 4.010110633818730341e-01 2.231068511265434096e-01 1.876002876198123726e-01 -3.203766529637765148e-02 1.438216388426416803e-01 -3.940986619562368287e-01 8.585160827357921076e-02 -3.462782334203071133e-02 2.969049628932865850e-02
