3.177462958504635449e-01 -4.664323454821694970e-01 -4.868025011306916783e-01 -3.239171103249346029e-03 2.936591635815838930e-01 -9.692142378232558586e-02 -1.681275126106148154e-01 -3.794942896635133400e-01 -2.839870517235759673e-01 -1.595137891512338757e-01 1.719253679020965875e-01 -1.170086856957779642e-01 -1.177826526823666231e-01 1.145205741391466664e-01 -1.575987915214208113e-02
3.159159951708941927e-01 -3.237836109491967762e-01 -2.472848059572474444e-01 1.169956238042176994e-01 8.343945269601080184e-02 -1.187235283555876653e-01 2.182897816457750884e-01 -1.916423688296814420e-01 -2.769231720052591217e-01 -4.503905031236024592e-01 4.606538972256448705e-01 3.194080009671530079e-02 2.040126837846273911e-01 1.330936923960990559e-01 -2.509850173580014387e-01
2.957217090027610129e-01 -2.607859066827863948e-01 -2.047652344907078814e-01 1.403132597874990339e-01 -5.314389003782890759e-03 -4.046961028606965716e-01 1.706517359194229810e-01 -4.423448981060597585e-01 -1.971462320521543965e-01 2.294763359957066873e-01 -2.431603030604085058e-01 -2.717120971810636776e-02 2.225102352086345825e-01 1.512877416759369209e-01 -4.129582891136153733e-01
-2.866133413523068163e-01 -2.715827075390944145e-01 -3.989902192002814929e-01 4.200022713806926822e-01 -1.812906305392273081e-03 8.381499164053131390e-02 2.068953298542577091e-01 -4.107863989893666412e-01 2.659214281478154002e-02 -1.545266391516705584e-01 3.133685888755787796e-01 -5.946102840569816861e-02 -3.935444720184386735e-01 -5.642051092505495635e-02 7.442784297425662776e-02
-3.161518727418135416e-02 -2.641356077662743163e-01 -5.172707452152931484e-01 5.919375156766831444e-03 3.198772525808717404e-01 2.866885287840751362e-01 -3.040041861032798942e-01 -2.030616047665828039e-01 -5.938794447848650543e-02 -2.194213650028036811e-01 1.225628991296035530e-01 1.227067653099583600e-01 3.726774912987683708e-01 -3.157095744485398092e-01 1.521582802471974083e-01
2.276108630653351783e-01 -2.099169430541559245e-01 -1.666871754725836041e-01 -6.541699649630269842e-02 1.490815375686534439e-01 -1.338981517100684138e-01 2.645284290938838545e-01 4.661847101808361260e-01 1.591490820044206417e-02 -2.702632038965589456e-01 1.747754127975065519e-01 -4.411023668227964101e-01 2.800323160441499717e-02 -3.335423837924102464e-01 -3.662768776082715450e-01
-1.412611538620811395e-02 5.131011039293070092e-02 -5.354185890899011424e-01 4.320508182331116998e-01 1.742806341123388503e-01 -1.381957945105247165e-01 -8.839902998701422432e-02 -5.463892923034795457e-01 -3.690415208463339314e-02 1.486327129339539144e-01 2.227735693141579820e-01 3.036121693383689660e-02 1.827910772804232364e-01 -9.516396249894278764e-03 2.459525967708277860e-01
1.705422177175515142e-01 7.950756960421731523e-02 -5.015007688148354070e-01 1.518151563244597713e-01 -3.737613451913299190e-02 8.731152864013168313e-02 1.290995207612845030e-01 -5.158509662733429257e-01 4.137745940297019726e-02 6.191455946644208036e-02 3.801753071133227579e-01 -3.335031193546252881e-01 2.269572697121201854e-01 -1.996203891793773277e-01 -2.135248177122889557e-01
-6.544257568722509910e-02 -3.300742642966661422e-01 4.015810820166931111e-02 2.125525464799297715e-01 2.306787675705567961e-02 2.960058112774746619e-01 1.832817763863189009e-01 -4.593945286392511762e-01 -2.505003050752822036e-01 1.348191128818339996e-02 -2.655685672378873541e-01 -3.278771471238145496e-01 7.366277407343677086e-02 3.943382081877253725e-02 -5.091624476782324882e-01
-3.512143576240860376e-01 1.638134370736333556e-01 -3.873248741182210714e-02 -5.562281953232511844e-02 1.431662796204264398e-01 2.990355881300864049e-01 3.158587366251448814e-02 -8.163516038097473962e-03 3.021416300613006256e-01 -3.278441801090030694e-01 2.518399022766525941e-01 -5.715786198811525498e-01 -1.334184609892001550e-01 2.905730606213246525e-01 -2.076206559526999063e-01
2.492440126663364730e-01 -2.322748832037764902e-02 -1.250268927250081930e-01 4.256492674856410807e-01 -1.400033976303866889e-01 6.051664884696814073e-02 -2.797810716331367575e-01 -8.255870786762099789e-02 4.499625778765873885e-01 -4.962570325784633196e-01 3.044716268441345908e-01 1.598161266568057237e-01 -1.063652963505247462e-01 2.100124899315090887e-01 9.885305627803292472e-02
5.179894655655198354e-02 -4.864637211127127436e-01 -2.491180668887379990e-01 1.107145927647696787e-01 5.575129786555446665e-02 3.541287597424135070e-02 1.116414945879152659e-01 -3.693684636380536457e-01 -2.704646983849943176e-01 -4.040223345736406180e-01 -3.144938629789663098e-01 -4.424297647448576648e-02 3.360566956261341054e-01 6.626966273650032602e-02 -2.802113827680671743e-01
-5.853079308294695249e-01 3.487428288629330075e-01 1.879922141335357844e-02 2.709473451001656041e-01 7.579854807910486360e-03 2.668448880045432015e-01 -3.186062486383968717e-01 2.161945183922538150e-01 2.871777420698141126e-01 1.546598487920256282e-01 2.141563697584310255e-01 -2.423354600711158935e-01 1.623176221598906510e-01 4.116434469465102275e-02 5.909202105539761857e-02
-2.899005996134537133e-01 3.491393436348356194e-01 -2.993345935309142392e-01 -1.310712482321853278e-01 -2.165138904423204724e-01 -2.666115364335198273e-02 -8.837494848239908773e-02 3.483500351720286714e-01 4.994398246491283944e-01 1.494233627472419668e-01 2.562453554642378228e-01 -2.995162007329398857e-01 -4.892220108311925303e-02 -9.489576723228559940e-02 -2.683166502561773470e-01
-2.310611575635430071e-01 -1.228827449982112380e-01 2.153632261048220031e-01 2.630974162026098462e-01 -4.508443713732231961e-01 -8.223917793560403533e-02 -3.251741547636677887e-01 1.758360984295019580e-01 -3.122628006854405447e-01 -4.408930477845678930e-01 1.391437501078514605e-01 9.183408408100897369e-02 3.798768460675432945e-01 -5.669493705658298910e-02 4.492834647402056680e-02
-3.624679665557146158e-01 4.258515353725855768e-01 -1.861940091700199917e-01 2.932076293515612497e-01 -1.036422502985253763e-01 2.588449340321696823e-01 -1.377802383384399698e-01 2.761466871101683207e-01 2.080413978925149954e-01 1.053673633707218615e-01 1.111250314148481411e-01 -1.490329279100746293e-02 9.858023152466222072e-02 4.336963772362235625e-01 3.589996133179172988e-01
-1.953857439480425340e-01 3.682951363763525277e-01 -3.854552058092874378e-01 -1.836584058883291015e-01 -2.957874745491944068e-01 4.572858107284840656e-01 -1.369526589047402876e-01 5.862506250049281248e-02 2.912330798158064282e-01 5.921286284856858151e-02 -6.177408394971613259e-02 8.259458832478454304e-02 -1.042323273676001999e-01 -2.374475172540268242e-01 3.985938175934882199e-01
2.236698061521422143e-01 4.984067765787455334e-02 1.766816077570946830e-01 2.570966418690929234e-01 -5.233657059441552128e-01 1.595861021005732794e-01 3.903437642320313206e-01 -1.519376460614321189e-01 2.265439144218011625e-01 1.101003683138868372e-01 8.802077984936523825e-02 4.446970456223856560e-01 -1.506104911524444312e-01 -1.464414623498421220e-01 2.495275213349344434e-01
-5.808942124590124045e-01 1.521656744003207218e-01 -2.392973589298191817e-01 -8.127365505117392641e-02 1.478079450003814410e-01 5.142287205345292406e-02 9.732401038787844016e-02 2.257955133450742224e-01 8.391727123698777824e-02 3.941865198374153723e-01 7.709213440637968651e-02 -2.410473751457761493e-01 -9.763817803206890911e-02 4.236951109357517398e-01 2.739870349558027329e-01
-5.452357143911202852e-01 7.314517294788827617e-02 -1.125939414735320637e-01 2.546547596325035023e-01 -2.447202754807421554e-01 -7.445648112236578908e-02 -1.508947340390963676e-01 -8.851089608482826110e-02 2.754335317768988878e-01 1.195331860671201840e-02 -1.332119619492264928e-01 -1.885576056043089810e-01 -7.948214225929935151e-02 4.142931461638716950e-01 4.653429329869984699e-01
2.431297644787173140e-01 1.357355274035006998e-01 7.416088274829890636e-02 4.051665784064539810e-01 -1.714421187283979298e-01 -7.591591270414010939e-02 3.444773865715340389e-01 4.896728991851874713e-01 2.772823567293053459e-01 -1.002040324519542364e-01 3.939104996045227347e-01 2.620371963896956161e-02 1.817200388828953961e-01 -7.868773580072038754e-02 2.778700147810372889e-01
-4.941684969043195208e-01 -3.000494894792320455e-01 -2.751208884025859724e-01 2.808290735038126637e-02 3.609487472647310846e-01 1.129746783444818964e-01 -2.215457331764336402e-01 1.062611153883743081e-01 -2.372108486254194681e-01 3.953849876113350592e-01 -8.468028442150783708e-02 -1.007673064337672314e-01 -3.040140722973279641e-01 2.077242674518560150e-01 1.427215182996952880e-01
-2.911417987636600868e-01 -9.065878308475396052e-02 -3.032365576879968438e-01 1.575974592744092129e-01 -2.251601050650319236e-01 5.868863479270520350e-02 -7.094862559261276569e-02 -2.151153657762478189e-01 -2.544178774311895985e-01 2.268319810665012093e-01 -1.333792264213772005e-01 8.699855359487239370e-02 -4.794277751913891272e-01 5.424996289016466022e-01 1.381358128722589840e-01
3.153057194649915296e-01 -3.093247998080896066e-02 2.192842972684614922e-01 -3.114274312214478924e-01 -2.399860420290221841e-01 1.638128501077603938e-01 9.637398462440077695e-02 3.579998994899397657e-01 1.529737350623928405e-01 -1.667552514890057180e-01 3.553513649473591940e-01 -3.670550387183291741e-01 -2.190931133866104719e-01 -3.774088135845932862e-02 4.135632670306879088e-01
-3.797848978982112933e-01 -2.102408762127797315e-01 -1.671938960359925785e-01 1.998732904743610039e-01 2.050437317901037393e-01 8.227111135160130543e-04 -4.029814406299587343e-02 -5.061887525984460484e-02 -5.082763419995798282e-01 2.788818836978362303e-01 -1.564352155195338212e-01 -2.691339511205407750e-02 -4.428183087587047040e-01 3.486184792519574360e-01 1.359783196072388844e-01
-3.120392902319970574e-01 -3.678152547228040192e-01 1.166703360500126463e-01 1.901485108219642672e-01 -1.923170431838118755e-01 2.275517896836675921e-02 -3.657482128451944314e-01 -6.534224191070153731e-02 -5.343420139388636025e-01 3.200064776775950470e-01 -1.600741951778373862e-01 -8.391393458536131403e-04 -3.350471377620249935e-01 9.200292537700577311e-02 8.808450876102748295e-02
-2.116159693391415075e-01 -9.460271345628087913e-02 2.888607676825756254e-01 2.909123574141846830e-02 -3.019716333364653726e-01 -2.267850919535482901e-01 2.601738526448034092e-02 1.095757916482275607e-01 -7.420791245863404828e-02 3.337640935252185193e-01 -3.031592166627892770e-01 -1.820482663128892842e-01 -4.002204671294880556e-01 3.622588371493693504e-01 4.163169556781992631e-01
-4.683576130157094952e-01 -1.911093644227269128e-01 1.865771589274685949e-01 1.246005837634342889e-01 2.034554401728836115e-01 -2.185459900838705172e-01 7.206497903849772013e-03 5.232214469011549351e-02 -5.305777507700832896e-01 2.474955307993574050e-01 -1.642550437204072233e-01 -1.243996650264252296e-01 -4.041063622302091263e-01 2.290489277044621685e-01 2.913524319733897666e-02
-4.243420131719299881e-01 -1.828238178296482663e-01 2.734633566364162438e-01 -6.610042360077901524e-02 7.836238843222717576e-02 -1.251810551658490422e-01 -2.319411546834329041e-01 8.856039200151386015e-02 -4.352685697916829355e-01 4.618212985724272635e-01 -1.785976683488667005e-01 3.316934276792382619e-02 -4.024464105233262479e-01 -7.598034680866083690e-02 1.429550025726291917e-01
1.165182950243375398e-01 -3.599262787773756939e-02 1.808158108954870946e-01 -5.207968336609011123e-02 -5.130762313276604480e-01 6.722955181914704037e-02 -1.583596107019522581e-01 1.701003955581164573e-01 -2.713696987899952284e-01 2.182505396342790394e-01 -3.413945978654309155e-01 2.891032427537090221e-01 -3.073787858614473456e-01 -1.050132756649733573e-01 4.483605135980313072e-01
2.891965477433145349e-03 -4.493400780872938705e-01 -3.757299589468838796e-01 3.216855131727939798e-01 9.853779993549048599e-02 -3.350062349094637959e-01 -1.839910500350084299e-01 -2.513615988525928491e-01 -3.362896852828611838e-01 -1.555233007872851014e-01 2.206084169750794077e-01 -3.415718440142097578e-01 1.162617746915046435e-01 -6.453489215930874323e-02 -1.189837117856259174e-01
1.754983738056624665e-01 -4.774818213212961293e-01 -4.464695260260461152e-01 1.907719294116689557e-01 3.398840207781298473e-01 -1.984305458187362453e-02 8.901598555399302393e-02 -1.528363511923770124e-01 -2.217096292699271554e-01 -4.541634835953812788e-01 2.506065609283114615e-01 7.078981933301987939e-02 -6.600520863387131232e-02 1.017950405693909960e-01 -1.425881473235218744e-01
1.436678670161784521e-01 -1.895583168936184337e-01 2.297929916052897925e-01 -3.736857552772125668e-02 -4.204222020376148783e-01 3.334960973807521434e-01 -3.304719575156799261e-01 2.527240325406617666e-02 -3.302322927589250723e-01 -4.357423844673752322e-01 -2.705178924412073860e-01 2.081056443892136676e-01 6.411844458246235279e-02 -1.753674008326698008e-01 -2.027892814738401495e-01
1.898991540537487699e-01 -2.089025974950248776e-01 -1.879579973504663382e-01 1.050769451114976077e-01 5.946743068987152547e-01 2.506189408023671780e-02 -3.837321203602462871e-01 -5.650566980387724397e-02 -6.803381538443240006e-02 -2.861787843969094136e-01 2.187547847573782234e-01 -4.350052967951165694e-01 1.753922769672251192e-01 -1.123156231463443011e-01 4.724797730927808581e-02
1.368742767900646695e-01 -2.243400246799715780e-01 -5.699157062606935442e-01 4.187273474519299099e-01 1.647365552723694671e-01 -7.253449303507245038e-02 2.574801922455827730e-01 -9.272926595495634139e-02 -2.238086203142247710e-01 1.019824963161006098e-01 -8.466020567968275679e-02 -1.438847233807923343e-01 3.365639646530242945e-01 -2.813614538920014563e-01 2.066539820030256491e-01
-1.517639871641579263e-01 -2.569268764738507071e-01 -1.611561388486854318e-01 3.151833980628157561e-01 -3.008839405770821207e-01 -6.154838932560035419e-02 4.967435516632667247e-01 1.918781630213135525e-01 -1.811537116077477083e-01 1.592414008822329308e-01 2.531767247725725811e-01 1.453147742370562018e-02 -4.267953767933889697e-01 7.437808487323173401e-02 3.123830331574468655e-01
-6.896620473164391529e-02 1.191039226347115204e-01 -4.320858875192168380e-01 -6.017798144842683578e-02 3.605856185395700519e-01 1.439755467694626700e-01 -4.065869418120883483e-02 -1.863286986487529551e-01 4.174439331758038607e-01 -2.194067092741282948e-02 -6.603272379190072705e-02 1.778631134419419446e-01 -3.159629699375570699e-01 3.383055152538689825e-01 4.226064324073360856e-01
-2.095811754159150886e-01 -3.993171469443483612e-02 -4.820248644558517426e-01 -1.643727613265069318e-02 1.249013337955367370e-01 1.674117443893604618e-01 -3.211687685729286423e-01 -3.432796937432999185e-01 -5.059847610753018948e-02 -2.055418448979964563e-01 -1.957914100210692288e-01 -4.964720332236278733e-01 6.038529886755091697e-02 -3.286953076527775464e-01 -1.262231052302597856e-01
5.126952174031192827e-02 -2.169208855506905009e-01 3.574459453571863371e-02 2.788007243254144729e-01 -3.377339148954894288e-01 2.317620740749072594e-01 1.758529615629617071e-01 4.084898311748829669e-01 -4.555551920763724616e-01 -3.443543701253647393e-01 -2.100677159006312800e-01 -2.806618209124274732e-01 -1.380021941889754689e-01 1.577437178486233438e-01 1.131615162508747552e-01
-5.977248912540762404e-01 1.236420284355947558e-01 -1.076955271739456488e-01 2.043574502224507761e-01 1.793560589902973845e-01 4.333400602976045235e-01 -3.539237786134027952e-02 -9.063097875557268868e-02 9.077347402963200501e-03 -1.142549871063407857e-01 2.477399140127596600e-01 -1.200231891482391455e-01 2.108247520357589000e-01 4.079911438679847957e-01 2.117485062054740852e-01
-8.215144467989868304e-02 8.783728502332947830e-02 -5.447154932016458062e-01 3.710646087897633283e-01 1.835572609120134924e-01 1.439498935263686108e-01 1.790169580895568935e-01 -2.845877556233394334e-01 1.876653576923449918e-01 -3.179921178390953118e-01 1.330048396282555168e-01 1.574243616120777622e-01 1.238440022004277663e-01 -2.920838141756308334e-03 4.353434030702829083e-01
8.177076502215900600e-02 -3.720133685632936449e-01 7.303239554147147872e-02 5.029999776546343337e-01 -2.211585747694190529e-01 8.247450449117139926e-02 5.316365552232334840e-02 6.636913918352332908e-02 -3.930568133130600272e-01 1.290490141324632800e-01 -2.304741778978332822e-01 -3.833929401891886246e-01 -3.771859460645613504e-01 3.106164599047372618e-02 -1.383568853509037355e-01
-4.569822191765685049e-01 2.192966854092648354e-01 -2.386358071246525159e-01 1.999255989374004727e-01 4.149267533111726247e-01 1.264536090935034982e-02 1.872177334841252511e-02 -6.889325330530718383e-02 5.388918528660047169e-01 -1.737738708931822473e-01 -2.790282047482547240e-02 3.957672857948560385e-02 -8.498630391216029090e-02 3.558554951093373386e-01 1.092499120368367743e-01
3.056317625357425627e-02 1.114114958806748656e-01 -5.380455073693893864e-01 3.506863064973035904e-01 2.515472032495762456e-01 5.203875874739841700e-01 -1.420599685512511090e-01 -4.301861329867481126e-02 3.021969229118286471e-01 2.140165756102022365e-01 -3.204078444874498832e-02 -6.534522708861222051e-02 -1.421931234384777865e-01 2.687164115674535447e-02 -2.338909788489564601e-01
1.954872367907267428e-01 -2.808173597217438755e-01 1.171806923718129168e-01 2.652161666809067508e-01 -3.537486971142963510e-01 -1.256025384214432272e-01 1.647955109672986362e-01 -3.501534726797964625e-01 -3.120915831922472794e-01 -4.727068703227194080e-01 1.125927222916222881e-01 -3.062818158923995560e-01 -2.789694992629267456e-01 -2.449161209306191869e-02 -4.913078234125747151e-02
-6.009811825434859811e-01 3.087124965471936267e-01 -7.990659943131293852e-02 -7.199017175689299830e-02 3.373347645470379796e-01 1.196519364576582034e-01 1.070494665387631411e-01 -4.983848221603806410e-03 5.286033151405923336e-01 2.272446690662483296e-02 -1.702399572520862103e-01 8.971342215765459871e-02 1.228338993629304876e-01 2.413563456294975096e-01 4.522993698861486889e-02
-4.707597373877348002e-01 3.354459368149413367e-01 -1.136956902119206497e-01 7.448719451680864412e-02 -2.165623089677161106e-01 3.412692832838950530e-01 -2.507146534243171465e-01 2.409083594377398885e-01 3.894185263939557440e-01 5.009590687698368960e-02 2.548643034831931664e-01 2.852813907664917825e-01 -1.632924097574465216e-01 8.639122503869316183e-02 -1.688255904821672482e-01
-2.957263371013049355e-02 -1.771868503402056205e-01 -4.456068335811015635e-02 4.822381062804496632e-01 -4.498562517773175423e-02 -4.468929966069668663e-02 -2.701313141699865916e-01 3.607533819188154522e-01 -1.218421250995355143e-01 -4.790528148634835837e-02 -2.195850272302763417e-01 -4.919310154313331074e-01 -3.103732611955718410e-02 4.290866994339243568e-01 -1.833669149546197363e-01
-6.103171755487967198e-01 7.910817265486977390e-02 -8.632946686949383164e-02 2.920256684421849713e-01 1.839103297351458444e-01 2.419771672571412735e-01 -1.931980283501698592e-01 1.176061467896491464e-01 1.826057094352177002e-01 3.340113329713304546e-01 -8.261103089403790470e-03 -1.273452733741444742e-01 -1.505974875940191138e-01 2.905644665515140779e-01 3.415986518613302603e-01
1.006004346729279658e-01 3.434023257292067033e-01 -4.096186924406382546e-01 -1.293117536444715610e-02 -1.533457101982082516e-01 6.265017989107666274e-01 -2.523179550884795952e-01 -1.535229842465264116e-01 3.044807794209291596e-01 2.390521196431228679e-01 -6.882555597402202630e-02 -7.158156578176129436e-02 -1.330945819537867614e-01 -1.488505890953337185e-01 3.406808522158746855e-02
1.655405565341084781e-02 2.676572553812449004e-02 -1.712134630920385814e-01 -1.926934502914281755e-01 -3.737029751853871984e-01 3.373460043227157201e-01 5.117125855828352776e-01 1.628328964356542674e-01 -1.553661467244983885e-01 1.382635743181425403e-01 6.291879107875454624e-02 2.699428218323842721e-01 -1.946435070437368409e-01 3.593824330614542872e-01 3.218990460686481647e-01
-2.651171095133079136e-01 -1.104824952297274593e-01 -2.178208610601631845e-01 2.861787575537435013e-01 3.561432289363115622e-01 4.528789700513994460e-02 -2.969300716756183012e-01 -4.383411527833425830e-02 -9.924152651173674677e-02 3.177235110020021347e-01 -2.815620300227910516e-02 -3.562591175691207646e-01 -2.320365682739165547e-01 5.254972529276874527e-01 -2.618520471448147410e-02
-5.372661922659093259e-01 -2.280279824446639902e-01 -1.159858770091820174e-01 1.614955788326313812e-02 -1.147585584675459430e-01 -1.290279093277231226e-01 -3.479224739303549141e-02 -2.101642370454425424e-01 -1.612040133712966672e-01 -2.130917494924660094e-01 1.090733415479180624e-01 -2.368807820002894193e-01 -3.404234744534723744e-01 3.960364194971008889e-01 3.978695728162454093e-01
-9.123152419986815809e-02 -1.548520213323177908e-01 4.223819365705683282e-01 3.081647040734575294e-01 1.770516762131645327e-01 -4.218555775827609877e-01 2.687329254062024164e-01 -2.091596297050496711e-01 1.839596212762057426e-01 -1.416889853300549729e-01 4.006409034900593746e-01 -2.854673292572798213e-02 -3.504806998746600177e-01 1.108092395474414293e-01 -1.367141036347408467e-01
-2.995521262852269828e-01 -2.829266714929115079e-01 6.875115902813423718e-02 2.616992610549908616e-01 3.051364505232105340e-01 -1.283698925301395288e-01 -2.246866287983268207e-01 2.093376181584643836e-01 -3.767824742729140031e-01 2.418539780838525055e-01 -9.751271938726659150e-02 -1.727850011829687171e-01 -5.282517979145919806e-01 7.289031233557774492e-02 1.700872378096111581e-01
-2.948037013894972969e-01 -3.318243920183271967e-01 -1.549650417302284866e-01 1.630145363176611351e-01 -4.754146160498064211e-02 -9.859146899378636031e-02 -3.686910961045064116e-03 1.277738256168876319e-01 -4.296663606091198351e-01 5.108057902790827942e-01 -3.142990979240651850e-01 9.370861830459939479e-02 -2.748839208770706977e-01 1.910572286021050559e-02 3.082986727499491542e-01
2.269935318132771662e-01 -2.010221364949299760e-01 2.661046077797173115e-02 2.957097382153541561e-03 -3.527140032942732706e-01 -1.147347960142420242e-01 -1.456374448746399486e-01 4.502566402370452442e-02 2.757395992371318091e-03 1.743141979299274447e-01 -5.564029655291596183e-02 3.612128986145304865e-01 8.805009065057234352e-02 6.144353995122683321e-01 4.441745564567135540e-01
-2.831057489086148959e-01 -3.962093478970896143e-01 -6.741715302166841062e-02 1.104012759788363246e-01 6.653805106563046023e-02 -2.572393754074593919e-01 -1.128252991935263655e-01 2.934921827390639046e-02 -5.111686688805785472e-01 2.549371966257350519e-01 -2.271068922295344517e-01 5.943379176230052102e-02 -5.284103716880228507e-01 3.532203663803219068e-02 9.163760901336527945e-03
-3.494510004321020880e-01 -2.171890212803176123e-01 1.477838369630223858e-01 -1.338322143538802633e-01 -9.855666232306058150e-02 -1.681314437204146361e-01 -7.115495954770408027e-02 8.749923740644152681e-02 -5.281873670696022316e-01 2.531823015453597003e-01 -3.599041405172054842e-01 -1.025114580772718692e-01 -4.649685320365243291e-01 1.769508829747916401e-01 9.813739185024365763e-02
1.212025856588070660e-01 -2.037433734022592313e-01 1.479023919570116585e-01 3.376486011308909019e-01 -2.339027233430025776e-02 3.995420702688620707e-01 1.912974316060664648e-01 3.139987832334790174e-01 -2.368813879764888886e-02 1.169872749141166873e-01 -5.905637764811938473e-01 7.868992187847544811e-03 -1.228464178239371818e-01 2.770806332856650678e-01 2.400133254858608789e-01
-1.487988908487797579e-01 -4.265459751562786783e-01 -3.767076876534033447e-01 -1.218151993923598381e-01 3.668291433201790741e-01 2.228335905260576955e-01 -3.377343710570352986e-01 -4.072666754562641600e-01 -2.174063972689105617e-01 -2.318202137182320266e-01 1.902435792902077150e-01 1.305190019992019945e-01 -1.886896856267419528e-02 -1.160722845487117821e-01 8.341415355279727106e-02
-5.004218817041319184e-02 -2.670398479186570917e-01 -1.770527267251898740e-01 2.359425985535476833e-01 3.728695972679341719e-01 -1.818864436197247525e-01 -8.387252674415604514e-02 -3.195724632349061234e-01 -2.262445225946909666e-01 -4.573282429341316013e-01 4.247536329442422876e-01 2.033024513223301577e-01 -1.947262683704974184e-01 1.094432730910035664e-02 -1.943502177455606328e-01
-1.063995104605150177e-01 -2.764678539136803392e-01 4.605763374401132815e-01 7.699271139383635776e-02 1.287709636572120508e-01 3.595028519466439421e-01 -3.315414926127174255e-01 -2.302330662644347936e-01 -5.152016368219478615e-01 7.906623644955676489e-02 -1.222524600951190889e-04 2.765434986995929725e-02 1.523345559914983105e-01 1.925001040543592723e-01 2.296167689683433211e-01
2.869766166067456159e-01 -2.219916489342068089e-01 -4.283330473581240527e-01 2.792070797717500774e-01 2.945117245050689614e-01 2.763196816857508842e-01 -1.596454522553106825e-01 -4.509588248828376722e-01 9.020731205729212721e-02 -1.657330566563536625e-02 -6.704842578365084738e-02 -3.289225653001142669e-01 1.332808577467744504e-01 2.466764217896956768e-01 -1.236424638448662822e-01
4.054182871822981094e-01 -2.347417413551075027e-01 -2.829483554011695268e-01 -6.731850593640147616e-03 3.864697510374857092e-01 -3.380894951239953039e-02 -1.004141092966757687e-01 8.710787935669722648e-02 -2.036142843380021050e-01 1.611834524310771233e-01 3.957228928214375774e-01 -1.794762395814019362e-01 4.297133604025095699e-01 -1.457673770554038795e-01 -2.647746913845294703e-01
5.969071997827590792e-03 -1.553321046634813796e-01 5.845008623877974430e-02 1.628580247578475249e-01 1.815343340969271801e-01 2.378859056860212762e-01 -1.975316669242409007e-01 4.565348529469513417e-01 5.483457505278660667e-03 -1.052542682992880368e-01 -5.668905633617700168e-01 3.310823144066443180e-01 -3.151385247870625711e-02 -2.648342879804757577e-01 -3.093390480146684940e-01
-2.191670432644710897e-01 1.626084162427567092e-01 -4.649242990271444387e-01 -6.714302821190057391e-02 4.420526577640577770e-01 -1.854898796279064732e-01 -8.647409052922025441e-02 9.820815116952921753e-02 3.660858283083547327e-01 3.564710831518424494e-01 -2.181208405561428088e-01 -1.449096430211477549e-01 -3.515948052570785909e-03 2.922991819091155796e-01 -2.068930083598951308e-01
-1.473706661609920920e-01 -9.524218624676930589e-02 -3.391146917340476796e-01 -1.256849773909320296e-03 -2.088506273414503511e-01 4.527436847299761702e-01 -2.187990447297913921e-01 -5.775417988837350941e-02 3.388490648828004215e-01 1.559027993996063011e-01 2.735443994377998941e-02 -5.688364620320967013e-01 4.599651407543530607e-02 3.306619721279762530e-02 2.962260163461461482e-01
2.475906468394496740e-01 -1.668588258344706199e-01 -4.959546522185723227e-02 4.092430957473753850e-01 -3.602246306968942546e-01 -4.210952442896535863e-03 -3.025736376846286380e-01 1.097281368167541543e-01 1.038355418954626901e-02 -3.717956443811449296e-01 -4.830362050092944504e-01 -1.909759004749588818e-01 -2.118219219679165211e-01 -1.309808475956505402e-01 -1.933563988743680351e-01
-2.735717243329173209e-01 2.664775848989582308e-01 -4.314905814669312001e-01 -2.233724183823428411e-01 -5.331402871951813893e-02 1.157887561777401764e-01 -1.037543959550246003e-01 -2.906327135279578380e-02 6.671336106744426564e-01 4.688900735312295787e-02 1.387265256252067681e-02 1.152438846480815932e-01 -2.436395339267800886e-01 -1.365530604654241198e-01 -2.268554194009055891e-01
-2.879235607868578795e-01 3.637445359696516584e-02 8.114346727555007965e-02 2.535106673866748261e-01 7.261216134078268207e-05 8.329427099323612194e-02 -2.633921770608306789e-01 -4.336916809466676015e-01 6.290598578182129419e-01 1.279848719474956653e-01 -1.351849114200835977e-01 3.425617937984956063e-01 1.438757000803918829e-01 -4.146776453265555579e-02 -1.018988715160668163e-01
3.947003992698512320e-01 -2.669201462798396207e-01 2.432583641746765557e-01 1.966908356909000677e-01 -4.047915407539240951e-01 2.523433943658807618e-03 -1.460760256345456642e-01 3.110274081092758158e-01 -1.640237202979172859e-01 -9.091759284715228429e-02 3.235794941656341961e-01 -3.394319794278192748e-01 -2.808684592710488093e-01 1.853344962546913111e-01 -1.576102362403675738e-01
-5.565827196098168672e-01 3.387805769678211565e-01 -2.514662026368262859e-01 6.175602250580843056e-02 1.617579514157017340e-01 3.418458466968931631e-01 -1.353486741766641299e-01 1.975718094536526581e-01 4.118656412547593015e-02 3.541663971864841831e-01 2.530251617642170214e-01 -9.847632584244959963e-02 -1.902134055075251906e-01 1.319600854963351722e-01 -2.314565732005734733e-01
-3.962324696965522364e-01 3.372404319594335953e-01 1.418342036354174607e-01 2.354600824692571481e-01 -3.184953436353705203e-01 3.827012614121745315e-01 2.483239539299507137e-01 2.020102016517425214e-01 4.212584271162194555e-02 -3.170964585505198219e-01 1.504494173329334883e-01 8.407386165366080577e-02 3.435864087617345186e-01 -1.140839494343899065e-02 -2.304949422056879749e-01
-1.695389474232556482e-01 -2.586309783222704994e-01 2.713423071784424462e-02 4.184204353523316433e-01 2.230703538239564229e-02 -3.497305387068198046e-01 2.931731005532482812e-03 2.760254262293270755e-01 -2.823842948204045161e-02 -2.774090432569221165e-01 5.511787380781417722e-01 1.232674136913176899e-01 2.657236486984217508e-02 -4.362824258678295319e-02 3.608204453245848486e-01
-2.669119510144505325e-01 2.768226614019073106e-01 -8.850884418726792657e-02 2.891751257368445627e-01 4.149384358405365236e-01 3.681413116559905663e-01 -1.625311829407248554e-01 -1.002725107964579226e-01 4.920130797319167693e-01 7.922489148229876210e-02 5.777344628127339954e-02 1.739817424268105817e-01 -2.621464720751244259e-01 7.876955713243793955e-02 2.441556371611991183e-01
1.710493822437785527e-01 3.045730559366034984e-01 -4.879670983385982208e-02 7.516840759309652287e-02 1.918540242407547058e-01 -8.009399653807643821e-03 -3.273780197095161326e-01 -1.454578546661255273e-02 6.906156403416738865e-01 -1.245439024661547517e-01 -2.630017174025482962e-01 5.571128738333779029e-02 -4.234179020662200144e-02 2.117935613155056129e-01 3.380854215129256435e-01
3.220718449129565397e-01 -1.905812114786078204e-01 4.132166508444505837e-01 -2.977364237684020920e-01 1.458284717323651836e-01 2.453948209540812442e-01 1.277418336608275862e-01 -2.166592731347607437e-01 -1.775171484486549323e-01 1.595420524417126840e-01 4.957361040729851287e-01 4.335465034672930651e-02 -5.796677732035608599e-02 -1.259026135060646312e-01 3.633156224436851489e-01
-4.210518270441064304e-01 1.744358079483950830e-01 -1.258496801177235724e-01 -2.726286128959276023e-01 1.873836656540625589e-01 3.845297214782064654e-01 -4.879727327171649170e-02 3.933513228544267548e-01 3.394887697198326615e-01 3.287588964492679788e-02 5.038492666008918819e-02 -5.641685971666485222e-02 -3.261428145838862203e-01 3.576733922811323185e-01 -7.540875637166777334e-02
-9.558674067958020104e-02 3.204810641704106122e-01 1.072508792670825994e-01 3.947017007506586905e-02 1.518949657303100553e-01 2.520240752147991370e-01 2.291075011848241472e-01 -1.912888995380223334e-01 7.156427856367827411e-01 1.640189192538742402e-01 1.802747030019628549e-01 1.000963927254247959e-01 1.766827336951350413e-01 -1.024454134780731079e-01 -2.759485491581345484e-01
4.478893850077201866e-01 6.284825137140033491e-02 2.481331376687684054e-01 2.510097759212909230e-01 -4.982813036190873041e-02 9.692575861633893897e-02 -2.249120118354623332e-01 -2.542533868843400158e-01 -1.245223686135910335e-01 1.687299968912836512e-01 1.372154172565690639e-02 -1.925414409089288847e-01 4.397334923782344474e-01 -4.528182237031389001e-01 2.532105528276769046e-01
-5.857661829723335156e-01 -1.123468371130915688e-01 -8.023060364383993726e-03 -1.420244858745037808e-01 3.853507646236914996e-01 7.732124322393098270e-02 -4.509734490640911475e-01 -1.412251291868312497e-01 3.599872437135936964e-01 1.594967533444152097e-01 -2.633640562227200221e-01 8.310532708356367301e-03 -7.191564198021656307e-02 -9.074761498308388241e-02 9.142624050225818533e-02
-2.573963611364754045e-01 -4.982613025001532414e-02 1.929392159321753342e-01 2.258650773450328886e-01 -1.588863582553440568e-01 4.765726002555948915e-01 -8.162027832448010001e-02 -4.882512265925398331e-02 2.999732420238706010e-01 3.935673026572570898e-01 -2.127123683053609993e-01 2.717206111347864050e-01 -3.418895787061679292e-01 2.013421105802834787e-01 2.454116458144679491e-01
-1.605837030249585295e-01 -1.360441251745896640e-01 2.488578472148271215e-01 4.585103123230209188e-01 -2.416388479993826846e-02 -1.817334976614289610e-01 3.162276833409231047e-01 1.745130174749086327e-01 -1.260094258078889029e-01 -4.623840532908488621e-01 -5.160925113808959019e-02 3.452876955459440178e-01 -2.760812388637711168e-01 2.653863941892325440e-01 1.458147897820558925e-01
-3.897879435696684491e-01 -3.496511843239191175e-01 4.627285609567182573e-02 -1.781368816117390452e-01 1.568355535203755091e-01 -9.936371744106332893e-02 -8.433768251469743460e-02 -1.804731074075568709e-01 -2.645526781658630311e-01 5.093322064859795439e-01 -3.464560114544558145e-01 -1.307025141849882943e-01 -1.875445771455515609e-01 2.517680542306738323e-01 2.295628529234357562e-01
-2.765908778032152848e-01 -5.048469019809617153e-01 8.961367325218394519e-02 3.298649274082514626e-01 1.385952111311100632e-01 6.445705376985505497e-02 -9.778271221298361418e-03 -4.028993382752450725e-02 -2.066238350689465764e-01 3.151754036781387880e-01 -1.898162995114447971e-01 5.387541340405133800e-02 -3.591569393867698468e-01 -1.606904014848497264e-01 4.369514036508115318e-01
4.883135369010642712e-01 -1.478161721757392799e-01 1.189043642515976162e-01 -1.273173818395447188e-01 -3.624235985507427427e-01 -7.925320551999555374e-02 -3.337061922950279591e-01 3.109564521139552284e-01 1.560723620506174469e-01 4.128848865580198729e-03 -2.009091006311753969e-01 -4.989780660297462034e-01 -8.404932674183498986e-02 -2.023370784477209472e-01 4.407769029997329197e-02
-1.789714371345282051e-01 -3.095582521305263457e-01 -6.057537071390188890e-03 -8.803136703402299201e-02 2.592228056127268698e-01 -2.572989922926417483e-01 -1.708261659885737804e-01 1.228998676337603041e-01 -4.051169192016926823e-01 3.042405079358536657e-01 -3.634291805261832820e-01 7.675366708132551341e-02 -5.125436687184303786e-01 1.302959032743805923e-01 1.110836294915452799e-01
-9.176534116976850508e-02 -3.816130060437661342e-01 2.048905517400865794e-01 -1.713926398011820784e-01 2.897941593688755854e-02 1.615110631094913637e-02 -2.420900697307553084e-01 6.953230807684617452e-03 -5.747994546930874638e-01 3.629021361636698417e-01 -1.989533815466162647e-01 -7.723155827660521666e-02 -3.426130440417404777e-01 -1.208789505226250671e-01 2.742325523101765694e-01
-9.344822644000223832e-03 -2.453824609006446111e-01 2.854406580737013921e-01 2.657171275382555486e-01 2.836502285237587490e-02 2.860255453035877027e-01 -3.232832719488659690e-01 3.243613910150373592e-01 2.958080503425872809e-01 1.045180412089529581e-01 -1.935205438063830885e-01 -4.353484876823596750e-01 -9.703877121871555544e-02 3.945715684986261795e-01 -6.908264657193109726e-02
-2.341833984384096290e-01 -3.791311800191349279e-01 -1.882988680079381583e-01 4.074277517117685377e-01 -2.046156195973225858e-02 -1.770215126563338404e-01 2.792830731061659577e-01 -2.566585058526166252e-01 -1.472576313506046841e-01 -2.518363524589909419e-01 1.918264720204910789e-01 -2.831781667385147028e-01 1.025214339736231495e-01 3.079695468433613428e-02 -4.591113241101517639e-01
-7.432524917796326513e-02 -2.780431649610156652e-01 2.203887663446067735e-01 3.129118215320825236e-01 4.320261516764811738e-02 -1.439795377500144857e-01 -1.373443041994140135e-01 -3.014699819907157852e-01 -6.910078621749327077e-02 -2.124393923923488248e-01 4.090543909923364807e-01 2.672654352672501968e-02 2.555308113756168398e-01 5.686270162379946091e-01 1.782152126200987896e-01
-7.816754061023610534e-02 -3.535275865732964706e-01 -6.090966819367980151e-02 4.499575156438939127e-01 1.588089366181086315e-01 2.194492425431540106e-01 3.633723636581626670e-01 -3.921300561857965494e-01 1.645511695178278333e-02 1.337298999487291917e-01 -2.720439663637981287e-01 -1.095244271747886772e-02 8.244719665241832807e-02 3.391326745866464765e-01 2.991016209695769867e-01
3.351266196963039734e-01 -1.104908355178317592e-01 -2.826553431512763837e-01 -5.247669158627128738e-02 -2.564151406832846508e-02 -2.876768616160099018e-02 -4.248119622048415200e-01 -4.959470377427332988e-01 -2.194512484039395639e-01 -7.364652763483027845e-03 5.133015099475894960e-01 -3.343290048791406482e-02 -1.456854178884690321e-01 1.547100443195924546e-01 -8.337635811291335686e-02
2.873416642593838999e-01 -6.209881663261626605e-02 1.613161730640854108e-01 3.659741635815165761e-01 6.192400299230797073e-02 -2.074263754726954692e-02 2.261455567954773760e-01 -4.761184930033172669e-01 1.153601483428860486e-01 -9.536665650304282371e-02 -1.535604928486691556e-01 -1.066526413340752460e-01 3.625408015290953467e-01 -1.720550588881988585e-01 -5.031161769681481433e-01
5.975782894839815063e-01 -1.176569452742752681e-01 6.313265203253023983e-02 2.492521993520740997e-01 -5.696082832990170125e-02 2.209607509473477671e-01 -3.192002576710948336e-01 -1.858195883905814916e-01 6.351692442934003813e-02 -8.558866396770725693e-02 2.588509706465058624e-01 7.367813909818542173e-02 1.055434327118228710e-01 -4.271219651358018621e-01 -3.115991425165062778e-01
-7.432955762443213543e-02 1.051104185137243796e-01 -2.313415482571285209e-01 -1.346994861007522193e-01 4.562174237622670242e-02 2.728131802140372764e-01 1.312347638704433328e-01 -5.354502606811746279e-01 3.507217242698079107e-01 -5.048317872274345197e-02 -2.176252631598823983e-01 2.846978658033329501e-01 2.420413891468458090e-01 3.659964099862676457e-01 2.912401386136773684e-01
-2.774163493283623300e-02 2.007984414932694472e-01 -3.823202852356299974e-01 -2.720829620970403595e-01 3.014899608313394430e-01 -7.956653413083217274e-02 -2.274507385429976603e-01 -3.259584496115369712e-01 1.791113407278691408e-02 -4.965162948672225962e-01 -3.454444715492478030e-02 1.529121619625897766e-01 9.619386477202608587e-02 -3.941453334361523786e-01 2.178856999882079759e-01
3.033355131764761681e-01 -2.081925045293999688e-01 2.053372524987918946e-02 2.551249634548811152e-01 -3.301857710474267460e-01 -3.314448125598066230e-01 1.197980676214855655e-01 -1.373002196571079803e-01 2.466249215851914200e-01 4.409502143879818342e-02 4.548845090049777329e-02 -1.872627347573160295e-01 -4.500499436989423563e-01 -3.622778361377909095e-01 3.366851584458682711e-01
2.186010189266135162e-01 2.410961148268568610e-01 -1.669684675841077159e-01 2.645344335628121990e-01 -1.793897673089467626e-01 4.456262884076785391e-01 -1.494596498091659287e-01 4.314141742256041856e-02 2.908638596444799163e-01 -2.972594117277282399e-01 -1.835987261691097161e-01 -5.172304187799754704e-02 -2.853204561413913432e-01 4.986705113825820601e-01 4.286870937014315708e-02
2.325293888611961457e-01 7.317296600150371977e-02 1.723637894139601889e-01 -2.664007502911432401e-01 1.326094029222866233e-01 4.910211768117965225e-01 2.940952323889243214e-01 -1.987962295600743667e-01 5.134761400633246209e-02 -4.645964438434006805e-03 3.326055511368671280e-01 -3.861641159077934260e-01 -2.044046628862242754e-01 9.619117242012122093e-02 -3.765060702173490537e-01
2.893378524247327555e-01 -1.052599565742967647e-01 4.296148258306374812e-01 1.072144455814638409e-01 -1.390697071970931897e-01 2.161815548887468519e-01 1.408164879134959357e-01 2.153685247388500423e-01 -2.744582678158404843e-01 2.592622314624679625e-01 1.394803994290030880e-01 2.922546677846396546e-01 -3.771259679787848373e-01 2.486712240523758777e-01 3.540892379515543920e-01
-2.957369863687202977e-02 4.308924669491023818e-01 -5.121113917146061789e-01 1.844720210077668288e-01 -1.783593977334744229e-01 -9.990954013795776134e-02 -1.823991081155278693e-01 -6.988555424226869373e-02 1.734289050904629648e-01 -7.364020080030612113e-03 -1.043215123694898883e-01 3.661686621373108630e-01 3.067085884160399845e-01 3.392418348934765349e-01 -2.301568946962526674e-01
-3.292901278068260940e-01 2.572687088370108066e-01 -1.337343513093258440e-01 -4.507881191805416243e-01 -1.576998656806220256e-01 3.001459300667686514e-01 9.829650971621275990e-02 2.777896468426439558e-01 2.815206734066362237e-01 -4.655178945996202647e-03 -3.962967799081895670e-01 -2.716845585696232579e-01 3.799145878812311417e-02 -1.158311664673693231e-02 3.013024767106053381e-01
-1.148965492987353842e-01 -5.084299036181723352e-02 -2.048236776120813118e-01 -2.012875611678126286e-01 -5.134485213315251873e-01 -1.794727370323379034e-01 5.141140857432829198e-02 3.259049702044697350e-01 -1.782269143499988218e-01 -1.944944140192405024e-01 1.191657785663061409e-01 3.084114918046573783e-01 -4.223815037726492139e-01 -1.644796272992290753e-01 -3.356733508937983501e-01
-2.974041849913137137e-01 3.926310646076642263e-01 -2.007636182062340346e-01 -3.712374704806043479e-01 -1.804576432777870998e-01 4.876295084134215085e-01 -8.200068590650083644e-02 -1.208294396806949556e-01 2.639680124948989848e-01 9.912035971098107079e-02 -1.596671378553171095e-01 -1.499972541884865285e-01 -2.868308305825498228e-01 -1.402306821117638158e-01 2.411714025586187138e-01
1.013901179402793701e-01 4.263321092550391156e-01 -2.048088531369916532e-01 -2.860023922967117049e-01 -8.497057655615936067e-02 4.150190978107836104e-01 1.088968440071458738e-01 1.353858193298701842e-02 3.691805421844356894e-01 2.013451268867058330e-01 -2.336693992612677850e-01 6.227685622287183753e-02 3.721280020375507258e-02 -4.171693729858039767e-01 -2.863306996095966728e-01
-1.591702914229454757e-01 -6.124175780336987146e-02 3.159342442643092025e-02 -4.062036253327903079e-01 -1.782203133154210140e-02 -1.319186787663239602e-01 2.324265088410782110e-01 3.756886855186493124e-01 2.180376596406105594e-01 -1.382274230284551153e-01 2.627843064127004524e-01 -3.615609249023248317e-01 -2.595618904734393051e-01 -3.913915935755534758e-01 3.241012381379501095e-01
-6.785389077571976069e-01 2.773450820864290511e-01 -2.642979578026120047e-01 -1.536782128629487487e-01 -5.779372159772085127e-02 9.466508729177433926e-03 -8.745446738021132871e-02 -1.635508343684726612e-02 3.368145341990613773e-01 7.584711351972132920e-02 -1.570881630837013543e-01 -2.418283697202298355e-01 9.449896096459262096e-02 3.500051714634447864e-01 -1.551148306837225044e-01
-1.552466310639163682e-01 1.656215793161019689e-01 -5.595845465874675906e-01 -3.351630848448733380e-01 1.770977452707425681e-01 2.279010231399986319e-01 2.187312926901839871e-01 -1.155211866579498314e-01 2.882429634536058938e-01 3.557380584459390871e-01 1.938729629540517918e-01 -1.165884045144379155e-01 -7.503616767294492285e-02 4.222805818767929459e-02 -3.320858589165449071e-01
3.939049995744947630e-01 -8.551409027417702924e-03 7.698867599002537365e-02 -1.607008714329375698e-01 -4.898934089045353657e-01 3.543004064705129186e-01 3.554569094927196304e-01 9.894746257997150130e-02 1.105595588168494930e-01 -9.270852400246958058e-02 5.117408069778452140e-02 2.011859460529265287e-01 -2.890626573816940659e-01 4.011696010829086112e-01 -5.424045367527181860e-02
-4.605863987923425329e-01 -3.444105318118940301e-02 -2.214247022368953932e-01 -2.269663141657286831e-01 -9.763684718410201024e-02 4.801984124411221022e-01 7.490631440520365003e-02 7.020723574003852330e-02 1.713360046048865992e-01 1.309693982769159215e-01 -4.666064604055067400e-01 1.964867198555756977e-01 -3.618347045174284404e-01 -1.012422672240594762e-02 4.004263176740369135e-02
-1.093933742252703317e-01 1.070188391557190533e-01 1.388219104142519311e-01 2.948134175250943789e-01 -7.467320536569135858e-02 4.264578261132435100e-01 2.336231484408377301e-01 3.828653001895858665e-01 3.523304964353746183e-02 -8.137549805022248339e-02 -3.767307567248615596e-01 9.136135112542369263e-02 -2.051986098327714114e-01 -3.731632093259609206e-01 3.772161924734732108e-01
4.584119056950097248e-01 -1.465433838475851402e-01 -1.779066302474716366e-01 -3.201931168009435891e-01 -6.996360077118245202e-02 -9.282435303858944942e-02 -3.067842737244863005e-01 -3.239799623619324387e-01 5.182854483235820042e-02 -4.485990314189196027e-01 1.724888300034130573e-01 2.693052052145513131e-01 -2.566133091197657645e-01 8.531966829194728708e-02 2.056294540487305922e-01
-1.534435903407665169e-01 -1.860108536602239071e-01 -4.339202073301694912e-03 -2.383037353550561122e-01 3.748380678638604802e-01 -6.929016921568835474e-02 -1.511054919013110343e-01 -2.811914862406271476e-02 7.473071624088173381e-02 2.682201546777939205e-01 -5.053059433098759934e-01 -1.112053015104229464e-01 -3.990272390021231130e-01 2.680602082184901924e-01 3.739155086698514596e-01
-4.048213622310253279e-01 -1.489936602198346505e-01 -3.336265565109076958e-02 1.230053248535064730e-01 -8.058917239292386070e-02 1.494108356477944211e-01 -1.482275742565636045e-01 3.577076234245858410e-01 -1.426860449719913604e-01 3.617032586794685645e-01 -4.429664663242114941e-01 1.532205982167553493e-01 -4.673801893904480642e-01 -1.720534634889713255e-01 -1.332107858940781691e-03
4.796965141920713771e-01 -1.086419650191112890e-01 4.524589831093707160e-01 5.727481645432595369e-04 3.945616114969053428e-02 2.851097971288125699e-01 2.111732530200823021e-01 -1.636402847287682927e-01 -2.882278381114610627e-02 -2.497637985736696764e-01 -1.624171502393983169e-01 5.023075069187146746e-02 1.425542116521263947e-01 2.514465031159534014e-01 4.727471136693570108e-01
-3.569204765697391868e-01 -3.387272835175903496e-01 2.349454590708661625e-02 -1.438825131606709384e-01 3.495058368071713994e-01 -2.042686851263537107e-01 -1.521881799834876314e-01 1.184757016890182341e-01 -3.618752417564315982e-01 3.759982768312785106e-01 -3.930892008697600137e-01 -2.044013047183550549e-02 -2.866788603645351041e-01 -1.581869284717908331e-01 3.265705057938374928e-02
-2.536293392384783019e-01 -3.154733773570548849e-01 6.454624084314952714e-02 1.022017069340376838e-01 5.418006467994566228e-02 -1.103751777634800479e-01 -5.302093038418422694e-02 3.416159189871589841e-02 -4.197720671472852660e-01 3.968675312851390746e-01 -2.734787275137233187e-01 -1.487993805910349243e-01 -5.760592058002432791e-01 -1.043245945760087195e-01 -1.704956956094468012e-01
-1.445732654973571063e-01 -3.680586295606340097e-01 -3.424847267640577231e-01 -4.118042573759633229e-01 -2.490169170181092961e-01 -1.943652257059337307e-01 1.299152787349336924e-01 6.116176162777572922e-02 -2.382376747624506408e-01 1.197148297806539530e-01 4.579950982311600249e-01 -2.517533902526844156e-02 -6.243215943316617750e-02 2.465514290464118075e-01 -3.002987769703605592e-01
3.955489137434629876e-02 -2.678556437044380956e-01 1.348553527094535631e-01 3.266359588400466474e-01 8.432864755693929293e-03 -4.812798674023474610e-01 -1.809582445922383043e-01 -5.273668694032848103e-01 3.995199102412359121e-02 4.015990621476939887e-02 3.306432051845152320e-01 -6.261035088831887196e-02 1.056575927304465173e-01 3.498698097475330671e-01 9.603253738174330478e-02
3.568482777702530195e-01 -1.579248293058127528e-01 1.854508184546205807e-01 2.467999247409467245e-01 5.217371985130514478e-01 -3.111921877609531428e-01 -1.862995267126162785e-02 -2.380008478083234791e-01 1.610693990619876670e-01 -5.125405923088106608e-01 1.134165132364970685e-01 3.416029564509150476e-03 -6.119760224977659202e-02 -1.019241221270366371e-01 -1.035626732473786671e-01
-5.957342323457525540e-02 -1.078167561300281962e-01 7.664293356511552024e-02 1.709440886407436258e-02 -3.895224688858131001e-01 1.559997515074231129e-02 -3.545609209734817968e-01 2.538538225933418269e-01 -3.686788206394244205e-01 -4.504646614174630526e-01 3.328463358537558925e-01 -4.061885394430105323e-01 -3.142033847703237098e-02 -9.009178085413646619e-02 1.131892656385309892e-01
4.241808138713503706e-01 -1.056738349832180013e-02 1.068286492279750949e-01 -2.846093952190298926e-01 -6.206376467661804675e-02 -1.563139198688670295e-01 -2.310478968523443088e-01 -4.737056136104496051e-01 -7.345566101468400944e-02 5.869882952882799626e-02 1.049788942834021660e-01 -3.839768968117999726e-01 3.690387349072546952e-01 3.333327667825000118e-01 8.293114278668611838e-02
4.340810209189673863e-01 -2.669079506968318610e-02 2.332761938695870618e-01 2.685125840960004839e-01 1.242551548795018251e-01 -1.580526951259338952e-01 3.643997496955462267e-01 -4.601460859961764016e-01 -1.064503554121984524e-01 -3.852112169684941967e-01 3.045281046190742580e-01 -4.622856226956378184e-02 -1.681506854620730407e-01 1.179070637511640124e-01 -5.130640587597086466e-02
2.763187190467114585e-01 -2.320648367604272733e-01 3.270471301209211812e-01 -1.338495261870612796e-01 2.390637347740182939e-01 -5.851575775983192118e-02 -2.730716561549844101e-01 -1.496792073573327032e-02 -3.128152821021935176e-02 -5.155830137396061330e-01 -2.165889586698948599e-01 -6.535357577700269538e-02 -3.069405323185870893e-01 7.440617121821180291e-02 -4.379675914748941135e-01
6.453219686018143390e-04 -2.056804082191848460e-01 9.157192743766229270e-02 2.289009289320462215e-01 8.879427105332297898e-02 7.443046963848021225e-02 1.195857134299619096e-01 7.915920889537419319e-03 3.847501366846763915e-01 -6.130318802600955852e-01 5.093020978448083991e-01 6.260293927246275703e-02 -1.198670600969763966e-01 -3.339770390305262654e-02 -2.578649850989818137e-01
2.925497393606128482e-01 1.648731899141182566e-01 2.731955766955690978e-01 -4.721578073443395002e-02 -9.395843245752892592e-02 4.006439997101035044e-01 1.867781508898749832e-01 2.173031588715942097e-01 -1.285514938644346378e-02 -4.001086698283812804e-01 3.898625410832808891e-01 -2.308182849556382199e-01 9.118441079599907961e-02 -2.112607363087113665e-01 -3.747639343732561690e-01
4.969818749315898510e-01 -1.591362461377051896e-01 -1.010674831266439311e-01 2.580184979280864543e-01 -2.737585325914659307e-01 -9.208403058060993240e-02 -2.509494912419906187e-01 1.323694462052263932e-01 -2.390116540787933785e-01 3.095036455512340662e-02 -3.358220500524546903e-01 -3.205466312134588325e-01 -1.638040770207563612e-01 -3.238023496942619706e-01 2.858061304218504350e-01
-4.451300623722681538e-01 1.279027728251232177e-01 -3.045001924731308707e-01 -3.047411212715340212e-01 2.636540545692309667e-01 3.897359698099099323e-01 1.249833627270276470e-01 -1.000757464418392667e-01 1.995495929723175577e-01 6.009889491301532299e-02 3.035533446315054618e-01 1.399206302090983123e-01 1.390794395863630406e-01 2.578487618679299320e-01 -3.344930490973431758e-01
3.969226192877596260e-01 2.939500271399989595e-01 -1.184138951721106781e-01 -3.814717954055987237e-01 -8.223364593347717855e-02 3.551315559581456061e-01 7.268276883362152774e-02 -1.140835940361715622e-01 3.305142976083159101e-01 -1.939353651487154551e-01 -2.678402263763579594e-01 -1.466320619675613723e-01 2.858640888955184534e-01 1.133179699223029746e-01 -3.326790853654307822e-01
2.744101797521879549e-01 -2.132979970217992738e-01 1.578840567865611721e-01 -3.757981773589719188e-02 3.343249573159436938e-01 4.678808715435322368e-02 1.666873004207153064e-01 -9.475420252321083148e-02 2.575480534013666056e-02 2.446054330759413198e-01 -5.987878236039486657e-01 -2.831920107208060200e-01 -6.081247191512875044e-02 -3.759967285145273674e-01 -2.404717973283133359e-01
-2.218864692456331000e-01 2.679548295157596072e-01 -4.151264688110649637e-01 -3.926698055003967069e-01 -5.039755696487221992e-02 4.314764189447531928e-01 -2.114956621480438281e-01 -7.045988182823044454e-02 3.923614049372233237e-01 -6.243068640412195724e-02 -1.460533054810200793e-01 -1.656936350638549549e-01 2.082870958761401103e-01 -2.466699525394841497e-01 -5.638818769356669647e-02
8.742375524604500958e-02 1.744856777487564792e-01 -2.638599927940321610e-01 4.307534289139051953e-02 1.551126374856697798e-01 1.634054561156149388e-01 -4.457319989591542186e-01 4.750766259372209976e-01 3.650890306920495654e-01 1.055866038582182337e-01 2.693654777212045048e-01 -2.511792539056507678e-01 3.503788510077447960e-01 1.093690924332381548e-01 -2.199814703347367784e-02
-8.596333826813125356e-02 -1.416178988014629991e-01 2.650030073692128951e-01 -5.111779860216124349e-02 2.034423071633129632e-01 1.983666775037357458e-02 1.661005019230644281e-02 4.428984099666241070e-01 1.204673444562766038e-01 -2.257233314370331589e-01 -4.868964581575000450e-01 1.297434042809538779e-01 -2.647705223300523270e-01 -4.814469972502582462e-01 2.005949523346634011e-01
-4.117633745341063856e-01 2.097347243060987132e-01 1.607057589655000174e-01 -1.962286841794829428e-01 -1.643917268536297382e-01 2.342476240222042191e-02 -1.405480799543734963e-02 -2.560995100249406908e-01 4.716304758445225009e-01 3.306739091356475924e-01 -1.672808024546885708e-01 -3.099995923434603617e-01 -3.194694529083381140e-01 -2.408217483058231467e-01 1.133727281523902175e-01
2.889003372190244723e-01 1.684828390398946385e-01 1.710490302604994184e-01 -3.342579973365146229e-01 1.577798256484334860e-02 4.829420137652380429e-01 -2.921839227112664195e-01 3.420645951760228343e-01 8.757715244376038100e-02 3.343499949420828399e-01 5.328761747607572985e-02 -1.218809345141221023e-01 2.427333966140034771e-01 3.326592434262644060e-01 -6.757588341302091239e-02
5.001346779161195411e-01 -1.020683474307226557e-01 2.774692946427267382e-01 -1.743079465949286533e-01 1.706171326147662426e-01 4.069688783311390390e-01 1.215518816082633916e-02 -2.287021931257821397e-02 -7.112822621220389607e-02 1.783615794222095929e-01 -1.872869274286212415e-01 -1.637902524274968408e-01 -2.041383400304814799e-01 -2.598993100054021732e-01 4.781991076055309153e-01
-2.756151174476566545e-01 1.968346794040760073e-01 2.349126033486211296e-01 1.202173237925423799e-01 2.537601296429141673e-01 3.786976194566757381e-01 1.569435909160710185e-01 1.414216690402528634e-02 6.027905180430866983e-01 -1.104506433695800205e-01 -2.321472978244503993e-01 2.117500213006869858e-01 -2.413961420066248198e-01 -1.901407319895261905e-01 1.196123315749245547e-01
1.716077018464108872e-01 1.623792044565597892e-01 -3.897256528970964307e-01 1.425029081668550968e-02 -2.191978215211960457e-01 6.748105195872546036e-02 3.767235779842334487e-01 1.621274611652570308e-01 3.871296623611591992e-01 2.826376019371790171e-01 -3.495161013550429630e-01 1.546830539437001051e-01 -2.464371359040857523e-01 -9.457584571760366265e-02 -3.546402342771324268e-01
-3.050789440705184430e-01 -3.194883782336405131e-01 -1.118402063280445613e-01 3.053763414760879424e-01 3.620854917722810540e-01 -1.279224746823929004e-01 1.326920474378912584e-01 3.924876013010935583e-01 2.418759888713187950e-02 -2.423573746593278289e-01 1.955198137836436922e-01 -3.655060791236311446e-01 -5.499078509651959129e-02 -1.718596840489363398e-01 3.409732349723492151e-01
-6.445278591583397665e-01 -2.492600375001861185e-02 -2.580345328027981999e-01 2.003411406156129226e-01 1.391354969445718626e-01 2.672107259551610992e-01 7.308900627235211112e-02 -7.806377681504510224e-02 3.514427170874924733e-01 -3.152147953393431151e-02 -3.003098102828082316e-01 -1.719610905751447483e-01 -1.176749439369153410e-01 3.106549162427634236e-01 1.429400937239108660e-01
-1.030235731603058869e-01 9.267830407656649228e-02 2.147318954420417703e-01 7.665800502688914497e-02 2.186486356198126813e-01 3.414740922269265955e-01 -1.800761555056198671e-01 4.425789680167881990e-01 3.178400740055870588e-01 2.550313359050160322e-01 -4.941686256367154861e-01 2.572339278600012102e-01 1.519660402664988197e-01 6.147623906926368009e-02 1.810719965403878307e-01
-1.351513106679539389e-01 -6.841420357643798744e-02 8.071382415502588448e-02 2.206018233549348340e-01 -4.182153480243900323e-01 -1.947497086591067419e-02 -2.656713482146093597e-01 4.893393105172816893e-01 -4.662380700070387768e-02 -5.745818596939070710e-01 3.083842630255227701e-02 -1.648882869207325685e-01 -1.546637233812108991e-01 -1.811072755277831625e-01 -1.392055855745139847e-01
-5.500279906294094356e-01 -2.427522906393415059e-01 -1.806992304633420476e-01 1.299512684644564264e-01 -1.039641149282618908e-02 1.607157229289551958e-01 -4.335012365101773568e-01 4.031607391983783040e-01 1.032472222401111944e-01 8.702827754853069420e-02 -2.164084322655174808e-01 2.288728816670448918e-01 -2.900697128079109954e-01 5.654725399861516844e-02 8.839746861655185806e-02
-2.044808441006726596e-01 -1.588444554605563663e-01 2.554412175520539563e-01 3.290209659421751143e-01 4.146894724714580288e-02 8.297074746099984688e-02 -1.052781224448625652e-01 3.289932263895821163e-01 3.105953398911519558e-01 3.934326400359028919e-01 1.316217820157653817e-01 2.688555429911930195e-01 -5.281160640159352493e-01 4.006035870092802126e-02 -1.007444976105699441e-01
-2.087456310288162420e-01 -1.447840840904250359e-01 2.306464562822655440e-01 -7.544318672832196759e-02 -3.348721356623028389e-01 4.789619877715435847e-01 2.826099106695932339e-01 1.057953849769294324e-01 -3.646126219756675169e-01 -1.682580448683534402e-01 5.365006741811951391e-02 -2.633125017913900967e-01 -2.667607149573260616e-01 -2.025030579248842943e-01 -3.135836501206976656e-01
-1.341706023759387800e-01 -4.297725931250496179e-01 -3.191729745156610121e-02 1.862243628159834796e-02 3.482958440594737248e-01 -2.772210442162685862e-01 -1.854268134855758254e-01 2.327376423393053284e-01 -1.237834415346008576e-01 1.597332136723219054e-01 -5.273468586015235271e-01 1.969870627357205861e-01 -3.260959994871019951e-01 -2.009835836460158176e-02 2.115151199787341507e-01
5.133146078483971642e-02 -3.557251842579514101e-01 1.633916452304169098e-01 -3.721699327231058063e-02 -3.216685343661346980e-02 1.133776066529931792e-01 -3.090563894413997925e-01 7.438758957017423123e-02 -1.776591398330532312e-01 4.470871579212554736e-01 -4.504162165237057258e-01 1.847724843758692947e-01 -4.544514299595284745e-01 -5.230249390449029367e-02 -2.237793505148393258e-01
2.643940219706617523e-01 -1.554934491008535258e-01 3.116050542197713047e-01 3.400495821042165967e-01 1.421129837415920083e-01 -3.559011834233324206e-02 -2.981898649793534029e-01 4.773234682077984181e-01 -1.676798423073914135e-01 -1.746311779208894188e-01 -3.126951054040915667e-01 -1.691378392810197195e-01 2.047420795973321772e-01 3.205569953812140715e-01 -1.590408529095086732e-01
5.400455188952244662e-02 -2.179770088531376715e-01 3.387899724630562548e-01 3.825716813580559150e-01 -2.395423967996481579e-02 -1.199034878523550923e-01 -1.664128334882112592e-01 -4.563362283039923417e-01 -1.659916646619059855e-01 -2.316673884269129791e-01 5.068191695276244024e-01 -1.908184041480238124e-01 2.282967997690373008e-01 3.910464759925490891e-02 9.692373780048307852e-02
1.057544967073071468e-01 -6.953797041404261026e-02 4.944492762768831207e-01 1.419070546166101010e-01 2.382841858454586570e-01 -4.657303428126197131e-01 3.527599370447724314e-01 -1.878566859912020326e-01 6.926350003655978860e-02 -1.168709789363500812e-01 3.759905831491009431e-01 -2.014633633095354315e-01 -1.897993153674828182e-01 2.024231736480564536e-01 9.239783638700706236e-02
4.869277804939873833e-01 -7.681731023707086270e-02 2.296556259386824464e-03 4.628844245930132106e-01 -1.528321819197152598e-01 -2.204993537865119757e-01 2.470553538689476414e-01 1.071719026456715296e-01 5.978608636542290071e-03 -5.181997130493525283e-01 -1.375291751873195800e-01 -1.550567987332404085e-01 -1.369960610776645438e-01 -2.094620657081940895e-01 1.551370953020727028e-01
7.383969063181412829e-02 -9.241389349705340928e-02 6.491605957766108381e-02 -1.895696110449291427e-01 -1.596016483393089269e-01 -4.583584654890164867e-01 -6.893470400225211459e-02 -4.786135735092765797e-01 -1.995494013743935591e-01 -3.105107290876027992e-01 1.559574362834408034e-01 -3.186445086077420719e-01 3.162023765317894530e-01 2.465822401045067724e-01 -2.314905173594683230e-01
3.231030335983998969e-02 -1.468693630337999934e-01 3.655967454505473779e-01 -1.405602033850250343e-01 -1.519447509952803477e-01 -3.428919745198507063e-01 -2.019966454785012966e-01 -3.459104471169901496e-01 1.877575939069463518e-01 -1.490877067685263679e-01 8.983926550648743681e-02 -4.814525526456992499e-01 2.836853706827086596e-01 3.422187102483583709e-01 1.670620844067302879e-01
5.208250766243383706e-02 -3.596737773845457564e-01 -2.647577722864836048e-03 -3.858166274384724481e-01 -6.807850281005603521e-02 -5.990159406802041120e-02 -2.284147138599693094e-01 -2.597857764695807314e-01 3.936430819082503002e-02 2.407010345322992684e-01 3.934779360399477954e-01 -8.850169887302614113e-02 3.073719229577443479e-01 2.062250703041357269e-01 4.816903980968772481e-01
-8.373137779055844776e-02 -7.057967958008668982e-03 -1.001709346478352608e-01 -2.466815506268168479e-01 -3.116757749081113804e-01 4.752042721528029756e-01 -2.030921594434812738e-01 1.595268646639347657e-02 -2.298403410551191628e-01 -3.364386865021624651e-01 3.052166991297939821e-02 -3.018166590509081537e-01 1.476130675633275380e-01 -3.448240693137351598e-01 -3.985671071022627854e-01
-2.940432150989701898e-01 1.633517538649487122e-02 -2.184100472955933236e-01 -1.878053107896194562e-01 9.944974842669068726e-02 -2.232508162367216609e-01 -1.552557930239338579e-01 -4.293321341868801544e-01 1.003154858111387909e-01 -3.389919079836196114e-01 5.298762117063015031e-01 5.558657995635968296e-02 1.884702462171823911e-01 -1.697814050830773747e-01 -2.982485655572261751e-01
3.824485201200748530e-01 -2.422540173488317572e-01 -2.299689370904398900e-01 1.355362148718589413e-02 1.707735929816367182e-01 -1.485634925312675214e-01 2.716480958448486138e-01 -1.612213961389152017e-01 2.295955305371919219e-01 3.280373382546429850e-01 -5.426266896581360966e-01 3.287998777723410981e-01 7.695692418730244733e-02 -1.230658167692343791e-01 8.374783346800740436e-02
-4.098145077320265450e-01 5.480584376936815244e-02 -1.638812026591109638e-01 -2.480106527932477156e-01 9.108168729860963153e-03 2.219807786014952045e-01 -2.933921559378402932e-01 -3.483765155635336064e-01 -4.114110163870558778e-02 1.776239375951031430e-01 4.879593454153901555e-01 1.802570465869860472e-01 -2.475955339574139602e-01 -3.095863556563327110e-02 3.431861201504473602e-01
-3.468089252853948090e-01 5.771839414083585612e-02 -2.003719733288519128e-02 4.893332757661100207e-01 1.985468476184588660e-01 4.072095876189544272e-01 -3.784740873648863024e-01 6.618179794838055519e-02 -6.243215535325747495e-02 2.095365097581700919e-01 -1.100866179954513857e-01 3.699851074298780018e-01 1.125063784808528200e-01 -2.417379170314045422e-01 -1.255952876585373634e-01
4.546440973987963541e-01 -1.136771460659787569e-01 -6.245532381709344855e-02 -2.643717253026377501e-01 -1.823825678149403606e-01 -5.159443442527705120e-02 3.018646156622044052e-01 3.007957856965688959e-01 -2.057329405339999306e-01 2.994685699890909381e-01 -3.705835632689953862e-01 2.634364122554900267e-01 7.102935948828784964e-03 3.299329767219858489e-01 2.035014207198643232e-01
-3.912658161251637012e-01 2.846646712778563293e-01 2.349755605385245305e-01 3.347876737813632597e-01 3.301524991579879442e-02 3.486328629476522778e-01 -1.019454413617707916e-01 -2.991716960168409600e-01 3.198717417935645901e-01 3.486341489824780759e-01 -2.510826694361785738e-01 -1.719226257979808992e-01 -2.162141873764894529e-01 -2.075431547134639482e-02 -1.113840891012511242e-01
2.057546502835531643e-01 1.438485901620807084e-01 -4.451736005797166662e-01 1.650817907029627496e-01 2.723089037048081473e-01 -3.832311913737609932e-02 -2.587463453078050479e-01 3.861989679162003974e-01 -1.187789764647342698e-03 -3.629156769507325686e-01 -1.334352602311983105e-01 -2.670325822790191039e-01 9.338776907790235365e-03 -4.007534901955992490e-01 1.957289438035731688e-01
-1.340316552696991792e-01 -1.597421266351218283e-01 3.093789906802376088e-01 3.248606290440693711e-01 5.173061895666243712e-04 2.519971559056622401e-01 1.434488207936368276e-01 4.479936796616602185e-02 -3.888372073895072223e-01 2.655771166239568881e-01 -4.551527394446786556e-01 -3.093154335112806019e-01 -2.813203679967726800e-01 -1.728302350597616666e-01 -1.886894975385444428e-01
-5.743584831751175068e-01 1.512442108822078524e-01 -1.311278584102659461e-01 1.211716096757550071e-01 7.258767552200021123e-02 2.071003054396577669e-01 -5.010817632709249070e-01 -2.669391954750337526e-01 6.169335824455007833e-02 9.665573564714183621e-03 3.187357402061969935e-01 -1.503769850554227405e-01 1.072483958091006856e-01 1.598281694260558772e-01 2.823278358461845938e-01
-3.917825115752064380e-01 7.408678437954652196e-02 1.749239787840745630e-01 -1.808280639375732524e-01 8.514819926143127327e-02 4.296895291932660288e-01 2.926926886277891882e-01 1.482510436348491722e-01 -1.435987184665123151e-01 2.502286631041966691e-01 -5.863073504250735507e-02 -2.266317412216226901e-01 3.783736020931556254e-01 -3.439103512910851035e-01 -2.805607567021156101e-01
3.923195689856314172e-01 -3.412439392012157069e-01 3.392323848760676885e-02 1.318930941280536118e-01 2.276492199140263128e-01 4.285611623048526941e-01 1.039171271710789546e-01 -4.688000080757945970e-02 -1.929074971608960021e-01 3.571563988149340507e-01 1.470276251632114950e-01 2.026752060668700894e-01 3.041035672811587265e-01 -3.974227810802019589e-02 -3.756051500038170565e-01
-2.599764124690656653e-01 2.399892015397351031e-01 -3.456597164855468307e-01 -1.716483953722323652e-01 2.290042158798529792e-01 1.056512178089393378e-01 2.724571688054848173e-01 3.915074686723871156e-01 2.676879811827811984e-01 -9.071513648713223910e-02 1.900809778441486242e-01 1.582242430680428358e-01 -3.047421759755208903e-01 2.477233930958883945e-01 3.734582513465390941e-01
2.300546517203653496e-01 5.973443990484467864e-02 -5.887858087950689212e-01 -1.027013084291160255e-01 -1.695187413334635351e-01 5.138192242841681939e-02 -9.833842196856419637e-02 -9.345032601003801231e-02 -1.451994984771971461e-02 -2.933911270878492572e-01 3.393425515068645287e-02 -4.233896948623833145e-01 -2.876857273844001250e-01 -4.042143894796155768e-01 1.538127174467900649e-01
-1.572729367820220603e-01 -1.255872337896745961e-01 -1.518025624935047668e-01 -3.238126771150808270e-01 -4.190203555318958162e-01 -2.629607162928426084e-02 2.453609011314699384e-01 -5.673576132939727595e-02 -4.208263826584421885e-01 -7.379303248114504887e-02 2.061166088229038074e-01 3.328430417110458950e-01 -1.647551952608843906e-01 -2.361722221112269871e-01 4.161412577231785592e-01
-1.043231571132893498e-01 1.692780774288444035e-01 -1.182395269243683433e-01 2.970009691013551500e-01 1.373725206134122356e-01 3.970344239153642540e-01 -4.060212517431942003e-01 1.318026991341255394e-01 1.653948052778858036e-01 3.189347361690046401e-01 -5.376142221639698127e-01 -1.071152106848869690e-01 -2.385106852036259217e-01 1.104207031146889201e-01 -2.968319464011710818e-02
-4.057478743355664302e-02 2.448882852615557049e-01 -2.358799129307868614e-01 3.602844842131979752e-01 9.614130086482068280e-03 2.143124927788231816e-03 3.818138232295951728e-01 -1.053245439355724872e-01 4.514635815401547014e-01 1.540976507361391246e-01 -2.994502039477430766e-01 8.592316489339058005e-02 2.785611360124553570e-01 -4.274605355639052306e-01 -1.050219479010224416e-01
-1.146746013245888152e-01 1.373474424394072581e-03 3.705149882094198599e-01 1.652886950464964866e-01 -2.161715039266939864e-01 3.360258033489849083e-01 -9.529524030290739689e-02 3.702181107149695727e-01 -2.167229332200191205e-01 -2.755827641071015854e-01 -2.278524451081255231e-01 -2.205610083108395791e-01 9.206666393493587175e-02 -4.447813184922649321e-01 2.944057940258163475e-01
-5.759614033074625938e-01 -1.766092103189440266e-01 1.811477947310842773e-01 -7.213196921528750027e-02 2.898301348862645788e-01 3.579991343289449790e-01 8.400517331269095889e-02 3.274397124710932139e-01 1.896423358395764591e-01 1.370866494185316309e-01 -3.074467966862386437e-01 4.314611499972446917e-02 -1.903283987821516032e-01 2.125723900560978485e-01 -2.001688713962967714e-01
3.238911594533105953e-01 4.516560898014422565e-03 2.784049292919226759e-01 1.063905183894345574e-01 -1.653483752487504010e-01 4.168977553503488420e-01 -3.294025902755767232e-01 2.150954189783623460e-01 2.990636197010588249e-01 -9.210535564404276343e-02 1.492762454192887722e-01 -1.805324143735666520e-01 -5.332162403748791357e-02 -5.085792377374243056e-01 -1.898317918276989369e-01
2.714592904898043280e-01 -7.442561712016722286e-02 3.165436996419047633e-01 -1.285003207013208082e-01 2.479121353041695286e-01 2.707220818031391141e-01 -3.740918540801163039e-01 2.531849696693659335e-01 -5.185402771803725164e-02 -8.915230143631344695e-02 -3.774603153056190208e-01 -4.448798768820669269e-01 2.492133838880379315e-01 -7.324270832109037836e-04 2.283002489523369705e-01
-4.003856501587165218e-01 -4.247100064560628274e-01 6.934941854124776484e-02 5.279254176959444211e-02 5.243617548490471236e-01 1.004988299745692565e-01 -2.085022102328364380e-01 2.099025611814627212e-01 -6.995240558594115199e-02 1.869672784292286394e-01 -3.777969200167318187e-01 2.414631591588543291e-01 -1.936288841676200578e-01 2.573754679490128025e-02 9.443900296527713706e-03
-4.231662693594010483e-01 -3.333122024253795668e-01 1.142397049003096403e-02 1.314847774519919132e-01 2.092865805054704986e-01 3.916183098001568275e-01 2.543736276516245787e-01 5.480864982401711938e-02 -1.064985806373237309e-01 2.363332824577842883e-01 -3.322702365009684855e-01 2.884770460476908660e-01 -3.448788364035449416e-01 -1.989120722355230408e-01 9.062846120788953241e-02
-1.381498193501676797e-01 -1.336519469185538378e-01 -1.138027463316308163e-01 1.442760481085341162e-01 -3.279590105059099758e-01 -1.768577136062754740e-01 -1.670869860316187006e-01 4.580870845788707069e-01 8.926374136096759671e-02 -2.120586427502479387e-01 -4.262301598972254024e-01 1.626203631920127568e-01 -1.634773953505974306e-02 -8.951210308768638158e-02 -5.323095523942489304e-01
4.580607505223370790e-01 -1.284012505198223707e-02 -1.671134153743747408e-01 3.871611706401080211e-01 -5.551867028377411445e-02 -8.842985774198723614e-02 1.733966145784374413e-01 -4.487839084366015974e-01 -1.137382805185250673e-01 -2.559960265436577176e-01 1.569545745739251708e-01 7.572254729139828167e-02 3.382724342821307739e-01 -3.815575921862758846e-01 3.107778629882608501e-02
2.615157096783486401e-01 -9.367082256725937917e-02 -2.062857386788283232e-01 -3.217360883525233750e-01 -4.417064193066575807e-03 -3.259971218266444759e-01 -5.860952257803739990e-02 -4.589432174060787961e-01 -1.987520311344776192e-01 -4.512328549122018861e-01 4.140743223004911266e-01 -4.008071690362076389e-02 -9.044927910691459572e-02 1.695783963683509254e-01 -5.739717006004604882e-02
3.581963017583268405e-01 -1.472033045275182028e-01 1.083317737252356139e-01 1.694177620068992307e-01 -3.810725569396843787e-02 -3.210272182083287462e-01 -3.191409116164539705e-01 -1.840636015027749262e-01 -3.382144896262537226e-01 -3.028010812787449990e-01 -9.059320521568396678e-02 2.933048756531030365e-01 2.967142817613574457e-01 3.980871582956048149e-01 1.500743525636926978e-01
-5.074189191804540089e-02 -1.383528648024187346e-01 9.332303616772158472e-02 3.454074599370705045e-01 1.808256343929509347e-01 -3.108426894208974889e-01 -1.604877161853271450e-01 -4.862915999216282370e-01 -1.893564716306862239e-01 -4.879989883881810098e-01 2.045842878790204156e-01 2.184681250673062292e-01 2.900918062537627962e-01 1.003966221634520345e-01 -2.994414122911294787e-02
4.210550871908835258e-01 -4.976583589799722651e-02 3.782021797714960609e-01 -9.034778171394279578e-02 1.908781928861927879e-01 1.733889452754643068e-01 -3.438487136089137253e-01 -5.233336706870543587e-02 -2.715886649387183605e-01 -3.621695441001832605e-01 4.150396848115370796e-01 1.406774295436732380e-01 5.452708613319365294e-02 -2.570394106803116085e-01 1.246984849449134375e-01
6.822369484544608953e-02 -3.626312958111019835e-01 9.069867514002159792e-02 3.098019506238756104e-01 2.011630331655989146e-01 -3.407885485646086621e-02 2.967287985096711544e-01 -3.698860168472230536e-01 1.706297377895885092e-01 2.440124932188889387e-02 1.504719784221632273e-01 -9.768880184300209046e-02 3.411663738748916264e-01 9.195526921452755464e-02 5.535376048752258527e-01
4.010373891596821228e-01 5.812558094348425214e-02 -4.448062712680134201e-01 9.133535955825089784e-04 -2.651970029400356199e-01 -1.798411705207907663e-01 -3.351629573677776253e-01 -1.792943326901367262e-01 -1.501856802391410006e-01 8.223659345484951588e-02 1.930302463652691369e-01 -4.536708885233167177e-01 2.697682330004771978e-01 -2.018159082249451897e-01 6.987779437460343857e-02
4.808725008006816681e-01 2.456567987958540103e-02 1.961419908205188911e-01 3.220741478036427408e-01 4.545618147771276346e-02 1.455486686510806260e-01 -1.247831907179380723e-01 -4.370977742498521335e-01 -3.226268435909037113e-01 -2.492779125049011668e-01 2.560225299851877079e-01 2.788349896713486764e-01 -1.203503948533222595e-01 1.091970917219703824e-01 2.452477771633355119e-01
2.122627632457562141e-01 -2.752743474093632958e-01 -2.187555875930559390e-01 9.587514461859793224e-02 2.379951895208555768e-01 -1.677960547671139835e-01 -2.151566909883934064e-01 2.649252588594641633e-01 -2.767816907072492838e-01 -9.485556316714287631e-03 -3.578714669860158428e-03 2.750623627376888036e-01 -2.374012942324003894e-01 -2.912210123097720982e-01 -5.721085899133337982e-01
-4.300958272576025365e-01 4.809573217687987574e-03 3.474613754367175678e-02 2.986702563074007388e-01 -3.846703486996456284e-02 -5.532097363088406966e-02 2.480002797941038561e-01 3.816025289730747699e-02 -3.685270090329842985e-01 1.859656274680520083e-01 4.360638664520594121e-01 -7.375793766968383181e-02 4.320796758360213596e-01 2.750139803902833524e-01 1.696170070139697006e-01
-1.618066025340001712e-01 -1.468855839498554861e-01 6.389649147846380994e-02 -1.728197779994804228e-01 -3.426431378241721060e-01 3.974608809725655445e-01 3.488601544765306817e-01 -2.712696264946095615e-01 -1.970452041070711036e-02 -3.010751366685355812e-01 3.951129142676984007e-01 1.184585775752672460e-01 -1.668582943766204196e-01 3.002167148359304316e-01 2.616692567644410827e-01
-4.184693158219229565e-04 -2.688911496031098913e-01 4.693031688305050048e-02 6.821663695707605446e-02 -7.150241966632875368e-02 3.511375905982660472e-01 4.391869086035925934e-02 1.502092501579805998e-02 -1.216544746946356947e-01 2.811679916777956589e-01 3.917199705942873145e-01 -4.814286783974751627e-01 -4.305512029765951598e-01 -7.216170099053913559e-03 -3.546504718801121725e-01
-2.805369570216821318e-01 1.117139212132330361e-01 -1.577757193894085697e-01 4.523727547814723055e-02 2.621879376230405456e-01 -4.767113654462013517e-01 -1.579254169201875502e-01 1.810042029057687130e-01 3.272721926415135818e-01 -3.320551177529663667e-01 -7.106754808756124420e-02 1.912414733641516484e-01 1.771705672826122124e-01 3.392028295998953391e-01 3.503436471855403411e-01
3.170642625097543910e-01 3.371953358914147464e-02 2.623300313470693923e-01 5.140409755088625188e-01 1.554837717024155075e-01 -2.231094948035452705e-02 -2.842092573024864177e-01 -6.148246264565590535e-02 4.481718536871980713e-02 -5.487618011407207064e-01 -9.411254758095854295e-03 1.298001916355312202e-01 -2.395345184719292753e-02 1.422454896809835223e-01 -3.393490778177932210e-01
3.609073614926944784e-01 -2.148328970557858708e-01 2.047109360303269177e-01 -3.410259276310571019e-01 4.435808273903844162e-02 2.567972249454664735e-01 1.581448000746113747e-01 -1.597931268042924735e-01 -2.920527135686554199e-02 -3.136397635214574486e-01 -5.092562152191252300e-01 1.392299264390645663e-01 7.614893470640522743e-02 -3.747730146247525429e-01 1.507587134040755950e-01
-3.509014213271067217e-01 2.228605385148449414e-01 3.479927215197304857e-01 1.778211353154175167e-01 -1.522814621979268757e-01 2.688145874615514574e-01 4.031100829928428025e-02 -3.763265782820863214e-01 1.332982311151571508e-01 -2.245662371825633830e-01 2.952939921169653315e-01 -2.072372135782723501e-01 -1.717608065076091373e-01 4.549741402182682082e-01 -3.061085955544727566e-02
4.423047419650559808e-01 1.955498905931827083e-02 2.105559797348585394e-01 7.618814922593585004e-02 2.838247845023796345e-01 2.326904979661121586e-01 -9.512650934483340981e-02 -2.860014021593713651e-01 -1.932028597719911145e-01 -6.436063801045659172e-02 -1.762253296139930092e-01 -4.323874811134019169e-01 -1.502417146317958918e-01 3.801055799346952924e-01 -3.190010500161437057e-01
3.346933426616812701e-01 -2.744267102829010541e-01 4.292606712660681501e-01 -1.152007528317107593e-01 -1.469932128508399660e-01 3.432359952357741384e-01 -3.879479999960087216e-02 -6.468382668481165165e-02 2.258963661521428967e-01 2.206068948287457088e-01 4.372996033960661888e-02 -5.505803838569243158e-01 6.099695537936886819e-02 -2.459796216002970992e-01 -3.245275191595203140e-02
1.732504675042677300e-01 1.591728292057172645e-01 1.486658171545827134e-01 4.761386771709102406e-01 -8.933295649790166937e-02 3.760691786385301771e-01 -6.435004101217428607e-02 -7.283430812088424744e-02 3.423278321350626263e-01 2.274740823241435950e-01 -5.260435276716068226e-02 -5.851410443122383176e-02 3.236473274189376470e-01 4.984439881041959897e-01 -9.309473376128893363e-02
1.616873217318950395e-01 1.846525774164638478e-01 -4.390975144485032011e-01 4.192286215372652003e-01 3.869185979780321305e-01 -1.601829446096870169e-01 -1.610053340282691925e-01 1.060293714097742535e-01 9.209037167376928068e-02 -1.745962718079692791e-02 2.675939979194706941e-01 3.185919794878050992e-01 -2.029079233423250195e-01 5.860645139091268802e-02 -3.635555462222964107e-01
4.722380963208218652e-01 -1.672310517442009703e-01 -1.172097278505677964e-01 -2.324200468695660771e-01 -4.001166298410018252e-01 1.725096933104437735e-01 2.873801838445999013e-01 1.840299288303280933e-01 -1.307202294640581741e-01 -2.098681758162563304e-01 -3.310399150900553700e-01 -1.112088370992255215e-01 -4.231505787003134178e-01 9.565592598131408830e-02 -6.055354506383279350e-02
-4.218552713497359385e-01 2.265431722896867894e-01 -3.443853853593716319e-01 2.483759046207576482e-01 2.604004624151920466e-01 2.548428547764928220e-01 -1.863652684140601479e-01 2.961073372328011377e-01 2.798657035880067201e-01 3.187462070790482715e-01 -2.923454961558770715e-01 -8.493475812691542171e-02 -1.884599666690764119e-01 1.619709584462700747e-01 -3.006789546234606841e-02
-8.102951320740757468e-02 -7.998597459840733892e-02 1.597093070442163198e-01 -1.904444712417696361e-01 4.155792936381478286e-01 5.199425668854303906e-01 -3.113133478780261698e-01 1.445432134349186881e-01 1.924016828313159511e-01 9.975340737073822017e-02 4.557465598972702814e-02 -4.178266272629201361e-01 -3.668502527848004069e-02 -2.333791068720268702e-01 2.914931406320759311e-01
6.762022882476399592e-03 -1.069368674445532325e-01 -1.940244639187191089e-01 -4.308456364781716452e-01 -1.090562336072015553e-01 -3.383884572778765587e-02 7.269724371362461246e-02 -3.741826502915794883e-01 -1.312856992537562717e-01 4.138926412046761705e-01 -5.480692557601381243e-02 -1.527685434885746596e-01 -2.061789454239481567e-01 -5.084034700901652881e-01 3.017292256086420155e-01
-4.143276235867927593e-01 6.968837801954022582e-02 2.528065711589137510e-01 -2.584160046122535581e-01 1.270471384744392973e-01 1.148347596648392199e-01 -2.125028239057560886e-01 2.156134497975826236e-01 2.616572986539107970e-01 1.907495333150838884e-02 -4.431528686564539243e-01 2.674570311733169281e-01 -3.745374583813691483e-01 1.954900421745521255e-01 2.378460857183592181e-01
2.877636138254898723e-01 7.145653863274682716e-02 -2.115892550718564413e-01 1.068529513091042403e-02 -6.659524218709196586e-02 3.093747994216754504e-01 -2.163364057977032184e-01 1.115559967155825283e-01 -2.270556721554780125e-02 4.310018997323175616e-01 2.927331982976168478e-01 1.790818590163110458e-01 -2.627643067164740498e-01 -3.067355087214568288e-01 -4.905456476317490710e-01
-4.008857311530646811e-02 7.867830329773591036e-02 1.306763745298164803e-01 -5.301797021832582030e-02 -5.227795925630562834e-01 3.374454016387276045e-01 -1.616464185370164175e-01 2.970542613661060205e-01 -3.759759645122069949e-01 -2.531791412726077106e-01 -1.840085912885206232e-01 -1.352947133358392284e-01 -2.968502445740421325e-01 -1.935659417876126887e-01 2.959179691155802705e-01
-4.936305938357565815e-01 -2.738920758556546708e-01 2.194735562519045113e-01 -2.423920594167870979e-01 2.339530162983373962e-01 1.416844233729681601e-01 3.117013604822836334e-02 1.546751183361043391e-01 1.277878499932236234e-01 3.910628952303576988e-01 -3.875799389144440887e-01 1.143163652536191288e-01 -2.637016737874063321e-01 -5.729081219558441324e-03 -2.693829946378066831e-01
-5.896344827404537137e-01 -2.924433169508713348e-01 3.031631526675341859e-01 1.588572522886056715e-01 1.885519799990914222e-02 2.930267016754064535e-01 2.311036152688704659e-01 5.097155958323432712e-01 8.777625125499399772e-03 -1.792184326191080257e-01 -6.048727295125827692e-03 -2.101826063960885935e-02 8.036301805183683478e-02 -6.531039002194724552e-02 8.262695681193658881e-02
4.587089172064529596e-01 -5.301906546257572489e-02 -6.413480097473350794e-02 -2.445589327943209490e-01 -1.763106650082124360e-01 1.036567648237113892e-01 -9.755974548538087071e-03 6.048872456853197077e-01 3.187487404607732833e-01 2.747734319036184147e-01 8.278171876491904890e-02 -1.703588855960990744e-01 2.580260858806587843e-01 6.977662755569646880e-02 -1.749755100266665309e-01
1.368120578142723587e-01 -1.001888833405533280e-01 1.842623338815131129e-01 -2.500823485296495563e-01 6.977610229134306730e-02 1.715661651811947186e-01 -1.242037021504407562e-01 3.286243765456098309e-02 -1.743795193561034906e-01 -5.790231322230003919e-01 3.496047198077777418e-01 -4.033459825607119131e-01 -1.006512727855629480e-01 -1.374041108336300776e-01 -3.799245876069702321e-01
-1.236901949799588257e-03 -1.160688197580479475e-01 -8.071871087066441464e-02 -4.661188153311761860e-03 2.345046310184147054e-01 -4.509633230572555052e-01 2.565842449081486842e-01 8.351633596585587849e-02 2.275315503988895871e-01 -4.588333560201299233e-01 2.991209803953530644e-01 3.845851056008212782e-02 5.104998049748949995e-01 1.590115271136448571e-01 -9.834977767403463300e-02
-1.958786943859352776e-03 -9.488444153974333328e-02 5.311817067119545266e-01 -2.027166723014865446e-01 -4.374951392051827370e-01 6.095242135549973220e-04 -1.430911284116635762e-01 -1.980577927660416016e-01 1.316789771101499126e-03 -1.958041041152682737e-01 3.988678055373308107e-01 2.043601792000162287e-01 6.792255812238214008e-02 2.850107758960335747e-01 3.026491631250905479e-01
1.856603994022499593e-01 -4.544685345768935403e-02 -2.723472496130011078e-02 -1.248425471741639176e-01 1.301459590258525756e-01 -1.975913846153632691e-01 1.252350517103077987e-01 -3.398240933960932630e-01 8.273182948298676842e-02 -5.334774801152638579e-01 3.593334954196137909e-01 -3.692469338829962311e-01 -1.401598294500947806e-01 -2.518034591719705007e-01 -3.464627726999696677e-01
3.229294746655536064e-01 -4.651159265516635784e-03 7.327723244082087750e-02 -2.725783357588788536e-01 -8.602342926956248192e-02 -2.755527040617677947e-01 -6.929773264497359093e-03 -8.019603838204694690e-02 -3.796660607468396731e-01 -3.450800340856421955e-01 5.053378851155845286e-01 -2.717006087528430203e-01 2.218205203829776984e-01 2.522088153859669002e-01 1.448788921928746698e-01
5.108201570820607440e-01 -1.359560450998160142e-01 3.975711571019801549e-01 2.036271062598661308e-01 7.112612239368312772e-02 -2.679827242222845851e-01 -4.159881704294068200e-02 -2.873205354206844198e-01 -3.197368995124528768e-01 -1.672973490557899123e-01 2.869953098359783253e-02 -2.869549535062994039e-01 3.110795715314266796e-01 -8.035615440002040477e-02 2.080388723979101906e-01
3.587940896813938130e-01 7.049356326671984974e-02 -3.006180330285394553e-01 -1.512768433658464029e-01 5.120896046355384509e-05 -4.778448378525267937e-01 2.132751370175077488e-01 1.222307749330387716e-01 8.797016010932324007e-03 1.705525778326986708e-01 5.524727918242489100e-01 -2.693007088739087992e-02 2.001771817557572997e-01 1.541898095954875869e-01 2.555716148808775401e-01
-2.351373250767857803e-01 6.045076794161381717e-02 3.937509535541561800e-01 -5.544997050008444728e-03 8.572579857114996649e-02 -3.430021639134675504e-01 -2.779084474288300854e-01 -1.046279578548196393e-01 1.397414747309085603e-01 -1.419445845333742184e-01 5.974609812110052154e-01 8.450600389444992699e-02 1.449864306760161314e-01 -2.930937522550308705e-01 -2.492071920982704414e-01
-1.034536594178823293e-03 -1.508234177282951893e-01 5.445309942020667426e-01 1.197616043309031181e-01 -7.042861407534264928e-02 -3.518886571512197525e-02 5.968105520516032297e-02 -2.112792918746922710e-01 -1.182452720211305819e-01 1.117815448133906986e-01 5.797525241542249574e-01 -3.519178602739642114e-01 2.120358053302364987e-01 1.632782935925130019e-01 -2.322497701701353445e-01
-2.262989513442673628e-01 7.264952585565744025e-02 6.860957163220705868e-02 3.047369418255542195e-01 -3.089976944396553571e-01 -5.269575211769953471e-01 -1.068828871310550654e-01 -1.429927066513685396e-01 -3.527697373018064964e-01 -1.628985575345573977e-01 3.926568156786829356e-01 -3.112615534960042618e-01 3.224025790936046326e-02 1.501681403931300618e-01 1.235670755663481613e-01
-1.932870307858172432e-01 -5.091291675380405640e-02 3.897861270170870779e-02 3.219225664549651422e-01 2.346217730205225616e-01 -1.366076515647281497e-01 2.712221397046306604e-01 -1.644934672232667427e-01 -1.350147358512128193e-01 -3.242431334665374365e-01 5.366037659229933032e-01 -9.209314701680068604e-02 -8.007396510253528277e-02 4.788047409488584982e-01 -1.584701652059271881e-01
-1.299721336184979370e-01 -7.996354402238518844e-02 1.983990417390978367e-01 2.560140001526908793e-01 2.243573558354370057e-01 -5.358503837480798476e-02 -3.194031598337599420e-01 3.293604588397415767e-01 3.092327205215451152e-03 -1.684547369622397817e-01 3.299740612020791164e-01 5.088259942910144940e-01 4.109599302050681024e-01 -1.676681233672065729e-01 -1.221861694555385208e-01
-6.387799605473014342e-02 5.189926513350100190e-02 -3.295860004404708166e-01 -1.140266415000596063e-02 2.693747282660726161e-01 -5.200740409080742976e-01 -2.736215557146961519e-01 1.564318009976829738e-01 -1.143643143972808002e-01 3.524524555901036721e-02 7.231210251015270096e-02 -9.924900552554484501e-02 5.540072496601871066e-01 1.260430579810881968e-01 -2.997965725988130381e-01
3.549236609996778147e-01 6.274524744121998121e-02 -2.900187220318490855e-01 1.137497636448487615e-01 2.169585445187426631e-01 -4.755350020503979480e-01 2.175850612740717338e-01 -1.625163374090497215e-01 -1.872158408943273289e-01 2.421719293736379341e-01 3.080723663736769646e-01 -8.868820031235249979e-02 4.424785485594224799e-01 1.094087708596672981e-01 1.478318455756592875e-01
-1.000517026876611842e-01 -1.655173998290409287e-01 1.329366782069131281e-01 -2.454788584905980287e-01 -3.902600285725150997e-02 3.992476317885138015e-01 3.934310579820552989e-01 3.990512428919368859e-01 -3.384718146737523692e-01 3.028260325256683094e-01 3.147901729521371816e-01 2.307790959717588297e-01 2.150632774313177842e-01 -4.807684209401679593e-02 5.027732157321347650e-02
1.040036762900062861e-01 1.483295203712053090e-01 2.122858019391220818e-01 3.046313936202700856e-01 -1.397431529204753442e-01 -1.112038360651264879e-01 3.484245234417464032e-01 2.275268781491761039e-01 -1.553108166646003374e-01 -2.329128462150440726e-01 -5.848245744805435214e-02 -4.726034921453977633e-01 3.201550362775526515e-01 -2.571111583441313408e-01 3.879484153077910058e-01
-1.247294174206678430e-01 -9.249339772578223096e-02 1.643212094369821685e-01 -1.273201057679676784e-01 2.133434814145988845e-01 -3.681272018962590820e-01 -6.790674379963773655e-02 -4.244267864903892296e-01 -2.770963349255897712e-01 -3.771165475275201628e-01 2.544710118366461660e-01 -3.511081627893252732e-01 -8.635299768277325538e-02 -2.707368504806551557e-01 2.812582164375379001e-01
-7.515917071789315895e-02 -3.244137538689393363e-01 -9.137196217538229304e-02 2.678472560013770432e-01 4.959335372665511082e-02 -4.516128756661928478e-01 -2.045379916882209548e-01 -1.489760224761626367e-02 -2.316468048177796057e-01 -9.897438664477890835e-02 2.687720651129594795e-01 1.941949700890497066e-01 -4.264976023599398869e-01 -3.703066885863819935e-01 -2.609806110095794218e-01
-5.608580327969019397e-01 2.501426974121224306e-02 -1.716109173095568263e-01 1.225239811928372086e-01 8.933678277946416335e-02 -2.617444870627671505e-01 9.223084299337545866e-02 -4.291546033461511589e-02 1.262386300006863304e-01 -8.994009748100639801e-02 -9.622535696715615872e-02 -2.029133519319389345e-01 4.991637914959742295e-01 3.796869106964307905e-01 2.927890308725816237e-01
-1.121990007291149699e-01 -1.477184019352501820e-01 3.202332702554175348e-01 2.139692526645255166e-02 3.744801684174114964e-01 2.249545658596168729e-01 -2.626613924368248476e-01 -5.202348500442401796e-02 -5.532614927204018707e-02 -4.176884412293859206e-01 6.166070628141017140e-01 -7.703663677340563031e-06 -7.288940923146203232e-02 5.272285925346077012e-02 -1.849989899983505159e-01
5.232911216997255810e-01 -2.534014999442507077e-01 3.621264994987711400e-02 -2.463067428004997728e-01 1.333718975950734242e-01 -1.221940107626363625e-01 -3.833278628753577499e-01 1.978282283558874810e-01 -2.266338248238351782e-02 1.564036604853645818e-01 9.074966925270225304e-02 2.471341132534191076e-01 2.103893894943710541e-01 4.467632148417234883e-01 2.074426301803846684e-01
-3.896772506278711745e-01 1.581257919301711778e-01 -2.882645256269339984e-01 3.803581826272150468e-01 1.721101745521886883e-01 -1.544206003852933162e-01 3.062744561107354491e-01 4.328680406191350305e-01 -9.005582959587733749e-02 -2.196454640419583937e-01 2.648437132423145379e-01 -7.827266860474281496e-03 2.464331548296794586e-02 3.212396220211630737e-01 -1.742780673431428284e-01
1.526528963711161757e-01 5.447660947633570921e-02 1.531041580439287675e-01 1.865426188227728987e-01 -3.519741901557819630e-01 -3.916610096366899829e-01 -5.145632823701227695e-03 -4.801891683636236308e-01 4.260468292007227875e-01 -2.351371711469423531e-01 1.713017444220758523e-01 2.483225640169335960e-02 -8.558040652988521679e-02 2.939375742113112810e-01 -2.170448027561272530e-01
-4.151087829030332133e-01 -1.868749512391710554e-01 -1.310442485682227209e-01 1.896528606857233734e-01 1.476059267226135230e-01 2.760466712873872464e-01 -4.104887526282362947e-02 3.423865204481556929e-02 -5.593223337389732069e-02 4.356456543991756303e-01 2.059802982323764853e-01 -1.229225308758890023e-01 3.326162528698909521e-02 -5.384723122988751554e-01 -3.118700513149891829e-01
-5.656261990384656713e-01 5.535480328052291669e-03 3.418867451023026027e-01 2.692805208178708845e-02 7.146657002153249116e-02 4.300989935610036730e-01 -1.100367097139268030e-01 2.050851793511973831e-01 2.666192301005338577e-02 3.717745710612793131e-01 8.020575482691252867e-02 1.698511125951055467e-01 3.104108001214294643e-01 1.998229446762314065e-01 8.758107302157333574e-02
-3.632948508382859432e-01 -8.812295534539027475e-02 -1.558533963022964985e-01 -2.743067638662048946e-01 4.356415762775657230e-01 2.797271900667286371e-01 -1.375985993033358203e-02 3.628355838155757906e-01 2.779479427677617465e-01 -2.068891444541586244e-01 -1.103520904155925325e-02 3.144456309492431045e-01 2.884342024112968583e-01 2.006174439678985733e-01 1.354591458456470554e-01
-4.518940321196082363e-04 -1.437005688854819767e-02 -2.523183684009903671e-01 -3.453224115343462852e-01 -5.075627398372798416e-01 2.330224974251572656e-01 7.677022472370370609e-03 -1.501333430488872855e-01 -3.930265062130067211e-01 2.480224312588781913e-02 1.104344396078917566e-02 4.424343504200821120e-01 -3.358327946501377809e-02 2.087297426833873426e-01 -2.944685954280654161e-01
-4.715180156954932866e-01 -3.438030975890690177e-01 -9.113631746913757265e-04 -4.625698857520736396e-01 1.212679715796997487e-01 6.944176176144505053e-02 -3.144333972184805703e-01 1.042575180907191340e-01 1.162096581947663076e-01 -2.203895698060635844e-01 1.401376211820992979e-01 -3.908187145010146302e-01 -2.502099124079993908e-01 6.245398432534859934e-02 -1.235832616727051830e-01
2.806448032430323199e-03 -1.417027786543517409e-01 -1.124589276235382213e-01 -3.720459821051053662e-01 2.895441495598281012e-01 3.290846758188401555e-01 4.251307484574519124e-01 5.052643694763057081e-01 2.386506591141758504e-01 1.431748780439443848e-02 3.159308474140510442e-02 -3.253311896047098029e-01 -1.834716448485176343e-01 4.125837864277386718e-02 -3.639665728452910753e-02
3.461822209082632273e-01 -3.788856571217254915e-02 -1.557415572446712859e-01 -3.604767759194408283e-01 -1.235766359724577157e-01 4.581779564061919663e-01 2.526172199150381048e-01 3.932136206444105109e-01 -2.023016880991064179e-02 3.544541189116949265e-01 -1.715546176987402527e-01 -1.211244239945332007e-01 2.605286205642894926e-01 -1.402583296408050142e-02 -2.065714663827862285e-01
-1.569643756168260518e-01 -2.750982070995760531e-01 -1.339114333701331948e-04 -8.435810443528250768e-02 1.720867598292329381e-01 3.955523111222032651e-02 1.595349915016064102e-01 -3.648914580188779566e-01 -9.457419268099395704e-02 -5.114044169398391793e-01 5.020825046443487816e-01 1.221448757608784193e-02 -7.296137513318684542e-02 -1.222164193851830727e-01 3.997701695524804033e-01
1.645240019506196971e-01 -1.874141494489262316e-01 -3.284399276825076229e-03 5.592641876895745323e-01 -2.974592375996445992e-01 8.931861924789856466e-02 2.488808353406998519e-01 -3.877264256129920872e-01 4.161928895284469077e-01 -1.423202348069991519e-01 -3.582927748163575871e-02 -1.289490722738658168e-01 -1.201197338945886456e-01 2.159854918326533368e-01 -2.093457697537021156e-01
5.869785536683560512e-01 -1.124851238747299614e-01 1.365350857322085443e-01 -1.520373208943745502e-01 1.100912466908777337e-01 -6.300843073876256917e-02 -9.574332937695541335e-02 -3.527119037983703631e-01 -2.910861496133769766e-01 3.061903449847365455e-02 -3.298455160067645942e-01 3.086796957518478379e-01 6.191162311125207596e-02 1.426720341100769507e-01 -3.707360672410006663e-01
-2.050132022709397900e-02 -8.296741425724750429e-02 3.014219823062656567e-01 2.030686740834619641e-02 2.146656921599766812e-03 -3.385431012426534103e-01 -2.409439410310752483e-01 -2.932727852678118086e-01 -1.289358757584068149e-01 -5.396310517491693659e-01 3.878170117178980636e-01 -3.857076496701506985e-01 -1.467445780398953514e-01 5.949790413759040164e-02 -1.033297899133046593e-01
-8.205870894296192486e-02 -5.953026503436889549e-02 -2.503917697854567415e-01 -2.188795037679934496e-01 1.214568852427817813e-01 -2.499840731210018208e-01 4.437858892345367123e-02 -4.684257028655883781e-01 -3.968332233894614758e-01 1.909600579791300157e-01 1.558894164183260156e-01 8.962598391420270594e-02 4.623682696888052890e-01 2.356674337555789145e-01 -2.913453209126169452e-01
2.476904063952768964e-01 -8.740352780099103214e-02 4.443606437879678572e-01 -1.677419384344622788e-01 -1.139685038643326181e-01 4.764822454509408112e-01 -1.201262922601658081e-02 4.021791925996082151e-01 -1.392532239208259526e-01 -1.535898538624824380e-02 1.789875369609642275e-01 -2.683240729646486078e-01 -3.747395592346946386e-02 2.609120155718554490e-01 -3.322028105838130685e-01
8.363685142985551046e-02 3.482520722033820987e-02 -4.382921340259820359e-02 2.369036056351887798e-01 -4.896243760679610535e-01 -4.440291858056609198e-01 2.490704032617323538e-01 -3.902561775451005022e-01 2.106800858853678515e-01 -7.154820410396749153e-02 1.111004975942937872e-01 1.856562289025842083e-01 3.102978898210390080e-01 5.785231819702502110e-02 -2.942267751087702665e-01
1.922304756317345098e-01 1.096871281001000481e-01 -2.204159962339837311e-02 -2.442209787357317585e-01 1.470813073542370231e-01 -5.194544385096290240e-01 1.694838893243537023e-02 -2.195411017115744545e-01 -1.253945853130623324e-02 -3.086205790878881472e-01 4.743809865554782235e-01 8.630817682785288381e-02 3.761850860269824182e-01 -2.391547467398644766e-01 1.559953788533318120e-01
4.242369279918261071e-01 -8.241382836223845598e-02 5.610864925837030226e-01 -2.186573429611481378e-01 -4.882357199077833748e-02 1.277779502936452483e-01 7.795522906014112951e-04 -1.159418831307729714e-01 9.024373383765553480e-02 -3.932857418447245346e-01 2.523643707835304673e-01 -2.936677513075638957e-01 -5.457001381658528605e-02 -3.061583558446497322e-01 -9.482022467486632411e-02
1.890403298124459786e-01 1.269176069584179167e-01 -5.868288259325165068e-01 4.698355891586815103e-01 1.615380186632514870e-01 -1.143857758915383799e-01 4.884239062333309289e-02 -6.195736139295871664e-02 1.117838555811754286e-01 1.139816571493563330e-02 1.453944807812485029e-01 3.168964834087480142e-02 1.899752542742110806e-01 -2.022012898592174535e-01 4.752829638743990004e-01
-9.367210359278288490e-02 2.328904999131885256e-01 3.695672479923421960e-01 3.292827223187095309e-01 -3.797496863203250750e-01 -3.204849454481517590e-02 -2.435611337422291522e-01 6.735890578911889193e-02 2.430612404164487345e-02 -5.517589729161210821e-01 9.283202371904367492e-03 -3.492817435141933879e-01 -2.041637869570062103e-01 -8.447275678660080139e-03 1.183952587799116662e-01
2.839151832613369675e-01 -1.371005513863891578e-01 1.426159694298297365e-01 3.693932150929916253e-02 1.453403197893503307e-01 1.320439159917919381e-01 9.058988128340758617e-03 -3.679642671710738888e-01 4.041376132405803678e-02 -1.655967723056651214e-02 -1.818167933028024819e-01 5.573567793032239981e-02 5.203297811649667537e-01 -3.688059609236933878e-01 -5.099219378591620666e-01
-2.586390137723262872e-01 3.280046074668617195e-01 -1.677177713566487816e-01 -5.292694521281365166e-02 -3.195067763807757366e-01 -3.904496563893237182e-01 1.878322852308159929e-01 6.828126154558822325e-02 -1.430233600687468853e-01 -3.345628231409423781e-01 4.510831527063694502e-01 2.368526844196671421e-01 1.513103432470827014e-01 5.321287026573143925e-02 2.870886880995902057e-01
2.545790621029208056e-01 3.045570673150577723e-01 1.063544652369245169e-01 3.107359973409893339e-01 -3.397222581115083018e-01 -5.250743474200001426e-01 -1.696040408791757090e-02 9.031781271854473492e-02 2.025264337752129967e-02 -2.805247758506758116e-01 3.553466839438581548e-01 2.004249082865746656e-01 2.530210475520876523e-01 -7.822493335322805441e-02 -1.390057416368420118e-01
5.122412593069236575e-01 -9.591248535496955940e-03 -1.216775089868104981e-01 4.632001140956638063e-01 1.265246838334276591e-01 2.218628326918353766e-02 7.626778732160389984e-02 3.390831586242372686e-01 -2.397864736388391482e-02 7.155393955047077703e-02 5.228690884701098218e-02 4.622895584553808890e-01 1.260599927095159001e-01 -1.342550157673065292e-01 3.388306629939207837e-01
-5.895801286619106046e-02 3.527203282938023432e-01 -1.053611655360541383e-01 1.055666059756825981e-01 -4.815757706800329052e-02 -4.444489474143673569e-01 8.134893622263202062e-02 3.132208569362288642e-01 -6.369569923474860396e-02 -1.371343278839758928e-01 2.825849404718666635e-01 -4.186527186360920472e-01 3.286421169414633914e-01 -3.657696216946163537e-01 -1.597112861546126361e-01
4.265540157013242850e-01 1.805898872234277530e-01 2.318534461918518585e-01 3.269485872341011401e-01 -2.376477133316251544e-01 -4.192639331410748516e-01 -2.181245158504278581e-01 1.929079559068213323e-01 1.392065994468229817e-01 7.513836651237763842e-02 4.005661298962344130e-01 2.368692308249108550e-02 -8.003853141622637238e-03 2.408442033619450640e-01 2.522470253728749667e-01
3.811803601913688055e-01 5.891665443481671621e-02 3.802359213936172821e-01 9.534542932006827287e-02 -4.248622253803788218e-01 2.884803973973273927e-01 2.989272554483203836e-01 3.490695657933982066e-01 2.295397334210758436e-02 2.131326681174685045e-01 7.553893422545025771e-02 7.952764646061308285e-02 2.559912257461872120e-01 2.329934311053705742e-01 2.117160719684030024e-01
6.436294877448014984e-02 3.579195937828328344e-01 -6.001457903859466758e-02 1.551974161260159246e-01 -2.719678584843439606e-01 1.129402725366506210e-01 7.552113057264176962e-03 1.869483116753150875e-01 1.302485571000366882e-01 4.106476866891539679e-01 3.695331950043404534e-01 -5.323990785573278206e-01 -1.852710669108998953e-01 -2.797566303598128523e-01 1.205611669394554379e-02
1.037409863113030600e-01 2.860052475886528528e-02 -4.528537854061456813e-01 5.874480414591201627e-02 -3.000175006467141192e-01 -3.413277632420134711e-01 6.388772884271208541e-02 7.603651523858923067e-02 -1.450547896405635917e-01 2.680474479884227268e-01 4.290081472205388713e-01 2.373645890641277456e-01 2.870968715006191330e-01 2.158346833346530269e-01 -3.181579631596290758e-01
2.537901857584134446e-01 -1.978054646770245062e-01 3.121327662639885037e-01 2.314435975346735008e-01 -1.493991831518256541e-01 -2.395685954981913446e-01 2.943545092869154223e-02 -4.166530221019434412e-03 1.359250969579543500e-01 -4.759531134162773847e-01 3.511453463426082999e-01 3.553999176690406658e-01 9.908746175046151405e-02 3.969789615281243966e-01 5.332662240703530537e-02
