-2.994931988036568793e-01 1.399295459622581506e-01 -3.087348119054783013e-01 3.370406119903368025e-01 -6.814218156975326846e-02 1.001799995419265232e-01 2.237498228346841700e-01 -3.515859001903469672e-01 2.753847204610548535e-02 3.805257047204373966e-01 1.877976493556939019e-01 -1.316433325008893873e-01 1.122757620765481024e-01 -5.183103419934493861e-01 1.185175485621574459e-01
7.555610714571601993e-02 4.424459286036130368e-01 -5.558565293536184004e-01 -1.297474556213057129e-01 -3.840206213901407595e-01 -4.520663659172336618e-02 2.962377640490171937e-01 2.472509258123000153e-01 2.594741035076299496e-01 2.145482622095023495e-01 -3.322926911793525062e-02 -8.880396028162540478e-02 3.262966602630396756e-02 1.910954424105002769e-01 -1.199434139506670161e-01
1.083992260899451637e-01 -1.148082765440551489e-01 3.634882717727812296e-02 -1.804732130794624856e-01 3.211432797306722486e-01 3.886539429141531998e-02 3.787010869454284223e-01 7.051800618411951938e-02 -2.133499822734742091e-01 1.289722331450920412e-01 -1.728443324841366091e-01 -5.493123654625438057e-01 -3.849740804097796509e-01 -2.149156206360876287e-01 -3.161976684655462000e-01
-1.687100466205077032e-01 -4.370188607472664799e-01 -1.727266276332805883e-01 -8.543795557446355604e-02 -5.789640036502508719e-02 2.079980273176697536e-01 4.012857366108390361e-02 -1.641302285981189601e-01 3.079884754223787338e-02 1.520480672442995826e-02 3.268808885846971601e-01 4.981441319428182579e-01 -4.876810562821810857e-02 1.979528394171915506e-01 5.201067150487566071e-01
3.411009731107493281e-01 1.727975752168487422e-01 1.371754311678444749e-01 -3.798297231684276132e-01 -9.041717907731096349e-02 1.044867934990566100e-01 2.028299296226697412e-01 1.881229414266782640e-01 3.855946311074581190e-01 -3.229000463806674243e-02 5.395075625166194377e-02 -4.064649216177174118e-01 -1.764217555302031448e-01 4.677589921374337156e-01 1.652484123977603914e-01
-3.420392393912446982e-02 -9.781329155346807358e-02 -5.704627851803089483e-02 -1.247414316776299381e-01 -2.215607376279139784e-01 3.718911953704903683e-01 2.388866953341067800e-01 8.430166474357099482e-02 -5.114431345764117003e-03 -1.461557335812873892e-01 -3.688893057165035932e-02 -5.267165939277037578e-01 -1.859165088125343951e-02 -4.406397111764570607e-01 -4.734915832853184292e-01
-1.958919463445039089e-01 -3.692046814226217499e-01 -6.146028031948534975e-01 2.930889992065255911e-01 7.145340276866387480e-03 -1.290758786361097081e-02 1.357561184016303768e-01 -3.345479105758832894e-01 -1.666650465728470309e-01 7.415342321583558508e-03 -2.127038845893897689e-01 1.981776211900229401e-01 7.051307530587991312e-02 5.201465956971552257e-02 -3.332861170912432280e-01
-7.623883362788091977e-02 8.226152723520023524e-02 -3.041214009572651977e-01 2.332644458067097137e-01 3.087284509189086937e-02 -2.643479565588036651e-01 9.512762757483172234e-04 -3.749448266807952068e-01 -2.999343148984184859e-01 -2.180506832861073552e-01 -3.204341935112849926e-01 -1.600713632886814064e-01 -1.205250771041724983e-01 3.648636424223959951e-01 4.643723412090696723e-01
3.152533069590843229e-01 -2.070504428741739567e-01 1.352646356726655286e-01 3.275237300873038992e-01 -4.959016383292348396e-01 1.598457611087936714e-01 -1.069134775768021406e-01 5.573474732739596565e-03 2.296143386057817037e-01 -4.271727200972998406e-01 -1.193358253741204217e-01 3.855713668777684816e-02 3.885819998544647325e-01 -2.032578960843412219e-01 -7.752277952493642765e-02
-4.918481371165627225e-01 1.062132878133372621e-01 -8.035414150979663939e-02 -1.686639204402571868e-01 4.423075526120937018e-01 -2.549731185326906679e-01 2.114594188106733164e-01 -2.432265554671131369e-01 -2.680487023761069509e-01 -9.530626963261433493e-02 8.558288712131924270e-02 7.092760630271000011e-02 -1.200690680409162436e-01 -3.068865083910861102e-01 -3.814365977686543507e-01
-5.061459294115500107e-01 2.329425074676441387e-01 1.568856856846160761e-02 -2.112690355080132920e-01 3.520527209110866362e-01 2.616911347849129044e-01 -4.969902652462890313e-02 8.104201485797817017e-02 -1.195304918721361992e-01 -1.085761731202729563e-01 -2.240912394003345132e-01 2.084454554632204082e-01 1.285730197821684517e-01 -1.822761363043387817e-01 5.231766942946812771e-01
4.995999523771940121e-01 -4.327520411426978852e-01 4.734772326470482878e-02 -1.136680561884137602e-01 1.158909133147768486e-02 3.209469296400991323e-01 6.352180895968587149e-02 1.270458669558016673e-01 2.693562933621516109e-01 -1.501885134975376179e-01 -3.259302337655535786e-01 3.928191523194071721e-01 2.402661991773115124e-01 -8.717173654012937145e-02 6.060403598635814154e-02
-4.626036682907246345e-01 2.302046510938078605e-01 9.739424868960118442e-02 3.481002381263765266e-01 3.931560338706162061e-01 -1.053716919263501806e-01 -2.780481367860042699e-02 -4.838104255909367324e-01 -4.285173263534540478e-02 1.796671998852684138e-01 -1.900792110999281470e-01 -2.972571353902363211e-02 3.394014994770552796e-02 2.610819275352213586e-01 -2.477453295797788502e-01
3.381277114523367766e-01 1.154292149275817359e-01 -2.077664451002701751e-01 2.020419600239350133e-01 2.482465325545474832e-01 4.719646012875859387e-01 -1.383848607843766454e-01 -9.659362649069692941e-02 7.260781932267036665e-02 2.654758623000725848e-01 6.228902041699013736e-02 4.951726056430999501e-01 1.267792858827949953e-01 3.644459113647174897e-01 -4.220549286991132770e-02
5.349386336264263520e-01 3.451339316462437995e-02 4.198454058405193950e-02 2.199265000435374484e-01 7.803590613173596105e-03 2.823843725283017858e-01 2.988702409938149424e-02 2.781973309502318026e-01 -1.889561770568234933e-01 -3.236588015166149690e-01 1.966159396558266326e-01 2.708157073205317844e-01 -2.200397257363952142e-01 -3.821100320009960805e-01 2.398881170074427527e-01
6.204258852530906143e-01 -1.479809228398643872e-01 3.182934992233583116e-01 1.897885688821188688e-01 6.634466361879089516e-03 8.849148805399595363e-02 -2.162759951710267470e-01 1.597090629118965155e-01 4.002901397628519931e-01 -2.954232691483601458e-01 1.186263501924268325e-03 1.271153693252029260e-01 -3.078662384914435113e-01 -1.120805287180048383e-02 1.308120592850002262e-01
3.211220511941563771e-01 4.214162097281045627e-01 1.733574951304737155e-01 7.882845993742063073e-02 -6.643219632608930725e-02 1.920927029194860192e-01 5.696586275702348462e-02 3.791145141551497538e-02 4.021816473794436186e-01 -8.583570353928046681e-02 8.689684434013569825e-02 3.978582986300743807e-01 2.244223988414882076e-01 3.945119485164844120e-01 3.099383887960223682e-01
-4.370901681217910228e-01 3.290335339900918865e-01 7.688771286657193615e-02 -1.764144382581050441e-01 -2.077544102722310715e-01 2.134200944453089055e-01 4.662437130421773213e-01 2.598620178828145999e-01 -2.709275135649567498e-02 -1.322916230482588384e-01 2.639276242358355451e-01 -1.048047794080612799e-01 -2.156710064355921441e-01 -3.066433421150328575e-01 2.249728837629511313e-01
3.132908833338529098e-01 -1.278872364333254741e-01 2.932834764007189454e-01 6.738773921541645062e-02 -1.820832585543321891e-01 -8.688525366616521584e-02 -1.870270926313714888e-01 3.730739827462343228e-01 -2.965487796758226602e-01 -4.376200174906783591e-01 -2.116039316727365283e-01 -2.441591688525290293e-01 -3.462868629919690355e-01 -1.395182777985495837e-01 2.384289381132978780e-01
1.805010235708792363e-02 4.565108090435165411e-01 1.320381202284802991e-01 -1.579148888597747269e-01 -9.629598701051789167e-02 8.523115116786790513e-02 -2.716841326113259569e-01 2.099706761722425763e-01 1.490441103607901274e-01 -1.996090530991323220e-01 -3.312367623174453102e-01 2.363642694225849203e-02 2.914109781260140752e-01 4.996200280672707938e-01 3.280072465445351138e-01
-7.434467336873876731e-01 3.152471910005762434e-01 -4.355169471957372473e-01 -7.173095693007632001e-02 1.744520796460202750e-02 5.164183440907178964e-03 2.877300045949994223e-01 1.823691391870314871e-01 3.067145541276160639e-02 9.889825313795863604e-02 5.570763698748134457e-02 9.206022529819078704e-03 1.480727526559029172e-01 9.774176675872983319e-03 -2.787453651976904909e-02
-4.837346619520666718e-02 1.320183959016751896e-02 5.586283987268526596e-01 4.688976511523385710e-02 -2.325368787448978958e-01 7.729697747352824722e-02 1.046096684490053219e-01 1.646867789527753367e-01 3.102639337621969085e-01 1.701286630309332415e-01 -3.360586188570093835e-01 -4.972675875234769394e-01 -4.026828415420882074e-02 1.587988395330113267e-01 -2.699105685808793620e-01
-3.940949889787619953e-01 2.273763025260860382e-01 5.481545987942516851e-02 -2.395520772615327143e-01 3.753403827645789698e-02 3.225815488604095727e-01 -1.537576892066271905e-01 -3.503248871679406906e-01 2.074866549962405271e-01 -4.156798030758182549e-02 -1.018826146983030506e-01 1.537776546273015577e-01 3.770266671605128073e-01 4.955153711898980240e-01 1.194645429863261527e-01
-2.280815980293193768e-01 6.554094779235783430e-02 6.676255931389751819e-02 -1.505119493036233824e-01 4.523694761027122202e-01 -5.611680213706886355e-02 2.554964504254774171e-01 -4.579958280873732135e-01 3.330631658185449484e-01 -1.429859490711031175e-03 5.438852323363430052e-01 1.182157582363921045e-01 -1.913463456862428413e-02 -9.946598614281286499e-02 -5.260593564349819173e-02
-4.902147549889744327e-01 1.316711223304787015e-01 6.078947677550835399e-02 -1.247882974778783127e-01 2.009024384964046839e-01 -1.427772116910621947e-01 1.596378410652647406e-01 -3.924081641034077306e-02 -3.037616751349628275e-01 1.444829472304106632e-01 -3.509790062937552246e-01 -2.973455034128286711e-01 1.631355732646804502e-01 3.890961004269077317e-01 -3.640843950307021681e-01
6.087483222089983270e-01 -2.533913804627538902e-01 -4.216105128955353193e-02 1.565215335367165506e-01 -1.738467239846499743e-02 2.144681773679075754e-01 -2.584522571651938216e-01 -3.472368688165872186e-01 -5.637506982392625175e-03 4.073556476074908367e-02 -1.345123820662693093e-01 1.780717233739904093e-01 3.234680766720214318e-01 3.835265135998134900e-01 -4.531484299139460631e-02
5.587206476055802673e-01 -4.076174527882542309e-01 1.105011666017830518e-01 1.260914956771646833e-01 -1.053966194828652309e-01 -1.575552791207441850e-01 -1.933093053884416337e-02 5.570522846913895931e-02 2.939751338376028755e-01 1.390521346279266213e-01 -2.488177342129507252e-01 3.057669891549366983e-02 -4.840295031313321950e-01 6.815921711689380824e-02 2.159363162444467021e-01
4.209082911417189599e-01 1.848208489796357989e-01 2.494626631460201971e-01 -4.892311640821042640e-01 -7.270219868372960852e-03 -2.206182429036791792e-01 3.120690802768603250e-02 1.083665337732279688e-01 -1.561346194432048917e-01 -4.791387353997228482e-01 -1.172619769978233834e-01 -1.976259020968670621e-01 -2.914225332236645705e-01 -1.762586884785508068e-01 5.388632809182421907e-02
2.675051841550223908e-01 3.451055552196111709e-01 1.938287298996543007e-01 -3.515528312122351284e-02 -5.241639887111787521e-02 -7.457782954643084328e-02 -2.167355805608419395e-01 -2.709319653082643553e-01 -1.819123384385682718e-01 -4.388973215387075300e-01 -1.120648619472240370e-01 -1.997513220929045541e-01 4.622193993049144578e-01 2.453306461734869881e-01 -2.997230517773678549e-01
4.341245412486330335e-02 1.658242043841193225e-01 2.927148327672302996e-03 -1.799807889985829135e-01 -8.809313631801232725e-02 7.709220600441560323e-02 4.595298410695911606e-01 -1.030181724129390769e-01 -3.223465353076810924e-01 2.893901830363089234e-01 2.829566786414468016e-01 -2.697395975720508904e-02 2.448904993540635677e-01 8.677741304356698104e-02 -6.056271893201091716e-01
-2.430841416013733713e-01 1.909098204144001887e-01 1.855204027517261267e-01 -5.736286532730604237e-02 -3.446498564030306411e-01 2.892347240578113099e-01 3.441007431502407510e-01 -5.998715491645262993e-02 -3.994463244123677703e-02 4.245313657892587633e-01 3.802576059049063428e-02 -2.144589221193359541e-01 3.232753113376633514e-01 4.192667049468187801e-01 -1.809935202219666861e-01
-1.041968726346160085e-01 2.020008409626824208e-01 2.899888718900149320e-01 5.502473520970526666e-01 1.217911482991224231e-01 -3.153553908080699436e-02 6.719426412176837671e-02 -4.120506204096708314e-01 -6.848611844786148262e-02 4.947426731965218899e-02 2.961616343494483661e-01 -1.915145109481392605e-01 -1.061445092552524942e-02 2.448545419693183289e-01 -4.239700865994082690e-01
-5.699194200538287847e-01 -3.216263929253221354e-01 2.961687455417407605e-02 4.898001208659891192e-01 -1.795122788946870440e-01 -2.148493950597466784e-01 9.085638300652491839e-02 4.327062704147846550e-02 -1.822689211977530366e-01 -4.301777467557160034e-02 4.246899040522854329e-02 2.204463974437695373e-01 -2.347865099827172730e-01 -1.558104635452673969e-01 2.785328101802409528e-01
2.229579778962521019e-01 3.972280351579209057e-02 -4.356107904283077620e-02 3.412676276929537678e-01 -3.298603020618688375e-01 -2.456863382744294000e-01 3.068537804998374696e-01 -1.141949742424771819e-01 4.651026429600097489e-01 1.554024936802972934e-01 -1.788360994241213961e-02 -2.320141161298111820e-01 -4.185495668185238577e-02 -4.315744487976484467e-01 -2.671183779563582328e-01
2.468584817652803576e-01 -1.245060013830776580e-01 -2.375278120060945741e-01 -2.237976408522387647e-02 1.796998408606381714e-01 -2.598830304374732392e-01 -4.268702917815700992e-01 -2.164244716742561025e-01 5.163475001781492324e-01 -2.209927873211259552e-01 1.119943326015958446e-01 4.435903342566540619e-01 7.970364356084327917e-02 5.920955035630461050e-02 5.589007250037107688e-02
-1.467583797692020020e-01 -1.775561967680074349e-01 -8.857942056225277805e-02 4.721903383437419353e-03 8.107783073420340991e-02 -6.046896836437918310e-01 3.701929234660796819e-01 2.415989189302665818e-01 -7.853162986954392855e-02 2.848908548808265495e-02 1.762410650690696412e-01 3.314700478281707441e-01 4.533794412123935968e-01 -1.320254373463944919e-01 2.313685711780576887e-02
1.548676047239962439e-01 -1.086033381293075861e-01 -1.384952039967679571e-01 -1.674020570125345775e-01 7.258462645999540219e-02 5.037190675637529674e-02 3.870441132973428955e-01 5.933780998421927383e-02 1.580728149288131712e-01 2.772147058076198101e-01 9.302526152311293983e-02 2.385778678070451519e-01 -6.660750570798275039e-01 -3.188198118613553844e-01 -2.077903536935730155e-01
-5.325198137705934066e-03 1.777188435024307789e-01 1.183638598172788575e-01 1.641126221136697191e-02 2.314438841171234055e-03 -3.892201782219632533e-01 7.103868259356565899e-03 3.084379642071743421e-01 1.127625323270476931e-01 -1.702813158301380581e-01 -1.140269320355433158e-01 4.171267798437618968e-01 -5.311008021474087348e-01 2.512864598040817077e-01 3.653836638213774912e-01
-3.471841215067631436e-01 -2.837519082901204109e-02 9.969440126253820145e-02 6.785877083038670265e-02 1.848615951112379807e-01 -8.604350386504817927e-02 2.833507405086945763e-01 5.910761172658645091e-01 5.156073572828479695e-02 1.371697306730582377e-01 -4.590918481936425710e-01 -1.192947353131197374e-01 3.343500507843188974e-01 1.763990578380305596e-01 -5.917049894382354208e-02
1.263384674867311930e-01 -1.963263655992346646e-01 -5.323175038254847058e-01 -2.101844967092476868e-01 -2.439501058634067354e-01 -1.556762915073264530e-01 2.735925153785438990e-01 7.171908069030924482e-02 -1.328355770412227230e-02 -2.814809910124719400e-02 1.785810843450177376e-01 2.601365398522087480e-01 -3.763286041296012296e-01 -3.305111170387770025e-01 -3.206556426457404241e-01
-4.251934066891681074e-01 1.540046664645315089e-01 -3.893699473128304223e-01 -2.417671196081302987e-01 3.291806205510980615e-03 -5.222173208917879617e-02 -8.143714017818515227e-02 7.290715519035154690e-01 -8.100799786199206973e-03 -6.824550424040957963e-02 7.654127777759170415e-02 7.762285077669849043e-02 -7.815359375119768082e-02 1.272159956871535824e-01 7.495807486639698147e-02
1.540318163854249855e-01 -1.362015869418407299e-01 1.954934614745571647e-02 3.907969972346542198e-02 3.033843176181374446e-01 -2.480751121415020743e-01 9.419597866144237275e-02 -4.297231670796111680e-01 -4.618886880750137647e-01 -1.308305030662404271e-02 -8.665233798539513643e-02 -1.040038865071054447e-01 4.963490762505268772e-01 3.471645510760095199e-01 -9.986163300408285037e-02
-1.116773444017765682e-02 -1.164279597768490687e-01 -4.600122130778653423e-02 -6.780319828330120570e-03 8.982779073639607370e-02 5.492764211325839446e-02 1.242130438204128717e-01 -1.901707563982942550e-01 -2.494145947610300340e-01 -5.796687363231446399e-01 3.865107127450546076e-01 2.455787910306382327e-01 -4.837953865481198767e-01 -9.716299514991583175e-02 2.646814515548252533e-01
-6.117842029699697981e-02 -4.811709400794081382e-01 -6.840966093422705396e-02 -6.764730178318399678e-02 4.094944411391510664e-01 1.177574725087468521e-01 -3.600475873404381799e-01 -9.441043554986398856e-02 1.837007795583466274e-01 -2.287162691305996420e-01 4.535607894200432977e-01 -1.312338409167913833e-02 -2.721140333082642804e-01 1.602557276232761951e-01 2.090476179615771146e-01
-4.165312123973952639e-03 -4.994945981766477083e-02 8.135997987016606314e-02 1.494178239521020413e-01 2.120526098681046745e-01 6.009348274823388819e-02 1.867159216478945019e-02 -1.246210613380126092e-01 -1.472395547686822515e-01 2.912026272802212268e-01 2.066148409823624355e-01 -4.634525225882036858e-01 2.719532395941499647e-01 4.581793317785222697e-01 -5.062042487676535751e-01
1.739897082009989049e-02 3.786314261548397453e-01 1.523756221955956947e-01 9.786352675369107412e-02 -2.999237102981011094e-01 -3.361425551926633393e-01 4.233156468281650819e-01 -3.724492516037941625e-01 -1.773726750327460008e-02 -4.340261110324915572e-01 -1.053504690830057156e-01 -1.528553271248732359e-01 -2.029395814482944926e-01 -1.870977969899508264e-01 5.772763735116366590e-02
1.290311991662962121e-01 -1.605483323945579854e-01 -2.219707183898406502e-03 -1.588975597252376692e-01 4.205943343366283504e-01 -2.856729826331696476e-01 -1.359150010169028477e-01 -3.932933155267758218e-01 4.924111789077683515e-02 1.998277225379429534e-01 4.202833316893691412e-02 1.881905181298110241e-02 -8.548168610281076107e-02 -1.543592455272303210e-01 6.519589060467663177e-01
3.967414617769300655e-02 -2.940067688488666175e-01 4.597035186962581538e-02 2.052283314355382304e-01 1.939782503781557477e-01 -8.604039475196055553e-02 3.469696012409960173e-01 3.524068246699450513e-01 -3.234033649118436826e-01 3.756672841737737079e-01 -1.171837418984744417e-01 -4.743574861526493880e-01 2.793956206598063874e-01 -9.696379295612973792e-02 7.885725366538055836e-02
