5.410096738446903974e-02 -9.107682970851726026e-03 -6.923708830896433894e-03 -1.006804552877165054e-01 -2.612848145006977513e-02 -1.190365529578085377e-02 -4.099722869430636601e-02 -4.092912089213044530e-02 4.695021382772117564e-03 5.704550082435449164e-03 4.742667565446851557e-02 -4.519693780699388791e-02 -1.956233592595525358e-02 -4.262791843384305945e-02 -6.355521838690898762e-02 4.272226076294961816e-02 -5.233985536024243074e-02 1.382589865330600618e-02 1.172905490118364598e-02 -3.393279230483636777e-02 5.302273981597879771e-02 1.792527258352720823e-02 1.155205941448141267e-02 8.422022732887542162e-02 1.337037818711168079e-02 1.177424074926653255e-03 6.104153967687214744e-02 -4.621016218534472475e-02 -7.005526811695539542e-03 2.938054250797675349e-02 -7.584661310097931541e-02 -1.275574784387674757e-02 6.040854515631297441e-04 7.076545308508738752e-02 -3.524369211419542403e-02 -3.970892119512850482e-02 6.900774799443211427e-02 -7.415346257775765060e-02 7.230807779782091015e-03 -3.244051188608600839e-02 -5.759617212509886286e-02 2.078315635162089961e-02 -2.698100115676717661e-02 4.760870982791173822e-02 -7.161125166336984593e-02 -2.171915144012264917e-02 -2.148403984368151692e-02 6.218315047197060103e-02 3.855952540805708539e-02 5.076735356683559353e-02 3.875146596523430798e-02 1.172011163700442254e-01 -8.346659303352252368e-02 1.355024640866121484e-03 7.873863117731125238e-02 -1.270896176916591798e-02 8.644595990805022112e-02 -6.353599456805140988e-02 -3.753612064930574727e-02 1.031718883285826782e-01 -3.038864449812175156e-02 -5.605242546920320007e-02 5.555133902243798022e-02 6.579829311457230379e-02 4.594101921332659211e-02 2.790489290404631062e-02 6.640413818520120304e-02 1.905403485523957108e-02 3.828089664173057929e-03 -3.903766057495899194e-02 -1.145138977022427777e-02 6.512131854843471179e-02 -7.561021887138620612e-03 -6.591357640054151812e-02 -3.349348702143038758e-02 4.010775017446580742e-02 8.742762402714318593e-02 6.076490073143624854e-02 3.318441878973781012e-02 1.524676142150988879e-02 4.777540088922754835e-02 -3.447244201377624301e-02 8.222247890820380545e-02 -2.759916809542170904e-02 1.281083080834091205e-02 -5.134618212496873911e-03 7.356684067485658174e-02 6.455968382736257394e-02 3.690601267614010417e-02 1.117568500644602475e-01 -7.960507708647550362e-02 5.027954600581473893e-02 1.897915678265076414e-02 3.603231838869836584e-02 6.888240168184037344e-03 3.571383171657192823e-02 1.162547553471780098e-02 -9.119357851630000011e-02 -2.487739901780753118e-02 8.237797106077171527e-02 6.258088679392674603e-02 1.460779407504783078e-01 -4.484375879160444611e-02 -2.210588744138305972e-02 -9.342377781133921755e-02 -4.765904975951872763e-02 -2.011207473953879193e-02 -4.509630330030930945e-02 -9.738793844690159240e-02 -4.617174962945425065e-02 5.908663674199032823e-02 -5.840594051676206017e-02 -1.067587805032772048e-03 9.768773917636966973e-04 9.946930662076949869e-02 -1.757638596674981554e-02 1.074627387284350644e-01 -6.091219879926425967e-02 -3.360666145405548366e-02 -6.499315433137543840e-02 4.902981571393239674e-02 5.046187439152547555e-02 -3.045522174438782675e-02 1.160364444135263129e-01 4.045302325219093942e-02 5.636083858500427757e-02 -2.621872982188498853e-03 4.078961790474718019e-02 2.777485688600031880e-02 -2.750504828318270714e-02 5.298484373909032735e-02 4.616588654655830876e-02 -4.334555748445890339e-02 6.390536900973894929e-02 8.989787319108124425e-03 -4.128911221877826915e-02 1.535102968130076517e-01 1.174873689393634707e-01 1.236684728794693738e-02 -1.236115827820542280e-02 -2.826649272459741749e-02 -4.518346827739879584e-02 1.175911673263130147e-01 -4.015580938345764822e-02 -3.676409458188200502e-02 8.154445704077215029e-02 -4.755812692391423596e-02 8.425750059406357517e-03 7.773124362309359603e-02 1.222454742330484484e-01 3.334274672075540624e-02 8.204170389052595214e-02 5.054892466780651523e-03 -2.841234928896776285e-02 5.449522234581165303e-02 3.479475805184571724e-02 -1.983404231630699760e-02 -8.161820301109765086e-02 4.379652004170592194e-02 -1.679683049196717404e-02 3.523347820040086120e-02 1.211517039399076789e-01 6.614600810472941184e-02 7.543411458371803921e-03 3.443396476149023638e-02 -2.181597581543939096e-02 -2.437541013188775432e-02 6.619123894049630530e-02 1.750193428909513696e-02 -5.832397794773041405e-02 -1.263656696047300299e-01 1.005220571654367318e-01 -4.054888550623007154e-02 -9.127667064686702941e-03 2.022860715426923195e-02 4.228844032462383828e-02 1.090061289648845688e-01 1.958446813235956846e-02 -2.982317943849732700e-02 -4.698200276837815464e-02 1.439230722231653933e-03 -2.172268680074191521e-02 3.399475911338825651e-02 -2.410837687300220258e-02 1.044928761659233568e-01 3.636062197035434124e-02 4.429223771147078326e-02 1.045373347854266638e-01 1.230669582215017030e-02 7.239263564943303197e-03 1.552973583483022169e-02 4.732788712147197041e-02 1.480286383461103944e-02 7.901283260877418890e-02 1.235620747241352943e-02 3.229927004211001484e-02 1.455597721631486929e-01 7.181485839526212389e-02 1.199624362335265093e-01 4.684071701935614562e-02 2.931689801473291029e-02 6.096189670525917897e-02 7.812376670639872844e-02 -3.118970110743578272e-02 6.657545724247868058e-02 4.135828558988167980e-02 -2.698736913045403016e-02 3.122596269879520259e-03 -3.500837189887928691e-02 7.793194451274391976e-02 4.611507327712209559e-02 -4.881324820697478979e-03 2.126320733725011250e-02 -7.542696047338372581e-03 4.270598573389555036e-02 5.471465943282194377e-02 8.559654890055955201e-02 6.655297427675628541e-03 4.991359004566149615e-02 -4.581157236941024030e-02 3.423082117424172677e-02 2.706869497878222272e-02 1.148292195583687156e-02 5.609747798714270067e-02 3.834676049008690218e-02 4.106543570766844897e-02 -6.690344055604006968e-02 -8.149009794944545026e-02 -1.692699393511960457e-02 5.014482339982929276e-02 1.261106628919668182e-01 -1.817946552806186042e-02 2.140310965529987342e-02 -2.032860621264345746e-02 6.016209816419800654e-02 1.868679496516133590e-02 -4.819859092333841216e-02 -3.986943688651192752e-02 5.095404247278700199e-02 6.274808670892481621e-02 -2.553414845361383703e-02 6.688174779044439577e-02 6.933415182362864804e-02 1.174886100692096313e-02 -2.005402730828436189e-02 1.337463904986151420e-01 -2.838770557011797979e-02 -3.535477657688233105e-02 5.118630808636315949e-02 4.255111269218000980e-02 4.789641483408417499e-02 3.276582727315578963e-03 -8.954198572461366523e-02 1.842170227322142625e-02 8.442187417857908993e-02 -3.848903095180666867e-02 1.622022928771676975e-01 1.600287178860928250e-01 8.493588155543815854e-02 7.827050139027090514e-03 4.814164732181018536e-02 -1.057189862900293972e-02 4.036056811822277129e-02 5.649756843701141118e-02 -3.455031664667163049e-02 6.777887909297873603e-02 3.435521922876559608e-02 2.938595761581699189e-02 -2.677885824348046062e-02 1.060574073430608916e-01 4.324400760347881650e-02 4.872590993640709203e-03 -4.619424216712989667e-02 2.825547500303265264e-03 -4.175614514952352002e-02 -3.640664018479522479e-02 1.618780720348184793e-02 1.204768389733352485e-01 1.174215796232626202e-01 2.432308337909815793e-03 -2.457258075555503879e-02 -2.263219844749959908e-02 8.489535633096906286e-02 5.377595507030574762e-02 1.202625425095906891e-01 4.925826334790947558e-02 1.190254646239016778e-01 4.429014071136937181e-02 -8.579851892972638339e-02 2.889067308627761912e-02 5.349434112231840621e-02 7.696122198301884321e-02 -2.140748034969597660e-02 -1.573616075401806230e-02 5.048298666210197794e-02 -5.982492188580856851e-02 3.755083353095746423e-02 -2.631889426627891451e-02 -1.197695209681900672e-02 -3.912563314965473993e-02
1.612496235840146439e-02 3.477382741336595279e-02 1.401555854221692501e-02 7.167576721869310663e-02 1.661109188851735835e-02 -8.200956927691472817e-03 1.597098158401447088e-02 1.996665346338746816e-02 9.716840101539465230e-03 -2.068094140825364746e-02 -4.896228397363978219e-02 -1.861049886950230658e-02 -8.394428175459056618e-02 -2.363062231155728041e-02 -1.569246303613846538e-01 -1.827346083790763048e-02 -5.197774405843354206e-02 3.186078041690370427e-02 1.141583614301292238e-01 -2.870011983359112631e-02 3.774133296726459724e-02 4.317538728175637081e-03 4.618671021512534697e-02 -3.133603393948102694e-02 4.946542259973253641e-02 -1.590228529343472585e-01 5.510172298844371805e-03 -2.855683341458923469e-02 -8.656510302354984698e-02 -1.011064690563979324e-01 -7.129613699848964814e-02 4.664615237753710897e-02 -1.299712621634673271e-01 -7.297308006548249015e-02 6.530797722150606666e-02 5.332973384707793280e-02 1.025009950929731406e-01 -6.913648234451677532e-02 -3.585229445120789032e-02 -2.297320493420199755e-02 4.216880974477763694e-02 -2.403435750230920043e-02 6.037232631743160577e-02 7.056736497025448140e-02 -1.055036243609832475e-01 5.055643164558838026e-02 -6.909657092877360789e-03 -3.606356884718641895e-03 5.027580338115748143e-02 2.146909234170951697e-02 1.421706651339403327e-01 3.135955711912743332e-02 -5.061682576143166495e-02 -1.154487933464357595e-02 -2.867545221527661656e-02 3.594964327437735058e-02 -4.155065975279384483e-02 -5.553411246427162468e-02 -3.725810413868853310e-02 2.750707469260649587e-02 -2.579336622266537558e-03 3.975759566591457496e-03 -7.732102633523903201e-02 1.360173516650276318e-02 -6.539549683023430926e-02 -9.984263970720745271e-03 1.314820442769348285e-01 -9.966998049926369813e-03 -1.001095983400846212e-01 -4.556488536473732656e-03 -5.238152948043291873e-02 -1.325776749042347491e-01 5.870126210979299819e-02 -3.530953525442937641e-02 -2.235486288777710495e-02 2.421713381135750381e-02 -9.874530377136894049e-03 -5.238366243724648652e-02 1.725020492956330642e-02 1.277815533139773502e-03 -7.920342511968730959e-02 -7.811058198771814176e-02 4.645675383207444054e-02 8.142141435011849768e-03 -5.679330316534472733e-02 -3.636909342584895843e-02 -1.059309007886245213e-01 2.008852490987790215e-02 -1.282416109359537926e-01 -9.828299148847533667e-03 1.774333833975783384e-02 1.445444074316376386e-02 5.856480815393310529e-02 -6.890449739986642674e-02 -3.325266053129462274e-02 -8.303200226135462603e-02 5.105646452958635673e-02 -5.274368642762933268e-02 -5.110611550769663530e-02 -1.672989611631726589e-02 -4.963496003051504069e-02 2.884390480007105809e-02 -8.558232556067567331e-02 1.701909394471614462e-02 -6.554271849579546005e-02 -4.587244540395121056e-02 -1.142731483312311091e-03 -2.175352653036364062e-02 -5.292760471579745218e-02 -7.539514073161741187e-03 -9.073326478317071762e-04 -1.806687813046502222e-02 -4.186220693602121963e-03 -1.186814808985334757e-01 1.396764449700100587e-02 3.791790765067680480e-02 -2.171537065853995641e-02 -3.637983073408293522e-02 4.987244394523305570e-03 -6.688472668714828817e-02 8.474052212261199216e-03 9.470752692841468909e-03 -1.106747884827480460e-01 -3.182845520034413567e-02 1.833111853490432264e-02 -9.089903095172176262e-02 -6.303776198731086966e-02 -5.596286892282464204e-02 -5.613702275380622747e-02 9.036290189054331859e-03 -2.943658330159263162e-02 -1.772107395861962850e-02 -9.148072106752630495e-02 -5.553493240695448613e-02 -1.180657919507277498e-02 -5.676901991821872023e-02 -5.373794900601329416e-02 8.234326625674921090e-04 6.206164573259198049e-03 4.328771359787397105e-02 -3.748938213593144136e-02 -1.772637086533708842e-02 2.755745341608040883e-02 -1.156358743514672022e-01 -6.097090643019734829e-02 3.056738020726879404e-02 -3.835578532716261285e-02 -4.662943840718790367e-02 -4.494073703163850575e-02 -4.157750633655366707e-02 -4.770525785886352982e-02 6.813641310607111701e-02 -2.227269655199287657e-02 -1.089520943289266214e-01 -4.123006796429943416e-02 -3.572105300054712745e-02 -8.118988188773425263e-02 -5.496662045988463113e-02 6.117817978043060823e-02 -3.653852685858677285e-02 2.809994057662491135e-02 9.744696268956502816e-02 3.460280809437890626e-02 -3.947312374375241267e-02 2.277591484306853986e-02 -7.528927220069701887e-02 -5.657266908393199407e-03 -3.761513213212332174e-02 9.781143862241840903e-02 -8.053022752346357394e-02 -3.019094842087845232e-02 -1.018695084110555690e-02 2.801443060064410379e-02 -7.234032353768150847e-02 -6.696450332972341815e-05 -1.366526249078628685e-01 -6.750672996330335518e-02 -2.861787032140106213e-02 6.623874179272451479e-02 -2.925950373587304920e-02 1.620138960190722552e-02 -4.823518158077266110e-02 -1.035326472698217815e-01 -5.759151661657892218e-02 -8.151299283746910040e-02 1.459779458675959131e-02 -3.069596856034718935e-02 -5.683069483909385447e-03 -1.370074938865196990e-02 2.425256282014725401e-02 3.180689035270746392e-03 1.541993132506940846e-02 -2.067839746034954435e-03 -7.080566271236324316e-02 -6.355422655007744726e-02 -2.784525413417625328e-02 -1.697362739831074357e-02 -7.545529903822331685e-02 1.394267297854527967e-03 5.648610008705832325e-02 -2.716447364704746917e-02 9.185929500185267826e-02 -3.699949270502922438e-02 -5.289295372976885595e-02 1.330678577771113357e-03 -5.706070970571327367e-02 -7.255063231567358828e-02 -2.169781749257464198e-03 -2.579198321794121465e-02 -3.344844245708286645e-02 -6.456099548156536694e-02 1.971652243511766781e-02 -9.634778276279828968e-02 -2.027441998099846834e-02 -7.828935394278487003e-02 -1.105552868773940628e-01 7.938198001586924124e-02 -4.678429829906841086e-02 -3.525538307323217851e-02 -8.807669650425506425e-02 3.966118565871123297e-02 -2.730480411262709191e-03 -4.718073291582629281e-02 3.938382584183807572e-02 6.910369100212600257e-02 -8.484845196264967360e-03 -1.124774056474674572e-01 -8.363035453226681792e-02 2.691725808660765107e-02 -4.786138287142414210e-02 -6.028245483422826900e-02 4.970494505942209262e-02 -6.415358876026175383e-02 -1.880254054470684860e-02 -6.649436479121752577e-03 3.318411182620913807e-02 -6.045431052144602246e-02 -1.134197390467690109e-01 8.778948523757433564e-02 2.170051906595349411e-02 -1.077570829181645831e-02 4.329305937565275375e-02 -3.907770061694416236e-02 -1.084596054480576749e-01 -1.064787745392744471e-03 -7.857670805903559791e-03 -1.243366758885932916e-03 -5.999812895507983940e-02 -1.049323848365269068e-01 8.028760085417414871e-02 -3.248054845453909878e-02 -6.039621074221918767e-02 -1.366867219539089594e-02 -7.222958921731068016e-02 4.701547770693212391e-02 -3.786039888546361559e-02 -6.117797636734301041e-03 6.229085395334438974e-02 5.237032732253119049e-02 1.751136824918482840e-03 -8.465180323209857416e-02 -3.903278105473912546e-02 -1.105589773900505363e-01 -1.021692365262794333e-01 -3.796470881334861047e-02 3.108476596242365497e-02 2.928050059645076475e-02 6.491156188078632538e-02 -6.008987604453466802e-02 -1.116624829947289801e-02 -4.191235364847275408e-02 -6.470798768020932790e-02 -7.273589952212049237e-02 -2.708798900702558132e-02 -7.282665781312513964e-02 -7.118866264461645721e-02 2.496410026782725639e-02 2.398050056106488387e-02 1.021888929970106094e-02 2.172993261264424478e-02 -4.883060764083911598e-02 -5.312737309980577333e-02 1.089589015590261278e-01 -9.357664225317155471e-02 7.434788694135045783e-02 4.474544535573025603e-03 -2.509209911162352258e-02 1.175255735182208494e-01 -5.650070631413946221e-02 -2.587568919815939200e-02 1.815820433138071524e-02 9.084599070565753387e-02 -1.155800710814454818e-01 -7.638112743652855641e-02 -3.242121415631311898e-02 1.122413381749995213e-02 4.926325628741331369e-02 1.559439463424856787e-02 -6.926458001463439706e-02 -5.361820451006065608e-02
-1.046124646934110981e-02 -9.688152147921229307e-03 -4.359731380871866013e-02 -6.137872379088654684e-02 -3.391478408529347011e-02 -7.742754392086029225e-02 -1.497515830216608786e-02 -2.281600426610211688e-02 -3.359577566414626883e-03 4.111011190725902438e-03 3.348959602616813358e-02 -2.120993419644329539e-02 2.972881049967875805e-02 -1.010693607840499192e-01 4.137724077927332905e-02 4.075943917960183488e-02 8.151815175613410722e-03 4.072242639494451366e-02 -6.077330331011018827e-02 -2.321401596307676868e-02 -1.491211544484494916e-02 3.507437872126550633e-03 1.347761423535965468e-03 8.907744314277184217e-02 -7.464085630855255699e-03 1.593141605627282631e-01 1.733378520541554307e-02 -4.254580481505983863e-02 6.475565100761762616e-02 1.122970440086306781e-01 -5.912717265217185686e-02 -7.152514659291478449e-02 9.453940809245531263e-02 1.812633114512917157e-02 -7.414934877396865687e-02 -4.128873546943719053e-02 -4.555253519991363936e-02 -7.015890059130715228e-02 1.817275760892912359e-02 6.174777981556605483e-02 -6.500707632405119951e-02 4.834091851632232179e-03 -1.142087479977771797e-01 -6.583090269630605118e-02 2.432073837641697198e-02 -6.132174713568609714e-02 -2.901799999220585832e-02 -6.148660857415048225e-02 -8.937309139141178665e-03 9.694571823952575357e-03 -1.851865433131571342e-02 -2.029511233801832570e-02 -1.304854879737124031e-02 -2.268048926097463586e-02 -1.834214079787319096e-02 8.026712717199737182e-03 9.730720065420996046e-02 -5.109219036551135990e-02 -1.691572111515142821e-02 5.026091075166824046e-02 -1.109788670857669857e-02 -9.221674689871742214e-02 1.220757535315538239e-01 9.857118774114154505e-03 4.320635289252475197e-02 -5.217970890514102983e-02 -1.700759516397859772e-01 7.795083813957724532e-03 -1.797515590700166435e-02 -6.459010891404119714e-02 2.062591167303540543e-02 1.014569670449397415e-01 -5.665535943927475782e-02 2.973789518577293206e-02 -4.587584891869866954e-02 -4.136466765402867923e-03 -3.608704594181830899e-02 1.514659268990198593e-01 -2.126283276551537565e-02 1.671552159316926425e-02 7.197918268544253872e-02 -1.844968001093260507e-02 6.800703844714382773e-02 -4.345895137948523057e-02 9.174678826661054887e-02 6.161796367784881656e-02 4.567729701571840439e-02 -8.141300252141424332e-02 1.570508380438422336e-01 1.020692903097013444e-02 -6.521088791279874841e-02 2.627219299224657634e-02 -7.147576790932566940e-03 5.838625656903780742e-02 2.976567337691948464e-02 4.732277597638040456e-02 2.833207606039981133e-02 -8.918995968050308365e-02 -1.624032117538044134e-02 3.981045435783119035e-02 1.105212056045950381e-01 1.392426001510534972e-01 -7.935613141558288744e-03 -4.335341236789798380e-02 -6.265049185837751056e-02 2.437603502143355361e-02 -1.940117970837051259e-02 -6.659892720389165577e-02 -7.946974121810233826e-02 -5.501532308000697813e-02 6.394685748851378082e-02 4.974384224012846564e-03 1.734648001970631390e-02 3.950211976380575696e-02 -9.865692453648995663e-03 -7.937786916267296211e-02 1.196907108004244269e-01 -8.804351311862322615e-02 -7.921702370199930343e-02 -4.217192340282918846e-03 1.393076540601097084e-02 -6.013754785541045728e-02 4.810693675979223552e-03 9.661346140262180859e-02 2.183758028604409693e-02 7.783220019031359370e-03 3.123325586328083367e-02 7.486656917660937383e-02 -1.812037783669004018e-02 -2.467777187508826599e-03 3.347292487547354201e-02 -1.156941046811447646e-02 1.183126151700827910e-02 -3.429189263835531569e-03 -6.090907916481550638e-02 1.187483502692225634e-02 1.259077392339737755e-01 7.391557545910376614e-02 4.082457637164279944e-03 -7.141657539019367895e-02 -5.032564289942285940e-02 -4.876993161140868310e-02 1.588641499076164088e-02 -3.223176848036486686e-02 -3.749169594868600325e-02 -8.248365939718975068e-03 2.843804809908835260e-02 -4.805667980814141288e-02 5.671101355685296413e-02 3.079683921032445567e-04 7.945488085815594070e-02 -2.711679143945530321e-02 -3.856887285548751126e-02 2.949109770047560544e-02 3.031581594293052823e-02 5.309191933859092050e-02 4.320332114800075340e-02 -5.513780970999534320e-02 -5.222295633017130095e-02 4.817194768959896789e-02 -2.241111244366371380e-02 1.999620663943122573e-02 8.647083247386444516e-03 -8.970804038749106979e-02 -1.842836359899046109e-02 1.698046854518740420e-02 3.781940939367915006e-02 8.741156714090762836e-02 -8.869436193255048062e-02 -4.424499095169112661e-02 -6.956132936765807573e-04 -7.573728765346929119e-03 -7.708175927337644617e-02 2.998533083610167155e-02 1.322353925310115492e-03 8.636829993620356860e-02 4.854359869535834066e-02 -1.749587856701979513e-02 -4.045246627139083978e-02 -1.138140667057896682e-01 3.589771199368305132e-03 -1.814251552538701656e-02 5.464924472748806938e-02 3.574656713160447204e-03 1.178883093177429398e-01 1.992617702969643259e-02 5.776392554300964488e-03 9.362163903983267144e-02 -7.623530917911157390e-02 5.177222985917910580e-02 8.182742610928621374e-02 -6.373819735224935806e-03 -7.789744609459200997e-02 2.801096329059711565e-02 6.107135105076806625e-02 5.575936680846734633e-02 5.525501822152204673e-02 1.051224442922857188e-01 7.958242877948817906e-02 -1.158229418254565907e-01 2.913190488494347280e-02 -1.163902170930227326e-01 3.877909690634825934e-02 1.343858594753803183e-02 -1.059052284240698250e-02 3.498520456720864702e-02 1.408397618032018912e-02 -8.728554824676543547e-03 -7.321228063701615101e-03 2.320270255719371344e-02 2.002784883985360420e-02 -6.790902185081278131e-02 1.354167781558125450e-01 -5.060765746339253995e-02 6.786895944216540799e-02 9.075861316021781311e-02 -1.727711090137519501e-02 -1.128527167936697016e-02 6.464409804983799190e-02 2.196757259000534698e-03 -1.481119693319933421e-02 -3.506433328912792607e-02 -6.038540215371057673e-02 -1.104157929636145896e-02 5.736995369441853093e-02 2.911187725794994741e-02 -3.991256615774927026e-03 -6.899741001511842942e-02 -5.634883363949332730e-02 4.500922937648504235e-02 9.053022241555713778e-02 -1.073426434946723601e-01 2.336166254823865071e-02 -1.393128661737278590e-02 9.712354164552519653e-02 -4.455690212526555033e-02 4.210511145309829562e-02 -1.850523041334866878e-02 -7.142048933734643223e-02 2.442636129289404295e-02 2.393335395625786552e-02 1.381345377898274274e-02 5.327598040454657041e-02 1.417445809192587752e-02 -1.177706933463555650e-02 8.337978846037702452e-02 -1.129859089605438939e-02 -2.222799827361954944e-02 8.749974846271353635e-02 -5.720992600623952401e-02 -1.635134076286979751e-02 3.480426653582528729e-02 -3.282277230262813789e-02 1.008729757087517033e-02 1.629127054514081146e-03 -9.351701369709904121e-02 5.155046694700961274e-02 1.224695296488899771e-01 -7.737168453731893200e-03 -1.183361923339418253e-02 7.293137810958044698e-02 -2.886567389705969530e-02 7.673319055752665652e-02 8.349091984717721404e-02 -3.475183573915530122e-02 -1.384154199265555212e-02 -1.141155134638280853e-02 -5.144849818205188274e-02 1.340344823941165900e-02 2.160122587143067929e-02 4.751516745884450804e-02 8.844742291729829065e-02 -4.645477031682295616e-02 3.129467979093586427e-02 6.171153630068062362e-02 3.660313380974457992e-02 -1.726739020213334183e-02 6.330366222142320975e-02 3.631097228130772403e-02 -9.782424954509483239e-04 1.331575657956298765e-02 -4.683011152278154223e-04 -5.882633839088542010e-02 1.521924370141181648e-01 4.190593459097129159e-02 -9.017208270719116042e-03 6.996777699204478895e-02 -8.950532640305962351e-02 -6.184201506859711428e-02 3.557202711895103564e-02 5.932132163389711860e-02 4.726207429916926689e-02 9.786184207262199619e-02 -2.748581916276494549e-02 -3.186229555193276393e-03 -1.081483338344770562e-01 -5.453501859828954051e-02 -8.908732632583982961e-04 -3.435799118075091863e-02 -1.181193745061408090e-01
-1.655902305038308223e-02 -3.031559978501559630e-02 7.465087314053800438e-02 4.691445068025656973e-02 1.793274584061579566e-02 -6.196385527210615529e-02 1.333050529933891559e-01 2.283668085181223342e-02 2.145174683795343651e-02 -1.233617925484489647e-01 5.085293251199443643e-02 -5.329226271684961262e-03 6.858112232592220026e-02 -4.791320716272663531e-03 6.233862914313156867e-02 6.938158498485991199e-02 -5.476213484054983337e-03 6.668236777361490064e-02 -9.752823276897434890e-02 2.723777850513752971e-02 3.070073251096220451e-02 -1.368693797465904763e-02 6.501564152757480231e-02 -1.565719249277875980e-01 4.359784088549140124e-02 4.270555313682504461e-02 -2.692617714634252396e-03 3.349409264507552386e-02 1.818911690214111698e-02 2.781977685209170714e-02 7.003425926395218104e-02 2.149839413534831295e-02 2.289545234114593111e-02 -3.041020949766330000e-02 9.776664367168966252e-02 3.955849165590774597e-02 -1.150949315943389575e-02 2.862134851690161311e-02 1.144587718447941972e-02 -1.709334923137550977e-02 5.136626507537033620e-02 9.249731189693310984e-02 2.260339350476902112e-02 1.233501804005327218e-01 1.794712359379552202e-02 -2.441275052163307396e-02 7.975682652309175336e-02 1.067646981201769429e-01 7.577588667458490246e-02 5.146506026972672704e-02 -2.583595316150459273e-03 7.005497514861268316e-02 -5.513055277495613332e-02 9.954485446666841431e-03 7.311733864368760716e-02 7.747069423250510511e-02 -4.578059586789437994e-03 9.044612643976399080e-02 -2.622853114961156556e-02 1.183459857531293270e-02 -3.894334383496155134e-03 7.237656313622897741e-02 1.833017639330127707e-02 3.898409936515434548e-02 6.408681806384787343e-03 7.972257301250790240e-02 5.095703279906434180e-02 -7.726285003105022586e-03 8.047999166934076409e-02 9.060038680664024568e-03 8.557770122780337940e-02 1.230055874738638375e-03 8.903319466763288947e-02 3.412168985060607534e-02 4.956627316482831863e-02 8.788739050332007585e-02 5.030160052649225444e-02 -8.101644186178255658e-02 -8.547358795109806506e-02 7.682132286836790801e-03 8.773622467222164101e-02 -8.967603033241813154e-03 7.538642321184259310e-02 7.292130721734001175e-02 -6.554990919781457370e-02 3.998332078213084895e-02 -1.937438290395255419e-02 4.603149933613025907e-02 -3.786264901396553528e-02 1.762971591470732791e-02 4.814707245056244755e-02 4.519928699683076201e-02 3.411175279660517284e-02 4.202457820899972718e-02 7.048673334411245661e-02 5.384695744016884666e-02 -1.973898803403704647e-02 2.233991433271945940e-03 3.654796236021986416e-02 4.733210589725231343e-02 -1.005405958522246901e-01 2.915651595663124040e-02 1.171444199028626315e-01 -8.660044510041642329e-02 3.165940297866027403e-02 -3.659244738410693393e-02 1.413439000082880592e-02 -9.108928391414126968e-02 3.110715868198563397e-03 -5.156169055954794994e-03 -2.556837122528522396e-02 -1.569968777794662762e-02 5.871143546231884225e-02 -1.406035479655509679e-02 -6.653258489265992393e-02 1.424866299688162807e-01 -6.393277236256136864e-02 1.686122121091698095e-02 1.234548283811260638e-01 -5.548048372100478076e-02 7.346676494925209744e-02 2.669916868421041631e-02 2.640425937910179273e-03 -5.719364982872787023e-02 1.830671730084330526e-02 -1.648199180281516643e-02 -7.050798548259696154e-04 -4.798445029159303932e-02 9.738097934189654525e-02 -4.122766354267156513e-02 -6.858272802020619341e-02 1.306886716588541442e-02 -3.514601899538873087e-02 2.453810206118646475e-02 -7.008094582467645599e-03 -1.136979598642432615e-02 -2.549339334996163567e-02 -3.263628565857509822e-02 1.617245219581791085e-02 7.070551811035789835e-02 3.948455015193774102e-04 2.097339549708737358e-02 5.978743200578435363e-02 4.059061919009852165e-02 6.468745392388798587e-02 1.057502864074481019e-01 -3.345308935557371466e-02 3.121709421705410117e-02 8.500130039664979820e-02 6.833497652126896416e-02 4.198335557924171013e-02 -3.875639114701609489e-02 5.130256562763754052e-02 -5.277571904373492412e-02 -4.621157150124591967e-02 -4.660670182292646346e-02 -1.536827166960690050e-02 -5.194588937967615236e-04 4.530623831069217899e-02 4.313953133603533330e-03 1.729300263218827016e-01 -2.219041829504263263e-02 1.107944650066301079e-01 5.612029064956117197e-02 9.526426466837012441e-02 5.413595741473706258e-02 -2.518978505151244288e-02 1.611409861334088534e-02 -3.952242139437745633e-02 1.507291924439378705e-02 -4.393489373733935888e-02 1.414000748384318107e-01 9.423079438258334661e-02 9.284185813814530008e-03 -2.943217537425632871e-02 9.884434757279372125e-03 -3.017182232183969470e-02 4.957420467309468781e-02 5.297683237978099285e-02 8.433981193819044264e-02 8.506131428102181591e-02 -4.122272033077454406e-02 6.141570735644215351e-02 7.655588184476079527e-02 -7.957196398901472331e-03 1.206552280495023881e-02 4.032943705608298818e-02 7.999822677575098295e-02 9.769768072667422976e-02 3.743111711862546348e-02 -5.212604842457282256e-02 1.869895114163304048e-02 1.959993264606304381e-02 9.426567899999224731e-02 -7.547684289597356155e-02 9.154763486376353912e-03 2.931621939461199339e-02 -6.325423647654476733e-02 7.267102099831139472e-02 1.502647298599051884e-01 -6.025635010046438006e-02 1.201516727121539896e-01 -2.285410555052459769e-02 -2.062976693174317644e-02 -7.739542158368020383e-03 9.472536755626477512e-02 2.688014058947950369e-02 2.087294684519722544e-03 -1.471291458241936372e-03 -3.262493062098986013e-02 -7.445385480770974618e-02 -3.781336763655589878e-02 -6.794335137200717412e-02 -5.820111721829863277e-02 -1.017722193496220506e-01 2.356760458333076111e-02 -3.358289097920642841e-02 2.749307656816723719e-02 6.715231403004565808e-03 6.724038106390112235e-02 2.538174087832114831e-02 9.281351914128097014e-02 5.241178094277437749e-02 3.405066319830382660e-02 -5.007145390653531397e-02 8.080175369531096899e-03 -5.031454611660005766e-02 8.689471798540757130e-02 7.437729283231797953e-03 -2.089723657337505536e-02 -3.663622968174898992e-02 6.425047894188504194e-02 3.531793100863152290e-02 4.225453215737288992e-02 3.347647166259126034e-02 -3.702353950104567137e-02 3.468478989079125826e-06 -5.637616131913617684e-02 -1.063259388890565871e-01 -4.345123305275246789e-02 -7.792494675523099767e-02 5.238699636258820069e-02 2.272424307021798928e-02 -1.642085236489179700e-02 2.029032725198744169e-02 -4.126431291931845907e-02 6.959122445442002258e-02 -5.866468653367024055e-02 -7.741619853651214578e-02 9.166815131830359509e-02 5.285219587762953614e-02 3.114670258817885812e-02 -1.828682998852007580e-02 9.321793135047840018e-02 1.150160604461272357e-01 1.174001501465982318e-02 8.297736743710705520e-02 2.939084829757904541e-03 4.191163417304094585e-02 7.804826385877340622e-02 -2.215972629210439908e-03 -1.806615322941125881e-02 -3.694884902116197124e-03 -3.849729477680217254e-02 2.152012262701983800e-02 -4.008806414849529903e-02 1.060647169638185248e-02 8.618430154444151059e-02 1.188866151438946507e-02 2.856548511444965618e-02 -1.047260613014282943e-01 -6.827865838141626564e-02 4.405145192113386204e-02 2.274420510674730889e-03 1.704288144238614786e-02 -6.987833760277851677e-03 -4.767643949192985615e-04 -4.250824189760093325e-02 4.826785085940089870e-02 -1.101091882795212501e-02 1.028278443803975171e-02 3.762511005913094647e-02 8.579667031442882175e-02 -3.654680412853548999e-02 4.407050801087893967e-03 -2.227313385241607227e-02 -3.299729724654783952e-02 1.463268397327228132e-01 1.072287115701165416e-01 4.579504741584114469e-02 -1.017649868326777132e-02 -6.533367910229638184e-03 1.313371865527310049e-02 4.135744076411497494e-02 -2.354757839456226090e-02 1.218958430364139034e-01 3.748017406503067334e-02 -2.260364983257013953e-03 -1.071407641099816812e-03 4.921679278696933918e-02
1.358607328356412547e-03 -3.779875904075673948e-02 -2.876372556565659488e-02 -1.577922614894519959e-01 6.614734180320430701e-02 5.426618142969216740e-02 -2.375190341418977752e-02 -4.157783015742119725e-02 -1.253942799223648277e-02 -4.672575766783850643e-02 -6.521449974449379516e-02 -2.340585262664596732e-03 -1.256284348982227884e-02 -4.698910368617675859e-02 -5.763653284664277399e-02 -3.553537777010191967e-02 -3.089265823429731064e-02 -1.114815026485629357e-01 4.045681789984298220e-03 -1.145525492470165080e-01 -1.983566785211735017e-03 9.051359267337949488e-02 -1.094778064860813943e-01 -1.942587204113887731e-02 2.103400615280912652e-03 -5.988837805091002525e-02 -8.983330427704716570e-02 -3.690425381957519041e-02 2.400576283469455299e-02 -5.676538118092875479e-02 -7.734149636284803897e-02 8.905439569228503979e-03 -4.121211424975322613e-02 1.020272946364368660e-01 1.517961856997336774e-03 -1.118628558213975027e-01 3.404015214595280058e-04 -2.235717872923996454e-03 -6.941404743023212032e-02 -3.774804883480277484e-02 -8.750737029226083111e-03 -8.363964875170802615e-02 1.546838736523221437e-02 3.413160266623191386e-02 -1.460748260770713958e-01 4.374558609897597622e-02 -5.360248141909656344e-02 -3.000350488134835222e-02 -1.210655018182713039e-02 -4.629944938211041396e-03 -7.088844316037265503e-02 3.798912880461156188e-02 -1.205061813974893092e-01 -2.373885578637560320e-02 5.421168809264184651e-02 -3.754286440486882120e-02 -4.145310952328391113e-02 -6.578170153778638285e-02 -1.480810969792310527e-01 1.804337251574608669e-02 2.791600178809448829e-02 6.918997397714801711e-03 2.340286253789132173e-02 -2.477382145568575098e-02 8.147629274994250270e-02 7.838058105083155203e-02 5.485729911114789470e-02 -8.191275539501351177e-02 -5.952763032630707662e-02 -4.614298291877300812e-02 -5.420495819311000468e-02 -8.131422915558933484e-02 -3.103158530158283118e-03 -8.490296608216903185e-02 -2.504707217302975034e-02 2.784983773304145968e-02 1.871005364968596272e-04 1.650346410067210154e-02 -1.820927626451581110e-03 1.485399260395036357e-03 1.875401004249118223e-02 5.248793376861886351e-02 -8.800214695693966971e-02 -4.939397332514623706e-02 -4.953924196043663075e-02 -2.546767906083391084e-02 -4.256918903010466215e-02 3.258588618816014165e-02 -1.545842390705435589e-02 4.716288565094042861e-04 -1.073221332207891371e-01 -7.569918882300320784e-02 -3.364635844011969884e-02 -7.238921738481625401e-02 -4.869724661238481606e-02 6.614159211482310494e-03 -6.697622311941187068e-02 4.943202211451214884e-02 -1.216036759821162855e-01 -7.989896498420301363e-02 -2.523806768704811923e-02 -3.556144355595877021e-02 -5.912341831715588192e-02 -6.386585718615275797e-02 -8.256039655551648815e-02 -9.674649963790347973e-02 -9.951491611906148824e-03 -1.402035248243991769e-02 -9.655473877160879181e-02 -1.019926988210723487e-02 -1.022704838184042703e-01 -7.593579923310431190e-02 -3.612024256077628337e-02 -1.602302523544784502e-02 2.068800931827995473e-02 -5.956183999091687470e-02 4.977305786505610216e-03 9.673475780993259776e-02 -8.190536559388393589e-02 -5.241407834405741734e-02 -1.099092627576829378e-01 6.020237948630754315e-02 -6.802769525862284450e-02 -6.271794281859319198e-02 -6.959939980550547411e-02 3.815430796666075680e-02 -4.569819924671036926e-02 -2.372201130614429165e-02 -6.328188013334212769e-02 1.114020316746497895e-02 -1.802716826326539179e-02 6.113425089479838925e-02 -8.881419673865097175e-03 3.333850532044736054e-02 7.254865248124822696e-02 -1.530202384857936304e-01 1.441876244412365615e-02 5.174459046037060278e-02 -1.217889399118617447e-02 -9.615827917208456810e-02 2.108547029845535964e-02 -5.821586116948618272e-02 5.287798552413044972e-02 -6.167793772300462357e-02 -4.067268521276631854e-02 -5.166357343203570318e-02 -6.322313586230460247e-02 4.266773407894210862e-02 -5.827791843353197221e-02 5.408154548628034408e-02 -6.314794891199285165e-02 -3.695351114193281411e-02 -4.761415010209309184e-02 -1.004979018920450218e-01 -1.038029654790418865e-01 -2.898683385872781113e-02 -3.831885362910810583e-02 -1.523948390246681640e-02 1.911672842859622398e-02 -4.162732642823376017e-02 4.162112657841252061e-02 -1.451461250018477346e-02 -5.493583838912510786e-02 6.955946336844530398e-02 -3.780415071887613995e-03 -3.380313134716451257e-02 2.559900574897118128e-02 5.332689580169715227e-02 5.261161669168200328e-03 -6.382279322977303659e-02 -7.747225409785123140e-02 3.077683933996959529e-03 -2.414270934378167852e-02 1.045490559153037721e-03 9.012430865805488162e-03 -3.109366587741886623e-02 8.078785532547622106e-02 6.930346308078862150e-02 -1.858503616049993201e-02 -4.542446769439712623e-02 7.595849404099882032e-03 -2.091918147295929176e-02 1.709932505289822081e-03 7.514496000511082345e-03 8.724489950238691061e-02 -1.240201931102623972e-02 -2.155986935846438551e-02 -9.479403354478084867e-03 6.551616914737312669e-02 -3.708190130718368172e-02 -9.500982497737552046e-02 -3.490435207183222033e-02 2.828395499970047522e-02 1.508649882837406753e-02 3.778067847175728411e-02 -9.470645456952224428e-02 1.649156487579953728e-02 -2.563173301740366214e-02 -3.461876161584871714e-02 5.695093058077079634e-02 -7.157672162832365292e-02 3.757114230266597743e-02 5.577974239085488339e-02 -4.312759513535198083e-03 -2.499075552933522834e-02 -6.341459807986690386e-03 -9.266205460525490933e-02 -1.073565917468695743e-02 -4.208259153853010498e-02 1.697022427108884571e-03 4.991829149697805945e-02 5.896749701192106896e-02 -1.084116379200929098e-01 1.814392554964960186e-02 -4.687110903385645344e-03 1.660771039891054818e-02 2.402306209203254259e-02 3.246359683590836070e-02 -4.296258847859754648e-02 -1.282491118421079934e-01 -1.351609129920670720e-02 7.735727179099784190e-02 8.357857045265305873e-02 4.631326526139967897e-02 4.319467681082399257e-02 -2.074205817411539990e-02 -8.419549137564539751e-03 -9.824118389013807018e-03 -1.569442731315075223e-02 4.877733899250534522e-02 5.907861003039553693e-02 1.295641665952006021e-02 -1.211505888922381757e-01 4.910775102799740804e-02 2.293071421238026490e-03 7.426944369556988390e-02 -5.573781876332883911e-02 -3.811076968973922674e-02 2.033053335610482404e-02 2.739118639009745920e-02 2.664626521075605034e-02 -6.978937749334002127e-02 5.875197606531159383e-02 -1.971639051021772948e-02 4.549846858223679374e-02 1.244821871326227958e-02 -1.044640088057407906e-01 7.805766370819278155e-02 5.009875223995039102e-04 3.922107489242929873e-02 -8.776822663562919291e-02 4.476204021947766815e-02 -6.278512933871667479e-02 -4.128030482270905743e-02 5.638274402919880163e-02 4.854353509985184778e-02 -4.218790913230447553e-02 -5.776625403898889149e-02 -3.177313441528942239e-02 -4.061167264493794476e-02 -2.926205577826174534e-02 -5.623606717431952479e-02 -1.046550345147454902e-01 4.706551121532862730e-02 -6.064401893836582347e-02 4.519889902059291871e-03 -3.120019528011044180e-02 6.953312925867201344e-02 -2.859356984473237703e-02 4.116541134765112908e-02 -5.830905849616354469e-02 -8.514819005176355038e-02 -4.151402184985546889e-02 -5.088678785652690079e-02 -1.340830768477202506e-01 -9.690958543591766949e-02 -2.412587031603666624e-02 -3.708799759203754154e-02 6.639792219037921051e-02 -2.519362407721309829e-02 -1.166519142226400546e-01 3.328821295170695388e-02 1.871508328188661169e-02 -6.540386254663967114e-02 -9.289173659071549294e-02 -5.153268872981266180e-02 9.039154102461222084e-02 3.627294776588414760e-02 -6.506066319928924258e-02 -1.225178859344166343e-01 -1.168121979707252914e-02 -1.326287749007440267e-03 -1.004412181283728805e-01 -8.963110242900683422e-02 -3.025212784337120292e-02 -7.010506365217678004e-02 4.907369400295434614e-02 -2.162397533382809725e-02 -8.585292534912136730e-03 1.975774131225484925e-02
3.279016808981011222e-02 -2.652625759853811938e-02 1.158746209241080447e-02 -3.617374311183508412e-02 3.257413842018391098e-02 -8.807890658998293945e-03 -1.637782361151658359e-02 7.852859888486403428e-02 1.008436942267571523e-01 6.713225421369097001e-02 -4.617833990417823109e-02 2.263358824364604741e-02 -3.648545042057226712e-02 -4.008884860141290196e-02 -1.071100644462695123e-01 -3.763210893759254966e-02 4.985058528407129708e-02 3.865177283946680947e-02 -1.435496831210060715e-03 -5.144374837706019304e-02 -4.269389781801402606e-02 3.088113179747280918e-02 5.688998705797568278e-02 5.122400585692470087e-02 7.921726459538236398e-02 3.153251152014976966e-02 2.810019317134096299e-03 -5.566709443977168464e-02 6.039426893800844270e-02 1.645018363756048721e-02 -1.297564150195478494e-01 -4.188844315322881595e-02 4.215663817473030983e-02 2.465728293377410230e-02 -4.491726756983477342e-02 -8.894467957686376380e-02 6.973315143488229007e-02 4.671388769437506000e-02 -2.857945845943841642e-02 -1.521202807835758848e-02 -1.889832589992928094e-02 -3.296725317997057508e-02 -3.409235621671766192e-02 7.188206892521321889e-02 -5.108634753000274725e-02 3.811077222853460900e-02 -1.526811459975404607e-02 -5.219998624972479323e-02 -7.398802637089441645e-04 1.670858940539333704e-01 6.057165606228869653e-02 7.408205490905500623e-02 -5.200020318094224908e-02 -5.929688674659023412e-02 -1.384579442336683792e-02 -1.517019246199615042e-02 -1.041422288345488119e-02 -3.219848270377576732e-02 4.073616422564329403e-02 7.198612940271155447e-02 3.771788594134830447e-02 -5.270658222708023838e-02 4.752499989708103278e-02 8.031399876011023620e-02 -4.205024488796836601e-02 3.030422137856828360e-02 3.629329987067118207e-02 1.803282852895443655e-02 -1.110989936215645187e-02 3.077268847997959716e-02 -5.407343930876217473e-03 -6.669555306030096331e-02 3.054522023881510451e-02 -2.213063402822314577e-02 -1.460215957384014551e-01 4.045816140581445092e-02 1.963220119157731147e-02 3.717749394516282890e-02 3.553364855600536776e-02 7.027804123842379402e-02 5.879381623943219504e-02 5.715862864932405585e-02 8.654830504627747390e-02 -1.241450365085829538e-01 6.056976465511736823e-02 -7.659633196306111017e-03 8.841702954043944435e-03 2.782665264802698310e-02 9.405784894371693738e-02 5.340831002576564013e-02 -7.304800754744220082e-02 -5.182984220990898699e-02 2.275292975539814147e-02 2.400074021094521226e-02 4.306436597288264279e-02 5.893971205539715041e-02 8.452634824475128983e-02 2.600741802226110358e-02 -6.835547685395383655e-02 4.284233518356630327e-02 1.072467481638379877e-01 1.866791943180910046e-02 -6.437918147002152924e-02 4.809275856260344234e-02 -8.276382652045664867e-02 1.106254677775061757e-01 1.319255367278708291e-01 -4.814315161009610072e-02 -2.729101027460404186e-02 1.467143558140200470e-02 3.532426760800078114e-02 6.931146809599031400e-02 1.296867854472294815e-02 -2.495730487058402461e-02 1.155215895391495523e-01 3.043041377361941410e-03 1.032747764192974982e-01 1.355855570354739387e-02 4.004678969267109340e-02 -7.110050342244204902e-02 -6.248280234799968857e-02 3.520270423114926165e-03 -5.062598500432158311e-02 1.187242269183215737e-01 3.924824170455183669e-02 4.009153556399720764e-02 -6.224479748067592022e-02 5.828362519810539183e-02 -1.503670717535954618e-02 3.465682201585700006e-02 1.366108408748886727e-01 8.635684083448467996e-02 5.918097925781276580e-02 -2.823036252369719168e-02 1.629855201229302858e-02 5.893596974211032236e-02 7.479212855832599594e-02 1.460782320054958561e-01 7.360825494818996895e-02 -6.457962579169530294e-03 -9.479786252031729976e-02 7.237591705574415550e-03 5.655113786620977884e-02 -9.232416888559841217e-02 -4.861936562815207669e-02 -1.855068274983710103e-02 4.804423820210944329e-02 -4.509434524336072142e-02 9.750947539903533079e-02 -1.521940634944539232e-02 -7.910946946825517592e-03 -1.734780252914706888e-02 -3.579500522166050025e-02 1.471718161666186846e-03 1.843319169032480234e-03 -3.343460567467437979e-03 8.212050056908640205e-02 -1.292105720684980953e-02 6.181853863062521798e-02 2.460076161615972964e-02 3.644042389740632937e-02 5.762947130284505615e-02 1.421447808350616016e-01 -2.184195814465162908e-02 8.183464901375282763e-02 -9.451574549589744287e-03 7.440623888035595435e-02 4.179562167310938575e-02 -2.481092415255797042e-03 -2.483496104980782021e-02 -3.596496731532042301e-02 9.513594355946762560e-02 2.202109794981025812e-02 2.467450673257834057e-02 3.682499797509731360e-02 3.934733908162237753e-02 6.807339260959292815e-02 2.097729852034639630e-02 6.590214693094406662e-02 -6.115922952443809263e-02 6.273396369530266636e-02 7.825727825434641849e-03 -5.489749508591790922e-02 -4.044214208531587973e-02 8.118955180445833197e-02 -4.017124146226393362e-03 4.705129386195067848e-02 8.167008473653310230e-02 -1.297570281172521871e-02 -5.448711929327932496e-02 1.948352429952390080e-02 6.246798147236375109e-02 -7.210331771133481060e-02 1.217909222452865856e-02 1.042045564897976923e-01 6.734480717113343340e-02 1.382949922600448800e-01 7.181296972709821924e-02 7.592163374401153519e-02 -8.609401686940579973e-03 4.448398552174814141e-02 6.297091775989811790e-02 6.474174266596668947e-02 3.322396464534792954e-02 6.629854616375592535e-02 3.417115677457904788e-02 2.997613006602145233e-02 5.560656149185936453e-02 -4.419113816592431382e-02 -6.259461026546913123e-03 8.588199872964340231e-02 -6.121126731633376450e-02 -8.096251374458220129e-03 6.999030108676540518e-02 -5.086754130072741395e-03 8.228245760488419117e-03 -2.055827791258196813e-02 -8.151216685349573290e-03 1.467826205735310759e-02 -1.148577700604123397e-01 -2.885394593213259223e-02 -3.126503187983701443e-02 -5.670002415482968544e-02 -1.087801479739069176e-02 4.936934906318694166e-02 3.079717188191461591e-02 -1.454844553243065004e-02 -1.135110627747185630e-01 -2.524224472245291048e-02 2.587327642905636743e-02 -4.666756938034174844e-03 -8.217094282749408396e-02 -8.927475867156474051e-03 1.660032376795218118e-02 5.117318952949585775e-02 9.982645284530111338e-03 3.759840089155706833e-02 1.172925550801840887e-04 7.953637793245345311e-02 9.058656815655259653e-02 -4.983922479124850043e-03 3.339633408888036115e-02 1.028323304876412048e-01 -1.856391767370792201e-02 2.614386328577256516e-02 9.042712481923619039e-02 -1.531159481025106024e-02 -1.039854310646570225e-02 8.724274041171638239e-02 5.926866215406784676e-03 3.721114037486258214e-02 5.893134071363137494e-02 -9.123464174304120322e-02 -7.917261287395276070e-02 -3.298957429782418266e-02 -1.609042553251371910e-02 -3.099400176293604092e-02 7.668863578382839608e-02 1.191331759477867042e-01 -5.669482616901045519e-02 -5.187515354826214425e-02 1.293605587165867071e-02 1.682832926863829515e-02 2.452197103609015869e-02 3.274589905907688420e-02 1.156458959189166358e-01 7.889647047235502642e-02 -8.382877402097749578e-03 -3.236767642368176823e-02 -4.108695147649743876e-03 5.539610289137257559e-02 4.195591117906712769e-02 -7.405433255219283362e-02 -3.821646003236174594e-02 -2.806001283080277603e-02 -5.047315608310885132e-02 -2.614247291498763073e-02 9.364717361120848682e-02 -4.144627850198837754e-02 8.665389566199005467e-02 3.467629632588252464e-02 -4.894527000678754181e-02 8.690439486345809261e-02 3.583745249212728218e-02 6.695674283965254159e-02 6.281892508750419601e-02 1.253808806615357707e-01 -1.694210631085145413e-02 -7.492733306680435246e-02 2.701789843968699367e-02 4.384286983846449881e-02 1.623897609743832002e-02 -7.519985144600739579e-02 -2.131378895069752782e-02 3.165490274571065854e-02 -3.768770487717760381e-02 -3.876868087904020155e-02 -3.747124572884243630e-03 -2.791187086493827560e-02 -6.949048147392589136e-02
-2.594709919401949269e-02 7.010476888044256394e-02 2.305012463936188458e-02 1.538677949804226064e-01 -1.687862097344130716e-02 4.915893321655331882e-02 -2.530791289074721395e-02 8.537894098488067740e-02 8.616478064562602124e-02 7.024825451812141686e-02 -5.048610938646170415e-02 4.482757651210379085e-02 -1.124344636194249819e-01 8.120425941786508714e-03 -1.222832063758691884e-01 -6.701755034387396615e-02 2.092396035466979540e-02 1.297587232434978810e-01 9.926369237041299254e-02 -1.911489090433872440e-02 3.799313573622112999e-02 -1.909553768777848617e-02 8.716103127832039443e-02 5.259200991777638473e-02 1.079722789361323293e-01 -7.013636006473779327e-02 2.652014932419021268e-02 3.957762113571954704e-02 -7.867790361692921647e-03 -3.565245514434077501e-02 -1.255554729349449006e-01 3.333536581640071661e-02 -5.585285723947620157e-02 -1.258000689401865824e-01 -1.601897072024089166e-02 9.834988199123503860e-02 8.947889212292652050e-02 -4.685472511548760544e-02 -2.311117698253844187e-03 9.868616207718095088e-04 5.871867185223425545e-02 -2.536817394462219030e-02 5.138437715122696342e-02 1.837884796853224770e-02 1.264802543192901536e-02 7.239082472825950076e-02 2.080712483829511364e-02 -9.276810016400816039e-02 -2.413921826009200744e-02 5.178850793698852595e-02 1.701977760109628646e-01 -4.128919913295613087e-02 3.985878170609837706e-02 6.561562547151067459e-02 -7.316862429799358969e-02 1.982232998500109769e-02 -2.161896055444664094e-02 2.173628103336021009e-02 5.375905913347192588e-02 4.403828229152430274e-02 1.078056453311300586e-03 3.120450865008949498e-02 -5.785511505963823742e-02 -7.048343258483205642e-03 -1.148767533387634321e-01 -2.072265229971716888e-02 2.586050623427159009e-02 -1.717094897833063710e-02 -6.306097732289868418e-02 5.981572046585871549e-02 -2.708815560812686749e-02 -8.298730321231392870e-02 3.256837377056922417e-02 2.551228329830351055e-02 -3.212194664822749790e-02 8.132604912375969788e-03 -7.117350430494200075e-02 2.195338823862038463e-02 6.541698591993141965e-02 8.251192407103617732e-02 -9.590593246376943881e-02 -3.561318785237541085e-02 6.525103529735787333e-02 2.419155631603375420e-02 5.708396476708916395e-03 1.150479291055274411e-02 -8.637006406595362784e-02 -8.869841818647090925e-03 -5.406630720590978323e-02 -1.103754864002779411e-02 4.437114124507890445e-02 -3.044878094997105489e-02 7.768610027417621744e-02 -5.187162238967631123e-02 3.866058315374383634e-03 -1.439919158182935595e-02 9.081286964524341865e-02 -7.932566162995721357e-03 1.014212868914774954e-02 -2.422700119828031726e-02 7.498043376348054179e-02 3.661675378438379591e-02 -8.681135801225686732e-02 4.181173981837303655e-02 3.479802299161817436e-02 5.872191388597141487e-02 7.580531715032498563e-02 4.713327736680058416e-02 2.225438111987501893e-03 5.900599265169196445e-02 8.901524006970862324e-02 9.699323908990692411e-02 1.682987127225279989e-02 -3.777359347045721599e-02 3.429977439916127163e-02 1.368228045004453441e-02 5.234350048058439980e-02 -3.882531048900311754e-02 5.718114693772220758e-02 3.899273312489278526e-02 -4.567899980059597631e-02 -1.959595684457031591e-03 -7.360722530074322034e-02 -3.467540662779499544e-02 8.968311704970947928e-02 -3.351650709644221626e-02 -2.111946667633317343e-02 2.463906139549086952e-02 -9.234387553144544902e-02 7.705234501869130670e-02 4.808378170951719405e-02 1.952796439420652688e-02 -1.450475271474561956e-02 -1.065568223619073607e-01 1.862730473459577735e-02 4.271683182488384550e-02 -9.079874195008773297e-02 3.480759442857423586e-02 8.685631788365463790e-02 7.577054541046755742e-02 -2.719265235608640807e-02 4.703325649609864378e-02 -4.408232869752667232e-02 -7.491763959492200864e-02 -3.857029260357217049e-02 2.947425236150997760e-02 9.935908893469740100e-02 -6.081491606647675824e-02 -9.001118369082419801e-03 -1.303719435371269442e-01 -4.442018603509208241e-02 1.027624421052451831e-01 6.175472527211892625e-03 -3.986504776760529251e-02 -4.511143757746084726e-02 -7.922779097934587109e-03 -1.860933415233531965e-02 2.803409336413473577e-02 7.336341964891403278e-02 1.312017604773530258e-02 -4.619656781843078236e-02 7.840465993949333190e-02 5.007419325319710512e-02 -9.774725859523616944e-02 3.547724210538901607e-02 -7.269215491922730032e-02 3.663717789271184883e-02 5.586338821360395650e-04 1.179590652241853388e-01 -3.770812989886862532e-02 1.094507605092572139e-01 -7.095699616853647085e-02 6.325661852611995373e-02 -4.371189794943684814e-02 5.818375909822969677e-02 -6.230205564310815902e-02 -9.697343979065378705e-02 -2.276382056052436709e-02 1.355541512796414882e-01 -2.120179200174760262e-02 3.645367366399473313e-02 3.237116434224025785e-02 -1.199121619566833330e-01 -5.812443790243768810e-02 -6.937372454814831613e-02 2.381732935649419694e-02 -7.347178679629746967e-02 -5.619006310571923388e-03 -2.429118423653892425e-02 -1.515826151862851093e-02 7.875185697551602415e-02 6.990228790281230453e-02 -6.273040418404102203e-02 -8.365203891687984783e-02 5.080505012601180259e-02 4.639642538658170223e-02 -2.728159031292475348e-02 7.540985703844221236e-04 -2.255593978665155347e-02 -4.762391859851560112e-03 7.351866851389375623e-02 1.439712530897858771e-02 -5.276417662941671610e-02 3.016251410493816371e-02 1.586761533692444132e-02 -2.890225042042571246e-02 -1.836183144430162881e-02 5.790636977841771144e-02 2.371208107550862310e-02 -2.687788529303888549e-02 4.216347152946576908e-03 2.472313576476827673e-02 1.249113668454134018e-02 7.468574100091227019e-02 -3.955475059651809150e-02 -1.040355903465093462e-01 2.071180624224774891e-02 -2.817325978840608605e-02 5.886381330602039226e-03 -1.072903328111657617e-01 3.273693068158513991e-02 -5.067492687769280940e-02 -1.404063878297861223e-01 -1.970086784917953263e-02 1.113925543489008851e-01 -3.005041754980119356e-02 -4.063278352883359368e-02 -3.715333723564726021e-02 -8.311551906580205359e-03 -1.202296557201571262e-02 -8.169941025974249149e-02 2.953842054887230797e-02 8.377655996450811965e-03 2.289582721167890411e-02 -1.582042099196907109e-02 2.828889958994618842e-02 6.567259773313259552e-02 -2.524626497894923161e-02 1.451820833385511766e-01 6.040783709953815445e-02 6.690102878279362286e-02 6.974089401343298855e-02 8.685752905290763937e-03 -6.583460980929449480e-02 1.403924746612028943e-02 1.533394334427350472e-02 3.846779347401770022e-02 -5.450023188550194575e-03 1.245954448135605519e-02 -1.631270206140139276e-02 -3.720442518359723394e-02 -1.481141250712414772e-02 2.650493130140382098e-02 -8.182174465750575998e-02 -4.104973141764166333e-02 -4.740126407427169841e-02 -9.772158825282656336e-02 5.177408941514887591e-02 5.065778162541444141e-02 -2.086806355243232131e-02 -1.953631413496883726e-02 2.368686918299647490e-02 -3.903183756064694532e-02 -4.797379367656360444e-02 9.974203124017649510e-03 5.358854692706241374e-02 1.005213656156614538e-01 -1.022495737001096090e-02 -4.943565719722564991e-04 -6.533315401865584515e-02 5.608600816167967629e-02 -4.508574455001719029e-03 -4.072616001624634885e-02 1.772487464044583683e-02 1.142335500517092581e-02 -6.500836984420952161e-03 7.374347217344447841e-03 5.944241445078349284e-02 -8.560317533915011434e-02 6.172044400951223059e-02 3.093498128972922701e-02 -4.633916086088591541e-02 5.635813803780725939e-02 -2.188390185523242729e-02 8.827218261294196566e-02 8.548925481844042717e-03 -9.102699493795789534e-03 3.818815564282667524e-02 -3.362956801072289337e-02 -1.664198298610224461e-02 7.840261528034316030e-02 5.543352918307038052e-02 -9.222926871164864593e-02 -2.142614426651509238e-02 -6.505246685903008641e-02 3.049827082534147318e-02 2.136373297046521846e-02 4.069434389138493896e-02 -1.703188692832824022e-02 -4.825056511691543787e-02
8.551336510046669837e-02 9.280170698347529890e-02 -7.064620222390720350e-02 -6.844341566184765357e-02 4.263561891927101360e-02 1.148819181320656357e-01 -6.942149864669430737e-02 -4.967088108915919398e-02 -6.977162121818970830e-02 6.440670167955420133e-02 3.565449627828917722e-02 -4.299230743202623467e-02 2.843844614439077975e-02 7.872756553955931325e-02 -1.019453359195528902e-02 5.624067254209902389e-02 -6.262340805016791689e-02 -1.250092284020714040e-01 8.371569586597588097e-02 -5.880901314546733288e-02 7.620475158336033339e-02 5.370991651953425927e-02 -5.133858162143416226e-02 6.761412963392651743e-02 1.332915742346402720e-02 -8.877825967027377918e-02 -5.391660670568040881e-02 -1.295594472956699932e-02 -8.037018779474149055e-02 -8.597864349567127529e-02 5.896243149166099234e-02 8.749136956024805567e-02 -3.622112902372221638e-02 1.378103769993739014e-01 1.280943565944412006e-02 -1.594067503358222171e-02 3.876799130638359375e-02 -2.247570812527763251e-02 4.095836557716916321e-02 -1.039268765773072867e-02 -2.017751320152092950e-02 -3.050212495123970011e-02 2.902370679274933127e-02 2.914476725023019271e-02 -9.157950861398332643e-02 -2.205855350326297454e-02 2.242195495661618299e-02 7.655877613519766756e-02 1.623113058421392710e-02 -2.157965719245590747e-02 1.744845667085362720e-03 9.934672380677758707e-02 -3.799672164660299056e-02 -5.460096145600128875e-02 1.318156651342016206e-01 -3.725707659675406985e-02 -1.396564156570501321e-02 4.033104928511312435e-05 -4.628361337860770891e-02 -8.098949159743259671e-03 1.111601974463967413e-02 4.156737437850067246e-02 -6.500578466500701869e-02 1.067219343877224245e-02 8.640037114524899697e-02 4.666075569746148954e-02 1.282409022273723054e-01 -2.314024931632857260e-03 -4.930422334737698774e-03 -4.895793502536675314e-03 -1.236901633691855490e-01 2.822015143429163278e-02 7.748389962840498968e-02 -1.908495951331266177e-02 5.534413812107025904e-02 -1.726388724387380863e-02 3.443089736671241935e-02 -7.418354171140158215e-02 1.175980820863689325e-01 -7.540719909805455867e-02 -6.814205076913568138e-02 -4.237529080376137985e-02 -7.864477761733189298e-02 -1.406007539187681919e-02 -1.161559475452714485e-01 -7.954676229135286547e-02 3.597689889942434771e-02 1.043706516043328286e-01 -5.602217305325215418e-02 4.875033581348070522e-02 -1.762537302468084391e-02 1.224749656897492975e-02 -6.967951110268487402e-02 7.110558688279039995e-03 -1.009945347693754214e-01 -1.313739291651586268e-02 -8.628153319601201965e-02 -1.101225726713044072e-03 -6.711947422720829226e-02 2.911725755705520113e-02 -4.164900592544282937e-02 -1.692522208953644788e-02 -1.489977320980062463e-02 1.407113773472891578e-02 1.212548625649948440e-02 -7.958834737631965972e-02 -5.558339596719469311e-02 3.903086810151661090e-02 -2.083984634260735436e-02 -2.592291920625246215e-02 -2.609710087040108956e-02 -7.694834898297052417e-02 -1.869434310343076958e-02 -3.530467529493757500e-02 2.087685251013873117e-02 1.589226195149822524e-02 -5.157955803748175139e-02 2.521168438104704618e-02 -3.064193946899206739e-02 -1.032324015616828752e-02 -4.133579205767378556e-02 4.471072060378474683e-02 6.708295294089698657e-02 -2.643596204390858849e-04 -3.982056751592537996e-02 2.594815062566870403e-02 1.164375912372197890e-02 5.252957082985585530e-02 1.759353324408482327e-02 -7.080221442682271306e-03 -3.645259240509505193e-03 -5.124173233091525170e-02 -3.067135707186937829e-02 1.106641748473403963e-01 2.479872035419962428e-02 -1.572467942726727963e-01 7.135819582549204898e-02 -2.289587759569933559e-02 -6.012212699191629706e-02 -2.965953214149024894e-02 3.138706980563959331e-02 -3.690209268448278040e-02 5.163016785338051667e-02 5.290162271622516482e-02 6.249459024907751820e-02 3.604575889321522814e-02 -5.655636603963982295e-02 6.558224449418759150e-02 -2.870238090303079553e-02 1.194187537780940916e-01 -4.746286144744014251e-02 -3.337033406246103263e-03 2.118891494509038756e-02 -4.120997213541262305e-02 -1.809251944456428951e-02 -1.961991186139229806e-02 7.383704777474994589e-03 -1.663003012924858803e-02 -3.267844443579353414e-02 -5.527187456344376942e-02 4.031421685652562814e-03 4.332145644718943950e-02 -9.569821191889336942e-02 1.247213186863841000e-01 -6.776809190638806435e-02 -2.420464858697278510e-02 -4.431898681364124237e-02 -2.816420322935299717e-02 1.210409562192382021e-01 2.964035033422514603e-03 -8.206667301978362583e-02 1.983275465466455972e-02 -6.876263284875619441e-02 -2.185050892441751968e-04 1.534915020675344660e-02 7.791238664655489310e-03 4.272480248409478432e-02 3.639294408386013063e-02 -4.655729954733005965e-02 4.473958764342823857e-02 -6.126522703368234013e-02 -4.154303633021780642e-03 -1.538985089673198040e-02 -4.753107370490546046e-02 4.825286972417890119e-02 -4.136246314332441693e-02 3.913924936608730032e-02 -2.855502491745099541e-02 6.556217352959105293e-02 2.768044279483822582e-04 -5.447761687300294031e-02 9.544541579042536278e-03 7.805484904907246391e-02 2.929612472849269997e-02 -7.821267520860498978e-02 -5.973318635833720081e-02 1.057107601546822262e-02 -5.368136588040466756e-02 -1.348980098056105567e-02 1.016425365951240112e-01 -6.373271764785197642e-03 8.181120831852897735e-02 2.829660302541005604e-02 -1.035215902415475703e-01 1.790120122031214900e-02 9.108580055165576769e-03 -1.353077921094220646e-04 -4.649533988775072374e-02 3.012932081931292416e-02 7.381023505507011695e-02 7.135276772016428681e-02 6.362751761565378639e-02 -8.318394487490940459e-02 6.320694061471479781e-03 7.111778186921444145e-02 -5.519539938363633713e-02 1.096828648788230193e-01 1.432418965483587756e-02 -3.585909813769061483e-02 -5.315747311919067838e-03 2.888503543004119350e-02 7.345601196984961889e-02 9.876234386477801552e-02 3.786604987695264823e-02 2.549782996420560735e-02 2.763733327001781717e-02 -5.435140392408904092e-02 -1.758189568729078694e-02 1.000333426485207344e-02 4.992391635384760967e-02 5.850461642456562111e-02 1.307233058471995724e-01 -7.209859803691527624e-02 -3.900755900027930850e-02 -1.316218955628737676e-02 8.269470735948097895e-02 -7.345946421218289835e-02 3.846100544904668822e-02 1.275216669103094724e-01 3.121436386134175331e-02 -5.113088251850200772e-02 -6.660535822413622686e-02 -6.495704726995905898e-02 -7.754258635865952758e-03 -6.036548247219378910e-02 6.840159310223033196e-02 -1.036295493230415532e-01 1.282850241042631824e-02 -2.972472687407170036e-02 3.409535856321094932e-02 3.639681623993294007e-02 -8.416860613036597494e-02 2.442353526367473104e-02 4.519109386668649503e-02 5.399506905289983005e-02 1.167253294027449095e-01 9.184543494835589739e-02 2.060643579260511282e-02 5.201238270559511295e-02 3.741102682058622397e-02 -2.024106338584611645e-03 3.754531097046569926e-02 -2.899430433329977172e-02 2.552114194083976786e-02 -3.026171161448557023e-02 3.952534228619770246e-02 -8.347918335563890568e-02 4.762284401714932808e-02 -4.416350001560472027e-02 1.343329216668955883e-01 -9.645433335414510534e-03 -1.006603085104381401e-01 -1.656953275792944977e-02 1.395305040907246323e-02 -1.541950388610514033e-01 -3.258346835484950826e-02 3.498063968916325511e-02 -2.138832715656425326e-02 4.967024752107601637e-02 -6.897905112899208047e-02 -7.138839459965910794e-02 -5.680404985240409405e-02 4.573224551365505375e-02 -4.206769919342977226e-02 -9.870938214039726155e-03 1.726581634799999321e-02 -2.232471997372224848e-02 2.903246131620628237e-02 -2.894970016505771238e-02 -9.528148026220707723e-02 -2.006224887304925916e-02 2.024093117009731144e-02 -5.838520937948457612e-02 -5.383500377960281219e-02 -4.811652993529881225e-03 -5.913728616260746640e-02 4.162135429038955892e-02 7.446736060219574793e-02 4.153469567241770827e-02 7.003145220066672727e-02
-7.224547521594903120e-03 1.195694040205934755e-01 -3.165562576083894020e-02 7.847705116904822586e-02 -2.115673427545251145e-02 5.997833903750715567e-02 -8.402299852122384338e-02 2.741528469248316960e-02 4.051372577128775458e-03 8.960623849258121665e-02 -9.717927260854601276e-03 -2.991839256259840388e-02 -2.520011356199462760e-02 4.858533322918201502e-02 -9.864215606246377888e-02 -1.618889531885718200e-02 -9.047655102987901821e-02 3.998815583087815539e-02 1.422087018477832532e-01 -2.444502352662669339e-02 8.966100601838021544e-02 -3.367635511631816674e-03 1.309525946488629237e-02 1.065831855253892291e-01 3.349343622885241067e-02 -3.381603768374136232e-02 2.596734944971983150e-02 -9.423173438436113769e-03 -2.443671509134296219e-02 -7.207680421985192265e-02 -2.459633501249105722e-02 1.059279453844893734e-02 -6.300121246505424599e-02 -3.447498646534914030e-02 -7.675794597536811370e-03 5.922851546512158949e-02 3.519182369501622915e-02 -1.253766359572928146e-01 1.058191631339066609e-02 2.179581918839878715e-02 -5.037758259527164856e-02 -3.691987058983312725e-02 -1.873816021138539900e-02 -3.894558448871870276e-02 -9.357831318483651739e-02 1.710600113319258112e-02 1.451714678932828836e-02 -4.904142096693905190e-02 1.490951379003044482e-02 -1.745157656228610299e-02 1.014793714308172001e-01 1.404903857428651398e-02 -2.615150504178282223e-02 -1.495093488231358236e-02 -1.108850406783131771e-02 4.471881562313140268e-02 2.585084544627068090e-02 -2.546958498471602744e-02 1.389232262984271653e-02 4.830913599313592377e-02 -4.325846624645240251e-02 -7.114967846135700213e-02 -8.567876323572527764e-02 1.750718846181425689e-02 -2.153852854181263071e-02 -4.044655606325538166e-02 7.979582068157253794e-02 3.708028956503735957e-02 -8.676355546515809869e-02 1.504732534444685674e-02 -4.166306494235502006e-02 -1.104396905896013609e-02 3.492184919697170070e-02 5.307906081404200477e-02 -1.844853010865688328e-02 -7.110825300268856786e-02 -7.285266742287305197e-02 -3.514940614280554626e-02 8.220955809733415665e-02 3.844843993717233371e-02 -1.220783096491126068e-01 -6.426416159256261029e-02 7.367888432909494578e-02 -5.483565250415681908e-02 1.839580572848084974e-02 -7.380768672050056455e-03 -9.072604040238971615e-03 -2.420842896822824816e-02 -5.173045256357738930e-02 4.185031713091123817e-02 7.673733209176844539e-02 4.302732962136961853e-02 2.024463721549104450e-02 -5.467256614794115122e-02 8.117033696022480895e-06 -4.293940053301741749e-02 5.002912218235588265e-02 -1.617267432328338694e-01 -3.191962327243540870e-02 -7.799565816391342606e-04 3.722926469597195864e-02 3.596789162156081160e-02 -9.484006633378695705e-02 5.386178240520510252e-02 -4.329768115791111233e-02 -4.741790893029543957e-02 -6.258284163703334117e-03 1.034915459117934393e-03 -1.821409505946245191e-02 -4.159258960108687397e-02 5.557345712856513742e-02 1.311755804654734028e-02 -6.147205845782747861e-03 -1.366114933930283326e-01 1.062099577784681934e-02 1.564165730567303181e-02 6.533391267310512639e-03 -6.024613074850670991e-02 -1.511796971775249306e-02 -2.164306442276052976e-03 3.251652609510131270e-02 -4.352035648034940918e-02 -5.168857182590726185e-02 5.837337435530708107e-02 7.691864557667337302e-03 -8.860268456147189775e-02 8.579110560626030876e-03 7.233554924666271702e-02 -9.025215857088494942e-02 4.275555564504628092e-02 4.620045347382210205e-02 -6.234634333743409307e-02 -5.121800558503808443e-02 -2.272523902843984721e-03 -4.196806434286193266e-02 -4.771711751483141001e-03 4.045472724585593566e-02 -3.568801466559134300e-02 1.900952148487230695e-02 4.622617406054857492e-02 -5.975672792108859682e-02 -6.490023520636791637e-03 4.926756966215597999e-02 -6.117819444760141251e-02 8.954982354752494961e-03 9.295036126542984001e-02 1.253858844748913758e-02 -3.039976854104536885e-02 2.950497857771975860e-02 -2.588325277278512304e-02 7.037354879261476133e-03 7.927760827780787334e-02 -3.167324314750775277e-02 -1.434100426396879568e-02 5.300968750545152069e-02 1.468685665762803176e-02 2.752426253940085847e-04 -3.874704948846924984e-02 9.333623455751753270e-03 -4.079964393531698708e-02 -3.678299663587075025e-02 1.112885554907433322e-01 2.226867192361464340e-02 -1.035238067518147870e-01 -4.512400899487975514e-02 -8.800556981323173766e-02 5.536165621633083733e-02 -1.263081483608548272e-02 8.494920210219776557e-02 -1.116761287709929495e-01 -3.628281953980334179e-02 -5.783282848377265667e-02 8.810402140696456386e-03 -3.604300495203106164e-02 8.752741611243963771e-02 -3.757407536745898963e-03 -6.887450738483355539e-02 -2.352015076676787844e-02 4.874674569774398863e-02 -1.011808415891644192e-02 -3.103610633337585550e-02 -7.343450227351269732e-02 -1.436628104802649963e-01 -9.785682172535334344e-02 -6.556515862590796273e-02 3.417971309673971045e-03 -1.897997024699812213e-02 -5.076482612148897761e-02 -7.946247447094624550e-02 8.338943901979760376e-02 7.423748307313593475e-02 3.923328123350538349e-02 -2.766407890726731503e-02 -6.956947138230155925e-02 -4.882520904502791331e-02 2.158396568229418999e-02 -4.189233635587215343e-02 3.682188143377990164e-02 5.603556333548671831e-02 -4.602026724336583108e-02 2.445635147862712175e-02 1.597574639154012224e-02 -3.301029467296562325e-02 -9.493674845343086366e-02 1.100600778238960270e-02 -4.120624872269882527e-02 -8.181821435875151483e-02 5.740697035480555460e-02 7.069498808942605017e-02 6.573269717888188812e-02 -1.706038629289077097e-02 3.996238103534562741e-02 1.640944589513021468e-02 -1.405411426480791641e-02 -1.644609395912311964e-02 -1.332193412102660179e-01 1.002769603708698470e-01 -2.058785427277172019e-04 2.983203298479064972e-02 -5.367159505848947965e-02 3.294642556006572437e-02 -2.183036362610571088e-02 -5.605076601077639553e-02 1.479554718330357461e-02 1.299676957083431561e-01 3.806097089618388357e-02 -1.409381635504411701e-01 -1.305915624661287133e-01 3.096736662858895484e-02 -3.182200227820520741e-03 -9.078105933229706562e-03 5.352799098770145286e-02 3.059156000877793439e-03 -2.787640741562578614e-02 7.872987987200570636e-02 4.101770013348637889e-02 -4.380533633669877330e-02 -3.782351768817670407e-02 1.548568902780965706e-01 7.397463584455162000e-02 -3.515680635747160665e-02 6.533044171726906657e-02 -9.690632862867647190e-02 -9.774196896484234343e-02 -6.257135551462318646e-02 7.335892437437850633e-02 2.846640210348303293e-02 -6.596207756338222372e-02 -3.622092135845109140e-02 -2.772956396686028155e-02 -4.575638587238574535e-03 -7.338397695703881285e-02 8.487965145346301060e-03 -1.036594636580522944e-03 -3.003176981461825115e-02 5.051843657770586568e-03 4.774241414801097538e-02 1.776156389790168599e-01 9.566225627046362479e-02 3.405271371285004817e-02 -5.038609211518105431e-03 4.940863984521762274e-04 8.266201915391508184e-03 2.087585191370901552e-02 -3.233194578453573581e-02 3.859597559195085403e-02 -2.981169821575984161e-02 1.691528038152881677e-02 -4.368504940900779648e-02 -1.531669859532512785e-02 3.404715207641954844e-02 4.563407422724696100e-02 -7.033847647712347662e-02 1.038853581864979392e-01 -5.927559797201665398e-02 -1.997326028352578928e-02 3.811387528787686663e-02 9.305930322921429632e-02 -3.600544110899372291e-02 4.574088119686971904e-02 -2.715483535990224906e-02 -9.662776120788801881e-02 5.250904045474016207e-02 1.099766162608697626e-03 7.525849791960012580e-02 1.017848628920494103e-01 -1.011018821239742342e-02 -4.004922299669658875e-02 -2.186160908296663416e-02 2.831743311524922892e-03 5.552954905900449323e-02 1.886981069749704421e-01 -9.619069162692036115e-03 -1.748633181845224774e-02 3.280915079894240662e-03 -1.908785356219977122e-02 5.816880284021138520e-02 4.722549369904334438e-02 -2.314598042601595518e-02 -1.283357456593204882e-01
-4.638217478782472730e-02 -9.783442650577071908e-02 1.723721748928301600e-02 -4.899443019930675713e-02 -6.108853266218968597e-02 -8.050965499241789780e-02 4.579171881401757072e-02 4.123434918729926291e-02 -1.390567568069078427e-02 -1.009302323998466644e-01 -5.826902631992370712e-02 -9.633005721140219801e-02 7.360086008637899482e-03 -2.482081169795597939e-02 -1.031499396630484316e-01 -2.808896083136172908e-02 -4.711139567930539007e-02 2.473150925266772229e-02 -1.484553965485701545e-02 -6.250004903738229367e-02 -1.121918904221241506e-02 1.246612475966331910e-03 -1.470242181918693727e-02 -4.043527435494057715e-02 -1.807683535092353619e-02 1.349175158579075592e-02 1.662196467294567307e-03 -3.454631921057409183e-02 5.791603834085064240e-02 -1.596603929912181891e-02 -6.165466903139073945e-02 -1.012057635382303533e-01 -9.596379705658285297e-02 -4.807970192230103662e-02 -2.521988045454289494e-04 -2.218207882302724795e-02 -5.300668654953655939e-02 -6.360579310695697874e-02 -1.030002970626811981e-01 -7.134298182768616936e-02 -7.064584325312830981e-02 8.301576012907093544e-03 -1.026469010562785639e-01 4.468207038964607664e-02 -7.148805833004950872e-02 -7.293628673442117960e-02 -3.489871567575845990e-02 -2.504311327495963371e-02 2.801286687152123450e-02 4.199640224790589238e-02 -3.012715268174439090e-02 5.151498339442051044e-02 -1.159883366306863339e-01 -8.715298210269081455e-03 9.386064812647150479e-03 2.166177222706581335e-02 -1.937712113047007634e-02 -4.276745964634261210e-02 -9.050256723915203749e-02 -2.970781217973545232e-02 -7.855024887932120226e-02 -9.257979505294169909e-02 -4.554969871419227190e-05 1.857858868605871466e-03 2.949307677134040476e-02 -7.526939006747221383e-02 -1.031225612999213913e-02 -7.432987246442905420e-03 -6.969034838609744487e-02 -4.742617778397974215e-02 1.101789599054518905e-02 -9.739371329417011169e-03 2.793706315901807458e-02 -8.315503517421982127e-02 -5.842709179920937967e-02 1.782659733304512925e-02 -3.072460625647788213e-02 5.192389318393750980e-02 -9.206798594456093443e-02 4.537239874249793942e-02 7.908127789359362114e-02 -4.115223685391151270e-02 5.240902560601035098e-02 -1.190058187705862608e-01 2.819224346018804617e-02 1.633817230126351217e-02 -1.568695395132878659e-02 -4.739485280133345912e-02 3.556599193139202419e-02 -8.214139830723370811e-03 -7.260273646937634440e-02 -2.673906194313837442e-02 -1.430336401612780813e-02 1.317998323148728175e-02 1.472584639328878599e-02 1.539124498645748525e-02 -5.711035353806263176e-02 -1.287674930394406003e-01 2.335866260699721603e-03 -5.395703423084663442e-02 2.074571550944364143e-02 5.769213522217145340e-02 -6.037840174519847058e-02 -1.049159182160017412e-01 -1.053431395757856992e-01 -3.780754919742617542e-02 1.018437160243501095e-02 -6.948952173867309345e-02 -8.772363740848275471e-02 1.145872591184786404e-02 -3.381742475276723614e-02 -8.369295043727033312e-02 -5.172296983336988063e-02 -6.440396664171874064e-02 -3.610177000224632643e-02 -2.020396219140613639e-02 -3.760377050917146358e-02 -3.375153642197979698e-02 4.172930747240018862e-02 -6.226595817784132125e-02 2.266732725077651514e-02 -6.741985682724971340e-02 -9.518611856811182159e-02 1.012294239237168832e-02 -2.506867794800014121e-02 -9.063291531745676366e-02 -7.203024209344818796e-02 -5.110542577315681234e-02 -2.263047796653794817e-03 -5.460853406120617926e-02 -6.348441209677710417e-02 1.515250998726039820e-02 -6.738654846909758467e-02 -1.416311806747257672e-02 -9.896038622441512278e-02 3.477921630598904135e-02 3.884889641792353687e-02 3.963974947808254073e-02 -4.495962786869556194e-02 -4.691298340786107662e-03 -6.448499555507666847e-02 -7.533058250920887655e-02 -1.132826651120639669e-02 -1.220574961921122303e-01 -9.780262998823190113e-02 5.027333974201558808e-02 -6.446922889123110623e-02 -9.495826356908720900e-02 4.117022967556036722e-02 -5.243532304316016190e-02 3.858930436848900802e-03 8.120794812005451349e-03 -7.780624576650821411e-02 -9.301387496627966378e-02 -3.588031179337965865e-02 -4.004287977729008470e-03 -8.343630069277964412e-02 -7.789555104675126296e-02 1.216702197181079712e-04 -9.317489994525052568e-03 1.353453023640628812e-02 -2.167441268750062294e-02 5.778834744280269414e-02 -8.930922556576302573e-02 2.896106409304074689e-02 -2.429420562076980289e-02 1.889888835757696497e-03 3.328952660731951396e-02 -1.062703598342254335e-01 -6.450539573006082439e-02 -9.608446306992504682e-02 2.223502212490994015e-02 -8.394446735128161105e-04 -8.680469776096687295e-02 -7.509229268101459687e-02 1.153358421721625230e-03 -3.082060503549170424e-02 -4.519147819682733241e-02 -2.648219702275963344e-02 -1.091271038601609872e-01 -4.829257297948544303e-03 -8.640663641040999265e-02 -6.512185359207982305e-02 -8.895893160963463941e-02 -2.297174051543977857e-02 2.595563640302255394e-04 2.785697059796962260e-03 6.914380355610933414e-03 -3.353092660291098065e-02 -1.054892348401132753e-02 -6.018651392209578566e-02 3.134319025472022402e-02 -1.312729742748106609e-01 -5.309267296689704901e-02 -8.279064349194145689e-02 -3.435316008193105286e-02 1.879850708828546130e-02 3.305352438259245157e-02 3.071309321781538065e-02 -1.261311051739950374e-02 -8.690663151729520475e-02 -1.465839402947269852e-02 2.783121821372803919e-03 1.149332683691361295e-02 -1.128299472485262411e-01 6.488904661066602353e-02 -1.009250643843003503e-01 -1.180407951368864748e-02 -8.754014628562041545e-02 -1.482819287671725437e-03 -8.964446394630254389e-02 -1.053015044017631408e-01 -4.921642743251797986e-02 -7.784652460285289288e-02 -7.700633050530555912e-02 1.378635851599664848e-02 3.376647447617215411e-03 -1.564988826620873283e-02 4.673842434521054828e-02 -5.999339976444709871e-02 -4.557395935842219886e-02 -3.827028747935445896e-02 -6.094582673749564944e-02 3.299017545610972990e-02 -4.017352469561496532e-03 -4.899518669427285061e-02 -8.254448025191606086e-02 -4.744113456820236302e-02 -9.528841301370798156e-02 -5.996314515070311213e-02 -1.663741210179583985e-02 -1.151456945737974191e-01 -3.247203975026752287e-02 2.152850896587299445e-02 1.617187869595767408e-02 -1.115459585528472963e-01 -6.648068874878074186e-02 -9.233168264771769718e-02 -6.560325436375782915e-02 -2.041456468530248973e-04 -8.547091890437849560e-02 2.463644670678471604e-03 -1.304163317114606299e-02 -6.962070116588409130e-02 -5.954273051287994195e-03 -4.547404942371729812e-03 -2.110886295547203043e-02 -6.932200979287903020e-02 -2.622082709582141194e-02 -7.147809287062488774e-04 -9.450164728963218741e-02 3.795471035843061940e-03 -1.489526554064933839e-01 -4.921356167937708526e-02 1.683225987182643615e-02 -7.939702467384962548e-02 3.717852504967220084e-02 4.503767384279484115e-02 6.302007083953781175e-02 -1.222784756899021087e-03 -6.586030481875292109e-02 -1.072865623470019153e-01 -5.466510848098561637e-02 -5.087806709751682699e-02 -8.914040660368505176e-02 -5.131450200489629659e-02 -5.529015568124124452e-02 -7.818222885371218719e-03 -8.812669125000345549e-02 -1.973060426774381898e-03 -6.856675970019213140e-02 -4.871753340813922417e-02 -3.808150949877647795e-02 -5.030430323336134574e-02 -8.222017059528904936e-02 -9.604114266594877825e-02 -6.063358654727463853e-02 -5.709343987702909448e-03 1.171057401094930187e-02 2.246747148761238030e-02 -1.175144890783130919e-01 1.306529982508499756e-02 -2.853195366397626859e-02 -6.739945646500240806e-02 -7.085254099697300793e-03 -2.421469738557750859e-03 1.930353433965083243e-02 -7.429699046608262934e-03 -1.019985176408027020e-03 -2.240277257567434288e-02 -2.792435350558481605e-02 8.639633519179262811e-03 -4.188837570912282149e-02 2.492700829249250641e-02 -9.900883384251268904e-03 -1.440267375754445377e-02 -4.561847263011291342e-02 -1.403290664027711243e-01 -6.898913552335250721e-02 -1.068142979318198321e-01
1.403693940147166148e-02 8.442665044576955213e-02 -4.516760705221151140e-02 1.093552900079297896e-01 -5.397958443015123077e-04 7.388162413142555784e-02 4.224712236760107265e-02 7.177510580526295925e-02 -5.320228636802367544e-02 4.286404947128828052e-02 2.787386165953356643e-02 -7.808646142518442523e-02 8.022066797145707695e-02 1.382571411653839011e-01 6.990486521704057524e-04 3.298892859408185385e-02 1.603443659539250873e-02 4.959179327376821156e-02 1.157261089975326757e-01 -3.253598626322929538e-02 1.005805430618162133e-01 1.561399382049775443e-02 -5.429411446606246389e-02 8.171443431647980316e-02 -1.193853033863069568e-02 -2.414834491937914093e-02 -2.103434630554620183e-02 5.639210708375363978e-02 8.420620805811437903e-02 -3.379516682996643040e-02 4.847231561006640904e-02 3.863841714994722953e-02 -9.585687564508009462e-02 4.390368941989594015e-02 -9.787522713683162803e-03 1.125394783135650195e-01 2.012930708101631078e-02 -5.565272586355015511e-02 -4.949850112792623241e-02 4.282162933158217832e-02 2.926898513353049999e-02 -3.417320789707648659e-02 1.803412756900957259e-02 -1.067101553609743972e-02 3.095152337717627621e-03 -7.941080278362242645e-03 9.100168819944220999e-02 -5.270746223588018697e-02 2.891844645901583619e-02 -2.694431362020593620e-02 1.119273428496091009e-02 -1.286292508922329964e-02 2.961527421174238103e-02 1.265018821297794749e-01 5.815067849589120735e-02 -2.357949775287455224e-02 2.829274726581183785e-03 2.519380184174668455e-02 -8.951478787712720264e-02 -8.910521353813737055e-02 2.052642859426206945e-02 1.006141253463019997e-01 -1.696140964936039899e-02 -3.215402593552416782e-02 1.115233562936292638e-01 -7.219582444232158780e-02 1.043436971509756166e-02 1.701413990471547719e-02 -6.620677869495145140e-02 6.454300415006035407e-02 1.193002855767988889e-02 7.852338052485613451e-02 1.153989149917940688e-01 1.648784137872390601e-02 1.299852077166087083e-01 4.903969316870873674e-02 -3.969344356269709218e-02 1.289224635598918145e-01 8.993463290287025125e-02 9.757338679479016230e-02 -1.422329018974316690e-02 -1.415460362991343909e-03 -7.963780367537549171e-03 -3.954055970738905323e-04 -1.746747471902290391e-02 3.782285652559766453e-02 -1.291439386884715018e-02 -2.853981239495832420e-02 1.467338676817112400e-02 -1.112477229718269144e-02 2.063855287779517433e-02 3.392320643990963391e-02 -3.159839518083172594e-02 8.780586109502862280e-02 -4.873378962933003905e-02 5.207646053508274003e-02 -5.206364934996429022e-02 -4.298423456849068125e-03 7.528430838831552674e-02 -5.794869551796921758e-02 9.354674164673722203e-02 7.787133729863530973e-02 -9.145464831044072818e-03 -5.001859011100243807e-02 8.268056111427025956e-02 3.745359109847310689e-03 -7.046761194359380280e-04 1.313290792074373881e-01 1.689939514396400499e-02 1.177187308751774658e-01 2.786238744030002795e-02 -3.501537773285767763e-02 -3.482597842563469465e-02 4.388509690456428303e-02 -4.769568726813177423e-02 -3.272842369669664436e-02 -3.712197192865827194e-02 -5.688529183620670213e-03 2.915713608012164212e-02 1.289426072302563842e-01 4.637101066319584963e-02 2.854500996996597092e-03 3.610488587457303528e-02 -2.945941566239045073e-02 4.533785714518317328e-02 -4.194150642147736335e-02 7.935144836231404486e-02 6.329789054839213280e-02 -4.958322819742288362e-02 8.983555157207169517e-02 -5.897207490748320596e-02 -4.431515643193667531e-02 4.326833913399959382e-03 7.716707957491140968e-02 -2.410533786267155670e-02 5.000979997159937102e-02 2.867763057505834726e-02 -2.353757081274473421e-03 2.133335170311493473e-02 1.054949742270419252e-02 7.616588032979135225e-02 5.367210376332112037e-03 -4.990939807687296004e-02 1.635663071796058035e-02 3.835911399460271293e-02 1.383091224559018784e-01 1.956605922934907468e-02 -2.830348462636465487e-02 -3.139086121444788907e-02 -8.155066986948786290e-02 4.675796350345791386e-02 1.463297727100883738e-01 -3.612441809720640801e-02 -1.433815488554121727e-02 -1.346071333237533821e-02 7.258400485064445129e-02 -4.077514483499067310e-02 1.013274845832171506e-01 -2.287063078502991897e-02 1.138284520530448568e-01 -2.892184744879587946e-02 -4.522460989941994025e-02 -4.069524348347591802e-02 -2.011279766008724004e-02 -7.148654270280216383e-02 4.756654248050892764e-02 8.374013159258876515e-03 3.844524464575943545e-02 1.156148440729353050e-01 2.554044782753289028e-02 9.733381870495302901e-02 -9.369870430727682276e-02 8.842594292751682766e-03 -6.075013209813353438e-02 1.783398424561332546e-02 7.632287447894092747e-02 -7.145358525454748033e-02 1.123622195872413763e-02 2.582052578723090241e-02 -4.321839183747824831e-02 -3.361555547975499797e-02 4.626716136612118307e-02 -5.529922976039292060e-02 -2.695316999800007052e-02 3.391309819714487944e-02 2.383783034422512145e-02 -1.842569155183192142e-02 -1.747604823957796955e-02 2.989112622091818702e-02 6.575713397088125967e-02 3.067196109768468779e-02 9.069986727596465736e-02 -8.093973162898006682e-03 -4.443960159672925847e-02 -6.900909108275846138e-02 2.234504065150835078e-02 -8.144688873200367496e-02 3.302928878882614716e-02 -3.394033077180345914e-02 6.186148199541304654e-02 -4.388381031224766748e-02 -3.186140745698102378e-02 2.641976312133834451e-02 4.358300697120656708e-02 -5.357575746116956944e-02 1.095108574759273146e-01 -6.099917897127184879e-02 2.455106925054268904e-02 6.792553279477689387e-02 6.943265851177962689e-02 1.096184581483945590e-02 3.885414357358632498e-02 7.787645393931660887e-02 3.375092997893186508e-02 6.572851929248443859e-02 -2.918818090805854262e-02 1.222385334464963086e-01 1.137328255910926844e-01 1.006096604716631010e-01 4.534299774975011910e-02 4.624834611252554017e-02 5.497664427854315194e-02 -4.143678460221001530e-03 6.162322712276357278e-02 9.956623845739805134e-02 -4.451528680685049033e-02 4.921486017474133168e-02 1.086109156357209782e-01 -4.123886247342836014e-02 8.334930435859730369e-02 3.310891802017650043e-02 7.046461327186744061e-02 2.818421960722126279e-02 6.651865920529088927e-02 4.388216130202263199e-02 3.012687651282025189e-02 1.440169112786780434e-02 8.753926555764494910e-02 1.021436263774823383e-01 1.209188804442616269e-02 6.368011672867451844e-02 -4.962767782352240503e-02 -8.256244899850638530e-02 3.005755206902120322e-02 -8.160014916105573935e-04 1.441527629548960965e-02 -1.189070675016071742e-02 1.017926234351793635e-01 4.543401114130792701e-02 -2.150354948424544263e-02 -8.747303686634942677e-02 -4.074126872544424349e-02 8.406463642631609168e-02 4.906072497088295042e-02 8.247325572512176350e-03 6.131710320029040706e-02 6.597128695380291563e-02 5.567287734066435866e-03 7.553495745079663592e-02 7.618415258437412352e-02 6.448736904085140831e-02 1.983117579939940381e-02 -1.227232948643844530e-02 1.177861176637034525e-02 -1.350231166883134049e-02 1.484068735288004114e-02 -7.552643933341257609e-02 6.949339473329718426e-04 5.573105652621863741e-03 5.106971026492195670e-02 2.628351602946178353e-02 -6.619417784939311822e-02 5.368310796426459253e-02 4.195824463276900951e-02 -7.545089130627724572e-02 -8.503940651753070764e-04 5.008789221808430253e-02 -5.559240604849447626e-02 -2.695989357943058551e-02 -1.405958123832753851e-03 -8.275881374642324317e-02 4.250667165599521236e-02 -5.324461335860070088e-02 -2.168160749589650646e-02 -3.297117581804161202e-02 2.042305835367311251e-03 -4.637234177517978242e-03 -2.754098836903186992e-02 9.173411099477987718e-02 -8.009944646712832683e-02 3.793514241223171907e-02 7.159284967869053440e-02 9.931728730549973724e-03 4.867033622093300260e-02 -3.689026580041862569e-02 1.052103951133749257e-02 -1.786909564494228164e-02 -1.075886935048282799e-03 1.059013285319337083e-01 8.117764666507652424e-03
-5.794131936594493909e-03 5.180358466552426738e-02 -1.314935362709969240e-02 2.774153925035642218e-02 3.161364663316922757e-02 -1.241510479654978349e-01 8.042199483947048977e-02 -5.969247716070828075e-02 -3.642575902309874020e-02 -1.334438782355246988e-01 5.006146341888037532e-02 -1.731355210821939944e-03 -3.416518620087881375e-02 -1.191972323523677740e-01 2.678096232943577570e-02 6.424640261192521296e-02 -1.651885103647142070e-02 6.446303747752595015e-02 -5.659147009333688472e-02 -4.196606328041560573e-04 -3.535980175954964774e-03 -2.342867099072526091e-02 5.770729153252805721e-02 -1.263747909315786899e-01 8.545336692914687338e-02 4.228503247818955757e-02 -5.129410057731973588e-02 -6.118690135366718248e-03 2.410158357565206702e-02 2.198050688810706046e-02 -5.511373737675836354e-02 2.399717540813090660e-02 9.476122307863241861e-03 -6.052833939135905672e-02 -4.094755823835048714e-02 -2.097358396494605065e-02 7.109536872629176885e-02 -1.153184814450887302e-01 -6.604339603710582263e-02 4.941365903919355679e-02 7.247392903548685594e-02 -1.086223516728760802e-01 6.184332400898058524e-02 -2.972324875730590621e-02 -8.495533681532364823e-02 4.107968837437495774e-02 6.252814933714929968e-02 -9.701912310935635608e-02 6.089593825070676626e-03 -3.227508152546093578e-02 1.078177256911322206e-02 -3.609370143614946264e-02 -2.099240522746413304e-02 -5.159421806636945579e-03 -4.418257490529538256e-02 2.775957590569434058e-02 7.762494396339877922e-02 4.130566440928014338e-02 -7.031609835044050349e-02 2.805410566198391492e-03 4.448026516115755752e-02 8.266974801916114612e-02 3.102340163803356601e-02 -1.428753332068469911e-02 -5.506182407551939856e-02 2.690080224024133174e-02 -2.531635347060843741e-02 -1.006950009851113742e-01 -4.259884429916335757e-02 -9.985697728696814671e-03 8.062719043329087676e-02 -8.213653743987579803e-02 -2.406603461121754189e-02 2.747286367804540122e-02 2.556684562801750729e-02 6.246928793180030193e-02 1.827782848933960647e-02 -3.633720421398881767e-02 -2.487797072410613888e-02 2.291797603713103745e-02 -5.224035572204276112e-02 1.842118530914662114e-02 6.220387124915368465e-02 6.430443876764528610e-02 -1.677309430201182755e-02 2.219200626507649224e-02 -1.427582969106662714e-01 3.463632460878108416e-02 -5.050719511536111428e-02 -4.579751063670924049e-02 -5.064371400038237409e-02 4.358813946785151938e-02 1.051400424498741097e-02 1.620490335684418581e-02 -2.477781760800995547e-02 1.336529768376758763e-02 8.978460892820545880e-02 2.252572679117019125e-02 -8.297709722657023446e-02 2.086424997261291693e-04 -1.050605608945135022e-01 4.927732364538127408e-02 1.159957935540674029e-01 -1.109003780945148343e-01 -4.310535097693561461e-03 -7.378272340238707649e-02 -5.145314562178573969e-02 -1.365769630055193584e-01 -2.844440039356477962e-02 -5.050159330324167917e-02 2.106532339907142733e-04 1.190361350630418993e-02 -2.429483234112667783e-02 7.693680425512332451e-03 -1.620333090584793675e-02 -1.002248553477777353e-02 3.536941144847839669e-02 -4.317476284014172550e-02 -8.415622982665547924e-02 -1.832308405484938535e-02 3.367573747986932209e-02 -7.280779504343759707e-03 -9.364250603031709641e-02 -4.595525325858255267e-02 8.032125768806212471e-03 -4.292100284475330180e-02 -1.253403532224240009e-02 -7.345868138495817434e-02 -1.122076331467840027e-01 4.017489927657769827e-02 -3.381702506086493171e-02 -9.132375199127262810e-02 -4.488620729945334842e-02 -3.076717762566155701e-02 -3.056757898247257701e-02 -1.280053206560251566e-01 -3.887769483960490380e-02 -6.585978809913077547e-02 4.492724040186517331e-02 -4.174254755635172648e-02 -6.315568310821050024e-02 1.107848034561859443e-02 5.741069440531627183e-02 -6.002409071107103061e-02 7.506110688331940617e-02 5.089184438929820337e-02 -9.773894683789069449e-02 6.661881093995455916e-02 2.765462421431741022e-02 -2.259870325991726256e-02 8.158062630695267492e-03 -4.266654418123695669e-02 -6.463686014659088264e-02 -3.981522435473503624e-02 -8.385597726445793987e-02 -1.741748043514579694e-02 -8.848222480433892700e-02 2.327281645437766569e-02 2.658310740241075568e-02 3.522730590649213178e-02 6.573979023119384812e-02 2.597534550342354628e-02 -1.614772635987025973e-02 -8.216420398330316621e-02 -9.656379390348046599e-02 8.127062638514263165e-03 -1.006032843027905299e-01 1.051670917532471737e-02 3.615709385191865494e-02 -1.217176567538094112e-01 3.857326659245107620e-02 -2.063334008558561500e-02 9.027941461818279195e-03 -8.244539620624141696e-02 1.604582267351309377e-02 -4.969003109873874890e-02 -9.450553261154097384e-02 6.958785065111779133e-02 5.557233985176578822e-02 -8.851911868880395218e-03 2.550482626059050184e-02 -1.560525034243681088e-02 7.638730422014501642e-02 1.065561779453247926e-01 1.079308879083716241e-02 -1.507337796331452082e-02 -9.678430280281120901e-02 7.339613094159980200e-02 -4.345550363571162866e-03 2.561797427728872145e-02 -5.392679243598209361e-03 -8.540236554761063137e-02 6.116474352430627953e-02 3.695395970026345289e-02 -1.119155715699625582e-02 9.616818871822989737e-03 -8.066080631741964768e-02 -1.114434153874737238e-01 3.049866338322658466e-02 5.830900082902321091e-02 -8.161433951082125438e-02 -1.197474252186655867e-02 -1.040861638260746902e-01 -7.968183089741590064e-02 7.007948171066362419e-02 -1.501281693767778785e-02 -8.566009218308469342e-02 -8.361202892161708963e-03 2.081117416714751631e-03 -6.474481570699702759e-02 -1.209685656332143561e-01 8.542000128220027591e-03 6.638160698853703967e-02 -1.031589762908688285e-01 -5.919107784022847873e-02 -6.191737226313075160e-02 -1.796609092623890902e-02 1.034253704396297623e-02 -4.926780728531300613e-02 -3.855605402993177167e-02 -3.367274280649693117e-03 9.088996259524438626e-02 -1.021117393206912027e-02 -6.960963286186439046e-04 1.709813237200300678e-02 -9.535255992863550523e-02 -8.963389109123033605e-02 6.087553308538442079e-03 1.405539181195428807e-03 1.193124552646217251e-02 4.371580112465425078e-02 3.386029756006330577e-02 1.991843969361715982e-02 -4.491152745373155203e-02 7.008673096755589638e-02 5.768248036444367788e-02 7.296435463297003265e-02 -7.165345003924644685e-02 -9.419687615454841456e-02 -6.000389904305151317e-02 -7.883339167228017516e-03 -3.629135739902927815e-02 4.012941343111840753e-02 -7.316070631541622682e-02 2.259187594161915155e-02 -8.194366984345376193e-02 4.715436679537063358e-02 2.739690501694788324e-02 -8.926200865273946350e-02 -1.733691348070626193e-02 -7.604348584110953713e-02 -1.973330637087932632e-02 7.992411563970959476e-02 6.414561984902704406e-02 4.210323156270744799e-02 -9.954701798678873559e-02 2.048370343483935097e-02 6.116759969250830896e-03 -1.159877448524202770e-01 3.175332610512930642e-02 8.738297171014079712e-02 5.293963103621388000e-03 -7.452357486485480798e-02 -3.300632007553468139e-02 2.116335048526200857e-02 -2.366434626320269158e-02 2.713491386652701776e-03 1.736907969082467432e-02 -1.454165595969251004e-02 -6.157652478022219988e-02 -1.043029034736865091e-01 -6.716789263348785233e-02 -6.631359823557146649e-02 -2.517401119369835905e-02 5.872694150607127295e-02 -1.706771730679866594e-02 2.899211143400347648e-02 -7.840753896543950496e-02 -4.586287194487852215e-02 -5.541347755615772669e-02 2.302797166697981984e-02 -4.560958886795060674e-02 5.881709357593667420e-02 5.414497159172546731e-02 1.582500417996644815e-02 -1.000443268794828644e-01 2.464132338735224720e-03 4.603823139591230185e-02 -2.242289007314300642e-02 -3.857962406495092644e-02 3.983333998338004639e-02 4.903271762470378520e-02 -2.396792888106688904e-02 -1.024478013758205741e-01 -9.607714115051974035e-02 -1.096447302931684124e-02 2.742104146223979088e-03 5.847517459823397407e-02 -2.242376875721962398e-02 -2.725664410905607668e-02
-1.583080506854303918e-02 -7.076957312452628046e-03 3.724794933221117765e-02 -6.493592361485878151e-02 1.363213389945653886e-01 5.837503029676127664e-02 1.140775160881415951e-01 4.817260874111949781e-02 3.098804280414387338e-02 -6.868370989933660076e-02 -7.217017918604822467e-03 7.883662934913754361e-02 7.776537102806307944e-02 -4.914830212182649122e-02 7.954659108065885442e-02 -1.989945644789058860e-03 4.605033883207033940e-02 3.591796700698006526e-03 -8.095200028901612666e-02 -3.016172413973348260e-02 5.206094134141693586e-02 6.090413855939429133e-02 -1.049495626828091804e-01 -3.162369656084967982e-03 -2.904512730811744520e-02 6.995222525927252688e-02 -7.857145811174753858e-02 -9.246980988847361416e-02 6.803921299986145921e-02 4.694810789028567438e-02 4.023271925763116652e-02 -8.008088490413187502e-03 7.355737256352129494e-02 1.180509689739371870e-01 1.169285978006833759e-01 -7.163824621272435467e-02 -3.899311186711044291e-02 7.169720718209850185e-02 -1.362483919056684152e-02 2.871337151529911036e-02 6.788326037564967885e-02 -2.888149213584680075e-02 6.953655381239385105e-03 1.850257879436034009e-02 -2.921263239692425961e-02 5.779159796191195991e-02 -4.500087507630776834e-02 -4.714821042077083080e-02 3.450615990171365232e-03 3.313140158269122643e-02 -9.518871552178263806e-02 -3.488690185345796890e-02 -7.746696757094514996e-02 -3.174230215636138219e-02 1.159975909433351264e-02 6.614679025163977544e-02 2.453392737528072021e-03 -1.963846492898814466e-02 -1.434730964285744481e-01 4.326456319296453218e-02 5.361834736205997598e-02 -1.406181228530088180e-02 5.896894718378287159e-02 1.858100208394300457e-02 1.016995547016275869e-01 1.012696969600445085e-01 -2.946725563841404508e-02 -2.345245401908570282e-02 2.757724333393323304e-02 -1.283294079847178103e-02 6.245395354048582232e-02 -4.623045105782733893e-02 -4.976098529758092581e-02 4.295784327836413286e-02 2.633473656690595369e-02 4.726636402149893279e-02 2.329435736219022043e-02 4.422105891862550264e-02 -9.948897857853038207e-02 5.819213689676714513e-02 1.625226600318218084e-01 1.294018202492616954e-01 -2.760050573895427711e-02 -2.582960544066442363e-02 2.409318578460773602e-02 9.525388630525631617e-02 2.660718489891731112e-02 -4.406855018396061557e-02 7.520339889908385367e-02 -2.052150348667735463e-02 -2.113189415920974784e-02 -4.456688581047651976e-02 2.168845333782295701e-02 -4.976920305449458737e-02 9.171154250725534196e-02 9.237090038695532079e-02 1.663068390612300329e-02 1.082288888656838810e-01 -3.132038078118360921e-03 -5.848627847504699051e-02 -5.130486646280419533e-02 -6.097791171789280346e-02 4.242479871303022482e-02 -1.328497824968668563e-02 -5.378288547143475484e-02 -1.186456106145524630e-02 7.109626227301509005e-02 -5.734735388460927841e-03 -3.946567798138836403e-02 -2.616788387285233150e-02 -8.950567782699601904e-02 -2.323112926671191828e-04 8.427376414405764182e-02 1.077754543751395337e-02 -7.442396360830872554e-03 -8.503160999117532690e-03 5.393526792003876941e-02 1.361198915188369940e-01 -6.000154754557508047e-02 -4.225689971062532302e-02 -5.083236587122254985e-02 5.825464930834943489e-02 -6.773880447153515956e-03 -1.313160572711169483e-02 -4.010186873817374320e-02 9.793972269002627212e-03 -1.173948045780905938e-03 1.530837708159153016e-02 4.351018808092502882e-02 -9.753084257058211928e-03 1.994156345030248523e-02 8.868446177093952665e-02 7.188314151409971875e-02 3.311834885593471778e-02 9.438963813694367655e-02 -3.266800810243598863e-02 -2.851160336708739168e-03 6.377140373088331649e-02 6.102977698864708866e-02 -4.197372749374850970e-02 3.961152118889510465e-02 -3.380709984272535409e-03 8.314597218546375401e-02 -1.931231479475405718e-04 2.102317431901271766e-02 -6.344533059801123198e-02 -2.347050325243799779e-02 1.047554190489251996e-01 3.355807467768589201e-04 4.357912561164095644e-02 2.700513450494803139e-02 -9.477076719036632568e-02 5.536069861132016101e-02 -2.384667539143933007e-02 -4.571952518997037668e-02 9.356451551613097217e-03 3.370502959607447196e-02 1.931179261037375625e-02 5.785188394890370539e-02 -2.293638957121475058e-02 8.456583947643858679e-02 -3.042391318366015687e-02 -3.951992509754104904e-03 9.209134944932441391e-02 1.527184924069059299e-02 2.282261164460853975e-02 1.056532322735998508e-01 8.074299804953399828e-02 -7.009540550510459656e-02 2.036195134378860228e-03 1.186443026841544311e-02 2.026951808145155409e-02 1.011157187484910402e-01 1.230490779229594656e-01 -6.279878828952148266e-03 6.796074543522465095e-02 8.317296053841199965e-02 8.476999227817763605e-02 3.635633028255978727e-02 1.042401781796898318e-02 1.346414875995845251e-01 -3.672346418387015254e-02 6.202038346815385433e-02 8.110161386151833185e-02 9.412282380470979315e-02 4.454402937578647720e-02 3.621163406733111934e-02 1.644187594005632261e-02 3.622220830300205974e-02 2.024838739001865937e-02 -6.064395266259575007e-02 -7.390583095472116892e-02 2.616910588703085655e-02 3.559215648873329668e-02 1.233478222582959360e-01 -7.158492500151238114e-02 -3.042961027065443219e-02 4.630787759052276686e-02 1.330046041273912592e-02 -9.840779091418307839e-03 -4.460775982383850813e-02 -1.208599878181556946e-02 4.785378375526117001e-02 4.990385792728387060e-02 -5.142535500364248807e-02 4.069206246207051833e-03 -1.986529708854756562e-02 -5.962857887651454303e-03 2.660013230380267255e-02 1.316485524551512867e-02 -6.499756383167208662e-03 6.058525169183687914e-02 -3.557553230297067631e-02 1.929715385138124116e-03 -1.881359830793448429e-02 1.243756153817751620e-01 -1.984436287923507791e-02 5.028181454373874260e-02 -2.138992860596266449e-02 -4.574818943748470285e-02 -5.470286417094230580e-02 9.559567030389781728e-02 8.573774499676832528e-02 6.889621264104875409e-02 3.581094826577401607e-02 8.515122104825022242e-02 5.346090534863771199e-02 2.371056052686004029e-02 3.405334846136628263e-02 7.542531854751678179e-03 3.682961650045456919e-02 -3.058618385923423527e-02 -5.802117213846984256e-02 8.058286026406422109e-02 4.944031834156098482e-02 4.297519959049017624e-02 -1.981716078009100601e-02 -4.031456215808834620e-02 -5.960113181477213334e-02 3.403954786095472057e-02 3.437150156354931707e-02 -2.690008921718214235e-02 6.942755833459351988e-02 -2.687753808145448495e-02 4.866208224874648408e-02 -4.675329516851037259e-02 8.792582402452203683e-03 1.250597667027365245e-01 4.802425079003397324e-02 6.760675793511207454e-02 -4.133957385265804585e-02 1.432686515515380343e-01 -4.769742199444971381e-03 5.567282912020384000e-02 9.925287564408254160e-02 9.901552036304256399e-02 -3.895796607140560724e-02 -3.930079609146267666e-03 -2.900543887655506956e-02 -1.630622513941913307e-02 9.609562955809025989e-03 -5.267471938879234039e-02 -3.744518422975092516e-03 9.623665737669878650e-02 1.074741722352634673e-03 -1.347838562727243436e-02 -3.670957871487320195e-02 1.049767220872555584e-01 6.994347978503813457e-02 3.942066288793356216e-02 -3.205427626240277272e-02 5.203369473837999443e-02 -1.169736282832262685e-02 6.172004770491037323e-02 1.142336339859276358e-02 1.774290524902506425e-02 -9.566942905710078271e-03 -2.092894826530901017e-02 1.043068371062161742e-01 4.921728200527659969e-02 -4.386717668229097450e-02 9.513411962323503612e-02 -5.682575369710921032e-02 2.414930693020794772e-02 -8.053430800297825543e-02 -1.130368245274194182e-02 1.219702709002472851e-01 2.607217648268718088e-02 8.150150985836508710e-02 2.387482087304073058e-03 6.510890267347940741e-02 2.324070187351871472e-02 2.989954031434879922e-02 -1.921538148957895736e-02 -6.156090597168550199e-03 4.679152128991520923e-04 5.405008149871874668e-02 2.645018868221997443e-02 -5.661288673357632584e-02 -4.172804408463683112e-02
