-7.334929616827143284e-02 -2.401292038315733582e-02 2.263598160382734176e-02 -1.748834668487162999e-02 2.722987783368533560e-02 7.362925922667820644e-02 -9.823260029320556030e-02 -5.598998673526351527e-02 -2.651131619032047991e-03 -2.505271523251696442e-01 -2.127807391892214683e-01 -1.609570115674243407e-01 1.694487857214764803e-01 2.158286236322533025e-01 2.511981855531920660e-01 1.068945107850606813e-01 1.480537442144473359e-01 1.828287861326657326e-01 -1.985187138184642264e-01 -1.642718241099185295e-01 -1.266578470585091876e-01 -1.869442777872765971e-01 -1.545839769065591174e-01 -1.124384240743492996e-01 1.983715141899229928e-01 2.384200617058371274e-01 2.479964767069481324e-01 1.000101915492744159e-01 1.313152942032579373e-01 1.419004890401106556e-01 -2.740579296406762677e-01 -2.489107088019706371e-01 -2.508686894088635322e-01 2.563126421142021549e-02 4.691666625590969197e-02 5.030950833229259206e-02 -9.709553224609299149e-02 -6.222094734280306239e-02 -7.106698358866558873e-02 -2.491054340069491502e-02 6.754115067542228960e-04 9.125399131060266339e-04 -6.964145425462034411e-02 -4.742750687714545471e-02 -6.797872064101305456e-02 1.057996849820039553e-01 1.220854454579168441e-01 1.182125456946848396e-01
2.811162049243166594e-01 3.014708308066736953e-01 2.038540119851339205e-01 -1.054996094387226357e-01 -6.563528515715241762e-02 -1.680312286514936693e-01 -1.117871296359811417e-01 -8.788169044198734792e-02 -2.049593482489763807e-01 9.179590526187914046e-02 1.001121806146306192e-01 -2.490230768030197300e-02 1.756077110631652505e-01 1.985309900781940806e-01 7.310496572358261835e-02 1.512379256123046745e-01 1.691106042317307157e-01 6.036437112917401870e-02 1.588121260355484787e-01 1.725618094576443495e-01 5.234388467183510862e-02 -3.728160666205221092e-03 -9.547532541385083532e-03 -1.186330812938691387e-01 -1.425272209227157194e-01 -1.095508252091218493e-01 -2.356393322955969427e-01 2.292409883469877785e-01 2.650298668846591266e-01 1.383818233739574910e-01 1.521175192143233990e-01 1.968239240551952762e-01 7.451148291424633530e-02 9.460343038377934041e-03 2.927914026016736199e-02 -8.801868947503817264e-02 -3.618523146349698644e-03 4.437821229297171655e-02 -7.389865658711823604e-02 1.825073729167806663e-02 4.800465116136251598e-02 -7.614222326330621904e-02 -1.791074853945375245e-01 -1.599719079754109430e-01 -2.605870142208733808e-01 9.032296466022100845e-02 6.165099462680603132e-02 -4.013536182410514658e-02
-3.592933307582646951e-01 -3.855395402039969444e-01 -2.639751448375674547e-01 -1.367019072724935114e-01 -1.794148379312352215e-01 -7.414139643004612201e-02 -2.170571013077077505e-01 -2.690241851616365643e-01 -1.951135419546721206e-01 5.056149695115779580e-02 4.250643149180074673e-03 6.554998993874035229e-02 -9.183672429269663928e-02 -1.200222812593814276e-01 5.415946105616661725e-03 9.640987810294579519e-02 6.552052814344747067e-02 1.697821348801821784e-01 -1.667047434939427156e-02 -6.162846707735832041e-02 -2.591603723653639231e-03 9.158727241669874231e-02 5.240601909281873000e-02 9.461257696921192284e-02 1.292809680135932338e-01 7.502463776081838565e-02 1.720382061198185153e-01 8.989692713634057919e-02 3.362190554761766009e-02 1.152283809845119494e-01 1.896292204056378161e-01 1.296589509999125367e-01 1.722032799132737213e-01 2.867893355390287342e-03 -4.901927013969305941e-02 -1.817310994054314663e-02 2.934677439077849719e-03 -4.956219896920834728e-02 2.836161015454369966e-02 -2.069257851771938994e-01 -2.621406956513822051e-01 -1.876668482860834875e-01 -1.021311098683344923e-02 -5.766921302998918170e-02 -4.378586577515799355e-02 1.104295598141574741e-01 8.068550770374653680e-02 9.305728791586216631e-02
1.118985076251674260e-01 -2.747260088646218817e-02 1.205773948994076222e-01 -4.680564488475928708e-02 -1.717592910284266583e-01 -3.551076915836299391e-02 1.610119255966239449e-01 2.449799292372517590e-02 1.583523262857346459e-01 -8.101922904403001391e-02 -2.020088429970896549e-01 -9.533185090381740556e-02 2.971414440136236901e-01 1.808324036005471702e-01 3.311198277308415872e-01 1.324826236902617305e-01 2.508929494442398156e-02 1.766321236652526605e-01 1.199780158714709444e-01 3.256095201296401072e-03 1.516739058705324217e-01 -1.197448553139668914e-01 -2.273196334841760813e-01 -9.984859507705053094e-02 1.598450218730353232e-03 -8.309633912709055159e-02 6.430668820924716200e-02 -1.231068760057293376e-01 -1.977335712882470065e-01 -6.933251441822523009e-02 2.262824619703956708e-01 1.599193274196067660e-01 3.212387937309908459e-01 1.278579665551279609e-01 6.428376866780956267e-02 1.977579241388426889e-01 2.724241754242355193e-02 -2.147834605602116226e-02 9.047332799812443649e-02 -1.621980616079795878e-01 -2.273899238596865102e-01 -1.125406402750090129e-01 -1.249280886257388493e-02 -7.607862397108906827e-02 5.452428629541809096e-02 7.181392017085590218e-02 -2.585678940530313896e-03 1.181144353453662255e-01
8.912888775151778242e-02 1.099990498201470351e-01 2.694731275131352910e-01 -1.875213227517913972e-01 -1.577191212060609915e-01 -2.175743458136517733e-02 -1.751237674427161550e-01 -1.941723514864229505e-01 -1.358532038335770187e-01 2.560959392857313222e-01 2.500371792693489303e-01 2.710229225813589604e-01 8.401517929872028001e-02 1.156827285426710178e-01 2.563069433773878525e-01 -7.818700706150646940e-02 -4.384828989354477152e-02 8.772718264139407751e-02 -1.042025113269959419e-01 -1.042789312894781134e-01 -4.969812357719172874e-02 1.121429613448670648e-01 1.130970379507807294e-01 1.365676959863823814e-01 1.733316417086801925e-02 1.472947529460410035e-02 1.244949266644271996e-01 -3.659042789967504455e-02 -1.734150201882539780e-02 6.217830101510169599e-02 -8.961810777307978315e-02 -6.247647250833235355e-02 -2.975186035839958235e-02 -2.656266339353009417e-02 7.466325229932164673e-03 1.516081331479437327e-02 1.025541104952093774e-01 1.227415051048148520e-01 2.278296023261881798e-01 3.345701350459257678e-02 4.784353144321584761e-02 1.220089750127868328e-01 1.424430937484461313e-01 1.623331530249694232e-01 1.979680299212915051e-01 2.280416069835711768e-01 2.422129475966901258e-01 2.464478454994991075e-01
9.521265767532394175e-02 1.293752976380703745e-01 2.201167596227994183e-01 1.449713587368017531e-01 1.740420263744528462e-01 2.593711643458013749e-01 1.030585426867337666e-02 5.114982997130490538e-02 1.276353649660009193e-01 1.105306528072927258e-01 1.549069771526775108e-01 2.267704839114107751e-01 1.051170483486411900e-01 1.405567630959397851e-01 2.296555786299107338e-01 4.144985811478178739e-02 7.859232890527430293e-02 1.581795790640666832e-01 -1.059116182893351660e-01 -5.907992546147305957e-02 8.211627613034344630e-03 -7.469112650988370128e-02 -2.504100331315828321e-02 3.438280887576615485e-02 -1.960875076384177226e-02 7.099744602024766690e-03 7.270739322791595904e-02 -1.245934180941517394e-01 -9.562700367150575587e-02 -3.334589962109549971e-02 -5.591493953661766381e-02 -1.639492727700421135e-02 2.739123706761659865e-02 -2.861681364678373418e-01 -2.436764707195500090e-01 -2.015730142379759948e-01 -1.824984561623562707e-01 -1.620346924490393969e-01 -1.053115972618089147e-01 -2.005743956362776304e-01 -1.736691265564200559e-01 -1.170257063461678931e-01 -4.765655040166983519e-02 -1.502050718197319975e-03 2.616595335860658414e-02 -2.957980695648890768e-01 -2.378452656097948537e-01 -2.063383053347632723e-01
1.154570626171040892e-01 1.261518938265177026e-01 1.538033643410474660e-01 1.687582920834848899e-01 1.746430781131061982e-01 2.110853230805844472e-01 9.021147637661991459e-02 1.292308720939714384e-01 1.709455420648912094e-01 1.016873719511490470e-01 1.329244345459087984e-01 1.893170503273679528e-01 1.378057813953214861e-01 1.555306923887934123e-01 1.898595808693539777e-01 1.515326956771015643e-01 1.655581080023412754e-01 1.989148373739072218e-01 6.664379539738654601e-02 1.032993486320198800e-01 1.484779572162725214e-01 6.899566213248219115e-02 1.034590349741303511e-01 1.589123856708603844e-01 1.150421153138936198e-01 1.486924055594316396e-01 1.770527518849783766e-01 1.202929586802181788e-01 1.403201144024484037e-01 1.835264331128486637e-01 1.139526230562170062e-01 1.367826187364977741e-01 1.759083131371405040e-01 1.087990278800628069e-01 1.234384879953524389e-01 1.779969892475943560e-01 1.169621992758504564e-01 1.546294273064404978e-01 1.714946610791412418e-01 1.052851670061680095e-01 1.414631758876223055e-01 1.733973345522820120e-01 6.277511711721903143e-02 9.391374167178193066e-02 1.326666250860989715e-01 1.047719260676221731e-01 1.321333074066468050e-01 1.889976751265862454e-01
-1.583160613542553830e-01 -5.955152504350870457e-02 1.674284773269581750e-01 -1.512625363514753518e-01 -5.453577419037523161e-02 1.481967126278379565e-01 -1.669788287525172388e-01 -1.151211870001592197e-01 4.281475849128755368e-02 -2.293257539902418540e-01 -1.706888112607235219e-01 -4.180049719079696052e-02 -2.242216987662000449e-01 -1.232583496580994115e-01 9.038564774140546432e-02 -6.996352203857549024e-02 2.974252567452654455e-02 2.311693325099178908e-01 -2.468464584348252500e-02 3.251898405047994045e-02 1.788236553625863479e-01 -2.058200039674693005e-01 -1.477596873435004787e-01 -3.002163915771940625e-02 -2.387232295251212055e-01 -1.704095294761940327e-01 2.024176708678344667e-03 -1.644260758708779857e-01 -8.736272041864678872e-02 5.700932876713425690e-02 -1.156179063823573466e-01 -4.987008833220672038e-02 6.772286684910322485e-02 -1.366635880391991742e-01 -6.851679250914805008e-02 3.155661800751602408e-02 1.653872167220918343e-01 2.456255007358140730e-01 3.936801648349502192e-01 -4.207112975361441964e-02 3.108362917017684635e-02 1.599698367948484135e-01 -1.596996499903677313e-01 -9.471861971560582849e-02 -4.061532832868993033e-03 -2.007900639841852797e-01 -1.379598788382401242e-01 -6.250943648425011379e-02
1.142639385000152052e-01 8.885570480556381767e-02 1.637950022420427143e-01 2.147624874441904641e-01 1.753108194435634704e-01 2.341225692760627308e-01 3.052094535301294598e-03 -7.837125021032083361e-02 -3.797601026786055073e-02 3.240856189062305600e-03 -6.823127385030805514e-02 -4.400708061214109873e-02 -7.335439321352436870e-02 -9.221646746797940164e-02 -2.381690784902884550e-02 4.005479469535266207e-02 2.683315626891502256e-02 7.820759292253384731e-02 2.144360613767971879e-02 -3.237461794337638532e-02 -3.431615947479170481e-03 3.066675096103089193e-01 2.577964841430152587e-01 2.624622133825609827e-01 2.464096909100615615e-02 -4.545087091559967679e-02 6.353358114379424257e-03 -1.156379112269473736e-01 -1.718744526891824442e-01 -1.508229749317951396e-01 -5.089583380826206982e-02 -1.205584732393425590e-01 -1.418952944742082334e-01 3.744318533117541592e-01 3.248818540167925373e-01 2.811190480545132653e-01 9.617723561661890852e-02 2.675240635343773682e-02 6.540986203766130380e-02 -1.035775578334527935e-01 -1.644508425982000033e-01 -1.486986367085513516e-01 -4.216350806530800438e-02 -9.338810008645159755e-02 -1.393439469995585711e-01 -3.260026219135322978e-02 -5.237820263623694378e-02 -1.195497188050597681e-01
1.470598303153900221e-01 2.159559632688614339e-01 2.833864336842338572e-02 -4.641113840677206503e-02 1.949427749218386394e-02 -1.459006240973921009e-01 -3.044080902930315635e-01 -1.883592672517142297e-01 -2.962997403129242757e-01 -2.189201063413618309e-01 -1.049351402416340145e-01 -1.788569363972288273e-01 6.163752134987771775e-02 1.311676070811328143e-01 -2.564367367408713211e-02 -2.060692168063233132e-01 -1.394200229164318794e-01 -2.844703266646518847e-01 -2.650107797147349675e-01 -1.581071656908944467e-01 -2.367159335998405001e-01 -1.117813944494657485e-01 -7.785902610193642286e-04 -5.346057476333555131e-02 6.567419344600658460e-02 1.603274442303836422e-01 9.210208119641373481e-02 -1.857196110417151658e-01 -9.760033387019120821e-02 -1.432755870380031382e-01 -5.748222634320927088e-02 4.236448124225864614e-02 3.625320848554937359e-02 -1.623220144939020726e-01 -6.231234835042306214e-02 -5.540754294527162199e-02 -2.902167069850906597e-02 5.491165196501786999e-02 3.093397574030489969e-02 -1.746593037918857949e-01 -7.803879970231396290e-02 -9.406696298125916123e-02 -2.077751091165882802e-01 -1.043312701099389644e-01 -7.405439001790498077e-02 -1.262573741070175948e-01 -1.804629502933802893e-02 1.782929767263337351e-02
-4.952943156563827803e-02 1.680438599072329661e-02 -5.791361186034087866e-02 -1.788600211436467205e-02 3.966263263350119223e-02 -1.415175251305375408e-02 -2.553175215221782368e-01 -1.628787956495387212e-01 -1.599547042671507491e-01 -2.351375395299160620e-01 -1.527584911433869930e-01 -1.247189663797036163e-01 1.171722178592883232e-02 7.439086097449029711e-02 6.499511242249793493e-03 5.980081259245067365e-02 1.159583055885465147e-01 5.980222624856581376e-02 -1.402617162537709017e-01 -5.890965428671832149e-02 -6.228996947799532446e-02 -1.366638038481160777e-01 -5.945929525692462275e-02 -4.189829520328443302e-02 -2.590380213867398140e-01 -1.798919296697997494e-01 -2.725662870875127375e-01 -3.540033208713930929e-02 2.898159382617816748e-02 -3.792168596984483997e-02 8.968427184061017465e-02 1.643764015182256066e-01 1.224814827706639658e-01 1.023786277849703524e-01 1.602263072262148091e-01 1.515436291545142755e-01 -1.804713661832130223e-01 -1.024693948207254929e-01 -2.071192201480667738e-01 1.078765623579017036e-01 1.772571608262367149e-01 1.046262732996803280e-01 2.700653896374067831e-01 3.422519504865823570e-01 2.883165558725124811e-01 -5.777138842833891980e-02 5.248620926686436636e-03 -5.166077852999532809e-03
-1.561954146035519908e-01 -1.829537897467602980e-01 -3.997371615188575755e-01 -6.873833623565195339e-02 -9.522793370045337658e-02 -2.757547695884006722e-01 4.107110087147123473e-02 1.075899463028519298e-01 6.217127367358628309e-02 1.473216849810952134e-01 1.986213941825084595e-01 1.959716486604653751e-01 2.913916174739716869e-01 2.696799057681079081e-01 6.963979844362697125e-02 1.567866036711642319e-01 1.260531326285231346e-01 -4.602040809782046576e-02 -1.274323813100864122e-01 -8.429730354584001606e-02 -1.217898839781127729e-01 -7.698192903466669068e-02 -3.392868490534316911e-02 -2.788647447582469005e-02 3.955158380651527250e-02 1.010985016292333671e-01 -8.292931308744970476e-02 1.353597628167425501e-02 3.964749610385585182e-02 -9.201322009112979095e-02 2.226312384881303646e-02 8.337207934208379356e-02 2.686391335861282662e-02 7.308908608574168908e-02 1.034264955820132642e-01 9.210088755314857489e-02 1.288358257063144108e-01 1.932115833345570133e-01 -3.867428562843834919e-03 1.314575546200411060e-01 1.743273420579383171e-01 3.990732202753816127e-02 -5.109233705458907787e-02 4.421473332159165173e-03 -6.418755810225766634e-02 -2.427960173315322767e-01 -2.173133213931475738e-01 -2.168068169229609155e-01
-1.469278356701439747e-01 3.086006774668435121e-02 4.763665333887602549e-02 -2.108318970274120074e-01 -2.262846441971674144e-02 1.729910325749470928e-02 -6.139065198623731151e-02 1.515745447140033064e-01 2.503900319054003232e-01 -8.916424018128626949e-02 1.133127678057356952e-01 2.344922330617916495e-01 -1.677154243795168920e-01 1.098303057056409029e-02 2.993299719523772814e-02 -1.754289151665265889e-01 4.743389332374239875e-03 3.945961272378224749e-02 -1.288717721099615077e-01 7.249734291654842677e-02 1.721296716269524185e-01 -8.433103575233427684e-02 1.083155711171201602e-01 2.321366176941313253e-01 -1.905403870388239496e-01 1.496972772022951009e-02 6.308659436334765336e-02 -4.579035921344999649e-02 1.540524011118986625e-01 2.256348409489432882e-01 -1.493613572878606521e-01 5.011046460675776942e-02 1.574764750979876227e-01 -6.275229449338873278e-02 1.291633290345449436e-01 2.516474511474794951e-01 -3.527887957889394022e-01 -1.502109746521974876e-01 -8.475653556932570554e-02 -1.989524306961009403e-01 5.235234607518157376e-03 8.270945422995851226e-02 -2.656313919616615782e-01 -7.300274135993145563e-02 5.029016608639459013e-02 -1.740309910480999922e-01 2.827645159663376428e-03 1.371262041825683231e-01
6.562602809817838501e-03 9.345434542829617053e-02 -5.917353613826771552e-02 1.230876632938545517e-01 2.058158602081676669e-01 6.659065798740929076e-02 3.950010093118268978e-02 1.332086156744147487e-01 1.485583891798614685e-02 -1.234250630604796922e-01 -2.438768441463389988e-02 -1.192218329795272230e-01 -2.038841919655636631e-02 6.869458022705872413e-02 -6.299644757437808384e-02 9.780103448250402134e-03 1.007655564345394938e-01 -2.299446194759523915e-02 1.191030751231355322e-01 2.209250812567450928e-01 1.215341309493565419e-01 4.240381714147302417e-02 1.499881397790020221e-01 6.623133074038228818e-02 2.492481208998623410e-01 3.253630291828232823e-01 2.601279068276874384e-01 1.059909343117941133e-01 1.897325379043456883e-01 1.328208194992849256e-01 1.549584769394646566e-01 2.394406003193546850e-01 1.898547555767651773e-01 -6.752145054668019786e-02 3.299812350096367058e-02 -1.485156496768345880e-02 1.451537153160260829e-01 2.090464809056576390e-01 1.878824538947904133e-01 1.188181690879218377e-01 2.061811721669626063e-01 1.771391968440809428e-01 1.418563301478374394e-01 2.385864136174183359e-01 2.168711288578467900e-01 -1.157809345010164248e-01 3.003032854782108473e-03 -2.298587313819275280e-02
-1.274871770774325674e-01 -1.519115829244477647e-02 -1.611299032956766963e-01 8.305061257299342636e-02 2.088137996800113472e-01 5.789145219248216512e-02 2.910616798266047953e-02 2.068347793638626309e-01 5.816374658922503910e-02 -8.000959439834755271e-02 8.473411885538351118e-02 -4.129101389446054177e-02 -2.921334363861048319e-02 8.345996093442027697e-02 -6.168974470030812174e-02 5.170990444715132389e-02 1.627261066354736829e-01 2.422190734668058787e-02 2.935731597855662303e-02 1.873984925467415685e-01 4.865418890799809437e-02 -1.449747465369253530e-01 5.829044473370509696e-03 -1.051749477471528305e-01 -1.854599478391843748e-01 -2.898931733712416595e-02 -1.629550030849267472e-01 -2.696937873557013199e-01 -1.206829679689761098e-01 -2.445874250973705255e-01 -1.466488769414628357e-01 2.352318976406525888e-02 -8.532172690947346927e-02 -1.675210422391857912e-01 -1.093311655320036713e-02 -1.030601862538112617e-01 -1.084804041670753699e-01 4.278797187019144077e-02 -6.871424355433748687e-02 -1.709984595800058682e-01 -2.584524492728982464e-02 -1.318316969697151675e-01 -5.093419619410499699e-02 1.018458085506038086e-01 2.037737945231566511e-02 2.832679908785181166e-01 4.126795943767435637e-01 3.506952994773829824e-01
