8.164590951670452901e-02 1.504133731958717524e-01 8.808981637102504536e-02 2.438493946407505747e-02 8.953237607091070471e-02 2.212601187493584351e-02 -3.787488329525030145e-02 1.927795131806679663e-02 -2.785230725195665322e-02 2.498980318391101282e-02 7.217018111742863617e-02 1.829072130567774290e-02 6.803426250554939214e-02 8.117835833451762795e-02 7.810043639852683184e-02 2.154342273833890695e-02 2.904763511809231591e-02 2.703188621799354832e-02 1.575029360303807765e-03 -1.493399214826544516e-02 -7.324329110673622259e-03 -2.216634463175319245e-02 -5.128068610075174616e-02 -5.172252430627562875e-02 1.648075900082899767e-02 -1.118854394871343812e-02 -1.534459912099559419e-02 1.147009452588509670e-01 5.897451629657748939e-02 4.522569461707197369e-03 -2.347417410123949291e-02 2.094445996041340366e-02 -3.041422646170354946e-02 -9.653296619178568239e-02 -2.636147224753273080e-02 -1.044933800457955309e-01 -3.597563037782704198e-02 1.608521014950058461e-02 -4.730441358439683303e-02 4.162369887152363168e-02 8.445389056188438992e-02 2.640131805752789218e-02 8.356134553553237407e-03 2.629179529021362718e-02 -2.435389564811575591e-02 -3.091285202942541110e-02 -3.245632327532742972e-02 -5.377454644908438025e-02 -7.300423890842501484e-02 -8.688657924281967260e-02 -9.663149701217547960e-02 -6.805330722133470789e-02 -8.660942049714673296e-02 -7.595191172415857728e-02 2.704329096480738437e-02 -1.750552384760241083e-03 9.531657157534611027e-03 9.406448951878514098e-02 5.196522473479763676e-02 3.398920816737434347e-02 -6.430348426831163089e-02 -6.756786817656992329e-03 -4.142695924389618034e-02 -1.244117671400194886e-01 -6.339480942955739995e-02 -1.161578166463403256e-01 -1.172247942264781212e-01 -5.764190616282117291e-02 -1.003780552387282254e-01 -4.750518323261440634e-02 -1.647979573770599546e-03 -2.097160784406718742e-02 3.647017531000879692e-02 5.265856496744692611e-02 5.931917842466220142e-03 5.995709850264786811e-02 6.261572404752276111e-02 3.925175532074413887e-02 8.723833313909351919e-03 1.633570007435389748e-03 -4.293167583940638542e-03 2.828444517072198697e-03 -2.118770794031647059e-02 1.733901418838183469e-03 2.662575275189108664e-02 9.356299410875361725e-03 3.926133446861502369e-02 6.552520774254397273e-02 2.575781028973753162e-02 3.480810503404497408e-02 -2.555398318436979954e-02 2.280006673630514263e-02 -1.863620669019722467e-02 -7.498949054597910113e-02 -1.240740007641001966e-02 -7.122596224076675753e-02 -1.301736544167885201e-01 -7.429714496731260054e-02 -9.181973223778426563e-02 -1.126309363291983501e-01 -6.758704622207031831e-02 -4.811202665034569614e-02 -1.899942175987653567e-02 -5.088364533985397301e-03 -2.498103710203847250e-02 6.147454228273186577e-02 7.074634580242213089e-02 4.893875750343415487e-02 5.759731924015459165e-02 6.339302243971077500e-02 7.621787801636199788e-02 8.555729423358908459e-03 1.881845465675610098e-03 1.720305708484249491e-02 2.640566352455213719e-02 1.352087644297595391e-02 3.040715597812000334e-02 4.264623354833069202e-02 2.649373348732868283e-02 1.521452984276160277e-02 -5.328529641437717429e-02 -7.570065619429114726e-03 -3.281888999186584333e-02 -6.439061126838106774e-02 -9.157328208839942904e-03 -7.875361247930458275e-03 -1.185556986793457890e-01 -6.109352146381431120e-02 -3.642274276328488769e-02 -1.437625504805140897e-01 -9.259117196452684717e-02 -5.370219174556870034e-02 -3.952156549926159196e-02 7.418376370654764657e-03 3.427333043486119335e-02 -3.423573374933910202e-02 6.611842870828717883e-04 2.358799882170081047e-02 -6.826253542071158975e-02 -4.226175652849619574e-02 1.508211915051197241e-02 -2.009034285035657050e-02 -1.418986970495320250e-02 2.562296343766708173e-02 9.960986936403508352e-02 1.082398623193012027e-01 1.261055093515408565e-01 9.630506321771840905e-02 9.543747167911068030e-02 6.801014190013354721e-02 -4.272808680897530881e-02 1.720520317857232237e-02 1.107926628875648307e-02 -3.053577972895329951e-02 2.503632940864941592e-02 4.562626506792320097e-02 -4.839260712489738131e-02 1.450198986502469409e-02 4.387956469758226563e-02 -5.616391278327085429e-02 3.227816448270660280e-03 6.540599004043949616e-02 7.283758975490460530e-03 7.772706441574595004e-02 1.051243882578841160e-01 -3.652854594446099112e-02 1.610336055589737386e-02 7.698063822392399447e-02 -9.770492287947912802e-02 -4.387736317451285811e-02 2.838193097475240692e-03 -5.905950520797311615e-02 -2.872530975465654307e-02 4.417263823098421804e-02 -1.474745077190877177e-02 2.099972715763093883e-02 2.751458483900296598e-02 1.277555990910875369e-03 2.343539668945941040e-02 4.024321968401782350e-03 -1.497570728901311682e-02 2.130510651944083830e-02 -9.679005929493013013e-03 -4.364485036849615612e-02 2.182263073657115388e-03 4.304313767351449459e-03 -6.844461999753656545e-02 -1.481605830490164040e-02 -7.280274469864622677e-03 -4.770124827946736756e-02 -8.271421694977498448e-03 4.363506158269901680e-02 -5.963341784413805219e-03 5.323088734625709001e-02 8.119583216020297145e-02 -1.625951237238669814e-02 3.650943773556176303e-02 9.056867805774376778e-02 -3.747116083101555833e-02 2.010610621552325061e-02 7.642540513521398071e-02 -2.007768134153775641e-02 2.657467096897711892e-02 8.497231768783310157e-02 4.172375943883534222e-02 8.834075368381635873e-02 6.532287891229270060e-02 3.532092992698985384e-02 5.861065394708579734e-02 2.210538632075454216e-02 2.338333077443622426e-02 5.490595929439030104e-02 1.343119544804690507e-02 -6.689454042978093540e-02 -3.045705044101292003e-02 -4.408464022488083056e-02 -3.862479009527516882e-02 -3.988225673799204014e-04 7.940328607333466474e-03 -1.037237962576720643e-02 3.847347297436193303e-02 5.292270884963463234e-02 -1.124229852605164968e-02 4.889907820079925777e-02 6.100144630767991016e-02 -8.252384799475949440e-02 -3.078221691717683908e-02 -1.757579612626517310e-02 -6.895435297896031213e-02 -3.237513415319357487e-03 2.641420862923106808e-02 1.130521758138096702e-02 6.450024010597157909e-02 7.043270066101925408e-02 5.095012767891620407e-03 3.699280620257228147e-02 1.967445779892105368e-02 -4.163214765561543997e-03 3.079510932301587206e-02 -1.736855414419759616e-02 7.759625334767156213e-02 1.042915287341825564e-01 2.291440095888475428e-02 -1.108060949072619747e-02 1.176366555569740603e-02 -5.202365295117061111e-02 4.352497714826596663e-03 3.445179603491958786e-02 3.069674504196587966e-02 2.726730540009805401e-02 5.501333508499516023e-02 5.881100818518743972e-02 -7.240571171507524662e-03 4.460272922078904745e-02 -1.226526089912201084e-03 -1.184384755617980678e-01 -7.716546100928742269e-02 -1.058057736028831519e-01 -1.152972242546712045e-01 -6.887043069627080127e-02 -3.644247004547837565e-02 5.823639955145787361e-02 8.860887925217225680e-02 1.049569332146415984e-01 -3.326381248481002917e-02 6.963356973524536565e-03 2.230388106523081837e-02 -1.168808138725509552e-02 1.348064806757538064e-02 -6.661696322141385553e-03 1.095181076699268952e-01 1.181566130492581745e-01 -2.019022861061450791e-02 6.672486533653329034e-03 3.077774947843909051e-02 -7.240431216144546656e-02 6.051683145909913381e-02 8.856794474370173476e-02 1.901995874759703636e-02 1.017288563830756609e-01 1.311202251244904249e-01 7.866651183820980164e-02 9.619944544644050410e-02 1.318421487298259420e-01 2.273150346102134622e-02 -5.102441725235566140e-03 2.173476660559289092e-02 -6.207175779828814910e-02 -1.225486816450072416e-02 1.562415605928565293e-02 -3.821214043838808139e-02 1.469910579932525163e-01 1.467955350790887403e-01 1.290767549406452441e-01 8.807993490387855395e-02 1.014209431801141731e-01 8.440696921239862482e-02 5.275494182565723666e-02 6.496441378468249817e-02 4.574480855231218002e-02
7.006568970606472102e-02 2.938832092345476307e-02 -1.375689604787525000e-02 6.297787844169683291e-02 1.976069035347660652e-02 -1.262188885586638552e-03 2.696195952285375050e-02 -1.917432354140059803e-02 -1.313615250947835177e-02 -3.718998492626773150e-02 -8.529388104550199301e-02 -6.615392554625251775e-02 -9.535505149717965478e-02 -1.286198311254405369e-01 -1.422753259661026781e-01 -1.743315250141759878e-02 -4.580054601019890176e-02 -6.240656706671288134e-02 4.897993581062912855e-02 2.433562575766465286e-02 1.099274174546032053e-02 5.449488183848127248e-02 1.873048913580152922e-02 2.278195495257887351e-02 2.698237391961406939e-02 4.452198210658904476e-03 -4.931403304328051476e-03 1.228466426197574561e-02 1.077162062521350855e-02 1.593287063509313609e-02 5.722790138614806260e-02 2.299336436762905445e-02 -3.020711994707395154e-03 9.759239961760717008e-02 4.031025101005437927e-02 5.286624335968377608e-02 5.943978130217033445e-02 1.256748745745221024e-02 1.344489294464982533e-02 -3.576816282636708440e-04 -5.628164826885721783e-02 -3.472810244673328606e-02 -8.284980519605608489e-04 -2.850666409023238160e-02 -5.001206659981640573e-02 5.607495338603277896e-02 8.187377171028527301e-03 1.359809873976494839e-02 7.078551962453431823e-02 3.669242951263568947e-02 1.803271217654074665e-02 3.607789741161688407e-02 -1.473541968021729182e-02 -1.295006853842480855e-02 2.641432205088290949e-02 -8.273037433262186557e-04 -7.064685934594293684e-03 1.526015603556085155e-02 -2.133283609497080638e-02 1.577886144773744123e-03 1.558677414473447903e-02 -3.172741463683715485e-02 -1.366371449614620613e-02 3.563057599823896138e-02 -1.337403990033083669e-02 2.903874945445653402e-02 7.089890880798618844e-02 2.375382977745670379e-02 4.009797277581760716e-02 6.062627837019559512e-02 8.321591946227365052e-04 3.750353417413974932e-02 3.242779820194300385e-03 -2.838908837755909839e-02 -4.201924923373746845e-02 4.697793687862423379e-02 -4.504854009186654885e-03 1.377003277183281617e-02 1.049607213220892510e-01 6.892615064706547612e-02 7.462566154876466851e-02 8.373350174128982304e-02 3.660157669967498140e-02 6.156322457390442371e-02 6.158836275431205098e-02 6.391121899470144675e-03 6.741096423293890805e-02 6.317237560779044581e-02 6.512379068724882120e-03 7.954249669401868006e-02 3.632825947198194128e-02 -1.487489516239954082e-02 3.993515626126979690e-02 1.750298627083241715e-02 -3.118937183548374167e-02 4.115864501737109132e-02 8.455849682448748905e-02 5.274093435293999987e-02 1.011470303151667943e-01 6.148762545902058257e-02 2.954588504940817983e-02 5.407037094410272610e-02 -2.524005281726251007e-03 -2.872978554227901757e-02 2.815466717488899866e-03 1.306268807481388884e-02 -2.153569804837411270e-02 1.730821807409457791e-02 6.336824669764602735e-02 3.442081965868527133e-02 6.191915961627177112e-02 5.429870515512450618e-02 6.804367074378706720e-03 6.013154357321692095e-02 9.388507704536971921e-02 4.301531540211948196e-02 1.222037357358112114e-01 7.946009026486715310e-02 1.773739473595875582e-02 1.014322148275869084e-01 -3.283032859837902665e-03 -3.822511665356485150e-02 5.896168840805710715e-02 9.017621375749082860e-03 -3.118605818849029890e-02 6.441852713932669228e-02 3.906217403596900367e-02 1.082185832270203540e-02 9.596342760859254140e-02 -6.072856439859655731e-02 -8.324691589651608825e-02 -1.314635889476884270e-02 -5.969148038567604481e-02 -9.273129992264501908e-02 -2.001156454964278172e-02 -2.444304145798624830e-02 -5.361422276075979154e-02 1.077180739710624502e-02 -3.332793987455989065e-02 -6.174028410773502173e-02 1.307406601476937590e-03 -3.705174479226105294e-02 -7.263057069163504631e-02 2.085911626781083300e-02 4.861811467106277873e-03 -4.398929196771037692e-02 7.311366378719898196e-02 1.826267869129653137e-02 -3.222399653346411097e-02 9.399266012115310709e-02 2.896807074946998808e-02 3.504321072586525244e-03 8.674287721356396808e-02 1.007760496934870589e-02 -8.334996123783963012e-03 7.231792475303880363e-02 -3.545170810619410404e-03 -2.502868956756349600e-02 6.197870706414750075e-02 -9.707028687708205150e-02 -1.069052915181696733e-01 -4.688010597102804100e-02 -4.981821526038712061e-02 -7.171756961325546909e-02 -3.686471476417979912e-03 1.791242244930143709e-02 -7.813979231228148151e-03 6.082579585209038631e-02 -8.451443163558607086e-03 -2.855663763326989762e-02 3.762643861696040454e-02 1.472458124678523682e-02 -3.022790907020979356e-02 6.330696670814536797e-02 1.924224983177508924e-02 -2.520641513840510273e-02 8.446146943621959946e-02 3.115979124400899275e-02 -1.930060354312926330e-02 1.115508624510039154e-01 1.719355773504985946e-02 2.682867651453125189e-04 5.041426069090788192e-02 9.880900295440279979e-02 8.530553313362290724e-02 1.206856516032726867e-01 1.225669733426563157e-01 1.151537705877277856e-01 1.573894945704855663e-01 -2.592573343913459963e-02 -3.176112538336086505e-02 -6.726711285917360769e-03 -1.995133913327130221e-02 -4.497477843282968873e-02 8.374160231326246637e-03 7.656374982047957356e-02 4.806279954776256774e-02 9.487851251864018454e-02 1.789154331097642450e-02 -1.801370923594607099e-02 4.101266535071144276e-02 1.829551583691206573e-02 -4.681005255189051029e-02 3.709452087668006076e-02 -3.351374404421325615e-02 -8.974266783923677548e-02 5.241943020934635745e-03 6.166823660908530257e-03 -5.527761339170465110e-02 5.319643446556052840e-02 -2.180861989653064270e-02 -4.705817546262393986e-02 -5.044280065852712117e-03 1.040022438898218632e-01 9.345365620818181507e-02 1.170581926018549046e-01 9.472855039312851055e-02 8.397649015645564097e-02 9.674246203877548411e-02 -3.477934612879725329e-02 -5.198552128572741376e-02 -2.309806298910905067e-02 -3.094832400178271214e-02 -5.153060789213113196e-02 4.652465167564998061e-03 5.288001603893061064e-02 2.235170286480922877e-02 9.204527743888794855e-02 3.223171992079269799e-02 -4.053329084429236652e-03 5.610498636140223705e-02 -1.093337465701467101e-02 -6.584230401176449643e-02 3.409824074469085253e-02 -4.838223016542699678e-02 -1.070338004176749902e-01 8.833197927688574494e-03 -5.131316161563707207e-02 -1.066766511317022437e-01 -1.150698098585086837e-03 -1.010135763180504131e-01 -1.552677123696257766e-01 -3.918850880271939480e-02 1.857912289162148844e-02 -1.687218802889219396e-02 7.013576300785774598e-02 3.462531473789910025e-02 -1.206953182501375663e-02 5.379042074195351103e-02 -7.977549396181922436e-02 -1.176322094919971945e-01 -5.141484501270861263e-02 -9.709600491587648541e-02 -1.418456493910564553e-01 -5.288358520908172100e-02 -5.878485126117187487e-02 -1.091652595462674763e-01 2.926772266126443159e-03 -4.792284495483786072e-02 -9.356024223636152937e-02 4.092602489579127110e-03 -7.736098275176284123e-02 -1.334529723927890266e-01 -8.243403650345645234e-03 2.353006745918228421e-02 -3.939429301520897680e-02 8.975630661760086726e-02 -2.158635967851748813e-02 -8.283461146889135873e-02 4.904741440610634051e-02 -1.198217392542009173e-02 -6.491454862874508625e-02 5.719019131119569554e-02 8.842336611602785723e-02 2.788694732327502354e-02 1.425776061220427604e-01 9.641997077442972242e-02 4.463489276703362651e-02 1.230430490167796070e-01 2.879581347910130807e-03 -5.375345567037963235e-02 3.068351580762292488e-02 -4.499042856989408229e-02 -9.197852655146727952e-02 2.257142879457854634e-02 4.875875499803625224e-02 -1.804436640908393605e-02 1.129929676349184231e-01 2.973239869908892927e-02 -1.657378349139686236e-02 1.024337798195075477e-01 -3.048000990824473611e-03 -5.859418602289753059e-02 4.655706706121408994e-02 3.242747058859427999e-03 -4.429544191392322666e-02 5.847093227918610109e-02 -1.785445427994146808e-02 -8.588437338532098342e-02 4.190035716057005644e-02
-4.325878978481484394e-02 -2.850326689321839788e-02 -3.957673479897762248e-02 1.116807219531623478e-02 2.015464579503891546e-02 1.455508316819477573e-02 2.965368915686111915e-03 1.577783180588340425e-02 -7.833173719204852489e-03 -2.517310949475986409e-02 -1.964551457328599787e-02 -4.235105999978334979e-02 4.866642018819684196e-02 5.620687265187580134e-02 3.773423986047003131e-02 3.621346161650726425e-02 3.827418885606537202e-02 2.064537780253905205e-02 1.890077674456770371e-02 3.125250628370548206e-02 -1.302305908929290035e-03 -8.406346834315993333e-03 1.826168880114666234e-03 -4.179108390339118101e-02 2.790011428296066895e-02 3.236647177939899755e-02 -1.351755343848406662e-02 5.205124900027678636e-02 4.785215359767297505e-02 3.319250600605964854e-03 -3.711944600870964450e-02 -2.905065916368208129e-02 -4.080596678986254944e-02 1.781362884036910219e-02 2.785890697032882349e-02 1.141139229996295142e-02 -9.439106828038036634e-03 2.138539558441311921e-03 -1.831869300504936418e-02 -2.561552395060931117e-02 -2.283795053650482243e-02 -2.681355532718689150e-02 -1.049136290306724485e-02 -1.378034251597283488e-02 -1.234471783009154222e-02 -2.413368077973711626e-02 -2.263382678127159181e-02 -3.584210685957930909e-02 -3.258172668861754329e-02 -2.913270058556771333e-02 -5.870962906628127143e-02 -2.588454523941367477e-02 -1.754480828680404433e-02 -5.700265304303504116e-02 5.401055819972933394e-03 3.269994619819943660e-03 -4.096835774292409416e-02 1.968994120469721651e-02 1.720814402503865678e-02 -2.283125288771954697e-02 -1.207656306245793489e-02 1.883957743711061825e-03 -1.645144217735162312e-02 -1.786963756836107767e-02 -2.851575564347327407e-03 -3.784434106850156909e-02 -2.064352406073656845e-02 -1.149139772888314870e-02 -4.506032704225344798e-02 -5.035396075071500027e-02 -4.145172388368219274e-02 -7.995219248490920139e-02 -2.398224617063185460e-02 -2.757436741417786455e-02 -3.932964504123017541e-02 1.651238286771272018e-02 1.627853202397389412e-02 -9.865151609159048679e-03 -1.073854772070148740e-02 -1.403199954308261173e-02 -5.590401054507658507e-02 -3.433234584537643574e-02 -3.110909320413900517e-02 -8.916493455949382752e-02 -3.517114086087729657e-02 -3.242196917392173305e-02 -1.009467789566064061e-01 1.627150504882667308e-03 1.531929853264984076e-03 -5.073391206072005999e-02 1.719126193843543288e-02 3.612999925482310304e-02 -8.014236928126278192e-03 2.637724910860628214e-02 4.152810579102107075e-02 -1.445247935270857834e-02 -1.579604707201611585e-02 -1.064953797714838189e-02 -7.370117454429903070e-02 -1.594321070148521646e-02 -1.747513985466064498e-02 -6.340049444596305983e-02 5.969309608871461829e-03 1.054149836426108381e-03 -5.045258221506056934e-02 6.629301346168584019e-02 5.410061796820554714e-02 9.873780739387022498e-03 6.024879412179453414e-02 5.517922565971646043e-02 -6.199444757523064377e-03 6.219418963047580913e-03 -2.571081963333448646e-05 -6.656342131314096910e-02 -3.108520220737510595e-02 -3.234799643647592871e-02 -1.122100086624634174e-01 -3.806205413414391701e-03 -4.870976644377683976e-03 -7.118509449847867931e-02 3.086229553980607276e-02 4.814418202375942563e-02 -3.492459853441415990e-02 7.174435768825875026e-02 8.139241390516932517e-02 4.501607886213006109e-03 -2.030199226701878690e-02 -1.047518566923771703e-02 -1.039228508093081732e-01 -1.006167755824023159e-02 -1.623784889865391781e-02 -9.280640471549199411e-02 1.105011044378489786e-02 1.401555173883773514e-02 -7.136361503227987846e-02 1.101097795391238476e-01 1.001477815364400920e-01 2.649513403221333621e-02 1.115444077862700611e-01 1.075048359940375120e-01 2.016908818169292975e-02 8.056278489775756113e-02 6.812421482537574235e-02 -2.699690425572429803e-02 3.326616492638099359e-02 3.750720274497947038e-02 -7.342737458056153299e-02 3.895980068307405841e-02 3.275752693503976992e-02 -5.797936236742019800e-02 1.227545077244219032e-02 2.452755349070420351e-02 -6.804318552258921404e-02 3.451089319503893721e-02 3.743790240347379117e-02 -4.585079120042302031e-02 -4.836935107336882284e-02 -4.459343251552726900e-02 -1.494582107012672190e-01 -7.015012929625558114e-02 -7.529608348899881343e-02 -1.717476655470759062e-01 -5.520266725324547014e-02 -5.387651602458767841e-02 -1.589470210894535773e-01 3.664686584292344874e-03 -2.644687831703099786e-04 -9.760996376009600795e-02 3.017983260336429621e-02 1.747374288171171450e-02 -7.933599651593264968e-02 -3.365708743780629342e-02 -3.533232878306398483e-02 -1.346164694319016419e-01 -7.739211134769931333e-02 -7.794848576247212502e-02 -1.811431719162059084e-01 -4.405649726798640392e-02 -4.046722914762242163e-02 -1.410448652260636870e-01 5.571890734690115865e-02 6.429256896008823940e-02 -1.312946036177535351e-02 2.248528522986776093e-02 2.990579861038523968e-02 -3.785501063753202167e-02 -3.983220787409740005e-02 -3.684392116236455406e-02 -1.229768934233174682e-01 -4.320344974661516346e-02 -4.232168015563513713e-02 -1.088072863184236377e-01 2.239776832604105025e-02 3.110996128300396249e-02 -6.248575943742414041e-02 1.959202254943710059e-02 2.453345541449521161e-02 -5.454035650608057839e-02 2.148445933181563142e-02 2.638871294866619935e-02 -6.666369266836967566e-02 -1.408284997475200105e-02 -3.040952763770986972e-03 -9.071519602565614182e-02 -1.097959458064013891e-02 -4.916254695586808748e-03 -7.624712051455496964e-02 -6.400671930303317159e-03 4.243783167498824810e-03 -5.764468430193964155e-02 1.287910959423063662e-01 1.411962170147890161e-01 7.072312042409431565e-02 7.223812935201828767e-02 8.031669287084067244e-02 1.916060955237086985e-02 3.743008379688370774e-02 3.733004288583790381e-02 -3.086659912278589407e-02 1.206845666531395495e-02 1.861321622967233511e-02 -6.018803365183256898e-02 -4.206109003440417632e-03 3.713697862113562575e-03 -8.853479756542699530e-02 -6.359567472504001201e-03 2.514717025464773166e-03 -8.941054053193210616e-02 3.558111612875682062e-02 4.023375648567455859e-02 -4.420347187130335698e-02 6.516902752440036084e-02 7.605565945110198678e-02 -1.214758322550201289e-02 6.039026726426156844e-02 7.402059336611051255e-02 -6.083864890997381369e-03 6.872481283968877308e-02 8.132705623858710320e-02 1.967256023018071343e-02 7.680000239804379847e-02 1.055838482229945613e-01 2.391772358845285773e-02 4.712863943026401946e-04 2.267153785973104532e-02 -5.115073354679797180e-02 -2.386716426417370002e-02 5.833916946548970252e-04 -9.149006756409910901e-02 -6.910463322039206435e-03 1.524134958584622869e-02 -8.743849275075325778e-02 1.613679003048751684e-02 4.644345555115185487e-02 -6.520959285314609222e-02 1.858028106839710453e-02 4.815236859817457332e-02 -7.229667373337178571e-02 3.534674380359392049e-02 6.266932663626112454e-02 -5.135281731614971951e-02 6.980016033614103166e-02 9.419936245026212795e-02 -1.059434749124500870e-02 5.260898109836911751e-02 7.882874685306490159e-02 -1.209271823837302154e-02 6.546277448598088189e-02 9.304194293360396051e-02 1.613991632732077880e-02 6.105286357555561594e-02 9.222190058376909805e-02 -8.891716389831962747e-03 3.136604200848052554e-02 5.982478554415494865e-02 -3.068106121100008452e-02 1.133813815103701210e-02 3.751230821907337171e-02 -7.581648160873950826e-02 3.656620879574835892e-02 6.131073852879392883e-02 -5.098723643566288599e-02 9.907103882795276206e-02 1.309986763443586333e-01 -1.699971216312949965e-02 7.884069482344478741e-02 1.150242589795586606e-01 -2.726098139893571790e-02 9.036709918640183081e-02 1.182085793335321683e-01 -1.878326453763348031e-02 1.396146407130800238e-01 1.627618671706349829e-01 6.113591208663576859e-02 1.248401714253363909e-01 1.475319647284599744e-01 3.904831842912525469e-02 1.154459249687991296e-01 1.503585241729176736e-01 5.958264764506646799e-02
-8.742813151451379883e-02 -1.401151011826987369e-01 9.320508110794913093e-03 -3.187627491092364512e-02 -8.793858177556607147e-02 4.662843748810894390e-02 -1.681782219003522677e-02 -7.501654172001508136e-02 4.080620102938019300e-02 -5.933750031220683119e-02 -1.063302016111695447e-01 -1.642870433769214045e-02 -4.800877528120902488e-02 -8.238081329994148549e-02 -3.053804326324870491e-02 -1.711196787175990955e-02 -4.536378759816380585e-02 -2.456668758423934812e-02 -2.252260689521376827e-02 -4.286410590003740528e-02 -3.437980852326894682e-02 -2.608968351529636354e-02 -3.561902913593298359e-02 -3.871450398940385479e-02 1.669980794796940664e-03 -5.971772583839463945e-03 -6.476609424697809397e-03 -7.625020956113229276e-02 -7.963959032695561158e-02 -6.298965947665989551e-02 1.138917033545647564e-02 -3.408276557212704116e-02 8.237326819237057729e-02 2.471998632221337339e-02 -2.335488744044551465e-02 8.419471902554585829e-02 -1.694261259406122655e-02 -6.908302719499803679e-02 2.477549846860666385e-02 -3.290822060745580285e-02 -7.829499555736423033e-02 -5.952685644559575946e-03 3.433839179192495639e-03 -3.705886223877031399e-02 3.013468504530968095e-02 7.385096488646157586e-02 4.749939953341855703e-02 6.924316922385487239e-02 7.635972697458850988e-02 5.417444791468783993e-02 6.601881991847553810e-02 6.036344748935499466e-02 4.814082878322316350e-02 3.975531178752971656e-02 -8.242613712668002499e-04 -1.297131201381347861e-02 -1.138576349697778892e-02 -8.338217760728232342e-02 -8.411870050159259149e-02 -7.448174651201605601e-02 3.409758533462588226e-02 3.525782768613584545e-03 4.283261778890035121e-02 2.244871700393612311e-03 -3.797156960726466579e-02 -5.150872359502249717e-04 -1.215068508799338129e-02 -6.184837049099940059e-02 -2.516716592024139179e-02 3.216174167195941583e-03 -3.312582177959012830e-02 -4.100069792433094079e-02 3.919549041776417692e-02 6.772070605345964153e-03 3.677453866970232382e-02 6.716218326070327871e-02 4.795895805216646851e-02 3.221270735384108158e-02 3.872231896767278775e-02 1.714610780017151309e-02 7.271304760077134180e-03 6.920701390218770947e-03 -3.854443244105578131e-03 -3.620432666169774716e-02 -8.242125344907924589e-03 -1.293694761371415661e-02 -4.832253562463648816e-02 -3.820054053579191589e-02 -3.513652246024496356e-02 -5.396677673574622192e-02 3.501986458982812161e-02 1.636666064458497383e-02 1.059973351919950291e-02 1.920624251596524459e-02 -1.665598451941319169e-02 -1.356284337067110990e-02 3.336420449977391817e-02 -9.378245189863914852e-03 -3.436711727007930178e-02 8.711334891684743842e-02 4.020140137676599806e-02 2.243336015248550974e-02 8.258877093528038671e-02 5.689325206367541049e-02 2.193072655013616687e-02 7.122830714692997278e-02 4.541635866927733883e-02 2.320678614229605349e-02 8.004188646753804259e-02 5.658894358221167736e-02 2.213073592236158155e-02 4.889235008397818660e-02 3.671798269671934511e-02 -2.875338828234342073e-03 2.501639362386195303e-02 2.316990716171394779e-02 -2.976390588112659899e-02 3.095785464610772281e-02 2.582932131241048174e-02 -3.377504021424762061e-03 7.017492182226532649e-02 6.038935530078740760e-02 2.174629923677328866e-02 3.267005845275370440e-02 1.046585304260557077e-02 -2.526931397280573338e-02 3.878064873508518112e-02 1.031620426625529628e-02 -4.696623673764527968e-02 1.250807444496917220e-01 8.482696944762151137e-02 3.509874309096099737e-02 1.211881643296912475e-01 1.002927045478736318e-01 2.808713825185020149e-02 1.342635908656400479e-01 1.103829979706310166e-01 5.803509062710654476e-02 1.437567627061940856e-01 1.252371762887762863e-01 4.437134768901652981e-02 6.000503497986569429e-02 4.400638569289533342e-02 -3.210990403893162343e-02 2.271648510468040130e-02 2.167582153105716836e-02 -7.186032452728373376e-02 6.153442571646820097e-02 5.707702846610579472e-02 -1.553671946559058437e-02 3.296824123289832098e-02 2.262693280598923259e-02 -1.299264796352371000e-02 -1.884084982080048987e-02 -3.765533395184655213e-02 -8.363729955818433037e-02 1.777046177283566480e-02 -8.351985099000518858e-03 -7.226903227054196077e-02 9.921607705952710521e-02 5.570238159252454552e-02 -1.146996372480934764e-02 8.379839566064654910e-02 4.725089867955214323e-02 -2.789822788595060221e-02 9.094307013854276145e-02 5.858665943051378361e-02 -3.319070737786341402e-02 6.193197535704441509e-02 3.229896471916977874e-02 -5.717547617701427415e-02 -1.554954513091769477e-02 -2.924314377717453922e-02 -1.362125286987377892e-01 -1.332112930144613294e-02 -2.363419053012618884e-02 -1.121463451085895208e-01 5.568374023557525615e-02 5.390921286904477860e-02 -4.094832978883405222e-02 3.496081040324488381e-02 3.233965082584947665e-02 1.397079974621570977e-02 -1.315207113120429004e-02 -3.133061699021820468e-02 -4.325591743072951245e-02 3.566915278047762261e-02 -2.777196979334600507e-04 -2.520655124501593528e-02 7.757675094861234133e-02 4.117532372778692079e-02 2.861272021429079205e-03 1.146409499144090960e-01 8.133180664457101416e-02 2.050573548530635129e-02 7.105297966738319260e-02 3.596995492503098080e-02 -4.951562394586235538e-02 6.044010003381568991e-02 3.287648158903296036e-02 -5.060315438030107277e-02 4.103496546979508441e-02 2.367290195393983651e-02 -6.713030558983973384e-02 4.226417980115660528e-02 1.991911570954681479e-02 -3.085234986083974090e-02 9.915168370671827158e-02 9.652014084041121711e-02 4.249345728343371931e-02 7.903370246472381233e-02 7.285149717756438104e-02 7.207304168697854785e-02 6.068415459344923824e-02 4.933541675319660924e-02 5.178942852315168710e-02 7.821724663690775292e-02 4.370287231117440940e-02 4.355647357607733000e-02 1.042336336152178550e-01 6.831822601558347474e-02 3.907222452935256440e-02 8.995658073190292148e-02 4.651742508607253912e-02 -6.306903964984145530e-03 6.165412302427929203e-02 2.959267793205941008e-02 -3.919225124102689722e-02 7.666909871407279198e-02 4.424093399033830754e-02 -2.090872592030106752e-02 7.589296908611922743e-02 6.371014768752869539e-02 -4.970188254258271938e-03 5.795908347252663045e-02 5.158242801449887394e-02 6.955845248859108230e-03 1.269362138186540812e-01 1.219337705565523844e-01 9.635620894446228490e-02 7.981119262746187715e-02 8.264881862036897731e-02 1.043706650119087115e-01 2.034906648125432357e-02 1.845041431405972793e-02 3.650180639601374732e-02 3.037701947518470572e-02 1.372770021032752863e-02 1.587642073494619291e-02 6.266778839474326790e-02 5.224234913988995421e-02 3.273438933044922616e-02 7.753560759608595088e-02 5.194041438952238382e-02 3.127108408484506608e-02 8.743612491805645426e-02 7.934977441834045742e-02 3.568031928748140180e-02 1.148579130454610298e-01 1.034101997034831272e-01 5.218843432270033750e-02 8.566748225760029145e-02 8.727953136604954532e-02 5.343378409196474638e-02 3.589820191357737111e-02 3.389934787651642523e-02 2.295311512130051787e-02 4.113195704425191834e-02 5.004906273641430980e-02 5.892426514838629281e-02 2.980747046109241336e-02 2.897977511117967933e-02 7.193833844308199221e-02 -2.746232409357922052e-02 -3.844344388930364537e-02 3.816007556609114001e-03 -2.247727166985736408e-02 -4.431420912605381346e-02 -2.783657278687770575e-02 6.789155173478366931e-03 -1.290389021319814263e-02 -7.146547141194002292e-03 8.308426513772240729e-02 6.426162395533537020e-02 5.571015263521136157e-02 1.074678787884546100e-01 9.689470162925602204e-02 9.697117182300403482e-02 1.197107018319453486e-01 1.142880614188850619e-01 1.016935584236383361e-01 1.128944405289048769e-01 1.204452801101802278e-01 1.326332758587267235e-01 2.779843488766308574e-02 3.449994309106954593e-02 4.781332229537114953e-02 1.353138246561810722e-03 1.665645133039006520e-02 4.213434400569461558e-02
5.647338928246252443e-02 9.973686075585162791e-02 2.500283286534030203e-02 -2.068116884205583456e-02 2.756034700728120929e-02 -3.930798142728150757e-02 -6.369860887547601491e-02 -1.603650059436267927e-02 -5.515737079045981289e-02 -9.965963037044922243e-03 1.713220741109368686e-02 -1.633502248497720535e-02 1.470051640579557450e-02 4.427780263550758905e-02 1.616435063913888165e-02 -2.276669811027789286e-02 -1.177242018762311541e-02 -6.215438668515154905e-03 7.819471962660379943e-03 3.214266548163326881e-02 6.976688827565120932e-02 7.832857569511573678e-03 1.072754530663225063e-02 8.380808447369232639e-02 5.104146639419656489e-02 4.929538480255817035e-02 1.080307102937678038e-01 3.272710056899933578e-02 2.611862884733760423e-02 7.359962963223583288e-02 7.762203210009541166e-02 1.144656320329132670e-01 5.790915838877679078e-02 -1.085498968075462173e-02 2.772070804489433493e-02 -2.092587612867832098e-02 -2.112556795798971321e-02 2.994574275685432316e-02 -1.673037305165236965e-02 3.630946429724007159e-03 3.321809675612690665e-02 1.112303439081532841e-02 -1.777449260989615379e-02 1.204370432097961845e-02 -1.664757953510160107e-02 -1.005537747552222166e-01 -7.392093606042128562e-02 -7.618208639804294191e-02 -1.023875018308325335e-01 -8.005982641914717590e-02 -5.644259535225282925e-02 -1.156552986266248251e-01 -1.053990896851725034e-01 -5.046346791675270643e-02 1.677282348952409408e-02 2.091170524578304935e-02 5.988981946308318677e-02 4.991148138936214729e-02 4.819034586795357261e-02 9.958949612479413294e-02 7.283107580499906426e-03 3.311118110830726935e-02 4.351942892805958640e-02 -3.310187110256811865e-02 -2.867143895261434813e-03 -5.286193023222456738e-03 -3.112285563754879809e-03 3.676911486065653073e-02 2.441658053691832600e-02 2.342615308723294820e-02 4.452234238526543014e-02 5.921238957842571426e-02 3.814577537335480523e-02 6.453623586884237040e-02 6.486631502944043004e-02 2.099223216801560446e-02 3.920249379878282953e-02 4.436140842638846421e-02 2.406295740693826721e-02 4.879494654487468580e-02 4.506340494538153135e-02 1.432268970405432005e-03 2.099854544032899242e-02 3.976801683170757412e-02 -1.144322054531565248e-02 4.132581597034602934e-03 2.082571813704877858e-02 -2.644674160769734834e-03 6.647870632594419724e-03 3.207350371484014862e-02 -1.023541727892692127e-01 -8.757081918206394144e-02 -4.608011427768064078e-02 -7.050426587070700302e-02 -4.302091102044832555e-02 -2.672069237256246427e-02 -6.644618327677008496e-02 -4.733402868626730015e-02 -2.098420619129584899e-02 -7.440482699955132395e-02 -5.084783678155212899e-02 -2.909712411403163682e-02 -1.407993525090610321e-02 -2.933330158967981625e-03 1.353596110635919792e-03 5.269228923368247941e-02 5.817173883181647742e-02 6.699087919257211421e-02 7.749698531091590847e-02 8.436013400944795959e-02 8.504049660147761092e-02 2.408006857221393904e-02 3.030803626967579906e-02 2.779126638548951728e-02 -1.984831311133363266e-02 -2.374824521323217266e-02 -9.205189956974736340e-03 -5.224315963077040548e-02 -4.150584247818591560e-02 -1.251084782251158690e-02 -6.414247448658987050e-02 -8.030894080157097159e-02 -4.698426274039647910e-02 1.223461584615376414e-02 -5.921370235128785601e-04 3.698037145421999294e-02 -1.367945554867005045e-02 -2.752878149103726857e-02 2.555419850645897564e-02 -9.429349204235076831e-02 -1.093029912742347065e-01 -7.033893392866592820e-02 -4.562182618844601301e-02 -6.248782462118012554e-02 -2.538348569287573325e-02 6.070620676627037915e-03 -1.994731838936241591e-02 1.588869160897806582e-02 3.503081173776104174e-02 5.803852474120733962e-03 4.654725006842450746e-02 1.571943091894751829e-02 -1.958569866628710049e-02 2.522120818109490140e-02 6.008605793391408323e-02 2.580827634323317951e-02 8.683025120863889501e-02 4.516831595675075556e-02 1.766091553671789161e-02 9.394433335248184025e-02 -7.580378553556638144e-02 -1.075902299738865642e-01 -7.986462442692460195e-02 -9.447851953783833329e-03 -4.427467024943843033e-02 -3.680424147929889107e-03 -2.679258598854802539e-02 -6.047402285219900114e-02 -1.463162667028367492e-03 -1.398388908119707619e-01 -1.611515735025153551e-01 -1.119353021051111563e-01 -1.049769686561375093e-01 -1.291674428303324351e-01 -7.347971922705585912e-02 -6.018981523380637078e-02 -8.602784820261306920e-02 -3.296082491930803909e-02 8.905213911953046430e-03 -4.200125270185234294e-02 1.847967391471830312e-02 -1.033162299408407585e-02 -6.166007469567774679e-02 1.418746197387859252e-02 -1.040823556860336410e-02 -6.679796883454187928e-02 1.518259045682318099e-02 -3.399265685569876315e-03 -4.175743265024748491e-02 4.268388857446980128e-02 -3.944557656176588684e-02 -8.824976355437730291e-02 -4.486899272787477772e-02 1.571047849070022519e-03 -3.914916576378988516e-02 -2.328298738263476306e-03 -2.977411469073339492e-02 -6.185135716775846254e-02 -2.058708168626227630e-02 -8.754280657060939386e-02 -1.304476737013502974e-01 -5.597677879288729536e-02 -2.209570346539891858e-02 -5.670538668344342337e-02 2.760810958096227008e-02 4.617703042245320869e-03 -2.099064293178903515e-02 6.234718963886545784e-02 -4.481745803862353938e-02 -8.885099004353533281e-02 -1.610404840193719461e-02 -7.301950996362090163e-02 -1.204990274742374357e-01 -3.025364753544674754e-02 -2.915058643602341099e-02 -6.934372354367063229e-02 9.627380791450711878e-03 -1.355700452325804897e-02 -5.570769268836744254e-02 1.667437715842106510e-02 6.000577279644881551e-02 1.489581352546741518e-02 4.240821921576226616e-02 8.476261635824181018e-02 3.126863137116376451e-02 7.712657895866166513e-02 9.932497807302342885e-02 4.848539877974324813e-02 9.380023954490615545e-02 5.733818205003044649e-02 2.040165650117271509e-02 7.312114358218510524e-02 2.886627564793587883e-02 -8.256222170466945591e-04 6.763103198074935096e-02 6.254105596055993879e-03 -2.836495002669396984e-02 4.864009444161907642e-02 2.763606675430740553e-02 -3.184201845374573514e-02 5.318279788320077334e-02 5.792271742713147459e-02 -1.453298540964828058e-02 7.235654492866533394e-02 1.865214299026701078e-02 -4.729929342993598879e-02 2.573885679166767679e-02 8.419948415418225876e-03 -5.591206020285603012e-02 3.250164840783446168e-02 6.421773493573301739e-02 2.289850702999038281e-03 3.727922841565314838e-02 1.252370960426980040e-01 6.212159429980861070e-02 1.166519463231730780e-01 1.219279894807062670e-01 6.652671445293865948e-02 1.056578780959590430e-01 1.206340857221187834e-01 6.182721747189848932e-02 1.099807244220077224e-01 1.023093483905713336e-01 6.651702120975588883e-02 9.424204299997680778e-02 3.450060916033274860e-02 -1.741400562708210129e-02 2.271709428293252828e-02 1.657765085001335417e-02 -4.637698001835897921e-02 8.479808087953032147e-03 3.469891632728152459e-02 -4.575102039932908010e-02 3.063336067950794481e-02 4.342990535354646076e-02 -3.813599575854801499e-02 4.710736345892503618e-02 2.510221553436397818e-03 -7.680622018164445786e-02 8.542598369668230260e-03 6.632153675509622204e-02 1.367893075696546487e-02 5.072969793765950974e-02 1.063779205910483500e-01 5.055877784817976867e-02 1.180106461248755928e-01 3.928743832931655411e-02 -1.038820467576386138e-02 5.593004188579706742e-02 4.400744243864359445e-02 -2.147602323734268404e-02 4.523951087953450440e-02 -7.268491018873708340e-04 -3.991785877168124719e-02 -2.441347337107658069e-02 -5.090733002585391687e-02 -9.576580590587654984e-02 -9.429303422948748237e-02 -6.200014435790553863e-02 -1.346242389027722808e-01 -1.030284299073019327e-01 -1.698018396120002174e-02 -1.081394775766266747e-01 -6.267712876863125449e-02 -1.014186235661194459e-02 -9.765111790491264043e-02 -3.002307041119175318e-02 -6.703737645258749100e-02 -1.578320263477935859e-01 -6.824021566248619775e-02
3.622448630634689248e-02 5.432947822597011811e-02 6.272291594565886086e-02 1.952718116171375112e-02 3.852124708814012866e-02 4.520656749877949299e-02 -9.799989322663685970e-03 1.733895606447131282e-03 3.135535525701078213e-02 4.297527995879267537e-02 6.085489422620369432e-02 7.503305147350444737e-02 2.548605040397421834e-02 2.024266182860128688e-02 4.916505657438141608e-02 3.437045730299699564e-02 3.427515351742353028e-02 4.009346385902599896e-02 4.123981106411307371e-03 -2.302648998266134880e-02 -9.976099446362735393e-03 2.191201891082446979e-02 -9.948949023834868441e-03 -1.489726721027624570e-03 1.163918806728503341e-02 -7.737570358941113849e-03 1.290721084083113965e-02 2.594200277536947222e-02 -4.623327040823887665e-03 3.783349203504371644e-04 -1.023606360207983678e-04 9.485434048206469251e-03 9.665115440971833866e-03 -3.127489322658139059e-02 -5.315612972118113379e-03 -2.555286303052965377e-02 1.219096384204181559e-02 2.170956641085369093e-02 2.258232958036975740e-02 9.340258541733185982e-02 1.110870321524078663e-01 9.387325091042027225e-02 4.725455560059359239e-02 4.978542574539518428e-02 3.377968362821710119e-02 6.211874993755823332e-02 4.815316015012592599e-02 3.362308584914422416e-02 4.935584368471172823e-02 2.623411976272594509e-02 2.259800199137086338e-02 4.656376973010266374e-02 2.058279614316863709e-02 2.733083904478093157e-02 9.550390056246369289e-03 -1.128330624709532153e-02 1.655066174230548220e-02 -2.670876585210164855e-02 -5.450814655019432797e-02 -3.761783130230699629e-02 -2.190196934871659062e-02 -1.663822257349931643e-03 -2.409049454797673739e-02 -5.028632694632544087e-02 -2.813191518488328616e-02 -4.542802730143172263e-02 -2.845686287830062264e-02 -6.080284476235150309e-03 -1.280742877501369996e-02 5.005945976614171317e-02 6.684874515849061061e-02 6.494437428442978444e-02 4.939452711754634129e-02 5.451811097542135637e-02 2.812459298239235878e-02 4.878213715543033152e-02 4.094741364348455925e-02 2.590781116914960686e-02 3.477546465793372038e-02 2.000853783628806989e-02 3.201063999957321632e-02 3.285332941037003712e-02 4.690356251333195267e-03 3.333931038790613477e-02 1.973764789396743879e-02 -1.311873899766866341e-03 5.550867362482734407e-02 -1.771736008849471300e-02 -5.112275510902855591e-02 -4.770915787447142786e-03 6.186626647276071041e-03 2.048346478122476527e-02 -1.471312083896303934e-02 -4.090455040620388089e-02 -1.915403910380515315e-02 -4.390986468984871965e-02 -1.496412196701407682e-02 1.794293262078433884e-02 1.403188329199017877e-02 5.674128377873870199e-02 8.130706660789308038e-02 9.588219089633762127e-02 4.393152837449559867e-02 5.135567580027983886e-02 4.541180808082097980e-02 4.293967245681286349e-02 5.318155266457733066e-02 4.219188812699471713e-02 9.628939597873142908e-03 1.109752695882364366e-02 3.373183120151744541e-02 2.630138912690870023e-02 1.886795510746422377e-02 5.427520835655581799e-02 5.398844566365994246e-02 4.849402659681845834e-02 9.393018137801428802e-02 4.148432331779148413e-02 2.454389414163760455e-02 5.111351839912466055e-02 6.512345038736332831e-03 2.906750319008328740e-02 1.991720201042011459e-02 -6.890572771154709897e-02 -3.638661616430281104e-02 -2.506820390835443405e-02 -4.151171403771648089e-02 -4.683267826446400536e-03 2.375587509355678653e-02 3.253335040085897356e-02 7.290345869841831361e-02 1.054482505239219686e-01 9.314070700061395647e-02 1.266890141152872962e-01 1.477465563300384421e-01 5.628534886575164986e-03 4.352876958085290238e-02 5.749610559859417297e-02 -4.410121742819584495e-02 -1.526916988044612483e-02 2.515103170908822988e-02 -1.441114357773402681e-02 7.475764830667064841e-03 4.627309346806513651e-02 5.112701572990466237e-02 6.872025041444811133e-02 1.040074987133230572e-01 5.499568627332671045e-02 6.707607270504041541e-02 7.038418789396526376e-02 2.389195298611966264e-02 6.929031171665842037e-02 7.124327292239153453e-02 -3.219840328708434979e-02 1.391594358918439925e-02 4.012991761427084358e-02 -1.832918473454520384e-03 5.082402776450643811e-02 8.056642542402096818e-02 9.192379117854719561e-02 1.417587159277550191e-01 1.931131952428893628e-01 1.213876774103199579e-01 1.754726098811088819e-01 1.945003086465558473e-01 2.279750336940665478e-02 6.821045623518015577e-02 1.031399846485044902e-01 -6.658110581864093436e-02 -4.664633677088016357e-03 1.528401895809958916e-02 -7.919198856264343623e-04 3.522295537311644770e-02 8.187639492699061439e-02 4.963573303027997430e-02 9.698423649495557797e-02 9.955027165756731578e-02 3.382301111405795757e-02 6.207540187154995254e-02 5.299938880541784497e-02 1.272446532493281754e-02 4.533385818062103667e-02 2.521191026336342886e-02 -3.362155551957867611e-02 1.040877495684543273e-03 9.180441674690498904e-03 -4.215075633413315273e-03 3.505671272759158102e-02 5.237048506383817914e-02 7.455193056307649058e-02 1.071320498780454766e-01 1.300303881256054395e-01 4.575150573716602748e-02 8.209010420067648639e-02 8.725892143204751206e-02 -6.706167769024311102e-03 2.644234561534711953e-02 3.515624174766956989e-02 -9.348449654953064000e-03 3.606157743104759089e-02 5.642656556622932529e-02 6.255195128096624479e-02 9.253468264248260189e-02 1.164546875104621737e-01 1.028801849142931685e-01 1.393799633822522532e-01 1.062697862554295714e-01 8.908882174878264559e-02 1.077140965405528755e-01 7.002620416889109023e-02 -5.360814157754421883e-02 -3.104317040542140319e-02 -5.094413237345362527e-02 -1.052720977785212425e-01 -7.587305273489729218e-02 -7.816877365087925023e-02 -5.828152899268729953e-02 -2.564043425752760008e-02 -1.229783452054011850e-02 1.724807009146629017e-02 4.972059661782914780e-02 5.805753240994360187e-02 3.672105214105324950e-02 7.204353751292595642e-02 7.323841224611501999e-02 -5.070567165691754891e-02 -1.907126852258044999e-02 -2.433460466694774282e-02 -5.925214816223445952e-02 -5.250212949003833611e-03 -6.765755587605028903e-03 8.072254514272875214e-03 5.577654593687125795e-02 4.568018716474019775e-02 5.207628721956795992e-02 8.126946867039876177e-02 6.855915685013065641e-02 3.775346849358033469e-02 6.859080163749672887e-02 2.335366498483475856e-02 2.681924400767225422e-02 3.558788920360955038e-02 2.891225597877832357e-02 -3.313300943386535830e-02 -2.229329701342272485e-02 -2.856518168276216130e-02 1.030656672137370347e-02 2.306326637162481319e-02 6.549393847043742667e-02 2.009770940694488583e-02 3.823541520899673835e-02 7.994533152725663561e-02 1.401011937776701875e-02 3.362757661578540808e-02 4.255396228247087381e-02 -7.570564579929225935e-02 -5.704236131554122485e-02 -3.288973753269170547e-02 -8.258157810063183890e-02 -4.982251379865249713e-02 3.605286348921684595e-03 3.042660146813076782e-02 5.930766382855091889e-02 1.046896768574311909e-01 1.776135206604391101e-02 5.417573340826371819e-02 9.683587930968687307e-02 3.323041413948692874e-02 5.848130161283490724e-02 6.866475911719606418e-02 7.371303657862732228e-02 6.648002962542286232e-02 2.959767454400650394e-02 -4.167801928853653859e-02 -3.776160259114581808e-02 -6.330189249354915837e-02 1.217016378576198966e-02 2.209151066593778925e-02 2.427206943750193080e-02 4.040543231176806083e-02 6.124380420747785325e-02 6.729985462623649939e-02 6.137389658948000370e-02 7.296320061970661131e-02 6.670517466180075905e-02 1.756228103312011679e-02 1.917008954548045027e-02 3.866875143818143679e-02 1.930830071914831428e-03 2.666428422249560518e-02 5.502093497090938812e-02 9.931145168209506990e-02 1.123288048524100635e-01 1.501552798176770953e-01 7.277561775215961315e-02 9.730083057482896702e-02 1.348642127582849182e-01 4.640897899174629970e-02 6.181295496002477130e-02 8.645874485750458527e-02
-2.697102854636193592e-02 1.851020132516531481e-03 -6.621771982348589880e-02 -3.947348594693009249e-02 -1.289669858802837930e-02 -4.001232369899583585e-02 -3.611224372419590684e-02 -9.175864779519342027e-03 -8.635276812489840054e-03 -5.435947755284139399e-02 -3.872302036364674849e-02 -2.126372937450278500e-02 5.016001029871596656e-02 7.077241286099200668e-02 7.520985061520980841e-02 1.006324389833793548e-01 1.151054030803682210e-01 1.385112911770589872e-01 4.094630567353173961e-02 6.081077555752260194e-02 1.221175862409643598e-01 -3.140427291043595363e-03 3.247353556801120967e-03 8.191901215691670124e-02 8.488507592948413283e-02 7.795449388086984899e-02 1.637513872393298875e-01 8.959328092264021159e-02 7.380131520713789639e-02 1.867446608216560555e-01 1.392553032985604719e-02 4.269204750650722191e-02 -3.453528303128330229e-02 2.598248314245411514e-02 4.831119876549427872e-02 -4.581729766390808985e-03 -2.532427734221090465e-02 9.251425810421591567e-03 1.155860786065240030e-02 -6.194043450604703495e-03 1.568708877511671221e-02 5.657142797602720402e-02 3.996693118547178965e-03 1.547535506931001746e-02 5.907903815467514808e-02 1.622051235647080369e-02 3.356397006999974064e-02 7.658653124835926307e-02 -1.159810843119790658e-02 7.709909068011683774e-04 5.629071095354112181e-02 6.785979089691790596e-03 2.203819514213509537e-02 8.614456605674450373e-02 5.246871039592336528e-02 4.546299377954111237e-02 1.149365877669258351e-01 2.601604400001366821e-02 1.287096408141913395e-02 9.994768983926088923e-02 1.018232107109946424e-02 3.144590698010304303e-02 -4.694932131223247297e-03 -2.354423620460785460e-02 3.432786074418039610e-03 -3.336262404031446055e-02 6.610214964957655337e-04 3.207806887040857979e-02 3.581780050952183825e-02 3.860654310463920019e-02 5.502369286019963279e-02 8.412047215168991232e-02 -2.903173369417268862e-02 -2.057115842860955668e-02 3.130270169861094215e-02 2.295698873828807152e-03 1.120991933224429679e-02 3.568254604318910755e-02 9.197088564760369945e-04 4.585514437533575079e-03 2.909160580531850587e-02 -3.452246684428722859e-03 9.102222979908397571e-03 2.418958729768677651e-02 -2.940004579835602677e-02 -3.062075600380543411e-02 -2.480666186370300216e-02 -8.798497952280744105e-02 -9.666101417527643569e-02 -6.862513123949151583e-02 6.586776508658104268e-02 8.524264421669716651e-02 5.672187170661341371e-02 3.027044430011026702e-02 4.580745170886370982e-02 2.993053452979841864e-02 -8.626527732841995574e-03 7.679228162566976990e-03 8.404384426752342652e-03 5.404311970712259022e-02 6.502374938304522622e-02 6.370804082537417923e-02 3.739440862247708774e-02 3.122245539302131653e-02 3.929549679878685531e-02 7.581756350990109805e-02 6.873008084871860823e-02 7.288427823486277879e-02 -3.512075482218943081e-03 -3.308433056839079831e-03 -1.027659406348534372e-02 -3.797398786501489376e-02 -3.962895764380258701e-02 -4.541758591309959930e-02 -5.003215111005080568e-02 -5.763313452975270257e-02 -6.021808515358134661e-02 -1.127869416820592025e-01 -1.157986148026863976e-01 -9.437760104500847458e-02 4.441564264725712807e-02 3.225420272975559888e-02 -1.090621544501313260e-02 5.147973105461873394e-02 4.114626988608563463e-02 1.816493931130485143e-02 -8.019512810507202494e-02 -9.060288680362883762e-02 -9.359627661929827147e-02 -1.717469619961324925e-02 -3.291156788841128472e-02 -4.196953120437646456e-02 7.889018086095180016e-02 6.512834938929683293e-02 3.368543405964824489e-02 1.486541359473773916e-01 1.342867533056112672e-01 9.611329877894465856e-02 8.025834451001660763e-02 7.129394092270734118e-02 3.980024556467540164e-02 6.902777010840706329e-02 6.100078509531029619e-02 2.853961953126479476e-02 3.691030090005090192e-02 3.279146308707176632e-02 1.643353477382341818e-02 -3.038610613703670790e-02 -4.110213728731331589e-02 -1.532468690703306380e-02 -6.867279213870636223e-02 -1.047330921518782459e-01 -1.390324412141818455e-01 -3.805315441712203012e-02 -6.922306683845007302e-02 -5.939530665133845033e-02 -1.008145208887977484e-01 -1.323145583481988297e-01 -1.120181871769961729e-01 -9.921688804887165980e-02 -1.247139831487629330e-01 -9.223037784413318230e-02 -3.034528597087816568e-02 -4.947905645814558440e-02 -7.050282060237368642e-02 3.105088177503498650e-02 1.001381886649631639e-02 -1.225849301397465702e-02 4.061451988834590549e-02 8.559350527081503734e-03 3.310434011279267136e-03 1.786907750020653649e-02 -8.826045206489684320e-04 2.120486364589501804e-03 -1.492482881752031816e-02 -2.966676862843206294e-02 -3.312096323265658476e-02 -1.771772347116232910e-02 -4.048004057261361116e-02 -1.115319412180656652e-02 -3.288631434643554848e-03 -6.220934928951491610e-02 -4.342351500364038247e-02 -3.265764551541703361e-03 -5.621072896374974814e-02 -3.626019795462148265e-03 -4.915685598996770433e-02 -9.622414502406848036e-02 -3.082204132105157215e-02 -3.669616700296941120e-02 -8.473260461824384804e-02 1.248464205603067381e-02 3.418650579733099187e-02 -7.054157586662881388e-04 2.051927519106402920e-02 6.476708438874772752e-03 -1.850095235021788700e-02 1.466046533078366014e-02 -2.865721882733763409e-02 -5.309353412783117399e-02 -4.036789977324316270e-02 -5.680436987743035446e-03 -2.582037676869720910e-02 4.661211761673397271e-03 2.052433984041256501e-02 3.650908274741573693e-03 4.654257548948310952e-02 2.354058607835883901e-02 -3.179733444049126587e-03 6.108006469863327265e-02 5.585759527238172428e-02 -3.808238018573945256e-04 2.187003471706686075e-02 6.329334224961655209e-02 -5.583285105428268009e-03 6.189022800158316961e-02 3.571173360638419531e-02 -2.683147402065080844e-02 4.999817944350826160e-02 3.360808368604728535e-02 -8.730073340995542219e-03 6.145500650512152746e-02 6.006011646189331199e-02 2.207383530002141048e-02 4.640398089431670842e-02 4.977713177032021263e-02 2.255501780132249112e-02 3.418466135770330955e-02 4.583521293428653026e-03 -3.659549090971860735e-02 -9.448604286222902354e-03 7.325041334446634467e-02 3.191852257845141649e-02 5.840719027325876750e-02 4.274200658955067123e-02 4.786321392630644642e-03 5.026319675638293155e-02 8.407587102423527692e-02 3.664461232651812506e-02 9.473918880600797066e-02 8.462854778143809320e-02 3.711147437223324963e-02 3.694866296169449504e-02 7.537936242735548964e-02 2.218325033492946075e-02 6.948922250679223644e-02 -4.060554312341869282e-02 -7.700099091499834625e-02 -5.275698075259494663e-02 9.852944617633589003e-03 -2.552265643919202076e-02 -1.153216965104074919e-02 8.337164843988648100e-02 6.331985502988821124e-02 4.889230790755132172e-02 1.103011457676307122e-01 8.157373190877433011e-02 6.263450575233973916e-02 7.316043087974724579e-02 4.463737661250088279e-02 1.299009883943978705e-02 5.163982814129763899e-02 1.378635520941579908e-02 -1.169211618847135073e-03 6.322093846102919135e-02 1.763594760549578450e-02 2.090937112208574380e-02 1.059757291174019400e-01 5.367165496598171742e-02 5.823837833921850782e-02 1.249554413797335090e-01 9.101199598640864752e-02 6.759612703768658193e-02 1.343743524962717206e-01 1.056168735895128552e-01 9.755043964693685399e-02 -3.437516482588920397e-02 -5.462031119270342738e-02 -6.716344843847833757e-02 1.695149396584501311e-03 -1.676492111666827434e-02 -3.428356815079960235e-02 8.621031044241274366e-02 6.820414471497843190e-02 9.544859700620106358e-03 8.164900472583837276e-02 7.080246633624608099e-02 -1.179786271257107950e-02 6.998730633060547268e-02 3.364839645094858112e-02 -3.770636749040454094e-02 6.183306605423966734e-02 2.309280320193124805e-02 -2.683689796333281474e-02 8.425438873648355420e-02 2.493174532569691557e-02 -5.568085507457606713e-03 1.103802024464970027e-01 5.805248025793179056e-02 2.913366764093576478e-02
1.298502254632587401e-02 5.760161771380909596e-02 -1.061912164362698550e-02 -6.509039264636923283e-02 -1.189089041729811738e-02 -7.176019718107347345e-02 -1.000565652922208726e-01 -4.496065658170003698e-02 -7.653038830748117027e-02 -2.678560378746517191e-03 3.536538128015935534e-02 1.635855527124101608e-03 -2.339462437514993470e-02 1.773717363248549644e-02 -2.235772342894742221e-02 -4.411439971767634055e-02 -1.709241866124824524e-02 -3.197804220661006058e-02 -1.000621115235708278e-02 2.323499084386587005e-02 5.539041226040570393e-02 3.660542016211405097e-02 4.748033710399580942e-02 1.170276877370503565e-01 6.182887463633286729e-02 6.926258380550302796e-02 1.317184220424272023e-01 -1.623894201662280656e-02 -1.093706420367139727e-02 5.029297912151808186e-02 4.187196426538233179e-02 8.143638739717519448e-02 1.548358702855930601e-02 -3.563862809417479849e-02 1.066416363508262792e-02 -5.899604614095607658e-02 -2.404728670706900856e-02 3.315871286864283812e-02 -2.493863223871468915e-02 5.703288421387699841e-02 1.010478370479268445e-01 4.906205179860054916e-02 -8.827673341772764026e-03 3.385777595358892278e-02 -1.937874225371330472e-02 -1.113048733518314098e-01 -7.309825288666671472e-02 -1.100510731865512043e-01 -7.470122732667494603e-02 -4.446764865157015745e-02 -3.856051752365031310e-02 -7.023966112910880188e-02 -5.275667840526655772e-02 -1.697352086103769836e-02 1.449185968823438371e-02 2.422099131909747835e-02 6.488289353965412398e-02 -5.911037577340401417e-02 -5.594236810190719028e-02 -4.172627025966409511e-03 -1.772825683870912772e-02 1.567808707166963578e-02 -2.345567963468190870e-03 -5.553147518824051720e-02 -1.485991086156489803e-02 -4.155626024501168220e-02 1.207196368874360534e-02 6.544273207209673482e-02 3.059542877392804755e-02 7.019922792137564538e-02 1.037265179842621343e-01 9.114892377257668987e-02 1.876864706117368012e-02 6.057935991422255112e-02 3.071138873600644942e-02 -1.141286507591170521e-02 1.691376060154811678e-02 -2.698440802039701013e-03 3.144438622256078703e-02 6.673547900857564052e-02 5.565743640806331688e-02 2.454918660024257501e-02 4.911760356232005437e-02 6.498009108515659382e-02 -2.371572216088766935e-02 -8.254736411294250759e-03 3.574615999561600588e-02 -9.813164445557458204e-02 -9.215496500772978050e-02 -4.270880033894939448e-02 -1.247807689660063585e-01 -1.046252986228543014e-01 -1.003849213433432447e-01 -9.954626595157124724e-02 -6.130833961539127602e-02 -7.218569794597037848e-02 -3.633219118580421209e-02 1.598710438725038869e-03 1.732466547211042101e-03 -8.639022494697261995e-03 3.535016628537856337e-02 3.165348091101997940e-02 -2.406214825251531964e-02 6.322189417754454921e-03 -1.435291742808185618e-02 6.055064375725976999e-03 3.029037362586924770e-02 1.860397202347923232e-02 -1.013866819767616882e-02 9.718911716981849108e-03 2.943067205930728798e-03 -1.114091174118395609e-02 3.204004088310726233e-03 7.096343528059748454e-03 -2.438678411564476275e-02 -2.535117443297463594e-02 1.691535902724377802e-02 -9.828905553742817158e-02 -8.893820054006276732e-02 -3.116674138265409372e-02 -7.489862911551055380e-02 -8.184233059689648149e-02 -7.006543131223956500e-02 -3.997691327932786226e-02 -3.503204632237144622e-02 -1.836350271698839604e-02 -2.127659959647762791e-02 -1.391096870187169370e-02 1.992928985946202866e-02 -3.761499799261350252e-02 -2.392542160744489180e-02 -9.287025082632478085e-03 -2.363188987924236348e-03 1.136671203063672553e-03 2.072233900005170451e-02 -2.281482037189763723e-02 -2.277663075283829081e-02 -6.096666139086692401e-03 -3.308937486168581077e-02 -4.410424874766254860e-02 -1.084620621064769086e-02 -5.452714006535072655e-02 -7.013955561566653785e-02 -2.323929337439214690e-02 7.657643719488780622e-03 -1.714395039226401796e-02 6.182626747750806506e-02 -1.487019466273965806e-02 -3.142308407277826648e-02 6.458394243239053145e-02 -6.447641855511228315e-02 -7.884086817577772022e-02 -8.257943136117518179e-02 -3.232602583767409110e-02 -4.494590603943614260e-02 -3.289123495558359672e-02 -5.547193615701066782e-02 -6.145900059127190618e-02 -2.708668140797152596e-02 -1.086855698360477823e-01 -9.709574267108771195e-02 -7.747959044769804626e-02 -8.074185039999742797e-02 -7.781044022181400621e-02 -4.222827686643136624e-02 -8.595059583891091759e-02 -8.815383331833885616e-02 -5.276066603074705541e-02 -4.614879666119555551e-02 -6.910145856783940499e-02 -2.148241702904472514e-02 -3.993285163841114177e-02 -7.408246254704076161e-02 -2.063316621649382513e-03 -2.102002504549066106e-02 -5.813255819626572674e-02 2.704398488833908293e-02 -2.145772304796075836e-02 -4.885922954756839742e-02 4.458126916391535327e-02 -2.997125042172059731e-02 -6.156899071190538586e-02 -6.638139519020078150e-02 2.831850493424627017e-03 -1.811519855900046647e-02 -3.380320134678960892e-02 -3.791586253366235892e-02 -4.336056178213287121e-02 -5.091690470457221895e-02 -9.224342496119276869e-02 -1.067091646857435683e-01 -8.922225675942657697e-02 -7.273764320196655919e-02 -8.592073709609879262e-02 -3.380104736737316734e-02 -8.131770445138691850e-02 -8.695652804683630388e-02 -3.660582183737932926e-02 -1.023287816257857641e-01 -1.291061694527994574e-01 -7.234928533140942697e-02 -7.955814457105482573e-02 -1.190232557300130029e-01 -4.307190230151067278e-02 -1.533740835073607242e-02 -4.388655580921174693e-02 2.730469984303738815e-02 1.629710876774496942e-02 -1.880789181599018187e-02 4.967457575696355293e-02 -5.281678480973460432e-03 -3.567098983710700888e-02 -6.198899617559062297e-02 3.362943246363771232e-02 1.269574607476445542e-03 -8.655822536102914314e-03 7.417507795665234660e-02 4.791962275770873109e-02 3.770553686774081453e-02 2.814388870523833186e-02 1.618941188922675203e-02 1.519627436761781386e-02 -1.667092401499438784e-02 -2.449894508887613329e-02 9.827525666502004778e-03 -8.397776464697948029e-02 -9.853928535516569276e-02 -4.879818609353214071e-02 -3.683197354026686299e-02 -7.580625869140381057e-02 -1.417547037089490584e-02 3.283550614045846472e-02 -2.491934480524542195e-02 5.107173977774037005e-02 -2.325083738670313208e-03 -5.684379260249160931e-02 1.509069779070566081e-02 -7.439454439039852943e-03 -5.912480721422066349e-02 2.207770200655975040e-02 -9.454932344461070004e-03 -6.343731859804498108e-02 -5.409416449877508387e-02 6.569195899147205198e-02 1.624910594256836691e-02 4.244131475607975518e-02 1.003839803556012267e-01 5.685555852591990533e-02 7.092802984461027416e-02 8.162307406657001718e-02 3.853869175681946119e-02 6.732426780928665866e-02 4.764406685878361247e-02 2.136655677985024870e-02 4.619841492133057448e-02 -7.080184099217348703e-02 -1.137274337851395672e-01 -6.523101225037224171e-02 -7.504450922809724478e-02 -1.264733739714032357e-01 -6.047331070777226675e-02 -1.190165912836160626e-02 -8.423673766693182130e-02 1.061574177758146248e-02 2.697309036293395537e-02 -4.581559074401866244e-02 6.092242703450891778e-02 -4.163589319352428708e-03 -7.632692394346624054e-02 2.581048328917321527e-02 9.046656307178085887e-02 4.461027211492871181e-02 5.863452895341401960e-02 1.059667714521162207e-01 5.728734135298801239e-02 1.009349818448144059e-01 3.011513525366252622e-02 -1.026527603766489750e-02 3.234589860801281858e-02 1.789414913620231140e-02 -3.673127062135776028e-02 1.256330855647791456e-02 -3.392285739470865535e-02 -6.714915258870880754e-02 -4.544156709638637326e-02 -1.018836678020211273e-01 -1.466314627500160395e-01 -1.253850084327172987e-01 -9.467092683979945467e-02 -1.569746234198169110e-01 -1.058465113713003558e-01 -1.658306086158504999e-02 -1.006992621184385622e-01 -4.061958320390273575e-02 -6.827529118639643832e-03 -8.468367426772382967e-02 4.785627572669925132e-03 -7.404395783521175445e-02 -1.604520678270422163e-01 -5.236686619054586878e-02
2.244773749017182907e-02 -8.274832320205512473e-03 -1.242003918566356169e-02 3.170920999095271781e-02 2.689358812784395109e-03 6.767264223996414564e-03 6.802660844154527833e-03 -2.648235947235020454e-02 4.638522024478803490e-03 -4.760690996090382460e-02 -8.249685449738679288e-02 -5.168495512614147691e-02 -9.870442120978703548e-02 -1.118134360851464199e-01 -1.245697676802070969e-01 -4.485736444247438032e-02 -6.535628040882296430e-02 -7.678625078350888311e-02 3.620975059535041628e-03 2.985794449974203246e-03 -1.682839186159357583e-02 1.482950641091785107e-02 1.537613485683119439e-04 1.595087901598869762e-02 -2.978409617335241958e-03 -3.571178461550001283e-03 2.983341361147190309e-03 -7.275898558849269726e-02 -5.128357559370752550e-02 -3.473163943233912448e-02 7.240567807493486496e-02 5.535620819468270448e-02 8.107731328096735857e-02 7.477442380490656459e-02 3.297254015619896506e-02 8.794770163977573552e-02 2.077465641090766452e-02 -3.528994365612418953e-03 2.603147557668452142e-02 -4.002426044551416623e-02 -7.569576791515457426e-02 -3.810349891706471537e-02 -4.164194723004845111e-02 -4.848634137534033745e-02 -5.615096492033974651e-02 1.733575287910011156e-02 5.016947686077732503e-04 -9.716831056377470827e-03 8.788597201729897099e-03 5.320117484090757139e-03 -1.472801469689629696e-02 -6.409069236784439849e-02 -8.434291856989040159e-02 -8.222800162550415737e-02 -5.388980575730901307e-02 -4.882808072089898921e-02 -6.634649036293209512e-02 -4.598457172200683812e-02 -4.077547250461648759e-02 -1.325165055433773220e-02 3.304883002266997567e-03 -3.100791690875382214e-02 2.609494772332856399e-02 2.043380440215303295e-02 -2.118855246048573227e-02 4.850070679493378306e-02 6.990941237127809571e-02 3.423865954336752226e-02 6.752994516276819570e-02 6.871986124930895556e-02 2.491708118596687796e-02 5.441896368405662460e-02 3.557385630031931201e-02 2.676467320754324572e-02 1.988749702458465426e-02 4.677409596454943502e-02 2.805536895313549134e-02 1.309202267120781853e-02 5.613063595641987202e-02 5.548109697032611171e-02 2.252501785513638666e-02 4.334788780503883755e-03 -9.767703084694009431e-05 -2.028791454029674549e-02 -3.390346553058892071e-02 -3.680984996364077694e-02 -4.387121771497954487e-02 -8.463401417828251769e-03 -4.493365445203316953e-03 1.867743944043018939e-02 -1.154590908353621687e-01 -1.524675040741633181e-01 -5.357489742062532256e-02 -6.349945199151105224e-02 -1.035325650699227551e-01 -1.421449703890937354e-02 5.916744380154883437e-02 2.736713462969356941e-02 7.949088398921125287e-02 6.517996579848665817e-02 3.658874263469359678e-02 4.751146692378295511e-02 2.048463567026842166e-02 5.292762240763565669e-03 6.290773750642914518e-03 3.732787681795841223e-02 1.776389020135720961e-02 2.205668069036209947e-02 9.729541822553902652e-02 8.297579993919586283e-02 5.644150320953839756e-02 7.192048607186181386e-02 5.625981185827422931e-02 3.526445176638350054e-02 3.707361502760517236e-02 2.771347181042847080e-02 2.229714965898262763e-02 4.140524344217752506e-02 3.472733221061743980e-02 5.102764138859163662e-02 -5.255705868785035678e-02 -9.013538171193916093e-02 4.627054811833112256e-03 1.928679406059274242e-05 -5.313099621172132081e-02 3.319603815339937369e-02 7.607371531995267555e-02 2.605164238647733263e-02 9.894192933676108914e-02 2.241551593347789958e-02 -2.838258015459374506e-02 1.800218053788310568e-02 -9.027095276724395089e-04 -4.693416900187929314e-02 -1.938995448838290447e-02 1.842983631916959505e-02 -2.821579259557690719e-02 -5.070881822666561782e-03 7.431265311707074828e-02 3.131643119333687997e-02 3.601228768936191871e-02 3.047412076933798258e-02 -1.453399042265958105e-02 1.507106840164116994e-02 1.958521773284362805e-02 -2.285798417886740833e-02 2.736609936847661170e-02 5.729825909449780957e-02 2.186084018886384761e-02 8.872258235253553671e-02 -4.605427663908820413e-02 -8.375591109789119748e-02 -9.972270623697198147e-03 -4.688316214305311008e-02 -9.289473131859735111e-02 -2.899971205986914477e-02 1.246007044491687088e-02 -4.112012135769853999e-02 2.132454625571333223e-02 -4.496091497451307206e-02 -9.498928725519503735e-02 -7.342295236445196827e-02 -4.460069580984133558e-02 -1.013859035711285606e-01 -6.888822127910040893e-02 -1.252858675207615437e-02 -6.244529304632288197e-02 -6.195277937967903770e-02 1.902385614682878742e-02 -3.922746085752840811e-02 -3.408888578096196109e-02 1.254794364408225171e-02 -5.366483283453604008e-02 -3.300432639826539338e-02 6.326315385155792566e-03 -5.927728499923570760e-02 -5.604477068559799401e-03 8.357758641882736053e-03 -3.653075720342684879e-02 1.603680640755581963e-02 -8.223805180637715206e-02 -1.184191342167524863e-01 -3.742338260736683547e-02 -4.711889075705252838e-02 -8.837690330299739772e-02 -3.354131583651265985e-02 4.383362750571153515e-02 -2.518034944561808701e-03 4.744448945309304860e-02 1.878071658692092444e-02 -3.301430820125243054e-02 -1.286459147322041238e-02 4.021778359666939445e-02 -2.264698839647005454e-02 8.137524125379002465e-03 8.158185722099374482e-02 2.146338031397565863e-02 1.921057215574092925e-02 1.505035149548493434e-03 -6.831085448124163406e-02 -7.257038018270678403e-02 -1.524044459806456892e-02 -9.954172544719899762e-02 -8.360028690911894267e-02 -3.315039210978153184e-02 -1.074067149328262055e-01 -6.985684945399962820e-02 -6.237973925149913230e-03 -6.839485029559841389e-02 -3.565558059527525192e-02 -2.227912007602662198e-02 -6.639469384142251962e-02 2.233357069625093935e-02 4.193181532488283320e-02 -9.858312217424444485e-04 6.272704866259837253e-02 6.743434008656588874e-02 1.348807701219767279e-02 6.246753790007868873e-02 5.026125853573733954e-02 -7.044501913964386700e-03 2.420143797325867083e-02 4.443534257696669237e-02 -1.663600349714872834e-02 1.808783713351239109e-02 7.963535449000551381e-02 1.229419873984267074e-02 4.045648145676662699e-02 8.712925182922964806e-02 4.287184839320345303e-03 1.975112573169613556e-02 6.065069197457178402e-02 -2.723541739888664381e-02 9.882112171117169233e-03 1.150149233497001766e-01 3.331428073309748022e-02 7.983631120039620666e-02 7.450751938922585416e-02 -7.773336504074432416e-04 5.696117921005978968e-02 -6.088032008571887116e-02 -1.400384639870713155e-01 3.563031981795980463e-02 1.939125772170645010e-02 -4.849988905810934114e-02 9.221403584458766345e-02 6.559464909677298339e-02 -1.448763827869736266e-02 9.138895236279473422e-02 3.866089297344780379e-02 -3.238831759899846868e-02 5.605380838462908216e-02 4.677680944456166084e-02 -3.066066340640884527e-02 4.715102842935092048e-02 7.483603336998863320e-02 -6.061072545719467693e-03 7.321223298636363175e-02 8.653864896285291819e-02 4.040281702300039038e-03 5.759734310783130168e-02 2.081277681426190601e-02 -6.302961822615853194e-02 2.337112065520526027e-02 1.738637989774393100e-01 8.223427457713719524e-02 1.808144739301565107e-01 5.936916686219029932e-02 -1.571117580416700812e-02 9.177983695948820075e-02 -9.858164417502907062e-02 -1.711708563983590781e-01 3.317233183234905014e-02 -5.409744659858979621e-02 -1.438690632328127050e-01 6.563956821947025677e-02 -5.227659369400010358e-02 -1.346956964348758057e-01 3.485854423377339473e-02 -5.108010439746168974e-02 -1.436740052567412329e-01 6.135165449404005045e-03 -6.788240566067772763e-02 -1.385085901576800504e-01 -9.644868140158083941e-03 2.275423573546624459e-02 -6.149661878188059094e-02 5.757249247717934060e-02 -4.301700357671588842e-03 -8.413473013791068766e-02 3.153642667687075324e-02 -5.362818240334997488e-02 -1.341437745130849568e-01 -3.173426994489499803e-02 -4.855363201887318188e-03 -7.665223435485772618e-02 3.186624698760794072e-02 -7.587337741084521081e-02 -1.596764024273441274e-01 -2.362747813701459101e-02
-3.628969735036553009e-03 -2.086974387882613649e-02 -7.494249785501362615e-02 5.095073091364256748e-03 -7.017568559479334458e-03 -6.374339056213611243e-02 6.213084975846778352e-02 5.827188650115304458e-02 -3.634727903376823444e-02 6.547572924272393458e-02 5.763784840487622824e-02 -2.824747915786219102e-02 5.347239781305739015e-02 5.807147084102228657e-02 -4.227148645814636507e-02 7.934923086357069388e-02 8.947187684079713210e-02 1.425454941522383973e-03 8.624598910916672634e-02 1.042804385711988552e-01 2.375565628895921419e-02 7.679295228586134614e-02 1.023260003399530382e-01 1.378401077181494287e-02 4.884034343658003735e-02 6.562642578065844279e-02 -3.117969110218307346e-02 5.397425937595226597e-02 8.139269075064355097e-02 2.109089339003291513e-02 -3.586446253670629025e-02 -5.168739984415925137e-02 -1.103678329979627115e-01 2.704887373527653516e-02 1.020981606585753126e-02 -6.547038323899598278e-02 7.618172543011185460e-02 6.613432542732879116e-02 -9.873765622493459182e-03 4.824642817479080775e-02 4.339613237885315417e-02 -4.045206582017133595e-02 2.080439928120024137e-02 2.184595693670413410e-02 -4.787742404536043245e-02 -1.896357376307632181e-02 -4.369878756525358960e-04 -8.407362460983980323e-02 1.709044724262496692e-02 3.236060344261931787e-02 -3.728468234448961693e-02 3.131080200867289443e-02 6.220328053412567393e-02 -2.959720766423056329e-02 5.189297863384222803e-02 6.149670090483150969e-02 4.776604755671161329e-03 6.973451560766354140e-02 7.880731244698374605e-02 2.941726295443608877e-02 2.314366010843050409e-03 -1.138895900141981797e-02 -4.080720965420087110e-02 5.916989376133258149e-02 5.449776590091907902e-02 1.413705613540254362e-02 9.687615043089681244e-02 9.659733905580197844e-02 5.554368454344404959e-02 7.665663172501933909e-02 8.118552055074557128e-02 2.584377361344026430e-02 -1.820650614176514553e-02 -4.194157572622569594e-03 -4.897433444267126901e-02 -3.535134471229889330e-02 -1.399815927979011602e-02 -5.098957992768713560e-02 -1.319085335503524491e-02 7.686089942483442967e-03 -2.943195304920821417e-02 1.216287489760722873e-02 4.375381099873499463e-02 -3.993692727380843133e-03 2.862523619825291590e-02 3.729186558275326274e-02 2.801343337825525082e-02 3.537090863125672696e-02 4.106767410570866250e-02 4.298009058594395859e-02 2.049234685985197590e-02 1.100685917736403396e-02 -2.014359779123407745e-02 4.210860369689237159e-02 3.950634678478187611e-02 6.169603869747030539e-03 5.489278374405051619e-02 4.908011400499829452e-02 1.636103603939059736e-02 3.123480189958453140e-02 3.442059471700827100e-02 5.173578577689598923e-04 -4.434697259250546669e-02 -2.889821668752768843e-02 -2.953563261458445194e-02 -8.730234045649014341e-02 -6.878332286932163642e-02 -8.717478236981303363e-02 -1.328429801373971764e-01 -1.117899176327465660e-01 -1.374846120912500691e-01 -9.395541144346256091e-02 -7.296144962870744488e-02 -8.738787684861473726e-02 -6.442420976876252203e-02 -5.909372536123755348e-02 -2.776644336288125112e-02 -5.668281984123173939e-02 -5.379315614941620333e-02 -5.880318581277449615e-03 5.369406860453641850e-02 4.609807758163790570e-02 1.070013006244311705e-02 5.366317750430415340e-02 5.302524085408644866e-02 -5.537187011373730788e-03 1.170543218878726116e-01 1.253006648684914237e-01 5.523875991153908566e-02 9.295545431609195108e-02 1.046162290035350245e-01 3.643639213588679981e-02 3.066641417571591005e-02 3.867896655849111659e-02 8.189350171107546289e-03 -1.277521602419407452e-02 -3.242432982366864782e-04 -2.869067847830793563e-02 -1.672641882881937755e-02 6.610957519110997882e-04 -2.364778226683391868e-02 -1.770706399452371890e-02 7.440857511397848921e-03 -1.032675496519446998e-02 -2.421282426712620395e-02 -1.496997001104856222e-02 1.743398575444989138e-03 -2.414765320136049581e-02 -1.680364005644622780e-02 3.327796389433814589e-02 1.211871789219779866e-01 9.899877668633540184e-02 4.887904174326517664e-02 1.232189036091871914e-01 1.162183533900417454e-01 4.769590374610697958e-02 6.869856785857572645e-02 7.504450924401644130e-02 -2.620636619927867693e-03 1.038894410946223967e-04 1.578262709247635343e-02 -6.899631045563828224e-02 -1.631874912781920359e-02 -1.521164455996154921e-02 -4.749136815214532320e-02 -4.128811333528326771e-02 -4.039938968300833128e-02 -4.965261579854188256e-02 1.161725616422237123e-02 1.467332776308834241e-02 1.869621580442646508e-02 5.757302564756140023e-03 1.354943827222226602e-02 1.470123728124892240e-02 -2.616480350225571308e-02 -2.613223839108433366e-02 1.347955601990328579e-02 -3.095498093129549211e-02 -3.085906757910806056e-02 3.464905762040885323e-02 1.549091604935598776e-01 1.488293911025305727e-01 1.017539826061542307e-01 2.008509383163518958e-01 2.019926413704015988e-01 1.257633987824406385e-01 9.413132379400168670e-02 1.122789953986874506e-01 2.717604152581505270e-02 -3.733982008148235832e-02 -6.639659321755551902e-03 -8.697901425209725312e-02 -6.962270783359821025e-02 -5.980040091317403994e-02 -8.431077066297583411e-02 -8.000744935584078177e-02 -6.813014050784280129e-02 -6.716371627047955373e-02 -7.996554621174645910e-03 -1.909919177590740447e-03 3.387019795586568641e-03 -1.334648849683823212e-02 -1.009029291182122166e-02 5.212431175166340643e-03 -5.177839211675820674e-02 -5.079527115918827662e-02 1.943002444495780731e-02 -4.733343426487348488e-02 -4.125798384822750020e-02 4.393071626552005199e-02 5.676277913724323693e-02 5.733880384875070929e-02 -4.995075836487593464e-03 9.962720203840179367e-02 1.090913128957533285e-01 2.426081179532724522e-02 6.818001435406460808e-02 9.789440568563384515e-02 -3.270468974553578985e-05 -5.376616244416716761e-02 -2.816024392736155013e-02 -1.103375345531400070e-01 -3.078882976699132829e-02 -1.331564789907050544e-02 -3.615972216987868582e-02 7.033616368727494197e-03 2.298579450754894074e-02 2.480648733840365092e-02 1.088418128760213627e-02 1.904836642124840829e-02 2.185187183262068261e-02 -2.283175992395545736e-02 -2.302868679196424379e-02 1.017947005157145840e-02 -6.912277986088917470e-02 -6.073861040857757299e-02 -1.001879042735335547e-02 -6.668548833603962778e-02 -6.328239313129900567e-02 -1.701995562920386286e-03 -2.408403414153717850e-02 -1.171783930308353469e-02 -7.897632171209925667e-02 6.670291661989619439e-03 2.970424381367293282e-02 -4.687259234275348990e-02 -4.988067445278895028e-03 3.154529732709887568e-02 -8.878814631747267150e-02 -5.679955513633377223e-02 -3.195081688293956168e-02 -1.279958502958365996e-01 -4.259762508914954893e-02 -1.862485567855896515e-02 -5.225631094359789452e-02 -1.736628150234387213e-02 -3.357093472761663814e-03 -1.204170238951762437e-02 -3.797640308829935973e-02 -2.857294152904696349e-02 -6.028596264058826149e-02 -4.759077610054310986e-02 -4.256923403869185274e-02 -7.537584230398851337e-02 -5.765363199958806889e-02 -5.795745659017048634e-02 -8.148861894916263615e-02 -3.747252223241861330e-02 -4.695216288790537984e-02 -5.040548572427041435e-02 6.003626830693422484e-02 9.096872864084368238e-02 4.150073405096053186e-02 1.180970944817296836e-01 1.475755306068716743e-01 7.624797720518509958e-02 5.862783466371022933e-02 9.599925225763387970e-02 -3.185778029581151118e-03 -7.297107265719715921e-03 2.344686936680740255e-02 -5.707347354412182355e-02 -4.128366637568332831e-02 -1.535397415384606029e-02 -4.963935004769423620e-02 -4.252436915737935891e-02 -1.963440656659579467e-02 -3.742809571899011895e-02 -1.801481249667910914e-02 2.273022708544352507e-03 -4.742744005834094445e-02 -1.729322269163383399e-02 5.967063209770913194e-03 -5.690927170625428161e-02 -7.524749857357107899e-03 3.500180103654648538e-03 -5.363815081401259593e-02 3.286089139617193872e-02 3.323809605919726684e-02 -1.775513516809365533e-02
-9.220832191414556067e-03 -1.972823064083592537e-02 -1.485478308223944126e-03 -1.204143613440287466e-03 -1.459767462323766432e-02 -9.612176913065872963e-03 -1.015904115761265356e-03 -1.471363923772974792e-02 -3.465843563981332864e-02 -3.322217838047662047e-02 -4.551294360576581266e-02 -7.441100771586824092e-02 4.554166708834354177e-03 -1.135604978293001423e-02 -3.657481129702069150e-02 8.804191671773682962e-03 -4.936990098629082807e-03 -3.650339554917945289e-02 4.549267414024200928e-02 2.751714828151468825e-02 5.589292525126110175e-03 4.306749519811326615e-02 3.575748733328776297e-02 -1.754432247036083817e-02 9.090207500038233190e-02 7.116165025126698629e-02 1.419693989545880997e-02 6.376329532145202927e-02 2.995713279526917433e-02 -1.794215860718870875e-02 -1.593416025334980224e-02 -2.727159424417364975e-02 -4.405082894090332768e-02 9.483021832040063699e-04 -1.142517572396272753e-03 -3.496604993363271185e-02 -3.121491624874202404e-03 -1.203621122847926134e-02 -3.520730653661947179e-02 1.012902703821725280e-02 -4.290318335183371939e-03 -2.031960927021122035e-02 1.469893325350966201e-02 -6.524148471419142017e-03 -4.718649803613306215e-03 -8.738056530536737060e-03 -1.965633009626347946e-02 -3.402038923195413456e-02 2.254245189338914199e-02 4.738821428719419172e-03 -1.066430325257509970e-02 9.788633738197290157e-02 1.003497566711098188e-01 5.477610493228242394e-02 1.295411488410251055e-01 1.064997033322093306e-01 8.176060964140484388e-02 2.023247003834748384e-02 2.521096139683039455e-03 -5.216944797013007423e-02 4.985198879926519555e-02 5.659063360766621031e-02 1.489490338006503080e-02 4.075089385090417508e-03 9.053415200432580676e-03 -5.636606597837423571e-02 -2.303439941384755746e-02 -2.600974667859148187e-02 -6.052321600809620894e-02 -1.768379112354590693e-02 -1.990444974204883324e-02 -6.727643878234809693e-02 8.143852681526342341e-03 -9.992191011400626197e-03 -5.646283749034917629e-03 5.271345292895060486e-02 4.606413932136485534e-02 2.342828430780175691e-02 4.415846426617113518e-02 3.112382520415157144e-02 7.416762220002223391e-03 6.116597829813458925e-02 5.809561681536149630e-02 9.307837953581886425e-03 6.944982120506348888e-02 6.315032093623004772e-02 9.793537510677990943e-03 7.346893959789929998e-03 -4.609086694516024638e-03 -6.776330966487212337e-02 1.517374301141594106e-01 1.702396321283757286e-01 7.729616118710556927e-02 1.234747536877988938e-01 1.271109130624527017e-01 5.518330602535292256e-02 3.809431339318994185e-03 -9.521937069203803561e-03 -6.613129161483936869e-02 -9.629909313872394086e-03 -3.172725021982799459e-02 -4.146782878412361845e-02 6.514747826560656277e-03 -6.358681633941063414e-03 -3.717867624889544670e-02 4.049025021874565200e-02 2.311030402606537373e-02 -5.552093542387030170e-04 4.478459525161512800e-02 4.057125930895617849e-02 6.037149145777210082e-03 1.349834503713326708e-02 8.210836749523596836e-03 -2.781397213972719787e-02 2.217599397261877520e-02 1.635972017387703203e-02 -4.044339516379036326e-02 -3.894149887323330658e-03 -1.413018947979366793e-02 -5.738463896988693635e-02 9.089740169729772223e-02 9.814179544786007237e-02 1.639495107175750407e-02 1.127077067659014026e-01 1.164290024702837184e-01 5.091446541684579996e-02 2.483385273017781406e-02 2.014955440953472565e-02 -4.346066638738265570e-02 2.791777673722106376e-02 1.075001679656495054e-02 -2.111978823076865117e-02 4.016755853691925116e-02 3.758478879282209362e-02 -7.566325248655862874e-03 8.799790044890531959e-02 7.673871891227179720e-02 5.238916311621812094e-02 3.053849322137230232e-02 2.898901509898528517e-02 -9.367402164348347798e-03 -1.090931670329965512e-02 -1.557363712054303344e-02 -6.415501891439290283e-02 1.170052323571898686e-02 1.564692709702074705e-02 -6.096373670160327995e-02 2.828072793505442481e-02 2.254823650325936402e-02 -4.280019085411961716e-02 3.839828253956948517e-02 3.381254801543554650e-02 -1.852393028985092546e-02 7.500380489477569135e-02 6.824052710897143825e-02 2.378618638376134298e-02 2.957556301989313144e-02 2.000427758733017841e-02 -2.339385005760417913e-02 2.457867361964126765e-02 1.843293622556937831e-03 -3.954764898927165713e-03 5.064993138228069541e-02 3.778586720155500955e-02 1.360040130861733462e-02 8.330288038598965272e-02 6.850281953639242305e-02 6.361721670301880016e-02 1.706069375593330731e-02 3.244966426765600459e-03 1.560461789541989696e-03 -4.736690438795226887e-02 -4.300786964506655985e-02 -6.696773540405884240e-02 -2.765090769815697208e-02 -2.353909157534521748e-02 -6.833948038018407278e-02 7.544156151257333520e-02 7.723919803917075888e-02 2.972656315886826675e-02 7.388000778130216981e-03 1.817331929128687120e-03 -3.811657460874317421e-02 5.997981127207631380e-02 5.014112420555773969e-02 3.141072107949494097e-02 -6.979224865248608890e-03 -2.233871267693436288e-02 -3.810406562545274461e-02 -7.252081183909234174e-02 -9.199127166572705627e-02 -5.519994824557910434e-02 3.515614703405606136e-03 -2.878997519871453505e-03 4.695922440298191079e-03 -2.815792678804778654e-02 -3.631694142368339234e-02 -5.884999269188479799e-03 -1.496897470312021257e-02 -1.650297429531978957e-02 1.151939667273054087e-02 -2.824291112336305143e-02 -1.406633415781034444e-02 -7.005605745130016535e-03 1.886342979883888146e-02 2.358212889169599216e-02 2.740511129723113837e-02 8.182052269894565799e-02 9.074608203941647577e-02 9.152863468927018020e-02 7.193591934293631918e-02 6.687348516499558304e-02 2.243210682809377784e-02 1.118345719091044799e-01 1.031944570473279088e-01 7.948826372930541118e-02 8.443213012276937213e-02 6.592805367102400060e-02 5.879873214418947225e-02 1.415177877731301631e-02 3.474054488365828537e-03 1.315737318306339949e-02 -8.368984145089148480e-03 -2.690531053446716669e-02 -1.790923362980323397e-02 -3.658366779417920878e-02 -4.012550141610800314e-02 -3.269714278448388606e-02 2.617763365828570509e-03 -5.421052248608335296e-03 2.964281376799718717e-02 5.572850451579881847e-02 6.167562581686022311e-02 7.427627979049791773e-02 -5.676607787356801466e-03 1.161669104170474486e-03 3.565809788235759729e-03 7.626016667683212236e-02 8.154517955767780213e-02 8.167194555058221450e-02 1.090138780073934832e-01 1.233408330476706838e-01 1.830369220302036776e-02 1.060259253562838150e-01 1.173972119655667529e-01 3.958529816754173536e-02 1.963478335010953452e-02 2.220641942785003473e-02 -4.083674469825955555e-02 2.150854934903517236e-03 3.655926542877075639e-03 -4.869449055787791053e-02 -2.635948502332636362e-02 -2.859053344424008006e-02 -6.395711097446826754e-02 -4.715102898331850062e-02 -3.474308323612350369e-02 -8.431409741240715461e-02 1.253720344417001697e-03 -3.189026921644948589e-04 -2.665403645004346678e-02 7.673570457520804966e-02 8.290312882857704679e-02 4.527934379732000136e-02 1.480527784379129762e-02 1.242643390483794824e-02 -1.882916605573916116e-02 4.091960564475677353e-02 4.114799538393519585e-02 1.150302544537552298e-02 1.640784935577987158e-01 1.775479946198400272e-01 4.867972994146962246e-02 1.963353802946418147e-01 2.117971154299491399e-01 8.602828726145105021e-02 1.218905963822922295e-01 1.287887960073563487e-01 9.832342373574132557e-03 7.605546271088556298e-02 7.961673631770201098e-02 -9.759733968511548341e-03 8.538306166758584392e-02 8.495108450334337702e-02 -9.214193663056452488e-03 3.423943161022721671e-02 4.694809343331508150e-02 -4.102378533092394114e-02 9.921346310127336643e-02 9.760472390356512984e-02 6.631863719442670363e-03 1.702892595324519975e-01 1.693696622618409142e-01 1.026892046346103426e-01 1.047939492555891861e-01 9.614770794811758337e-02 2.810444500467537340e-02 8.231778930980597486e-02 8.438376662713135967e-02 8.588007569271062513e-03
1.343854445153645945e-02 -1.946445542781180885e-02 1.387468727528810494e-02 -1.316593227474148996e-02 -5.596797334967207327e-02 -7.429042577567292020e-03 -2.654277381814708348e-03 -5.265507101277368956e-02 -5.841079076453000937e-03 -4.880085448698427697e-02 -9.331704261983751747e-02 -4.465940025170613004e-02 -1.796455162766685126e-02 -6.473751602423377660e-02 -3.622745925770270992e-02 9.324421841487245954e-02 6.079042337036680982e-02 6.585751187650809579e-02 5.214190695337069664e-02 5.945496767133119816e-03 7.293282760489860211e-03 -3.859594379209489029e-02 -8.462572548529896654e-02 -1.017945481409471969e-01 -1.255812854215072015e-02 -5.071733402393224788e-02 -7.845034722939389638e-02 8.582662680039111758e-02 4.987479926847206840e-02 1.507967159088508674e-02 -1.274711216826512200e-02 -5.276705788878715414e-02 -2.768966494983822815e-02 -7.090403626145746693e-03 -5.310482753863682293e-02 -1.718808085861664101e-02 -5.370989217660961795e-03 -5.781513294838663830e-02 -1.464524788797539646e-02 -4.338456403023643188e-02 -9.319549559028221519e-02 -5.215572381113492417e-02 1.318809815071209264e-02 -3.083970135671432883e-02 -1.233422232009026738e-02 1.706622175441055711e-01 1.180798804360856102e-01 1.425144352910374668e-01 9.557605640979349726e-02 4.590645864911981067e-02 5.018059732268227019e-02 4.534883230069925580e-02 -1.298077954979173342e-03 -1.582694911842571659e-03 4.697281549664694689e-02 -1.100240930882693570e-03 1.175242185709895158e-02 1.382405301476437587e-01 8.062945022653127125e-02 9.488855293084305642e-02 -1.870152912010243640e-02 -4.706804398564654046e-02 -3.110985016308093210e-02 -4.818528226468420106e-02 -7.717520866908914035e-02 -5.217618263619906022e-02 -3.900979842465159692e-02 -7.766455655396731217e-02 -4.669633588397611307e-02 1.386355268392566557e-02 -2.135952525666431207e-02 -1.476373854010810428e-03 3.058305874796373586e-02 -7.310576194653466142e-03 -6.738375613953216832e-03 9.520261163360989320e-02 5.438674475061149038e-02 6.380387168423373723e-02 4.691819877164980779e-02 -3.921576478897089053e-03 2.944708235993432136e-02 4.244572434249238579e-02 -9.258474485775228247e-03 3.143952086234512444e-02 6.738647379043764818e-02 6.910566740688463619e-03 7.451515023461714737e-02 1.235445705108240561e-01 5.449277606021227932e-02 1.202068357326486064e-01 1.073179370087883333e-01 8.368907102890837946e-02 9.764994589107142686e-02 -7.516436071295369385e-03 -3.595159123955540825e-02 -6.942100853798948736e-03 1.234400480882667621e-02 -8.248848452289800695e-03 1.646176185221751367e-02 4.092167846678207432e-02 8.258448276956001366e-03 2.494321789032285380e-02 2.627054511641141801e-02 -3.601208155309567130e-03 2.185494281154499313e-02 -5.227780433634401221e-06 -3.202191292721595639e-02 -3.114525516104198373e-03 -6.227992025705836668e-03 -3.569584003483641799e-02 6.196902528941446858e-03 -3.440755602702595672e-02 -7.479863211626265607e-02 -9.743673183095772489e-03 3.491345611351458905e-02 -9.172074353334625993e-03 7.659184667291130122e-02 7.070490598157874729e-02 9.975721422616046219e-03 8.056906081754311444e-02 3.567445844387748255e-02 3.946797956306997979e-02 7.040813413742735838e-02 -5.511712762799288873e-02 -5.878907224913948459e-02 -1.987384982721404972e-02 -5.364621591842949622e-02 -4.593514697398430602e-02 -1.660017360166794395e-02 -6.755769152500938624e-02 -6.858720022153701190e-02 -3.964918658075121394e-02 2.200223726349647812e-03 7.002179595385312101e-03 2.459298644875605039e-02 3.380489635809804955e-03 6.853640741941690630e-03 2.590449862919294230e-02 -3.018096263273565769e-02 -2.291318079368754798e-02 1.410776662167630494e-02 -1.932936373809869546e-02 -2.167754735452709011e-02 2.657310147628166516e-02 4.226905495366842236e-02 3.696906316043725022e-02 8.335813337883435370e-02 3.551608479573908211e-02 1.360989629901889104e-02 5.247288130811038342e-02 2.947060373052877089e-02 3.814666598874357634e-02 8.937969526096817274e-02 -4.376482839552729709e-02 -2.863503361818032708e-02 1.809402234310494156e-02 -3.471934863444987168e-02 -1.802950436101529580e-02 2.216177859680350595e-02 -2.635290284300411193e-02 -1.846527022710664837e-02 2.226035223604430971e-02 6.398631333781380770e-02 7.617831708566862037e-02 9.284425321170999834e-02 5.113151135763766009e-02 5.295622527246963279e-02 8.849869344675642679e-02 -3.729770648654892606e-02 -1.352053006913702532e-02 2.603165599079918305e-02 -3.523981770671192476e-02 -2.764691564465813350e-02 2.819335116947644174e-02 -3.985558553355012662e-02 -2.662390470394835479e-02 1.807778851260241279e-02 -1.607365964695615934e-02 -2.701156015777469305e-02 2.121557667019158266e-02 6.302714748836239778e-02 6.913847662207421585e-02 1.119346400884284609e-01 6.730977494921142057e-02 7.170369145005313360e-02 1.256174438238679414e-01 9.417282282805301830e-02 9.788903102966597936e-02 1.537953115902696566e-01 2.079868982080837828e-02 2.807168644241959249e-02 7.681008972935735035e-02 5.203337249728712255e-02 5.761274657601800353e-02 8.470168662958635353e-02 6.771843528016441294e-02 6.642366116163925249e-02 1.004145385757328618e-01 3.940521462508932149e-02 5.245851716394393099e-02 9.828713820180115524e-02 4.289369297935542724e-02 4.150770432339710714e-02 9.464294201004065654e-02 -2.622697314826450549e-02 -3.293919330166914655e-02 3.072297726580464419e-02 5.438382993594496027e-03 -9.301232684422060248e-03 5.816486021024460523e-02 1.857523568184155094e-02 1.270270911283760337e-02 7.485427339756654808e-02 3.875742030143972811e-02 4.802764559602437644e-02 9.667186679328575172e-02 4.702960499342259681e-02 5.039230097173794110e-02 1.087155218041021276e-01 -1.484138158211010042e-02 -1.232491132555033758e-02 3.293604098006606973e-02 2.200796014787220062e-02 2.194569267944832675e-02 6.312176422426379885e-02 6.267346274457182009e-02 6.770239027427228662e-02 1.002414453973890368e-01 4.100213114500624381e-03 2.576582785751268742e-02 6.148687264340688130e-02 6.173706632367281094e-03 2.481121605196967214e-02 7.067396838978569351e-02 -5.980744450585120248e-02 -5.840858768660116274e-02 2.432468894175700974e-02 -1.595050646325514576e-02 -1.558924817585845279e-02 4.168577343140607294e-02 -4.503115922676386579e-02 -5.006544269623435656e-02 2.886923573086416089e-02 -8.675063966322997533e-02 -8.033111828415200051e-02 -1.991089002759599200e-02 -1.108937239487752247e-01 -1.072648583526100569e-01 -4.830241950525997890e-02 -1.144221689906362027e-01 -1.023632483133345844e-01 -6.362127901760177007e-02 -9.501470639582612621e-02 -8.882252120698755360e-02 -4.394640771954622799e-02 -4.918308032013727488e-02 -3.920484893911072022e-02 1.172020870409780195e-02 -4.277302274145596689e-02 -2.068610199747432377e-02 2.330559469937296124e-02 -2.861190878955331262e-03 1.682350221406322954e-02 6.097091729739335247e-02 -9.113575815131061408e-02 -7.898494923450648242e-02 -6.638821293050345754e-03 -6.271468692844602011e-02 -6.272318599234194547e-02 8.899862410783070457e-03 9.380481485065563646e-03 -1.697309210336288027e-03 6.580324602859047300e-02 -4.605817692222053013e-03 -1.253966404082826509e-02 4.499752663916475881e-02 5.823915848439038465e-03 3.264390897765895739e-03 2.806012749891965627e-02 1.768490308659650609e-02 2.288534121648492028e-02 4.714735150073765674e-02 5.983508748232864438e-02 5.890068750988244894e-02 8.393875447518921173e-02 1.037587514430179242e-01 9.634657463003132305e-02 1.538362733191342424e-01 7.319186628481255674e-02 9.165819669882249721e-02 1.134179753600650237e-01 9.506263151018516655e-02 1.127014144002674856e-01 1.500559251051176157e-01 -1.911673607165753283e-02 -9.081019522617203923e-03 3.716582368621249022e-02 2.032427821124651798e-02 1.927085106487298055e-02 7.992282750026726001e-02
2.897612515846243256e-02 9.179945920332165110e-02 7.643139431322819310e-02 -5.958785982512337411e-03 6.064638452775775873e-02 4.959728785327016665e-02 -7.447070419138694664e-02 -4.577446816747157525e-03 2.012930259529923608e-03 6.488845484461236435e-02 1.305196160209226020e-01 1.273796517017238561e-01 2.813067148425695690e-02 7.270456320480250811e-02 9.311162668754711935e-02 -5.319591818728050883e-03 3.197008432665277705e-02 4.588918702003712269e-02 -3.343834522162682926e-02 -1.504772373519854163e-02 -5.175651131671211123e-03 6.077147598894266402e-03 2.815923308343981114e-03 3.573730000034740922e-02 -4.539699156997087370e-02 -3.095478456908826517e-02 1.711763853043191466e-02 -2.390165215647761885e-03 -2.245842648111595272e-03 9.375153979754623570e-03 9.037554669576668143e-03 5.474187077959938308e-02 5.612997122784774834e-02 -6.546120600218820196e-02 -2.180739722489998065e-03 -9.339285028270281203e-03 -5.146376172059859144e-02 7.222275616673792115e-03 -1.372868982119352169e-02 7.178551177652438275e-02 1.349844123468787460e-01 9.744217246171955893e-02 3.300589369225478964e-02 8.223509820369750978e-02 3.483882391253866062e-02 -4.154563759755641218e-03 1.445203059759716732e-02 -6.899131207454118307e-03 -3.437568765467122200e-02 -1.681947033294505303e-02 -3.198172257665190393e-02 -7.276500964461607435e-02 -8.333572956947100929e-02 -5.105883722108538192e-02 -8.737918598390984060e-02 -7.657854008983686067e-02 -5.469093396980884841e-02 -4.782275117483113930e-02 -5.355859650000349692e-02 -1.907365502177225253e-02 -4.683367355475244465e-02 -2.444391258803236839e-03 -8.373434363345958267e-03 -7.835328100621420655e-02 -2.563153144349452836e-02 -2.376300911166624036e-02 -5.650705554115516976e-02 2.156430699897857965e-03 -2.796161065509658247e-02 -1.014461305833607233e-02 4.000518523887224703e-02 3.657246989477745680e-02 2.092761517144049732e-02 5.889812152521345379e-02 -1.960060963493707141e-03 -1.847336429933072247e-02 -6.164254107742015050e-03 -1.600979002599964979e-02 -2.206296432521016870e-02 -1.198688637176680352e-02 3.699518317781894387e-04 -3.119403529196564454e-02 -5.048225730695586611e-02 1.199717198235935450e-02 -6.017040072335845535e-02 -6.846070310296085981e-02 1.925042582797269891e-02 -4.755382744574901399e-02 -6.611436549186178180e-02 1.533571906775155376e-02 -1.265012327432088191e-01 -9.974807292185318419e-02 -9.075382348277344358e-02 -1.469064165020548540e-01 -9.511124368225780390e-02 -1.094404147229734447e-01 -4.767798515896534695e-02 2.409511211929111357e-02 1.665641602978538624e-02 3.116411881019066649e-03 6.884844116207873566e-02 5.798717480237245564e-02 7.696945149600051272e-03 4.277650915370120183e-02 1.613183958502860393e-02 2.751625765524279982e-03 3.198632603681469955e-02 1.851366006225334260e-02 -3.223079723075948731e-03 5.417024405344461439e-03 3.447348782963348401e-02 1.808169246557657026e-02 1.253973796696566771e-02 6.025865858460004165e-02 5.399166375627351654e-03 8.152258928561596004e-04 7.734686056127995646e-02 -2.841870732568922871e-03 -1.018457892875693389e-02 2.854698394439863021e-02 -1.156079777328893887e-01 -7.607315607444424532e-02 -5.592955948968465069e-02 -1.514144217811360105e-01 -9.699522531236712264e-02 -6.909951977315478833e-02 -1.095529725294461659e-01 -4.464830489563064581e-02 -1.066399710408299020e-02 -6.925363956693289524e-02 2.412866428057889104e-03 2.193077316970588192e-02 -3.361726619488903528e-02 1.879751918410530256e-02 3.613994439449328550e-02 -9.492849896087879324e-02 -4.493056242919817034e-02 -3.931393058967711657e-02 -6.994187258094118620e-02 -4.547062350197388775e-02 3.135601178111810036e-04 -2.018022851824115629e-02 -9.727723853256027217e-03 4.484957669146951570e-02 -6.554947187794453803e-03 2.056934203529193345e-03 6.761703764716514575e-02 -3.843030864387678158e-02 -2.922075647366735238e-02 -5.882471685289263931e-03 -4.145303032644846036e-02 3.373195750735895337e-02 2.983451906096112535e-02 -7.764286274007597966e-02 -1.045681517031542447e-02 1.540763090237454343e-03 -9.629592422341676228e-02 -1.755802448300698010e-02 -7.110684422382189049e-03 -2.217966264404580903e-02 6.210080710075861071e-02 6.198189967037674025e-02 -1.300489067577589863e-02 6.853166240565014555e-02 6.286959906063734060e-02 -8.379542854688627751e-02 -1.795192865186318390e-02 -1.717908767841378262e-02 -9.499928673897047038e-02 -2.637555933540405850e-02 -3.953011604611948726e-02 -2.249077690097408058e-02 6.268923015200818932e-03 3.878362669598339058e-02 -2.617665416977537143e-02 1.358110282468588670e-02 1.908812087315278280e-02 -1.069436587203568267e-01 -8.221633609472836501e-02 -9.586068686893230162e-02 -7.318895095167430101e-03 4.394786938486922034e-02 -3.719731679514589121e-03 -9.528148454783857968e-02 -3.735648111737123467e-02 -8.247986022110752324e-02 -8.981563929672792268e-02 -2.337887305118814887e-02 -7.339979578338939881e-02 1.249382873538121622e-02 7.031414204521323208e-02 -3.253969675144522539e-03 -6.175648087857893431e-02 -2.273974241167621251e-03 -5.009983351841447441e-02 -4.017541518467272060e-02 1.206217413048693045e-02 -4.250505594275316712e-02 -3.408738567173859313e-02 1.302140081102291097e-02 -2.310117647159995458e-02 1.487405101980958551e-02 3.840303004650206381e-02 1.511482347039408425e-02 2.779906461893009301e-02 6.234365649798510878e-02 -1.203615995043925448e-02 -2.152696851306669032e-02 -8.702774673033356403e-03 -8.888351874964670052e-02 -7.712403820341184879e-02 -3.292801328970052649e-02 -7.186287518124456764e-02 -1.623304424283492364e-01 -1.092998956666197813e-01 -1.495837519383417524e-01 -8.351446827412577212e-02 -2.799911124157842060e-02 -7.457402037343113799e-02 1.528415844697212506e-02 7.226754048134131914e-02 8.381386149111602624e-03 -2.522774162022319022e-02 4.175806591920788735e-02 -7.757205979123447774e-03 -9.031292211372293766e-02 -4.037867966012081977e-02 -8.758062995894985714e-02 -5.466853114616677944e-02 1.226086768323964883e-02 -4.431515367057860949e-02 5.605999756308810249e-03 5.473452160648774323e-02 -1.415001285544372584e-03 4.471183380410315850e-02 7.404834559797243698e-02 1.735128345249865867e-02 -3.348518192118334763e-02 5.163123463562683396e-03 -7.758191683573724406e-02 -6.699791743998126381e-02 -4.997602207878222569e-02 -1.562646352131231639e-02 -1.027427928272173496e-01 -8.398343910168082349e-02 -7.223469675304090842e-02 4.404560181212686248e-02 6.460522196726976862e-02 1.162404279863260698e-01 6.731392794656831935e-02 9.746494411203270036e-02 1.356277007999344142e-01 1.605747219225977032e-02 5.294612764988901321e-02 5.790564515563265124e-02 -1.001977650549667476e-01 -7.322317604898662124e-02 -5.237290927620287528e-02 -1.178402464705292918e-01 -7.123111958611239025e-02 -2.142628662237237164e-02 -1.052149148922726721e-02 1.958021267993626663e-02 7.562329630574890493e-02 -2.904329807505364857e-03 4.700247421493861794e-02 1.013862672332728199e-01 -2.038213843647278430e-03 4.302477412927510625e-02 6.360208134026601456e-02 -4.613135257160065682e-04 -1.160278152819321264e-03 1.441385074302575960e-02 -1.061664438988624976e-01 -1.015115857680263523e-01 -6.172855556923830672e-02 -9.330676611809606382e-05 9.414856658330757189e-03 6.894432996933741453e-02 5.589262414328068779e-02 7.273531464217811160e-02 1.172498173677697098e-01 3.437607483572380218e-02 5.521542233819486112e-02 7.469170782467392244e-02 -1.968217595638533518e-02 -1.585645454499316764e-02 2.587492404475024571e-02 -8.515302948277572725e-02 -5.398529662821234532e-02 1.934734554225833736e-02 7.118055000859847652e-03 1.687733770437821121e-02 9.584371790054871387e-02 2.748660753058473558e-02 6.367403023194435907e-02 1.479336927742223029e-01 -2.853130123250634687e-03 2.957704036507166970e-02 1.138114879935896301e-01
