9.108952834322904535e-02 -1.427913772992315811e-01 1.371218784498571819e-01 -1.407540006795155729e-01 1.421167633537426256e-01 -1.730460857264009000e-01 -6.821291945346322216e-02 1.083063611320203394e-02 -9.400108148024505228e-02 1.585166349363630600e-01 1.515591278513573059e-01 -6.087085949335482166e-02 -5.842285009936170476e-02 -2.212490821115107448e-02 -1.402836681219304382e-01 -6.909282180933211392e-02 4.949919564160845664e-02 -1.156301387416861295e-02 -1.028319106446197728e-01 -1.221047703803507661e-01 -1.106670635812515291e-01 1.005250547941391459e-01 1.440136279805757369e-01 -1.651732754318219476e-01 -1.276292153840500876e-01 -3.762767702303593947e-02 1.551309597307371502e-01 -1.345387190875295402e-01 2.743042669832580077e-02 -1.012461416857111524e-01 1.459213571370874818e-01 -8.308640066943948077e-02 -3.311226361322592432e-02 3.845467455809900657e-03 8.668498477854819084e-02 -2.719772475507542531e-02 9.407780625339330627e-02 1.596692281181735507e-01 1.788135153122820398e-02 -1.125155351491812783e-01 -1.031402297061862761e-01 -3.110190977644658114e-02 -9.285289037307256632e-03 -1.655690253843975501e-01 -1.438046161793493649e-01 1.398450855839301898e-01 6.103115981373889026e-02 -6.280207257942431627e-03 -8.042636246627364940e-03 1.391971727253906999e-01 5.070813105932110709e-02 7.876149883381358685e-02 3.192898757407079766e-03 -1.652680531122732027e-02 -1.183285018711564274e-01 -1.270568702770918379e-01 1.082870867316943347e-01 1.259340302957577817e-01 1.153857438613330594e-01 1.607584664356833115e-01 1.694147385333013289e-01 2.190023149047427495e-02 9.086160527915616847e-02 1.202425050226529069e-01 1.004563370482689927e-01 -1.111321073465114245e-01 5.125798038906049375e-02 7.602787855375497950e-02 -1.494721489974103756e-01 -9.672483326216152477e-02 -3.334875583096730267e-02 -1.066951114203122247e-01 -5.403986097160994040e-02 7.801010601641487907e-02 -2.765396869087587833e-02 2.536292529571762197e-02 8.996430165772591192e-02 1.697306668186277781e-03 8.857893056617749394e-02 1.015868805149771070e-01 -3.579258468083006128e-02 4.237623436320907960e-02 1.553042676769595398e-01 -9.505708702470910820e-02 1.363557760970626198e-01 3.366675559419963354e-02 -2.057960421270046275e-02 1.526268287231350718e-01 -1.147386626962889067e-01 1.126874707708428597e-01 -1.243509586020329488e-01 1.777262790058098396e-02 -1.484660003137189960e-02 4.389328926150849047e-02 9.391306823683484573e-02 -1.023767322805906876e-01 -1.871446781900238179e-02 1.176199318530868621e-01 -2.128414658878892418e-02 7.125801386634859902e-02
-1.290267210425516120e-01 4.950572788347881031e-02 -3.077044716052960548e-03 1.798811418998601946e-02 9.666430124219133058e-02 8.886607337136555318e-02 -1.867949570402530762e-02 1.336869793141185203e-01 9.470356395162876639e-02 7.840160536971343963e-02 1.215572424584187433e-01 -2.418435227136195732e-03 8.754297997136553308e-03 1.297793673186097563e-01 6.312955145696119708e-02 1.340931324082800524e-01 4.869459899575503958e-02 -1.306736718932789976e-01 4.837987496762662792e-02 -1.350104092547007584e-01 -5.535793367743310767e-02 1.328428669934308137e-01 -1.020081123088869834e-01 1.153891448196984748e-01 -1.173238822351843069e-01 -9.353550586430746383e-02 2.550520072123530282e-02 -1.594290963497027036e-01 1.378564141363969042e-01 1.302097975882587355e-01 1.067966698827885752e-01 -1.221791490056138574e-01 -4.756650731250341296e-02 4.451109341611497738e-03 -1.534326558326863099e-01 9.804788508922096524e-02 6.747893381820731229e-02 -8.073107154684661113e-02 -1.174206188279343782e-01 -1.424632477704911304e-01 1.598748286166659302e-02 -1.444560089755137222e-01 7.057381536330105398e-02 7.323333423051348046e-02 6.641555927168604767e-02 -1.236427559724363051e-01 -2.187474048999714892e-03 -7.566466589186096603e-02 -1.512639275250617643e-01 -1.399400523071567537e-01 -3.156698630408374950e-02 -1.132176582816501742e-01 9.397732971446401407e-02 -1.189799891791339520e-01 1.808028808507284061e-03 -1.005060541044098671e-01 1.283087398200570377e-02 -1.498111519336201569e-01 3.195546992185119978e-02 1.583541094898839041e-01 -9.180882514766876279e-02 -3.709874063315492243e-02 -2.241485918236300889e-02 -1.282936094222138224e-01 -3.975928596725873676e-02 4.577467156779637530e-02 -8.617843612406508869e-02 -4.261494940020536804e-02 1.654224722615920962e-01 -1.216746889004906851e-01 -1.077518365546567131e-01 9.639798477316433023e-02 -6.106933462635663612e-02 -1.658273175548257705e-01 3.446433648720129139e-02 -1.333895000291327737e-01 -6.260288726969243100e-02 -1.438916125861876283e-01 -3.444119896170227263e-02 -3.032774795481588473e-02 -2.317344453058570869e-02 -2.939123476935741417e-03 -9.799199727928611936e-02 6.934767160012340892e-02 -1.545648220069199552e-01 -1.050633217139372438e-01 1.635572985748287578e-01 -1.488066925087551395e-01 6.003112588707248259e-02 4.816116298802280288e-02 1.822243766103046336e-01 8.714156216819203549e-02 5.451314165428648717e-02 4.004866302012142359e-02 3.065059802033876998e-02 7.031201714631632460e-02 9.214254191705266439e-02 -1.561011258519300060e-01 -1.341631573757557372e-01 1.375564970318371993e-01
1.403635384913570483e-01 1.029954825374915783e-01 -1.178647966416242476e-01 -1.688074656974849486e-01 -1.037073131831642847e-01 1.052763390674923694e-01 -8.696604376171475359e-02 4.934002911914821959e-02 3.912779746662650715e-02 1.024881035719387157e-01 -1.014861300163909519e-01 7.500494838559970678e-02 -9.876779360743541403e-02 1.372188492410763017e-01 2.319927959744133572e-02 -1.490273282436187230e-01 -8.943363774562029800e-02 -1.807683250314061699e-02 3.899414996141301049e-02 3.110562829153489320e-02 -6.308676769953659724e-02 -3.845639552611813602e-03 7.079589012854986541e-02 1.150568160951869270e-02 -4.202499073381477102e-02 -1.859901139099258763e-02 -1.723440421170344128e-01 1.846452174267371737e-01 3.656351413539311868e-02 1.367159277355862457e-01 8.180460009188436632e-02 -1.869420784495939847e-02 -1.818097970601875446e-01 -4.426282677293062046e-02 1.596871662151283788e-01 -5.561614547892110294e-02 -1.728209161537216654e-01 8.981860496353569201e-02 -1.020509242857305186e-03 1.326562698176056987e-01 -6.641562516725099674e-02 7.358667401539370490e-02 4.855168200527611860e-02 9.672483028506692615e-02 7.454385028611858199e-02 -1.115371305198920443e-01 -1.004329222836509439e-01 -1.829340425289143618e-02 -1.247037657462365251e-01 1.123676950231018296e-01 -1.214744156950583048e-01 1.309162132642393284e-01 5.734675467155386092e-02 1.569701859764135732e-01 4.683442835821954170e-02 -1.086506397991515022e-02 -4.647297695511549281e-02 1.193749753743598568e-01 4.272979761967606038e-02 -1.212420604963323767e-01 -1.037061439518155992e-01 5.806919089198171041e-02 -4.686476702514484616e-02 -2.830995256397916132e-02 -1.519494651935222873e-01 -2.804289816108249817e-02 1.351281401559529249e-01 -9.857044591219436824e-03 8.767187913276640321e-02 -9.291737527829196930e-02 -7.081925048537400513e-02 1.203824087279558308e-01 -8.577212539369792610e-02 1.427668524991390631e-01 -9.953707004704247241e-02 1.597209811146727693e-02 -1.202098903477493708e-01 -6.875105474889726953e-02 7.639850176197371390e-02 -8.479421426106299731e-02 -1.654503290495352996e-01 -6.056956934476610821e-02 -1.342014576377534019e-01 -1.493921522921582423e-01 -2.008250556285912092e-01 -6.732210790346455920e-02 -5.869765561227890428e-03 -8.495792754416013615e-02 -8.135132838274430900e-02 6.860077376370229962e-02 8.349720234647786676e-02 1.474180114567479605e-01 -1.002007039967402063e-01 -1.668983131952461174e-01 -2.643759105861341954e-02 -1.450404192882169818e-01 -5.204353877750496349e-02 2.135876313336407609e-02 2.757374604181389230e-02 1.361572509664847330e-01
-3.026690424933083795e-02 5.486672057211006148e-02 -8.883150806550159373e-02 -5.322398528770545117e-02 3.358464868530140063e-02 1.716113729626731477e-01 -1.267537750584699363e-01 -1.799614460928555260e-01 -7.065394078927263177e-02 1.430297471835054179e-01 -6.530824591532735646e-02 1.085184301107293275e-01 -2.865451951993981672e-02 8.247841377926239115e-02 3.307481881680485875e-02 1.529993765355127378e-01 1.320087447259069569e-01 3.787632098675500214e-02 -2.912630088700841891e-02 1.206168578254497442e-01 8.068358422511778816e-02 5.339150552358962187e-02 -7.287544578204946388e-02 -1.071304680928157754e-01 -1.158811868545158996e-01 4.602876746116284223e-02 -6.162077001467682058e-02 -1.267309750847555039e-01 1.653947680744397020e-02 -7.456048911144781688e-02 -1.491888291354957208e-01 5.492236538505147758e-03 9.115914962121515752e-02 1.968054705164276608e-02 7.487261157185172433e-02 -7.561640624977421232e-02 -6.533183206967360657e-02 4.811718098132617902e-03 -9.930387972205333147e-02 1.440737236083500794e-01 -1.401354613600600540e-01 -8.411227979592568460e-02 -7.095354435136275173e-02 1.267643757171190988e-01 -1.481982617559529647e-01 1.135099890020701829e-01 -4.100384128799941519e-02 -1.325852693993117282e-01 -3.830165346805945725e-02 -1.139877977654235180e-01 -3.078114098755951183e-02 1.376705164998872910e-01 8.507742798811743223e-02 2.167907960471218004e-02 1.346920614222496537e-01 -3.296333008736888198e-02 5.631903327970934348e-02 1.188254300332441810e-01 1.072099687478347552e-01 1.159839761969604505e-01 -4.545476155624483122e-02 9.023766770290955752e-02 -1.438969564876836083e-01 1.244618966590664566e-01 -1.083460412631329361e-01 8.589317271742891169e-02 1.159676625642208636e-01 -7.865556681946625495e-02 4.651057854860652513e-02 1.155324302868399600e-01 -1.390509449978402923e-01 1.414303988123306044e-01 1.667154156029884149e-01 1.669720140091223715e-01 1.064470951444466545e-01 -1.257023931130999382e-02 1.430808275622610093e-01 1.517699116761288547e-01 -3.329269567421992010e-02 -6.863234565609924176e-02 -6.471245146097910628e-02 -1.523666952082966819e-01 -1.078777422580186052e-01 6.232801796025725510e-02 -1.590279619752481000e-01 -1.425805126636397746e-01 8.923638327759667033e-02 1.360291922219047933e-01 3.823687638093690999e-02 1.540110533220150069e-01 1.068417117222665025e-01 -5.648542014772189868e-02 1.111826920069035329e-01 -3.644335123199962667e-02 -3.159952652787521854e-02 8.278331342601774612e-02 -8.969936332413816493e-02 8.425643147234657127e-02 -1.997608568168591364e-02 -1.168273778385937140e-03
-4.461857594802364629e-02 1.722503957597895999e-02 -1.137462226963887879e-01 1.661496508555238699e-02 1.451341860605976086e-01 -1.447002842793739807e-01 1.306037436434453469e-01 7.827492509349444350e-02 -1.002841730255129710e-01 -7.097848539488377240e-02 1.530557474366900095e-01 -1.620852877801904068e-01 1.075095272125295431e-01 5.874007529152575069e-02 -8.990401855382211538e-02 1.142154055143745628e-01 8.503814292772575445e-02 8.423498520693877001e-02 1.633832023690983404e-01 -1.852626988053510462e-02 -5.742227476395920377e-02 -1.223312652833403180e-01 5.305528997435821764e-02 -4.828753837813842820e-02 -1.028347349355161477e-01 -1.374977937903545111e-01 1.166414520114932712e-01 -3.190860931316032156e-02 -7.208276324648699163e-02 -7.094113643483831999e-02 1.497247890057072373e-01 -7.756957380804868629e-02 1.224583162282711912e-01 1.660740099249821689e-01 -1.203429722771026805e-01 3.447704908998254492e-02 1.013244552682324023e-01 2.768218671271216805e-02 8.585766072777908584e-03 2.598300892927175865e-02 1.541032955316004871e-01 1.184602674794348054e-01 7.953245885321219566e-02 -5.975588412669941007e-02 1.356992374330523998e-01 -1.725783808843707190e-01 -8.353313943549740828e-02 -5.273844874094816421e-02 4.307178855096073511e-02 -1.594446525811125948e-02 -1.009165276607434103e-01 1.205522801146473727e-01 7.023651391410022649e-02 1.791339724468037353e-01 4.204076845758234621e-02 -5.584255376261162973e-02 3.108828861236214922e-02 -5.409957183217476307e-04 1.224143233002085301e-01 8.676193741891786992e-02 -8.772044617352046936e-02 -9.144885301159411117e-02 -1.443048760095136940e-01 1.318237587287273416e-01 -6.659344394867246220e-02 -3.510251655915889307e-02 -1.104588433288896526e-01 1.781382156349007317e-01 -1.287667300738757903e-01 9.346065729110586418e-02 1.621698248481519555e-01 6.145851543209220752e-02 -1.102146339863728230e-01 -5.744309800610893080e-02 5.526986524936056133e-02 7.809770899708383396e-02 4.573442442642356581e-02 -8.453278934772660846e-02 -1.320269784182612205e-01 4.617803976726711501e-02 6.198822376337567025e-02 -7.632821811707217463e-02 1.287175619447941122e-01 1.146442565447955975e-01 -5.331381842009277200e-02 7.433385884190986392e-02 1.201286176780445858e-01 -4.440150172234872544e-03 -5.607645966912128827e-02 1.159970039732840102e-01 -1.151816602112182703e-01 1.097494035795831824e-01 1.192756497282362327e-01 1.020217534125062858e-01 3.698272458299017851e-02 1.018017403487725958e-01 9.415708687271255595e-02 -6.365791638329718061e-02 1.171395941286271780e-01 -1.522984610405105355e-01
8.482426184588010010e-02 -4.642230725830328447e-02 -1.218918331332547317e-01 -3.500756392673166212e-02 -5.121642649472217534e-02 -1.479168596592543294e-01 3.202923218733402105e-02 -5.021118913208670598e-02 1.686401115535299776e-03 -1.038939153835215373e-01 7.511965254919894530e-02 -1.720347679375228145e-01 1.090079937268618876e-01 -7.973143519476140473e-02 7.306698331551257641e-02 -8.070195078442056469e-02 1.406580640915047475e-01 1.445564624478098414e-01 7.345056829464823023e-02 1.231009938478545424e-01 -1.292339378436954123e-01 1.564528444053786549e-01 -7.600776779659977611e-02 -5.280949764376179772e-02 1.020812243041556294e-01 1.027195619267583931e-01 -8.670859933465485669e-02 1.299087295413960952e-01 1.241486810741022039e-02 1.059008252724626814e-01 1.598934378992233063e-01 1.903833456299396445e-02 -4.131319891176756659e-02 1.308036940587659347e-01 -1.439760796402119736e-01 -1.803196093178496828e-02 6.706004685789059006e-02 1.369927794245384342e-02 -1.631788629227107768e-01 -3.794738285870306871e-02 5.755947197354534944e-02 6.210805135504082058e-02 -6.381979302831248006e-04 1.432498970657277715e-01 -3.583689176010229627e-02 1.352722813716219774e-01 9.712734312730980646e-02 -1.044690615329615657e-01 6.947736561758394158e-02 -6.380005114972009395e-02 -1.365630122409142722e-01 -8.883906832832109968e-02 1.291022434271549002e-01 -4.961043781004897957e-02 -1.083383659324843873e-01 -1.017409273467637515e-01 6.571206456213364577e-02 -1.393630097579505178e-01 1.344692194299449695e-01 1.004886867383154719e-01 9.370426981586515991e-02 -1.457095892439456454e-02 1.112104784057157264e-01 -4.586329078358019479e-02 1.233473227784280118e-01 5.204407454398868663e-03 5.491313914299670446e-02 -1.540438039794435332e-01 1.009646806260484642e-01 9.002120831499253739e-02 -1.244553539964882577e-01 1.411991177756750093e-01 1.171789100941146022e-01 -1.473733068797513646e-01 -2.994742527543203456e-02 -1.208339076994759537e-01 1.468862023437534636e-01 -8.873866018198904582e-02 1.681736944146573209e-01 -5.396261191014481429e-02 3.882061642466187040e-02 1.047879347514589776e-01 1.607395796801240617e-01 8.426972538963241680e-03 8.066266486469384628e-03 1.309355706031075685e-02 8.173803955531623588e-02 6.786431714389947259e-03 9.796388452559072479e-02 1.502571963197935900e-01 -4.088190058166941976e-02 -1.567232565644507136e-01 1.000607096773357962e-01 1.312071026349724556e-01 -9.476721867600282345e-02 3.502780538066999072e-02 8.396796670311178212e-02 -9.513432229999875533e-02 -1.381958287826861587e-01 2.760048512732018317e-02
-1.858305746098888253e-02 5.663887444544425664e-02 1.518239484511185906e-02 -2.262419114271946655e-02 7.377835444683362998e-02 -1.209294429882102756e-01 -1.376652225768046911e-01 3.065429024691902066e-02 1.560068636261831843e-01 -2.676647075610658066e-02 -3.294912324713845236e-02 -1.615741906795672422e-01 1.505101286525762083e-01 1.346537145459509588e-01 1.100623306348129660e-01 4.077979540880994486e-02 -1.304647571828994046e-01 -1.586138296210089504e-01 2.899751374973118592e-02 8.762475280677093151e-03 1.195675968102542369e-01 -1.213653969582681874e-01 -1.477846578881980566e-01 -1.611579419445395914e-02 -1.485692473847367509e-02 1.077218983759017645e-01 -1.415665755976252549e-01 -1.345393576986255169e-01 -3.526192626059624496e-02 1.083596164366250753e-01 7.898333823748543425e-02 -4.247330688758083755e-02 -1.417211161021336707e-01 -1.533603611493498109e-01 -1.527723828967114394e-01 7.951874091572598557e-02 -1.101754032246311105e-01 1.294326247581542022e-01 -1.015783838415434126e-01 2.182250934394656602e-02 1.485111461020073853e-01 3.660245394791496274e-03 -1.395037648597753643e-01 1.577388672971425099e-01 -1.223098802839392429e-01 8.593251466664353355e-02 5.285115989362634131e-02 8.264166253593582812e-02 9.319943985017586918e-02 5.038708670708668541e-02 6.509086392292552647e-02 1.260224359929775217e-01 1.712848184368740978e-01 1.241636606651001090e-01 7.410276838534250732e-02 -6.557173831985003976e-02 -1.344839712764303030e-01 -1.164285489590536626e-01 -4.672612673383979426e-02 -7.091632959393888436e-02 6.746180998909206972e-02 -8.068263762406140821e-03 7.545299104285128899e-02 -1.169947451353043899e-01 1.276892805613629722e-01 3.840588402171853794e-02 6.874421309453025708e-02 -5.274801407458064306e-02 2.126852316293955866e-02 -2.879079031671117825e-02 4.447028968625879597e-02 -1.591355964770805320e-01 -1.004670349297779736e-01 -1.319467569273537200e-01 3.716945892151705087e-03 4.744323146178280881e-02 5.915096769150033490e-02 -1.244714303879655842e-01 3.300362149195641345e-03 -1.975548942333671121e-01 8.375968462536474701e-02 -1.414931855272184014e-01 -1.194150888884683570e-01 -6.924280360397280787e-02 2.621408598689475844e-02 3.527163196873918383e-02 -1.399501645519702631e-01 -9.825667969867882268e-02 1.062079472939496116e-01 -1.781820879373963856e-02 -4.887576049996118777e-02 -3.959783244510041433e-02 3.842980985085486106e-02 1.504712321524528662e-01 1.006304954096844118e-01 -4.654583278382844885e-02 -1.427127765425527106e-01 -8.978328311862084077e-02 1.451170992125095927e-01 5.712739004015487260e-02
-1.239094760285036068e-01 -1.817226248444879858e-02 -3.452836196108906297e-02 -1.296141494079493806e-01 1.339235625739860214e-01 1.241693664576893757e-01 -1.441511425618389741e-01 9.081821880392040858e-02 -1.331699621095740471e-01 -1.564760900717392100e-01 3.809031134332534901e-02 -1.135920422859853715e-02 -1.810397461657028695e-01 -1.530656441534937739e-01 8.552785134033732972e-02 -1.098706537034673802e-01 -5.063920624314412417e-04 3.351407289775568121e-02 -1.534217473635733353e-01 -4.331082664005914823e-02 1.300817578988264223e-01 -1.746357151762418028e-02 1.350223833395760298e-01 1.514984770700692762e-01 5.628765889316027227e-02 -9.734852831894372227e-02 1.275733105132315082e-01 -1.091422237891842284e-01 1.048003753336054500e-01 9.747612839887200009e-02 -7.819646132445942643e-02 -1.485305752008543312e-01 5.415671740712919152e-02 5.605874251674508590e-02 -4.840927705343953114e-02 9.179993272437726726e-02 -8.491480062160290665e-02 -1.004946859895910760e-01 -8.957658812670106843e-03 1.435803358406277097e-01 -1.413491184727123096e-01 2.877336100249081041e-02 -7.673669270706616127e-03 5.003158536903074688e-02 5.024578521861117197e-02 -1.789109819395263978e-01 -1.523225015504203195e-01 1.386480463896846149e-01 -1.171506387729369658e-01 -2.945971797213661758e-02 -6.911553156042271086e-03 -1.304259366039934795e-02 1.545433022360230280e-01 -1.079079826573807466e-02 -7.148498700677571871e-02 1.685795876662676551e-01 1.467595168439807252e-01 1.423855466273482862e-01 1.108288091160821442e-01 1.196085749498213835e-01 1.151742078214747361e-01 -8.889172066718221965e-02 -7.115346807838457410e-02 9.376661796724689024e-02 -6.222542919207128126e-02 -8.942651483045140071e-02 2.292221262994145053e-02 -2.065590853074554534e-03 9.023390374789483359e-03 5.739024960119552821e-02 6.148324051598352824e-02 -6.588679357877171017e-02 1.207955528569893688e-01 -1.256450178176450327e-01 6.039673333198698063e-02 -1.987919272409841964e-03 -1.173256833884675637e-01 -6.370773015310621235e-02 -9.552800920250349714e-02 -1.033604996906383328e-01 5.334055939567397542e-02 -1.294861973771730401e-01 -1.657441952702123911e-01 -1.589629549652081253e-01 -9.993054622414969390e-02 5.070337835551554789e-02 -8.673949658466666851e-03 1.442668206438948997e-01 5.372287932570782992e-02 -1.054081661527499630e-01 -9.964726005060620118e-02 -1.333905647875302872e-02 6.464483773814161394e-02 -1.416929284068718653e-01 -7.854654870129060273e-02 9.291347462969018478e-02 -1.583833206265869084e-02 -6.883805820100367956e-02 -5.653007746501054892e-02 8.042289009499915819e-02
-1.831622752189283609e-01 8.845720594621318822e-02 -3.641676384725436172e-02 -1.119281817035234078e-01 -2.590781855724929444e-02 -1.406739564924003316e-01 6.842748305605284020e-02 -1.731027846427474481e-01 -1.131834591644015342e-01 4.443701146620915310e-02 -4.506236251371968649e-02 -1.978048017436504977e-02 5.144902031550559196e-02 -2.388987989105622115e-02 -1.672057413569129070e-01 -7.273680240272094311e-02 1.142774019394532242e-01 -3.497882278937356620e-02 -1.238039558927804124e-01 6.136609101930484700e-02 -1.096518192982114809e-01 -8.492100391370799306e-02 2.130331916412226551e-02 4.886998313581609327e-02 -1.172270493472405417e-01 -5.516838634093600147e-02 2.648149672814849656e-02 -1.596880423856111286e-01 -7.482182704402716433e-02 1.208528527970142985e-01 -1.630870703241099062e-01 4.968396181770869807e-02 1.317403693922289121e-01 -1.386705713150820363e-01 1.671840300741480323e-01 1.501008169994713926e-01 1.013523531778436626e-01 1.589024355383784762e-03 1.072216910681548369e-01 1.425238223667504682e-02 -1.158985517148528460e-01 -2.938874516197909070e-02 -1.392132142109058224e-01 -1.119774149090662779e-01 2.419593543874872660e-02 6.090771698234949405e-02 -1.480930250375655510e-01 -6.356533059725394050e-03 5.382868721217894808e-02 -1.526123859013089057e-01 -1.626998569836712594e-01 1.057689845732280864e-01 -5.461194247005561608e-02 1.495102060754313900e-01 9.192787746168878948e-02 1.559197189944939721e-01 -8.020600289804627470e-02 7.477121323218242910e-02 -1.188440583861442024e-01 -1.410660736730199316e-01 1.081058176211493332e-01 -9.660793340021991971e-02 -1.438809380174350602e-02 6.321065572105660779e-02 -1.243720505056758324e-01 3.080057484590090905e-02 7.747030358620086987e-02 -4.932073609707150058e-02 -1.356335281240320378e-01 1.334410823497152454e-01 -1.033134910003684487e-01 -1.509034039607143329e-01 1.656398080261017869e-01 -6.688249675340461609e-02 8.703757949625223755e-02 -5.811151933287268118e-02 -1.593577986890163944e-01 1.449386371250103167e-01 3.152573863325693060e-02 7.412486316115987628e-02 3.269940627613541345e-02 -5.293020572391000933e-02 -2.839373338935187452e-02 -8.699240780962784469e-02 -2.145784440345740660e-02 1.939598105273921888e-02 3.281680353904151571e-03 -9.683682246567708318e-02 6.102574977568933634e-02 1.175671956122384398e-01 -9.852643187794102309e-02 -1.505396167573793964e-01 4.380787430428700197e-02 8.918673464871502976e-02 -8.951227892252514029e-02 -8.758624613541599047e-02 -5.959012207836904274e-02 1.119810416789807916e-01 -6.183146820140045935e-02 -7.373429925077945590e-02
7.333955148165721694e-02 1.527459960393230676e-01 -9.632099627704691913e-03 1.232531779497622187e-01 -1.110476851954367641e-02 4.310342581576867560e-02 -4.647527853132760872e-02 1.028372082978353391e-01 2.761276357934706188e-02 -1.228407977615784408e-01 -4.263596702323839416e-02 1.424540448519389345e-03 9.468882407756987196e-02 -1.316151446670594249e-01 4.325976326973451913e-02 9.947626107391843719e-02 -1.703292413149347928e-01 -1.630295162832679501e-01 5.026627992758928715e-02 6.998435302053379603e-02 -1.295417857440868681e-01 -1.170426554204737762e-02 7.483680815390053587e-02 -1.467907636707574681e-01 -7.226262517256563933e-02 -1.534415391257965000e-01 1.477531512423661542e-01 -9.474783763056551789e-02 -1.629117233566032830e-01 4.348515476403799762e-02 3.167664726211699006e-02 8.635314769387794414e-04 1.142964660664695792e-01 -1.385043160109191152e-01 2.417191391892469302e-02 -7.850490029455471641e-02 -1.262230220131435876e-01 1.495441791749813239e-02 -2.018490819495969424e-01 1.496486484518984306e-01 -1.794155808419555659e-02 -4.787035195118661407e-02 4.788735782564335769e-02 1.258899674874528474e-01 1.225942760125812575e-01 -1.315831966938383613e-01 4.989658158803455743e-03 -4.989335082022820778e-02 2.914891312325645911e-02 -1.165456273726728081e-01 2.036444881743293064e-02 -1.608731567089147496e-01 -1.345820593967267664e-01 -1.999567547944990781e-02 5.431028238569252098e-02 -1.516821486611435454e-01 -1.168864164654096899e-01 5.503149123031422785e-02 -6.214475174642750469e-03 4.850059292567958369e-02 1.465547709530460874e-01 -8.824101305230092063e-02 5.289577043205330453e-02 1.215811042153734367e-01 9.539427349860311878e-02 -8.835870050992246372e-02 1.699769677849016780e-01 1.616996079032938793e-01 1.877046378675366334e-02 -3.156993793042930929e-02 7.450613006781417469e-02 1.516185353976361450e-01 1.277945260705607433e-01 -1.510622097542926867e-01 -6.634679910502966349e-02 1.603920872835561950e-01 1.388833478251292643e-02 -1.138377018410324515e-01 -2.450321212102544999e-02 7.742010453967253236e-02 1.022612467378973822e-01 -6.738000968585258765e-02 5.774011438857746398e-02 4.228429257652787515e-02 -6.524092263218578443e-03 5.811246466499860042e-02 3.255237508437176797e-02 -7.734653227453644475e-02 -1.424148293087970085e-01 -9.013410230387833288e-02 -9.306978243528060690e-02 8.023846638707966827e-02 8.286853923660100762e-02 -1.264577034826037949e-01 -9.482692756655591859e-02 -1.008925057515886459e-01 1.789020165327310230e-01 1.033571204442043923e-01 1.054899189971214568e-01 6.043746872910608914e-02
9.101732006449325674e-02 -6.002366309579709042e-02 1.445422524399934405e-01 2.701028364701392459e-02 1.575387309006709771e-02 -5.071671375946191530e-03 1.400560929363809382e-01 -8.398918440560917964e-02 -2.043448121681681190e-02 -1.706095902545916865e-01 3.035339965798775075e-02 -6.568221868650157835e-02 1.717435720136782917e-01 4.272807343268197888e-02 -8.652669349363341367e-02 1.097305480969088844e-02 -1.505647321041570473e-02 -8.281083882952236519e-02 8.172995239713411186e-02 9.302096360724057544e-02 4.195425436944298647e-02 5.374157213922189924e-02 1.985385465886246523e-02 -3.724016201906062834e-02 -4.200376474964093859e-02 -1.901734453533302227e-01 1.253991985170085643e-01 6.416713077111298180e-02 1.938897436717410341e-02 -1.195851809437217528e-01 1.952983182106201587e-01 -6.069234012514202956e-03 1.264460954710788232e-01 7.613044538971266983e-02 7.833847270069828339e-02 3.312644114165755327e-02 1.684477116031724286e-01 3.237834797894002803e-02 -1.322772243413838644e-01 1.058965197053266527e-01 -7.120908517039808983e-02 -1.851452031685022759e-01 5.413668406102286473e-02 -1.509350121026207803e-01 -5.899207715403406715e-02 -1.642693814483333348e-01 1.805289194050400947e-02 1.783977051473220055e-01 7.597834216998200496e-02 1.028942891758642258e-01 3.318952169326304380e-02 1.123142590630399479e-01 1.448462488131613268e-01 -8.072120825721415538e-02 -9.097469361025595225e-02 -1.249713252601679647e-01 -8.772734586257099898e-02 7.855053393966024422e-02 -5.951898075582033598e-02 -5.292607649800746411e-02 -3.952039788631012129e-02 1.105057578286113562e-01 -1.274305663379275144e-01 1.588085662482656146e-01 -1.076442895365486291e-01 1.595342380771204438e-01 1.149754298340188302e-01 1.137970209435881230e-01 1.020703289585633139e-01 -6.935771313493190038e-02 7.509366057267444217e-02 3.727206264461452312e-02 1.997105071619679692e-02 1.885702553984088536e-01 -8.040721885968762916e-02 -8.764702076333859282e-02 1.645571535438308808e-02 1.231772309915848546e-01 8.219546203679909194e-03 4.098376885025750704e-02 -1.396703967471603081e-01 1.396454285550781660e-01 -8.921080282255837435e-02 4.178669450293588661e-02 -8.131336759829940752e-02 -1.432435306896225613e-01 2.644523780379207795e-02 7.308685356553390466e-02 7.044183279607874049e-02 1.092211367253717313e-01 -1.357088666216291033e-02 -7.849593484582741143e-02 -1.370983363263642840e-01 -1.449403933138852241e-01 -9.425818210017554433e-02 4.196113221846698577e-02 1.566846894036990900e-01 8.771420789261238915e-02 1.176155045975560698e-01 1.535746709409228743e-02
-9.931568930273772244e-02 1.665946305214790757e-01 -6.308685072754412204e-02 2.511002995080666503e-02 -1.526422280734208714e-01 -7.453712235757879723e-02 -1.434131669798029696e-01 1.071876690975308855e-01 5.736687139473480718e-02 8.104431837365927427e-02 -3.749126889209176972e-02 -1.493544775039707673e-01 1.024871622213392253e-03 -3.646416621451854800e-02 1.063407208256050007e-01 -1.584932572511646648e-03 1.079950644139418270e-01 -6.549545602098636940e-03 1.510544120989843475e-01 -1.282722933771661689e-01 5.821779128816837422e-03 9.774442786841720798e-02 -1.395656311478427614e-01 -1.439444314446771123e-01 -9.982629298953436467e-03 -9.622972462510109848e-02 9.068556593462749615e-02 -8.142071332760976443e-02 -1.037479293975159811e-01 3.419838719244003788e-04 2.250906686936150758e-03 -1.657901884667303816e-01 -1.785661884438780045e-02 -5.242732757328111975e-02 8.960197145766705951e-02 -7.725224290387464054e-02 -2.328136182896960865e-02 -1.585587039019401845e-01 -7.104988501712808380e-02 1.245644536404717923e-01 -6.477594851339842086e-02 -1.221112044442106415e-01 2.917895641707532114e-02 -1.116485111005050268e-01 -9.084100700711066068e-02 -1.281825157093801626e-01 5.002821839197749837e-02 -2.839868448111331281e-02 1.176514859403559599e-01 -6.963445955852275160e-02 1.548366585915456617e-01 -1.019667295320664246e-01 -1.370001407726481948e-02 7.814863787844741894e-02 -9.741020232609277907e-02 8.722342709701826069e-02 1.131678384241373847e-01 -1.476782346885225916e-01 -1.296870934330187665e-02 8.768559146912256741e-02 5.619908472208780953e-02 -3.547273596395140310e-02 1.252434169010260556e-01 -1.037726470323641209e-01 -6.852808508377292163e-02 1.088139654606060241e-01 1.468715202279154142e-01 6.341369779729442990e-02 1.488577660690058035e-01 1.347732758103481476e-01 -6.882354899527753922e-02 -1.168305516298466379e-01 1.278245190498955297e-01 1.658938661613555132e-01 8.038018972790005046e-02 2.184594307756499744e-03 1.061464243016200550e-02 3.431871720037031614e-02 -8.427936377105056664e-02 -6.451723459705085983e-02 -1.239157867583733780e-01 7.772834962741895226e-02 5.588298385251436878e-03 1.720586604040192091e-01 -1.265452574458391377e-01 2.927384470345804207e-02 1.666720024654200494e-01 -1.407610345951127162e-01 -1.436818360679790463e-01 5.218140306523300770e-02 7.230423728912903358e-02 1.364867550245771333e-01 9.593669773096880071e-02 -1.272295369981047142e-01 1.464992979197866363e-01 -5.315088859758964474e-02 -1.462615937890896778e-01 4.917710525563705887e-02 -3.371518000879067389e-02 -1.132479231180571477e-01
6.651035348819882287e-02 1.393666510318677665e-01 1.064798941464553117e-01 2.274838175979878446e-02 2.585373937661459079e-02 1.824883277120659675e-01 1.379549662415337496e-01 -4.513617970168357085e-02 1.008631074519403953e-01 -1.373702423341552348e-01 5.262800243495815988e-02 9.223711870770380516e-02 -4.303338005344567452e-02 -1.382106363516926728e-01 -1.767477340502947858e-01 -1.338170920772418504e-01 2.845739330184738139e-02 -1.294439315500282017e-01 2.003881440062569609e-03 4.886376044008872849e-02 -6.342665981122319607e-02 -8.157248432349947787e-02 -1.355907668616458950e-01 -5.332630728200044024e-02 5.074843941706631140e-02 -1.566047220075334478e-01 2.336933148219949574e-02 1.371636153793378832e-01 5.366473168674365524e-02 7.612198544157838809e-02 -7.569960282404210317e-02 -2.562400932040301629e-02 4.819431623354344940e-02 7.428999747158698819e-02 1.142490679605067012e-02 4.552300148808040292e-02 -1.313676104497664421e-01 -1.619856850069414378e-01 1.544981720145518350e-02 8.686941484706775518e-02 -1.399872238793455625e-01 1.303752892248103978e-01 -2.364217146613972753e-02 1.395538206357091193e-01 4.405337979088507633e-02 3.259167721338109697e-02 7.804515341226045400e-02 -2.458119505677242370e-02 -1.293546794526758970e-01 9.858828707991247609e-02 7.933819951066553577e-02 -1.091885353606878023e-01 9.218702421991081808e-02 4.492963892625508743e-02 1.121928846970542126e-01 -7.471050280893326567e-02 9.561187125675139897e-02 1.262822973761247580e-01 7.309842819996244245e-02 -6.600081870020023389e-02 1.246421800647760925e-01 -1.643705711176589035e-01 7.481757384983939163e-02 4.769447631917476949e-02 -1.359072664995033264e-01 2.354581441538316881e-03 -1.491752038999925867e-01 -1.342938192788164509e-01 -5.699865664561994116e-03 -1.101222121441384760e-01 8.920987803298341401e-02 1.487278309795040110e-01 -4.979196895113959659e-02 -1.097828223820661725e-01 -6.094215154899022130e-02 -8.308285884633170859e-02 8.459029636642992345e-02 9.888605168697406356e-02 1.096884702539989015e-01 3.581184092036934774e-02 -1.566805994232182142e-01 -6.164390247600499279e-02 -1.152811853114704133e-01 -1.339378964888883472e-01 4.718023126858705146e-02 -1.623798477943183272e-01 3.742904002343763747e-02 -8.177932599647519396e-02 -8.268447658745387008e-02 7.386927601070648886e-02 8.583648631592712130e-02 8.018831479557005093e-02 -1.626628356342022796e-01 -1.347101770177264735e-01 1.370228654120179412e-01 -6.042025399601061442e-02 9.331115444317412966e-02 -1.720359506884907852e-01 -1.108744052940198038e-01 -5.340009845299353852e-02
-1.116610075776141714e-01 -2.207011561974490249e-02 1.100280980018556592e-02 1.469367471329501851e-01 -1.136493728494041289e-01 1.565594223682280905e-01 -1.746965956578919871e-02 -1.792090929537619101e-02 -5.328493074694001796e-02 1.140606781600519426e-01 -3.974319095930737428e-02 -1.488199652292115753e-02 -1.585384785703216337e-01 9.897986817095860701e-03 6.488408929002846201e-03 1.219312960581091926e-01 -1.778651456194060843e-01 5.913770568389226101e-02 1.397808456287090162e-01 -4.686584023369718549e-02 -3.976123304700017458e-02 3.037821309568532191e-02 -4.044186909711407901e-02 9.732374814508967450e-03 1.427406243570089328e-01 -1.006029045709950914e-01 1.701863787124957283e-01 9.333320770642042352e-02 1.217909420603145026e-01 -5.636383602011895561e-02 1.854392489684179857e-01 -4.402453211069526362e-02 1.629066118090816417e-01 -1.809729522224221288e-01 -1.815558666935616350e-01 -8.791712603273320326e-02 1.394265770083116980e-02 1.032484803604844653e-01 1.162234832947014324e-01 9.620952151327542834e-03 -1.557178425312296111e-01 4.699027495091397111e-02 8.382214132172215171e-02 1.596553795815948418e-01 -4.563745812334402824e-02 1.782776050172325266e-01 2.124203041804818490e-02 1.007999119520266440e-01 1.890848386853302698e-02 -4.594508865172098645e-03 -7.745699806459636905e-02 5.739106291398932830e-02 1.096309272673537394e-01 -2.597592475257672756e-03 1.477455517733544943e-01 1.346501657070601765e-01 -6.203824488475291610e-02 1.103522476120205181e-01 1.576815251284255925e-01 1.186683330475832437e-01 5.309472796009433865e-02 -9.653661534827062685e-02 -1.464393470746432335e-01 1.521559366802765489e-01 -1.864819465690699674e-01 9.107128636767714003e-02 4.964240815192030865e-02 -7.181041246056814320e-02 1.647575494720197875e-01 -1.112660684027728074e-02 8.810607814890007716e-02 6.550712904802924452e-02 3.189579768323763664e-02 -7.029432379493454064e-02 4.243887998237105830e-02 2.895970149420485848e-02 -5.847364340128241578e-02 -3.893929370490489816e-02 1.445060526931518999e-02 4.314059750363644780e-02 -2.343899390636124472e-02 -9.920724608187168891e-02 -1.112357835388072397e-01 8.316593551132775430e-02 1.680432447349075320e-01 1.227296252141433092e-01 7.834998285075668589e-02 1.218024886704796063e-02 -8.226671997901487121e-02 1.365037749979383132e-02 -9.447858308106248104e-02 -2.429186929223399460e-02 -8.928548592658766547e-02 9.654928254132981447e-02 2.869142995363130680e-02 1.788218418238062546e-01 3.689072190252658950e-02 6.320284457236378939e-02 -1.554903856276257101e-01 -6.037921087559937339e-02
7.349146455802507694e-02 2.364358164376236318e-02 -1.489580046653793677e-01 2.455884108541484673e-02 -6.043435560802207923e-02 -4.421462553121109640e-02 -3.017975782944693972e-02 1.305845880295519457e-01 7.285361746209521872e-02 9.085864591521429501e-02 1.134411145619043243e-01 1.414350441419803539e-01 1.023542788384025071e-01 -1.412710636838874489e-01 1.604880966001221154e-01 1.282707480074894713e-01 -8.766831444149643382e-02 1.338125701682787438e-01 -1.928609889548429587e-02 3.162710587072973395e-02 1.856751483080694987e-01 4.381943883220752733e-02 1.543810818441216925e-01 1.283369897302864739e-03 1.129775405590487947e-01 -8.489349905373214100e-02 -7.617362783730902143e-02 -9.424991377656818936e-02 -1.645598595725637214e-01 3.079691544141939692e-03 1.526218541120428485e-01 -2.909672081080288616e-02 -1.427929134058824046e-01 1.736089032662538334e-02 1.422659339248440180e-01 9.440042527868386379e-02 8.273681587104503299e-02 -1.061591834165850068e-01 6.388972861555979044e-02 2.398877492358141017e-02 -1.133255170928125360e-01 1.481044207702964521e-01 -1.630511949019328721e-01 -4.163662105368580446e-02 9.508052020206776700e-02 2.856680368941968626e-02 -1.333793835242288173e-01 -4.908872637313780457e-02 1.319644434987152226e-01 -5.937816127432188340e-03 -4.484622263629200328e-02 -2.138046740626273895e-02 1.245867139635249421e-01 1.040344814764007642e-01 -6.066480447960506672e-02 -4.629383901337175838e-02 -7.298801400923286831e-02 -1.701074254798541630e-01 -1.177183875384136824e-01 1.023337195746036599e-01 1.545581725013776310e-02 -7.834679949627629258e-02 2.036289925554942912e-02 -1.464391712490723842e-02 -6.906360495988426995e-02 6.404477279607728724e-02 -6.206586016641200271e-02 -3.360023264589308539e-03 1.365600566609460054e-01 -2.235064091315674961e-02 1.229343861397686616e-01 1.729272575410534529e-01 -9.867707825812649380e-02 3.044735932425497726e-02 8.970900650859593706e-02 -5.064211530552515002e-03 9.151852937026914991e-02 -1.079395883776213955e-01 1.249262339908981806e-01 -2.604405621919536618e-02 1.049968877623853186e-01 8.893354053783857072e-02 3.428587876240243859e-02 9.761465936281034372e-02 -1.344629064129913842e-01 6.514040146388261343e-02 1.086488743021593734e-01 -4.027923168772027523e-02 -1.489994534569671625e-01 6.270695025543884804e-02 1.250438674511047676e-01 1.470103969434415347e-01 1.381811630093123522e-01 -4.974641241752745385e-02 -1.495416846870789851e-01 5.426411598585439977e-02 -1.278591437056173230e-01 1.571544903564975060e-01 -1.528343610345529735e-01 -8.142700912321795478e-03
-8.282512179723490464e-02 -6.475099159561399642e-02 1.517504159052419366e-01 -1.342879164829664795e-01 1.218016052108841368e-01 -5.404065565225241868e-02 1.427845136710979845e-01 -1.744720963069058481e-02 1.962851054764403261e-02 2.159748120941326621e-02 6.096561736040960466e-02 1.479743634450446932e-01 1.349449865311041219e-01 -1.652020457911187457e-01 -7.609407687629976547e-02 5.514698658711093653e-03 -2.934206186226325560e-03 1.353848046502352520e-01 -1.750391245556051634e-01 8.204775379226432463e-02 -9.663984229046408692e-02 1.087178543818625998e-01 -1.412844864581572213e-01 6.959397639721425118e-03 -3.155918378570764238e-02 -4.873075655236533410e-02 -1.572858484745496555e-01 -4.000702500766856184e-02 5.555363613381249926e-02 -1.153034193765049148e-01 2.525203272522805534e-02 -1.502338455629359526e-01 -8.999446915302053429e-02 -2.862894075920734485e-02 -1.479035313449701683e-02 7.238294456059767013e-02 2.237011357714960985e-02 -1.221862307458749519e-01 -1.424119919671789358e-01 -1.251980730904173611e-01 -9.766804880858322158e-02 8.744631463076514566e-02 1.202336213837625623e-01 1.478804180746438601e-01 9.778610476905698345e-02 4.516523812636655255e-02 -3.045266408253901116e-02 1.070899541473657179e-01 1.402800590873940767e-01 -1.243846879200603134e-01 -7.857715613777294106e-02 -1.426468251370376639e-01 -5.820156911706248631e-02 7.664965246249512421e-02 1.293057005540857174e-01 1.003666754073574419e-01 -2.692915567037138663e-02 1.430114097705288967e-01 -1.247330729113118597e-01 1.241692764958310657e-01 1.296148588386100975e-01 5.259172253984050610e-02 -1.215916055957889236e-01 -8.914766841896865079e-02 -3.728583878344230579e-02 -3.840796261721671212e-02 1.600759946976796910e-01 1.011369076207625228e-01 1.044153690332962070e-01 1.830602707498328596e-02 3.831212689885753891e-02 -1.497248447570288521e-01 -9.876730100952553493e-02 1.354491449054974761e-01 1.137073402534661409e-01 1.582025874680710251e-02 4.114558518957482647e-02 -1.048895178958116209e-01 -1.388930702984165766e-01 7.221498184798987030e-02 4.723860642742355731e-02 -1.206994642715974592e-01 -1.378474559446806746e-01 -1.035874409167287097e-01 -1.262787047327282863e-01 6.045684080453225806e-02 1.396479778580489162e-01 -5.229985143650008744e-02 9.948053858590918952e-02 -1.113128701277031340e-01 -1.143070250993283854e-01 2.609379862686852288e-03 -6.183349590813209257e-02 -9.078040088161636045e-02 -1.095674544289276797e-01 -1.075562277625412011e-01 9.768745465318935672e-02 -1.226060416773264508e-02 -9.065968173104152483e-02 -2.049788381667222784e-02
3.543016879767223876e-02 -6.648580384782652730e-02 1.266497435957846529e-01 3.978902287980043417e-02 -1.491293746126155784e-01 -1.490095811295171768e-01 -1.494540914376499552e-01 1.287628728293109259e-01 -1.700558561000811361e-04 -5.983640016365564251e-02 -1.532081414711507494e-01 -1.175647567616312922e-01 -5.696506360284233489e-02 -2.719078372734673801e-02 6.877381772556638573e-02 -1.387906824058656730e-01 -1.093639109748492100e-01 -7.145924946273730927e-02 1.660155212495069976e-01 1.518745887738841283e-01 -3.300701328725004491e-02 1.304765162967384817e-01 7.546779109232443217e-02 -3.943676564125590811e-02 3.805556008645454014e-02 -5.916363810786371552e-02 -5.763549444716460635e-02 -9.248811259231345949e-02 -9.222282403646769877e-02 -1.149863067538733387e-02 9.735014223116958409e-02 1.043017438553745652e-01 1.843363273006393965e-01 -1.748478849180708228e-01 -6.461314107921391214e-02 5.911968532982915048e-04 1.234668820567165898e-01 8.272176829897813499e-02 -1.043158852508884876e-01 8.231124791922693473e-02 -1.346402017878231550e-01 -6.405420197411945682e-02 8.353037971284654750e-02 -1.738502902249393078e-01 1.572952179850732601e-01 8.087358742532380074e-02 -3.860893092522961305e-03 6.941265208087152305e-02 5.595042623961853090e-02 -3.772164409055013545e-02 8.874028576152478975e-02 1.660660661061989785e-01 -7.842369336078322539e-02 -7.639832752393572839e-03 -1.069832851144545960e-01 -9.524554677031268901e-03 1.070937313469926162e-02 -1.337404149733970038e-01 -1.167209549323166007e-01 9.420770898780402719e-03 1.160100540299865146e-01 -1.813829388779918950e-01 8.609065449948456045e-03 -2.504925072560974450e-02 -1.378843572122163963e-01 -9.201805177580826833e-02 4.382103808783120724e-02 -2.565289481184649181e-02 1.297844595787115037e-02 1.216017924724078769e-01 1.327376147844678833e-01 1.473094689182071759e-01 -9.139333929826064240e-02 -6.804045133831805765e-03 -6.003485214321609099e-04 8.258628008450832891e-02 -1.207943119872762205e-01 -8.514378504942371473e-02 1.717877953885432185e-01 -7.431385536289397686e-02 9.294554524319442734e-02 -3.575608328226417810e-04 1.089484193351884095e-01 -3.748540968009894669e-02 -5.306436453660123842e-02 7.480163645976548037e-02 -1.604955819213003398e-01 5.426325326412510114e-02 -1.047192280463691283e-01 1.176336115108763541e-01 6.667996121338941318e-02 -1.279773086828473183e-01 6.311341471083972698e-02 -1.479393419968990653e-01 3.964519134362377850e-02 1.227910904343439275e-01 -1.593005334334167966e-01 1.169117414342678435e-01 2.749967631825998848e-02 4.083811450604800386e-02
1.382178662802162616e-01 1.046331461258256240e-01 1.566459036258852355e-01 1.182115608583216293e-01 -1.147830387162741134e-01 -1.212084292204397562e-01 -5.391182327384761580e-02 2.840817723626445565e-02 6.102878113337737581e-02 7.506179927126700735e-02 1.457149478766137929e-01 -5.530194719292894773e-02 -1.781661094444643156e-01 4.659084875443499085e-02 7.001244730875791356e-02 -8.257372171688011353e-02 3.240446062574594416e-02 -1.261526689842822346e-01 8.109735860609060265e-02 -6.510760641590657150e-02 -2.175726456921840690e-02 -1.040787603371167019e-01 -1.698796466697420626e-01 5.437626384048827727e-02 1.226851853282415333e-01 -9.553001056708793071e-02 9.554642476666604101e-02 1.355313161823793744e-01 5.817308588444071449e-02 1.875964325624890072e-01 -6.259974049651922945e-02 -1.291350082291743973e-01 -1.075184020964312093e-01 -3.963251712803707305e-02 1.135951797951292447e-01 -5.740209385066431802e-02 -1.099705896189126092e-01 -6.910903905730202135e-03 5.926825335183654592e-02 -1.630717444761138613e-01 1.834343626700561322e-02 -1.761666383747288178e-01 -1.243381851744770894e-01 1.502373204493259451e-01 1.396773245378408589e-03 2.207006078597584936e-02 -1.609018264010948218e-01 -4.368666741471386589e-02 1.229241729244693049e-01 9.820434884682595345e-02 1.184989960117960039e-01 -1.175181187176231878e-01 -1.366998688367071224e-01 1.568164261998997444e-01 -7.623072637459925305e-02 2.009579075294645745e-02 2.097040794688942791e-02 6.630977477571495075e-03 -2.823925195479999595e-02 1.209380338931635296e-01 3.543656864648542931e-02 -3.677960952222465718e-02 -1.105456706867821576e-01 7.100390642990632439e-02 -1.330605126588535470e-01 -1.611177319351298209e-01 5.000128147360508035e-02 1.147604744482168121e-01 7.836509405483338409e-02 -8.694728761554228191e-02 -8.236629555297637819e-04 -1.369138111858115292e-01 1.652629984256498152e-01 -9.520014973657207891e-02 -1.129744075173473583e-01 -1.112151411972353288e-01 4.728027817780756231e-02 -7.400297788364071198e-03 -8.433977631600285407e-02 -8.149818804993046173e-02 1.481433688781456648e-01 1.459483011820299492e-01 1.118033805074923476e-01 2.760683728591104696e-02 2.685159354540295196e-02 2.516748380979682773e-02 1.242243607485050416e-01 1.646193139080279477e-01 -7.743900254245431047e-02 -1.982766627319830586e-03 1.048150594909314642e-01 -8.496349643942177621e-02 -9.064154536288603070e-02 -1.286176870565530674e-03 -4.146009129177932045e-02 -4.712043840400072930e-02 3.117079035513364502e-02 7.451295767080836491e-03 -1.517962591804580472e-03 -1.567140445537633375e-01
-3.932934958857604336e-03 1.513424437894280716e-01 -1.540248613162105706e-01 -1.084866322931354460e-01 -3.929140269136754959e-02 -7.386291390352339725e-02 6.103629228433356257e-02 5.402701653959242345e-02 -1.760830266771492292e-01 9.408067698315575322e-02 -4.068444577097767197e-03 1.148470191735169038e-01 -1.343615608581589516e-01 3.170809344853075390e-02 -1.627710274027109605e-01 -8.363694754404833731e-02 -9.758912804197174273e-02 3.172765166902535849e-02 5.327051674144399340e-02 1.040181408570301641e-01 1.537888647584291849e-02 1.508780335482366175e-01 -4.830897825436151517e-03 1.071126353357867156e-01 1.787954707097282603e-01 -4.411795129368273338e-02 6.033261905680337156e-02 -2.496559998633157001e-02 -1.938134598001250708e-01 -1.249412589705661270e-01 1.709632187833611539e-01 9.557629196479028311e-02 -8.153900977068537226e-02 -8.567119169176631854e-02 -1.540427495159395199e-01 1.184329075276899096e-01 4.137152457693296648e-02 -1.473599444504349598e-01 -2.001318881287597329e-01 7.250533554825078220e-02 -6.523621837401624712e-02 5.270920735785601663e-02 -7.541454336637955745e-03 9.773480236793166687e-02 1.539587002551973949e-01 2.783470128160763640e-02 -1.934523794410526742e-02 1.145171029271953474e-02 -1.092009400402895736e-01 8.862756891065035059e-02 1.102389908039407562e-01 1.357515832826300117e-01 -4.478122446282095659e-02 1.117135397607247477e-01 -1.382698314292019892e-01 -8.265098670723475260e-02 3.947896632838295006e-02 -5.414687885842956599e-02 5.531253321791410743e-02 -1.691099233438020100e-01 6.672001194577519001e-02 4.894360577760527298e-02 -2.673294187595023907e-02 -3.897845186525247113e-02 -1.057866300029394746e-01 1.620893380808445805e-01 7.319023453531488255e-02 1.135750397647757454e-01 1.338574506769698580e-01 -1.268322468360245092e-01 -3.877984489470966134e-02 -4.747682441472270837e-02 -1.262732683297529412e-01 4.682784085208931829e-02 -4.576708543188474920e-02 -7.103497097164646057e-02 -6.539536533207369884e-02 1.468295651202614627e-01 -1.012341951034267801e-01 -9.663459854753742723e-03 9.029466291848901871e-02 -9.655793814595389768e-02 -6.233134572396964446e-02 2.658508612677980623e-02 9.775310133594673767e-02 -9.549080974613184669e-02 -1.323665610828607120e-01 -1.563669904376226993e-01 -7.914495427061418731e-02 -1.120367852028612554e-01 1.631854351424809890e-01 -1.181609845728325003e-01 -2.583102870229152595e-02 -6.441558007332216784e-02 -5.118211701564170241e-02 -7.579563177979235788e-02 -2.475745806230139276e-02 6.024059166155713158e-02 -1.128548477758606478e-01 -9.264138356111634165e-02
-5.472714165030279770e-02 8.576843443272644252e-02 -6.814146728426953017e-05 7.094621167035956855e-02 1.260746075654158860e-01 -8.108885030854066922e-02 -1.305667815539697518e-01 -1.200591932018168773e-01 1.236457258203347252e-02 -1.248860944199287060e-01 1.305545804033638457e-01 -1.785810369964680247e-02 -9.054911927128890536e-02 8.609938208853043506e-02 -3.259105951073268392e-02 -1.316668732859241908e-01 -9.582317292569973721e-02 -1.617263328035781766e-01 3.468102519162640646e-02 1.093028561999067061e-01 1.192157962743006644e-01 -1.042560847692664966e-01 9.053681390473811152e-02 2.192432281559882762e-02 4.410249422800964492e-02 -1.570298602032773050e-01 -1.005574926059459029e-02 -1.022677491004338052e-01 1.412047898502940269e-01 -1.403332379171207678e-01 4.386323001582501102e-02 9.426620685279338274e-02 1.199699993258654257e-01 -3.686577910921166098e-04 3.573345679518838414e-02 -1.922177915191188415e-03 1.040477834285493952e-01 -1.304497284148038450e-01 -8.933024766140693074e-02 -1.114989170320429268e-01 1.550637088784553308e-01 -2.576471233480248473e-03 -6.815745936592894350e-02 -9.067835912745994542e-02 -8.927407302191033012e-02 7.377930099560248145e-02 -1.102020601287166945e-01 3.826557659184077337e-02 -1.126718713348200673e-01 4.470458217812162127e-02 -4.320984238077407030e-02 -8.756130323837038598e-02 1.327721395202496879e-01 1.543546233551487679e-01 -3.011320722646746578e-02 1.569590515893394822e-01 1.408054798524317058e-02 -9.386268325657698419e-02 -5.786234787124151790e-02 -5.724282484787460157e-02 1.543319953112410048e-01 1.056339788048403228e-01 5.485960012604002706e-02 7.794013848252305011e-03 1.671815620825986559e-01 -4.506971680263650165e-02 1.540587107165451164e-01 1.606972804729467352e-01 1.033030262244785252e-01 -4.494347253838847089e-02 -9.152455200770462374e-02 3.921461385281853340e-02 -1.720003202542408904e-01 9.057013670328374622e-02 8.640070808663755098e-02 -8.001678228268097048e-02 -5.986179961506256364e-02 -1.189077324110120008e-02 1.516481719183117582e-01 4.881376392355591537e-02 -1.215282848074021732e-01 1.470021180503834346e-01 -9.733622568570378386e-02 3.936468413086054857e-02 -1.581863253057954055e-01 1.594076165657825894e-01 6.627128540831276823e-03 -1.390332194507651331e-02 -1.530770272165105084e-01 1.145867579198267261e-01 -1.597104888354244356e-01 8.247947136540292878e-02 -1.221543756617253090e-01 8.202974692133585544e-02 1.248048362736458861e-01 1.032776181952165390e-01 5.092723813558235058e-02 1.351970778326708478e-01 -4.230842187316883468e-02 2.296164026871988506e-02
8.554840860939288971e-02 1.103288122446338393e-01 1.470778366736190390e-01 5.383782854349471875e-02 -1.846930912775837375e-01 4.763247775619468966e-02 -8.523131681413126381e-02 1.202004946482362474e-01 1.243871714314929641e-02 -5.326015089654347057e-02 -1.729946111083831839e-01 3.395112290570044544e-02 9.513377719401798494e-02 1.282985175340943529e-01 1.257631928465092856e-02 1.273491903410548243e-01 7.952666992079095165e-02 2.443745618035700687e-02 -6.448109830105554219e-02 -1.448799936633781427e-01 -1.341900684255059595e-01 1.424318829948272025e-01 -1.402135768929367310e-01 -1.280146175706818323e-01 -6.157150960067724055e-02 1.020274418310149617e-01 -1.359077666543093421e-01 1.079380428469084163e-01 -5.387045858592280634e-03 3.185340830291006481e-02 -1.676332707027874958e-01 -5.921533789636688333e-02 1.216447140833874507e-01 4.750809012003405496e-02 6.596702436782490853e-02 1.241473199277926681e-01 3.381398691668317108e-02 1.729982035306761312e-01 -4.724780102613818783e-02 -2.844012497383335142e-02 -6.303884201181490787e-02 -8.306054975126685169e-02 -2.393669069902001033e-03 1.043987510016727155e-01 -1.516943242307179085e-01 -1.400097177519148486e-02 -5.421695683557530010e-02 1.690766787329789356e-01 -5.777551718166327316e-02 -1.258344574685400508e-01 -9.475805393136994825e-02 -1.437753912240992415e-01 -9.368436761787463096e-02 7.329165230552454890e-02 1.795885150196663838e-01 -1.547334818437400006e-01 -7.932774337275386167e-02 1.136902059301466983e-01 1.101647134574532116e-02 8.526586413627154637e-02 7.921278962609247520e-02 1.058728549436566690e-01 -8.574074308556864366e-02 2.205639715889435529e-03 -5.777324559847377139e-02 -5.981828368583443772e-02 5.637712015009938016e-02 -2.101511904174260814e-02 1.541783926762810286e-01 -1.227221134740485442e-01 -1.241270833012075303e-01 -7.100702709849709970e-02 1.261300688896560829e-01 4.138513343791402899e-02 3.254551935215170555e-02 8.155793262903731494e-03 1.725832564163245486e-01 1.485812640924933856e-02 6.272373066064244884e-02 1.136769497101233900e-01 4.734430487151184558e-02 8.857930752997300594e-02 1.105825419304317381e-01 -4.951856096009103585e-03 1.623292462228675126e-01 1.873547415052935136e-02 1.067434865911863900e-01 3.746830328660716997e-02 -6.303076496648739313e-02 9.093036065429675741e-02 4.045822866918472038e-02 4.893450792618947442e-02 1.783865349066716122e-01 -1.042361635107539181e-01 1.513703554072575071e-02 -9.417914877869207335e-02 1.389315051934219281e-01 8.017376467391229555e-02 -2.362462111200865078e-02 -1.699135042326021250e-01
4.059442484174887594e-02 -5.683041508766081829e-02 -1.474649583198145777e-02 1.456312658340580823e-01 7.080337610801813730e-02 6.753387393358328827e-02 1.180205641284469420e-01 1.044810639320693513e-01 -6.992298204768052083e-02 4.188519798263111438e-02 -2.074401250774864439e-02 6.132872382239489689e-02 -9.345600796978738301e-02 1.005465744048289339e-01 -5.742510632811342539e-04 -1.028272102338849692e-01 1.558805515391609997e-01 -1.409417592949333553e-01 -8.872057553593513946e-02 -1.365342301765039845e-01 3.538151086771214315e-02 -1.666680510784981917e-01 -1.920885292383308074e-01 -7.673974694748221526e-02 -1.421751617715440175e-01 -1.432556825743783180e-01 6.802064354057529849e-03 -2.806842204873022037e-02 6.889897293420375879e-02 -8.290631055011950246e-02 -3.555376204780872490e-02 -1.242960288519836913e-02 3.092301219969190509e-02 1.081951648917294645e-01 4.465038967914805590e-02 -1.910317245698256172e-01 1.118451204296128515e-01 -1.503008880964274985e-01 -1.345400872277681577e-02 -1.248375549651812716e-01 3.538585290485982138e-02 -5.805078551325486974e-02 -7.232672146675984959e-02 -2.531004160369393352e-02 1.697567948717543240e-02 -1.343004257869494511e-01 -2.186947475926840495e-02 1.576324621916677382e-01 -5.640420529878310135e-02 3.443842838531008255e-02 6.388003018438795366e-02 1.729788746063848082e-01 7.051346479789596944e-02 -1.425322409784353372e-01 2.987780383478300106e-02 1.554437299040886955e-01 -1.738412853257576829e-01 -4.264200974635753982e-02 8.333015304270974255e-02 1.311484425258950259e-01 -6.106866290907147360e-02 9.485235664105927389e-02 1.285225317103697307e-01 -1.593742445867370461e-01 -7.972279173718600787e-02 -5.945333792396106931e-02 5.788276813858959924e-02 1.661365260763245089e-01 3.121304427778732321e-02 3.791915635326387202e-02 1.623624088497974127e-01 -8.739913171857202623e-02 -1.864445099943089212e-02 8.368317946241710104e-02 2.281619553995898469e-02 -1.345847585653338896e-01 1.034960024428102643e-01 1.483340135938490331e-02 -1.558284738930620084e-01 -2.820560367722800554e-02 1.087421410049171921e-01 2.182047956098783978e-02 -1.488922972983378334e-01 1.107783225721036408e-01 1.570061414574241698e-01 -1.459562535210275902e-01 4.885696823416450785e-02 -1.409750257304510923e-01 -1.037738300257426971e-01 -2.385539599475416245e-03 3.797512307705685434e-03 5.181448911188328565e-02 9.561328832447781034e-02 -9.441217005377557092e-02 -1.309603831089515280e-01 -8.239330607269750029e-02 -8.897220707842168341e-02 3.657100199952269259e-02 -4.444690391530242701e-02 1.591231799694101945e-01
-1.060861396491243058e-01 9.439732701659468705e-02 1.445403730753735960e-01 -1.865720571280331253e-01 2.583206058410250985e-02 -5.239183732770440888e-02 8.900101226509657404e-02 -4.244533881384793955e-02 1.373055329814620029e-01 -1.414622216213194845e-02 1.044597239803304045e-01 -8.497080072226355363e-02 3.768758975316299081e-02 -1.353533239498149188e-01 2.230116631176543712e-02 3.382845074825738263e-02 -7.144439695529847256e-02 -1.520930687818156102e-01 2.691708203399945099e-02 1.061639476941686061e-01 5.718549329076903082e-02 -1.542464664386025974e-01 -6.950455140886671601e-02 -8.300110342084622561e-02 1.306171353752431930e-01 -4.497947015979030655e-02 -1.829815906699217010e-01 -1.277431727029803843e-01 1.142176573917962068e-01 7.719290407945808563e-02 -8.174582642657887699e-02 8.621841994734642800e-02 -1.696074970655219935e-02 -1.809688261871635756e-02 8.283207052915347868e-02 1.135658659717443258e-01 -9.865445677638036426e-02 1.653516160132355028e-01 3.614315032203457151e-02 1.403398797990935143e-01 2.312941869616403148e-02 -1.081197063548205994e-01 -1.244631809972896047e-01 5.156059682594987814e-02 2.224573532412157592e-02 1.797683436867755780e-01 1.512367746924294654e-01 -1.521613161921168134e-01 -8.441760566074603400e-02 -1.021464326745446655e-01 -5.168869024530090700e-02 1.170254890468977044e-01 -1.445999871586935992e-01 6.312084587836089278e-02 -5.088993430038637328e-02 1.744076119375939302e-02 8.929065591820890824e-02 7.544381942021979870e-02 1.306063270893531580e-01 1.231388703711013000e-03 -3.661213084618583635e-02 -1.407317743985491143e-01 -1.011980041555499976e-01 1.569334360547502139e-01 1.123267647368230288e-01 -9.350907799507474083e-02 -1.032437874743273032e-01 1.482045099410247146e-01 4.238376765305183064e-02 4.243575419086222794e-02 -4.065253723768185584e-02 7.167401932884999438e-02 2.205216017639975365e-02 2.586547639365636281e-02 -1.268974576660415465e-01 -9.255428453436302660e-02 4.052085938356188299e-02 8.768733641269094159e-02 1.516792064677686958e-01 2.755693681720289626e-02 1.185830414474728506e-01 -9.101790674576200335e-02 8.942705052780751396e-02 -9.941926386593417236e-03 -1.157078462274230973e-01 -3.102266352530720639e-02 -1.730661826729963937e-01 -9.668612518645543219e-02 -1.459851678646422249e-02 -1.291531831929562113e-01 -3.982157724903666318e-02 -1.494147311058308114e-01 1.138497329687938459e-01 6.451982084936365436e-02 8.718826184467898255e-02 -6.302423222681337311e-02 7.689046268377221216e-02 1.722416437958704805e-01 -1.612508608970051119e-02 -1.502322297066944479e-01
2.635069696058885136e-02 1.306214363911217813e-01 -8.393396838721496611e-02 -2.386355817524589071e-02 -1.659725071755514536e-01 1.054709187220051192e-01 7.805778666715668113e-02 -1.051572451617622667e-01 1.595661868969486530e-01 -3.144135610546908849e-02 -4.586112095690265955e-02 1.587939188488994569e-02 8.898822950880215521e-02 -5.194542398606217387e-02 7.218221169806249282e-02 -9.526345634145783059e-02 5.979368148058870902e-02 1.443611824314239289e-01 1.831254619400558142e-02 -2.964280460497947800e-02 4.562908484819184346e-02 -1.541730042108027388e-01 -1.914119410063361282e-02 -1.723886903806005899e-01 1.347755731959150993e-01 -5.326413516496288775e-03 -1.468931323268127531e-01 2.379201813928953982e-02 -4.178150472326572912e-02 -9.829465237552216517e-02 1.592101441592026212e-01 -9.020178619590604741e-02 -2.510788334438018160e-02 -4.425869726177680819e-02 5.793405210563124658e-02 2.885883118330410252e-02 1.426739695488417337e-01 -1.415302841971855137e-02 1.425912687010649493e-01 1.388163612052560336e-01 1.189115963631149631e-01 -4.098217869104205102e-02 1.728003176655470430e-01 4.471894366548077177e-03 -9.157941404242524175e-02 -6.231353106221084598e-02 -1.033675466082289648e-02 7.071778217525986898e-02 -1.433807246448831896e-01 -1.227539586287261647e-01 -6.773425748577860395e-02 -1.621165539219366070e-01 5.836312415523681185e-02 -2.452763737102608629e-02 -4.406420054618317983e-02 -7.274768649245449970e-02 3.744261024247548530e-02 4.853857877401626664e-02 -2.333681505970074815e-02 -1.428045639500077624e-01 -9.488798730046543728e-03 -1.008435033374870948e-01 1.197405344418005918e-02 1.323024176876390068e-01 -3.741600997988435429e-02 8.170474078360107084e-02 1.195990597920401355e-01 -1.429034280946539504e-01 -6.969277709950235170e-03 1.090938113304096568e-01 1.499625066914494209e-01 -1.658084007004423099e-01 2.732963311021091926e-02 -8.865946889898267125e-02 1.135322842777471697e-01 9.315058819682585367e-02 -1.530084409631760345e-01 -1.279514745135575983e-02 3.003903137859336575e-02 -1.341529821130455803e-02 3.346085685345649013e-02 1.387983940696015939e-01 2.330917709249176115e-02 1.306803696919003055e-01 -5.329297356671569563e-02 -8.000437280674445317e-02 -6.425732934117016348e-02 1.051623650589569997e-01 -1.641390632061296428e-01 1.756588866005132366e-01 -1.042009058812257555e-01 5.519790810713949558e-02 1.445997384668529229e-01 -1.165736702327132696e-01 1.742001862208209240e-01 1.701790117127608137e-01 6.796342842686542429e-02 -4.205312868657398728e-02 -1.502501188498440166e-01 1.465726551899540486e-01
1.694540661262739778e-01 1.520198472375671184e-01 3.254810556961016538e-02 4.776416063429269471e-02 -1.281235844856009332e-01 1.102725183563830064e-01 -5.031751577430480793e-02 -7.771167521205940565e-02 -1.090466134866478060e-01 1.329235307528272847e-01 7.979049270251081794e-02 -8.239895294555607541e-02 -2.170097534037060058e-02 1.430177899255785645e-01 3.135393189640993655e-03 -3.464097526130426735e-02 5.411095635799834103e-02 -1.445334417926161796e-01 -3.325084460237414004e-03 -1.482678707197413182e-01 2.991713550257606852e-02 1.518978171791985354e-01 -1.549869003884215835e-01 1.239623179960768901e-01 1.277370583695416062e-01 -4.889251552874220724e-02 -1.441832499710410109e-01 -1.940921288150352503e-02 1.138846913649134707e-01 5.820537521776403267e-02 -1.368642686635463401e-01 1.032565358322619087e-01 1.264941796469523372e-01 -1.945578924301288523e-02 8.547625947149523409e-03 -2.380257479225075454e-02 -4.000229365977129442e-02 -1.320214176629410374e-01 8.492363819013301618e-02 8.376053022916765678e-02 1.555097422931332185e-01 6.240742257044071435e-03 -2.267267452380637704e-02 7.663811660952257743e-03 1.341555048476857082e-01 5.202152744991310647e-03 -1.525507514256022601e-01 4.155122595706525757e-02 4.974802723703462132e-03 2.180130893406800885e-02 -1.545539983470816392e-01 1.205416665432751042e-02 -2.866093106572297541e-03 -1.275271403961424910e-01 6.572188000160435195e-02 4.676090850006335564e-02 1.461832445131971414e-01 7.888696749205832692e-02 3.520243269101983041e-02 1.715029649895601083e-01 1.653033777814941763e-01 1.227719808722014666e-01 -8.243434762140686156e-02 -1.317008814966937839e-03 -2.525594212493069944e-03 -7.282104269118616635e-02 -1.465669774420257365e-01 -2.711195866762788724e-03 5.108629174766472769e-02 1.768468867734957761e-01 -7.182688220129690437e-02 1.574271611248842795e-01 1.471679750276683463e-01 -1.052005110879974774e-02 -1.273353429426304362e-01 -9.578609700976795094e-02 1.475853213330064750e-01 1.078995131631143439e-01 1.093905162093518763e-01 -2.497441557448657617e-02 1.495752496115688168e-01 6.631201685350457398e-02 5.422829716826408492e-02 -1.231283501903884942e-01 1.089543874719925837e-01 1.396547587083970809e-01 -3.950060144353020192e-02 -5.322222012748403092e-02 -1.315554870861993242e-01 -3.190596830688578051e-02 7.825334138700171249e-02 -1.533821140626056290e-01 1.008369476672518056e-02 1.202360419285837534e-01 -5.550254970071379079e-02 5.327104353005287368e-02 1.168504210874816637e-02 -1.569356085067993845e-01 -3.283755598947005888e-02 -1.283319198586035659e-01
-4.205483319844172119e-02 1.900625257108407712e-02 8.405261199383914916e-02 1.174103355793244541e-01 1.036700868932337594e-01 1.098755155328549060e-01 7.518755795000739428e-02 -7.255214491676481928e-03 8.243862156652828621e-02 1.160917337449606096e-01 1.585211903385450871e-01 5.094880622600438114e-02 3.754424301066477260e-02 -1.037543526725517862e-01 2.906944210108481155e-02 -5.024512871670214383e-03 2.673127191915641854e-02 1.243758996168525949e-01 -1.002467901900413044e-01 -7.847432224213751750e-02 -8.257548696848828612e-03 6.721165825320418730e-02 2.880890594204416760e-02 1.469639355501655698e-01 1.346728063805542053e-01 1.521103822416720701e-02 -7.879336642962037063e-02 3.096952956866928786e-02 4.000655219951138562e-03 -1.110972827299947507e-01 -1.589662102324460036e-01 -1.504053365775321616e-01 -4.165122573082640639e-02 -9.529305977635285640e-02 8.328052625238470397e-02 6.505870925488564660e-02 -1.295720679683726728e-01 6.417543551177697092e-02 -7.404053489683018463e-02 -3.210549927904426948e-02 9.237352128515964600e-02 5.184471942141585799e-02 1.570389585014665690e-01 1.270401763117499916e-01 -1.440850561753671821e-01 -9.868069712811454453e-02 6.580816055710286827e-02 1.615645718570015571e-02 -2.056485869191165480e-02 1.595112431127188313e-01 -1.408082665793793098e-01 -1.303794736851366376e-01 -1.103349515211357046e-01 -6.818608069050816067e-02 1.614585030414013578e-01 -1.471323454614748352e-02 -1.533178440924597707e-01 6.425267618891633559e-02 -3.804277995422210984e-02 -1.458775781467893384e-01 6.028911628874255441e-02 1.428334202204768200e-01 -1.453584150281700127e-01 7.477350478255023747e-02 -1.663535292195392548e-02 7.334656665170420642e-02 9.435679139049887865e-02 8.052960822871273183e-02 1.198927825225424293e-01 2.357395130164145064e-02 9.047324779126433847e-02 -2.133737467988489761e-02 1.777208180818463934e-01 2.037711798547360825e-03 -1.565319368332457328e-01 6.499027304086064938e-02 -1.619307126678516118e-01 -1.594889753958169398e-01 1.622217090520631233e-01 7.427687438281843635e-02 -1.247865359052542783e-01 1.890234511659110439e-01 1.329850417103941584e-01 1.170099746859445539e-01 -1.580125900969496164e-02 8.737659123691354779e-02 6.489549466427688151e-02 -2.454371520766113896e-02 1.134983847343038060e-01 1.080472625667654313e-01 7.731091372697788955e-02 1.100871498089239925e-01 1.231324357348955074e-02 -8.324189783722638070e-02 -1.355133265021732647e-01 6.602341005663549256e-02 1.262085600975242916e-01 1.224218210820368913e-01 1.014448874013114815e-01 -3.693487567875750055e-02
1.182996932278834040e-01 2.343856468922844022e-02 4.048666942764109211e-02 5.827754544736329229e-02 -1.335099908178211392e-01 7.129485158653951771e-02 -1.529956880065904412e-01 -9.363180385977953879e-02 -7.090553060517953976e-02 -1.542388915630666102e-01 -1.564999849761563033e-01 -5.992741342452567038e-02 2.587245533836915815e-02 7.587995697414801066e-02 9.354249849441633596e-03 7.310258516782804084e-02 7.423535178503817833e-02 1.456865628081418021e-02 1.062263682687122762e-01 -2.084757992924745826e-02 1.025554849753712305e-01 -1.559189923670601108e-01 -1.325227838763748944e-01 -8.516886622702159182e-02 9.914275110350954934e-02 1.553669833888116601e-02 3.202105004359204199e-02 1.350643121560363147e-01 -1.634965649154454526e-01 2.333594354782011701e-02 -6.206443539651813196e-02 1.000916394728332826e-01 4.160774990389740774e-02 2.490122318848984970e-03 2.907563373944123397e-02 8.665739723341375766e-02 -1.452983791719929807e-01 -1.123219521894530948e-01 -6.061884247464521119e-02 1.371364591422196966e-01 -1.209753269412317672e-01 -1.416205896073599591e-01 -9.219604714089572883e-02 -7.230275929475789287e-02 8.751264107616477106e-02 -1.349789011146634299e-01 -1.498179877072647603e-01 -1.130233887133147708e-01 1.204329297288167233e-01 -7.658781200633328623e-02 8.480858802436597177e-02 1.255901662818568465e-01 2.152428107939676621e-02 -9.492881911736815448e-02 -6.691173129028436806e-02 7.116817395626101606e-02 1.201981022795682585e-01 1.049252870459903703e-01 -8.057287339034159253e-04 6.941004205398593196e-02 -1.405211671193222767e-01 9.278690532547509418e-02 -7.740304301331461800e-02 4.706853911428490050e-02 8.791817022852824182e-02 -7.324860307996673703e-02 -1.244926164706003091e-01 1.261376024343098534e-01 2.549030736850672885e-02 6.751555401264887346e-02 1.692597731369138367e-02 1.561024029921817824e-01 -1.569579025440268755e-02 -6.898124055614401895e-02 -9.721844782346628078e-02 1.228041706858539611e-01 -1.531994254645800690e-01 1.272858123474357624e-02 5.279733608655092642e-02 1.195154160617234451e-01 1.008530992103427448e-01 -3.304064038407590609e-02 -1.352247554739306468e-01 -1.494469513226809876e-01 -4.739392603708756854e-03 1.551627579571693283e-01 -1.577092908026800633e-01 1.135172245208988101e-01 4.219770993601215658e-02 1.237191319696082231e-01 -3.633074780816777927e-02 -1.662160901920649303e-01 -1.511864466684551822e-01 1.099764140284031633e-01 4.123027797670365119e-02 -1.715851716019566320e-01 5.637004020914459373e-02 6.508177469679315985e-02 -1.439845608113664022e-01 7.335205228707188108e-02
-1.991573449076400673e-02 -1.550316775651550127e-01 -7.807137243935981241e-02 1.869581883239911091e-01 1.243557327800977746e-01 -1.225389570158343239e-01 9.252738131222809637e-02 -3.185060516226607963e-02 -5.432323165003494214e-02 1.171830539202493165e-01 -3.338818069785697701e-02 -9.910518624329860138e-02 5.820713263131308685e-02 -1.381863443234099438e-02 2.528479842633405555e-02 -1.749599043227782480e-01 -5.098678570825709161e-02 1.742112742064864661e-01 1.501508495531440890e-01 -1.768370034306498695e-01 1.735574360186930010e-01 -1.338475168740884957e-01 2.639067801929992005e-02 -3.493661797037528327e-02 1.298221952526059930e-01 -1.066749678184423789e-01 1.343366924962608178e-01 -3.022621222210224862e-02 -4.049175023483741337e-02 9.321049733565091311e-02 -7.683410171271996825e-02 1.187005832832186691e-01 1.126779009622980443e-01 1.783247937791080512e-02 1.042915519636890137e-01 1.151428868707388420e-01 3.791610893725035070e-02 1.504924076061392169e-01 8.450376010221867518e-02 8.211236326584721301e-02 1.445932841782524569e-01 1.107374450947433003e-01 -9.936268769936944245e-02 -1.144977922384191049e-01 -2.229208447474582272e-02 3.817667876801365823e-02 -1.280424149648409227e-01 2.031393851654554258e-02 -3.680685971528130374e-02 -1.751530351971501698e-01 -1.218543431695053997e-01 2.534186369732464167e-02 6.973746574016700950e-02 -9.532426161679993792e-02 1.707723080582202180e-01 8.795554388660219158e-02 -1.597323737831769785e-01 3.657309240630277763e-02 -9.022660734952235584e-02 4.971373121157587286e-04 -1.056583700042163371e-01 -1.033624218921731647e-01 -1.162725261078197542e-01 -2.416677361552966100e-02 -4.354389446208535575e-02 -9.924900920664288251e-02 4.920231653942206546e-02 -3.580971018444478737e-02 -1.546444196999130494e-01 -2.996148903026616545e-02 -5.595923823799425767e-02 1.050174180080076514e-01 -2.391937270173020297e-02 3.785445204195087010e-02 -2.031198381514747187e-01 1.031644647040015628e-01 3.228629152394213442e-02 -1.585298762632514347e-01 1.138464644763667044e-01 -2.364455371971773551e-02 3.351571880141648169e-02 1.462180098668552745e-02 4.953301884869533434e-02 1.338779328324501416e-01 -5.013002028131552379e-02 -4.473842168635907418e-02 -7.187437347269529098e-02 4.631325964763107449e-03 1.125030923523669471e-02 7.077818099478973279e-02 -8.290665503560304406e-02 -6.918906643952009439e-02 -6.249676093907936825e-02 1.663397384413297930e-01 1.124286963560195141e-01 -1.851411042975193155e-01 1.193110882852250337e-01 -4.706642258903810661e-02 8.268882416592138185e-02 2.039869043166446516e-02
1.134396982971923595e-01 -5.342407580207650386e-02 -2.558880775937922430e-02 -5.234055362658784905e-02 3.882047856830434657e-02 1.657995620087080180e-01 -1.577974521035831745e-01 -4.583276961274970751e-02 -4.894240723816064599e-03 -6.626829424941760305e-02 2.488035923089631021e-02 3.999154659304741261e-02 -1.726307951750697955e-01 1.215511038293714680e-01 1.235259209757185450e-01 -8.979903466486288677e-02 -7.288367215382739184e-02 1.720876107672073829e-01 -8.686873353536041231e-02 1.484025824553043479e-02 1.869166960328173532e-01 1.655260476085144428e-01 -4.765644760004142388e-02 1.139612931388091083e-01 -1.416051787962560871e-01 2.127147443185096326e-02 1.514239551368690151e-01 9.982931660603470980e-02 -1.043890198914226158e-01 7.106625278904515897e-02 4.304528329934804477e-03 9.922535718632935486e-02 6.060552616526064876e-03 -8.842674244338599721e-02 -1.102393804826277829e-01 7.442739881557516868e-02 -1.029868489517699048e-01 -2.135732152979588627e-02 -1.741389598199845901e-01 1.187940736731616376e-01 1.350945785983032610e-01 1.880091554255113387e-02 -4.086564044593934963e-02 3.164029858812084789e-02 1.489113969488874145e-01 -1.068386079565433189e-01 9.265407822417788541e-02 -4.860811523591679340e-02 -1.591363323155453591e-01 1.760772324774552422e-01 -4.429978697848519636e-02 6.657250942517579928e-02 1.825543860382808914e-01 3.363012314462503205e-02 -2.292442255789840441e-02 -3.683374292885958218e-02 -1.209422018121084352e-01 1.914946051370018665e-01 1.482523300919008080e-01 -1.314670470064645547e-01 -3.048070127888156608e-02 5.625159660245190874e-02 3.867585703510997147e-02 4.705159225575256815e-02 -1.732167344287396105e-01 2.075133284460704483e-02 -2.887141231130452637e-02 1.457724032483636578e-01 -1.092493788796260884e-01 -1.177099409577634787e-01 4.133802468423547483e-02 -1.575571954487271498e-01 -3.919366849698573824e-02 -7.270942290471082807e-03 4.602150123531591197e-02 -2.690916288756679473e-02 2.352271423349601431e-02 -1.710030651479802280e-02 1.506443680068812740e-01 -2.569330755856520307e-02 -1.760476759889808285e-01 5.284091551122351710e-02 9.953886425391342274e-03 -3.087078062125535663e-02 1.386309989764543671e-01 -1.039017403361602448e-01 3.094107069280919650e-02 5.796024692848856727e-03 -1.360613705805121254e-01 1.150632485028905416e-01 -5.729512482004572513e-03 1.392168371453931242e-01 1.154967526670028499e-01 -7.362192871098173497e-02 9.297235059485393915e-02 2.638137158037008601e-02 1.512116569216601092e-01 -1.987288878428349753e-02 -6.899547898612558294e-03 6.843776758941515215e-02
1.187002549182195228e-02 1.406302521216554365e-02 -5.565797907994977922e-02 -1.734873322892435676e-01 1.600759544086158281e-02 -1.420291480652354776e-01 -7.839954890617286190e-03 -9.195339498033847092e-02 7.960964117424194908e-02 1.782852922034224297e-01 1.075579802117263561e-01 -4.098022711092447895e-02 -1.537806672164173105e-01 -8.302884030308191332e-02 -1.871709365672081793e-01 1.273049647662441164e-01 -8.681550065697690721e-02 -1.432633673078190784e-01 -7.903836250187447343e-02 -1.259642649474656539e-01 -1.043251536246938699e-01 -1.811051262196617176e-02 1.672546949460454804e-02 7.917518562281802841e-02 -1.410789857346667620e-01 -5.289842936764720116e-02 1.103716816685726826e-01 1.000696400886552234e-01 -8.894900932173188321e-03 -7.352042886869827876e-02 1.299098896966227601e-01 -1.807590773403238982e-01 -3.955863020755696902e-02 -5.624919151925406730e-02 -1.044319318992583678e-01 -8.046022105393274559e-02 -1.844123815380294476e-02 -7.333054300553368959e-03 -8.231099858955089055e-02 1.256059240810963873e-01 2.393195065314444696e-03 -1.288949409820863146e-01 -1.359899053322035645e-01 -9.712816708152093026e-02 6.128030324682652574e-02 6.031229372941213085e-02 4.144774992028428529e-02 -7.785764838005457267e-02 1.529732301201755518e-01 8.315242874973879927e-02 -4.272416825865731071e-03 -1.456106541278762712e-01 -6.459626928687608148e-03 -4.957730765687506230e-02 -9.781305310196546088e-02 7.714870343811823516e-02 4.052894436841595477e-02 -1.269269234429619975e-01 -1.705221854295642381e-01 1.688829995995380640e-01 -6.485874075193188981e-02 -1.394253931525447354e-01 -1.172976196299567730e-01 -8.031389659396916125e-02 6.934272376152258999e-02 1.600591400616924176e-01 3.610537574810307460e-02 2.353456145717654213e-02 -3.483622646790125038e-02 9.149061201946712130e-02 -8.880422303812841867e-02 7.236842905455147246e-02 1.615550079925953120e-01 -1.110975872906603962e-01 -4.437914221782845309e-02 2.428249284961442322e-02 5.789075675994106301e-02 1.624751930008306033e-01 2.864881396543865824e-02 -1.874812426230586249e-01 -1.395890908595824043e-01 6.541279722794654528e-02 -7.506339457223265219e-03 3.619381366866890326e-02 9.506312983776485370e-02 -1.521864375467229247e-01 1.116494054426677152e-01 2.986316207105648921e-02 2.723232818479010692e-02 1.015809192015819096e-01 -8.519167123658812069e-02 -1.002446193998126761e-01 -1.574870655860619029e-01 -8.991696052061549926e-02 -1.995900940692845599e-02 5.007673216921415538e-02 -9.472781048627670897e-03 -7.021218718701917327e-02 -1.445386676064514264e-01 -1.431539061213747133e-01
-1.846134533197737460e-01 -2.649134784813335450e-03 -2.245864068125373592e-02 1.803041411030553154e-01 9.185016158941054776e-02 -1.002221251582755268e-01 -9.593653868119794703e-02 -9.644869208383675951e-02 -4.093810782751700073e-02 -1.425422012558740237e-01 8.201792527888851492e-02 -1.018624934693856954e-01 1.050877124348117801e-02 -1.974406459620204821e-02 1.587480525609510570e-02 -4.563004000359771606e-02 1.474266732441138483e-01 6.004921402323155910e-02 -1.318009869941751955e-01 -6.749411383038900203e-02 1.396574072047471748e-01 -8.747370416317508390e-02 1.577007455292140925e-01 -1.259166837856507681e-01 5.467730228103380441e-02 1.550911226823530609e-01 -1.175920758487983969e-01 4.449867939950081369e-02 1.250514780806042947e-01 2.504988607375858035e-03 1.095188424248994402e-01 8.171300412024057325e-02 1.088091761659290696e-01 1.151366966103582606e-01 9.190095167974869639e-02 1.221543968251006668e-01 -2.766919173986392630e-02 1.601920662233783377e-01 7.161540753319262098e-02 -1.201055370990197907e-01 -8.841945638514767114e-02 -9.096788354607356075e-02 4.730593268623577846e-02 8.287837710198155128e-02 1.893257263464361295e-01 5.824582116508713464e-02 9.135410227776920300e-02 -8.490775275506398656e-02 -7.973078415606721370e-02 1.378591647538204568e-01 8.205909492016873197e-02 1.734512681378022614e-01 7.451320925542274931e-02 -2.731199455647593047e-02 1.858879457743670971e-01 -2.919584276944926782e-02 1.913415315132888372e-01 1.681316624105348321e-03 1.423071501422434534e-03 5.872344216687913968e-03 -3.772189140472558683e-02 5.016817144140040680e-02 -4.406998787165776477e-02 -1.833369065379422680e-01 6.525381982784657364e-02 1.726272854329202466e-01 4.621406421726307473e-02 -5.420926025562358697e-02 1.042071490858653554e-01 -1.153910642345849363e-01 -1.793080226452100842e-02 4.786651657603111648e-02 -7.366310765300025654e-03 1.232004565797508444e-01 6.534002455577772595e-02 -1.358417861980819596e-01 4.919311566253872781e-02 -3.536891517955489256e-02 -5.062855904465909246e-02 4.691197432701203242e-03 6.034693676184010175e-02 9.258497257453494889e-02 -9.433708328853938896e-02 1.339493499634946683e-01 1.965286616274705411e-01 4.878639717909045298e-02 1.210386160261409522e-01 -1.526592327145630812e-01 -9.951484214947822760e-02 5.726087940217021444e-02 1.469080906225382344e-01 -8.372909440278603066e-02 -7.895255188848790406e-02 3.476672865376903565e-02 -4.641506779428862528e-02 5.183948962260682969e-02 9.466828734039432758e-02 -3.088527883298209861e-02 -1.227578370186463569e-01 2.728752951071085689e-03
-1.304093174053124263e-02 -1.092213318565704860e-01 6.542423341668150705e-02 -1.489489706626291599e-01 -1.606031848050327171e-01 8.899500687767622487e-02 6.830433099213330250e-02 -6.105851239445671264e-02 1.288789407868397852e-01 1.660462844922346859e-01 3.020599823457842045e-02 -1.537772560423985302e-01 8.655983884658845218e-02 -6.523994034348076787e-02 1.021448332536050857e-01 -1.486260045730019852e-01 7.281714626705780569e-02 -5.977490545845784431e-02 -3.363755981559263947e-02 1.296949712664019205e-01 1.476054739507681457e-01 3.054707299299055934e-02 -7.727403394960934147e-02 -6.071412085268849956e-02 3.888555111752770715e-02 5.934885002764873907e-02 -1.278229991917013697e-01 -4.983752407723865407e-02 -7.401720824652524566e-02 1.012661307231265406e-01 1.143122414532656977e-01 -1.298400602008983051e-01 -1.472499955541337890e-01 9.089886013812717436e-02 4.170788070079548687e-02 -1.421412090779744508e-01 -2.897821094030304453e-02 1.475910651596858136e-01 -1.428120038626219945e-01 1.493219991025608318e-01 2.286165456872056925e-02 1.434955004082806296e-01 1.023055471587148574e-01 1.779461411125768736e-02 -8.300844694938952495e-02 -1.025175187210432132e-01 2.744927820089965512e-02 1.544534991903738774e-01 -3.842384744262440643e-02 1.629555635062806540e-01 -8.987536354744272982e-02 7.600322487765552582e-02 -3.693817815056271020e-02 -3.895884185518033033e-02 1.773160039344593708e-01 1.949595717608075887e-02 -1.264309256663254943e-01 2.777572037186044895e-02 -5.219011833484638908e-03 5.390102693125898431e-02 1.451944126224800624e-01 -3.916826017453250985e-02 -6.873867768368521758e-02 2.160634742742298386e-02 -1.148069193815171307e-01 5.681838237729039398e-02 1.075115520513185707e-01 -7.639708498215096177e-02 9.054976604005932073e-02 -1.370324148154860311e-01 -1.212761658056750042e-01 1.306722298998699294e-01 8.442283811715553532e-02 7.173772113559641339e-02 -1.699951798772284806e-01 -8.597027930098051496e-02 -1.125446385755298970e-02 -4.043410882961614994e-02 2.080364581363696938e-02 2.800224079743326988e-02 1.331571266271527887e-01 -1.242964238600730020e-01 1.481771827799750196e-01 -1.269958394904763532e-01 -3.016006885950289415e-02 -3.433196679228658899e-02 -7.443952745609665189e-02 -7.986194387970947314e-03 1.378686357080900204e-01 -3.827982339721178878e-02 -1.296313709091622968e-01 9.154466921993460737e-02 -1.290079316627011641e-01 -9.392632888723166651e-02 1.451409293915082444e-01 -3.319876915264202005e-02 1.646668512351172065e-01 1.352327422741056613e-02 1.368984631382366146e-01 1.907844540355957798e-03
9.027030758542312072e-02 -1.262437192799718833e-01 1.418744220460544936e-01 1.617159202430052123e-01 5.933572281065059573e-02 1.013467450180450743e-02 -4.809859400980246585e-02 1.746987734598468012e-01 8.249848228589179433e-02 -8.696857969959709278e-02 2.336557100794814032e-02 1.278016281887855432e-01 -3.002463348343043653e-02 1.349186983130192530e-01 1.239789244124683276e-01 9.016730236422428046e-02 1.217966724217461050e-01 5.173446526596085782e-02 2.827554721747498057e-02 -1.038771929215683426e-01 7.231533525245625871e-02 -7.784307356659951604e-02 6.865672137067507265e-03 -6.731512795789963699e-02 -1.223017258502164493e-02 1.107362222817372399e-01 -1.510842429295279621e-01 1.021659897953473839e-02 1.069746551903850290e-01 8.146528212470890984e-02 -1.004873474424386876e-01 -8.387337107725087448e-03 4.430372414761873240e-02 9.657402180934333835e-02 -1.643698071836433572e-01 -1.226167365011411603e-02 -8.526334156807320597e-02 2.316425457619433054e-02 -1.181248884335973637e-01 -3.674407556288305371e-02 1.928950003556467035e-02 -3.668027546533294408e-02 9.021377374049892317e-02 -1.090939497126398317e-01 1.024179750440109976e-01 4.012375481089672929e-02 -1.569589886398070344e-01 -5.353397316347448948e-02 6.062230135786853685e-02 -1.429779368554552899e-01 -8.308748066120935638e-02 -1.418351470236498268e-01 1.662776477441568479e-01 1.003911646647304978e-01 -9.588602636933833689e-02 -7.987191471118610525e-03 4.207202629169893432e-02 1.530181947816081078e-01 -2.052647244357197129e-02 -1.446948947534385799e-01 -2.772029136837627153e-02 5.153438312400293597e-02 1.254756075619055111e-01 -6.225306764948813215e-02 -4.451458937327468918e-02 -1.243424882553583050e-01 1.121976329424813346e-01 -7.637779171345139562e-02 -8.921896778628335412e-02 2.010809197711047047e-02 -3.688831042393606735e-02 -1.463084202333651274e-01 -2.376292707062494999e-02 -9.597179880880243874e-02 1.818969077225507727e-02 -1.268461123368603283e-01 1.281705300976199446e-01 -1.588316167122238720e-01 1.640421461988506580e-01 -1.593086356485387545e-01 -1.190603167171232074e-01 -1.049504751848946427e-01 -1.608741757748637369e-01 1.595430106350597954e-01 -1.106313847852609111e-01 -1.222528397374426368e-01 1.075997844226165082e-02 -1.212921769108126768e-01 1.287258282778135365e-01 1.983871232138760196e-02 -1.588889741102781084e-01 -9.204880112117477808e-02 5.184475990020050162e-02 -1.141890497580296121e-01 -1.459246974800999241e-01 -9.417239878075885084e-02 5.568644753069647291e-02 -6.322139959686730315e-03 -5.462478716372703991e-02 -1.084325816002416620e-01
-5.513033074375694315e-02 -1.929125883584759116e-02 9.773917097265009957e-02 8.002359112015558842e-03 5.769959750716519703e-02 -1.015665267575839581e-01 -3.934503782020366131e-02 5.803948845002715462e-02 7.122970234696537895e-02 -4.699218879772829732e-02 8.072148322433023160e-02 -2.457670055563247399e-02 1.438357614941568330e-01 -1.429059186326338271e-01 5.129192840678364201e-02 -1.400708531790377520e-01 -8.785270430534919406e-02 7.542440974932537734e-02 1.255808914198451587e-01 9.482586852987155701e-02 -1.357670192536120091e-01 1.117824412402340789e-01 7.356356255846387138e-02 -1.093727517484075346e-01 -3.286504460004914530e-02 1.296795514941740529e-02 1.729370595089493035e-01 -5.273271382795437917e-02 -8.076302351890321529e-02 3.250139671935498714e-02 7.710983505050432278e-03 1.017945438040075701e-01 -1.334482470599157866e-01 -7.123254532756766177e-02 1.283574751139077708e-01 1.149709426382515276e-01 8.802901071584112724e-02 1.546530751330314757e-01 1.795917339555991733e-04 -6.972321288193553124e-02 7.804148992295213694e-02 -5.030585297964450947e-02 1.077512590868673903e-01 -1.110446537400625044e-01 -1.252564280976173616e-01 -8.138280620639097573e-02 1.560834549158439388e-01 3.218516278120474305e-02 9.549154963687186970e-02 6.993112598894618559e-02 1.327148197145548159e-01 1.051759850910303079e-01 -1.490632700986975756e-01 -1.709351483725963516e-01 -6.595421007564006288e-02 3.705525463420358823e-02 -1.296854949406901492e-01 -1.767090208496066225e-02 1.578094818868831239e-01 -4.103129827232224192e-02 8.394910163857786933e-02 -1.234798058789770697e-01 -1.153221187540454384e-01 -1.260311681726366262e-01 -1.263088745116730249e-01 -1.066148700310315250e-01 -1.633464394051816759e-01 -1.112717799551356107e-01 -1.324605695133148492e-02 -1.085964410094822502e-01 5.873604611605291043e-02 6.214687148975486103e-02 -2.127497717262686813e-02 1.665574175857356398e-01 -9.836661490709024125e-02 1.590838983076211036e-02 7.201728969467477426e-02 -3.873353076434366687e-02 -3.593375191649619826e-02 -3.834234064268061265e-02 2.628488190500518143e-02 1.125534081321085955e-01 -1.674806377252220368e-01 1.673101715702598469e-01 -8.196126824131528404e-03 6.289344035860845727e-02 1.177128438146356620e-01 1.482634911274736678e-01 1.306771816294386435e-01 1.813510868106038218e-02 -7.674859262739282262e-02 1.238733350595303956e-01 1.746289982959606801e-01 -1.643212222662784605e-01 -1.329113811598336969e-01 -1.630732493518932402e-01 1.472010585100297711e-02 3.869533832021192915e-02 -5.476440578369754647e-02 1.455415405753967238e-02
1.027978276074665853e-01 -1.515833176846291541e-01 -9.016813383807259497e-02 -1.510326805271546280e-01 7.946580121737070734e-02 4.799287235586491979e-02 -1.098394212619914906e-01 -1.606003263971079731e-01 -1.427569159877956420e-02 1.745386356812433371e-01 -1.135803641198467884e-01 -6.132786384748837444e-02 8.904706076247620450e-02 -5.946987324735054925e-02 2.898193170752370222e-04 -6.776216736024093246e-02 -1.221641101470518631e-01 1.046351529839280592e-01 -4.547959137299997789e-02 1.499520652282779754e-01 -9.234017177927748843e-02 -3.206535149268329409e-03 1.348184853887136603e-01 -7.698789689160728811e-02 -1.415160104527492073e-02 -9.074391552898965208e-02 6.286770192223563314e-02 9.344565424177553314e-02 -5.713724558150154453e-02 -9.176334156954081556e-02 1.395492631572423370e-01 3.255254263615255106e-02 -1.373461761330307951e-02 -1.385557673591937544e-01 -8.923741318236863562e-02 -1.515077929506012389e-01 -1.161914618026550911e-01 1.533088849996985630e-02 -1.818736559785126827e-01 4.394263242111451362e-02 1.227348680504174692e-02 9.263061165027178245e-02 -1.403014453037724520e-02 -1.303090265586569763e-01 -1.838931077073033618e-02 4.372883531531808476e-02 -1.727494724212023935e-01 5.566752565572824496e-02 -1.266439807051087697e-02 -1.397501306143793254e-01 -1.588989240016757121e-01 4.849065844910504380e-02 3.977760130207266126e-02 -1.405257870214283999e-01 -1.013106470239616141e-01 -1.000151252054898160e-01 -1.495648943956757321e-02 1.759271187733644215e-01 1.582865469304167438e-01 -8.730605226614873357e-03 1.505517443482528583e-01 1.160313071010313224e-01 9.271925647741909027e-02 -1.701587103308284388e-01 6.799509581773306721e-02 -6.159215602683210111e-02 8.067153802596116474e-02 -1.622448782926524669e-01 -1.131373264119950317e-01 5.485092144248001136e-03 -5.686716950280339133e-02 -1.334464915317885303e-01 4.408093634428279783e-02 9.097834336736071448e-02 -1.148652298000574085e-01 -3.592740876035468989e-02 1.608766568801748773e-02 -1.156394978814726110e-01 9.431239731842000484e-02 -1.459848309368412533e-01 -4.626708311358642550e-02 -1.380159143231409749e-03 -5.769953543846968735e-03 -9.704074119567619727e-02 2.701723843444660267e-02 -7.332736713516377347e-03 -1.733988773768949387e-01 1.934238514669836193e-02 -9.768675740905555238e-02 -5.995591918608766946e-02 1.212913455961860398e-01 -1.807458334842104372e-02 -9.578447934391973173e-02 1.745364964901074956e-01 -9.488489077004537420e-02 -1.099605833327351179e-01 -1.309413047382325390e-01 1.090031621172361798e-01 6.394387220077825396e-02 4.149002282924293267e-02
8.068649617730046242e-02 6.362595124100987876e-02 1.826951633163826638e-01 -1.957072094445022961e-02 1.490986148637243602e-01 -5.757859517860148407e-02 2.050591441713210950e-01 -1.125113077219582342e-01 -7.455422884820776808e-02 -9.817417120259955277e-02 -1.337068714806042939e-02 -1.086645459113039641e-01 -6.421395382009691122e-02 -1.466983725531749161e-01 1.103574845972188773e-01 5.197884419137357992e-02 -6.661117277222181055e-02 -1.068594345821401309e-01 -1.314597955663571183e-01 1.163067960961707836e-01 -3.583668673815851996e-02 -1.240358586530394651e-02 1.610947400088934556e-01 -1.565088657153240193e-01 -4.041665524801226622e-02 1.466995235239889894e-01 -1.237726460789922989e-01 7.863953617528338103e-02 9.640340477942453690e-02 3.713871128151295664e-02 7.959696986457677481e-02 8.721887884954894476e-02 1.233013539856796931e-01 1.461096637790478825e-01 1.355217427775787242e-01 6.661795645004858768e-02 -4.722734433958026418e-02 -8.693869979542341586e-02 -1.165707338924102665e-01 -1.808284976998983107e-01 -1.102691470189482853e-01 8.060367998048693916e-02 -3.409351363566730936e-02 -4.646774308366825174e-02 -1.363385785789535398e-01 1.469994617714674434e-01 7.487657653605753194e-02 -1.039308619096373371e-01 -8.569859682362893083e-02 7.275432572633333539e-02 -3.146739713703855523e-02 5.188117638497444922e-02 1.575260081766271525e-01 -6.108181375789021456e-02 -1.579429281907265281e-01 4.498978795481504284e-03 8.225070293543629285e-02 -2.224721631338799285e-02 1.325764524291699886e-01 -3.894206754350268418e-02 -1.228227797172115610e-02 -3.193389735933161583e-02 -1.150727844934617272e-01 9.706228672532794810e-02 -1.525991146825800837e-01 -1.352068393730188334e-01 -1.234977221644461762e-02 -2.839080012811322565e-02 -1.264788513718674567e-01 -1.199946113359168648e-01 5.520390474490104865e-02 -1.890715702319627906e-02 8.962081103510623203e-02 -1.719897089081677544e-02 8.172184349498141931e-02 -5.452074825106830586e-02 8.865198859506889795e-02 3.643810480030033189e-02 -4.884834541864223334e-02 1.177951175278578455e-01 -6.872244799172588792e-02 -5.718731856518703000e-02 4.269464553838613757e-02 1.842000509386436044e-02 -1.533572543301135738e-01 5.635870574442461423e-02 -1.004033070639628739e-01 9.044506629475046466e-02 -1.769903445769570594e-01 4.144676758341792749e-02 9.084001163905786047e-02 4.499390852088665238e-02 -6.638658692054252852e-02 1.781214215284092350e-01 -1.069649700788325719e-01 6.486434794629192431e-03 -1.322931363722618658e-01 -9.807429056180424348e-03 -1.300334255977468323e-01 1.598577672683343942e-01
-5.294759321702650900e-02 2.728434256868102203e-02 2.705778541329707104e-02 4.158393469190262842e-02 -3.610674416785609325e-02 6.822746360574784286e-02 -1.210671897754426601e-01 7.525253024899009047e-02 1.219333825929681814e-01 -7.029746276260076358e-03 3.699932494655477216e-02 1.195775645328470832e-01 -3.802388605708936081e-02 -5.466994238122974831e-02 -2.490030774729052113e-02 -1.224475738493695648e-01 -1.110218984611053006e-01 -1.423869466827339947e-01 7.145019060136928446e-02 -1.449940708003798762e-01 1.188948424681518651e-01 -1.276100224236398611e-03 9.856565339324716013e-02 1.340784741890459486e-01 7.794576880136142027e-02 7.414590852214955619e-02 -1.353148212090855562e-01 -9.597271636891874236e-02 8.930895009615304192e-02 8.912255941274720150e-02 -9.978551081476848272e-03 -5.428988059265218297e-02 -1.235851965362887578e-01 1.284462978291066038e-01 3.526011065451085252e-02 4.702306982733388263e-02 -3.622318311276510883e-02 -1.301215205787688844e-01 6.585206773899760814e-03 8.265003438579741901e-03 -1.707004344703483556e-01 -1.292846551664020849e-01 1.043877055692811612e-01 1.283038335103783845e-01 1.118877191874256410e-01 1.463621972237821312e-01 1.409291656761130218e-01 -1.597473033031799883e-01 -1.543914998608064137e-01 1.132958435109279322e-01 7.885892300462172752e-03 -8.637317378001729135e-03 -4.147743710843034698e-02 -1.115709032111081023e-01 2.121599985728208140e-02 1.088944850759608340e-01 3.757483418235372380e-02 -1.251628212168649223e-01 5.438117150273966832e-02 1.576593225898681727e-01 -9.281176839337416939e-02 -8.315789440637366692e-02 1.229588368406211302e-02 7.893906669292335976e-02 1.164543422304882836e-01 -7.609851954041965683e-02 3.832928906334141794e-02 -1.052227543575646601e-01 -1.493379364560433464e-01 1.655886570735378427e-01 -4.170362737780915208e-02 -9.093603538542829878e-02 1.096156441470317981e-02 -1.123029880419409987e-02 -6.369280323483392237e-02 8.349072653182285086e-02 -1.100747364011343127e-01 -1.369672694128413332e-03 1.645959550986516584e-01 5.894508973049752965e-02 -1.031673964899507412e-01 4.605638029565136543e-02 1.702446096995690605e-01 1.619644766844927433e-02 4.836906011712517606e-02 1.649245585683684900e-01 -1.190759806394671855e-01 1.607603279516773287e-01 -8.857224407643375652e-02 -7.327337914920017958e-02 -1.603597166697999232e-01 -7.268816086922821884e-02 3.649763048567038204e-02 1.910243223597563877e-01 1.568381048975327763e-01 -1.671199264232407222e-01 -4.427028790748507858e-02 -8.726270617349018988e-02 9.475368925725291547e-02 -1.094850105287800690e-01
-7.376630125071986094e-03 -9.369007792428464543e-02 -2.796235081332729480e-02 1.588136058092156078e-01 1.073069621351033787e-01 1.478568556545740986e-01 8.021068167623471301e-02 -1.670519551095479283e-01 3.296099793985070216e-03 -1.146616138571880938e-01 -1.112735664173626210e-01 8.615573837964744103e-03 2.212892975521406867e-03 -2.869140105543961997e-02 -5.617576624940438801e-02 -1.028372373591616568e-01 -1.057813744587784849e-01 2.801108401877639223e-02 -1.869696190745483710e-01 1.448648525642093898e-01 -7.784617891394704503e-02 1.107346913577609837e-01 1.099061233769518392e-01 5.967341833104496812e-02 -1.369875836730652732e-02 1.570700567354870458e-01 -1.300892810116757170e-01 2.423289268436800564e-02 -1.826981725112389321e-01 9.957765926203535067e-02 -2.134867217141784516e-03 -1.311086430256842017e-01 3.748254457163197051e-02 7.472112052603518961e-02 -1.366360896937906522e-01 1.028451124628376907e-02 1.174892930037917393e-01 -1.080352260385413765e-01 4.447715050654149627e-02 -2.797121441940352352e-02 1.227642972064947879e-01 7.760075571603843037e-02 -7.473757156305955995e-02 -4.292608970423775205e-02 7.715609417061849995e-02 1.014519275613198906e-01 -1.353877261347328775e-01 -3.739989939575888434e-02 4.151960232732525291e-02 -7.066661942054730527e-02 1.333382816302478013e-01 -1.051846829114907178e-01 7.262580002477622698e-02 -4.007418580573831636e-03 6.251045886615737290e-02 -1.467518069447940887e-01 -1.610422721240884758e-01 -1.571675732688328220e-01 -5.334530427059471641e-02 -9.219521512226293292e-02 3.418327905843043107e-02 -8.463151057077672804e-03 -1.424476600284611538e-01 -1.066842730961100466e-02 -2.568824907624541604e-02 1.093804454390455011e-01 3.675933282651656225e-02 8.625674616154298258e-02 -1.038321019878926388e-01 5.215385566641984882e-02 6.543683333844599326e-02 -1.165641167361441549e-01 1.099450610982561360e-01 1.505109604693629366e-01 1.546821051155440330e-01 1.182606294228019661e-01 -1.444514360887690640e-01 1.181222690844113904e-03 -1.480753531346666318e-01 -2.255401820850076386e-02 9.672441834514011738e-02 1.334497828515245343e-01 -7.804601002145115929e-02 1.611286147615293429e-01 -6.119480260182345172e-02 8.632774283564992324e-02 1.382726822755795670e-01 -3.761922116826924706e-02 4.933865615155023920e-02 2.486053499034704059e-02 1.088672446070993172e-01 -1.071916208819102406e-01 3.954114599404112695e-02 -5.252783353103293584e-02 -9.864007220776324636e-02 1.232922878532697053e-01 -7.398091828261400826e-02 1.304344306831401734e-01 -1.365483837243737786e-01 -1.662767143827748595e-01
4.412226749838631806e-02 -3.538015791679616912e-02 -1.483524251944562111e-01 1.137417743122669939e-01 1.596029152456049094e-01 -1.349303218209128852e-01 1.886303940813696400e-01 -1.425890506258764290e-01 4.447688344066064864e-02 1.356167448337694537e-01 -5.423710848773057730e-02 -8.070406343211682099e-02 -1.127415552665036041e-01 3.129953867500388787e-02 -8.114743505004498592e-02 1.344324577612096283e-01 8.221601584937285323e-02 -7.084344089346687745e-02 6.666475792468609662e-02 1.070330304763516677e-01 -4.033735301685517638e-02 6.676359404186693602e-02 -1.152983980745390588e-02 1.515339048822890167e-01 6.604305357453567338e-02 1.495069049586168486e-01 1.961624622522844738e-02 2.555913396829356116e-02 1.144775425964986854e-01 2.761870423805825106e-02 1.351787897009277539e-01 -2.217472498060666774e-03 -1.564810434015493912e-01 -1.603817180013862864e-01 -1.504074411859578631e-01 1.527765775181126051e-01 -1.538389122186894498e-01 3.878908501198388703e-02 -4.666266891332977035e-02 5.720716637349550215e-02 -1.386805738604880434e-01 3.865790610880930067e-02 1.924921196507599916e-03 -1.539893699181479891e-01 2.105771822618820663e-02 -9.255424870199145670e-02 1.251812745530571369e-01 -9.899377610228092539e-02 -6.436953926199914799e-02 -6.373018470606883756e-02 -9.725162703268874775e-02 9.549772981913348668e-02 -8.202374415913307737e-02 -1.414399681424288180e-01 1.614649606110274693e-01 1.564333526975853206e-01 -5.496855918928814783e-02 8.883414978849792087e-02 -7.183049819325020013e-02 -1.496560786634520412e-01 -1.708487199171248028e-01 1.007149116407705658e-01 5.825246757941849457e-02 1.032606098447925724e-01 1.015582023829251189e-02 5.236531243147637266e-02 1.291875526443002908e-01 1.229842383159248688e-02 -1.173719240115615991e-04 -2.381273191047337048e-02 1.316902435624464074e-01 -1.326094653171474846e-01 -1.409066885906270772e-01 9.086298167488042477e-02 -1.233388481290974281e-02 1.512598858031017623e-01 1.538106538251021727e-01 -1.459728433644519319e-01 -6.847331950414169144e-03 -1.243190453034107301e-01 4.700127843498300151e-02 4.938284336751394554e-02 -1.197824384745278664e-01 -1.547802341281507565e-01 6.127242499867827791e-02 -2.764310182089215959e-02 2.058779638693782543e-04 3.871163436071504288e-02 -1.108126159768862001e-01 -4.440082530326786708e-02 -4.074429876240118209e-02 -7.779202512467729702e-02 -6.540627741217819313e-02 -3.353210128427220466e-02 -7.193859177134581673e-02 -9.718251725285681486e-02 -8.250865858076682213e-02 4.035410348821125148e-02 2.353542979872371571e-02 -9.469444184914774243e-02
