6.359115485618047070e-02 -8.626656305450391971e-02 1.151380559676220411e-01 2.158917483491455680e-02 -1.547800862473343309e-02 9.115230564358368925e-02 -1.024701721086071146e-02 -1.080172467471337411e-01 -1.041506034926963642e-01 6.672105723296184454e-02 5.459006987337555739e-02 -4.785081955294089723e-02 6.832482957606983431e-02 -5.862320235730925783e-02 5.704571008237020735e-02 -7.514683822905654509e-02 3.258541633753601896e-02 1.039315239001384616e-01 -2.403377296132322427e-02 -6.759287289375966179e-02 4.432034602799839185e-02 1.057005197633291600e-02 -7.155784291873099057e-02 1.652827110330798779e-02 1.539514737365050290e-01 -1.519273964008978350e-02 1.163577196171701744e-01 -2.215999538657997814e-02 6.477197040987391075e-02 -9.755265366162071961e-03 -1.145429725668458687e-01 1.537922007958880503e-02 8.285753261481425269e-02 -2.516461646159313947e-02 7.091113656174248547e-02 6.593282899630201199e-02 -1.927915857994835780e-02 1.404576047248240131e-02 3.365444141361011859e-02 1.078207604788322255e-01 -7.875101352178653924e-02 -3.049052997423238806e-02 4.980478021820352458e-02 -6.829749322467361383e-02 -1.273263381552139639e-01 -6.423758193771056391e-02 -1.269754132414324665e-01 -1.257705266093473440e-01 -1.462292598642185859e-01 -4.589593704970615362e-02 8.694895919798345529e-02 -9.016754351187893091e-02 1.075209761339400577e-01 -1.046903937818508407e-01 6.389926678040207253e-02 -1.898567947220334423e-02 -1.789513710158553705e-02 -2.138296222047403328e-02 -4.189726028053315093e-02 1.171340197721204984e-01 4.486988875533153009e-02 1.146299441071375047e-01 1.115673130116695035e-02 -1.181818957431215872e-01 1.581797052182995142e-02 3.378867216149197134e-02 -4.042711419299258035e-02 -2.021965066362428967e-02 -3.092103058379663469e-02 4.113433826689647660e-02 -5.329473447348524046e-02 -2.428082399626446675e-02 1.150751063191199075e-01 4.641778701604432761e-02 -2.194445343407667656e-02 -9.809679545780330967e-02 2.242004965167202282e-02 -1.086194548234961643e-01 -1.158329525068876598e-01 -3.032504040225036945e-02 -6.428928892437755192e-03 4.150046132707668756e-02 -5.681108885184303625e-02 -2.580565785085430983e-02 -2.736418779778948887e-02 -1.010309123865522907e-01 7.758640869637731252e-02 -2.410666177832896176e-02 2.860221508185552958e-02 3.713349061437177384e-02 1.338710500036214279e-01 1.332718224509263881e-02 -9.337010628442896651e-04 -5.018351699529270335e-03 1.185887568345565541e-03 -3.141617865952360533e-02 -9.337308910298094608e-03 1.025830096663331720e-01 4.589809277418092914e-02 3.238539050410367548e-02 7.207265469743261155e-02 -1.651601082775822765e-02 -1.114036960591260339e-01 -1.113043767874127704e-01 -1.347825684375223432e-01 -8.030936662770368772e-02 1.880574032186965424e-03 4.376549678038723495e-02 -1.780108441364859628e-02 -6.300366046235388040e-02 4.807527968959492137e-02 1.253195014585165024e-01 8.125176717829823980e-02 -5.744350083368255505e-02 -4.849827946880625601e-02 2.833078814393102159e-03 -2.292692437397922736e-02 1.417167318343137000e-03 1.089630743761344084e-01 -8.129941944866218850e-02 1.492167677807485632e-02 8.692695372145178845e-02 8.327394336675156272e-02 2.167027117766123778e-02 -3.502665836539908123e-02 9.737622353343566850e-02 -2.305718714048587623e-03 9.442185073285930264e-02 -7.660684351607528753e-02 -9.255103233029456089e-02 4.061453628504937269e-02 9.559151805793693335e-02 8.151518868349026670e-02 -3.984074621391488213e-02 2.644047947453927183e-02 1.385082277283383257e-03 -7.728922460054209187e-02 5.849647620115229485e-02 1.308657130775915112e-01 -9.283193944819889687e-02 -1.165302535651370763e-01 3.884681502471769299e-02 -8.682149204026420874e-02 -7.962912834895675973e-02 1.083073338655381745e-01 1.335599383942495666e-01 7.472706818214316926e-02 8.349158835178777105e-02 -1.460713796288121320e-02 8.019115863291333135e-02 5.380780800290995564e-02 -1.117906162551510554e-02 -1.000992657043866668e-01 3.486047365569606982e-02 -1.143052066371778447e-01 7.047413526065067491e-02 4.171236268220560039e-02 5.922211271259115312e-02 -7.256677412942559580e-02 7.604785256025546614e-02 3.198143093281795302e-02 -1.865287437456112848e-02 1.025380237051725096e-01 -1.122679045125529185e-01 -8.836587549621933990e-02 -9.795208822510213797e-02 2.003307530143974904e-02 -7.450214802768331812e-02 6.625098152037650970e-03 9.320512229882098321e-02 -8.716382751793415318e-02 -8.581231982136601488e-02 -5.885435596540958270e-02 -2.869850122881626494e-03 -1.152389673679471427e-01 -4.806168743944198851e-02 3.213670469110847111e-02 -9.507301694104933198e-02 -9.087458657335241441e-02 8.509767992349015486e-02 -2.415989049545652634e-02 1.219694750451234683e-01 2.847261049630566906e-02 -2.167958995625055268e-03 -8.808968826983906708e-02 1.186360383570926429e-02 5.723458138580306276e-02 -9.116994978170794850e-02 -7.219592187813787809e-02 3.841718366543704719e-03 -1.006846206511553127e-01 -1.910718289528607131e-02
-6.555832611312058245e-02 5.979938329754495852e-02 8.143103272775754908e-02 5.251474734090692820e-02 6.492454834065115518e-03 -2.113331376974632303e-02 7.991179111937325719e-02 -5.513241837082680404e-03 5.699307690025757350e-02 1.104885424666563060e-01 -4.016128202675028902e-02 1.049684480045526974e-01 1.072337515368578381e-01 -2.048214285465398479e-02 2.852855387709299362e-02 -2.317775923658066048e-02 -3.018888484385264664e-02 5.346371263527003453e-02 1.068552618447881492e-01 6.741590022826388084e-02 9.121562148143724791e-02 -6.395409056270768763e-05 6.150761665356972718e-02 1.199236176240106033e-01 9.918909719401272640e-02 1.542389512325186007e-02 1.912567954019981850e-02 -9.616659965469012694e-02 -2.345389300742556360e-02 -4.319274705086046523e-03 -2.206090478042655942e-02 -1.273980859234164209e-01 -1.264394074880695606e-01 -1.092211532194510559e-02 -9.802131449510166628e-02 2.388476047401964092e-02 4.903149284209618042e-02 -3.493207753505681717e-02 -1.214708234288974613e-02 1.115345675150100219e-01 -2.271708253661651120e-02 -8.402281130734695624e-02 -4.603774135868933526e-02 -4.125997488824868081e-02 -1.017053365084527317e-01 5.125499321696166261e-02 3.943251583329709931e-02 1.032087507768295470e-01 -3.991243897154870407e-02 4.387276809492438034e-02 -6.479116523439586162e-02 -2.117551096448484250e-03 1.899143897898719624e-02 8.042668390395922573e-02 -7.368221276495059979e-02 1.075670366010589296e-01 5.196069258255703316e-02 -1.454614582721230898e-01 2.537128564727856445e-02 -4.558640423047391477e-02 -6.418199844931853082e-02 2.993844564465708916e-02 3.466614301431611422e-02 -7.054137274401851843e-02 -3.877912698169398709e-02 -9.632072604135194505e-02 9.343455346953682961e-02 4.250654186787642536e-02 2.446502996883315184e-02 -5.924723612924746169e-02 -1.430436597594936798e-01 5.603212905673352062e-02 1.024743273130774984e-01 -7.869374354706001884e-02 -1.029810837726435335e-01 -5.886168161341447796e-02 -6.848394306079749749e-02 6.511257900009335964e-02 1.250437883393643035e-01 -3.328101199236117164e-02 -3.831263825995337435e-02 5.578459146051982509e-02 -1.482016513065058660e-01 7.620867665371723609e-02 6.171092169749690937e-02 5.433980043179575947e-03 -4.137669422589569657e-02 3.339681124281049240e-02 -1.537640149233212054e-04 -1.217044588494965301e-01 5.641414258035667290e-02 2.160580144620523682e-02 3.931429618921732788e-02 -1.285576715598017172e-01 -8.964921135433263910e-02 -4.514256497473344287e-02 5.398250181366602563e-02 -8.558216768467244440e-02 2.150891829332754468e-02 4.081526553911597049e-02 1.157138949040102671e-01 1.457954103101283087e-02 5.689117299680868794e-02 1.251971861382611406e-01 5.340475678413424132e-02 -1.000722744980044321e-01 9.072413573275069087e-02 -5.844525555185322435e-02 5.725049180636582191e-02 -4.743784811924214168e-02 5.767099240586629101e-03 -1.043746516965400190e-01 -7.431765050009582485e-02 -8.727576008743463676e-02 -9.549033235213127968e-02 3.647192616079491384e-02 3.717031260031302548e-02 -7.458422778620496518e-02 4.664043579472763879e-02 4.140194107829640174e-02 -5.264167670568271895e-02 1.053170066422137591e-01 -7.760440611179282577e-02 5.130750825491243311e-02 -5.290084184473920620e-02 -3.151644823648369620e-02 -3.819244608363189103e-02 9.495517875463330149e-02 6.301239037441522250e-02 5.567548806332577732e-02 5.312357447182356612e-02 -8.073834878869692866e-02 8.788410446853764380e-02 -1.058478896468765945e-01 -9.313711359717519178e-02 1.088809873333758116e-01 -6.977675322510579203e-02 -7.880824252724957790e-02 5.359988026137563893e-02 1.518654020123787474e-01 1.254028689078071947e-02 1.870141800626320266e-02 -4.828812206817459374e-02 9.479387830517778391e-02 7.413356125119871520e-02 5.212485906457520884e-02 7.825700620565400820e-03 -1.286130043226586250e-01 -6.643158755298776696e-02 -1.387031509793825446e-01 -2.010608016081684261e-03 1.290150671763380108e-01 -2.327960800550363946e-02 -8.249585520844908426e-02 -9.736498216968582364e-02 7.853328504718296021e-02 -6.946327949077256425e-02 -9.401901602251130918e-02 3.922788481802856608e-02 -5.026398729565113160e-02 1.064669596742651853e-01 -4.392710379977107782e-02 1.119580754639186021e-01 -2.415868831230647950e-03 1.073447536005793512e-01 -3.136431774410030487e-02 7.856698401196364479e-02 1.092949068597447448e-01 -2.363512833863684603e-02 1.630113694012500641e-02 -4.003181566988856660e-03 -2.617206571845929683e-02 -1.257465668682897775e-01 -6.308394375590502257e-02 -2.833514801683416004e-02 4.805161630130692224e-02 6.066001849141597346e-02 -5.011225752163332714e-02 -4.412966172699843426e-02 -7.940639432562240918e-02 1.182320221186391601e-01 -4.513081437074983188e-02 8.013180949457014701e-03 -2.923408695324459378e-02 4.205498006452849241e-02 3.808700466578634342e-02 -3.123165266076572549e-02 8.771853885713475074e-02 1.209361424776128069e-01 -3.999193241238301749e-02 2.222519701796190489e-02 -5.783739977738075466e-02
1.023398873299752737e-01 -1.170912045712009693e-02 -1.119090987141529159e-01 -4.194129072611519488e-02 -5.497636782961188434e-02 -8.794891267019273873e-02 3.324084250437374377e-02 3.347452247276316503e-03 5.155978544208505814e-03 8.085683420024735238e-03 6.084258171839342089e-02 -3.455265669071150986e-02 7.352492236061157482e-02 2.413744082294634954e-02 -8.520879292611611977e-02 1.403945583299223143e-01 9.941122695733869974e-02 1.349421303221066959e-01 -1.035654944534566135e-01 -3.712976647609087660e-02 1.502402669707587068e-01 -8.218749225559119145e-03 1.023874860312056628e-01 -1.721425631289457553e-02 3.289714684669883121e-02 1.107278420793312082e-02 5.485790730145000821e-03 -7.491729538974163660e-02 -5.550069068873276362e-02 -2.488267680861739814e-02 -4.823701006072658552e-03 4.275389280860552449e-02 1.025683195892549693e-01 7.448694345251910542e-02 -5.314530443152173239e-02 1.405507490239789048e-01 3.849664258444308179e-02 -2.654095170884893801e-02 -8.506047802331406782e-02 7.822103816517490815e-02 -6.563480556007303401e-02 4.312678544797259039e-02 -1.272782671956945721e-02 1.174968869676318584e-01 4.888889376572371631e-02 -4.343482122583216393e-02 8.100081219094057428e-02 8.430125688561231068e-02 2.722467145266772165e-02 -2.077943093067963556e-02 1.128971628276072975e-02 -9.040055729211252111e-02 -1.845109594915915301e-03 -6.281932291067734986e-02 3.749917875791232424e-02 -3.466233560290642168e-02 8.104729124664394879e-03 -1.048172008483656131e-02 1.588235365120911069e-01 5.960830148554203956e-03 1.022893038747026279e-01 7.824906107222930063e-02 5.231644925071434610e-02 7.554916205668635310e-02 9.249668429442571560e-02 9.386479461898004917e-02 1.019927904233007415e-01 -6.240863859400674896e-02 6.292805680026218595e-02 -7.585820869428171187e-02 -1.108774348807451682e-01 -9.705318505120100192e-02 1.939634983763854556e-02 -1.407423864243607103e-01 1.624815256609422193e-02 7.120368870450738408e-02 -4.878172658805251388e-02 6.823638496116342378e-02 -6.328171739832946785e-02 -6.833435711257504486e-02 2.820781949267779989e-02 6.192091660820086413e-02 2.521129981834182437e-02 1.021092730393431264e-01 4.519077500845524592e-02 7.996356433205762532e-03 7.602554740645125174e-03 -2.728666045700737022e-02 -9.308399590495772258e-02 8.086287947996710634e-02 -6.334957758987588838e-02 -1.339595992826073112e-01 5.306673236038193797e-02 1.402681402071632132e-02 7.259048663447097149e-02 -2.159355577705502141e-02 -8.773030407502030448e-02 6.224137385397968125e-02 6.613921536872618967e-02 -5.633166158687472752e-02 -1.377495159588137952e-01 -1.261282787487991164e-01 1.226715286290197687e-01 -1.571140503352481954e-01 -3.246696129545990211e-02 8.627567842316430369e-02 9.223975828765154650e-02 -4.804626679967055093e-03 1.248180872553156240e-01 9.763941468637163390e-02 -7.240532532745885819e-02 5.659243852109716727e-02 -7.426511455709774827e-03 9.539448661563271203e-02 -4.709019678245800200e-02 -2.799935439397201187e-02 4.907910952247406672e-02 -2.150352969755492394e-03 -6.861677321478427266e-03 2.405467812790238608e-02 -6.366652489842411500e-02 9.415652279091878130e-02 -1.783886580103479641e-02 1.668394798062728529e-02 -4.302735129474562215e-02 -7.684780779833137732e-02 6.489783446955924018e-02 6.034854980473913777e-02 -9.282241687704124999e-02 -1.728828429426020746e-03 -6.689189346201317166e-02 1.021669740208528410e-01 -4.331025989768171047e-02 2.254155139661901883e-02 -2.553323688966331259e-02 -1.643520891248021268e-02 1.040004225151799772e-01 3.479748036771306008e-02 -1.910794884195513368e-02 7.411331654355587245e-03 -5.184299218902808926e-02 -3.922002425192291919e-03 3.199067180702353658e-02 -7.461732676699871225e-02 -7.566426849379152830e-02 -2.884617579358077916e-02 -2.249454656890528467e-02 1.336680958110846862e-01 3.109403728309488579e-02 -5.461146929354923629e-02 -9.725775769013272898e-02 -6.024832074282204797e-02 8.977671912305019986e-02 -6.217282588627397188e-02 -1.253702396399605790e-01 -7.544601828254383913e-02 -6.959534451889062834e-02 -1.124808281244652902e-01 -7.172764414447049819e-02 3.726826427731320251e-02 1.862386756415785813e-02 -6.443938519692354872e-02 4.609411775380738846e-02 -3.107675590022493384e-02 2.096040265972297367e-02 9.864946814517157325e-02 1.067424783644807390e-01 2.339298037388452822e-02 1.226408074499484024e-01 6.001088930231766178e-02 1.154433159173877399e-01 1.271219698697284399e-02 -4.112225907563452076e-03 -7.558170907527260451e-02 6.405875511130598721e-02 -1.266311660038879905e-01 5.416415713917393376e-02 5.791038947934254617e-03 -3.380805798461002099e-02 7.673908227595034603e-02 9.372337269586404618e-02 -7.571947019449219718e-02 8.378124220246492559e-02 -6.065302154601323603e-02 -4.345676528225033558e-02 1.060273879287974425e-01 1.150809556770972797e-01 -9.826233367620489101e-02 -3.085588741798156107e-02 7.198421962248299777e-02 4.560063352161940718e-03 1.001097925068150235e-01
-8.811553127817013664e-02 9.391971559638395348e-03 -1.305333707325911918e-01 -3.517683083633339758e-02 6.293128736486889099e-04 -1.197144215833953994e-02 -4.030735266344793316e-02 -7.736395667802567488e-02 -1.008672740531392498e-01 4.545147423963743355e-02 1.028089267134904387e-02 2.608574932588157529e-03 3.824275654194831536e-02 1.047155106040693479e-01 1.001974520385541002e-02 -6.184660924066284066e-02 -3.653390848704593866e-03 8.148823395634319233e-02 -9.440634687412186032e-02 5.250927629281282316e-02 6.589170339810375421e-02 1.235420942134238531e-01 -1.268648197268203159e-01 -1.117242040035558090e-02 2.053105402587952766e-02 4.809358229234590720e-02 3.935705445484221493e-02 1.299560734182390043e-01 -2.459485485362071511e-02 -1.438382160893588446e-01 9.338722373317454029e-02 -1.410852429216505333e-01 1.082578005023728807e-01 1.471918303520381929e-02 -9.159963307042026659e-02 -1.570671190582279345e-02 4.177533475407035207e-02 1.531037889077494774e-01 5.489402656840164374e-02 6.286927661949014146e-02 6.219860161523747127e-02 3.602370371533125041e-04 7.992975506135048536e-02 -7.073013118059953697e-02 -3.674589669734154573e-02 4.529279618760806425e-02 6.595355262767967769e-03 3.808686440645455817e-03 -6.215415513014734689e-02 -7.146290412189545971e-02 -3.038476383502961616e-03 -7.740571448666709597e-02 -6.606557748246434658e-02 -8.198369790815512870e-02 -1.294618120926887411e-02 -1.142696463937909052e-01 -1.151370113760210312e-01 -4.257739800580654516e-02 5.316639727204069271e-02 -3.739081362977766249e-02 -2.321869363900458047e-02 4.930772805521990709e-02 8.934264914106139488e-02 -8.576058353036983273e-02 -6.688245135795242713e-02 -9.473977839086858421e-02 2.815636233863316046e-02 6.177550078404776823e-02 -7.049825667673069451e-02 1.097312569592352183e-01 3.790478236624882091e-02 -5.077718555049919036e-02 -8.324512261887255515e-02 -4.746307157304175545e-02 -3.115144739849383046e-02 -1.525151124642937402e-02 -5.559838208814169708e-02 -3.301843062976319437e-02 -1.334910772178073968e-01 -5.703772360656470669e-02 -8.554483508587704121e-02 -9.253470602197494746e-03 9.022783809815432265e-02 -5.841588970371287132e-02 -3.376473834048458050e-02 -2.532263403849094319e-02 -1.763316977372167763e-02 -5.034710579840488004e-02 -1.114537183992187624e-01 -4.261635927608244806e-02 -3.034310359821698611e-02 -1.291754721362955716e-01 7.377922510580155191e-02 -9.167115288554852914e-02 2.890443865597475473e-02 -1.034130471087515990e-01 8.002856748393963326e-02 -1.235788947172783425e-01 -1.899603921584050795e-02 -7.535465730626281222e-02 -1.566592819057522068e-01 -1.300533390957792947e-02 -1.962988454987976694e-02 -5.620541006322458955e-02 5.549932390579290914e-02 7.360696124184600009e-02 -4.930121559990710556e-02 1.389477784602494333e-02 -9.364884577835021207e-02 -6.816140977818332947e-02 8.764531186916406716e-03 -7.540579458989310480e-02 -4.145679522976152172e-03 -7.564643761510650433e-02 9.819941900050037364e-02 -6.123785559929974254e-02 -1.250864853402282317e-01 4.468125414946629015e-02 -1.015933295395594210e-01 4.345932182855356818e-02 -7.122691442981263221e-02 9.736385358056910688e-03 -4.853449576920641079e-02 4.894826004566160682e-02 9.200122428183526643e-03 -3.532023358989166278e-02 9.771615239307034073e-02 6.711511297090540229e-02 -4.481677690696410539e-03 1.499520219648472347e-02 9.317006390118104386e-02 -7.755803257789875560e-02 4.493781289444660071e-02 5.417736896276317132e-02 6.543779888376898002e-02 -1.056414479725856226e-01 -1.032941218604747635e-01 -7.245411688456887545e-02 7.148724441138618220e-03 1.309188484108758654e-01 -6.012909415862709855e-02 1.973025440794319921e-02 1.230135817041620727e-01 6.650568623362600185e-02 -1.194902712148863538e-01 -4.206017206200482299e-03 -1.721197267731003691e-02 5.736160995619984243e-02 5.787736610545399230e-02 -9.670632245018795370e-02 -2.017858202911958221e-02 4.255807636887529166e-02 -1.552451863309659008e-01 4.753863143952506698e-02 -8.960784851444253407e-02 -4.888198895790917681e-02 6.699087061816315358e-02 -4.803843950338860386e-02 2.095092314526741939e-02 1.245514838742977498e-01 -6.299272514833420544e-02 -1.040926150791578464e-01 1.123626577564538764e-01 6.046353987329305957e-02 5.432170055925549662e-02 -5.827840354431437775e-02 3.692624395503255053e-02 2.749253954045294268e-02 -1.405162472823173192e-01 -1.062073583501922242e-01 1.291104452077706383e-02 -5.497241617082450349e-02 -5.640240135874810545e-02 -1.201877803484379947e-01 -6.549898315215352262e-02 -7.964766104508444466e-02 6.433686732494323969e-03 1.970266156769789456e-03 -1.103015184251925490e-01 1.772347311906590991e-02 3.979144148186718882e-02 5.406206679891816663e-02 -8.182549728713636727e-02 -7.072860774100252212e-02 2.137763921917468571e-02 -4.200375915294823209e-02 -9.703287703170648121e-03 -7.475086389093316130e-02 8.840924442991396348e-02 -5.525820187453046178e-02 -3.573632746348603950e-02 -1.122855884051545544e-01
9.740371076175739773e-02 2.495031610429262331e-02 -4.694616300156367883e-02 6.532721304944560069e-03 1.164872856883993751e-01 -6.161771353942958190e-02 5.339691077158296995e-02 7.505765933497557385e-02 -5.363763496780618069e-03 2.246781564340303086e-02 -1.316450144221855377e-02 -1.040653951129262289e-01 3.249087546664683468e-02 -8.946715020003997987e-02 -6.883459807593303448e-02 1.037806655329203270e-01 -1.101931273594150690e-01 -7.931896603426076553e-02 2.813931840149944824e-02 8.966951465982807290e-02 -1.441609503897077482e-01 7.485271874951801574e-02 1.791257362957049751e-02 -1.433129286460135265e-01 -5.199403691099434982e-02 7.367652581804429168e-02 -7.255741692896348904e-02 1.021902792326815773e-01 8.390185646689985940e-03 3.858637708759448531e-02 8.772941059224335925e-02 -9.093639160574473745e-02 7.999058262474480208e-02 6.704831450116165159e-02 6.892309695659806779e-02 9.714306396107522112e-02 -3.744183350271181043e-02 7.545289356500659017e-02 9.981395190830000264e-02 1.754648959471434913e-02 -1.033478559645630290e-01 -2.432819206438063819e-03 8.085125591639101550e-02 7.844968598357332512e-02 6.770848372369531187e-02 -1.005818627358074507e-02 4.683629984390986351e-02 5.963222298538692345e-02 8.337520601790066044e-02 1.108666075280090868e-01 1.122177651822792166e-01 1.044643328896042445e-01 -6.254049857928982437e-02 4.830579571306772499e-03 9.028940871715515626e-02 -4.157725955066250700e-02 1.209144327551830572e-01 -3.160996653959798064e-02 -2.677278659358957313e-02 9.535412300397989871e-02 5.239663434647243156e-02 -2.816993806989773197e-02 -5.447456378699046253e-02 1.985926401316856493e-02 3.398105740537995384e-02 -9.210668733333252090e-02 1.390535533199052654e-01 1.651169816440617444e-02 -4.567673339121283704e-02 -6.728198140522526072e-02 -7.665171101185283553e-02 4.170469783052927620e-02 7.515815891212861664e-03 4.316907219372082688e-02 8.817412997989027001e-02 -3.955812563768926898e-02 -3.554533352623714254e-02 8.546272871614869759e-02 8.192819687468373691e-02 -6.316965656475648228e-02 -9.820151792408401970e-03 -8.558597020259270383e-02 1.220165761990372327e-02 -6.845155064315978921e-02 5.237365744968620895e-02 -5.638922211457422090e-02 1.136610173436645582e-01 -7.279004702352586190e-03 2.382951603566981977e-02 -4.626394973130865639e-03 -9.794100166445893207e-02 9.483249289881244548e-02 4.460085970733005528e-02 1.275386656177305601e-02 3.803853787112031898e-02 -1.114409837634797174e-01 -1.156808274908075751e-01 -1.023872741215313131e-01 -8.496586619188602196e-02 -1.431532694093879399e-01 -8.644613454762645199e-02 -1.492750446073382899e-02 -6.169755206524053792e-02 -1.151724961096623617e-01 -1.131989613009007078e-01 -1.406548606991057382e-01 1.590337830077498404e-02 6.276722562645387082e-02 4.570195479174347236e-02 9.168958483874188603e-02 -4.778100801412231424e-02 7.416779067383307000e-02 9.616102803748963201e-02 8.982006513397217118e-02 1.075619081868597060e-01 1.795470481783706428e-03 -6.180001724357886417e-02 3.522339807583192012e-02 9.959810177440542658e-03 8.043380710587148819e-02 -1.422624673599317546e-01 7.917405712452929567e-02 1.016901364097201471e-01 1.241605078925435979e-01 5.987726562123690116e-03 4.340593721835899615e-02 -9.709711481902187635e-02 7.331202935951464106e-02 5.579920050944331411e-02 2.146976906440766289e-02 -9.203500033111656955e-04 4.315583519005813246e-02 1.004440078194427100e-01 1.765704881735450163e-02 -8.444372206816716520e-02 1.124486121228124857e-01 1.939202367372511171e-02 7.221799464419448311e-02 1.231257438554114458e-01 3.407995372045145854e-02 -1.418010632889064176e-02 -2.580764145569483872e-02 -2.299332633651803709e-02 6.743800349033100827e-02 9.395976312231128433e-03 3.234230040234132263e-03 5.495196022321618447e-03 -1.097448176034799584e-02 2.471814114765611206e-02 6.864705425299251484e-02 4.063044780996372118e-02 -5.875121309405140907e-02 5.088341561131362600e-02 2.980366053952796315e-02 7.316316898777329436e-02 9.676748933740837721e-02 -6.861823445882926642e-02 6.638668151651960780e-02 4.210202789623598840e-02 7.681901076580345544e-02 -1.253316514221420874e-01 -2.569337577906568096e-02 -2.524627757882206072e-02 -1.009570861649886908e-01 -1.075161387201233332e-01 -6.927265677498871399e-02 -6.435677406771643516e-02 -2.678543895559109753e-02 6.267892767283859967e-02 5.155339210321260163e-02 6.374289699205146209e-02 -4.433347658484706327e-02 -3.934876436822790785e-02 1.724287559691993141e-02 2.019980991940150197e-02 7.861791250810856724e-02 -6.338180052018703436e-02 1.330994486090632811e-01 -1.272264985512774060e-01 -3.871806693705982794e-02 2.126136139462105057e-02 5.529445143725104234e-02 -5.924279573248717595e-02 -1.122781748014651908e-02 -4.377276711443458396e-02 -1.099607105542332736e-01 7.380951929983462813e-03 -7.577008816798899704e-02 9.190021479423958473e-02 1.489446314996573963e-02 -8.484449370291133330e-02 -5.066289826567992038e-02
-7.262455523689280434e-02 1.217258423094823155e-01 9.663801037509466008e-02 9.761576035589772382e-02 -1.058277116877280460e-01 -1.348072031120760017e-01 -9.762991354556532775e-02 9.446611781291613941e-02 -1.185295425741879627e-01 1.134757602555572058e-02 -1.573366702116846261e-02 -9.311506502596153534e-02 9.946671751936844719e-02 9.501611559874188762e-02 -4.150666499644430074e-02 -3.798038740479434128e-02 -1.052525705214120422e-01 -9.585660614741856045e-02 -5.832946096708509220e-02 -2.089835361928673446e-02 2.504012677128286679e-02 6.125207749612709973e-02 -6.260635283330337128e-03 1.113324090535159072e-01 6.536549200109112445e-02 9.246830101225073095e-02 8.909535497571177687e-02 -8.469298597963975661e-02 1.150664682924068538e-01 -9.252614316826300589e-02 -8.341581113779474033e-02 7.292116546803827093e-02 4.027715337395656840e-03 -7.821947622094957420e-02 3.628908434062077387e-02 -1.964297644483857172e-02 2.651113123159195076e-02 9.825118113626515881e-02 -1.021019786121746264e-01 3.306147449861802923e-02 -9.345248028750238745e-02 9.375160971475356153e-02 3.124750398574652546e-02 -7.255566348107297947e-02 5.560292735162104122e-02 1.643376306795116606e-02 6.808292468808010978e-02 -3.974588001683294902e-02 5.293667007994292545e-02 5.368351706055226463e-02 4.839282381833034941e-02 3.133621350897096425e-02 3.530506611583402593e-02 3.611409304224003514e-03 9.263294098943068711e-02 1.985833275261486564e-02 6.371114147055724486e-02 6.686277910627873300e-02 7.933859693168185401e-02 1.026502044456821805e-01 -3.237198455619490906e-02 1.771837048723983940e-02 6.853946591667406385e-02 5.378746924969834281e-02 -7.612391275148686076e-02 -5.850989040419251469e-02 8.604823852785603577e-02 -6.117766134026560859e-02 2.337041549408905294e-02 -8.164047295368677404e-02 6.129534428517672412e-02 1.181916919039058961e-01 -4.333308777117206301e-02 9.290193689972391089e-02 -9.444581627642564814e-02 -2.838551564771663732e-02 4.539897685358658397e-02 -2.064986043252250297e-02 -1.578162123529493199e-02 2.369251392653371358e-03 3.961170501669095123e-02 -2.080105996492051523e-02 7.661365415914207777e-02 -9.260192295159085096e-02 1.563635691123510529e-02 9.425726490207946007e-02 1.325656101129756015e-01 9.175364007554693072e-03 1.207855368684247477e-01 7.044700470674196413e-02 -6.756874084510954004e-02 8.647822400122856523e-02 -5.989012063956290072e-02 -1.057114652271319566e-01 5.106830976990880261e-02 -1.362514102749573346e-02 8.062014577794954229e-02 4.825535789094567707e-02 -4.093005536028722358e-02 -8.901754994601734916e-02 8.974571512604877233e-02 -1.051837668115601365e-01 -8.340771273532381069e-02 -5.494300914815727216e-03 8.935457041454880622e-02 -5.689499658846377400e-02 2.864867701310056317e-02 4.112642024853026962e-02 -6.870100799783813994e-02 -3.222852540225007098e-03 -5.084763235885319393e-02 3.076078133465128678e-02 -7.046499034376146886e-02 3.208398972097952634e-02 1.517733178257662900e-02 -9.322088084077623238e-02 -9.740721624350125174e-02 -1.140823919744265724e-01 8.034945313811617251e-02 -7.497468399203782718e-02 3.503973948471462291e-02 -5.336645076599783738e-02 -7.966000422382607526e-02 -1.139751145092482570e-01 -7.819011045534057791e-02 6.673437993990674610e-02 -6.591057633394853399e-02 4.969889063657254719e-02 9.613613206900854802e-02 -6.575042645503960392e-02 1.050712561214636465e-01 1.103218326368375080e-01 -1.028807588606360512e-01 -6.627384407498992935e-02 9.089680565887654773e-02 -7.065153198461049389e-02 -1.106509735901604202e-01 8.324069022010832652e-02 -1.271578465594202893e-02 9.951639715110904491e-03 -6.055999492166975334e-02 -6.268725079854718489e-03 1.040501280340470208e-01 -1.282522874902125055e-02 -3.117029801800574526e-02 5.794877274513131338e-02 -1.266025041791221939e-01 2.254661635918618276e-02 -2.812269480710152467e-02 7.359958321192884567e-02 4.041415910468394018e-02 -1.006136440194612958e-01 -7.834221855954025260e-02 3.490685330668968911e-02 8.948162407296843257e-02 5.843853550607820690e-02 -2.811516103758044532e-02 1.019052254669585156e-01 -4.701489593437950358e-03 4.063512279950901029e-02 9.556991438592545018e-02 -8.990411271045248287e-02 -5.919820395737986768e-02 9.422718334995590361e-02 8.872994594222137141e-03 1.324226597231592806e-01 3.785349628547354101e-02 6.279551146086573277e-02 -6.172850000935779097e-02 -1.024748060979523007e-01 -7.448257704757457742e-02 -5.159592902251102647e-02 -5.926468557584500807e-02 -5.389479262788515745e-02 -1.584156746104283323e-02 6.259955807278635986e-02 7.398084672445682554e-03 1.108861223170013455e-01 -5.124435370777505154e-03 4.020555474928102363e-02 -6.006538789108548104e-02 -9.794355789574951676e-02 4.633269591088928080e-02 8.113306723820500055e-02 5.482518502785013043e-02 5.749851801545794588e-02 8.768056936657130096e-02 6.947983341634070276e-02 -1.226183905695244908e-01 -1.245293331641619296e-02 5.541383433717030071e-02 5.203110684383550899e-02
-7.328234616698743598e-02 -2.089983355847143537e-02 -1.026728603038120219e-01 -3.941730700023331896e-02 5.153646987279635744e-02 4.609125920343153516e-04 -1.109166804552380731e-01 -1.158389803091264963e-01 2.846656818414214710e-02 -3.445198548486814311e-02 9.311497621676327607e-02 -6.043297620306559148e-02 9.271060454532774331e-02 1.098919531391153066e-02 -9.871387066155191264e-03 8.233288088802466487e-02 -8.910095246768029442e-02 -7.413556832029716270e-02 1.262336427976850153e-02 -1.030789213052597658e-01 -1.966953891705619864e-02 1.035319113178158751e-01 6.017182745251364179e-02 9.173537671462617116e-02 -5.167585610791489842e-02 1.922308029195253509e-02 -1.195204332943977932e-01 5.477377842834288413e-02 -6.021258201525146042e-02 -7.681866194459746784e-03 -2.907393060649290928e-02 1.721654693326354554e-02 -2.599094596977025509e-02 -2.501361620912952166e-02 -6.001377589627907710e-02 8.753356775817190683e-02 -8.523873076854611430e-02 5.840492286162293767e-02 1.307271737568667103e-01 1.477488876984914268e-02 5.818829606885132788e-02 -1.242822475025191359e-01 -3.567098326152234877e-02 -6.368621006738917067e-02 -1.122202082331470313e-01 1.264683794896482444e-02 -6.094061776811142417e-02 -1.025009164652348620e-01 6.502048316383915449e-02 -3.397414031404266677e-02 4.942199288319112926e-02 3.706609568289390144e-02 -1.048247266861531968e-01 8.094086911864381215e-03 1.138826258630396271e-01 6.400334081285992405e-02 4.216563571157955909e-02 -1.128168631179882059e-01 -2.375821438342295630e-02 -3.081093586109028698e-02 -1.121719056598020348e-01 3.058303037545976807e-02 -3.953907386740752178e-02 -1.145635483664346650e-02 4.983363064193450931e-02 -7.625296031212611125e-02 -1.106509577661928395e-01 -1.365246729092026712e-01 -9.475668156572249201e-02 6.154439831379662079e-02 -8.848809259436982155e-02 -8.487178709103183893e-02 4.189169738316275010e-02 -8.706512999907149719e-03 9.547032043078121366e-02 4.833676911421781741e-02 4.288439972704097963e-02 1.293405056625537147e-02 1.394908574580165650e-01 2.511091713479432497e-02 1.376011344369419132e-01 1.158734065758344478e-01 9.578563819969755644e-02 8.053650153635413811e-02 6.142322369402425375e-02 -4.967769059408397303e-02 7.104189440733706118e-02 1.529761681389147643e-01 2.304103165913860395e-03 3.548173456182196484e-02 1.285040597573198218e-01 -7.057027122949935394e-02 -1.036407233689080713e-02 -5.758958329766438594e-02 -8.568237192101352262e-02 -2.296073940885081169e-02 5.500279744163444340e-02 -3.345911777704799889e-02 -4.544025288909133570e-02 -9.840466288895288738e-02 7.639861107642705040e-02 5.589973453995969455e-02 -3.485895817250389550e-02 -1.455438293299380660e-02 1.218037199454889141e-01 6.423045664001790500e-02 -2.936047220262995652e-02 1.227286583454971908e-01 1.361573831043487535e-03 -7.248152475955843554e-02 -7.622650119691218307e-02 1.020014137491849909e-01 4.401951802103048345e-02 4.243351540565402230e-02 -1.501612581983098474e-03 -1.494738474228888246e-02 9.045181455908447854e-02 2.885113950521051712e-02 9.345621889303852570e-02 6.070606819442855850e-02 -1.657054736692183811e-02 7.276440336231626213e-03 3.195192035733062253e-03 8.434181209610177102e-03 -3.750677703834796872e-02 -2.222104568391505136e-02 -1.258607526180698655e-01 -1.020746474093655320e-01 9.285953426614527995e-02 -1.927733001164613769e-02 -9.601496740913939565e-02 -2.237520817008198037e-05 -4.522445019749387479e-02 -1.277601052349133792e-01 5.322474882572098692e-02 -1.022608091085788207e-01 2.504143343472232334e-03 -7.895400970696016263e-02 -1.011350676156457240e-01 -1.881406565778393977e-02 -6.612265204060986667e-02 7.651723685557501597e-02 1.926315886915570472e-02 -1.050639793593876048e-01 -3.159733134544415178e-02 -3.055173852415277516e-02 6.836158050240649653e-02 -4.716794573527495482e-02 -8.267815164432873454e-02 -1.209708914804865365e-01 -1.156842200783043994e-03 -1.030045528305246066e-01 -5.097707832695032304e-02 -7.805577417373009419e-02 -9.246030885607611771e-02 -7.428864606764690182e-02 3.785847264536448820e-02 -8.321739683836203161e-02 -4.934778080155307473e-02 -9.807496508404413282e-02 6.724979820298748745e-02 -1.947615783867506084e-02 -3.059161410873370568e-02 -3.514742611673155048e-02 8.675194287043061503e-02 -4.726128734608815718e-02 2.023446952934134999e-02 -2.367742598470562974e-03 -7.259431245172205671e-02 -5.966784346140923539e-02 -6.829110840959946860e-02 -1.153938969831356659e-01 1.333647592753261710e-02 -1.292795194751316379e-01 4.130381275599553231e-02 -5.469227223032038787e-02 5.581630877643333627e-02 8.950892878796254393e-02 3.960867346358747793e-02 -6.634509352114226211e-02 -7.229558119697233887e-02 1.343511355180531178e-02 -4.544966978235223665e-02 -1.164897199651672988e-01 -1.283419890170046929e-01 2.850835460162969015e-02 -1.382305165455694484e-01 -1.124259829353641688e-01 3.494512996748273120e-02 4.083821225659933080e-02 6.694079965896568285e-02 -5.233541093861574650e-02
1.989821009043225494e-03 1.035562572639428802e-01 2.302819669077149287e-02 -1.012610183673177677e-01 4.831553407246306359e-02 -8.801452007485551648e-03 3.897763776030363069e-03 3.452549319108929454e-02 -1.356219647334215572e-01 6.401932541118283970e-02 -3.583491700083150239e-02 9.545958190071279770e-02 -4.642771275076571641e-02 -1.858603896222971522e-02 7.330880682149303051e-02 -5.507569882003091055e-02 8.651896865979322171e-02 2.631453721932818304e-02 3.946926692321137825e-02 -7.558866080215671801e-02 1.043177663922906506e-01 8.456276492281002144e-02 -1.122695122360424860e-02 -4.951608335263610328e-02 -7.667446898051090420e-02 1.410364121130443064e-02 -6.567335051942657653e-02 -5.392480972303374115e-02 -2.860149310279181192e-02 -8.288764995305700212e-02 -7.461260220895149509e-02 -5.277744951533235029e-02 9.920507696496322358e-02 3.617273132574053834e-02 -1.177314585254918000e-01 -9.917897376286877176e-02 3.008801928824152497e-02 -9.900395408197973368e-02 -1.136575136473752107e-01 -8.111135318483915502e-02 -9.936567776420145159e-02 -5.168409412013590110e-02 -1.010136185100034417e-01 6.680563820802610381e-03 -3.307698153387494087e-03 3.176030593763781718e-02 -8.071294250322165464e-02 1.167219987338462273e-01 -2.245397115172336963e-02 -5.131207354269001764e-02 5.633529404463751000e-02 -4.275309027275477763e-02 -4.234350322532189764e-02 -9.875301516286258408e-02 6.370986387305320464e-02 -1.389570796811466502e-01 -1.176686909311732386e-02 6.501606807515948605e-02 3.911896921631397711e-03 -6.314329967383090769e-02 7.178328609197627552e-02 -7.609791033323570764e-02 -4.942277894950033307e-02 -1.051141790491572914e-01 -7.085792438791366221e-02 9.427486911361925015e-02 2.982195003239143313e-02 1.534232569671913245e-02 -1.171702856951429422e-01 -4.840148889881330796e-02 -1.569986285025970138e-02 -4.827953423392759846e-02 -1.641787489825270643e-03 -6.967719247330060595e-02 -9.604945699283157223e-02 -7.707926862837634341e-02 9.217047094216117287e-02 1.231587095864595388e-01 -1.332878374125557042e-01 -5.308952707323531112e-02 -8.163485131673792194e-02 -1.054604155075593575e-01 -9.987200317550061490e-02 -3.697155100880062523e-02 1.095183421514523414e-01 -1.252517145193617620e-01 -2.314207942328896581e-02 -7.872292246102925717e-02 6.948576149824869930e-02 3.571711911742309065e-02 1.392229541540464244e-02 -6.432847211626629980e-02 -3.791171798329279891e-02 -9.405255867615570919e-02 -1.063550944479128846e-01 1.456159084048947762e-02 -1.502643325754677260e-02 -1.914396749780319582e-02 8.974405519545905832e-03 2.503884147613252495e-02 1.011765184631811393e-01 1.453388656160473635e-01 1.637309951568238428e-02 -2.004561647923779402e-02 7.917031390973873484e-02 -3.026523993942564078e-02 5.860882377007511565e-03 7.942109369700472987e-02 -8.233343475847666737e-02 -8.759901611959367007e-02 4.586747578588770691e-02 8.301963189215634531e-02 2.717518612230341093e-02 6.652193474918083327e-02 -6.840686325540720758e-02 3.519412880381115466e-02 8.657472491302049822e-02 -1.717414106105191740e-02 1.318386221615501681e-02 9.385502921619875982e-02 -1.739323487630646536e-02 3.883400279310537245e-02 1.195935074349403493e-01 1.189460834814945189e-01 3.533568357195474019e-02 3.222523187855891313e-02 -3.582064509914563433e-02 4.158393864159373038e-02 6.041594063935987191e-02 -6.719366558119983790e-02 5.944273023847603671e-02 9.898433669048931072e-02 6.574648765429401409e-02 -3.530490857640904145e-02 -4.286207334204483743e-02 5.744804745928754064e-02 -9.731664623965001482e-02 7.587520967074146139e-02 -6.024795028424354687e-02 -3.570228466821307595e-02 -1.239138363135070808e-01 9.670309874877663914e-02 -4.696878601200649150e-02 6.142422603787865872e-03 -1.120217860470949789e-01 4.449905654802824989e-02 -6.553655200210276033e-02 -1.168877582677403382e-01 -1.065658866881210032e-01 5.795565675822616364e-02 -4.843911971175847431e-02 -3.600990443060510943e-02 8.296646708786328817e-02 -8.044656946637583628e-02 2.192129571008712488e-02 -1.788187072279141115e-02 5.853188574664815874e-02 1.161014399104841888e-01 8.787470959673411575e-02 -6.673758736419133086e-02 1.783422097317170817e-03 1.061674295920635308e-01 8.053164726845057908e-02 -3.720671699117170106e-02 -1.021285696809866028e-01 -3.767076165901157153e-02 -7.765293126247016509e-02 5.704558967811593218e-02 -8.490730617899434896e-02 9.384745287885598586e-02 6.882594060411063863e-02 3.641717503235299830e-02 -3.547228661862779353e-02 1.261157599979241539e-01 -8.347884836439092848e-02 4.299095418938823909e-02 -3.558211773954485929e-02 -8.408306043402460905e-02 6.346653041622499214e-02 6.243520513144237144e-02 -3.471922229406080446e-02 1.072587127594081674e-01 -1.719921505455134988e-02 -9.025780112409834133e-02 -1.074650333982250933e-01 -4.243349277743845710e-02 -1.928133036091989397e-02 8.149395580022386620e-02 -1.223426595495736985e-01 7.496952462389440408e-02 2.314551619214658129e-02 1.129150557609942818e-01
-5.979364708848498855e-02 7.993354616591330508e-02 1.452805263919284932e-02 -6.119797742595536189e-02 -5.771089659014964901e-02 7.812164098280728955e-03 1.121942774234400003e-01 -8.599123564508016904e-02 -8.057186322419719604e-02 3.714130004311258504e-02 2.492245777181302090e-04 3.015141997095189749e-02 9.791980648840237222e-02 -2.045778489543675915e-02 6.312684796547608779e-02 2.593943028071210577e-02 -8.004421055853417439e-04 4.936013328775731845e-02 -9.791801850954683084e-02 -2.205352671098088913e-02 2.486164890010153158e-02 -2.707760853170745538e-02 1.410547180182004368e-01 1.214727801624435471e-01 -9.463344746152554943e-02 6.253690367895359259e-02 -9.816450573008754510e-02 -2.496180314814245432e-02 3.399599546172438116e-03 6.663479632397364960e-02 -5.808883674889871868e-02 1.075352718926604334e-01 5.259910852312400104e-02 2.704807183803775369e-02 1.960506345732269257e-02 -4.262448657961724618e-02 1.217989973247019936e-01 1.048618622765087015e-02 7.491391466736939397e-02 1.097070050001779790e-01 -5.910458630539802694e-02 8.530239427970190413e-02 1.283792941383836983e-01 5.109677744035798913e-02 4.909817091443552384e-02 1.383148510093295258e-01 8.144175861424365892e-02 2.474462541257540366e-02 -1.057870827206169734e-01 4.501743478143384325e-02 -7.072855204507964844e-02 -1.164918911294005183e-01 -4.639583942797979865e-02 -1.941190351467600092e-02 8.059730879166955575e-02 -2.769654575736808094e-02 -7.434101276024437932e-02 -5.988463842284286187e-02 -2.824970177949083505e-02 8.325631107341960324e-02 -1.592021660679171849e-02 9.774689181020844442e-02 -7.544296855927445922e-02 -7.632908457298345772e-02 -9.381094731785188934e-02 -1.483846551059419226e-02 6.670667344728570258e-02 8.734951570837704016e-02 8.073780637302181706e-02 5.120594560554333867e-03 6.688529506527737811e-02 1.449148987054641735e-01 -6.697631997440206542e-02 1.322534231541573069e-01 5.667430652050937934e-02 5.213474746738549354e-02 -7.208960200132261131e-02 -1.276951994198702312e-01 -1.888113603453459152e-03 1.032112099446804571e-01 -7.002887264610492546e-02 -7.930778135909613558e-02 9.713339905983037204e-02 -6.956633034466225274e-02 -8.901991183513517647e-02 1.760593222043403683e-02 7.745690058539945848e-03 -4.426105784699028989e-02 -4.544162706264036344e-02 7.087212567540698838e-02 7.873698720412838914e-02 -8.957267983720361426e-02 -4.540614853822992625e-02 5.007338937999229050e-02 -7.895186167726350734e-02 2.208422203429334305e-02 7.322806171032854305e-02 1.990295632811719603e-02 -1.048494341641405120e-01 4.908135686635889394e-02 1.015294311566958263e-01 -2.441646719686065350e-02 1.050129748755910392e-02 6.572462235348895676e-02 4.050209892297271935e-02 5.741345020767948948e-02 1.490713405919269485e-01 1.166043335378862539e-01 -1.192235717955176036e-02 2.942479252431286565e-02 1.087827063811759448e-01 6.636438469196913326e-02 3.532526104079332374e-02 9.448981674824921684e-02 9.653110639007508875e-02 -8.737883988507789967e-02 5.852539569811927855e-02 6.678738242681915571e-02 -6.268403707861950128e-03 -6.798328128862768382e-02 -1.077136601103345082e-01 -9.051112991334490238e-03 -6.969123487846849707e-02 -3.108876139858291268e-02 4.241015674451496104e-02 7.257297320949536446e-02 4.851171100993653673e-02 2.672775216082654329e-04 1.030730554556361089e-01 -9.906512347462687051e-02 6.409749849894302853e-02 -3.637403247868606273e-03 -4.225905130282487515e-02 -8.283910908191491340e-02 -1.122580435398908699e-01 -7.480214635190473790e-03 8.244833970592231609e-02 -1.106622512939939712e-01 6.777372652242265316e-02 5.233780743375697313e-03 -5.000479277796818917e-02 5.545252794821704800e-02 -7.408312322321877752e-02 -2.545646211055876615e-02 -2.429338444274671202e-02 1.016898540966217901e-01 -8.186586013263200123e-02 3.891378003813890374e-02 -1.057357659824912782e-01 8.070638202300021991e-02 2.801888072665858695e-02 5.420350145677956671e-02 5.140480867500878126e-02 6.208795767490602607e-02 -6.486145200092773011e-02 -7.237512852295477361e-02 -1.755466258106575320e-02 -4.915413960732336468e-02 -3.499888148382038211e-02 -8.172831937730581919e-02 -3.026493723945359107e-02 -3.452093533096625005e-02 -4.021757481512087951e-02 -2.358336963279840728e-02 -2.505368800995042694e-02 -1.252370412308763947e-01 6.877021449298986733e-02 9.933613683377223724e-02 8.140273014504846583e-02 6.011943873286069995e-02 7.980057712515785384e-02 8.614625656378538388e-02 -1.195071984891677916e-02 1.122150071005066224e-01 -9.047667613030171974e-02 1.148350935940696815e-01 -1.240098848234910400e-01 4.166870574062973842e-03 -3.490204198022352211e-02 4.314359033607515783e-04 3.801720257809151904e-02 -2.397407097135861170e-02 -9.712630228070369539e-04 6.028220076965533358e-02 -3.694771199748687115e-03 -5.521900333440196186e-03 1.379969059010038301e-01 1.034624644857469467e-01 1.059471076536200734e-01 -6.554501445774690849e-02 8.936182753246459110e-02 -1.168686455333718816e-01
1.671805570402936925e-01 7.900782483646311138e-02 1.053349297144976632e-01 9.582716816529125714e-02 -9.319156900212706429e-02 -7.580175173269459998e-02 -6.492175062373410459e-03 -1.317341200445131533e-01 2.059291215416071338e-02 -9.698582832539857923e-02 -9.867400363540654307e-02 4.427791367817948687e-02 -1.096215332514053620e-01 5.155563166149666060e-02 4.321703388633604120e-02 2.618932447376051686e-02 6.341904244157923034e-04 2.536969865847698430e-02 6.050278666894804563e-02 -6.601913220712175845e-02 -8.784749047365134067e-02 4.572594717961474958e-02 -2.757706425861223762e-02 -1.510277825786202760e-02 7.947321687556438419e-02 1.251003566201662198e-01 -6.289079529026120330e-02 7.861067674961448593e-02 -3.129249383176216370e-02 1.086463012263877148e-01 -1.175966918572304426e-01 1.074610539097682893e-01 -7.369360813591809001e-02 -2.275496221309477804e-02 1.029519277043535186e-01 -7.037490549199014456e-02 -1.129879305552029638e-02 -4.907348975965084015e-02 8.229098379464697133e-02 4.397265895343891069e-03 -8.921995408565633334e-02 -1.198484257899147393e-01 3.416006909868926807e-03 -7.537784361648035281e-02 -5.157692064322477732e-02 3.671724914748746016e-02 9.344968245135515383e-02 7.597131206542143134e-02 8.107070146645113662e-02 9.279205198423336187e-02 4.380287015594761663e-02 -6.211401414848237434e-02 -5.130821201370065754e-02 8.309641739766372714e-02 1.421191163765777102e-02 -1.001128224853582160e-01 -7.397349134987181440e-02 -1.245700890880814260e-01 -5.979879778189473721e-02 -2.342337287021111283e-02 -1.161936014641978647e-02 -2.809756479158611112e-02 2.951246363110343607e-02 -1.086085405190198305e-01 4.119948988208129055e-03 -3.723082771630621679e-02 5.827682127051224403e-02 -7.432293912484073950e-02 1.240053689691501398e-01 -1.108274289183635714e-01 9.246265279535471893e-02 -4.922054328944581308e-02 3.655657794007127065e-02 8.476656329303065840e-02 3.815740788609689460e-02 -1.806251642805719107e-02 -4.882284053972218985e-02 1.162183663168169512e-01 9.021468560848590812e-04 -2.884398327885638255e-02 5.887139276059062329e-03 -4.578358881293971561e-02 9.108913536389391663e-02 -9.743540852474548430e-02 -1.085047465938347028e-01 -7.858008573520035289e-02 6.746317422942043306e-03 -1.867342098191705768e-02 -2.435209724615119975e-02 2.882666800783012864e-02 -6.498933475284637828e-02 -3.829802416887494176e-02 -3.497570736692618559e-02 -7.926926459532697422e-02 3.899302057441230568e-02 6.494455992590540683e-02 8.333094039741431591e-02 8.455151782972461505e-02 -5.388203711413241948e-02 9.549790731643237329e-02 5.494820140867637086e-03 8.797876117907871274e-02 9.238277561814053906e-02 -8.813710654125575528e-02 1.079444237218881719e-01 2.052377860443001332e-03 -6.182294032856576471e-02 8.060926583951510960e-02 -5.727786893312073607e-02 -8.803979582805843140e-02 5.326800882879204752e-02 8.433829609435739005e-02 -1.257210126192360722e-01 4.416266413647512018e-02 1.126956613876965371e-02 -2.588289099252457856e-02 1.325209735521441605e-02 2.453522895683358379e-02 -4.653254183942421435e-02 -1.216888233246901374e-01 -1.404687032365337096e-01 2.132526525190170386e-02 6.812184136410319446e-02 -4.397363833956702966e-02 1.014464546888464158e-01 2.422733111076748325e-02 7.055851518552114232e-02 -8.903179272466225924e-02 -8.558286572849001239e-02 7.553676780690862791e-02 8.840154775942549170e-02 8.494013938558328536e-02 -4.288391107369719096e-02 8.548160659699069464e-02 -6.195233212941181344e-02 -6.842039202866589953e-02 -6.265072400237083061e-02 3.908688140259266447e-02 2.796299140240462652e-02 9.257281161229721778e-02 7.405562820311914832e-03 -2.340364590328873184e-03 9.486478538241580050e-02 -5.912826297918215290e-02 -2.305225200279375011e-02 -8.691094834649537582e-02 7.683483119481226975e-02 -2.606556684078432246e-02 7.043091201677498248e-02 7.103009732322919378e-02 -3.339546486777524026e-02 -4.588899860761631172e-02 -7.140710115502953148e-02 1.257192253570590390e-01 -3.180546539637095493e-02 -8.971759098174976466e-02 1.405751799917434597e-01 -1.687648413983629594e-02 -8.791429580483338391e-02 -1.870752527494824735e-02 5.018286387543659938e-02 1.006075355709265019e-02 2.540275268803892511e-02 1.230530210544538566e-01 -6.546894951793127970e-02 3.715621039408571746e-02 -6.261027188804799658e-03 -6.517577751791238383e-02 1.870483384249406120e-02 -1.359656708439595796e-01 3.952980976572749439e-02 6.447523327507054258e-02 1.680908080674256393e-03 4.443987725123750565e-02 -1.155489933892354937e-01 -8.940354269626106520e-02 -3.006974097579401609e-02 6.338055484921276128e-02 8.159566406463106270e-02 2.132047621037276575e-02 1.352542921158090550e-01 -4.112043773423740278e-02 8.612072666273767885e-02 6.113887659955392212e-02 6.910049179169799882e-02 -7.696837440910044015e-02 -4.878886039915353995e-02 -1.025723268912233227e-01 9.082608297307989687e-02 -4.804356908289707934e-02 2.902598271112982395e-02 -1.888736290590859249e-02
1.684435065103075113e-01 8.575891197658766507e-02 -4.361356558774863446e-02 -2.481010317771585247e-02 1.434181618583993123e-01 5.853033365464082455e-02 5.529307519963990933e-03 3.810058070901191363e-02 -2.066584093160033636e-02 -4.755464579035937472e-02 7.202599937406697905e-03 -4.185382441848627816e-02 3.234899917195341312e-02 -6.851433686072085083e-02 6.794180348380166046e-02 7.261338241146889083e-02 -9.279836174463038101e-02 7.322279779864149241e-02 3.371567837194369005e-02 9.663035890817146811e-02 -1.120664519868708325e-01 3.599411333902882010e-02 7.093313407769835655e-02 1.062467124399937672e-02 5.907077586863328234e-02 1.215890159244327057e-01 -9.088713304372897372e-02 2.714322618047561655e-02 3.846765734668397552e-02 8.574932170040147628e-02 7.088844921831120860e-02 5.426790572048351309e-03 3.715102382434561784e-02 8.087410664297750573e-02 -9.455878088568010764e-02 -2.890513482452182828e-02 3.269682759406870171e-02 -5.767490614828818529e-02 -4.731242858855452815e-02 4.676082166786218325e-02 -1.223786377554725996e-02 4.197257855864889448e-02 1.188325746507733066e-01 6.286319117964450122e-03 1.213387975517928874e-01 -5.750427203058416925e-02 1.100526492622395658e-01 1.062144491358788939e-01 1.049314269961052447e-02 4.252852337126283855e-02 7.975932662660475958e-02 1.366989993813434376e-02 -5.709845716975504859e-02 -5.211307854118293198e-02 8.703573417495358289e-02 -4.467314158224477277e-02 4.224855374629744344e-03 1.164266478559206203e-01 -6.278728230753265194e-02 5.483340020305751267e-02 1.589220398740666049e-02 -4.828005057476811995e-02 1.004065459836576829e-01 -9.673440863986260130e-02 2.292847902061188187e-02 -6.935271812672318126e-02 -4.900522525516131517e-02 -6.408628273044705836e-02 -6.668936901431647690e-02 -4.730869413300373832e-02 6.622012765066288831e-02 -8.195674182968303023e-02 -8.974858482601854584e-04 -7.079096013594447789e-02 -1.127643357560614984e-01 -7.597719333573951794e-02 3.093574212530128542e-02 7.983950982516323236e-02 1.251615913436308902e-01 3.672929146643245241e-02 -7.595693783122255127e-02 6.544794124858266393e-02 -1.094560583114129702e-02 7.165233300791043133e-03 1.340089388721707742e-01 -4.380454203116477402e-02 5.571639244831447235e-02 6.013794979442118466e-02 -1.208372210061105789e-01 4.286587379575330925e-02 2.434986530536655674e-02 -8.156484899910701469e-02 -4.846033363020790796e-02 -4.423639065943670706e-02 -1.135538707745629566e-01 9.500694923988557694e-02 -9.680695900087171735e-02 5.022777712073496492e-03 1.601448748864702995e-02 4.358011661976896045e-02 5.327060140805200961e-02 2.431252775243805328e-02 4.203805560876527903e-02 1.235167500613957581e-01 5.509245059793656425e-03 -4.288549006438197031e-02 8.002696203324129176e-02 9.206552849464802457e-02 -5.259251251920554759e-02 -6.187112991595953432e-02 4.315657687909127405e-02 -1.216120449722109254e-01 -1.404746170282219486e-01 9.592736334542197041e-02 -4.408661117840044497e-02 -1.949338539084871993e-02 2.269562930116197919e-02 7.375966724975172029e-02 8.183667134883845784e-02 -9.390334786127084443e-02 1.089505962094629993e-02 7.343676947689581347e-02 4.631989832987843531e-02 -1.019280835760563719e-01 5.160609152029215635e-03 -3.745853360484684147e-02 1.014127823767334291e-01 -9.342520701747099657e-03 9.481032384315377093e-02 -6.631745814266422345e-02 -7.621792637350346955e-02 -3.425580356929688181e-02 -1.133223885151338622e-01 -3.755503453337535880e-02 -9.228968555931027495e-02 -2.522141534726220560e-02 -1.132527769849970556e-01 7.722478523086171234e-03 1.295867845821072617e-01 -7.904112891119365394e-03 1.338482954471495734e-01 8.403826158374372302e-02 4.352725523509906602e-02 -3.296804040288200260e-02 9.158639224628932485e-02 -7.646947598384203071e-02 -3.673557054317967696e-02 6.575369393596031120e-02 -7.938400739488689350e-02 -6.460309294224467203e-02 -7.424236660431117463e-02 1.040112904365858154e-01 8.118783904427404052e-02 -4.642317958024662350e-02 5.156305112583158684e-02 -1.488921978546717262e-01 -1.124901119664232507e-01 4.901390780969865080e-02 4.254311424027178851e-02 7.874793728058528119e-02 -1.726639614011924936e-02 6.720187209876309076e-02 9.416693547412152698e-02 3.860944986835060377e-02 -5.263551524601426529e-02 1.144388480345432807e-01 -1.497670086742902565e-03 5.479228031980320351e-02 3.596823774444860705e-02 1.821525448031471872e-02 -9.176847039417282414e-02 -6.451955522323041259e-02 7.063444170835000979e-02 5.027872749311405182e-02 1.234159505571530008e-01 1.714307654802886549e-02 -9.884627257135508716e-02 3.461920566739595632e-03 -8.094636505318238140e-02 -1.264975749842857725e-02 7.616232600959439714e-02 5.995792947899485775e-02 -2.218645885712155694e-02 -1.239062667401766293e-01 1.121710302199642852e-03 -1.428908452484307368e-01 -2.717370914863144818e-02 -1.517450554345597469e-03 -8.717516474366630852e-02 -3.098395936825712807e-02 -4.826652707622495347e-02 -1.108083610338818914e-01
-5.470249401387958926e-02 -1.271519739372422089e-02 4.762541205400196154e-02 7.033651504397045451e-02 -1.367872672030487902e-01 -8.512941898400515350e-02 -1.498383840117786248e-01 -1.138521883324134995e-02 -2.389823495096245198e-02 -2.310958378809398542e-02 -7.058566673864377639e-02 -9.362388721668800373e-02 6.784403857854122422e-02 -3.786902957154851534e-02 7.605267630767419129e-02 1.011565016410995860e-01 -1.299356490182563550e-01 -2.591257075002871210e-02 5.941091778699372772e-02 -4.812584251530097057e-03 2.893876737139310443e-02 4.969126243395871612e-02 -2.644608869787401159e-02 1.886997856715535993e-02 -5.151777327618804053e-02 1.899931013559996024e-02 -6.086061880942683633e-02 -8.519950098438341946e-02 -1.112594919002444713e-02 -2.956074864484498077e-02 -8.721099166035314876e-02 -1.521145620237479568e-01 6.949546731726864712e-02 -3.335527933066924355e-02 -4.543188693437124476e-02 -7.101955530209186351e-02 7.433156818965247492e-02 -4.002439680532704838e-03 -5.960362484708069120e-02 -6.773738699510242767e-02 -9.442307599818496044e-02 -3.717422171050529384e-02 2.991490545303901807e-02 -5.125613619190064890e-02 -3.061132967705228539e-02 1.110705740180347768e-02 -1.165532821717982642e-01 -3.759382472010909526e-02 -1.364622611570404931e-01 -7.125056787058811625e-02 -9.927205233704515519e-03 -9.923723806488611576e-02 -4.818210475800569631e-02 2.804799743116367580e-02 -6.729359421967126553e-02 5.591224331588741381e-02 -1.028597392892065671e-01 1.276547636280605247e-01 2.331296354649240593e-02 -7.504444616403919965e-02 -7.599907119076407258e-02 -4.392863262067744912e-02 -7.690020160392376132e-03 1.188861724802874470e-01 4.044391849588834659e-02 -2.880060260654491305e-02 1.085286022341813150e-01 -8.363418487112039140e-03 7.133450917911665634e-02 -8.294193078706291189e-02 6.517675303542057319e-02 5.426702238179334503e-02 -5.435707367086145547e-02 -3.259245091583575383e-03 8.825918469322853455e-03 -8.870835538356078298e-02 -1.102370056108137042e-01 -1.661910773550847806e-02 -9.069581536958797041e-02 -8.249684919802927063e-02 3.483603448159842270e-02 -1.355786579833798688e-01 2.666931228157574246e-02 -2.551998367527189004e-02 -6.194488979079443985e-03 1.701194159705308670e-02 -8.265569990392961086e-02 -1.005371225951812338e-02 -3.020351104881332897e-03 -9.683977436689632234e-02 1.044867957512464890e-01 -7.013801913410426525e-02 1.014569445606764708e-01 -4.080859068029379921e-02 5.599593561429820621e-02 -2.152377599322387314e-02 4.635446821641164838e-02 -5.002017468373467363e-02 7.381139856141484545e-02 3.440855040153015937e-02 -3.497430423097065699e-02 -6.104316625770352112e-02 -4.564371848392255460e-02 -7.895746143469696554e-02 -6.368461631686675450e-02 -1.229451510140775611e-01 -1.129687378642863227e-01 1.522189361744557060e-02 -1.195228005064916388e-01 -3.255669815364690967e-02 1.072366747462562692e-01 -8.769838872390862961e-02 -1.291904651698023987e-01 9.652991275882519609e-03 -5.174824209041428702e-02 -8.366613072887703340e-02 -1.890440612483550858e-02 -2.198437995286810220e-02 4.889384869860462397e-03 -5.420212452349143506e-02 -6.718905755005585845e-02 1.395606684582493401e-02 -6.488000032432399145e-02 5.950299647620842236e-02 3.604604400954224824e-02 8.939256185248738162e-02 1.103927078411837473e-02 -1.277456057863625427e-01 -9.498602776354318766e-02 -7.903831806209454802e-02 -1.455939465807798427e-01 -5.817851762458192688e-02 -5.827994002739633750e-02 1.714876733373988868e-02 3.139548562836400047e-02 -1.469475726419649034e-02 9.635204142436626373e-02 4.320838444252846772e-02 -1.797721455794588225e-02 -5.982721018554229553e-02 -1.032295241914865797e-01 9.243446236504576641e-02 8.741984015696684790e-03 4.200793085948666128e-02 -4.213241534601052524e-02 -1.311833109427406607e-01 -9.520445673690028365e-02 -5.476806273430313149e-02 -1.064652258291011594e-01 -7.068706320393591813e-02 -1.521724377358471200e-02 7.931667904520216250e-02 -9.356771195165061727e-02 1.260131892236402429e-01 1.002647476207625954e-01 6.332538637192705600e-02 -2.288878777299927295e-02 -1.381826922386880097e-01 -4.545315688835674557e-03 -5.484559001343826401e-02 -9.137879259197266568e-02 -8.682358044880696124e-02 1.148900982101314083e-02 -1.131437483627575069e-01 -3.098023803313425251e-02 8.337112817009495469e-02 3.788962790044004408e-02 2.116324724513968594e-02 8.747289071230266583e-03 8.096590345944917888e-02 5.666587792775039378e-02 1.412456385119890967e-02 -1.086477735270532513e-01 2.534554616118385451e-02 1.426834736732988107e-01 1.299736912412978451e-01 1.009726536129692404e-01 7.130852226973918850e-02 -9.344113802706290051e-02 7.497398366764153332e-02 5.867359853273367010e-02 3.606779395582525305e-02 4.262831601389521080e-02 3.584307792626776831e-04 -1.045449319273915323e-01 1.118474042655785965e-03 -1.152764321475834297e-01 -1.091710324656583742e-01 3.757420623266613524e-02 -4.367574735738045250e-02 7.761867012415377132e-02 1.892108810651379688e-02
-3.691719502396369895e-02 1.700501621385017148e-02 -7.981391988324551545e-02 -7.830094669516949810e-03 9.082706670565347806e-02 7.153601316218530237e-02 1.178575338173847298e-01 -9.892252641798655877e-02 5.868323960773282055e-02 6.828061612886737741e-02 1.363401359607439300e-01 6.094023540580348341e-02 -3.318030502605123083e-02 -1.099831893545119427e-01 9.040351773429039506e-02 7.226137256977868684e-02 -9.265127809641748868e-02 -1.278510177150584126e-01 -1.022208839321519513e-01 -7.306416498862067233e-02 5.551751935793129700e-02 -1.055415118678646597e-01 -1.409786496541221663e-03 4.062669326951059284e-02 4.367625012784055911e-03 3.122407469799060031e-02 -9.363799596412066342e-03 2.739931694522848571e-02 -9.427827771695561354e-02 -9.787090261494502119e-02 3.083287214637706400e-02 6.360312186238506471e-02 -1.370525681747601469e-02 8.680051101089575338e-02 6.352998781186250388e-02 -3.695834952392872824e-02 -4.323941278749420664e-02 3.140303841844938743e-02 -1.067754787252848253e-01 -1.228292844155253749e-01 7.730755993056882130e-03 -1.101942661126735501e-01 -1.071692884272733015e-01 -1.018629863377291597e-02 -4.067326602158204130e-02 -5.842196055269402444e-02 -2.097406639411627388e-02 -1.209448080183254670e-01 -1.691497850380007870e-02 4.602960588231033712e-02 4.864241584090260584e-02 7.646429441330739041e-02 -1.089809395076489634e-01 -3.302700324035662965e-02 -1.028983747553474104e-01 -1.096064471747444369e-01 -8.057496479110513865e-02 -7.114466825588977583e-02 2.072731938861964787e-02 9.370641802367198070e-02 -8.068211756841756066e-02 6.263022069353883781e-02 -6.892389031796237043e-05 7.918736952106276983e-02 -3.610844514573540234e-03 -7.759682694405743708e-02 1.260142970925893779e-01 -4.847198359319879885e-02 2.143728748532037348e-02 -6.003988539771646510e-02 2.993145533785894138e-02 1.845321200958139826e-02 -7.090611469179335102e-02 1.357583152754676496e-02 1.321951390060140397e-01 -2.849256694658885286e-02 2.873821135241562408e-02 -2.604002698312004108e-02 6.890695243293333550e-02 -1.103390195056088569e-01 -6.943685662359048993e-02 -1.945140053303088395e-02 -1.881424582773875281e-02 8.259036863728497560e-03 -2.420099123019013587e-02 7.335029035059228986e-02 5.002746954779106747e-02 -6.329868159574190967e-02 -1.913681917178158484e-02 -7.708760391992060257e-02 9.135950589706273717e-02 2.521429237665876594e-02 5.924906299453270436e-02 5.479740098023033051e-02 8.480379744959434807e-02 1.038785828577064446e-01 -1.660833821386799997e-02 -4.790450115061456460e-02 -1.030421392894846355e-01 3.676736578393922233e-02 -3.732196100632453883e-02 6.531113135269961401e-02 7.054569515416522774e-02 -1.015051189602200477e-01 -3.104979412890872606e-02 -6.773900214981530554e-02 1.080787249791391319e-01 1.361581971592911999e-01 3.920611565590338687e-02 6.749386835281619146e-02 6.856711930468434302e-02 -4.959059195902657674e-02 -8.144442894713131709e-02 5.511391792672141327e-02 -1.075389494216348329e-01 -2.398939804999252606e-02 -7.041080926699722076e-02 2.027662519208691533e-02 -4.938176621615508743e-02 4.270631061957545077e-02 -1.193982282516580229e-01 3.505868856323478971e-02 -6.594935888054420658e-02 1.011865516390121761e-01 1.966840763689001528e-02 5.721160583242362874e-02 8.819314286442335449e-02 1.259486875201067946e-01 -2.742781547287946251e-02 -8.473333948386967129e-02 6.191409440395056335e-02 -3.159590436092954706e-04 1.383550732225621860e-01 1.578212263717970049e-02 -1.119689610346649017e-01 -6.622613931747883820e-02 1.104075568912521454e-01 -6.870755577717839457e-02 -9.525196242675740277e-02 -5.991319447472721188e-02 -5.459988831951249032e-03 -1.799306418009988598e-02 -1.046988345320084696e-01 -1.453730764107385130e-02 1.255345635860271869e-01 -1.005094943306918537e-01 4.176859751017576727e-02 7.130157353070795678e-02 -1.019718127672112756e-01 -7.054683926855519205e-02 7.612216510844754813e-02 -3.642402759866175069e-03 -4.261185621774237625e-02 1.913301792685559444e-02 7.150884578179438067e-02 -4.341266085858162121e-02 -1.240027048884888433e-01 -7.382568126404383431e-03 8.136088699730024965e-02 1.120939892186271908e-01 4.846321015983896113e-02 8.115717330083806191e-02 -1.286872152373193801e-01 -3.772971516336205700e-02 2.592865974763555736e-02 -1.625899880314016655e-03 8.326560348088524188e-02 -8.719463526827499200e-02 4.444230486573320232e-02 -9.749886576073578393e-02 2.768121798109862350e-02 -1.422838300166397729e-01 -1.479893426811772390e-02 1.360736231754768912e-02 8.597046255795185929e-03 7.782185003832674253e-02 2.027734151721734962e-02 -7.616324132933394164e-02 -5.606077087353186078e-02 -5.710471828325221211e-02 -1.248409894840210727e-01 4.536430310610193965e-03 5.810989194151087306e-02 4.743279347265047519e-02 -7.167097560569601900e-02 -9.540292989235106547e-02 7.242571425137418750e-02 8.634469139426570461e-02 -4.892026104712968171e-02 9.013617988104316581e-02 -3.893242758007089271e-02 -4.916162643228936396e-02
5.096898068181996561e-02 1.337680765550268436e-01 1.497994271312585723e-01 7.344634490199559995e-02 5.999143545227924451e-02 -3.563298837654185758e-02 9.155724000384432570e-02 -1.055125114554127524e-01 -2.058582458409214180e-02 -9.999446094100088167e-02 -2.028424061992023866e-02 -4.789975721963056488e-02 -1.374845058624984684e-01 -4.164005663265468726e-02 -1.159162723194070987e-01 -9.899123186182352818e-02 -6.233538037305629345e-03 1.290910945573467417e-02 6.135059018550120119e-02 6.325316724128986212e-02 6.109436910173259710e-02 6.710046982000061888e-02 -1.225767013038086689e-01 -3.975569549560849236e-02 9.624583717381869630e-02 -2.430623444206327088e-02 8.925963986650937987e-02 7.287335127798489492e-03 7.177066619740345155e-02 -4.567510898724860824e-02 -2.059062031587272426e-02 -7.477371787007830450e-02 9.141406122239995047e-02 -1.078867696675634702e-01 -9.063056970704257143e-02 -9.879169503477591707e-02 -8.725216216662040614e-02 -1.436822502212403881e-02 -4.547099117097067912e-03 4.641412327397081289e-02 6.630982811352206796e-02 -5.565585503023753877e-02 -6.887836925980597366e-03 -1.608992552717916635e-02 -1.054362955371217075e-01 -4.725583243782779247e-02 6.198793408729324876e-03 -3.363331847271031072e-02 7.995905457936043625e-02 2.442756182019816327e-02 7.362510442798697596e-02 -1.126116747317411487e-01 -1.050600795428748152e-01 -1.113085642685764619e-02 8.663421962894332640e-02 -6.487514369599471642e-02 -4.814166590024736292e-02 9.033277536412583075e-02 4.747466996249193050e-02 -3.708685983069463094e-02 -1.068258649404475596e-01 -4.849812228901870248e-02 6.062295438879137383e-02 6.201918560076203485e-02 -1.123390242074912872e-02 -9.389280359964507702e-03 2.639838620054528115e-02 -6.577976950468854278e-02 -8.281621479481361681e-02 1.182105172578644253e-01 6.295955777854998769e-02 7.203656266554445131e-02 4.347777808480114692e-02 3.010689417402804581e-03 -1.943904654557787604e-02 -8.412231189709785950e-02 9.006484047198926035e-02 -5.379212912389723378e-02 -1.061303738617265374e-01 8.831998240056375404e-02 -4.530074472782293776e-02 1.398349804372003369e-03 -7.819446440005099752e-02 -4.938591362057435236e-02 4.186412237804539027e-02 8.522522274177084245e-02 -1.210539929140996979e-01 3.854443012941523999e-02 -7.823645274673174388e-02 -7.369152965331599026e-02 4.687630862862049094e-03 7.734919829465744523e-02 9.086556128365523566e-02 -1.122650781083242150e-01 -3.784481596642304962e-02 -1.351901263820538650e-02 4.223475085868590856e-02 -1.031009188418412770e-01 4.013663909246303896e-02 -1.114266551322886933e-01 -1.087190281763829452e-01 3.842902303174908218e-02 5.377597291382534700e-02 -9.069733308909462555e-02 1.123573959102421999e-01 1.065933652829292033e-01 -6.476674966399455224e-02 4.310718313952989489e-02 -3.326973973662673487e-03 -9.576415033539777133e-02 5.624412744955992888e-02 1.127863527816714700e-01 -6.332425567608396255e-02 7.924067634280679284e-02 7.877360104631739302e-02 7.981803001742631201e-03 -9.124416506017113404e-02 -7.545563725489129459e-02 3.077742703749501707e-02 -9.617983990806511230e-02 2.010436772798692914e-02 -9.619855207767849525e-02 -8.614794384366823710e-02 -5.488191715452732551e-03 5.523044079700514114e-02 1.766174977503863833e-02 1.075901462698203165e-01 6.688197154360617930e-03 1.005483885620031964e-01 4.628291038068286373e-02 2.227337262987188690e-02 -5.604406778453967231e-02 -6.631681025960436959e-02 -5.497328509423874722e-03 -7.947509160023785713e-02 5.659052039824016833e-02 4.338538142200908110e-02 -8.199562477002483862e-02 -8.538768447154172769e-02 -7.940717670353984736e-02 -1.347582922004000039e-01 -8.008916373268130939e-02 3.353035353957467546e-02 -1.368201713611907379e-02 4.694461679140540106e-02 2.376423451092073841e-02 2.554523104172208223e-02 -7.205357047654304889e-03 1.192851071080358594e-01 7.824680096142246077e-02 6.545725304285100743e-02 -1.041128956567479169e-01 -1.009783898740595487e-01 2.942133416317426614e-02 1.355087600206701659e-02 -4.576962775766126729e-02 -4.722838627514348853e-02 7.559873096136568438e-02 -1.482527296580147137e-03 -5.475011721376143309e-02 -5.946343975587376623e-02 -1.372161921123331990e-02 8.817007179569573416e-02 5.031570881808282436e-02 4.586340384651247520e-02 -1.379158667825061135e-01 4.037820318899006805e-02 5.680242778856334912e-02 2.142515762673080637e-02 8.393648270506566533e-02 9.166005251887823779e-02 -9.203623771987724800e-02 -6.951928226702229485e-02 3.845271648036051402e-03 7.481807110138941064e-02 7.662023914351953971e-03 6.126081832301719099e-03 6.338971390707293097e-02 7.130109453690307297e-02 -9.033802014300595928e-02 -9.102015469072879256e-03 1.039657964558439174e-01 4.376289876556520991e-02 1.078983410975475066e-01 -8.697301590023255591e-02 2.123830120357343351e-02 -7.565911756232100716e-02 1.073100161189365909e-01 1.353346709711176488e-01 -8.118094924517328670e-02 -5.965800401007124998e-02 1.091703149671317818e-01
-9.193995091202991632e-02 3.050993926227124967e-02 4.612498323891996849e-02 1.153081578167400052e-03 -5.042386728001675006e-02 3.293150716829375962e-02 9.483502815961937504e-02 8.286455571007028675e-02 -9.795445412390745010e-02 4.234839473341758809e-02 -2.214722926222632837e-02 1.262715302384911642e-01 -8.015075357087628194e-02 -4.226090169289378577e-03 1.235208453198640421e-01 -5.638397694167369273e-02 2.412466046064510108e-02 7.106910006191956286e-02 -8.583637390659444588e-02 -1.655187322365924557e-02 -6.002119982579514701e-04 2.940986700746016369e-02 2.643893340435117881e-02 4.746848141174967589e-02 1.357052533826196873e-02 2.811281147547869952e-02 1.912957948558639473e-02 4.213725222135254744e-02 1.001308466774429723e-01 -1.232981954761397519e-01 2.557788946933363047e-02 7.608835732728669310e-02 1.348871511364953535e-01 5.162646605554691709e-02 2.173117608737907755e-02 1.030676322858284089e-01 -9.582414806207244229e-03 -5.456753612193651626e-02 -4.806428294232054088e-02 1.061365038310525949e-01 2.241291358887791130e-02 -2.040032643776346424e-02 3.442715442288449973e-02 7.872161488370714444e-03 1.667750156466569697e-02 -4.384513564565737515e-02 6.757774723935885963e-02 -7.515521037193545473e-02 1.020720158427165514e-01 1.017311873696876007e-01 1.199517796123725777e-01 1.282891019319856996e-01 -2.682683182415209963e-02 1.226459591238742222e-02 -1.058116488375187778e-02 1.943155145455385119e-02 -8.780622890463259111e-02 -7.365758853738257894e-02 1.009750847110396504e-01 -1.654053415897982493e-02 1.338386644738001341e-01 1.956176449683264679e-02 -9.452239723034970564e-02 7.404522814351173488e-02 1.430846579379261435e-02 3.735621015775017484e-02 9.341536322339917542e-02 -1.640731779917779104e-02 -8.141270983358031565e-02 9.413762084175772427e-02 1.312681561419186578e-02 1.097537589525161535e-03 -7.161709969898392980e-02 -8.461164979229673921e-02 1.404881819741589551e-02 -2.113213303822687045e-02 -6.085915685035778872e-02 -3.384771148457730444e-02 6.323822380680435562e-02 9.318789766390621343e-02 -7.491618684722491095e-02 -1.497727405571858302e-02 -2.313258453896361450e-02 6.817813239815818938e-02 -1.254957051251954503e-01 9.745107715634601653e-02 1.199966633601948635e-01 -1.059977463112214829e-01 4.453375384370853590e-02 -2.800665865705443541e-02 4.483300236410756381e-03 1.204922422464681925e-01 4.662335108861466459e-02 -6.417533944975061314e-03 1.191393901578406966e-01 -1.017477498841995315e-01 -1.314928665024261718e-03 -6.067510042740199838e-02 -1.235489550701672351e-01 1.771219437135373997e-03 -2.910253521322953701e-02 5.818511556041797844e-02 -3.121456694605806437e-02 -1.008674646510749201e-01 1.012621391443931512e-01 -1.016359588079556175e-01 -7.225446389464118546e-02 6.244980628951737195e-02 4.665360025030985958e-02 6.242661084919644277e-02 1.066162427407316010e-01 -5.824326760860999014e-02 2.953356754494970704e-03 -9.343663706300996130e-02 5.734896083237504827e-02 -8.617910771574778528e-02 -3.079121951153753183e-03 6.551051807248251327e-03 1.174047755557378891e-01 2.779917360342824481e-02 -1.391864341322621712e-01 -1.067390821632697995e-01 -1.171337483367849014e-01 1.153118585536099527e-01 2.357993763414551608e-02 -3.472547781619701041e-02 1.973028846671110587e-02 2.701487358473940448e-03 7.924665363853312938e-02 -5.499206972808753230e-02 -1.101980425701552246e-01 1.097921392105306523e-02 7.007326610473961492e-02 -1.120572474372069811e-02 -3.741867895554052553e-02 5.415404222710425847e-02 -6.137996524258516884e-02 -1.298962975516603502e-01 -1.215697794957440597e-01 5.326208739313480905e-02 -6.217140272648276345e-02 -4.732551320764084163e-02 9.996062397585001383e-03 5.365200017378663269e-03 6.758770404343006355e-02 -8.438974125665606174e-02 9.814699832990950168e-02 -4.980127821707563268e-02 1.849220236281728241e-02 1.053139633347562193e-01 8.458122055512019843e-02 1.218676037071303175e-01 3.701569588347069367e-02 1.091489681173907905e-01 -2.682449199725442379e-02 1.252137693240149008e-01 -8.470905976906503709e-02 3.012737856924541883e-03 -7.861642460359630213e-02 -7.032371890132839420e-02 -7.020231888342665094e-02 -1.318595585083886246e-01 -4.285339492237665027e-02 9.087833390907869291e-02 -2.945069983963621157e-02 -9.841901055024476763e-02 8.643179774027040518e-02 -1.247423269733888111e-02 -9.151693972862100235e-02 -1.089816551231919534e-01 -4.799942269895162567e-02 -3.332735946592682574e-02 1.197925393865112709e-01 5.594544536190309073e-03 1.101747036535843105e-01 -7.172324844595177884e-02 5.387905254021189277e-02 3.700973830105452889e-03 -1.402053011577013286e-02 -4.443085178680846598e-02 5.617811650161186506e-03 1.069342447631447951e-01 9.881511651749294231e-03 -3.170857623314683738e-02 -7.787998996023032250e-02 -1.261495934223776962e-02 -1.128341204830460298e-01 -9.547825740138739248e-02 -5.347766246014778319e-03 -3.151196825772239855e-03 9.405656259092148863e-02 -9.581696970985469075e-02
-7.984265393916774312e-02 4.713475003836744420e-02 -7.605593404094639076e-02 9.110008551142594058e-02 2.961244741943328332e-02 -3.239170338395928189e-02 5.631811568797801676e-02 -7.582907435022445686e-02 -1.424168416513464479e-02 8.883593432441952431e-02 1.086709765962516963e-02 3.511658474587621426e-02 -7.249587786311906257e-02 3.716551134675347839e-02 6.478247947359953851e-02 -1.351936207697889726e-02 -9.163421699010361465e-02 -5.722589144428052998e-02 -5.590398466701153313e-02 -5.366774098033215423e-02 7.175515867836149142e-02 -3.535893275318665457e-02 2.061120428298154547e-02 -1.129080585044996143e-01 3.244212522209718313e-02 -1.046447014850452814e-02 7.079377521253872596e-02 -1.047118313561353348e-01 -6.419909791158180667e-02 7.477235345166603764e-02 -3.423445331079204290e-02 -1.298026923768345886e-01 9.446458614087244188e-02 -8.442544137812132976e-02 -3.085332902497755700e-02 2.467685035282503325e-02 -8.629579002126369636e-02 -7.963780794346839165e-02 1.122010120953378237e-01 -7.901856788085004357e-02 -5.216209603216274276e-02 -4.295521367925061312e-02 1.008260935834169938e-02 -3.807950405482572048e-02 1.011389492931026451e-01 -1.925104936386836524e-02 3.155951068511103630e-02 8.687911996717384566e-02 7.688177714068274160e-02 -7.689092984973673606e-02 5.390166538265939861e-02 6.181706298718739334e-02 1.045693010885009322e-01 2.876293160095848636e-02 -1.136329179431408154e-01 1.786131369653162076e-03 -1.100452249030707819e-01 -1.031005562596089276e-01 -7.179919160132545997e-02 -5.984269251333718988e-03 -1.064167183614435630e-01 7.129184034393758196e-02 -4.828293725510119511e-02 -6.086560233607127973e-02 -5.075419698234246574e-02 -2.836870964975003566e-03 -7.736081457568920461e-02 1.280565284725289354e-01 -1.364818673624311994e-02 2.348552979553750197e-02 -9.347055601963137617e-02 7.449629862686425741e-02 5.040548768947122893e-02 -1.611258035463733126e-02 1.096941100027798155e-01 1.304141672487776071e-01 1.742977899108168888e-02 1.012144129479656401e-01 4.870370512009144365e-02 -1.156581032987881313e-01 9.370257840361503887e-02 -9.095864442475777578e-02 2.845774734383876847e-02 -6.970439213492964081e-02 -4.410206785340711061e-02 -4.152148485171890807e-02 -1.108969332229392674e-01 2.868623897641709580e-02 -6.513212162831157059e-02 -3.402219195863664253e-02 -7.508657058301344833e-02 -3.239614248619903519e-02 6.118601922670570403e-02 1.194536629030370362e-01 9.670875565321904177e-02 8.456187701366656151e-02 -7.643580084936982873e-04 2.154972386902320736e-02 8.028003256484644856e-02 -3.081015015117774883e-02 2.351637610958385097e-02 -6.912661749005116762e-02 6.967535621359091658e-02 -1.381556620136975277e-01 -5.015353536028947096e-02 -1.541593774252151272e-01 -5.763383975379090390e-02 -6.172008097249361003e-02 1.099060179031889350e-01 -6.725701273783749046e-02 -3.603625105396834200e-02 -4.793236984307879672e-02 2.104222771472914408e-03 3.166519796630573591e-02 1.175663804254919176e-01 -4.644803771416732008e-02 3.794484620937792901e-02 1.033480076346779963e-01 7.715861573764072612e-02 -7.201292912669406132e-02 1.341459298128775679e-01 -2.735473604772786782e-02 4.302352395743710978e-02 1.198738911587332867e-01 1.095020110929232314e-02 -6.091824306453603316e-02 1.000128830088878179e-01 -1.363247562991790063e-02 -3.582512904423191397e-02 -9.326097321560528064e-02 -4.815098112504258288e-02 -9.307730889071029468e-02 1.386095837656529939e-02 -7.446370227123454144e-02 -1.424626824317111184e-01 -1.567156751249592370e-03 -2.598879473948258363e-03 -5.963590254931362689e-02 1.287719304814770593e-01 1.072558183277448896e-01 -5.920212193104787586e-03 4.854067722249584028e-03 1.121471247927222359e-01 9.543173952796590864e-02 5.495689260193295511e-02 2.554511581363174810e-03 5.608311673335791142e-03 1.247868750192102916e-01 5.587971067925716351e-02 -7.298338523459939331e-02 4.899392495227917338e-02 5.026762932211591151e-02 1.064388114651846767e-01 -8.386504880212161672e-02 4.969143164270180268e-02 8.366031508046706255e-02 1.070565397059243806e-01 8.578394979411314847e-02 -3.465953340819680206e-02 -3.200226813382905933e-02 -5.003067033645539757e-02 -3.305230825694560615e-02 -5.145766793443105197e-02 -1.164360736352466064e-01 4.702037746440040911e-02 7.824947039496894796e-02 3.472997510856801195e-02 1.056659534876184248e-01 1.565459242546332272e-02 5.636003536424886301e-02 4.760042209245097383e-02 1.433785267805288144e-01 -2.021174988924137605e-02 1.002399448737984061e-01 -7.105022172937287828e-02 5.200949482198617690e-02 -1.086587841650425851e-01 4.453183531439607740e-02 -8.046083457451909393e-02 -1.394610274635899212e-02 5.977967995047979433e-02 3.819696908628977816e-02 -8.617266220290729917e-02 3.097929855307436295e-02 -7.372367334661479588e-02 -2.064659076791882514e-02 -1.858112706698518066e-02 -7.855977831943759815e-02 -2.368496312875858698e-02 -3.417305543930398981e-02 9.886557466186680909e-02 -8.113777123315123185e-02
9.053362445037343997e-02 3.813482869187038993e-02 -1.922018873852352969e-02 7.276830133149304880e-02 7.507481606810399721e-02 1.209759376020871080e-01 -4.928317858246556576e-02 5.108168664280558074e-02 1.111334698099057938e-01 -9.739921554147802640e-02 -4.009671002001964635e-02 5.451171092894450260e-02 -8.465865213198931968e-03 -1.338218394206464046e-01 -8.519956189304699057e-02 2.930937812653667054e-02 -8.767635370306121889e-02 2.616076397024486716e-02 -3.300167437231900369e-02 -6.141052069801782032e-02 5.942538365329570749e-02 1.324418849164668843e-01 -3.055359477399269968e-02 7.465012480721044952e-02 3.461164248372167879e-02 4.192965661231896207e-02 4.255707365329273323e-02 -2.548274233213531845e-02 -5.674442204569325743e-02 -1.354257926473529717e-04 6.541523755904586623e-02 5.600598194938138236e-02 7.673479048554161797e-02 -7.316018459876695579e-02 -8.331376880471778879e-02 -3.442943126550191552e-02 -1.134163521630641713e-01 -6.942002269816563431e-02 5.607536185012474556e-02 -2.785647464437396130e-03 7.562186475834731247e-02 4.901548736086020625e-02 -2.891781009785657566e-02 -4.557404037879033559e-02 7.675044946532252887e-02 8.524509880955748187e-02 4.224651514437315070e-02 1.103842972214533757e-01 -9.741561725812306061e-02 -8.885325811225838755e-02 9.540824099691007365e-02 9.573976103161076223e-02 3.867378451157339053e-02 -1.139823828086721225e-01 4.413556691950714511e-03 -8.805511197398552259e-02 -9.855961985600605879e-02 -4.857312485975088384e-02 2.017286960258015197e-02 -1.362600868004842369e-01 1.133927301870303189e-01 7.041799797974854225e-02 -1.007617382384629889e-01 -1.746700047011489482e-02 -9.385449419333827259e-02 6.856459375078441387e-02 6.260992510569099445e-02 1.936012071324742095e-02 1.182711442081640640e-01 1.134486761459017057e-01 1.596568139837152567e-02 7.668173017174774453e-02 -9.728222120612320389e-02 2.428474541943922635e-02 -8.173943576368342123e-02 -1.153536843637448413e-02 1.024165753661344588e-02 7.751399252410458296e-02 -1.010629755491706666e-01 6.235046876397454252e-02 -1.156068892578669335e-02 -1.847858530407490985e-02 2.479756311882805320e-02 -7.397342860517504802e-03 3.342392418526057840e-02 -9.564294908651600757e-02 -3.209977814146051239e-02 4.679526273518757815e-03 5.877569942401923708e-02 3.927908467590283947e-02 9.676031016947188312e-02 6.765950936464310006e-02 9.089668647955545522e-03 -1.174201622122128252e-01 -1.052841732335114411e-01 1.113893822443771803e-01 3.846132119736053734e-02 -2.866414156746524208e-02 2.181302905797793609e-02 -8.177044174191623604e-02 9.157632350022668066e-02 1.958975958147583449e-02 3.877738767144035814e-02 7.086576081977171392e-03 -4.405134676970812874e-02 -5.077092326974068370e-02 -2.814868475544640009e-02 1.536992956713510022e-02 3.766275871519134816e-02 5.332809191578919555e-02 -4.931280256052143068e-02 3.617859632318840696e-02 6.168295191204951032e-03 -4.092124095746577095e-02 -4.615577299827273300e-02 1.827289699970374021e-02 -5.597124820621588587e-02 9.708445897944288638e-02 -1.637938958208808721e-02 2.072657651087802741e-02 -2.292702055945245246e-02 -1.381380196400770581e-02 -8.552403894165014342e-02 -3.223736514450978308e-02 -1.113505267849565494e-01 1.469348181272687841e-02 -1.707670416792922072e-02 7.140975029416563730e-03 9.701005266209895839e-02 -8.276952393209124903e-02 5.420111282144102899e-02 6.106552464833046173e-02 1.198075550391994731e-01 6.875806731716445352e-02 -6.282309832178016584e-02 3.949200997442497280e-02 1.807191053752972218e-02 6.243237268984560412e-02 -6.616765780635248950e-02 6.009104538464554723e-02 -1.082124191380101769e-01 -1.154739248004659456e-02 -3.811307230797661427e-02 -9.265614485063607131e-02 -5.321267323545800232e-02 -1.508377235201535382e-01 -1.135054074333437663e-01 9.233711378020119376e-02 4.832462067470494338e-02 -4.601172629325056551e-02 8.694859474511693054e-02 4.548579369812897483e-02 -8.818770033191539182e-02 -9.630816685739225502e-02 -9.253726484820976039e-02 9.361447415413021167e-02 1.637013080856007108e-01 -4.057983181812752776e-02 -1.042065023017368780e-01 1.034126111492422555e-02 -1.914546426316779664e-03 1.216345563847461980e-01 1.000965369278726536e-01 1.096208132959537312e-01 8.872462392975055678e-02 3.837757831728939861e-02 1.375231516849838853e-01 4.946327616523047560e-02 -1.468161302255792666e-01 -1.160325499001481353e-01 -6.875895019226467564e-02 6.412483618887848680e-02 -4.661715026425174851e-03 5.120720666214560735e-02 9.766952232753726981e-02 4.427629690523193079e-02 -1.804960003277155875e-02 7.447549153048227399e-02 1.205223779891928110e-01 7.055061378903287710e-03 5.155959588918569009e-02 -1.230124774014122596e-01 9.437784408567224601e-03 -9.833526568500415566e-02 -9.358959740027147922e-02 7.161956864922598698e-02 3.869582159035449276e-02 -3.654549306349952342e-03 1.062404315493775536e-01 6.074806206989447066e-02 -6.654774145479683267e-02 1.185040189966148592e-02
-4.400533567948354541e-02 -9.298697948459795637e-02 -2.688355948645744856e-02 -1.270481084395090046e-03 1.646447595172375114e-02 1.281149737508859299e-01 -5.955935120817700684e-02 3.634502139744342358e-02 -2.847940218229440962e-02 -7.305560321347115416e-02 -5.266181387302299594e-02 -2.617750898253898284e-02 -1.079362594918977653e-01 3.061014845841038973e-02 8.494679581589589801e-02 1.167764702770144880e-01 -5.724019681652161261e-03 -8.219238013547172650e-02 1.035593827265222054e-02 -6.025273839907999140e-02 -2.480088389895986761e-02 -8.239164784522963469e-02 -1.167581764002432465e-01 7.594098733381854371e-02 -8.947098478481772810e-02 8.824712886195194839e-02 1.456458421502328585e-02 9.421249633431394432e-02 1.195781107611740696e-01 -1.043006150370637403e-01 5.030290817444920543e-02 3.581214538481223252e-03 3.189412086947998604e-02 9.393375071388990194e-02 8.109980053558536739e-02 -5.399908592621493336e-02 -9.956772713819395104e-02 9.247145516969401333e-03 -3.285043068595369653e-02 7.073708579370592553e-02 -1.302281051851041926e-01 -8.308315339827766766e-02 -1.034640198460863997e-01 4.614941003794621049e-02 -6.454230437687070998e-02 6.891672817296820575e-02 1.328252414828470871e-03 -2.175202103647079499e-02 -6.946365351354810702e-02 1.037394965905854144e-01 3.515880981444805681e-02 6.805223943646385859e-03 -7.099127368019552548e-03 4.146761447806594086e-02 -8.243631975712137350e-02 7.997998310603625371e-02 -6.577681224652369429e-02 6.496300331284076551e-03 -9.712875342016075164e-02 1.506892065397092556e-02 -1.883255579259157653e-02 3.463704361215445143e-02 -4.589528909466036866e-02 -6.564797161517627044e-02 -5.831876061420760565e-02 -8.088038759543311751e-02 -4.426753927117218351e-02 -6.489170666704771606e-02 -1.113102903804525645e-01 -1.881142796412074367e-02 1.122685523949752268e-01 8.671340705895386192e-02 6.049898229348512485e-02 1.302818520476969333e-01 7.704326912654622939e-02 7.080288838276281582e-02 5.076860045004284033e-02 -2.325899529324499185e-02 -9.046863882372042920e-02 -1.561417187429754499e-03 7.940040760967624622e-03 3.845705742752542067e-02 1.826820241380631635e-02 1.062219344906359664e-01 -7.865608131483138588e-02 -1.091292236282381256e-01 4.502135141057878043e-02 1.019459616355245998e-02 -9.633594487168151144e-02 7.069123773833008162e-02 7.191856226434069355e-02 -8.761923318770871438e-02 6.369572748091897885e-02 -1.155544751268004350e-01 3.528225629705027122e-02 4.321814922236916906e-02 1.117555717667746557e-01 -8.912083765129176494e-02 -1.162161298824934512e-02 -5.932323357755516641e-02 3.002305532278264771e-02 -4.564498830838773641e-02 5.681632200709357816e-02 -4.833219563263176782e-02 -1.190464657238437252e-01 -1.154318954420800042e-01 1.055085937758584863e-01 -6.308917297486207887e-02 5.636137837490302893e-02 2.856566063688174492e-02 -3.863336198688002016e-02 -8.784034519952146902e-02 -2.824555978892870703e-02 4.142515593714072956e-03 -3.738456854289340381e-02 1.381321475767032132e-02 -2.689041017438649483e-02 2.798871442213790584e-02 -5.034706644858080032e-02 9.766978645579722784e-02 -9.768423590459054950e-02 1.355892679955821023e-01 2.237461263390022950e-02 -2.239343985620838653e-02 8.921591564228180393e-02 2.158146544425475211e-02 -4.709693221690982451e-02 -1.363322091378571799e-01 -5.270087060856774169e-02 -7.299643759741637761e-02 -6.863745077660163285e-02 -8.453509003731213278e-02 6.959968467535745940e-02 -1.293215488825385541e-02 5.845452023716600498e-02 -4.108284205542025509e-05 8.700402460374169478e-02 -3.670046047219517604e-02 -7.081479917415557657e-02 7.930216843252585468e-02 5.015405119638565584e-02 4.861443008978224428e-02 8.104646484993156819e-02 1.092362267191614722e-01 -2.156210479889687087e-02 1.731517454330131975e-02 8.915706898554699722e-02 1.220169123723923027e-01 6.834115559875547814e-03 -1.171890276552638686e-02 -7.156152557758237165e-02 1.432786341743433507e-02 -3.779267507684877514e-02 -1.754270899808456352e-02 1.002804135102526029e-01 -1.072773926660330335e-01 1.195406315763436651e-03 9.783817387973332835e-02 -7.172280706017472585e-02 3.250860030053092514e-02 9.704454307227354526e-02 1.443011491116232281e-01 3.338536404238652555e-02 1.623341646711830843e-01 4.071750669442800868e-02 6.111867065483332292e-03 5.904275743509729973e-02 1.135670697376990890e-01 1.094268881566831386e-01 4.238928321699648311e-02 -8.724292122949041384e-02 -3.508981183438780738e-02 -3.032835727613163168e-02 -4.377957050918493409e-02 8.957538986157798089e-02 8.196338152994621373e-02 1.017297578542240705e-01 1.379636419556710125e-01 -1.040126170191378596e-02 3.851812718385170392e-02 5.460080962070192057e-02 6.830240153192648767e-02 -2.849388339388139041e-02 9.877760160567070069e-02 8.362886588636435359e-02 6.966758726122949941e-02 2.185953951945124318e-03 8.646666400298189115e-02 6.403494432652391544e-02 1.109237718392895033e-01 5.814894430220690375e-04 1.491819104864308687e-01
-3.893546678972546055e-02 4.801882685320498639e-02 -7.854379828673636529e-03 1.515031258948553242e-02 1.026621221438141079e-01 5.382850762604261124e-02 1.227885647934864877e-02 -7.144565046971988742e-02 -9.387783748812028595e-02 4.468338544575573695e-02 6.524497103896151340e-02 1.301618525006078275e-01 1.834314050768242124e-02 1.123999432400334120e-01 -1.229123579925047068e-02 -1.053168518527242969e-01 7.118688199063437361e-02 4.909006966938705974e-02 1.459734172426500366e-02 -2.732930429131973614e-03 -5.452589214621799546e-02 -9.538019133434921804e-02 1.000141827460923789e-02 8.050093866489700656e-03 -1.247007068656146370e-02 -6.810116776921854020e-02 4.992090382585126496e-02 9.124236434137364404e-02 -5.465755654967684174e-02 -7.296300490463598909e-02 -6.908565780669130574e-02 -5.926520371656630870e-02 -1.907782674867486428e-02 9.999343165171675762e-02 -2.461926932171516758e-02 -6.743281735824308010e-02 7.915111483208066290e-02 -1.047326939197242845e-01 4.233922261831304240e-02 -2.663357781985973768e-02 -9.891445293019028584e-02 -7.320047125873224703e-02 -8.710367795033567562e-02 9.366148615923839196e-03 1.822303891104062532e-02 -7.750346065945100914e-03 -1.957152441395282327e-02 -6.217341948382219124e-02 -7.359349520200363093e-02 7.354683499255744439e-02 -6.400684160646795406e-02 -1.053287124389128138e-01 -1.056464882383608417e-01 -1.097532015420649015e-01 3.775262147153830156e-02 -3.628426803441655440e-02 9.106338904598880457e-02 -5.988301490219781475e-02 -6.520046233031784322e-02 -6.248176672967661882e-02 6.397608001107127351e-02 -3.836317187189140776e-02 3.019968430570931991e-02 5.294980357457346881e-02 4.935384231556448620e-03 -6.501982216842293327e-02 -4.520943122012785476e-02 1.262007273090671733e-01 -2.357199257368164727e-02 -1.729272355320532820e-02 -1.013810483078356195e-01 -6.131283946390971018e-02 6.511064504995664470e-02 -6.543262948875112894e-02 8.540375330477593951e-02 1.138192967576141107e-01 -4.650689630844479644e-02 -1.061560018683041090e-01 2.890344408804888104e-02 1.160379907088752473e-02 -1.127369198081029922e-01 8.346796208457579747e-02 -9.669092405202131535e-02 -1.174571680895968306e-01 6.583537126141168760e-02 -1.359438762748038376e-01 1.009450297983569417e-01 -6.784142220243633004e-02 8.391537802840100257e-02 5.599059173289237801e-02 -1.624978863000564903e-03 3.273126496068321650e-02 -1.197892130257698778e-01 1.163103644533373688e-03 -7.594014428001792660e-02 -1.280174077223991402e-01 1.599304715461336707e-02 7.193286202343816306e-03 -5.364046239000236360e-02 2.531380310678527437e-02 -6.991312616669485835e-02 9.010141373079576244e-02 3.978429118583878300e-03 6.473949703398912403e-02 -7.267312886263087301e-02 8.584943939446965100e-02 1.082184706461776502e-01 -4.697975020761350345e-02 -1.223446795518781140e-02 4.209310091680991406e-02 4.930314974478143542e-02 -6.286790023992826215e-02 4.944331334102945730e-02 -4.174289365456773648e-02 -8.159500403770113264e-02 1.129150733195534301e-01 -4.288344496359534908e-02 -9.243157780289902592e-02 -1.122383366920535058e-01 -1.501599802838688921e-02 6.364041009727633424e-02 -1.033557872517245624e-01 1.772078734123869528e-02 1.172023818159003555e-01 1.107121847307465518e-01 -7.470034899845588716e-02 -1.193251101972084144e-01 6.114093268903571937e-02 -1.984240912006380794e-02 3.802327990762115195e-02 -7.774552538746376529e-02 -5.439010103699305765e-02 6.738888957414841674e-02 -1.448657665914732939e-01 2.771511763709964826e-02 -3.187163001378402749e-02 2.018764292787814107e-03 -1.205956784422897998e-01 -1.889809845806592753e-02 6.633525071421044784e-03 9.376807481487177409e-02 1.050178072479902719e-01 -1.007801896943259778e-01 -8.517647950379823168e-03 -5.235766642819317251e-02 7.199923478163051255e-03 -2.988512030204866152e-02 -8.153532850875959415e-02 1.998487167984295057e-02 7.539329813872580610e-02 3.626610474138323992e-02 -9.305793187595595706e-02 1.045168326168110784e-01 -1.110930600113470973e-01 4.161200308832969930e-02 -8.553200666519950035e-02 -3.893828673027110998e-02 -4.750380119818893576e-02 -8.142090921641066681e-02 -5.472122554414281942e-02 -6.039747267856286628e-02 -7.030500420898380676e-02 1.120475932230908661e-01 4.830845188820690611e-02 -3.497932169911276840e-02 -8.889621967606659014e-02 1.044478753682605982e-01 -3.977630777169395560e-02 -3.785187109165841918e-02 -1.195796169087160743e-01 -1.144153583010600883e-01 8.312286417987553577e-02 -2.478273247031961835e-02 6.741264191227065716e-02 -5.627598000142573775e-02 -1.075323920035588417e-02 -2.954437066969790165e-02 5.360619418437782835e-02 -1.447070617787455105e-01 1.022565893370321055e-01 3.783782686662674061e-02 3.569176428344419949e-02 1.267363578587010764e-02 -8.153087595542421462e-02 5.279132265491972426e-02 -3.251489118085991448e-02 1.503577216633521785e-01 7.207978606381031106e-02 5.431674544454316578e-02 1.125544280527350643e-01 -6.421222478386211241e-02 9.215047202519607850e-02
-1.260638346018404521e-01 -1.201416425483306377e-01 -1.181146911297040365e-02 7.636673211012584561e-02 -9.172726106739878191e-03 1.097376294638966049e-01 3.266139072852225489e-02 8.261288649123964961e-03 6.305840549546835871e-02 5.764204813588112708e-02 6.035830453534943990e-02 -7.991667532922896999e-02 4.422476623884681601e-02 -2.072552588725421613e-02 3.586470691357000057e-02 9.448178755581609911e-02 6.226377709201191823e-02 -1.639005653689713099e-02 7.336630872187220598e-02 6.805797355477624655e-02 -7.551252750001717640e-02 -1.008906808350688161e-01 5.789030011029797779e-02 -5.140521858520534504e-02 -1.269277944835336958e-01 -8.967312701893707938e-02 -5.302066193737555583e-02 -1.324407623323931582e-01 2.777090318530413618e-02 -7.379218949935019423e-02 -3.880321365371677822e-02 1.008038645659150995e-01 -6.360842717054678019e-02 7.381789268264893344e-02 1.381431751251490647e-01 1.047447355384657913e-01 -6.918333670075046959e-02 8.662049812427316531e-02 9.551512485036355027e-02 -3.806316145975069398e-02 -3.123937407386818618e-02 1.474395365479648778e-01 4.444510002018605549e-02 1.018168896214620561e-01 1.156954777507759186e-01 7.961931482008618999e-02 2.772263058084251802e-02 -2.379798084463776581e-02 -7.575730784095728587e-02 -2.439202707738080504e-03 8.209933216817527635e-02 -1.167651307040202119e-01 5.172844615860280187e-02 6.980777970738521326e-03 -1.680461025205969017e-02 -1.253109792641619868e-01 5.343756712406654702e-02 -2.484820446478875830e-02 -8.237932985591309154e-02 -8.685933959159906903e-02 -3.429578288863861790e-02 -8.511176446185779454e-02 -1.079031545085147314e-01 1.267013171580793074e-01 6.197493427731370214e-02 5.132184145791120200e-02 4.906671782448775859e-02 -9.053440873308027381e-02 6.260046333573827948e-02 7.913339940987847154e-02 -1.072764412112283822e-01 2.468341020302826025e-02 -3.511761657122545316e-02 -7.419586747690305219e-03 -3.210297034309665676e-02 -4.618637858483756048e-02 -3.500609084203780419e-02 -3.031133672847063573e-02 8.659695116437590712e-02 3.918004629158689661e-02 7.406486477776677568e-02 7.882170025769719146e-02 -5.385632086308389521e-02 6.270411085615651414e-02 -8.529945742341815684e-02 -7.046486518082498152e-02 -1.010680869888009037e-01 -3.763750002709573272e-02 -5.505629276948792450e-02 1.137115971115590374e-02 -7.760137040272616082e-02 7.080543614284100229e-02 -4.615778413952857651e-02 -9.309067334228089685e-02 7.928229240289460383e-03 5.333691092612855011e-02 -1.144324311555896950e-01 -1.520888935081800113e-02 4.332829435447499433e-02 5.279449127626783395e-02 -1.227136390916061387e-01 -5.047699341403896756e-02 1.692341286841267736e-02 -2.174857132349596045e-02 5.376262624399941875e-02 1.134314126810296100e-02 5.632864013442182710e-02 6.004201847166080325e-02 -7.993848473089369688e-02 -5.848502374407081594e-02 -5.396697610482186630e-02 -1.241567473401254118e-01 2.628613810749820881e-02 4.572833926777866015e-02 7.846628676049410833e-02 -3.376844059508760099e-02 -1.206143605563018001e-01 -3.962137703819638979e-02 1.011617338032068103e-01 4.949570296600673547e-02 -1.091060208472780513e-01 -1.341299571380799582e-01 7.962857794611791218e-02 -5.599669214173350756e-02 3.618575821552830196e-02 1.162464791771937803e-02 4.821879373065971613e-02 -3.126259945025260112e-02 -2.845429555101052638e-02 -2.724069893994521957e-02 -1.562282664627012013e-02 5.291222562963797393e-02 1.134497958361246062e-01 -4.973573659330442903e-02 6.842597057775418046e-02 3.162614495510855661e-02 -8.917729254567222097e-02 -2.155999798462588171e-02 5.311041741127172505e-02 -6.730032901605323414e-02 -7.689930770233355251e-02 -8.724793861710644638e-02 4.932597844904298284e-02 -8.779787701974940684e-02 7.728183067039091914e-02 -1.576632919321778181e-01 -6.587291835674752294e-02 -5.795513027805914569e-02 -9.886644300398866880e-02 7.310165522080379341e-02 8.824215975171605109e-02 -1.120876753223421507e-01 5.533728465792644297e-02 -5.513750373776412500e-02 1.250512675642048432e-01 1.453840304842666815e-03 -1.658045283395868930e-02 -6.053580573794278136e-02 -9.329634245481656374e-02 6.652436730891234107e-02 -3.842079493926956065e-04 3.180183619402369988e-02 -4.153499226208205025e-02 7.436274264829670355e-02 4.059933836175051020e-02 9.850336357845140833e-02 7.835812888478460581e-02 1.488075285603071909e-02 5.788925824979491291e-02 1.147267866028331938e-02 -3.536831898510478522e-02 7.177067993965669836e-03 -5.558419174369189780e-02 -1.514854156933788040e-02 4.451632436450775332e-02 5.056925006269601813e-02 5.239852127829670858e-02 -1.021531415826484879e-01 -2.615691652761436767e-02 -8.899307620374052874e-02 -2.062976855069077395e-02 -1.138515571165042983e-01 4.833795451104038604e-02 3.038714541039525333e-02 -1.159291633966292312e-01 -1.047682856672715358e-02 7.069435971285682740e-02 3.525582038204271712e-02 -1.034998818753088828e-01 1.544410617116155071e-01 4.615740376145788942e-02 1.039609691064692781e-01
